svm_type c_svc
kernel_type rbf
gamma 2
nr_class 2
total_sv 2882
rho 0.668486
label 1 -1
nr_sv 1110 1772
SV
0.6272118201862258 1:-0.734912 2:0.149223 3:-0.259777 4:-0.899813 5:-0.163628 6:-0.818903 7:0.385742 8:-0.18481 9:-0.198003 10:0.735 11:0.128121 12:-0.38464 13:-0.868948 14:-0.775793 15:-1 16:-1 17:-0.685149 18:-0.65688 19:-0.521792 20:-0.643701 21:-1 22:-1 23:-1 24:-1 25:-0.289493 26:-0.398207 27:-1 28:-1 29:-1 30:-1 31:-1 32:-1 33:-0.889984 34:-0.00556127 35:-0.750872 36:-0.799301 37:0.209799 38:-0.863891 39:-0.201264 40:-0.755029 41:-0.539545 
1 1:-0.755983 2:0.0956689 3:-0.2928 4:-0.200595 5:0.304485 6:-0.658914 7:0.629969 8:-0.0351815 9:-0.0296681 10:0.0811803 11:-0.835845 12:-0.19091 13:-0.623205 14:0.284373 15:-0.619056 16:0.232575 17:-0.249639 18:0.00684993 19:-0.151432 20:0.0849936 21:-0.179437 22:0.673927 23:-0.180985 24:1 25:-0.147124 26:0.118322 27:-0.324105 28:-0.0319222 29:0.319307 30:-0.217944 31:-0.393288 32:-0.862309 33:0.0445302 34:0.57055 35:-0.735468 36:-0.0108344 37:0.235172 38:-0.759519 39:0.122277 40:0.178591 41:0.114294 
0.2205399812330874 1:-0.684059 2:0.0904977 3:-0.530388 4:-0.956422 5:-0.117941 6:-0.643128 7:0.384709 8:-0.0276254 9:0.568824 10:0.730217 11:-0.0361461 12:-0.660321 13:-0.783811 14:-0.651508 15:-1 16:-1 17:-0.719563 18:-0.723348 19:-0.766602 20:-0.873488 21:-1 22:-1 23:-1 24:-1 25:-0.85047 26:-0.429721 27:-1 28:-1 29:-1 30:-1 31:-0.801517 32:-0.499169 33:-0.948258 34:0.100151 35:-0.681519 36:-0.641525 37:0.322354 38:-0.714584 39:0.0702305 40:-0.839886 41:-0.564385 
0.1798195717011301 1:-0.659814 2:0.104202 3:-0.269334 4:-0.804976 5:-0.273367 6:-0.770118 7:0.400494 8:-0.054424 9:-0.121094 10:0.630802 11:0.453671 12:-0.314577 13:-0.914905 14:-0.734935 15:-0.836372 16:-0.599845 17:-0.801484 18:-0.497295 19:-0.918369 20:-0.567913 21:-0.781191 22:-0.591004 23:-0.72637 24:-0.489496 25:-0.777544 26:-0.90801 27:-0.348617 28:-0.969887 29:-0.510761 30:-0.65125 31:-0.757585 32:-0.821631 33:-0.756843 34:0.0309503 35:-0.763335 36:-0.682857 37:-0.0609234 38:-0.629375 39:-0.086338 40:-0.214674 41:-0.623898 
0.03388243798025849 1:-0.409147 2:0.0445165 3:-0.0859303 4:-0.885551 5:-0.19609 6:-0.7441 7:0.11158 8:0.0542176 9:-0.627714 10:0.766847 11:0.172777 12:-0.25041 13:-0.712094 14:-0.846859 15:-1 16:-1 17:-0.707737 18:-0.68768 19:-0.518 20:-0.770957 21:-0.969901 22:-0.669813 23:-0.65955 24:-0.641682 25:-0.560862 26:-0.976961 27:-0.807166 28:0.150873 29:-0.416235 30:-0.741999 31:-0.300573 32:-0.331627 33:-0.930185 34:0.0223248 35:-0.66326 36:-0.307383 37:0.289155 38:-0.841234 39:0.631702 40:-0.634268 41:-0.550427 
0.1148833006743679 1:-0.579216 2:0.298333 3:-0.343694 4:-0.485477 5:-0.347999 6:-0.723826 7:0.491893 8:-0.346858 9:0.0923632 10:0.363425 11:0.512616 12:-0.11066 13:-0.58054 14:-0.510551 15:-0.468259 16:-0.220962 17:-0.517741 18:-0.424708 19:-0.494805 20:-0.346265 21:0.00611201 22:-0.889964 23:0.12488 24:-0.799235 25:-0.517802 26:-0.856781 27:-0.398904 28:-0.930036 29:-0.19502 30:-0.630222 31:0.247941 32:-0.441335 33:-0.840425 34:0.270094 35:-0.671297 36:-0.852865 37:0.307299 38:-0.783334 39:-0.0656193 40:-0.163417 41:-0.424754 
0.3022724937476165 1:-0.567817 2:0.276252 3:-0.34024 4:-0.486541 5:-0.383871 6:-0.712223 7:0.478068 8:-0.303722 9:0.0806267 10:0.369221 11:0.578457 12:-0.1312 13:-0.65231 14:-0.510237 15:-0.546528 16:-0.239805 17:-0.540942 18:-0.410928 19:-0.476827 20:-0.329545 21:0.0553759 22:-0.862404 23:-0.579133 24:-0.850461 25:0.0779756 26:-0.845753 27:-0.215654 28:-0.62492 29:0.138393 30:-0.339454 31:0.251468 32:-0.409415 33:-0.81554 34:0.274967 35:-0.727878 36:-0.818013 37:0.326152 38:-0.780276 39:-0.0259546 40:-0.0362398 41:-0.433869 
0.3913114926442773 1:-0.605666 2:0.140548 3:-0.253722 4:-0.744442 5:-0.262034 6:-0.777386 7:0.383553 8:-0.127342 9:-0.168881 10:0.591474 11:0.404482 12:-0.192384 13:-0.874917 14:-0.661675 15:-0.666712 16:-0.355744 17:-0.727096 18:-0.64621 19:-0.6392 20:-0.180069 21:-0.63882 22:-0.454231 23:-0.586689 24:-0.592119 25:-0.0208847 26:-0.230372 27:-1 28:-1 29:-0.839657 30:-0.922389 31:-0.038686 32:-0.225889 33:-0.805235 34:0.153519 35:-0.764935 36:-0.669275 37:0.182776 38:-0.645004 39:-0.0184368 40:0.0718948 41:-0.550916 
0.01316935149280276 1:-0.68755 2:0.131705 3:-0.215495 4:-0.85802 5:-0.230504 6:-0.766973 7:0.397847 8:-0.114294 9:-0.311904 10:0.681973 11:0.324639 12:-0.401219 13:-0.807609 14:-0.75127 15:-0.69123 16:-0.6779 17:-0.643354 18:-0.568388 19:-0.12538 20:-0.322969 21:-0.385884 22:-0.766279 23:-0.631517 24:-0.601068 25:-0.451475 26:-0.81676 27:-0.580056 28:-0.606598 29:-1 30:-1 31:-0.373893 32:-0.602845 33:-0.853248 34:0.0769602 35:-0.745283 36:-0.835406 37:0.176395 38:-0.784597 39:-0.156249 40:-0.631065 41:-0.511301 
0.854251455280538 1:-0.439186 2:-0.0838229 3:-0.105547 4:-0.596569 5:-0.341611 6:-0.735244 7:0.290403 8:0.240522 9:-0.499981 10:0.467553 11:0.498523 12:-0.0903995 13:-0.476145 14:-0.66947 15:-0.591999 16:-0.566747 17:-0.47965 18:-0.400922 19:-0.49845 20:-0.0336849 21:-0.642525 22:-0.780089 23:-0.551786 24:-0.450255 25:0.328065 26:-0.698973 27:-0.727156 28:-0.742514 29:0.218593 30:-0.135616 31:0.151385 32:-0.474563 33:-0.692418 34:0.134766 35:-0.745309 36:-0.691442 37:0.0912654 38:-0.863392 39:0.322816 40:-0.139988 41:-0.42921 
0.009205619612756193 1:-0.44934 2:-0.115053 3:-0.11531 4:-0.564423 5:-0.365724 6:-0.744346 7:0.290848 8:0.290121 9:-0.477904 10:0.416811 11:0.558713 12:-0.0635433 13:-0.418137 14:-0.298621 15:-0.477595 16:-0.688613 17:-0.470922 18:-0.837974 19:-0.467603 20:0.00839706 21:-0.607311 22:-0.783028 23:-0.457691 24:-0.665677 25:0.377551 26:-0.623202 27:-0.719187 28:-0.709043 29:0.205527 30:-0.181714 31:0.147723 32:-0.523521 33:-0.707643 34:0.156025 35:-0.791628 36:-0.68074 37:0.0457235 38:-0.857274 39:0.213262 40:-0.171952 41:-0.442644 
0.3227147301815518 1:-0.556077 2:-0.0872783 3:-0.168902 4:-0.609273 5:-0.348935 6:-0.744369 7:0.378491 8:0.267474 9:-0.367951 10:0.43564 11:0.555681 12:-0.147526 13:-0.59906 14:-0.635745 15:-1 16:-1 17:-0.500434 18:-0.83222 19:-0.528271 20:0.0226071 21:-0.547795 22:-0.660847 23:-0.521524 24:-0.520571 25:0.172072 26:-0.58643 27:-0.712604 28:-0.774024 29:-0.718504 30:-0.304321 31:0.269273 32:-0.5894 33:-0.792751 34:0.111771 35:-0.690737 36:-0.785774 37:0.140769 38:-0.896407 39:0.177241 40:-0.181024 41:-0.361519 
0.3732748239180483 1:-0.479569 2:-0.106492 3:-0.155669 4:-0.705051 5:-0.259049 6:-0.753783 7:0.279807 8:0.314649 9:-0.421465 10:0.574692 11:0.33925 12:-0.135639 13:-0.462837 14:-0.782375 15:-0.63435 16:-0.564057 17:-0.529671 18:-0.821608 19:-0.510416 20:-0.602174 21:-0.0748286 22:-0.313114 23:-0.588554 24:-0.488875 25:0.399496 26:-0.589929 27:-0.926208 28:-0.828679 29:0.410961 30:-0.625902 31:-0.483111 32:-0.571769 33:-0.789802 34:0.0394146 35:-0.704015 36:-0.755318 37:0.0147978 38:-0.823872 39:0.278301 40:-0.423804 41:-0.487359 
0.2169865563789432 1:-0.276916 2:-0.15435 3:-0.0967375 4:-0.703255 5:-0.27619 6:-0.765489 7:0.0677931 8:0.367118 9:-0.546003 10:0.593458 11:0.358351 12:-0.00228333 13:-0.280533 14:-0.779115 15:-0.538144 16:-0.521388 17:-0.482229 18:-0.799268 19:0.0391414 20:-0.511649 21:-0.13521 22:-0.271597 23:-0.585006 24:-0.490123 25:0.376167 26:-0.374481 27:-0.936929 28:-0.783826 29:0.507866 30:0.140877 31:0.082567 32:-0.332513 33:-0.752387 34:0.0968265 35:-0.745825 36:-0.584477 37:0.0739569 38:-0.886134 39:0.815254 40:-0.433297 41:-0.433847 
1 1:-0.248938 2:-0.17739 3:-0.0115944 4:-0.613152 5:-0.326031 6:-0.725605 7:0.121681 8:0.344559 9:-0.664709 10:0.507713 11:0.417623 12:-0.036104 13:-0.197523 14:-0.647954 15:-0.491929 16:-0.536594 17:-0.391193 18:-0.720822 19:0.0718294 20:-0.690945 21:-0.385475 22:-0.267077 23:0.330466 24:-0.662816 25:0.332271 26:-0.50135 27:0.142195 28:-0.713472 29:0.411275 30:0.0894992 31:-0.494742 32:-0.508719 33:-0.813079 34:0.0884761 35:-0.712375 36:-0.633052 37:0.073644 38:-0.89699 39:0.637619 40:-0.194062 41:-0.400634 
0.1150336680833828 1:-0.237753 2:-0.188116 3:-0.0507865 4:-0.677136 5:-0.311047 6:-0.750585 7:0.0517072 8:0.389606 9:-0.619829 10:0.556405 11:0.4145 12:-0.0130515 13:-0.131558 14:-0.536289 15:-0.343206 16:-0.697864 17:-0.351516 18:-0.83722 19:0.0990046 20:-0.633398 21:-0.316619 22:-0.308311 23:0.245182 24:-0.542404 25:0.209029 26:-0.485607 27:-0.751296 28:-0.68683 29:0.384737 30:0.138053 31:-0.0313436 32:-0.27892 33:-0.844167 34:0.129724 35:-0.740979 36:-0.506388 37:0.0965542 38:-0.925695 39:0.650097 40:-0.445889 41:-0.294355 
0.4436551215767885 1:-0.750171 2:0.0712313 3:-0.304495 4:-0.549553 5:0.207362 6:-0.689652 7:0.549693 8:0.00109747 9:-0.00510272 10:0.308306 11:-0.792757 12:-0.343102 13:-0.470028 14:-0.346071 15:-0.460705 16:-0.369371 17:-0.526478 18:-0.342028 19:-0.523225 20:-0.131514 21:-0.125657 22:-0.354996 23:-0.130183 24:-0.236156 25:-0.421932 26:-0.214582 27:-0.595133 28:-0.184469 29:-0.532254 30:-0.203099 31:-0.0223463 32:-0.792515 33:-0.775654 34:0.295919 35:-0.536721 36:-0.678421 37:0.284388 38:-0.73425 39:-0.143209 40:-0.453913 41:-0.177682 
1 1:-0.543723 2:0.1974 3:-0.22789 4:-0.516498 5:0.112465 6:-0.767197 7:0.394734 8:-0.206566 9:-0.212074 10:0.341483 11:-0.638327 12:-0.0258979 13:-0.775873 14:-0.332742 15:-0.794011 16:-0.831057 17:-0.797687 18:-0.189775 19:-0.670695 20:-0.0130921 21:-0.931291 22:-0.842377 23:-0.167001 24:0.0187045 25:-0.444299 26:-0.650636 27:-0.327088 28:-0.324545 29:-0.205525 30:-0.308147 31:0.00114263 32:-0.811501 33:-0.682704 34:0.156011 35:-0.700638 36:-0.356252 37:0.296735 38:-0.786269 39:0.0633998 40:-0.366742 41:-0.532412 
0.4914842696130181 1:-0.840939 2:0.127149 3:-0.313054 4:-0.756866 5:0.0557718 6:-0.747614 7:0.592048 8:-0.100538 9:0.0254675 10:0.456492 11:-0.595973 12:-0.487767 13:-0.761117 14:-0.699498 15:-1 16:-1 17:-0.890899 18:-0.52994 19:-0.608527 20:-0.859858 21:-1 22:-1 23:-0.969329 24:-0.682086 25:-0.423672 26:-0.716507 27:-0.834266 28:-0.657494 29:-1 30:-1 31:-0.642983 32:-0.61226 33:-0.924738 34:0.0168663 35:-0.707102 36:-0.717017 37:-0.0521333 38:-0.761756 39:-0.45976 40:-0.638088 41:-0.609007 
0.2147464228304889 1:-0.577976 2:0.210548 3:-0.233328 4:-0.530367 5:0.0503633 6:-0.785683 7:0.431596 8:-0.244768 9:-0.212632 10:0.343774 11:-0.516503 12:0.00216091 13:-0.993747 14:-0.590992 15:-0.930576 16:-0.698854 17:-0.557847 18:-0.44885 19:-0.906303 20:-0.665847 21:-0.622072 22:-0.763816 23:-0.543489 24:-0.579413 25:-0.323271 26:-0.680562 27:-0.472738 28:-0.136239 29:0.127099 30:-0.463803 31:-0.656418 32:-0.921529 33:-0.790493 34:0.0855309 35:-0.669179 36:-0.700706 37:0.1087 38:-0.888247 39:-0.0240066 40:-0.365724 41:-0.45339 
0.4909906438191338 1:-0.600393 2:0.225244 3:-0.231819 4:-0.483638 5:0.0512003 6:-0.709201 7:0.538218 8:-0.231435 9:-0.18263 10:0.384505 11:-0.431 12:-0.142047 13:-0.51176 14:-0.250758 15:-1 16:-1 17:-0.232061 18:-0.30994 19:-0.552691 20:-0.775967 21:-0.397292 22:0.0915797 23:-1 24:-1 25:-0.299484 26:-0.156827 27:-1 28:-1 29:-0.467157 30:-0.464552 31:-1 32:-1 33:-0.360261 34:0.464743 35:-0.672118 36:-0.332778 37:0.0195381 38:-0.733256 39:-0.0442501 40:-0.262981 41:-0.477312 
0.01837576933421411 1:-0.731141 2:0.0670302 3:-0.283425 4:-0.481431 5:0.219455 6:-0.666937 7:0.571895 8:0.00442443 9:-0.0530424 10:0.292837 11:-0.760101 12:-0.315691 13:-0.427357 14:-0.485061 15:-0.479243 16:-0.438127 17:-0.486961 18:-0.414619 19:-0.440349 20:-0.324247 21:-0.320022 22:-0.390021 23:-0.229459 24:-0.373019 25:-0.399818 26:-0.37544 27:-0.555443 28:-0.13574 29:-0.466857 30:0.0184706 31:0.763396 32:-0.704618 33:-0.830182 34:0.225656 35:-0.520988 36:-0.747675 37:0.280016 38:-0.679722 39:-0.194134 40:-0.0755938 41:-0.14879 
0.2188213472413818 1:-0.587743 2:0.186473 3:-0.203493 4:-0.503986 5:0.1164 6:-0.762452 7:0.435447 8:-0.187842 9:-0.277562 10:0.309085 11:-0.646892 12:-0.0585997 13:-0.654816 14:-0.409055 15:-0.712503 16:-0.813124 17:-0.833293 18:-0.682947 19:-0.740355 20:0.00388031 21:-0.938208 22:-0.819664 23:-0.447045 24:-0.0404799 25:-0.268436 26:-0.0506482 27:-0.603998 28:-0.252943 29:-0.211499 30:-0.383306 31:-0.511186 32:-0.81552 33:-0.673028 34:0.167228 35:-0.744574 36:-0.287004 37:0.330492 38:-0.816567 39:-0.00627023 40:-0.39326 41:-0.542793 
0.632882552490271 1:-0.648258 2:0.206908 3:-0.271078 4:-0.444906 5:0.104649 6:-0.73467 7:0.552132 8:-0.211732 9:-0.0902156 10:0.28339 11:-0.582555 12:-0.10716 13:-0.643 14:-0.21017 15:-0.274823 16:-0.852364 17:-0.499701 18:-0.496774 19:-0.33586 20:0.394315 21:-0.467337 22:-0.215791 23:-0.772436 24:0.33553 25:-0.315443 26:-0.219905 27:-1 28:-1 29:-0.603703 30:-0.663839 31:-0.881534 32:-0.987753 33:-0.323983 34:0.40711 35:-0.788327 36:-0.206073 37:0.194862 38:-0.66383 39:-0.121858 40:-0.349702 41:-0.522256 
0.5423651600355586 1:-0.657299 2:0.137571 3:-0.217496 4:-0.567563 5:0.189424 6:-0.685735 7:0.4868 8:-0.0968805 9:-0.211129 10:0.37752 11:-0.730955 12:-0.297085 13:-0.699037 14:-0.118258 15:-0.501991 16:-0.128205 17:-0.454036 18:-0.211212 19:-0.457981 20:-0.0604888 21:-0.588963 22:-0.0662077 23:-0.445521 24:0.0515524 25:-0.343558 26:-0.053097 27:-0.0896266 28:0.166007 29:-0.518099 30:-0.167317 31:-0.221464 32:-0.532928 33:-0.574067 34:0.431919 35:-0.56994 36:-0.541722 37:0.236724 38:-0.741913 39:0.317272 40:-0.123409 41:-0.091349 
0.643084364188953 1:-0.636734 2:0.0563267 3:-0.364113 4:-0.511497 5:0.105323 6:-0.687733 7:0.548767 8:0.0220956 9:0.136025 10:0.393285 11:-0.541012 12:-0.22552 13:-0.932312 14:-0.497404 15:-0.668607 16:-0.432531 17:-0.663064 18:-0.373952 19:-0.745447 20:-0.491361 21:-0.780774 22:-0.427684 23:-0.958372 24:-0.785233 25:-0.152788 26:-0.391911 27:-0.438701 28:-0.638828 29:0.109354 30:-0.311136 31:-0.650209 32:-0.525123 33:-0.805368 34:-0.0820146 35:-0.652826 36:-0.768101 37:0.0414015 38:-0.724425 39:-0.0292146 40:-0.314065 41:-0.132983 
0.2362211549454909 1:-0.878666 2:0.172728 3:-0.232239 4:-0.814323 5:0.0191856 6:-0.719163 7:0.612642 8:-0.18733 9:-0.231855 10:0.517939 11:-0.462737 12:-0.622485 13:-0.856666 14:-0.608386 15:-1 16:-1 17:-1 18:-1 19:-0.667254 20:-0.584399 21:-1 22:-1 23:-0.889782 24:-0.653758 25:-0.837189 26:-0.826461 27:-0.929625 28:-0.70999 29:-1 30:-1 31:-0.67619 32:-0.546062 33:-0.984645 34:0.108397 35:-0.596366 36:-0.698582 37:0.261628 38:-0.755718 39:-0.615283 40:-0.706068 41:-0.397642 
0.04110146501333913 1:-0.491431 2:0.242061 3:-0.132099 4:-0.569878 5:0.0611461 6:-0.681792 7:0.415168 8:-0.241272 9:-0.397427 10:0.490683 11:-0.422381 12:-0.189046 13:-0.845353 14:-0.389724 15:-0.572907 16:-0.15222 17:-0.643864 18:-0.15239 19:-0.608652 20:-0.0311324 21:-0.418356 22:-0.097014 23:0.126379 24:-0.101743 25:0.0278769 26:-0.172746 27:0.096275 28:0.0390323 29:-0.201948 30:0.00755189 31:-0.31357 32:-0.759358 33:-0.727715 34:0.273495 35:-0.395788 36:-0.713438 37:0.100833 38:-0.731423 39:0.221412 40:-0.0915891 41:0.0568661 
0.1908071390004932 1:-0.572183 2:0.0447777 3:-0.461142 4:-0.642862 5:-0.0165754 6:-0.689683 7:0.466367 8:0.0419995 9:0.381582 10:0.541597 11:-0.274954 12:-0.263176 13:-1 14:-1 15:-0.862457 16:-0.764648 17:-0.810811 18:-0.93679 19:-0.847703 20:-0.281463 21:-0.891498 22:-0.699454 23:-0.805782 24:-0.109056 25:-0.225365 26:-0.319944 27:-0.634144 28:-0.868934 29:-0.365062 30:-0.323077 31:-0.417244 32:-0.856079 33:-0.796976 34:0.123714 35:-0.644141 36:-0.796896 37:0.210709 38:-0.610596 39:0.177033 40:-0.358874 41:-0.142854 
0.1148617092588431 1:-0.5235 2:0.0336062 3:-0.453117 4:-0.617946 5:-0.0582867 6:-0.681903 7:0.458739 8:0.0557752 9:0.348497 10:0.55659 11:-0.169799 12:-0.223735 13:-0.651391 14:-0.995039 15:-0.635529 16:-0.616949 17:-1 18:-1 19:-0.330755 20:-0.823997 21:-0.090979 22:-0.862569 23:-0.550788 24:-0.937967 25:-0.173732 26:-0.321261 27:-0.529804 28:-0.174138 29:-0.490481 30:-0.453889 31:-0.708217 32:-0.566241 33:-0.978738 34:0.11357 35:-0.580156 36:-0.200219 37:-0.126825 38:-0.694672 39:0.320535 40:-0.348841 41:-0.0797509 
0.6332652442014055 1:-0.496019 2:0.245907 3:-0.100668 4:-0.808948 5:-0.011084 6:-0.656387 7:0.328735 8:-0.253486 9:-0.483439 10:0.683535 11:-0.273472 12:-0.388587 13:-0.843295 14:-0.498987 15:-0.89558 16:-0.563886 17:-0.613081 18:-0.491661 19:-0.695683 20:-0.401153 21:-0.42897 22:-0.225315 23:-0.201452 24:-0.618331 25:0.0581328 26:-0.217301 27:-0.330055 28:-0.156584 29:0.0708986 30:-0.0333419 31:-0.319448 32:-0.190311 33:-0.81623 34:0.268712 35:-0.413958 36:-0.69939 37:0.188538 38:-0.710124 39:0.292778 40:-0.53993 41:-0.0987622 
0.4722984448141008 1:-0.51647 2:-0.0964078 3:-0.132901 4:-0.661245 5:-0.363053 6:-0.63877 7:0.407499 8:0.220689 9:-0.375733 10:0.554405 11:0.476743 12:-0.328959 13:-0.313116 14:-0.604189 15:-0.337446 16:-0.459271 17:-0.399627 18:-0.290987 19:-0.470874 20:-0.155241 21:0.0128431 22:-0.209051 23:0.111789 24:-0.357192 25:0.24701 26:-0.386 27:-0.287161 28:-0.0726064 29:0.0182266 30:-0.21337 31:-0.656235 32:-0.441722 33:-0.800018 34:0.0500271 35:-0.577185 36:-0.68689 37:0.0287011 38:-0.767474 39:0.249952 40:-0.351989 41:-0.0889907 
0.7175490439076694 1:-0.593306 2:0.121674 3:-0.432111 4:-0.804784 5:-0.269658 6:-0.666317 7:0.417288 8:-0.0759133 9:0.314138 10:0.67245 11:0.328306 12:-0.432813 13:-1 14:-1 15:-0.807702 16:-0.518036 17:-1 18:-1 19:-0.523753 20:-0.572924 21:-0.60404 22:-0.990803 23:-0.376831 24:-0.487649 25:-0.556282 26:-0.764656 27:-0.825338 28:0.000102738 29:-1 30:-1 31:-0.450591 32:0.0173439 33:-0.888301 34:0.270994 35:-0.546416 36:-0.422571 37:0.270579 38:-0.716983 39:0.496828 40:-0.533587 41:-0.06116 
0.2712085116991048 1:-0.641505 2:0.0868456 3:-0.268079 4:-0.68578 5:-0.356319 6:-0.617883 7:0.523203 8:-0.0234091 9:-0.0857215 10:0.568252 11:0.471362 12:-0.438078 13:-0.694961 14:-0.503792 15:-0.619488 16:-0.404988 17:-0.691063 18:-0.229779 19:-0.625417 20:-0.0764666 21:-0.599583 22:-0.172416 23:-0.516322 24:-0.227944 25:-0.710685 26:-0.431167 27:-0.306618 28:-0.473836 29:-0.109172 30:-0.0383434 31:-0.00498227 32:-0.573645 33:-0.737129 34:-0.0153661 35:-0.527811 36:-0.66179 37:0.181745 38:-0.730479 39:0.344781 40:-0.174315 41:-0.0693319 
0.5106832791118077 1:-0.529001 2:0.28281 3:-0.380176 4:-0.54369 5:-0.377798 6:-0.723286 7:0.411145 8:-0.321835 9:0.182136 10:0.415339 11:0.581203 12:-0.125797 13:-0.600573 14:-0.434046 15:-0.0811799 16:-0.254794 17:-1 18:-1 19:-0.461573 20:-0.436742 21:-0.577936 22:-0.583366 23:-0.68903 24:-0.752819 25:-0.560637 26:-0.84627 27:-0.574969 28:-0.142556 29:-0.69204 30:-0.399533 31:-0.228465 32:-0.192766 33:-0.805657 34:0.320647 35:-0.67319 36:-0.332424 37:0.56274 38:-0.676168 39:0.194714 40:-0.0911896 41:-0.370554 
0.3291814013465401 1:-0.493421 2:0.301663 3:-0.425722 4:-0.624057 5:-0.338882 6:-0.764604 7:0.296837 8:-0.387808 9:0.330625 10:0.457858 11:0.545585 12:-0.074599 13:-0.589836 14:-0.531865 15:-0.203563 16:-0.295226 17:-0.953193 18:-0.602981 19:-0.635305 20:-0.491966 21:-0.574831 22:-0.573078 23:-0.805779 24:-0.440968 25:-1 26:-1 27:-0.480551 28:-0.155982 29:-1 30:-1 31:-0.242996 32:-0.220963 33:-0.759768 34:0.335192 35:-0.736123 36:-0.13382 37:0.774896 38:-0.461287 39:0.00863009 40:-0.352668 41:-0.578671 
0.0902388372656255 1:-0.658604 2:0.100523 3:-0.250083 4:-0.837604 5:-0.254591 6:-0.74246 7:0.410393 8:-0.0459123 9:-0.175437 10:0.681686 11:0.369171 12:-0.39626 13:-0.869704 14:-0.71616 15:-0.812362 16:-0.530197 17:-0.7708 18:-0.415952 19:-0.985789 20:-0.506408 21:-0.770543 22:-0.47709 23:-0.806193 24:-0.752726 25:-0.0114471 26:-0.504538 27:-0.815468 28:-0.91427 29:-0.408294 30:-0.566969 31:-0.712532 32:-0.768946 33:-0.739905 34:0.0707416 35:-0.68804 36:-0.784746 37:0.285641 38:-0.788948 39:-0.0102137 40:-0.245038 41:-0.571436 
0.3676480520248489 1:-0.624861 2:0.0467414 3:-0.218831 4:-0.947992 5:-0.140127 6:-0.854163 7:0.0912704 8:0.1094 9:-0.415955 10:0.847031 11:0.030328 12:-0.22014 13:-0.787351 14:-0.848544 15:-1 16:-1 17:-0.691971 18:-0.0876513 19:-0.800739 20:-0.820098 21:-0.607608 22:-0.677563 23:-0.855021 24:-0.431641 25:-1 26:-1 27:-0.811636 28:-0.953086 29:-0.910496 30:-0.899988 31:-1 32:-1 33:-0.729423 34:0.0643574 35:-0.869169 36:-0.772504 37:0.213441 38:-0.767877 39:-0.0385451 40:-0.769617 41:-0.347131 
0.7708524149268657 1:-0.814799 2:0.0791336 3:-0.322115 4:-0.902852 5:-0.203975 6:-0.751213 7:0.529045 8:0.000151189 9:0.0620528 10:0.686816 11:0.245348 12:-0.609691 13:-0.924658 14:-0.727841 15:-1 16:-1 17:-0.864159 18:-0.3473 19:-1 20:-1 21:-0.692736 22:-0.393505 23:-1 24:-1 25:-1 26:-1 27:-0.681054 28:-0.847684 29:-1 30:-1 31:-0.709437 32:-0.509288 33:-0.880738 34:0.0627706 35:-0.655417 36:-0.869735 37:0.125879 38:-0.689506 39:-0.375653 40:-0.691258 41:-0.614596 
0.1089334838477371 1:-0.637812 2:0.0733099 3:-0.20874 4:-0.712167 5:-0.30839 6:-0.742814 7:0.438204 8:0.00445132 9:-0.28489 10:0.535411 11:0.494017 12:-0.272958 13:-0.68462 14:-0.686815 15:-0.582851 16:-0.67476 17:-0.622161 18:-0.664622 19:-0.21425 20:-0.221937 21:-0.636017 22:-0.695389 23:-0.786724 24:-0.610913 25:-0.184553 26:-0.793452 27:-0.491997 28:-0.466072 29:-0.301929 30:-0.651406 31:-0.824768 32:-0.832264 33:-0.830526 34:0.0354028 35:-0.727772 36:-0.671085 37:0.145319 38:-0.76906 39:0.210576 40:-0.190874 41:-0.46449 
0.1020215950631082 1:-0.52482 2:-0.123935 3:-0.17086 4:-0.714935 5:-0.283247 6:-0.712729 7:0.354135 8:0.317093 9:-0.351867 10:0.585965 11:0.374925 12:-0.25286 13:-1 14:-1 15:-1 16:-1 17:-0.553729 18:-0.815004 19:-1 20:-1 21:-0.575673 22:-0.501851 23:-0.0238816 24:-0.434716 25:-0.565844 26:-0.374755 27:-0.263563 28:-0.791197 29:-0.668084 30:-0.706942 31:0.0733806 32:-0.470682 33:-0.858162 34:0.0176465 35:-0.478911 36:-0.755913 37:0.0262049 38:-0.823816 39:0.184112 40:-0.473241 41:-0.0286105 
0.2228542972263705 1:-0.466815 2:-0.0973297 3:-0.105346 4:-0.738403 5:-0.274259 6:-0.741837 7:0.241297 8:0.288377 9:-0.545391 10:0.590705 11:0.368417 12:-0.186 13:-0.422477 14:-0.704193 15:-0.623646 16:-0.559138 17:-0.523615 18:-0.774875 19:-0.49363 20:-0.624083 21:-0.216917 22:-0.300455 23:-0.572605 24:-0.483813 25:0.324683 26:-0.602559 27:-0.940784 28:-0.814935 29:-0.731317 30:-0.743326 31:0.145644 32:-0.380655 33:-0.801475 34:0.0711974 35:-0.725075 36:-0.752616 37:0.0279443 38:-0.817091 39:0.302097 40:-0.499818 41:-0.509752 
0.07583065986042421 1:-0.358361 2:0.124818 3:-0.550257 4:-0.908095 5:-0.150131 6:-0.653845 7:0.185005 8:-0.0770075 9:0.560384 10:0.799312 11:0.0387272 12:-0.374211 13:-0.556499 14:-0.505817 15:-0.514024 16:-0.426277 17:-0.547936 18:-0.499265 19:-0.606391 20:-0.49866 21:-0.713543 22:-0.454153 23:-0.610303 24:0.104646 25:-0.752509 26:0.164914 27:-0.828671 28:0.0758076 29:-0.607147 30:-0.255451 31:-0.313294 32:0.13967 33:-0.81218 34:0.291551 35:-0.532931 36:-0.295717 37:0.194146 38:-0.687828 39:0.454324 40:-0.653091 41:-0.109057 
1 1:-0.573555 2:-0.0558172 3:-0.119842 4:-0.71274 5:-0.239294 6:-0.669802 7:0.434315 8:0.190199 9:-0.450228 10:0.592158 11:0.246479 12:-0.34828 13:-0.605274 14:-0.876696 15:-0.834457 16:-0.887903 17:-0.617245 18:-0.748419 19:-0.75739 20:-0.579196 21:-0.611334 22:-0.470428 23:0.0291667 24:-0.550574 25:-0.563692 26:-0.463053 27:-0.131492 28:-0.643727 29:0.615747 30:-0.728222 31:-0.106123 32:-0.434802 33:-0.860471 34:0.0958856 35:-0.441627 36:-0.814309 37:0.0717471 38:-0.739438 39:0.241601 40:-0.0288568 41:-0.0783225 
0.263885683641737 1:-0.372228 2:-0.0895607 3:-0.0709661 4:-0.806128 5:-0.218944 6:-0.719349 7:0.160334 8:0.256965 9:-0.601498 10:0.692117 11:0.211171 12:-0.214773 13:-0.320994 14:-0.985654 15:-1 16:-1 17:-0.407664 18:-0.728528 19:-0.586544 20:-0.626587 21:-0.443415 22:-0.736331 23:0.13915 24:-0.660478 25:-0.410644 26:-0.624736 27:-0.0333896 28:-0.401965 29:-0.820929 30:-0.559198 31:-0.0567967 32:-0.183781 33:-0.870437 34:0.0908628 35:-0.5527 36:-0.607318 37:0.088174 38:-0.866985 39:0.374768 40:-0.556553 41:0.0863142 
0.6243207966721864 1:-0.398014 2:0.0409974 3:-0.115356 4:-0.868273 5:-0.15431 6:-0.738677 7:0.14392 8:0.0590936 9:-0.536139 10:0.779529 11:0.0576252 12:-0.230526 13:-0.54589 14:-0.723941 15:-1 16:-1 17:-0.619919 18:-0.55334 19:-0.39936 20:-0.731784 21:-0.627202 22:-0.122549 23:-0.491166 24:-0.655478 25:-0.545272 26:-0.547267 27:-0.933456 28:0.0215962 29:-1 30:-1 31:-0.365118 32:-0.257254 33:-0.715768 34:0.181702 35:-0.613178 36:-0.415175 37:0.231376 38:-0.847401 39:0.191392 40:-0.574103 41:-0.446491 
0.7372892765485848 1:-0.82016 2:-0.0600338 3:-0.244755 4:-0.705321 5:-0.241905 6:-0.748147 7:0.632401 8:0.274565 9:-0.195799 10:0.446213 11:0.336898 12:-0.406558 13:-0.845071 14:-0.707669 15:-1 16:-1 17:-1 18:-1 19:-0.635924 20:-0.711226 21:-1 22:-1 23:-0.905199 24:-0.27719 25:-0.945478 26:-0.634901 27:-0.703582 28:-0.740813 29:-1 30:-1 31:-0.824272 32:-0.256243 33:-0.976793 34:0.168757 35:-0.602103 36:-0.300069 37:0.081679 38:-0.857559 39:-0.443569 40:-0.356813 41:-0.578513 
0.6162607495606902 1:-0.840072 2:-0.0201296 3:-0.299808 4:-0.606356 5:-0.346272 6:-0.673908 7:0.676335 8:0.146632 9:-0.016711 10:0.384056 11:0.521521 12:-0.452304 13:-0.831547 14:-0.647919 15:-1 16:-1 17:-1 18:-1 19:-0.527371 20:-0.668824 21:-1 22:-1 23:-1 24:-1 25:-0.936468 26:-0.497401 27:-0.673901 28:-0.769797 29:-1 30:-1 31:-0.610609 32:-0.204754 33:-0.982805 34:0.108328 35:-0.601956 36:-0.0209343 37:-0.0435508 38:-0.846829 39:-0.502732 40:-0.311999 41:-0.575134 
0.3613134242073472 1:-0.555911 2:0.308723 3:-0.115699 4:-0.67251 5:0.0158876 6:-0.702061 7:0.392532 8:-0.365818 9:-0.477879 10:0.526921 11:-0.357207 12:-0.266342 13:-0.743545 14:-0.699955 15:-0.7468 16:-0.679592 17:-1 18:-1 19:-0.757118 20:-0.433448 21:-1 22:-1 23:-0.421937 24:-0.364575 25:-0.420695 26:-0.889443 27:-0.62131 28:-0.75191 29:0.223842 30:-0.386368 31:-0.585467 32:-0.631702 33:-0.873 34:0.160056 35:-0.502556 36:-0.878253 37:0.189969 38:-0.864705 39:0.121503 40:-0.481557 41:0.0389671 
0.1136120225593557 1:-0.745533 2:0.0222269 3:-0.348682 4:-0.438357 5:0.275274 6:-0.620425 7:0.583015 8:0.0564275 9:0.0828723 10:0.278567 11:-0.788742 12:-0.36365 13:-0.615894 14:-0.533436 15:-0.439361 16:-0.653769 17:-0.415706 18:-0.606872 19:-0.415942 20:-0.615071 21:-0.0530277 22:-0.424918 23:-0.307387 24:-0.438628 25:-0.37208 26:-0.432853 27:-0.516045 28:-0.338003 29:-0.11426 30:-0.562828 31:-0.734084 32:-0.370811 33:-0.893825 34:-0.0440537 35:-0.584123 36:-0.733772 37:-0.0157635 38:-0.740762 39:-0.18745 40:-0.149926 41:0.139548 
0.2218127017322647 1:-0.739179 2:0.0797558 3:-0.343843 4:-0.336958 5:0.277703 6:-0.624059 7:0.612936 8:-0.0157809 9:0.0710457 10:0.221626 11:-0.774103 12:-0.295747 13:-0.557302 14:-0.655553 15:-0.460503 16:-0.767433 17:-0.326329 18:-0.747405 19:-0.336212 20:-0.749896 21:-0.121897 22:-0.410328 23:-0.52689 24:-0.520539 25:-0.449999 26:-0.375312 27:-0.138793 28:-0.319584 29:0.455846 30:-0.54546 31:0.434336 32:-0.440057 33:-0.917957 34:0.0298798 35:-0.661134 36:-0.700598 37:-0.0247612 38:-0.785342 39:-0.150091 40:-0.133376 41:0.185651 
0.5238657914157963 1:-0.725746 2:0.22222 3:-0.26363 4:-0.539808 5:0.111118 6:-0.639274 7:0.614701 8:-0.209511 9:-0.0965854 10:0.408143 11:-0.519848 12:-0.370844 13:-0.74921 14:-0.511312 15:-0.438538 16:-0.53371 17:-0.777385 18:-0.46364 19:-0.196126 20:-0.518735 21:-0.733469 22:-0.817196 23:-0.535795 24:0.11015 25:-1 26:-1 27:-0.622835 28:-0.0235205 29:-0.790892 30:-0.767444 31:-0.823028 32:-0.988026 33:-0.937413 34:0.168995 35:-0.725482 36:-0.250331 37:0.113878 38:-0.575106 39:-0.119636 40:-0.293424 41:-0.242957 
0.1307573037429592 1:-0.7496 2:0.0499182 3:-0.295994 4:-0.356425 5:0.22333 6:-0.642559 7:0.638441 8:0.023518 9:-0.023765 10:0.233318 11:-0.708886 12:-0.280291 13:-0.617102 14:-0.00588733 15:-0.620138 16:0.00375873 17:-0.27678 18:0.00348186 19:-0.178221 20:0.0357275 21:-0.149527 22:-0.0529826 23:-0.567065 24:-0.428309 25:-0.564894 26:0.302768 27:0.0422506 28:-0.0989857 29:-0.554191 30:-0.553959 31:-0.632634 32:-0.720293 33:-0.424823 34:0.505544 35:-0.686912 36:-0.43023 37:-0.0200257 38:-0.709116 39:-0.151578 40:-0.115277 41:0.172972 
0.07481518939917139 1:-0.734392 2:0.107545 3:-0.284689 4:-0.363349 5:0.256218 6:-0.609754 7:0.622054 8:-0.049428 9:-0.0450274 10:0.26503 11:-0.725291 12:-0.320577 13:-0.564591 14:-0.714991 15:-0.606221 16:-0.707502 17:-0.17657 18:-0.94112 19:-0.0864356 20:-0.754401 21:-0.255172 22:-0.848305 23:-0.428271 24:-0.615914 25:-0.236888 26:-0.151439 27:-0.254817 28:0.21173 29:-0.0136185 30:-0.492919 31:-0.220012 32:-0.725682 33:-0.955669 34:0.218086 35:-0.378252 36:-0.56371 37:0.200088 38:-0.641794 39:-0.149726 40:-0.111563 41:0.169759 
0.4666029650389776 1:-0.689585 2:0.120263 3:-0.272322 4:-0.503316 5:0.104025 6:-0.661107 7:0.605904 8:-0.0701556 9:-0.0788812 10:0.390423 11:-0.517422 12:-0.291935 13:-1 14:-1 15:-0.849185 16:-0.411322 17:-0.684194 18:-0.33163 19:-0.0110128 20:-0.530668 21:-1 22:-1 23:-0.0299135 24:-0.0635863 25:-1 26:-1 27:-0.526328 28:-0.25335 29:-0.913365 30:-0.727894 31:-0.352955 32:-0.847396 33:-0.848924 34:0.350714 35:-0.607209 36:-0.416162 37:0.0223132 38:-0.624648 39:-0.10615 40:-0.370261 41:-0.0925393 
0.05868073385887223 1:-0.478436 2:0.262517 3:-0.152784 4:-0.66337 5:-0.0246323 6:-0.656144 7:0.410995 8:-0.267358 9:-0.346594 10:0.604533 11:-0.232647 12:-0.270621 13:-1 14:-1 15:-0.714802 16:-0.551785 17:-0.761502 18:-0.311987 19:-0.685232 20:-0.179341 21:-0.771778 22:-0.270652 23:-0.428192 24:-0.534145 25:0.318119 26:-0.225295 27:-0.0751167 28:-0.311376 29:0.285402 30:-0.194102 31:-0.0670942 32:-0.1604 33:-0.783696 34:0.222177 35:-0.211425 36:-0.758297 37:0.168926 38:-0.810449 39:0.227263 40:-0.300754 41:0.283512 
0.3000469681860886 1:-0.575578 2:0.0324386 3:-0.462391 4:-0.516072 5:0.0211962 6:-0.642061 7:0.540445 8:0.0484813 9:0.332518 10:0.468247 11:-0.315888 12:-0.256086 13:-0.547212 14:-0.654376 15:-0.382905 16:-0.409414 17:-1 18:-1 19:-0.123071 20:-0.440706 21:-1 22:-1 23:-0.117905 24:-0.478464 25:-1 26:-1 27:-0.820105 28:-0.365231 29:-0.0982819 30:-0.329974 31:-0.250473 32:0.0135879 33:-0.82336 34:-0.109653 35:-0.530685 36:-0.369966 37:-0.0150996 38:-0.67858 39:0.104029 40:-0.311608 41:-0.157291 
0.6472847980518946 1:-0.309064 2:0.238247 3:-0.07388 4:-0.842237 5:-0.029526 6:-0.66073 7:0.179396 8:-0.233562 9:-0.523775 10:0.757364 11:-0.222028 12:-0.290453 13:-0.724712 14:-0.790559 15:-0.688651 16:-0.355181 17:-0.824083 18:-0.429431 19:-0.675725 20:-0.44887 21:-0.606332 22:-0.504956 23:-0.231448 24:0.202306 25:-0.0851535 26:0.0988153 27:-0.411754 28:-0.00479607 29:0.0870054 30:0.119194 31:-0.419586 32:-0.104836 33:-0.665143 34:0.324547 35:-0.365634 36:-0.472695 37:0.22363 38:-0.709809 39:0.347573 40:-0.538395 41:0.197394 
0.3139670189361538 1:-0.599598 2:0.0655517 3:-0.376481 4:-0.861639 5:-0.232256 6:-0.689638 7:0.392918 8:0.0148272 9:0.191941 10:0.738446 11:0.259751 12:-0.448611 13:-0.951453 14:-0.831143 15:-0.806875 16:-0.588416 17:-1 18:-1 19:-0.542829 20:-0.616361 21:-1 22:-1 23:-0.492756 24:-0.461543 25:-1 26:-1 27:-0.805231 28:-0.752214 29:-0.742716 30:-0.141257 31:-0.630175 32:-0.529596 33:-0.909828 34:0.218714 35:-0.562217 36:-0.345791 37:0.123572 38:-0.700185 39:0.542966 40:-0.692448 41:-0.154564 
0.3335350155083058 1:-0.865969 2:0.159935 3:-0.247029 4:-0.740585 5:0.0469049 6:-0.735197 7:0.629415 8:-0.162802 9:-0.185725 10:0.43526 11:-0.549203 12:-0.513455 13:-0.758742 14:-0.784297 15:-1 16:-1 17:-0.579101 18:-0.731139 19:-1 20:-1 21:-1 22:-1 23:-0.933062 24:-0.520948 25:-0.635676 26:-0.670664 27:-1 28:-1 29:-1 30:-1 31:-0.936501 32:-0.932805 33:-0.897934 34:0.281462 35:-0.744729 36:-0.770997 37:0.0892285 38:-0.741025 39:-0.563283 40:-0.695317 41:-0.59544 
0.3231471716518383 1:-0.488386 2:0.3629 3:-0.412685 4:-0.464924 5:-0.382583 6:-0.717988 7:0.402338 8:-0.419693 9:0.246086 10:0.360781 11:0.557357 12:-0.071556 13:-0.428225 14:-0.155324 15:-0.534551 16:-0.0457692 17:-0.330085 18:-0.23879 19:-0.162964 20:-0.297652 21:-0.696467 22:-0.666984 23:-0.689231 24:-0.232154 25:-0.826996 26:-0.550189 27:-0.366448 28:-0.142097 29:-0.752431 30:-0.448794 31:-0.337606 32:-0.230521 33:-0.82289 34:0.401982 35:-0.452506 36:-0.621922 37:0.339095 38:-0.788241 39:0.17632 40:-0.23713 41:0.139886 
0.3526854152582123 1:-0.572625 2:0.288046 3:-0.332427 4:-0.572048 5:-0.348331 6:-0.706436 7:0.464975 8:-0.329406 9:0.0639661 10:0.452514 11:0.510577 12:-0.194167 13:-0.720003 14:-0.446523 15:-0.598487 16:-0.504387 17:-0.689185 18:-0.396241 19:-0.555423 20:-0.671778 21:-0.642628 22:-0.362805 23:0.129429 24:-0.694206 25:-0.563493 26:-0.834382 27:-0.00635671 28:-0.802392 29:-0.212544 30:-0.671369 31:0.27788 32:-0.424196 33:-0.859854 34:0.262926 35:-0.59264 36:-0.830316 37:0.286736 38:-0.818911 39:0.0841769 40:-0.282006 41:0.0496909 
0.7822254615671197 1:-0.512674 2:0.373167 3:-0.405208 4:-0.47454 5:-0.376662 6:-0.68731 7:0.445841 8:-0.416408 9:0.217884 10:0.391862 11:0.519882 12:-0.141746 13:-0.574016 14:-0.349483 15:-0.541876 16:-0.261183 17:-0.14685 18:-0.391734 19:-0.694837 20:-0.52489 21:-0.296372 22:-0.585007 23:-0.880963 24:-0.20751 25:-0.966085 26:-0.375045 27:-0.518387 28:-0.120031 29:-0.648719 30:-0.248446 31:-0.417711 32:-0.0777115 33:-0.851624 34:0.308373 35:-0.587038 36:-0.19576 37:0.611478 38:-0.584646 39:0.086399 40:-0.0463274 41:-0.0244122 
0.2575412060248075 1:-0.749327 2:0.223443 3:-0.155807 4:-0.837135 5:-0.00445517 6:-0.685474 7:0.488917 8:-0.254845 9:-0.415948 10:0.610669 11:-0.34131 12:-0.564522 13:-0.815996 14:-0.714478 15:-1 16:-1 17:-0.845934 18:-0.758005 19:-0.721189 20:-0.678942 21:-1 22:-1 23:-1 24:-1 25:-0.0707665 26:-0.613569 27:-1 28:-1 29:-1 30:-1 31:-0.303993 32:-0.726154 33:-0.919172 34:0.162558 35:-0.722673 36:-0.902992 37:0.281577 38:-0.706801 39:-0.281076 40:-0.702946 41:-0.526249 
0.4200748818396495 1:-0.7554 2:0.14094 3:-0.289753 4:-0.702923 5:-0.318481 6:-0.656315 7:0.593094 8:-0.105338 9:-0.0416116 10:0.528258 11:0.443178 12:-0.483066 13:-0.904371 14:-0.82896 15:-0.710658 16:-0.707537 17:-0.760992 18:-0.628539 19:-0.458713 20:-0.664897 21:-0.290854 22:-0.766011 23:-1 24:-1 25:-0.788752 26:-0.846324 27:-0.746548 28:-0.194384 29:-0.5033 30:-0.605246 31:-0.929652 32:-0.516781 33:-0.96457 34:0.116107 35:-0.623699 36:-0.457678 37:0.345733 38:-0.836494 39:-0.340371 40:0.0788014 41:-0.0937274 
0.02561347366975128 1:-0.666301 2:0.108707 3:-0.259106 4:-0.903067 5:-0.213247 6:-0.722365 7:0.40283 8:-0.0613933 9:-0.144236 10:0.760252 11:0.238874 12:-0.497217 13:-1 14:-1 15:-0.897989 16:-0.80361 17:-0.971806 18:-0.796933 19:-0.692911 20:-0.415511 21:-0.823893 22:-0.56808 23:-0.42537 24:-0.24632 25:-0.920314 26:-0.556824 27:-0.649698 28:-0.914429 29:-1 30:-1 31:-0.631661 32:-0.492776 33:-0.735331 34:-0.0338993 35:-0.623081 36:-0.782488 37:0.0529353 38:-0.570207 39:0.0191045 40:-0.780587 41:-0.166068 
0.03842474967568996 1:-0.61663 2:0.134153 3:-0.236953 4:-0.728784 5:-0.294292 6:-0.705247 7:0.455131 8:-0.0999234 9:-0.18605 10:0.594871 11:0.416469 12:-0.331424 13:-1 14:-1 15:-0.798789 16:-0.763024 17:-0.833589 18:-0.660537 19:-0.53579 20:-0.533845 21:-0.465769 22:-0.183049 23:-0.364078 24:-0.625614 25:-0.83886 26:-0.565576 27:0.0133767 28:-0.851963 29:-1 30:-1 31:0.253119 32:-0.518714 33:-0.773512 34:-0.0220063 35:-0.669979 36:-0.788327 37:0.0976115 38:-0.645373 39:-0.0805343 40:0.133198 41:-0.130449 
0.09901574263104158 1:-0.672822 2:0.157065 3:-0.272935 4:-0.659246 5:-0.297038 6:-0.730161 7:0.523935 8:-0.143924 9:-0.0935957 10:0.495024 11:0.447058 12:-0.273921 13:-1 14:-1 15:-0.645909 16:-0.595131 17:-1 18:-1 19:-0.201649 20:-0.49513 21:-0.617993 22:-0.529176 23:-0.0766749 24:-0.784361 25:-0.578801 26:-0.588295 27:-0.925597 28:-0.831366 29:-0.29324 30:-0.373475 31:-0.483308 32:-0.420399 33:-0.9011 34:0.170881 35:-0.73023 36:-0.599205 37:0.556974 38:-0.4384 39:-0.0423862 40:-0.0368567 41:-0.264358 
0.06727872154512449 1:-0.580472 2:0.0851817 3:-0.208781 4:-0.743593 5:-0.281265 6:-0.694444 7:0.427194 8:-0.0189226 9:-0.253885 10:0.627214 11:0.370823 12:-0.333664 13:-0.838346 14:-0.743455 15:-0.773099 16:-0.705724 17:-1 18:-1 19:-0.482148 20:-0.447225 21:-0.239119 22:-0.261901 23:-0.324828 24:-0.377275 25:-0.789548 26:-0.653415 27:-0.235459 28:-0.225572 29:-0.317982 30:-0.598035 31:-0.720563 32:-0.69302 33:-0.767901 34:-0.00861109 35:-0.592588 36:-0.613251 37:0.15784 38:-0.528453 39:0.281192 40:-0.216123 41:-0.231953 
0.05388971869199764 1:-0.564503 2:0.0362281 3:-0.206355 4:-0.610447 5:-0.343368 6:-0.690252 7:0.460402 8:0.0533425 9:-0.242638 10:0.504415 11:0.489056 12:-0.239742 13:-0.729804 14:-0.616903 15:-0.658306 16:-0.677007 17:-0.891738 18:-0.641349 19:-0.598192 20:-0.632849 21:-0.386298 22:-0.181373 23:-0.561766 24:-0.42419 25:0.108697 26:-0.484462 27:-0.113691 28:-0.355751 29:-0.156169 30:0.052022 31:-0.520154 32:-0.566386 33:-0.728227 34:-0.0112551 35:-0.575507 36:-0.564013 37:0.0969384 38:-0.752573 39:0.282066 40:-0.17761 41:-0.0657766 
0.3809278864352703 1:-0.714224 2:0.108859 3:-0.206375 4:-0.91283 5:-0.178881 6:-0.734341 7:0.423329 8:-0.0633265 9:-0.325103 10:0.741918 11:0.144019 12:-0.538303 13:-1 14:-1 15:-0.842014 16:-0.818572 17:-0.878777 18:-0.909935 19:-0.525754 20:-0.593659 21:-0.747859 22:-0.660965 23:-0.814096 24:-0.705009 25:-0.659616 26:-0.607989 27:-0.802916 28:-0.80552 29:-1 30:-1 31:-0.59513 32:-0.629171 33:-0.826382 34:0.108602 35:-0.751539 36:-0.775456 37:0.247274 38:-0.509842 39:-0.119402 40:-0.751316 41:-0.333904 
0.4342276246092267 1:-0.708247 2:0.148562 3:-0.24181 4:-0.857408 5:-0.230504 6:-0.701815 7:0.47684 8:-0.13176 9:-0.186937 10:0.689149 11:0.273331 12:-0.519556 13:-1 14:-1 15:-0.743522 16:-0.76994 17:-1 18:-1 19:-0.272031 20:-0.523357 21:-0.665772 22:-0.687926 23:-0.12179 24:-0.67258 25:-0.70778 26:-0.665647 27:-0.83222 28:-0.779526 29:-1 30:-1 31:-0.333749 32:-0.60453 33:-0.8726 34:0.0849503 35:-0.75051 36:-0.804659 37:0.248295 38:-0.425815 39:-0.153384 40:-0.523247 41:-0.241971 
0.3225366543053819 1:-0.291334 2:-0.102149 3:-0.0542937 4:-0.75938 5:-0.260268 6:-0.697655 7:0.151404 8:0.248433 9:-0.586132 10:0.671116 11:0.284208 12:-0.175755 13:-0.284744 14:-0.856769 15:-0.37543 16:-0.634354 17:-0.436786 18:-0.987749 19:-0.652719 20:-0.557365 21:-0.481274 22:-0.654664 23:-0.0163902 24:-0.0992641 25:-0.494744 26:-0.385867 27:-0.097984 28:-0.357197 29:0.399736 30:-0.105466 31:0.244452 32:-0.00774198 33:-0.785063 34:0.13934 35:-0.525534 36:-0.537004 37:0.093931 38:-0.852024 39:0.755967 40:-0.402847 41:0.0487053 
0.007634594406748769 1:-0.25017 2:-0.152428 3:-0.0330513 4:-0.674551 5:-0.300799 6:-0.712206 7:0.128586 8:0.311765 9:-0.619854 10:0.584381 11:0.365193 12:-0.0865461 13:-0.243457 14:-0.750689 15:-0.517379 16:-0.488767 17:-0.435941 18:-0.765222 19:-0.330288 20:-0.681818 21:-0.122976 22:-0.295113 23:0.307691 24:-0.589011 25:0.293651 26:-0.451751 27:0.259716 28:-0.259042 29:0.0900353 30:0.135327 31:-0.089474 32:-0.266251 33:-0.815362 34:0.116383 35:-0.638588 36:-0.511866 37:0.0835191 38:-0.883976 39:0.636775 40:-0.222252 41:-0.422367 
0.1287045954595231 1:-0.330832 2:-0.13935 3:-0.0520469 4:-0.755537 5:-0.263078 6:-0.687899 7:0.186575 8:0.298425 9:-0.585452 10:0.653866 11:0.287553 12:-0.213915 13:-1 14:-1 15:-0.543184 16:-0.830708 17:-0.403344 18:-0.885147 19:-0.670284 20:-0.564069 21:-0.423906 22:-0.628674 23:-0.0840694 24:-0.598235 25:0.40335 26:-0.377098 27:-0.422869 28:-0.538703 29:0.22546 30:-0.542657 31:0.0734496 32:-0.148642 33:-0.827748 34:0.0890565 35:-0.531282 36:-0.661295 37:0.0997196 38:-0.807992 39:0.528873 40:-0.458242 41:0.0169166 
0.009500262423472416 1:-0.419313 2:-0.100319 3:-0.0699678 4:-0.78665 5:-0.230984 6:-0.663329 7:0.273705 8:0.24264 9:-0.543649 10:0.679276 11:0.216575 12:-0.31737 13:-1 14:-1 15:-0.614308 16:-0.835589 17:-0.486743 18:-0.833009 19:-0.632089 20:-0.641394 21:-0.437822 22:-0.652323 23:-0.429668 24:-0.721733 25:-0.500872 26:-0.431037 27:-0.376115 28:-0.521208 29:0.272874 30:-0.439809 31:-0.344123 32:-0.220825 33:-0.895521 34:0.0877567 35:-0.523327 36:-0.663121 37:0.119318 38:-0.831475 39:0.12818 40:-0.450306 41:-0.00296906 
0.08810128334677443 1:-0.29743 2:-0.0995127 3:-0.0255448 4:-0.795002 5:-0.233616 6:-0.695122 7:0.130348 8:0.245895 9:-0.655733 10:0.687826 11:0.225859 12:-0.210059 13:-0.313738 14:-0.661422 15:-1 16:-1 17:-0.472214 18:-0.614143 19:0.156403 20:-0.435314 21:-1 22:-1 23:-0.572621 24:-0.598023 25:0.28954 26:-0.564703 27:-0.505928 28:0.0175698 29:-0.0580872 30:-0.820352 31:-0.162796 32:-0.092579 33:-0.860501 34:0.0697422 35:-0.6326 36:-0.562869 37:0.117633 38:-0.853645 39:0.351908 40:-0.510488 41:-0.425399 
0.05833129700030407 1:-0.475524 2:0.070732 3:-0.0702655 4:-0.853327 5:-0.17582 6:-0.728034 7:0.209002 8:0.00687918 9:-0.6553 10:0.715029 11:0.114359 12:-0.302113 13:-0.634968 14:-0.812477 15:-0.997843 16:-0.582139 17:-0.632002 18:-0.550872 19:-0.477317 20:-0.723947 21:-0.698863 22:-0.359638 23:-0.574041 24:-0.786725 25:-0.619272 26:-0.0829569 27:-0.83054 28:-0.467468 29:-0.356297 30:-0.163179 31:-0.600047 32:-0.515832 33:-0.873915 34:0.07146 35:-0.647655 36:-0.513273 37:0.23627 38:-0.880359 39:0.157962 40:-0.634633 41:-0.449528 
0.1030121986970185 1:-0.497047 2:-0.0254298 3:-0.475568 4:-0.737916 5:0.0393516 6:-0.668653 7:0.355592 8:0.140547 9:0.396923 10:0.625758 11:-0.387905 12:-0.32195 13:-0.70942 14:-0.719952 15:-0.822953 16:-0.819643 17:-0.491407 18:-0.446243 19:-0.346127 20:-0.294852 21:-0.20243 22:-0.134715 23:-0.605746 24:-0.0787198 25:-0.556776 26:-0.110808 27:-0.580239 28:-0.016368 29:-0.644261 30:-0.0814965 31:-0.830579 32:-0.337195 33:-0.816524 34:0.163639 35:-0.643727 36:-0.445195 37:0.00312879 38:-0.745175 39:0.220301 40:-0.420195 41:-0.119004 
0.4900470978519655 1:-0.736971 2:0.184584 3:-0.417488 4:-0.754988 5:-0.207779 6:-0.786464 7:0.497321 8:-0.233954 9:0.403216 10:0.519292 11:0.256073 12:-0.301972 13:-0.703266 14:-0.794767 15:-1 16:-1 17:-1 18:-1 19:-1 20:-1 21:-0.699439 22:-0.507242 23:-1 24:-1 25:-0.520011 26:-0.957254 27:-0.975066 28:-0.663539 29:-0.599224 30:-0.679608 31:-1 32:-1 33:-0.856194 34:0.238586 35:-0.681728 36:-0.88997 37:0.147793 38:-0.93468 39:-0.182629 40:-0.259661 41:-0.412677 
0.4143933130853496 1:-0.751397 2:0.210611 3:-0.41015 4:-0.720451 5:-0.251927 6:-0.759641 7:0.53765 8:-0.267461 9:0.340517 10:0.481269 11:0.37012 12:-0.340655 13:-0.630227 14:-0.735737 15:-1 16:-1 17:-0.686333 18:-0.417637 19:-1 20:-1 21:-1 22:-1 23:-0.670327 24:-0.640556 25:-0.190168 26:-0.789613 27:-1 28:-1 29:-1 30:-1 31:-0.623142 32:-0.631622 33:-0.896488 34:0.148638 35:-0.763461 36:-0.79337 37:0.424856 38:-0.596474 39:-0.277151 40:-0.348681 41:-0.512195 
0.3766190767701571 1:-0.550484 2:0.198288 3:-0.5163 4:-0.65297 5:-0.33726 6:-0.703682 7:0.378748 8:-0.192493 9:0.51837 10:0.494331 11:0.484769 12:-0.252491 13:-0.513795 14:-0.513433 15:-1 16:-1 17:-0.58827 18:-0.230685 19:-0.627565 20:-0.775615 21:-0.783899 22:-0.982294 23:-0.550948 24:-0.214415 25:-0.60535 26:-0.687141 27:-0.529118 28:-0.671284 29:-0.565818 30:-0.78996 31:0.0371336 32:-0.573641 33:-0.779838 34:0.211473 35:-0.768998 36:-0.687721 37:0.45952 38:-0.415509 39:0.0127672 40:-0.384123 41:-0.552189 
0.1100731278909276 1:-0.705231 2:0.280057 3:-0.197561 4:-0.610943 5:0.00886168 6:-0.705478 7:0.568765 8:-0.336334 9:-0.286301 10:0.439482 11:-0.358176 12:-0.307869 13:-0.767027 14:-0.25059 15:-1 16:-1 17:-0.68516 18:-0.534915 19:-1 20:-1 21:-0.598389 22:-0.723842 23:-0.49418 24:-0.50129 25:-0.796683 26:-0.587729 27:-0.738625 28:0.0589667 29:-0.796645 30:-0.377147 31:-0.619023 32:-0.686199 33:-0.565444 34:0.552025 35:-0.544542 36:-0.336664 37:-0.046903 38:-0.843445 39:-0.0921563 40:-0.456756 41:-0.342844 
0.1300001834489965 1:-0.657546 2:0.318147 3:-0.530145 4:-0.688884 5:-0.348015 6:-0.693992 7:0.416768 8:-0.380438 9:0.56046 10:0.453145 11:0.517321 12:-0.375686 13:-0.874688 14:-0.517754 15:-1 16:-1 17:-1 18:-1 19:-0.793638 20:-0.704017 21:-0.793505 22:-0.776345 23:-0.547781 24:-0.857894 25:-0.77357 26:-0.878702 27:-0.608635 28:-0.879956 29:-0.37601 30:-0.743344 31:-0.631712 32:-0.676182 33:-0.894371 34:0.297178 35:-0.611308 36:-0.943543 37:0.192241 38:-0.867873 39:-0.116581 40:-0.41578 41:-0.480894 
0.5602352394812938 1:-0.653214 2:0.208983 3:-0.196528 4:-0.604124 5:0.0733453 6:-0.713885 7:0.506197 8:-0.218707 9:-0.286357 10:0.434441 11:-0.516109 12:-0.257882 13:-0.62835 14:-0.753981 15:-0.954583 16:-0.747263 17:-0.630009 18:-0.50314 19:-1 20:-1 21:-0.601263 22:-0.530278 23:-0.614159 24:-0.631891 25:-0.44201 26:-0.79688 27:-0.475703 28:-0.542057 29:-0.452475 30:-0.299887 31:-0.0577049 32:-0.58331 33:-0.847589 34:0.202602 35:-0.608651 36:-0.642999 37:0.264641 38:-0.761718 39:-0.0969111 40:-0.357684 41:-0.584496 
0.07100434725529223 1:-0.678926 2:0.201714 3:-0.252791 4:-0.540572 5:0.074607 6:-0.710742 7:0.567903 8:-0.203886 9:-0.137262 10:0.384033 11:-0.509968 12:-0.230895 13:-0.422567 14:-0.342462 15:-1 16:-1 17:-0.317975 18:-0.491249 19:-0.80205 20:-0.404052 21:-0.318253 22:-0.0716286 23:-0.499709 24:-0.227281 25:-1 26:-1 27:-0.425507 28:0.0695341 29:-0.720774 30:-0.559798 31:-0.887046 32:-0.831944 33:-0.646117 34:0.335083 35:-0.765728 36:-0.24514 37:0.151006 38:-0.68916 39:-0.0829281 40:-0.306914 41:-0.564546 
0.4052866344559779 1:-0.673809 2:0.238896 3:-0.264198 4:-0.500087 5:0.0737259 6:-0.759722 7:0.54417 8:-0.284943 9:-0.117267 10:0.290672 11:-0.557104 12:-0.106046 13:-0.694155 14:-0.224588 15:-1 16:-1 17:-0.362478 18:-0.509743 19:-0.387454 20:-0.164196 21:-0.552434 22:-0.08411 23:-0.738516 24:-0.522418 25:-0.448036 26:-0.184473 27:-0.892024 28:-0.833931 29:-1 30:-1 31:-0.872753 32:-0.843028 33:-0.311655 34:0.458557 35:-0.774632 36:-0.170057 37:0.184059 38:-0.668092 39:-0.0954821 40:-0.403209 41:-0.538595 
0.4568732278915442 1:-0.680475 2:0.161053 3:-0.275726 4:-0.454972 5:0.123897 6:-0.725259 7:0.571844 8:-0.138258 9:-0.0777411 10:0.28003 11:-0.62418 12:-0.155068 13:-0.652257 14:-0.273051 15:-0.346417 16:-0.155849 17:-0.583167 18:-0.490751 19:-0.307055 20:-0.108382 21:-0.378225 22:-0.224092 23:-0.433807 24:-0.265409 25:-0.449428 26:-0.220758 27:-0.502876 28:-0.509105 29:-0.753664 30:-0.657173 31:-0.997609 32:-0.975745 33:-0.478188 34:0.389268 35:-0.730282 36:-0.241142 37:0.200409 38:-0.719907 39:-0.00228292 40:-0.411477 41:-0.577207 
0.7009278126337526 1:-0.666438 2:0.0609569 3:-0.361815 4:-0.490991 5:0.0564424 6:-0.759816 7:0.559144 8:0.0243567 9:0.157218 10:0.301651 11:-0.511035 12:-0.0874402 13:-0.729441 14:-0.232404 15:-0.372362 16:-0.431881 17:-0.268701 18:-0.519596 19:-1 20:-1 21:-0.00516778 22:-0.652892 23:-1 24:-1 25:-1 26:-1 27:-0.515104 28:-0.434799 29:-0.17772 30:-0.273483 31:-0.667805 32:-0.319504 33:-0.892695 34:-0.133832 35:-0.624689 36:-0.635489 37:0.0510492 38:-0.8894 39:-0.00382887 40:-0.373853 41:-0.520318 
0.03560177317046807 1:-0.674298 2:-0.0170693 3:-0.349385 4:-0.569683 5:0.0746694 6:-0.680805 7:0.567773 8:0.133475 9:0.103758 10:0.435693 11:-0.482423 12:-0.296427 13:-0.396423 14:-0.52852 15:-0.89548 16:-0.277664 17:-0.764563 18:-0.472248 19:-0.496892 20:-0.275893 21:-0.934752 22:-0.821964 23:-0.770528 24:-0.838967 25:-1 26:-1 27:-0.395415 28:-0.543126 29:-1 30:-1 31:0.282031 32:-0.524207 33:-0.82406 34:-0.0687017 35:-0.633653 36:-0.885955 37:0.0952782 38:-0.888458 39:-0.0971669 40:-0.30338 41:-0.588385 
0.7277355574407012 1:-0.686305 2:-0.0124921 3:-0.384441 4:-0.633099 5:0.0183986 6:-0.695308 7:0.56055 8:0.137639 9:0.202645 10:0.485402 11:-0.376089 12:-0.323806 13:-0.359336 14:-0.471138 15:-1 16:-1 17:-0.505778 18:-0.299629 19:-1 20:-1 21:-0.910927 22:-0.626389 23:-0.725162 24:-0.859338 25:-1 26:-1 27:-0.394503 28:-0.549251 29:-0.91419 30:-0.858115 31:0.216749 32:-0.488462 33:-0.852262 34:-0.0615234 35:-0.581091 36:-0.808587 37:0.123289 38:-0.906032 39:-0.0763094 40:-0.331403 41:-0.539679 
0.09601966490423737 1:-0.694007 2:-0.0263037 3:-0.38842 4:-0.577613 5:0.0312151 6:-0.653113 7:0.601276 8:0.139557 9:0.189374 10:0.462935 11:-0.364722 12:-0.350991 13:-0.600618 14:-0.641475 15:-1 16:-1 17:-0.618618 18:-0.45975 19:-0.949743 20:-0.709652 21:-0.714036 22:-0.722786 23:-0.358761 24:-0.577192 25:-1 26:-1 27:-0.681377 28:-0.76138 29:-0.400358 30:-0.823831 31:-0.357429 32:-0.610701 33:-0.891583 34:0.00717796 35:-0.703179 36:-0.619094 37:-0.132913 38:-0.691684 39:-0.00981166 40:-0.309068 41:-0.540468 
0.692429511326637 1:-0.695301 2:0.102635 3:-0.30427 4:-0.395697 5:0.265422 6:-0.660813 7:0.555741 8:-0.0444344 9:-0.00646501 10:0.239798 11:-0.808257 12:-0.256988 13:-0.236066 14:-0.230324 15:-0.466066 16:-0.109541 17:-0.457954 18:-0.372748 19:-0.473427 20:-0.515708 21:-0.098183 22:-0.59638 23:-0.163618 24:-0.587791 25:-0.507719 26:-0.528961 27:-0.629364 28:-0.367699 29:-0.274273 30:-0.443109 31:0.436686 32:-0.255161 33:-0.784453 34:-0.240627 35:-0.526252 36:-0.756489 37:-0.0520017 38:-0.714338 39:0.246005 40:-0.234553 41:-0.0534843 
0.1325925238295976 1:-0.581977 2:0.150573 3:-0.353006 4:-0.952192 5:-0.12495 6:-0.848442 7:0.0588181 8:-0.196281 9:0.227423 10:0.886626 11:-0.0386919 12:-0.189208 13:-0.773858 14:-0.847305 15:-1 16:-1 17:-1 18:-1 19:-1 20:-1 21:-0.951697 22:-0.853958 23:-0.859205 24:0.00296397 25:-1 26:-1 27:-1 28:-1 29:-1 30:-1 31:-0.701131 32:-0.388607 33:-0.724111 34:0.108953 35:-0.697698 36:-0.47347 37:0.183756 38:-0.993993 39:0.0134068 40:-0.846254 41:-0.856742 
0.6928860308657072 1:-0.700549 2:0.0730952 3:-0.322199 4:-0.130543 5:0.284865 6:-0.67368 7:0.621706 8:-0.00748386 9:0.028738 10:0.0581033 11:-0.793484 12:-0.100668 13:-0.649802 14:0.0730436 15:-0.898966 16:0.0980621 17:-0.167756 18:-0.132734 19:-0.0715217 20:0.776778 21:-0.106978 22:0.892568 23:-0.262353 24:0.118959 25:-0.0166624 26:-0.125313 27:-1 28:-1 29:0.262488 30:-0.654665 31:-0.534541 32:-0.805506 33:0.026851 34:0.498502 35:-0.726451 36:0.146787 37:0.152549 38:-0.741324 39:0.248731 40:0.325101 41:-0.0704109 
0.774230861368906 1:-0.539848 2:-0.0544478 3:-0.458903 4:-0.626448 5:0.0155661 6:-0.786593 7:0.326095 8:0.242511 9:0.460106 10:0.436118 11:-0.428021 12:-0.0472643 13:-0.608315 14:-0.847652 15:-1 16:-1 17:-0.462303 18:-0.724036 19:-0.163517 20:-0.333338 21:-0.578933 22:-0.446065 23:-0.430427 24:-0.92071 25:-0.912127 26:-0.787488 27:-0.67264 28:-0.356627 29:-0.71376 30:-0.499133 31:-0.589533 32:-0.413538 33:-0.84676 34:0.136524 35:-0.809031 36:-0.442513 37:-0.106645 38:-0.798654 39:0.0418844 40:-0.27396 41:-0.444353 
0.0632592775435353 1:-0.714472 2:0.0988152 3:-0.311238 4:-0.262135 5:0.275161 6:-0.683158 7:0.591812 8:-0.0394195 9:0.00825808 10:0.115546 11:-0.826604 12:-0.161497 13:-0.416524 14:-0.396474 15:-0.305942 16:-0.374536 17:-0.323204 18:-0.558175 19:-0.37584 20:-0.550429 21:-0.274697 22:-0.510029 23:-0.296501 24:-0.4472 25:0.515142 26:-0.587521 27:0.293187 28:-0.555402 29:0.103854 30:-0.378335 31:-0.850015 32:-0.171769 33:-0.834387 34:-0.157878 35:-0.644749 36:-0.765881 37:-0.0383241 38:-0.750081 39:0.237829 40:0.181175 41:-0.0778353 
0.5704979513367073 1:-0.720424 2:0.0570427 3:-0.255527 4:-0.412813 5:0.1688 6:-0.673054 7:0.618227 8:0.0182719 9:-0.115731 10:0.272018 11:-0.649988 12:-0.246654 13:-0.689211 14:-0.0763945 15:-0.472042 16:-0.0379007 17:-0.347186 18:-0.141984 19:-0.290494 20:-0.293534 21:-0.168249 22:0.085457 23:-0.604154 24:-0.0417329 25:-0.545896 26:0.0896236 27:-0.280148 28:-0.117875 29:0.209935 30:-0.526957 31:-0.899149 32:-0.623931 33:-0.520836 34:0.479465 35:-0.599756 36:-0.415675 37:0.00357059 38:-0.714868 39:-0.0651003 40:-0.0657476 41:-0.0241252 
0.9907626126518839 1:-0.721187 2:0.0430835 3:-0.258936 4:-0.492481 5:0.167671 6:-0.674861 7:0.588398 8:0.039902 9:-0.111073 10:0.322985 11:-0.667971 12:-0.296544 13:-0.583327 14:-0.162519 15:-0.444617 16:-0.0705351 17:-0.410992 18:-0.163158 19:-0.373193 20:-0.316786 21:-0.177682 22:0.0648473 23:-0.536796 24:0.243539 25:-0.573052 26:-0.255074 27:-0.237265 28:0.168195 29:-0.670268 30:-0.588787 31:-0.236789 32:-0.569856 33:-0.549847 34:0.489232 35:-0.568567 36:-0.395075 37:0.153591 38:-0.72867 39:-0.0548452 40:-0.0863752 41:-0.0437083 
0.3158640002260806 1:-0.56506 2:0.0296307 3:-0.153298 4:-0.965577 5:-0.164001 6:-0.731242 7:0.229723 8:0.0899203 9:-0.470581 10:0.83246 11:0.0916122 12:-0.461807 13:-0.691214 14:-0.834594 15:-1 16:-1 17:-1 18:-1 19:-0.656885 20:-0.668933 21:-1 22:-1 23:-1 24:-1 25:-0.759618 26:-0.223191 27:-0.850715 28:-0.670278 29:-1 30:-1 31:-0.543993 32:-0.937675 33:-0.937251 34:-0.027177 35:-0.624765 36:-0.535292 37:0.199245 38:-0.804618 39:0.270729 40:-0.8781 41:-0.524283 
0.7553467477934093 1:-0.717855 2:0.117024 3:-0.30819 4:-0.28798 5:0.241872 6:-0.676462 7:0.612556 8:-0.063448 9:0.00191359 10:0.156052 11:-0.764637 12:-0.179752 13:-0.648079 14:-0.597346 15:-0.429444 16:-0.75293 17:-0.407515 18:-0.753664 19:0.115829 20:-0.507394 21:-0.056619 22:-0.421806 23:-0.184421 24:-0.151888 25:-0.463215 26:-0.365971 27:-0.259497 28:-0.460624 29:0.447661 30:-0.442589 31:-0.859552 32:-0.212415 33:-0.921297 34:-0.0143805 35:-0.708162 36:-0.660419 37:-0.0558391 38:-0.731054 39:0.229109 40:0.17579 41:-0.111608 
0.1889752439746409 1:-0.532101 2:-0.111995 3:-0.0654361 4:-0.753106 5:-0.315385 6:-0.706067 7:0.292411 8:0.290225 9:-0.611558 10:0.561637 11:0.444568 12:-0.315393 13:-0.38866 14:-0.677676 15:-1 16:-1 17:-0.740226 18:-0.692354 19:-0.573807 20:-0.790773 21:-0.542578 22:-0.852134 23:-1 24:-1 25:-0.136965 26:-0.260405 27:-0.791577 28:-0.796208 29:-0.0771228 30:-0.91825 31:-0.0442868 32:-0.892103 33:-0.849712 34:-0.0327898 35:-0.707781 36:-0.834748 37:0.138447 38:-0.857757 39:0.00669674 40:-0.489386 41:-0.504851 
0.2398741791418962 1:-0.731418 2:0.0792258 3:-0.285636 4:-0.300403 5:0.232797 6:-0.683284 7:0.619041 8:-0.0132269 9:-0.0468857 10:0.151329 11:-0.762971 12:-0.182675 13:-0.595968 14:0.0811946 15:-0.35329 16:0.0860144 17:-0.272146 18:-0.157462 19:-0.0228234 20:0.245163 21:-0.0904305 22:0.172848 23:-0.367378 24:0.714913 25:0.0128858 26:0.296539 27:-0.307278 28:-0.262786 29:-0.524887 30:-0.692433 31:-0.956409 32:-0.70766 33:-0.437032 34:0.468811 35:-0.706648 36:-0.0586132 37:0.21679 38:-0.687892 39:-0.0796937 40:0.157714 41:-0.0860405 
0.5399481299368121 1:-0.734505 2:-0.074757 3:-0.162634 4:-0.689741 5:-0.299872 6:-0.7148 7:0.528388 8:0.257243 9:-0.39879 10:0.463566 11:0.445497 12:-0.38534 13:-0.707875 14:-0.588821 15:-1 16:-1 17:-1 18:-1 19:-0.802948 20:-0.678199 21:-0.613925 22:-0.712618 23:-1 24:-1 25:-0.968652 26:-0.45203 27:-0.671387 28:-0.648845 29:-0.640899 30:-0.0295686 31:-0.82401 32:-0.131121 33:-0.983358 34:0.0696766 35:-0.629749 36:-0.182919 37:0.0383618 38:-0.898943 39:-0.0819011 40:-0.258087 41:-0.566573 
0.06364997827050589 1:-0.768633 2:0.0600701 3:-0.280151 4:-0.173466 5:0.26955 6:-0.669013 7:0.662346 8:0.00960868 9:-0.0557921 10:0.0610709 11:-0.785007 12:-0.161617 13:-0.583831 14:-0.554639 15:-0.433626 16:-0.786262 17:-0.122914 18:-0.485545 19:-0.105116 20:-0.668721 21:-0.249105 22:-0.460013 23:-0.318744 24:0.259956 25:-0.447155 26:0.494684 27:-0.265918 28:-0.131342 29:-0.114683 30:-0.119164 31:-0.246426 32:-0.73177 33:-0.880291 34:0.277458 35:-0.367263 36:-0.459476 37:0.0666951 38:-0.630755 39:-0.0805562 40:0.0859275 41:-0.0255735 
0.07999101191054164 1:-0.76289 2:-0.0710561 3:-0.224171 4:-0.697335 5:-0.235407 6:-0.776379 7:0.560351 8:0.314252 9:-0.275698 10:0.441839 11:0.333508 12:-0.292372 13:-0.777599 14:-0.678441 15:-1 16:-1 17:-1 18:-1 19:-1 20:-1 21:-0.628392 22:-0.74936 23:-1 24:-1 25:-0.921834 26:-0.373942 27:-0.704956 28:-0.773776 29:-0.571757 30:-0.718251 31:-1 32:-1 33:-0.977614 34:0.160957 35:-0.606129 36:-0.20547 37:0.115627 38:-0.939025 39:-0.32592 40:-0.231128 41:-0.504751 
0.08524464031573536 1:-0.718151 2:0.125687 3:-0.291723 4:-0.155552 5:0.28568 6:-0.656904 7:0.634405 8:-0.0714093 9:-0.0314067 10:0.0875676 11:-0.78321 12:-0.145955 13:-0.604707 14:0.126126 15:-0.544583 16:0.158813 17:-0.333869 18:-0.00492217 19:-0.0515387 20:0.148945 21:-0.135392 22:0.51148 23:-0.0384102 24:0.829572 25:-0.236632 26:0.10145 27:-0.152217 28:-0.174912 29:-0.651473 30:-0.561486 31:0.112924 32:-0.752559 33:-0.263421 34:0.475358 35:-0.73231 36:0.187193 37:0.129942 38:-0.697834 39:0.211424 40:0.0681276 41:-0.0193729 
0.1264933085746919 1:-0.757238 2:0.0885904 3:-0.313535 4:-0.144528 5:0.350914 6:-0.660656 7:0.613387 8:-0.0266283 9:0.0110584 10:0.0252853 11:-0.899525 12:-0.170869 13:-0.4334 14:0.0475603 15:-0.255413 16:0.0046513 17:-0.379034 18:-0.230391 19:-0.35518 20:-0.435839 21:-0.221982 22:-0.688626 23:-0.0388464 24:-0.581199 25:-0.0328401 26:-0.532567 27:-0.470103 28:-0.498273 29:-0.149809 30:-0.246493 31:0.687648 32:-0.16178 33:-0.741079 34:-0.344117 35:-0.47168 36:-0.674946 37:-0.173702 38:-0.656805 39:0.00134622 40:0.322223 41:-0.000176876 
0.2964518565136745 1:-0.753268 2:0.0804494 3:-0.313166 4:-0.00893585 5:0.408267 6:-0.652526 7:0.613367 8:-0.0179426 9:0.00884848 10:-0.052944 11:-0.938723 12:-0.127017 13:-0.348683 14:-0.0723128 15:-0.264179 16:-0.114299 17:-0.260239 18:-0.327623 19:-0.37595 20:-0.525293 21:-0.132985 22:-0.697862 23:-0.0927474 24:-0.71932 25:0.013179 26:-0.676025 27:0.562784 28:-0.565685 29:0.10309 30:-0.303733 31:0.422723 32:-0.198917 33:-0.784719 34:-0.255313 35:-0.590996 36:-0.78778 37:-0.0627775 38:-0.767616 39:-0.00151178 40:0.250489 41:0.0404355 
0.6076805095087974 1:-0.738539 2:0.0631287 3:-0.30657 4:-0.107776 5:0.329285 6:-0.655575 7:0.631293 8:0.0033154 9:-0.00262034 10:0.0343332 11:-0.844783 12:-0.144086 13:-0.558829 14:-0.483799 15:-0.644219 16:-0.635685 17:-0.239272 18:-0.81041 19:-0.0975039 20:-0.581651 21:0.0798305 22:-0.351036 23:-0.146618 24:-0.388246 25:0.0662627 26:-0.783443 27:-0.129855 28:-0.516471 29:0.0581414 30:-0.135306 31:-0.252575 32:-0.240454 33:-0.917355 34:-0.0369234 35:-0.746053 36:-0.653427 37:-0.0656323 38:-0.778822 39:-0.0179982 40:0.250116 41:0.0328933 
0.2602310109297566 1:-0.736267 2:0.0653805 3:-0.327741 4:-0.125751 5:0.306509 6:-0.659512 7:0.63748 8:0.00123699 9:0.0386375 10:0.0490851 11:-0.816939 12:-0.141477 13:-0.601592 14:0.291269 15:-0.725027 16:0.260602 17:-0.338292 18:0.0719965 19:-0.0540321 20:0.121776 21:-0.0722505 22:1 23:-0.24458 24:0.511754 25:-0.404764 26:-0.0889387 27:-0.210564 28:-0.418638 29:0.266202 30:-0.685838 31:-0.244569 32:-0.889715 33:0.126679 34:0.546401 35:-0.742322 36:0.143966 37:0.17546 38:-0.740584 39:0.189846 40:0.502881 41:0.0726981 
0.009015119057268055 1:-0.636323 2:0.145173 3:-0.367838 4:-0.74785 5:-0.229223 6:-0.807627 7:0.384614 8:-0.148942 9:0.230168 10:0.567483 11:0.336584 12:-0.142227 13:-0.760823 14:-0.688864 15:-1 16:-1 17:-0.356301 18:-0.301443 19:-1 20:-1 21:-1 22:-1 23:-0.39332 24:-0.362162 25:-1 26:-1 27:-0.567016 28:-0.361245 29:-1 30:-1 31:-1 32:-1 33:-0.872945 34:0.143633 35:-0.765728 36:-0.382953 37:0.540823 38:-0.673712 39:-0.0876975 40:-0.310212 41:-0.455219 
0.2124920617264771 1:-0.51556 2:0.286066 3:-0.497497 4:-0.618001 5:-0.323312 6:-0.753376 7:0.316665 8:-0.352287 9:0.514206 10:0.438023 11:0.490806 12:-0.115151 13:-0.502501 14:-0.435404 15:-0.545531 16:-0.772812 17:-0.404874 18:-0.532652 19:-0.664603 20:-0.486943 21:-0.606214 22:-0.653438 23:-0.657039 24:-0.724097 25:-0.821216 26:-0.39302 27:-0.817286 28:-0.379885 29:-1 30:-1 31:-0.506976 32:-0.174537 33:-0.928805 34:0.115603 35:-0.792168 36:-0.0155751 37:0.915059 38:-0.364945 39:0.0585207 40:-0.368433 41:-0.54971 
0.1707202233055891 1:-0.722144 2:0.177865 3:-0.270697 4:-0.0974616 5:0.317681 6:-0.640715 7:0.638821 8:-0.129469 9:-0.0695088 10:0.0626818 11:-0.801473 12:-0.148345 13:-0.635594 14:-0.49981 15:-0.227101 16:-0.446598 17:-0.220148 18:-0.512734 19:-0.0587613 20:-0.65306 21:-0.263496 22:-0.789042 23:-0.222889 24:0.455734 25:0.458518 26:0.123575 27:-0.163099 28:-0.216345 29:-0.0515795 30:-0.285275 31:-0.160201 32:-0.606476 33:-0.880313 34:0.29404 35:-0.31555 36:-0.479745 37:-0.0235734 38:-0.565408 39:0.231071 40:0.353709 41:0.125718 
0.3825474204441645 1:-0.720129 2:0.110635 3:-0.304558 4:-0.532184 5:0.161894 6:-0.663075 7:0.583815 8:-0.0567994 9:-0.0053226 10:0.367521 11:-0.650068 12:-0.337201 13:-0.51941 14:-0.245079 15:-0.48945 16:-0.0697933 17:-0.446216 18:-0.247486 19:-0.427529 20:-0.258213 21:-0.332796 22:-0.42102 23:-0.0754668 24:-0.395578 25:-0.24452 26:-0.535205 27:-0.302171 28:-0.252183 29:-0.339656 30:-0.241508 31:0.404645 32:-0.299264 33:-0.756939 34:-0.287469 35:-0.395713 36:-0.750076 37:-0.0205967 38:-0.713668 39:0.13686 40:-0.296449 41:0.101881 
0.08219244173093646 1:-0.485483 2:-6.08262e-05 3:-0.510742 4:-0.760121 5:-0.0365138 6:-0.755514 7:0.239163 8:0.134185 9:0.589363 10:0.613214 11:-0.266168 12:-0.182314 13:-0.762611 14:-0.791507 15:-0.533794 16:-0.538934 17:-0.803205 18:-0.883821 19:-0.696923 20:-0.627066 21:-0.541956 22:-0.522438 23:-0.584489 24:-0.373611 25:-0.931592 26:-0.696194 27:-0.778329 28:-0.782003 29:-0.462042 30:0.0137656 31:-0.520662 32:-0.563329 33:-0.843474 34:0.165388 35:-0.761157 36:-0.454387 37:0.00103207 38:-0.772467 39:0.579465 40:-0.522384 41:-0.522828 
0.4626975198879996 1:-0.789701 2:-0.0372368 3:-0.355931 4:-0.732363 5:-0.0425404 6:-0.706447 7:0.613521 8:0.201952 9:0.145195 10:0.529644 11:-0.251325 12:-0.467151 13:-1 14:-1 15:-0.686378 16:-0.564983 17:-0.961376 18:-0.516819 19:-0.636956 20:-0.79524 21:-0.770401 22:-0.781454 23:-0.37116 24:-0.930847 25:-0.505475 26:-0.2114 27:-0.919148 28:-0.470173 29:-0.946301 30:0.115508 31:-0.760307 32:-0.391661 33:-0.918619 34:0.325343 35:-0.490633 36:-0.400925 37:-0.0124355 38:-0.756057 39:-0.177823 40:-0.462914 41:-0.0701239 
0.3336826652620271 1:-0.691607 2:0.191572 3:-0.240962 4:-0.47207 5:0.149254 6:-0.619747 7:0.607689 8:-0.157827 9:-0.13743 10:0.380573 11:-0.558255 12:-0.33476 13:-0.664424 14:-0.655241 15:-0.622121 16:-0.640315 17:-0.200996 18:-0.694671 19:-0.145394 20:-0.656467 21:-0.218379 22:-0.655851 23:-0.422101 24:-0.079454 25:-0.132535 26:0.835463 27:-0.351941 28:0.329055 29:0.249759 30:0.21892 31:0.243276 32:-0.536371 33:-0.928397 34:0.167641 35:-0.279051 36:-0.403257 37:0.143021 38:-0.659085 39:0.173615 40:0.432968 41:0.110699 
0.2156630151183442 1:-0.677301 2:0.205446 3:-0.251136 4:-0.511316 5:0.133714 6:-0.647972 7:0.580189 8:-0.184898 9:-0.123249 10:0.395137 11:-0.56232 12:-0.31338 13:-0.561697 14:-0.00849858 15:-0.387947 16:-0.00889599 17:-0.306287 18:-0.184834 19:-0.174622 20:-0.220406 21:-0.146159 22:-0.0550001 23:-0.361936 24:0.114045 25:-0.367316 26:0.0822534 27:-0.23594 28:-0.100282 29:0.362927 30:-0.0803961 31:-0.0185422 32:-0.498515 33:-0.548611 34:0.487857 35:-0.599438 36:-0.36259 37:0.0889864 38:-0.722154 39:0.168777 40:-0.12482 41:0.146341 
0.09396031615812393 1:-0.710984 2:0.0864368 3:-0.263157 4:-0.8169 5:-0.0470002 6:-0.800272 7:0.438156 8:-0.0150049 9:-0.161227 10:0.627864 11:-0.321214 12:-0.302792 13:-0.840873 14:-0.687927 15:-1 16:-1 17:-0.595261 18:-0.690984 19:-0.848159 20:-0.573503 21:-0.97686 22:-0.569921 23:-1 24:-1 25:-0.187699 26:-0.617768 27:-0.85563 28:-0.624199 29:-1 30:-1 31:-1 32:-1 33:-0.813654 34:0.117745 35:-0.700014 36:-0.696975 37:0.162947 38:-0.893456 39:-0.185063 40:-0.440407 41:-0.523644 
0.4278144062826362 1:-0.653975 2:0.248006 3:-0.23097 4:-0.488542 5:0.0335972 6:-0.641461 7:0.610562 8:-0.240456 9:-0.165873 10:0.425598 11:-0.346778 12:-0.283144 13:-0.653242 14:-0.647687 15:-0.616979 16:-0.618998 17:-0.128205 18:-0.703901 19:-0.0143666 20:-0.749818 21:-0.304449 22:-0.724312 23:-0.362452 24:-0.229708 25:-0.446025 26:-0.0432339 27:-0.323838 28:0.648424 29:0.0828956 30:0.347987 31:0.122427 32:-0.186248 33:-0.957032 34:0.130958 35:-0.412358 36:-0.128367 37:0.23536 38:-0.658352 39:0.149644 40:0.348284 41:0.0389271 
0.3418513278860076 1:-0.650884 2:0.287111 3:-0.418357 4:-0.542975 5:-0.353449 6:-0.727004 7:0.503707 8:-0.343678 9:0.291453 10:0.355843 11:0.550293 12:-0.195514 13:-0.488751 14:-0.605395 15:-0.457734 16:-0.31804 17:-0.491547 18:-0.758848 19:-0.468581 20:-0.340859 21:-1 22:-1 23:-0.633646 24:-0.779749 25:-0.256084 26:-0.786489 27:-0.389967 28:-0.908456 29:-0.105851 30:-0.313452 31:-0.0620114 32:-0.615531 33:-0.866126 34:0.21442 35:-0.759824 36:-0.897414 37:0.283586 38:-0.750143 39:-0.068894 40:-0.202009 41:-0.500655 
0.2485675230043702 1:-0.805846 2:0.104608 3:-0.301392 4:-0.79932 5:-0.262359 6:-0.747792 7:0.57393 8:-0.055221 9:-0.0128968 10:0.561046 11:0.417098 12:-0.488543 13:-0.92446 14:-0.938018 15:-0.842869 16:-0.521753 17:-0.792998 18:-0.650747 19:-1 20:-1 21:-0.47706 22:-0.485261 23:-1 24:-1 25:-0.779375 26:-0.835815 27:-0.421472 28:-0.641268 29:-0.639019 30:-0.836584 31:-0.717762 32:-0.593462 33:-0.918716 34:0.095366 35:-0.710651 36:-0.781154 37:0.290038 38:-0.692351 39:-0.215423 40:-0.219462 41:-0.623825 
0.3634255300234434 1:-0.398933 2:0.24481 3:-0.10861 4:-0.717033 5:0.0211246 6:-0.62267 7:0.34123 8:-0.226679 9:-0.412621 10:0.656681 11:-0.305564 12:-0.310638 13:-0.66064 14:-0.429151 15:-0.56108 16:-0.311451 17:-0.532754 18:-0.31134 19:-0.452689 20:-0.173091 21:-0.563507 22:-0.0583661 23:0.0318254 24:0.0743349 25:0.170933 26:-0.0164774 27:0.0522402 28:-0.144208 29:0.285454 30:0.283112 31:0.259112 32:0.24168 33:-0.716667 34:0.281482 35:-0.341898 36:-0.549983 37:0.16708 38:-0.745132 39:0.543115 40:-0.342598 41:0.147894 
0.1979966562306401 1:-0.534101 2:-0.0296363 3:-0.156751 4:-0.757115 5:-0.27025 6:-0.764363 7:0.284346 8:0.197726 9:-0.449502 10:0.601153 11:0.397287 12:-0.191477 13:-0.587338 14:-0.754573 15:-0.781016 16:-0.589374 17:-0.543378 18:-0.756424 19:-0.361817 20:-0.0964246 21:-0.693807 22:-0.682228 23:-0.339769 24:-0.426384 25:0.0230056 26:-0.590238 27:-0.0931197 28:-0.292358 29:-0.541871 30:-0.446032 31:0.0239204 32:-0.35378 33:-0.751958 34:0.151387 35:-0.724425 36:-0.713679 37:0.163944 38:-0.900813 39:0.280629 40:-0.4499 41:-0.385757 
0.3424609150887542 1:-0.414991 2:-0.100269 3:-0.134815 4:-0.682721 5:-0.266235 6:-0.768069 7:0.209967 8:0.301769 9:-0.47706 10:0.557798 11:0.35639 12:-0.0505635 13:-0.387252 14:-0.75668 15:-0.547418 16:-0.518197 17:-0.448331 18:-0.815059 19:0.123892 20:-0.614597 21:-0.354631 22:-0.313423 23:0.211764 24:-0.603836 25:0.391815 26:-0.598539 27:-0.880996 28:-0.839529 29:-0.32413 30:-0.361062 31:0.0711545 32:-0.400355 33:-0.785903 34:0.13383 35:-0.740158 36:-0.64566 37:0.0274735 38:-0.861462 39:0.248504 40:-0.424741 41:-0.425831 
0.2813317365273312 1:-0.451247 2:-0.114331 3:-0.154717 4:-0.707984 5:-0.257194 6:-0.794447 7:0.184294 8:0.361262 9:-0.461795 10:0.550585 11:0.364399 12:-0.0279397 13:-0.601874 14:-0.702641 15:-0.681518 16:-0.657698 17:-0.509395 18:-0.835547 19:0.152489 20:-0.75123 21:-0.527613 22:-0.650669 23:-0.651377 24:-0.614379 25:0.336497 26:-0.558721 27:-0.137296 28:-0.235955 29:-0.886391 30:-0.856209 31:0.218515 32:-0.31533 33:-0.856055 34:0.0469515 35:-0.713506 36:-0.642688 37:0.0532144 38:-0.896205 39:0.526044 40:-0.421806 41:-0.465155 
0.02597793468796994 1:-0.339174 2:0.0596657 3:-0.108057 4:-0.744878 5:-0.188992 6:-0.628171 7:0.307957 8:0.011417 9:-0.418091 10:0.714649 11:0.113862 12:-0.28038 13:-0.536401 14:-0.616281 15:-0.587333 16:-0.518153 17:-0.532541 18:-0.569434 19:-0.446207 20:-0.424308 21:-0.271336 22:-0.325767 23:-0.5031 24:0.186581 25:-0.551029 26:0.256204 27:0.141332 28:0.07744 29:-0.239694 30:0.63285 31:-0.222597 32:0.343366 33:-0.769642 34:0.193601 35:-0.334547 36:-0.289928 37:0.127477 38:-0.741769 39:0.692557 40:0.182927 41:0.163089 
0.3675024624993395 1:-0.544398 2:-0.0530281 3:-0.107071 4:-0.699519 5:-0.280094 6:-0.745856 7:0.326645 8:0.220582 9:-0.554932 10:0.527277 11:0.393831 12:-0.200259 13:-0.498739 14:-0.601581 15:-1 16:-1 17:-0.820209 18:-0.542593 19:-0.62979 20:-0.830121 21:-0.61715 22:-0.811557 23:-0.327967 24:-0.737055 25:-0.38685 26:-0.537713 27:-0.808875 28:-0.85147 29:0.165556 30:-0.706655 31:0.13379 32:-0.896021 33:-0.729926 34:-0.00696275 35:-0.758681 36:-0.856952 37:0.129612 38:-0.880816 39:0.177961 40:-0.426678 41:-0.563941 
0.6855331828530611 1:-0.711344 2:-0.115776 3:-0.153193 4:-0.613263 5:-0.330336 6:-0.714885 7:0.524403 8:0.310882 9:-0.40567 10:0.391268 11:0.502275 12:-0.311851 13:-0.657795 14:-0.500199 15:-1 16:-1 17:-1 18:-1 19:-0.894352 20:-0.646999 21:-0.626496 22:-0.678798 23:-0.996483 24:-0.315695 25:-1 26:-1 27:-0.673741 28:-0.677557 29:-0.694239 30:0.0697525 31:-1 32:-1 33:-0.470875 34:-0.306132 35:-0.539094 36:-0.0426999 37:-0.00502877 38:-0.947078 39:-0.101556 40:-0.304818 41:-0.497137 
0.3463677746899469 1:-0.612632 2:-0.0521565 3:-0.166357 4:-0.5775 5:-0.309307 6:-0.800016 7:0.398907 8:0.249564 9:-0.435153 10:0.32792 11:0.528547 12:-0.0300912 13:-0.68729 14:-0.615359 15:-0.820233 16:-0.912235 17:-0.447719 18:-0.813433 19:-1 20:-1 21:-0.561963 22:-0.667252 23:-0.640898 24:-0.666501 25:-0.883523 26:-0.660017 27:-0.971671 28:-0.519215 29:-1 30:-1 31:-0.863745 32:-0.79803 33:-0.880105 34:-0.0775641 35:-0.827203 36:-0.574877 37:0.535479 38:-0.417539 39:-0.0594173 40:-0.303259 41:-0.544549 
0.1123256636720131 1:-0.68842 2:0.267565 3:-0.210912 4:-0.588784 5:0.0455826 6:-0.744815 7:0.52898 8:-0.337377 9:-0.269214 10:0.379916 11:-0.485445 12:-0.212783 13:-0.561045 14:-0.218264 15:-1 16:-1 17:-0.381678 18:-0.368402 19:-1 20:-1 21:-0.244554 22:0.0516505 23:-1 24:-1 25:-0.578537 26:-0.33943 27:-0.690528 28:0.0752157 29:-1 30:-1 31:-0.687206 32:-0.729485 33:-0.4056 34:0.469025 35:-0.707848 36:-0.391269 37:-0.0528588 38:-0.854232 39:0.0327147 40:-0.435439 41:-0.430676 
0.1943201397481265 1:-0.729688 2:0.275925 3:-0.226314 4:-0.502471 5:0.0981413 6:-0.710891 7:0.596371 8:-0.318986 9:-0.203427 10:0.30547 11:-0.562775 12:-0.246672 13:-0.611471 14:-0.246585 15:-1 16:-1 17:-0.287976 18:-0.397851 19:-1 20:-1 21:-0.363458 22:-0.0479948 23:-0.98692 24:-0.635242 25:-0.560121 26:-0.215332 27:-0.907646 28:-0.728993 29:-0.946915 30:-0.86947 31:-0.866513 32:-0.870287 33:-0.457644 34:0.422559 35:-0.723616 36:-0.24981 37:-0.035957 38:-0.760498 39:-0.131072 40:-0.431483 41:-0.489014 
0.575398464831796 1:-0.613738 2:-0.0221407 3:-0.247511 4:-0.522272 5:-0.266567 6:-0.601179 7:0.598772 8:0.112781 9:-0.121985 10:0.500259 11:0.261555 12:-0.328645 13:-0.657326 14:-0.700521 15:-0.518568 16:-0.61539 17:-0.231507 18:-0.53467 19:-0.0789143 20:-0.405651 21:-0.123324 22:-0.542761 23:-0.297569 24:-0.374874 25:-0.358708 26:0.0759621 27:-0.937636 28:-0.39789 29:0.25512 30:0.594393 31:-0.184681 32:0.299989 33:-0.893522 34:-0.0388123 35:-0.481961 36:-0.0784582 37:0.317445 38:-0.680097 39:0.217721 40:1 41:0.0819779 
0.4273667479461841 1:-0.759158 2:0.23983 3:-0.256058 4:-0.505082 5:0.0714241 6:-0.73557 7:0.630845 8:-0.280591 9:-0.137121 10:0.279607 11:-0.537808 12:-0.218373 13:-0.873665 14:-0.610463 15:-1 16:-1 17:-0.273417 18:-0.69933 19:-1 20:-1 21:-0.327971 22:-0.633684 23:-0.801915 24:-0.48632 25:-1 26:-1 27:-0.682775 28:0.0552926 29:-0.85226 30:0.172043 31:-0.68905 32:-0.797074 33:-0.905076 34:0.205262 35:-0.622859 36:-0.249428 37:0.0371569 38:-0.849713 39:-0.196177 40:-0.414201 41:-0.531395 
0.3256142148131789 1:-0.630769 2:0.0352585 3:-0.239408 4:-0.669954 5:-0.231528 6:-0.596124 7:0.562735 8:0.0438278 9:-0.143854 10:0.599605 11:0.201362 12:-0.43652 13:-0.774718 14:-0.703118 15:-0.655815 16:-0.623431 17:-0.537898 18:-0.233399 19:-0.357939 20:-0.219863 21:-0.417008 22:-0.306863 23:-0.500393 24:-0.358686 25:-0.313521 26:-0.37269 27:-0.0997513 28:-0.563241 29:0.258205 30:-0.358524 31:0.566247 32:0.0248634 33:-0.824881 34:0.0548716 35:-0.474822 36:-0.673571 37:0.153721 38:-0.680075 39:0.201395 40:0.176113 41:0.0805251 
0.4389566465830311 1:-0.830507 2:0.0593921 3:-0.283278 4:-0.974789 5:-0.0866128 6:-0.840877 7:0.401558 8:0.0836989 9:-0.112353 10:0.785801 11:-0.246799 12:-0.594923 13:-0.77052 14:-0.856179 15:-1 16:-1 17:-1 18:-1 19:-1 20:-1 21:-0.81149 22:-0.728888 23:-0.816712 24:-0.753419 25:-1 26:-1 27:-1 28:-1 29:-1 30:-1 31:-0.788195 32:-0.575245 33:-0.921887 34:0.0871711 35:-0.692584 36:-0.828362 37:0.131894 38:-0.996307 39:-0.50434 40:-0.926758 41:-0.825832 
0.3204085639830372 1:-0.627234 2:0.133225 3:-0.33173 4:-0.483792 5:-0.346712 6:-0.562492 7:0.613644 8:-0.078568 9:0.0443433 10:0.476638 11:0.385589 12:-0.362058 13:-0.65428 14:-0.50327 15:-0.490672 16:-0.460134 17:-0.136964 18:-0.549493 19:-0.141206 20:-0.604638 21:-0.214232 22:-0.539943 23:-0.28233 24:-0.568554 25:-0.0189026 26:-0.381755 27:-0.942069 28:-0.793081 29:0.317462 30:0.140801 31:0.669738 32:0.0541428 33:-0.939661 34:0.231197 35:-0.399296 36:-0.272665 37:0.472837 38:-0.683778 39:0.174701 40:0.110011 41:0.127659 
0.3146524311032037 1:-0.670593 2:0.00271173 3:-0.319708 4:-0.561434 5:0.0564674 6:-0.76446 7:0.528032 8:0.132925 9:0.041087 10:0.356387 11:-0.534608 12:-0.131914 13:-0.548954 14:-0.366264 15:-1 16:-1 17:-0.458987 18:-0.563247 19:-0.793207 20:-0.337833 21:-0.076277 22:-0.412616 23:-0.181772 24:-0.116081 25:-0.798192 26:-0.274178 27:-0.630041 28:-0.401817 29:-1 30:-1 31:-0.845243 32:-0.940689 33:-0.488766 34:0.435856 35:-0.736747 36:-0.354757 37:0.138749 38:-0.654948 39:-0.00949735 40:-0.383504 41:-0.505218 
0.04523833680709427 1:-0.573405 2:0.295394 3:-0.463201 4:-0.717619 5:-0.30381 6:-0.75135 7:0.3275 8:-0.391068 9:0.452246 10:0.520497 11:0.470881 12:-0.227162 13:-0.586655 14:-0.743943 15:-1 16:-1 17:-0.458732 18:-0.547072 19:-1 20:-1 21:-0.705109 22:-0.760122 23:-0.696535 24:-0.399668 25:-1 26:-1 27:-0.887792 28:-0.335419 29:-0.544881 30:-0.630245 31:-0.66817 32:-0.197003 33:-0.970356 34:0.0829171 35:-0.829868 36:-0.0785811 37:0.815499 38:-0.4434 39:0.0252079 40:-0.448838 41:-0.497598 
0.2894617183704007 1:-0.505429 2:0.250688 3:-0.519448 4:-0.773132 5:-0.27953 6:-0.696348 7:0.301242 8:-0.276715 9:0.535467 10:0.624028 11:0.353886 12:-0.317393 13:-0.581576 14:-0.56992 15:-1 16:-1 17:-0.531492 18:-0.595767 19:-0.637528 20:-0.529463 21:-0.772716 22:-0.999936 23:-0.562988 24:-0.659245 25:-0.805079 26:-0.300816 27:-1 28:-1 29:-0.538574 30:-0.744153 31:-0.617086 32:-0.272466 33:-0.958547 34:0.0519433 35:-0.754944 36:-0.227776 37:0.634576 38:-0.541269 39:0.090591 40:-0.496005 41:-0.572695 
0.1166206015713484 1:-0.554465 2:-0.0399879 3:-0.405882 4:-0.793905 5:-0.109177 6:-0.721982 7:0.368168 8:0.201175 9:0.282697 10:0.689608 11:-0.0645165 12:-0.30537 13:-0.7877 14:-0.686041 15:-0.416109 16:-0.733644 17:-0.622001 18:-0.850198 19:-1 20:-1 21:-0.528214 22:-0.799916 23:-0.714202 24:-0.996344 25:-0.548156 26:-0.339318 27:-0.905578 28:-0.779105 29:-0.715187 30:-0.353356 31:-0.633308 32:-0.552405 33:-0.97217 34:0.133822 35:-0.615942 36:-0.267454 37:-0.0739226 38:-0.80098 39:0.201033 40:-0.552239 41:-0.369164 
0.29634230367298 1:-0.462443 2:0.00987103 3:-0.440152 4:-0.716627 5:-0.145981 6:-0.771617 7:0.271903 8:0.121951 9:0.400794 10:0.624018 11:0.0369768 12:-0.0760368 13:-0.584022 14:-0.881054 15:-0.225407 16:-0.736746 17:-0.701302 18:-0.808677 19:-0.189214 20:-0.753986 21:-0.81237 22:-0.936169 23:-0.491505 24:-0.371932 25:-0.617935 26:0.0997962 27:-1 28:-1 29:-0.72947 30:0.149689 31:-0.366734 32:-0.323798 33:-0.840394 34:0.320004 35:-0.584248 36:-0.233695 37:0.135651 38:-0.833718 39:0.360408 40:-0.431314 41:-0.300191 
0.1249361078282057 1:-0.380617 2:0.0908271 3:-0.451834 4:-0.838759 5:-0.199605 6:-0.736671 7:0.165889 8:-0.0277001 9:0.403323 10:0.772139 11:0.176879 12:-0.193833 13:-0.693518 14:-0.816598 15:-0.374861 16:-0.44614 17:-0.628396 18:-0.847178 19:-0.504356 20:-0.587246 21:-0.899281 22:-0.946735 23:-0.753095 24:-0.930223 25:-0.638972 26:0.0572219 27:-0.764149 28:-0.2976 29:-1 30:-1 31:-0.54069 32:0.07436 33:-0.921506 34:0.203465 35:-0.698714 36:-0.0758438 37:0.206562 38:-0.843386 39:0.518293 40:-0.584794 41:-0.447552 
0.4547938493329711 1:-0.467862 2:0.208894 3:-0.343398 4:-0.773062 5:-0.280317 6:-0.716412 7:0.304085 8:-0.222253 9:0.0990972 10:0.689717 11:0.376463 12:-0.240207 13:-0.800687 14:-0.738373 15:-1 16:-1 17:-0.679327 18:-0.733493 19:-0.619423 20:-0.201148 21:-0.248178 22:-0.621515 23:-0.609673 24:0.0527308 25:-0.86074 26:-0.405454 27:-0.902634 28:-0.535365 29:-0.623035 30:-0.321744 31:-0.796328 32:-0.50021 33:-0.753429 34:0.133659 35:-0.569462 36:-0.376609 37:0.283639 38:-0.867282 39:0.523877 40:-0.470547 41:-0.393782 
0.1130450499153989 1:-0.478961 2:0.359239 3:-0.414502 4:-0.396459 5:-0.397128 6:-0.728802 7:0.406733 8:-0.41071 9:0.247751 10:0.297119 11:0.584076 12:-0.010445 13:-0.617535 14:-0.257166 15:-0.0266708 16:-0.213732 17:-0.675027 18:-0.467951 19:-0.476119 20:-0.809125 21:-0.797202 22:-0.713813 23:-0.942963 24:-0.531476 25:-0.423369 26:-0.585522 27:-0.55525 28:-0.303765 29:-0.680241 30:-0.395778 31:-0.338946 32:-0.0385505 33:-0.822267 34:0.299911 35:-0.72713 36:-0.377718 37:0.596663 38:-0.58766 39:0.318109 40:-0.0195331 41:-0.461775 
0.1211579889405826 1:-0.693186 2:0.0937855 3:-0.358948 4:-0.788852 5:-0.0142183 6:-0.777045 7:0.444244 8:-0.0326694 9:0.187445 10:0.597555 11:-0.397556 12:-0.313087 13:-0.87351 14:-0.62646 15:-1 16:-1 17:-1 18:-1 19:-0.657511 20:-0.459189 21:-0.767903 22:-0.659361 23:-1 24:-1 25:-0.334916 26:-0.443934 27:-0.800861 28:-0.628644 29:-1 30:-1 31:-0.570853 32:-0.932306 33:-0.716391 34:-0.123688 35:-0.633482 36:-0.782104 37:0.0750529 38:-0.837318 39:-0.066237 40:-0.526259 41:-0.591026 
0.9866395719999407 1:-0.592629 2:0.312351 3:-0.320392 4:-0.475008 5:-0.332063 6:-0.764187 7:0.476884 8:-0.400301 9:0.038938 10:0.302809 11:0.519441 12:-0.0275005 13:-0.613008 14:-0.262636 15:-0.442074 16:-0.456992 17:-0.494895 18:-0.416837 19:-0.467875 20:-0.66567 21:-0.342092 22:-0.811299 23:-0.524294 24:-0.773925 25:-0.280067 26:-0.984412 27:-0.28274 28:-0.689292 29:0.134804 30:-0.396239 31:-0.0451399 32:-0.65254 33:-0.865212 34:0.279139 35:-0.690049 36:-0.855164 37:0.310389 38:-0.790308 39:-0.0816051 40:-0.0560638 41:-0.322424 
0.4248657145101719 1:-0.728278 2:0.117632 3:-0.324544 4:-0.815312 5:-0.0277324 6:-0.793674 7:0.458264 8:-0.0887734 9:0.0751241 10:0.611029 11:-0.385801 12:-0.336963 13:-0.831254 14:-0.779058 15:-1 16:-1 17:-0.698013 18:-0.501918 19:-0.822529 20:-0.568631 21:-0.761326 22:-0.631386 23:-1 24:-1 25:-0.374615 26:-0.796432 27:-0.71934 28:-0.520083 29:-1 30:-1 31:-1 32:-1 33:-0.763414 34:-0.0810004 35:-0.672884 36:-0.795664 37:0.117281 38:-0.881338 39:-0.024617 40:-0.493142 41:-0.470681 
1 1:-0.579216 2:0.298333 3:-0.343694 4:-0.485477 5:-0.347999 6:-0.723826 7:0.491893 8:-0.346858 9:0.0923632 10:0.363425 11:0.512616 12:-0.11066 13:-0.58054 14:-0.510551 15:-0.468259 16:-0.220962 17:-0.517741 18:-0.424708 19:-0.494805 20:-0.346265 21:0.00611201 22:-0.889964 23:0.12488 24:-0.799235 25:-0.517802 26:-0.856781 27:-0.398904 28:-0.930036 29:-0.19502 30:-0.630222 31:0.247941 32:-0.441335 33:-0.840425 34:0.270094 35:-0.671297 36:-0.852865 37:0.307299 38:-0.783334 39:-0.0656193 40:-0.163417 41:-0.424754 
0.06114411520413633 1:-0.520609 2:0.314873 3:-0.359598 4:-0.449261 5:-0.375188 6:-0.713541 7:0.455747 8:-0.352281 9:0.123376 10:0.358896 11:0.543623 12:-0.0798432 13:-0.60245 14:-0.383796 15:-0.0481618 16:-0.245394 17:-0.404705 18:-0.504186 19:-0.237818 20:-0.46217 21:-0.810764 22:-0.705108 23:-0.950485 24:-0.532724 25:-0.447258 26:-0.837213 27:-0.608012 28:-0.219188 29:-0.772131 30:-0.392902 31:-0.407591 32:-0.183357 33:-0.841052 34:0.279347 35:-0.697065 36:-0.262172 37:0.61497 38:-0.607879 39:0.0519678 40:-0.0728144 41:-0.41589 
0.9881654037242611 1:-0.715354 2:0.0768741 3:-0.34389 4:-0.861642 5:-0.0702472 6:-0.792869 7:0.422381 8:0.00809605 9:0.152394 10:0.692394 11:-0.235834 12:-0.374786 13:-0.814831 14:-0.716315 15:-1 16:-1 17:-1 18:-1 19:-0.736098 20:-0.513958 21:-0.975008 22:-0.740542 23:-1 24:-1 25:-0.807889 26:-0.810535 27:-0.645658 28:-0.210869 29:-1 30:-1 31:-1 32:-1 33:-0.867793 34:0.022587 35:-0.642976 36:-0.647562 37:0.129916 38:-0.918673 39:-0.155251 40:-0.452767 41:-0.57816 
0.1632678561834124 1:-0.55461 2:-0.0174471 3:-0.394648 4:-0.64176 5:0.0562432 6:-0.639151 7:0.477397 8:0.118801 9:0.192974 10:0.564172 11:-0.399077 12:-0.327398 13:-0.814743 14:-0.727997 15:-0.878135 16:-0.703384 17:-0.344628 18:-0.480959 19:-0.182351 20:-0.545904 21:-0.214177 22:-0.212649 23:-0.639767 24:-0.0877355 25:-0.474019 26:0.0787543 27:-0.357771 28:-0.301515 29:0.152924 30:-0.0361639 31:0.05908 32:-0.238056 33:-0.86334 34:0.117855 35:-0.542322 36:-0.334164 37:-0.0914219 38:-0.736138 39:0.639319 40:-0.111189 41:0.137056 
0.9527940655528494 1:-0.657931 2:0.267952 3:-0.331055 4:-0.481804 5:-0.358146 6:-0.743146 7:0.539583 8:-0.318744 9:0.0660468 10:0.297043 11:0.573725 12:-0.121138 13:-0.640527 14:-0.468087 15:-0.492229 16:-0.226805 17:-0.502567 18:-0.485513 19:-0.354096 20:-0.514705 21:-0.58843 22:-0.904351 23:0.132746 24:-0.82827 25:-0.668724 26:-0.8805 27:-0.395847 28:-0.784147 29:0.019032 30:-0.391403 31:-0.072169 32:-0.664653 33:-0.837979 34:0.299369 35:-0.698937 36:-0.836825 37:0.337836 38:-0.777558 39:-0.175882 40:-0.0890337 41:-0.384032 
0.1661252675449781 1:-0.694609 2:0.166773 3:-0.3294 4:-0.893002 5:-0.147096 6:-0.857241 7:0.271571 8:-0.260996 9:0.128437 10:0.746064 11:0.0651573 12:-0.209369 13:-0.736943 14:-0.858492 15:-1 16:-1 17:-1 18:-1 19:-1 20:-1 21:-0.827942 22:-0.637252 23:-0.614879 24:-0.746822 25:-1 26:-1 27:-1 28:-1 29:-1 30:-1 31:-0.404864 32:-0.461358 33:-0.857992 34:0.143982 35:-0.688987 36:-0.749489 37:0.152633 38:-0.995025 39:-0.342231 40:-0.757755 41:-0.71398 
0.9421656886029375 1:-0.567817 2:0.276252 3:-0.34024 4:-0.486541 5:-0.383871 6:-0.712223 7:0.478068 8:-0.303722 9:0.0806267 10:0.369221 11:0.578457 12:-0.1312 13:-0.65231 14:-0.510237 15:-0.546528 16:-0.239805 17:-0.540942 18:-0.410928 19:-0.476827 20:-0.329545 21:0.0553759 22:-0.862404 23:-0.579133 24:-0.850461 25:0.0779756 26:-0.845753 27:-0.215654 28:-0.62492 29:0.138393 30:-0.339454 31:0.251468 32:-0.409415 33:-0.81554 34:0.274967 35:-0.727878 36:-0.818013 37:0.326152 38:-0.780276 39:-0.0259546 40:-0.0362398 41:-0.433869 
0.6310374404581672 1:-0.701726 2:0.180322 3:-0.294385 4:-0.742873 5:-0.307346 6:-0.70744 7:0.510712 8:-0.182495 9:-0.0323501 10:0.562545 11:0.468047 12:-0.407039 13:-0.94663 14:-0.671726 15:-0.588005 16:-0.507031 17:-0.565628 18:-0.561847 19:-0.749833 20:-0.811986 21:-0.650829 22:-0.585117 23:-0.850729 24:-0.69727 25:-0.390996 26:-0.269982 27:-0.875571 28:-0.647266 29:-0.657491 30:-0.466815 31:-0.660116 32:-0.543569 33:-0.836752 34:0.288479 35:-0.649737 36:-0.536643 37:0.313729 38:-0.822835 39:-0.111943 40:-0.269218 41:-0.473331 
0.8209980064623823 1:-0.681084 2:0.217845 3:-0.313573 4:-0.660116 5:-0.321286 6:-0.724944 7:0.516581 8:-0.247043 9:0.0212785 10:0.479447 11:0.50457 12:-0.29564 13:-0.825988 14:-0.524999 15:-0.71057 16:-0.290808 17:-0.662021 18:-0.713108 19:-0.559891 20:-0.383792 21:-0.645535 22:-0.613921 23:-1 24:-1 25:-0.5898 26:-0.841741 27:-0.232607 28:-0.835609 29:-0.490559 30:-0.549121 31:0.124886 32:-0.501716 33:-0.846409 34:0.253165 35:-0.694177 36:-0.832557 37:0.316385 38:-0.799656 39:-0.0679876 40:-0.260039 41:-0.458258 
0.5786756946774859 1:-0.634536 2:0.0952749 3:-0.254361 4:-0.947476 5:-0.154932 6:-0.844662 7:0.149731 8:-0.0368933 9:-0.237221 10:0.86411 11:0.0973358 12:-0.254604 13:-0.652983 14:-0.803583 15:-1 16:-1 17:-1 18:-1 19:-1 20:-1 21:-0.790234 22:-0.175685 23:-1 24:-1 25:-1 26:-1 27:-1 28:-1 29:-1 30:-1 31:-0.66697 32:-0.34216 33:-0.74338 34:0.184305 35:-0.74844 36:-0.637073 37:0.179173 38:-0.997479 39:-0.172831 40:-0.843497 41:-0.784118 
0.9919255913860613 1:-0.582099 2:-0.0424756 3:-0.353121 4:-0.552576 5:0.0575661 6:-0.634544 7:0.537924 8:0.14793 9:0.0983967 10:0.498351 11:-0.390974 12:-0.291562 13:-0.670693 14:-0.738843 15:-0.498609 16:-0.684338 17:-0.199963 18:-0.661772 19:-0.107692 20:-0.52242 21:-0.219668 22:-0.259526 23:-0.370428 24:-0.0745723 25:-0.415411 26:-0.10869 27:-0.273534 28:-0.205364 29:0.345829 30:-0.11781 31:-0.0993499 32:0.0878127 33:-0.852042 34:0.154992 35:-0.540655 36:-0.219737 37:-0.174205 38:-0.696314 39:0.185658 40:0.283688 41:0.129013 
0.8262726900691025 1:-0.628352 2:0.215457 3:-0.307632 4:-0.69619 5:-0.326497 6:-0.718334 7:0.456585 8:-0.238396 9:0.00432482 10:0.538748 11:0.507444 12:-0.2972 13:-0.960609 14:-0.703304 15:-0.640531 16:-0.496231 17:-0.670726 18:-0.586344 19:-0.439864 20:-0.404948 21:-0.714951 22:-0.684002 23:-0.422533 24:-0.0645375 25:-1 26:-1 27:-0.858902 28:-0.636258 29:-0.647127 30:-0.516427 31:-0.688073 32:-0.560998 33:-0.839884 34:0.230746 35:-0.714979 36:-0.3774 37:0.383369 38:-0.751378 39:-0.101121 40:-0.22681 41:-0.523771 
0.1356492388109899 1:-0.572625 2:0.23955 3:-0.34427 4:-0.625822 5:-0.350508 6:-0.730342 7:0.421423 8:-0.272476 9:0.101307 10:0.478516 11:0.555115 12:-0.188152 13:-0.742705 14:-0.518504 15:-0.379151 16:-0.262109 17:-0.521484 18:-0.832733 19:-0.230084 20:-0.565517 21:-0.64247 22:-0.570332 23:-0.897756 24:-0.861901 25:-1 26:-1 27:-0.612591 28:-0.128726 29:-0.733897 30:-0.425618 31:-0.5254 32:-0.257801 33:-0.805669 34:0.246747 35:-0.773266 36:-0.428535 37:0.460128 38:-0.766807 39:-0.0834142 40:-0.288871 41:-0.406132 
0.1417517267644159 1:-0.830899 2:0.159578 3:-0.293058 4:-0.827145 5:-0.0524133 6:-0.81236 7:0.567777 8:-0.209494 9:-0.049403 10:0.55355 11:-0.338345 12:-0.425427 13:-0.866973 14:-0.792822 15:-1 16:-1 17:-0.938186 18:-0.671103 19:-0.577164 20:-0.806773 21:-1 22:-1 23:-1 24:-1 25:-0.149581 26:-0.64597 27:-1 28:-1 29:-1 30:-1 31:-1 32:-1 33:-0.959287 34:0.0814705 35:-0.740882 36:-0.854507 37:0.0259357 38:-0.839949 39:-0.53827 40:-0.497015 41:-0.615937 
0.07670551161418418 1:-0.61142 2:0.21404 3:-0.349974 4:-0.669792 5:-0.320843 6:-0.73382 7:0.444022 8:-0.240192 9:0.12276 10:0.51275 11:0.502712 12:-0.236176 13:-0.803569 14:-0.635773 15:-0.415579 16:-0.327174 17:-0.572376 18:-0.810364 19:-0.273754 20:-0.601584 21:-0.705863 22:-0.713163 23:-0.83151 24:-0.830606 25:-0.925517 26:-0.885457 27:-0.564309 28:-0.188351 29:-0.660184 30:-0.510531 31:-0.67289 32:-0.463821 33:-0.81129 34:0.237288 35:-0.738618 36:-0.494699 37:0.381039 38:-0.798848 39:-0.094784 40:-0.26497 41:-0.531945 
0.02177724341175528 1:-0.624407 2:-0.0205883 3:-0.360189 4:-0.583386 5:0.107868 6:-0.643966 7:0.529746 8:0.123735 9:0.117558 10:0.479067 11:-0.510368 12:-0.33002 13:-0.675688 14:-0.700678 15:-0.508732 16:-0.730042 17:-0.332884 18:-0.559325 19:-0.258985 20:-0.530526 21:-0.219766 22:-0.283366 23:-0.495638 24:-0.115876 25:-0.363463 26:-0.113028 27:-0.15027 28:-0.622485 29:-0.0322839 30:-0.251484 31:-0.0237904 32:-0.161344 33:-0.882135 34:0.100139 35:-0.553741 36:-0.417888 37:-0.100922 38:-0.694337 39:0.170012 40:-0.124151 41:0.1236 
0.2417275609787033 1:-0.591132 2:0.262108 3:-0.329248 4:-0.519572 5:-0.394545 6:-0.701927 7:0.485757 8:-0.281983 9:0.0540431 10:0.39073 11:0.601266 12:-0.185459 13:-0.74968 14:-0.472479 15:-0.576546 16:-0.202902 17:-0.603665 18:-0.734731 19:-0.458032 20:-0.417517 21:-0.622451 22:-0.870074 23:-0.745009 24:-0.641438 25:-0.59955 26:-0.938106 27:-0.271409 28:-0.837136 29:-0.701429 30:-0.703054 31:0.29773 32:-0.445786 33:-0.810624 34:0.28952 35:-0.745308 36:-0.851389 37:0.294239 38:-0.774909 39:-0.0998202 40:-0.0267317 41:-0.420613 
0.02739124589703357 1:-0.803093 2:0.174819 3:-0.244273 4:-0.852602 5:-0.049143 6:-0.785453 7:0.517662 8:-0.228755 9:-0.236596 10:0.609326 11:-0.316363 12:-0.483032 13:-0.780413 14:-0.686419 15:-1 16:-1 17:-0.942226 18:-0.802446 19:-0.544793 20:-0.759468 21:-1 22:-1 23:-1 24:-1 25:-0.10673 26:-0.483248 27:-1 28:-1 29:-1 30:-1 31:-0.997571 32:-0.88218 33:-0.906285 34:0.203184 35:-0.723885 36:-0.919892 37:0.148158 38:-0.816124 39:-0.273186 40:-0.550287 41:-0.566964 
0.7963738089912558 1:-0.631793 2:-0.00524846 3:-0.354307 4:-0.545192 5:0.099023 6:-0.648503 7:0.55362 8:0.102892 9:0.104671 10:0.452214 11:-0.492156 12:-0.301783 13:-0.698922 14:-0.735362 15:-0.524538 16:-0.733791 17:-0.296606 18:-0.579426 19:-0.271439 20:-0.573138 21:-0.231092 22:-0.268325 23:-0.519333 24:-0.145034 25:-0.419808 26:-0.126764 27:-0.382341 28:-0.605553 29:0.172317 30:-0.187179 31:0.494892 32:-0.130842 33:-0.880542 34:0.0797902 35:-0.542573 36:-0.407968 37:-0.0980585 38:-0.718786 39:0.207188 40:-0.00699759 41:0.148548 
0.7967180633689118 1:-0.620705 2:0.178248 3:-0.295491 4:-0.636389 5:-0.34593 6:-0.717916 7:0.475975 8:-0.171363 9:-0.0283599 10:0.486161 11:0.542247 12:-0.247713 13:-0.95282 14:-0.592619 15:-0.61949 16:-0.318137 17:-0.685761 18:-0.622289 19:-0.454617 20:-0.360057 21:-0.687158 22:-0.896197 23:-0.321593 24:-0.217826 25:-0.824035 26:-0.899154 27:-0.245592 28:-0.23549 29:-0.35406 30:-0.517295 31:-0.716097 32:-0.553351 33:-0.802647 34:0.242653 35:-0.778848 36:-0.612208 37:0.233754 38:-0.712439 39:-0.065294 40:0.104722 41:-0.561702 
0.2840993417198308 1:-0.654743 2:-0.00389656 3:-0.323205 4:-0.551164 5:0.124822 6:-0.651194 7:0.555241 8:0.102306 9:0.0362001 10:0.435511 11:-0.552201 12:-0.319197 13:-0.619345 14:-0.526844 15:-0.582122 16:-0.39225 17:-0.512762 18:-0.241774 19:-0.566944 20:-0.210979 21:-0.435931 22:-0.354023 23:-0.0323603 24:-0.484154 25:0.172156 26:-0.485827 27:-0.352612 28:-0.484778 29:0.435756 30:-0.0231828 31:0.831675 32:-0.345017 33:-0.838662 34:0.188433 35:-0.366285 36:-0.746856 37:0.251427 38:-0.677393 39:0.153865 40:-0.137905 41:0.105866 
0.9957525496765859 1:-0.605666 2:0.140548 3:-0.253722 4:-0.744442 5:-0.262034 6:-0.777386 7:0.383553 8:-0.127342 9:-0.168881 10:0.591474 11:0.404482 12:-0.192384 13:-0.874917 14:-0.661675 15:-0.666712 16:-0.355744 17:-0.727096 18:-0.64621 19:-0.6392 20:-0.180069 21:-0.63882 22:-0.454231 23:-0.586689 24:-0.592119 25:-0.0208847 26:-0.230372 27:-1 28:-1 29:-0.839657 30:-0.922389 31:-0.038686 32:-0.225889 33:-0.805235 34:0.153519 35:-0.764935 36:-0.669275 37:0.182776 38:-0.645004 39:-0.0184368 40:0.0718948 41:-0.550916 
0.5545813348033307 1:-0.671161 2:0.00897627 3:-0.310472 4:-0.546413 5:0.131409 6:-0.650156 7:0.566316 8:0.0845165 9:0.0077213 10:0.423902 11:-0.566426 12:-0.328326 13:-0.569352 14:-0.549802 15:-0.558983 16:-0.190729 17:-0.506012 18:-0.257113 19:-0.543625 20:-0.247397 21:-0.406716 22:-0.359366 23:-0.0247971 24:-0.475501 25:0.108501 26:-0.368024 27:-0.327449 28:-0.57879 29:0.485582 30:0.00633258 31:0.836875 32:-0.379945 33:-0.848696 34:0.168599 35:-0.324124 36:-0.75555 37:0.249797 38:-0.68198 39:0.142046 40:-0.0576247 41:0.101779 
0.7437506272377757 1:-0.637738 2:0.197481 3:-0.290042 4:-0.594927 5:-0.329954 6:-0.785965 7:0.454748 8:-0.23199 9:-0.048095 10:0.373463 11:0.586708 12:-0.0863265 13:-0.842359 14:-0.604854 15:-0.44259 16:-0.380808 17:-0.672487 18:-0.890388 19:-0.430982 20:-0.552032 21:-0.40189 22:-0.701103 23:-0.780224 24:-0.523764 25:-0.338163 26:-0.730449 27:-0.335306 28:-0.651317 29:-0.75121 30:-0.555406 31:0.189188 32:-0.47765 33:-0.889503 34:0.223687 35:-0.794071 36:-0.824335 37:0.374445 38:-0.628328 39:0.033347 40:0.141352 41:-0.561124 
0.0583416378507039 1:-0.808672 2:0.0808925 3:-0.222512 4:-0.856032 5:-0.0645191 6:-0.786104 7:0.525624 8:-0.0011216 9:-0.324561 10:0.614158 11:-0.26101 12:-0.491727 13:-0.660153 14:-0.678011 15:-1 16:-1 17:-0.680279 18:-0.934323 19:-0.718163 20:-0.647542 21:-1 22:-1 23:-1 24:-1 25:-0.35888 26:-0.717182 27:-0.941966 28:-0.815044 29:-1 30:-1 31:-1 32:-1 33:-0.9338 34:0.108754 35:-0.705096 36:-0.805836 37:0.239163 38:-0.868295 39:-0.413286 40:-0.475257 41:-0.552436 
0.2280720415475493 1:-0.671143 2:0.00480761 3:-0.323341 4:-0.520043 5:0.147246 6:-0.652083 7:0.567178 8:0.0892426 9:0.0361031 10:0.396989 11:-0.595303 12:-0.310915 13:-0.574433 14:-0.526331 15:-0.533002 16:-0.221329 17:-0.393685 18:-0.237996 19:-0.534288 20:-0.258726 21:-0.393903 22:-0.357959 23:0.0234669 24:-0.515134 25:0.105559 26:-0.442206 27:0.262007 28:0.0167789 29:0.664371 30:-0.19877 31:0.459125 32:-0.562177 33:-0.845782 34:0.16801 35:-0.324518 36:-0.750062 37:0.236711 38:-0.687235 39:0.30145 40:-0.0522769 41:0.128159 
0.3246259934591225 1:-0.657661 2:0.177556 3:-0.25068 4:-0.644272 5:-0.320261 6:-0.732528 7:0.501169 8:-0.178037 9:-0.154954 10:0.472482 11:0.503836 12:-0.251174 13:-0.878239 14:-0.563451 15:-0.563707 16:-0.289525 17:-0.765394 18:-0.555763 19:-0.397916 20:-0.536915 21:-0.336422 22:-0.676004 23:-0.77896 24:-0.659033 25:-0.660877 26:-0.832875 27:-0.313457 28:-0.733101 29:-0.863881 30:-0.825208 31:0.358554 32:-0.513375 33:-0.846357 34:0.294639 35:-0.659155 36:-0.753676 37:0.371167 38:-0.73713 39:0.00248284 40:0.0799057 41:-0.435438 
0.2262696956340167 1:-0.685283 2:0.0143354 3:-0.318779 4:-0.507415 5:0.152504 6:-0.649018 7:0.580658 8:0.0754242 9:0.0257232 10:0.383069 11:-0.602316 12:-0.316065 13:-0.419649 14:-0.0991275 15:-0.245613 16:-0.0553059 17:-0.336952 18:-0.196511 19:-0.32044 20:0.217427 21:-0.18449 22:-0.0087824 23:-0.51718 24:0.12801 25:-0.447821 26:0.0305211 27:-0.0717863 28:-0.10229 29:0.155286 30:-0.355784 31:0.0134693 32:-0.53014 33:-0.542751 34:0.486608 35:-0.597707 36:-0.421106 37:0.108157 38:-0.708665 39:0.154483 40:-0.00983619 41:0.138812 
0.9158397035049181 1:-0.62976 2:0.159764 3:-0.240003 4:-0.652348 5:-0.326104 6:-0.742538 7:0.461229 8:-0.148974 9:-0.187615 10:0.481213 11:0.527655 12:-0.219316 13:-0.867163 14:-0.743943 15:-0.632458 16:-0.353701 17:-0.705031 18:-0.686457 19:-0.738405 20:-0.361545 21:-0.680238 22:-0.716353 23:-0.595315 24:-0.63052 25:-0.106945 26:-0.282512 27:-1 28:-1 29:-0.318067 30:-0.389465 31:-0.617311 32:-0.557563 33:-0.797512 34:0.265157 35:-0.753238 36:-0.567083 37:0.275746 38:-0.743142 39:-0.0653671 40:0.000754215 41:-0.48933 
0.622971946018231 1:-0.689375 2:0.192323 3:-0.270217 4:-0.6327 5:-0.326736 6:-0.726745 7:0.535119 8:-0.202246 9:-0.0994439 10:0.448913 11:0.517004 12:-0.276932 13:-0.842057 14:-0.648476 15:-0.565117 16:-0.44521 17:-0.592601 18:-0.662072 19:-0.361878 20:-0.684287 21:-0.295744 22:-0.844299 23:-0.680869 24:-0.675769 25:-0.660426 26:-0.877588 27:-0.36387 28:-0.551384 29:-1 30:-1 31:0.11908 32:-0.458214 33:-0.932569 34:0.167386 35:-0.760779 36:-0.795081 37:0.356265 38:-0.719204 39:-0.142489 40:-0.00413046 41:-0.542546 
0.3580846313651657 1:-0.727881 2:0.0967852 3:-0.247504 4:-0.899407 5:-0.205712 6:-0.736524 7:0.450582 8:-0.0388431 9:-0.191606 10:0.727741 11:0.230672 12:-0.532933 13:-0.868103 14:-0.774019 15:-1 16:-1 17:-0.664646 18:-0.193913 19:-1 20:-1 21:-0.479381 22:-0.603258 23:-0.729973 24:-0.574262 25:-1 26:-1 27:-0.766114 28:-0.84507 29:-1 30:-1 31:-0.501263 32:-0.590688 33:-0.796858 34:-0.0334347 35:-0.730772 36:-0.817665 37:0.0931694 38:-0.592018 39:-0.141294 40:-0.684812 41:-0.61129 
0.007786937984287058 1:-0.688316 2:0.0384205 3:-0.308858 4:-0.507253 5:0.163109 6:-0.640274 7:0.582238 8:0.0412898 9:0.00358971 10:0.385284 11:-0.613788 12:-0.330328 13:-0.520731 14:-0.546044 15:-0.497345 16:-0.256 17:-0.403055 18:-0.297183 19:-0.467329 20:-0.32448 21:-0.360472 22:-0.454488 23:0.0454348 24:-0.44714 25:0.0534707 26:-0.38532 27:0.237537 28:0.104289 29:0.663528 30:0.00217771 31:0.460154 32:-0.631745 33:-0.857459 34:0.182196 35:-0.364499 36:-0.702008 37:0.25252 38:-0.699608 39:0.109661 40:-0.0897143 41:0.123901 
0.5809318928026026 1:-0.675723 2:0.0432223 3:-0.312196 4:-0.514076 5:0.170815 6:-0.631979 7:0.571532 8:0.0336317 9:0.0104032 10:0.398606 11:-0.618318 12:-0.338487 13:-0.516155 14:-0.49414 15:-0.499572 16:-0.235816 17:-0.500688 18:-0.231388 19:-0.488051 20:-0.177105 21:-0.371645 22:-0.376786 23:-0.050982 24:-0.270423 25:0.00962332 26:-0.376107 27:-0.391684 28:0.0926616 29:0.650626 30:-0.026058 31:0.85411 32:-0.533087 33:-0.818239 34:0.227894 35:-0.396239 36:-0.685452 37:0.265844 38:-0.660492 39:0.167921 40:-0.0424241 41:0.0687 
0.842113570987323 1:-0.677117 2:0.0121263 3:-0.299459 4:-0.424815 5:0.140886 6:-0.629086 7:0.619452 8:0.0717157 9:-0.0165492 10:0.35648 11:-0.542698 12:-0.283839 13:-0.540596 14:-0.0587682 15:-0.470642 16:-0.0615261 17:-0.29695 18:-0.159829 19:0.00336806 20:-0.00312057 21:-0.209487 22:-0.0406804 23:-0.469333 24:0.129448 25:-0.362253 26:0.291376 27:0.131271 28:-0.11141 29:0.165148 30:-0.428646 31:-0.532104 32:-0.286102 33:-0.534655 34:0.518031 35:-0.583747 36:-0.287998 37:-0.0223892 38:-0.691041 39:0.101029 40:0.344668 41:0.128186 
1 1:-0.68755 2:0.131705 3:-0.215495 4:-0.85802 5:-0.230504 6:-0.766973 7:0.397847 8:-0.114294 9:-0.311904 10:0.681973 11:0.324639 12:-0.401219 13:-0.807609 14:-0.75127 15:-0.69123 16:-0.6779 17:-0.643354 18:-0.568388 19:-0.12538 20:-0.322969 21:-0.385884 22:-0.766279 23:-0.631517 24:-0.601068 25:-0.451475 26:-0.81676 27:-0.580056 28:-0.606598 29:-1 30:-1 31:-0.373893 32:-0.602845 33:-0.853248 34:0.0769602 35:-0.745283 36:-0.835406 37:0.176395 38:-0.784597 39:-0.156249 40:-0.631065 41:-0.511301 
0.8362335592666833 1:-0.722881 2:0.0556334 3:-0.285379 4:-0.489291 5:0.180568 6:-0.651437 7:0.596446 8:0.0193094 9:-0.0479709 10:0.339262 11:-0.663617 12:-0.328574 13:-0.507779 14:-0.0910674 15:-0.487633 16:-0.0499603 17:-0.407282 18:-0.213058 19:-0.357569 20:-0.191791 21:-0.138279 22:0.08355 23:-0.128827 24:0.197835 25:-0.000860097 26:-0.410129 27:-0.28777 28:-0.0842648 29:0.679793 30:-0.247223 31:-0.674186 32:-0.744478 33:-0.621354 34:0.412732 35:-0.566829 36:-0.665333 37:0.270648 38:-0.70483 39:0.126557 40:-0.0601099 41:0.0106937 
0.1713103728996345 1:-0.669567 2:0.154295 3:-0.242684 4:-0.856766 5:-0.216988 6:-0.771075 7:0.387812 8:-0.164114 9:-0.219153 10:0.701571 11:0.282039 12:-0.370813 13:-0.911319 14:-0.77077 15:-0.667452 16:-0.671007 17:-0.571299 18:-0.427327 19:-1 20:-1 21:-0.162761 22:-0.671539 23:-0.753966 24:-0.594569 25:-0.640575 26:-0.79508 27:-0.925669 28:-0.985239 29:-1 30:-1 31:-0.360297 32:-0.57704 33:-0.855136 34:0.0658209 35:-0.749641 36:-0.783236 37:0.146059 38:-0.700852 39:-0.123145 40:-0.592131 41:-0.568722 
0.7400990648606203 1:-0.572704 2:0.270597 3:-0.123759 4:-0.840264 5:0.00509885 6:-0.722783 7:0.291152 8:-0.341324 9:-0.514009 10:0.656216 11:-0.373697 12:-0.377309 13:-0.69711 14:-0.647785 15:-1 16:-1 17:-0.968238 18:-0.865513 19:-0.794312 20:-0.511303 21:-1 22:-1 23:-1 24:-1 25:-0.220666 26:-0.355922 27:-1 28:-1 29:-0.622438 30:-0.692263 31:-0.685171 32:-0.485607 33:-0.898475 34:0.0733288 35:-0.728352 36:-0.69226 37:0.384131 38:-0.696502 39:0.0687978 40:-0.604199 41:-0.454571 
0.648852638790185 1:-0.819501 2:0.0967246 3:-0.304901 4:-0.993027 5:-0.136247 6:-0.767933 7:0.453906 8:-0.0399324 9:0.00107766 10:0.801884 11:0.0108293 12:-0.715066 13:-0.85313 14:-0.855471 15:-1 16:-1 17:-1 18:-1 19:-0.854809 20:-0.571613 21:-1 22:-1 23:-1 24:-1 25:-0.887197 26:-0.348073 27:-1 28:-1 29:-1 30:-1 31:-1 32:-1 33:-0.908943 34:0.176107 35:-0.633465 36:-0.768313 37:0.105544 38:-0.857298 39:-0.458886 40:-0.971246 41:-0.521428 
1 1:-0.44934 2:-0.115053 3:-0.11531 4:-0.564423 5:-0.365724 6:-0.744346 7:0.290848 8:0.290121 9:-0.477904 10:0.416811 11:0.558713 12:-0.0635433 13:-0.418137 14:-0.298621 15:-0.477595 16:-0.688613 17:-0.470922 18:-0.837974 19:-0.467603 20:0.00839706 21:-0.607311 22:-0.783028 23:-0.457691 24:-0.665677 25:0.377551 26:-0.623202 27:-0.719187 28:-0.709043 29:0.205527 30:-0.181714 31:0.147723 32:-0.523521 33:-0.707643 34:0.156025 35:-0.791628 36:-0.68074 37:0.0457235 38:-0.857274 39:0.213262 40:-0.171952 41:-0.442644 
0.5207691833221494 1:-0.619983 2:0.0103952 3:-0.187128 4:-0.773865 5:-0.265933 6:-0.748927 7:0.387035 8:0.124754 9:-0.361721 10:0.607807 11:0.389109 12:-0.298382 13:-0.725199 14:-0.740064 15:-0.836016 16:-0.488151 17:-0.673115 18:-0.573246 19:-0.696611 20:-0.57144 21:-0.746209 22:-0.665975 23:-0.442905 24:-0.511161 25:-1 26:-1 27:-0.054006 28:-0.478242 29:-1 30:-1 31:-0.194643 32:-0.46113 33:-0.770438 34:0.0708938 35:-0.747836 36:-0.722271 37:0.00946002 38:-0.72702 39:0.0591018 40:-0.321079 41:-0.606402 
0.9755933011471277 1:-0.556077 2:-0.0872783 3:-0.168902 4:-0.609273 5:-0.348935 6:-0.744369 7:0.378491 8:0.267474 9:-0.367951 10:0.43564 11:0.555681 12:-0.147526 13:-0.59906 14:-0.635745 15:-1 16:-1 17:-0.500434 18:-0.83222 19:-0.528271 20:0.0226071 21:-0.547795 22:-0.660847 23:-0.521524 24:-0.520571 25:0.172072 26:-0.58643 27:-0.712604 28:-0.774024 29:-0.718504 30:-0.304321 31:0.269273 32:-0.5894 33:-0.792751 34:0.111771 35:-0.690737 36:-0.785774 37:0.140769 38:-0.896407 39:0.177241 40:-0.181024 41:-0.361519 
0.6003224542487114 1:-0.703536 2:0.0469281 3:-0.288878 4:-0.451621 5:0.175771 6:-0.645281 7:0.603673 8:0.029465 9:-0.0394731 10:0.332706 11:-0.635638 12:-0.299687 13:-0.535381 14:-0.629191 15:-0.393633 16:-0.429945 17:-0.317041 18:-0.495189 19:-0.282662 20:-0.480988 21:-0.155416 22:-0.566029 23:-0.166238 24:-0.123903 25:-0.201382 26:0.422173 27:-0.504144 28:0.436138 29:0.0490949 30:-0.015583 31:0.486397 32:-0.640619 33:-0.90718 34:0.197125 35:-0.386023 36:-0.442639 37:0.227225 38:-0.646971 39:0.196509 40:-0.118693 41:0.0345909 
0.3919909932771478 1:-0.563839 2:0.0470058 3:-0.208479 4:-0.688758 5:-0.314552 6:-0.731126 7:0.397399 8:0.0466136 9:-0.26765 10:0.553434 11:0.478025 12:-0.221539 13:-0.735248 14:-0.671094 15:-0.620899 16:-0.624982 17:-0.633044 18:-0.642647 19:-0.255778 20:-0.193151 21:-0.658386 22:-0.747155 23:-0.56825 24:-0.633162 25:-0.721244 26:-0.725731 27:-0.428992 28:-0.45662 29:-0.209976 30:-0.506404 31:-0.727797 32:-0.851156 33:-0.795222 34:0.0420339 35:-0.763105 36:-0.495958 37:0.0384114 38:-0.708425 39:0.258401 40:-0.339673 41:-0.571345 
