svm_type c_svc
kernel_type rbf
gamma 0.0263158
nr_class 2
total_sv 671
rho 7.40008
label 1 -1
nr_sv 335 336
SV
1 1:-0.730595 2:0.0603202 3:-0.367564 4:-0.89299 5:-0.107599 6:-0.366518 7:0.580874 8:-0.0147188 9:0.235332 10:0.722164 11:-0.0564551 12:-0.797999 13:-0.867184 14:-0.475545 15:-0.642939 16:-0.413265 17:-0.806362 18:-0.315676 19:-0.611247 20:-0.384242 21:-1 22:-1 23:-0.774642 24:-0.557872 25:-0.689437 26:-0.712096 27:-0.75815 28:-0.443196 29:-0.629764 30:-0.900349 31:-0.635177 32:-0.395011 33:-0.814382 34:0.206612 35:-0.439529 36:-0.74318 37:0.351238 38:-0.439819 
1 1:-0.601535 2:0.113899 3:-0.274533 4:-0.816773 5:-0.14663 6:-0.352688 7:0.571599 8:-0.071038 9:0.0639775 10:0.732996 11:0.00731755 12:-0.6989 13:-0.884543 14:-0.689159 15:-0.599799 16:-0.484373 17:-0.705046 18:-0.879253 19:-0.622387 20:-0.667562 21:-0.475937 22:-0.823269 23:-0.802462 24:-0.571333 25:-0.836733 26:-0.698287 27:-0.908551 28:-0.642178 29:-0.8122 30:-0.562417 31:-0.900776 32:-0.00264481 33:-0.900344 34:0.113695 35:-0.396913 36:-0.408737 37:0.179568 38:-0.381582 
1 1:-0.78535 2:0.116336 3:-0.354527 4:-0.827328 5:-0.234374 6:-0.546531 7:0.605462 8:-0.0827168 9:0.287116 10:0.65778 11:0.209461 12:-0.709207 13:-0.612975 14:-0.861138 15:-1 16:-1 17:-0.536965 18:-0.478579 19:-1 20:-1 21:-0.575563 22:-0.734266 23:-1 24:-1 25:-0.86593 26:-0.920746 27:-0.694262 28:-0.530308 29:-1 30:-1 31:-0.45023 32:-0.547928 33:-0.93503 34:0.0623094 35:-0.553733 36:-0.648578 37:0.554692 38:-0.42576 
1 1:-0.78911 2:0.0968437 3:-0.253103 4:-0.773171 5:-0.338267 6:-0.41977 7:0.637468 8:-0.0539985 9:0.0317693 10:0.636583 11:0.3468 12:-0.737616 13:-0.877364 14:-0.640944 15:-0.437048 16:-0.491561 17:-0.648834 18:-0.577887 19:-0.777037 20:-0.763818 21:-0.669981 22:-0.694081 23:-0.777175 24:-0.752381 25:-0.769493 26:-0.62273 27:-0.590463 28:-0.935658 29:-0.374103 30:-0.664136 31:-0.385859 32:-0.680214 33:-0.775411 34:0.3726 35:-0.498525 36:-0.882782 37:0.173958 38:-0.385583 
1 1:-0.720474 2:0.0134488 3:-0.126335 4:-0.89348 5:-0.30348 6:-0.503574 7:0.529815 8:0.0554277 9:-0.242332 10:0.708403 11:0.33335 12:-0.742286 13:-0.767701 14:-0.709768 15:-0.463904 16:-0.517589 17:-0.509833 18:-0.708321 19:-0.718676 20:-0.713661 21:-0.905945 22:-0.811417 23:-0.727708 24:-0.576954 25:-0.69258 26:-0.735667 27:-0.64746 28:-0.589235 29:-0.592504 30:-0.861389 31:-0.440932 32:-0.943361 33:-0.847523 34:-0.0866648 35:-0.583602 36:-0.817476 37:0.157202 38:-0.506858 
1 1:-0.892494 2:0.0477348 3:-0.129118 4:-0.934355 5:-0.22035 6:-0.82426 7:0.478522 8:0.105042 9:-0.584708 10:0.600943 11:0.435955 12:-0.685517 13:-1 14:-1 15:-0.484308 16:-0.825162 17:-0.654998 18:-0.906841 19:-0.652177 20:-0.859024 21:-0.9396 22:-0.832243 23:-0.888976 24:-0.952912 25:-0.871819 26:-0.846921 27:-0.828757 28:-0.948743 29:-0.745135 30:-0.877059 31:-0.220508 32:-0.807533 33:-0.984949 34:0.0695468 35:-0.836235 36:-0.962378 37:0.134069 38:-0.91542 
1 1:-0.740378 2:0.111315 3:-0.242116 4:-0.468419 5:-0.372282 6:-0.114815 7:0.717327 8:-0.0635738 9:0.00283896 10:0.577307 11:0.260776 12:-0.683823 13:-0.559518 14:-0.606687 15:-0.342199 16:-0.491576 17:-0.475039 18:-0.475037 19:-0.275206 20:-0.247447 21:-0.154283 22:-0.420058 23:-0.708235 24:-0.827323 25:-0.724328 26:-0.560119 27:-0.765921 28:-0.448657 29:-0.320952 30:-0.330699 31:-0.000141844 32:0.17481 33:-0.860806 34:0.234454 35:-0.181382 36:-0.137157 37:0.48583 38:-0.415486 
1 1:-0.714292 2:0.0878002 3:-0.257153 4:-0.61447 5:-0.472556 6:-0.336768 7:0.633021 8:-0.0448364 9:0.0313811 10:0.572658 11:0.48927 12:-0.657244 13:-0.642522 14:-0.42467 15:-0.743816 16:-0.675023 17:-0.732154 18:-0.515092 19:-0.458298 20:-0.13958 21:-0.49759 22:0.0698359 23:-0.517116 24:-0.442764 25:-0.374352 26:-0.470397 27:-0.354202 28:-0.693695 29:-0.197071 30:-0.572798 31:0.0608156 32:-0.478017 33:-0.720073 34:0.357201 35:-0.285389 36:-0.859262 37:0.157725 38:-0.293694 
1 1:-0.759596 2:-0.0500203 3:-0.0719841 4:-0.64263 5:-0.531665 6:-0.333423 7:0.602435 8:0.0860122 9:-0.264748 10:0.540971 11:0.572674 12:-0.696377 13:-0.553505 14:-0.256869 15:-0.352224 16:-0.422001 17:-0.55624 18:-0.561859 19:-0.463542 20:-0.541988 21:-0.027706 22:-0.522492 23:-0.344459 24:-0.635821 25:-0.61248 26:-0.551838 27:-0.619454 28:-0.610616 29:-0.423093 30:-0.546969 31:0.1559 32:-0.388081 33:-0.858139 34:-0.209698 35:-0.390244 36:-0.764344 37:-0.133689 38:-0.487501 
1 1:-0.744458 2:0.0656767 3:-0.176938 4:-0.813468 5:-0.383398 6:-0.410784 7:0.585536 8:-0.0191952 9:-0.111864 10:0.656147 11:0.418102 12:-0.744769 13:-0.703365 14:-0.483336 15:-0.652624 16:-0.373884 17:-0.615636 18:-0.41562 19:-0.581614 20:-0.49793 21:-0.573416 22:-0.487775 23:-0.813638 24:-0.544157 25:-0.747582 26:-0.353864 27:-0.748773 28:-0.374759 29:-0.542761 30:-0.317821 31:-0.439358 32:-0.526895 33:-0.823887 34:-0.194175 35:-0.462833 36:-0.685057 37:0.0178293 38:-0.429779 
1 1:-0.799328 2:0.0419193 3:-0.169896 4:-0.894909 5:-0.247682 6:-0.614716 7:0.569183 8:0.0372426 9:-0.183423 10:0.696663 11:0.284486 12:-0.732543 13:-0.720381 14:-0.580281 15:-0.85946 16:-0.63373 17:-0.558637 18:-0.437446 19:-0.469753 20:-0.590888 21:-0.435399 22:-0.535223 23:-0.704658 24:-0.646526 25:-0.69203 26:-0.61429 27:-0.68453 28:-0.639071 29:-0.575144 30:-0.57994 31:-1 32:-1 33:-0.876063 34:-0.0738652 35:-0.574455 36:-0.903646 37:0.219557 38:-0.640532 
1 1:-0.508592 2:0.190252 3:-0.0514853 4:-0.664068 5:-0.0748735 6:-0.3465 7:0.57028 8:-0.143265 9:-0.300886 10:0.673115 11:-0.100615 12:-0.587265 13:-0.710522 14:-0.544204 15:-0.182588 16:-0.463214 17:-0.201082 18:-0.544725 19:0.222478 20:-0.52839 21:0.306264 22:-0.528687 23:0.239054 24:-0.35086 25:-0.447814 26:-0.23316 27:-0.71975 28:-0.147123 29:-0.601561 30:-0.169081 31:0.910837 32:0.363206 33:-0.913134 34:0.208787 35:-0.320459 36:-0.551526 37:0.241376 38:-0.237682 
1 1:-0.491616 2:0.00417669 3:-0.43404 4:-0.882124 5:-0.0720836 6:-0.34274 7:0.476638 8:0.0381083 9:0.32728 10:0.762202 11:-0.107525 12:-0.69278 13:-0.539133 14:-0.619081 15:-0.691421 16:-0.212868 17:-0.772005 18:-0.0481107 19:-0.650356 20:0.0332588 21:-0.717407 22:0.150185 23:-0.803804 24:0.137196 25:-0.723068 26:-0.511062 27:-0.692802 28:-0.562752 29:-0.504158 30:-0.560713 31:-0.117644 32:0.268658 33:-0.608921 34:0.146615 35:-0.363395 36:-0.647194 37:0.233383 38:-0.352489 
1 1:-0.643424 2:0.241656 3:-0.192252 4:-0.73108 5:-0.0614532 6:-0.231385 7:0.624677 8:-0.178572 9:-0.0672413 10:0.685775 11:-0.109786 12:-0.720201 13:-0.671392 14:-0.446843 15:-0.305019 16:-0.573917 17:-0.362874 18:-0.620928 19:-0.140421 20:-0.823135 21:-0.240497 22:-0.820623 23:-0.0779349 24:-0.805369 25:-0.452725 26:-0.78883 27:-0.537082 28:-0.747163 29:-0.303663 30:-0.799494 31:1 32:-0.104354 33:-0.913616 34:-0.243571 35:-0.139368 36:-0.848313 37:0.0962084 38:-0.346698 
1 1:-0.686217 2:0.0731575 3:-0.406855 4:-0.84818 5:-0.0198655 6:-0.187981 7:0.591237 8:-0.0332804 9:0.237305 10:0.70663 11:-0.16083 12:-0.804151 13:-0.779561 14:-0.614628 15:-0.557047 16:-0.48202 17:-0.603364 18:-0.485228 19:-0.569027 20:-0.530911 21:-0.639529 22:-0.586559 23:-0.490489 24:-0.54287 25:-0.667233 26:-0.675872 27:-0.704477 28:-0.478926 29:-0.591244 30:-0.21147 31:-0.484364 32:-0.258366 33:-0.894288 34:0.0205665 35:-0.150675 36:-0.684102 37:0.232615 38:-0.481725 
1 1:-0.813428 2:0.173936 3:-0.200398 4:-0.810964 5:-0.00196459 6:-0.252055 7:0.654293 8:-0.124133 9:-0.0579988 10:0.670831 11:-0.200313 12:-0.82145 13:-0.728827 14:-0.60123 15:-0.258359 16:-0.761646 17:-0.408202 18:-0.873098 19:-0.240343 20:-0.826637 21:-0.361254 22:-0.866943 23:-0.330094 24:-0.767282 25:-0.594683 26:-0.761395 27:-0.553588 28:-0.89471 29:-0.593484 30:-0.760552 31:0.223111 32:-0.550321 33:-0.935436 34:-0.18171 35:-0.202088 36:-0.828176 37:-0.143613 38:-0.24802 
1 1:-0.764884 2:0.16344 3:-0.294716 4:-0.804293 5:-0.0288337 6:-0.571577 7:0.61209 8:-0.154337 9:0.149867 10:0.657087 11:-0.256096 12:-0.661282 13:-0.563245 14:-0.656328 15:-0.382481 16:-0.480001 17:-0.660089 18:-0.207949 19:-0.635854 20:-0.108935 21:-0.595867 22:-0.0260576 23:-0.600159 24:-0.166459 25:-0.582727 26:-0.177003 27:-0.736015 28:-0.717055 29:-0.688581 30:-0.647719 31:-0.635343 32:-0.698079 33:-0.765406 34:0.0072412 35:-0.51523 36:-0.686775 37:0.000394586 38:-0.380874 
1 1:-0.613103 2:0.146994 3:-0.0577934 4:-0.894525 5:0.00154116 6:-0.280212 7:0.53352 8:-0.100164 9:-0.28232 10:0.737664 11:-0.20832 12:-0.773161 13:-0.895296 14:-0.598454 15:-0.769867 16:-0.387223 17:-0.609571 18:-0.205041 19:-0.47946 20:-0.206051 21:-0.817855 22:-0.333986 23:-0.732003 24:-0.387393 25:-0.72924 26:-0.431223 27:-0.879118 28:-0.539786 29:-0.783765 30:-0.497339 31:-0.678599 32:-0.411262 33:-0.7455 34:0.251298 35:-0.274838 36:-0.738101 37:0.152988 38:-0.35224 
1 1:-0.585553 2:0.0627059 3:-0.0461341 4:-0.912992 5:-0.235407 6:-0.400471 7:0.486435 8:-0.0165021 9:-0.351018 10:0.756193 11:0.159375 12:-0.728586 13:-0.700579 14:-0.744237 15:-0.801365 16:-0.684346 17:-0.643693 18:-0.532353 19:-0.615338 20:-0.535093 21:-0.627609 22:-0.393737 23:-0.547009 24:-0.392625 25:-0.737988 26:-0.274585 27:-0.728909 28:-0.264345 29:-0.592851 30:-0.168756 31:-0.480743 32:-0.245069 33:-0.864339 34:0.163326 35:-0.171716 36:-0.552974 37:0.213261 38:-0.518287 
1 1:-0.744048 2:0.0766556 3:-0.0913373 4:-0.935028 5:-0.203194 6:-0.576865 7:0.510024 8:-0.0239205 9:-0.373619 10:0.737163 11:0.1529 12:-0.750685 13:-0.739705 14:-0.846555 15:-0.833143 16:-0.784777 17:-0.728083 18:-0.541653 19:-0.711191 20:-0.581451 21:-0.686192 22:-0.493096 23:-0.624657 24:-0.566529 25:-0.596165 26:-0.513133 27:-0.761035 28:-0.474221 29:-0.67589 30:-0.369577 31:-0.59143 32:-0.83505 33:-0.900489 34:0.158553 35:-0.404766 36:-0.744757 37:0.241724 38:-0.623231 
1 1:-0.776363 2:0.0779632 3:-0.115407 4:-0.900335 5:-0.150418 6:-0.620132 7:0.553112 8:-0.0234059 9:-0.341528 10:0.714197 11:0.0301782 12:-0.716142 13:-0.816899 14:-0.743009 15:-0.896679 16:-0.681205 17:-0.773824 18:-0.591735 19:-0.687548 20:-0.989249 21:-0.660826 22:-0.556447 23:-0.57216 24:-0.476854 25:-1 26:-1 27:-0.547138 28:-0.463424 29:-0.523235 30:-0.641534 31:-0.675581 32:-0.707444 33:-0.882719 34:0.232116 35:-0.556951 36:-0.813067 37:0.25907 38:-0.6596 
1 1:-0.868665 2:0.102177 3:-0.130035 4:-0.93875 5:-0.115779 6:-0.516264 7:0.611625 8:-0.0623971 9:-0.251547 10:0.706448 11:-0.0531258 12:-0.861365 13:-0.942655 14:-0.788945 15:-0.891479 16:-0.691957 17:-0.766346 18:-0.567458 19:-1 20:-1 21:-0.612122 22:-0.750395 23:-0.629447 24:-0.609758 25:-1 26:-1 27:-0.841021 28:-0.550539 29:-0.915769 30:-0.883816 31:-0.683205 32:-0.788362 33:-0.925509 34:0.159945 35:-0.50901 36:-0.880975 37:0.271122 38:-0.485022 
1 1:-0.701542 2:0.0625717 3:-0.198386 4:-0.886863 5:-0.268017 6:0.0116536 7:0.607867 8:-0.0290368 9:-0.0489851 10:0.722131 11:0.131246 12:-0.861528 13:-0.911836 14:-0.854053 15:-0.830125 16:-0.728034 17:-0.746061 18:-0.536829 19:-0.683363 20:-0.540652 21:-0.716458 22:-0.472406 23:-0.770009 24:-0.619877 25:-0.545081 26:-0.590707 27:-0.528298 28:-0.447493 29:-0.340159 30:-0.35622 31:-0.436351 32:-0.239104 33:-0.868835 34:0.285171 35:-0.0105632 36:-0.698343 37:0.085943 38:-0.500482 
1 1:-0.549359 2:0.139089 3:-0.139603 4:-0.894565 5:-0.214904 6:-0.233331 7:0.534936 8:-0.0903718 9:-0.145854 10:0.764303 11:0.0976304 12:-0.759696 13:-0.830671 14:-0.689511 15:-0.696502 16:-0.498497 17:-0.585963 18:-0.506746 19:-0.622634 20:-0.531041 21:-0.56506 22:-0.670247 23:-1 24:-1 25:-0.577255 26:-0.7421 27:-0.536639 28:-0.544231 29:-0.434677 30:-0.196654 31:-0.540825 32:0.0635537 33:-0.876163 34:0.0293088 35:-0.258605 36:-0.483581 37:0.288153 38:-0.507701 
1 1:-0.720584 2:0.0642287 3:-0.239793 4:-0.888578 5:-0.0990033 6:-0.394359 7:0.587613 8:-0.0174961 9:0.00604562 10:0.735016 11:-0.0733161 12:-0.780221 13:-0.799528 14:-0.610235 15:-0.412918 16:-0.606845 17:-0.413847 18:-0.57016 19:-0.366039 20:-0.528603 21:-0.711243 22:-0.486451 23:-0.705112 24:-0.899327 25:-0.623382 26:-0.522134 27:-0.636376 28:-0.436609 29:-0.631686 30:-0.215133 31:-0.756966 32:-0.437657 33:-0.885648 34:-0.0170021 35:-0.546105 36:-0.733185 37:0.103718 38:-0.125995 
1 1:-0.722401 2:0.0537382 3:-0.154693 4:-0.873856 5:-0.123046 6:-0.379916 7:0.593184 8:-0.00689142 9:-0.150405 10:0.724463 11:-0.0311807 12:-0.777565 13:-0.862884 14:-0.594168 15:-0.372926 16:-0.549104 17:-0.38242 18:-0.759579 19:-0.421995 20:-0.671867 21:-0.49116 22:-0.892489 23:-0.721969 24:-0.662309 25:-0.630942 26:-0.689851 27:-0.596492 28:-0.510983 29:-0.54391 30:-0.217407 31:-0.918144 32:-0.8243 33:-0.905358 34:0.230245 35:-0.5157 36:-0.715511 37:0.356019 38:-0.226291 
1 1:-0.732545 2:0.0199144 3:-0.280588 4:-0.863777 5:-0.0420677 6:-0.311507 7:0.604866 8:0.0225158 9:0.0718531 10:0.713475 11:-0.153507 12:-0.79826 13:-0.772054 14:-0.850259 15:-0.815947 16:-0.356937 17:-0.800703 18:-0.348207 19:-0.665283 20:-0.322771 21:-0.835472 22:-0.64708 23:-0.903741 24:-0.790685 25:-0.655059 26:-0.574257 27:-0.799624 28:-0.518788 29:-0.823638 30:-0.406023 31:-0.65419 32:-0.414577 33:-0.793616 34:0.0278712 35:-0.259877 36:-0.673235 37:0.200009 38:-0.574243 
1 1:-0.75248 2:0.0129958 3:-0.263805 4:-0.791476 5:-0.0781017 6:-0.615675 7:0.617337 8:0.0813901 9:0.0802393 10:0.658437 11:-0.154497 12:-0.606236 13:-0.595916 14:-0.859764 15:-0.62283 16:-0.120325 17:-0.671465 18:-0.0378303 19:-1 20:-1 21:-0.68431 22:-0.178019 23:-0.656906 24:-0.175786 25:-0.76565 26:-0.673236 27:-0.751314 28:-0.887883 29:-0.141341 30:-0.650263 31:-0.574228 32:-0.675091 33:-0.718216 34:0.046182 35:-0.797734 36:-0.657792 37:0.415161 38:-0.287485 
1 1:-0.646459 2:-0.0228338 3:-0.332612 4:-0.859951 5:-0.10136 6:-0.634424 7:0.47965 8:0.145285 9:0.277099 10:0.732755 11:-0.0980886 12:-0.575307 13:-0.935069 14:-0.898569 15:-0.655469 16:-0.23237 17:-0.826988 18:-0.202921 19:-0.891345 20:-0.511066 21:-0.787924 22:0.0322135 23:-0.785546 24:-0.504984 25:-0.826265 26:-0.491674 27:-0.682514 28:-0.525893 29:-0.886415 30:-0.668835 31:-0.695664 32:-0.867041 33:-0.654261 34:-0.0217441 35:-0.532843 36:-0.68512 37:0.271564 38:-0.696618 
1 1:-0.678479 2:0.000635047 3:-0.382007 4:-0.906909 5:-0.0527447 6:-0.442348 7:0.52703 8:0.0601648 9:0.291425 10:0.73596 11:-0.162378 12:-0.753976 13:-0.913005 14:-0.810624 15:-0.707988 16:-0.169945 17:-0.834862 18:-0.129057 19:-1 20:-1 21:-0.762909 22:-0.0439228 23:-0.777445 24:-0.493342 25:-1 26:-1 27:-0.685736 28:-0.610786 29:-0.844866 30:-0.543101 31:-0.901072 32:-0.719537 33:-0.64886 34:0.0164917 35:-0.482465 36:-0.868526 37:0.269627 38:-0.485176 
1 1:-0.598886 2:0.0856037 3:-0.262265 4:-0.613557 5:0.20319 6:-0.300157 7:0.595603 8:-0.0432086 9:0.0365611 10:0.609265 11:-0.482828 12:-0.62713 13:-0.697077 14:-0.714468 15:-0.838532 16:-0.370398 17:-0.899552 18:-0.533942 19:-0.884052 20:-0.406437 21:-0.737244 22:-0.460769 23:-0.550899 24:-0.510649 25:-0.903295 26:-0.754943 27:-0.306274 28:-0.594848 29:-0.421145 30:-0.787767 31:-0.429462 32:-0.267824 33:-0.732245 34:-0.262544 35:-0.426887 36:-0.492752 37:-0.249324 38:-0.220418 
1 1:-0.652355 2:0.122041 3:-0.300636 4:-0.853251 5:-0.0961382 6:-0.63448 7:0.503038 8:-0.0980896 9:0.187933 10:0.739346 11:-0.112219 12:-0.571124 13:-0.766507 14:-0.906238 15:-0.710083 16:-0.216166 17:-1 18:-1 19:-0.784911 20:-0.0227032 21:-1 22:-1 23:-0.713024 24:-0.214618 25:-0.957811 26:-0.726268 27:-0.650659 28:-0.792458 29:-0.797092 30:-0.856321 31:-0.432435 32:-0.933169 33:-0.650226 34:0.068437 35:-0.674074 36:-0.794453 37:0.239352 38:-0.562171 
1 1:-0.721698 2:0.112839 3:-0.285373 4:-0.881191 5:-0.248215 6:-0.542018 7:0.551861 8:-0.077601 9:0.120181 10:0.722873 11:0.239066 12:-0.71126 13:-0.928284 14:-0.708562 15:-0.766788 16:-0.226295 17:-1 18:-1 19:-0.74052 20:-0.28307 21:-0.753191 22:-0.375122 23:-0.838705 24:-0.60543 25:-0.752631 26:-0.520955 27:-1 28:-1 29:-0.391482 30:-0.50008 31:-0.603652 32:-0.857313 33:-0.743251 34:0.196662 35:-0.5819 36:-0.798999 37:0.285654 38:-0.372414 
1 1:-0.73258 2:0.0896621 3:-0.291502 4:-0.924229 5:-0.193482 6:-0.419532 7:0.568799 8:-0.045692 9:0.108697 10:0.745517 11:0.0951201 12:-0.800529 13:-0.871668 14:-0.744385 15:-0.682793 16:-0.206388 17:-1 18:-1 19:-0.785467 20:-0.181883 21:-0.842639 22:-0.619137 23:-0.589988 24:-0.662492 25:-0.804408 26:-0.598717 27:-1 28:-1 29:-0.776103 30:-0.472706 31:-0.542792 32:-0.6028 33:-0.723187 34:0.346272 35:-0.20058 36:-0.829679 37:0.261712 38:-0.642732 
1 1:-0.655486 2:0.140652 3:-0.319729 4:-0.928749 5:-0.154506 6:-0.524778 7:0.499757 8:-0.1151 9:0.195673 10:0.777901 11:0.0308711 12:-0.714745 13:-0.718808 14:-0.770178 15:-0.560022 16:-0.09631 17:-1 18:-1 19:-0.63167 20:-0.139897 21:-0.689197 22:-0.335707 23:-0.852142 24:-0.479743 25:-0.668332 26:-0.514785 27:-1 28:-1 29:-0.76391 30:-0.607185 31:-0.872686 32:-0.679618 33:-0.698022 34:0.099277 35:-0.701022 36:-0.746018 37:0.308991 38:-0.220303 
1 1:-0.733901 2:0.132339 3:-0.280401 4:-0.909831 5:-0.0485039 6:-0.625682 7:0.521387 8:-0.116634 9:0.133073 10:0.743962 11:-0.240834 12:-0.688228 13:-0.798147 14:-0.500287 15:-0.936019 16:-0.486974 17:-0.834154 18:-0.329857 19:-0.961071 20:-0.572301 21:-0.818454 22:-0.512729 23:-1 24:-1 25:-0.645447 26:-0.627857 27:-1 28:-1 29:-0.818837 30:-0.793766 31:-0.74029 32:-0.991677 33:-0.721282 34:0.0761802 35:-0.852555 36:-0.817986 37:0.0706453 38:-0.282295 
1 1:-0.795021 2:0.125369 3:-0.243382 4:-0.916678 5:-0.046415 6:-0.607201 7:0.568199 8:-0.103467 9:0.0252578 10:0.726298 11:-0.241197 12:-0.75211 13:-0.80623 14:-0.746223 15:-0.992566 16:-0.700333 17:-0.930896 18:-0.758531 19:-0.920105 20:-0.749513 21:-0.872147 22:-0.357657 23:-0.950088 24:-0.78032 25:-0.852228 26:-0.356897 27:-1 28:-1 29:-0.808192 30:-0.782112 31:-0.640317 32:-0.9925 33:-0.80122 34:-0.157017 35:-0.467791 36:-0.830133 37:0.188475 38:-0.670954 
1 1:-0.658367 2:0.153665 3:-0.199502 4:-0.930417 5:-0.173053 6:-0.713625 7:0.405807 8:-0.177325 9:-0.121515 10:0.812744 11:0.114739 12:-0.559813 13:-0.818398 14:-0.895105 15:-1 16:-1 17:-0.829059 18:-0.219017 19:-1 20:-1 21:-0.825051 22:-0.338029 23:-1 24:-1 25:-1 26:-1 27:-0.744426 28:-0.0455896 29:-1 30:-1 31:-0.844853 32:-0.762803 33:-0.80354 34:0.0489777 35:-0.527586 36:-0.583067 37:0.197115 38:-0.855613 
1 1:-0.736164 2:0.042064 3:-0.229783 4:-0.830753 5:-0.256536 6:-0.533129 7:0.590087 8:0.0212942 9:-0.012964 10:0.689302 11:0.250522 12:-0.687793 13:-0.696864 14:-0.705679 15:-0.81446 16:-0.877712 17:-0.832092 18:-0.656479 19:-0.871166 20:-0.763856 21:-0.778976 22:-0.742114 23:-0.554685 24:-0.408592 25:-1 26:-1 27:-0.501454 28:-0.547687 29:-0.381347 30:-0.94216 31:-1 32:-1 33:-0.874899 34:-0.078498 35:-0.435749 36:-0.802322 37:0.183335 38:-0.665268 
1 1:-0.693204 2:0.0685285 3:-0.245645 4:-0.795287 5:-0.118093 6:-0.477675 7:0.60709 8:-0.0190779 9:0.0203363 10:0.698807 11:-0.0434909 12:-0.669449 13:-0.837544 14:-0.591915 15:-0.225929 16:-0.316772 17:-1 18:-1 19:-0.238735 20:-0.440014 21:-1 22:-1 23:-0.408624 24:-0.267673 25:-1 26:-1 27:-0.624936 28:-0.409034 29:-0.597482 30:-0.769626 31:-0.327794 32:-0.158576 33:-0.857415 34:0.139836 35:-0.534339 36:-0.572558 37:0.238401 38:-0.467445 
1 1:-0.83774 2:0.13526 3:-0.223457 4:-0.862496 5:-0.134085 6:-0.412405 7:0.651508 8:-0.0988818 9:-0.0252168 10:0.688684 11:-0.0125989 12:-0.818865 13:-0.779547 14:-0.796709 15:-1 16:-1 17:-0.387464 18:-0.786878 19:-0.601982 20:-0.942356 21:-0.697055 22:-0.877882 23:-1 24:-1 25:-0.369622 26:-0.6333 27:-1 28:-1 29:-0.456749 30:-0.761591 31:-0.830866 32:-0.795542 33:-0.945642 34:0.20214 35:-0.416807 36:-0.890455 37:0.290895 38:-0.548637 
1 1:-0.769795 2:0.103894 3:-0.145 4:-0.913677 5:-0.220762 6:-0.446021 7:0.581043 8:-0.0628776 9:-0.187382 10:0.724636 11:0.151729 12:-0.805488 13:-0.951129 14:-0.762585 15:-0.793622 16:-0.749489 17:-0.710648 18:-0.59418 19:-0.701886 20:-0.743264 21:-0.634202 22:-0.939887 23:-0.6133 24:-0.81144 25:-0.633682 26:-0.597731 27:-0.737716 28:-0.548032 29:-0.906454 30:-0.654467 31:-0.827839 32:-0.637552 33:-0.901069 34:-0.0358412 35:-0.490653 36:-0.802721 37:0.135254 38:-0.486681 
1 1:-0.741941 2:0.117539 3:-0.269465 4:-0.854159 5:-0.146762 6:-0.604187 7:0.582393 8:-0.0889483 9:0.0951286 10:0.713049 11:0.0189095 12:-0.659837 13:-0.710434 14:-0.682346 15:-0.781679 16:-0.344631 17:-0.853505 18:-0.579025 19:-0.702645 20:-0.644733 21:-0.822302 22:-0.453826 23:-0.686544 24:-0.90716 25:-0.784177 26:-0.43759 27:-1 28:-1 29:-0.549141 30:-0.445398 31:-1 32:-1 33:-0.813691 34:0.00951014 35:-0.584047 36:-0.744005 37:0.259427 38:-0.346032 
1 1:-0.740597 2:0.072231 3:-0.314772 4:-0.85042 5:-0.146472 6:-0.52822 7:0.591345 8:-0.0205685 9:0.185386 10:0.706455 11:0.0138623 12:-0.706795 13:-0.86713 14:-0.556073 15:-0.59107 16:-0.84337 17:-0.829157 18:-0.834053 19:-0.626991 20:-0.525895 21:-0.790274 22:-0.849419 23:-0.69898 24:-0.489657 25:-0.745701 26:-0.774458 27:-1 28:-1 29:-0.671483 30:-0.139337 31:-1 32:-1 33:-0.87936 34:0.229495 35:-0.300873 36:-0.656179 37:0.239164 38:-0.635849 
1 1:-0.736885 2:0.154872 3:-0.32744 4:-0.839976 5:-0.262135 6:-0.603603 7:0.552004 8:-0.147511 9:0.247961 10:0.674237 11:0.302417 12:-0.649808 13:-0.726133 14:-0.616474 15:-0.594019 16:-0.431412 17:-0.72166 18:-0.759406 19:-0.799333 20:-0.489015 21:-0.86274 22:-0.785435 23:-0.503512 24:-0.575742 25:-0.678757 26:-0.587842 27:-1 28:-1 29:-0.396853 30:-0.503866 31:-1 32:-1 33:-0.78568 34:0.286577 35:-0.50879 36:-0.664964 37:0.43137 38:-0.668276 
1 1:-0.841872 2:0.163215 3:-0.292813 4:-0.793259 5:-0.418737 6:-0.365556 7:0.628424 8:-0.123557 9:0.0987731 10:0.613978 11:0.451361 12:-0.797327 13:-0.827731 14:-0.481877 15:-0.655941 16:-0.405799 17:-0.861429 18:-0.948312 19:-0.794094 20:-0.55555 21:-0.862661 22:-0.854474 23:-0.916873 24:-0.678159 25:-1 26:-1 27:-0.742346 28:-0.613778 29:-0.852975 30:-0.508967 31:-0.66648 32:-0.630669 33:-0.795024 34:0.364446 35:-0.365015 36:-0.69001 37:0.518675 38:-0.450927 
1 1:-0.876129 2:0.0741791 3:-0.216421 4:-0.885081 5:-0.189081 6:-0.454038 7:0.656001 8:-0.025769 9:-0.0412245 10:0.683674 11:0.0948209 12:-0.843332 13:-0.698659 14:-0.767753 15:-0.433275 16:-0.701482 17:-0.98164 18:-0.662191 19:-0.848649 20:-0.422971 21:-1 22:-1 23:-0.785357 24:-0.617637 25:-1 26:-1 27:-0.739934 28:-0.872294 29:-1 30:-1 31:-0.760463 32:-0.97522 33:-0.867149 34:-0.0535862 35:-0.385158 36:-0.884252 37:0.334456 38:-0.345238 
1 1:-0.728994 2:-0.0210704 3:-0.131817 4:-0.767542 5:-0.18288 6:-0.534907 7:0.616053 8:0.106531 9:-0.238222 10:0.653704 11:0.0906093 12:-0.637257 13:-0.756116 14:-0.843218 15:-0.768855 16:-0.225047 17:-0.860599 18:-0.610518 19:-0.704095 20:0.19124 21:-0.798561 22:-0.450549 23:-0.665562 24:-0.451374 25:-0.766101 26:-0.921534 27:-0.97434 28:-0.917494 29:-0.809202 30:-0.824241 31:-0.640292 32:-0.742849 33:-0.485174 34:-0.0136072 35:-0.549602 36:-0.875434 37:-0.0135503 38:-0.411546 
1 1:-0.68472 2:0.0121739 3:-0.129409 4:-0.890282 5:-0.133826 6:-0.528838 7:0.532797 8:0.0624101 9:-0.246502 10:0.743455 11:-0.0133212 12:-0.702366 13:-0.689345 14:-0.804434 15:-0.726689 16:-0.862583 17:-0.686767 18:-0.627379 19:-0.428012 20:-0.8682 21:-0.705372 22:-0.560212 23:-0.917954 24:-0.850826 25:-0.868488 26:-0.475776 27:-1 28:-1 29:-0.887067 30:-0.807501 31:-0.547799 32:-0.744321 33:-0.893902 34:0.030567 35:-0.473963 36:-0.806678 37:0.378184 38:-0.416646 
1 1:-0.760103 2:0.000139063 3:-0.13021 4:-0.897449 5:-0.220555 6:-0.512347 7:0.566456 8:0.0770377 9:-0.241021 10:0.714646 11:0.169705 12:-0.76286 13:-0.704745 14:-0.778743 15:-0.716312 16:-0.838153 17:-0.661019 18:-0.739795 19:-0.49332 20:-0.890772 21:-0.661432 22:-0.589169 23:-0.707599 24:-0.879262 25:-0.763366 26:-0.631821 27:-0.53487 28:-0.961533 29:-0.84674 30:-0.912192 31:-0.594035 32:-0.914955 33:-0.930703 34:0.0277671 35:-0.391077 36:-0.937096 37:0.186631 38:-0.506639 
1 1:-0.715905 2:0.117791 3:-0.074539 4:-0.845577 5:-0.0727667 6:-0.493795 7:0.566287 8:-0.081378 9:-0.348864 10:0.69516 11:-0.134937 12:-0.709873 13:-0.6478 14:-0.633853 15:-0.927033 16:-0.814179 17:-0.830919 18:-0.439461 19:-0.669991 20:-0.319055 21:-0.84565 22:-0.514607 23:-0.726401 24:-0.242736 25:-0.862341 26:-0.715918 27:-0.448918 28:-0.561134 29:-0.805348 30:-0.802034 31:-0.638134 32:-0.671876 33:-0.783537 34:0.256341 35:-0.480349 36:-0.791797 37:0.320565 38:-0.478324 
1 1:-0.782649 2:0.145494 3:-0.142021 4:-0.932394 5:-0.0966733 6:-0.485915 7:0.574865 8:-0.118753 9:-0.207817 10:0.734392 11:-0.0892541 12:-0.811935 13:-0.803563 14:-0.8354 15:-1 16:-1 17:-0.838942 18:-0.338716 19:-1 20:-1 21:-0.783206 22:-0.579024 23:-0.761034 24:-0.817195 25:-0.686619 26:-0.702133 27:-0.666713 28:-0.909344 29:-0.747073 30:-0.765179 31:-0.818514 32:-0.831551 33:-0.864699 34:0.0784553 35:-0.511722 36:-0.902388 37:0.319797 38:-0.571932 
1 1:-0.664212 2:0.0872169 3:-0.146033 4:-0.978411 5:-0.109502 6:-0.567639 7:0.45885 8:-0.0404587 9:-0.22726 10:0.812139 11:-0.0707914 12:-0.734874 13:-0.818642 14:-0.820542 15:-0.936684 16:-0.660997 17:-0.896329 18:-0.482078 19:-0.843356 20:-0.572964 21:-0.892379 22:-0.423775 23:-0.848979 24:-0.488197 25:-0.862875 26:-0.461312 27:-1 28:-1 29:-0.829662 30:-0.649279 31:-0.911686 32:-0.734104 33:-0.723139 34:0.155817 35:-0.511727 36:-0.757313 37:0.210174 38:-0.559323 
1 1:-0.569672 2:0.108934 3:-0.130575 4:-0.957254 5:-0.168217 6:-0.534107 7:0.429399 8:-0.0714514 9:-0.244058 10:0.819747 11:0.0604748 12:-0.678731 13:-0.772363 14:-0.841373 15:-0.800557 16:-0.544899 17:-0.867873 18:-0.477477 19:-0.806352 20:-0.529775 21:-0.878622 22:-0.477006 23:-0.873406 24:-0.496478 25:-0.889092 26:-0.473442 27:-0.882107 28:-0.586732 29:-0.92156 30:-0.684136 31:-0.356942 32:-0.828388 33:-0.691642 34:0.14465 35:-0.570849 36:-0.644974 37:0.296634 38:-0.534188 
1 1:-0.430631 2:0.0933284 3:0.151951 4:-0.76783 5:-0.335077 6:-0.231301 7:0.470744 8:-0.050212 9:-0.54186 10:0.682731 11:0.24439 12:-0.666466 13:-0.581932 14:-0.836475 15:-0.0827083 16:-0.832913 17:-0.625524 18:-0.767939 19:-0.445232 20:-0.768981 21:-0.759587 22:-0.762662 23:-0.546111 24:-0.99958 25:-0.760115 26:-0.403542 27:-0.833864 28:-0.778381 29:-0.257681 30:-0.544465 31:-0.333355 32:-0.46366 33:-0.970376 34:0.0485445 35:-0.357716 36:-0.647958 37:0.465427 38:-0.402631 
1 1:-0.828101 2:0.21408 3:-0.261455 4:-0.772511 5:-0.072927 6:-0.630245 7:0.674516 8:-0.255509 9:0.0776491 10:0.605247 11:-0.174594 12:-0.631816 13:-0.70449 14:-0.742279 15:-0.271784 16:-0.746039 17:-1 18:-1 19:-0.0604588 20:-0.614582 21:-0.534679 22:-0.847713 23:-0.30219 24:-0.645513 25:-0.815756 26:-0.777389 27:-1 28:-1 29:-0.988584 30:-0.75314 31:-1 32:-1 33:-0.951271 34:0.00428065 35:-0.620454 36:-0.915886 37:0.0165306 38:-0.471411 
1 1:-0.786517 2:0.101824 3:-0.148185 4:-0.774448 5:-0.224645 6:-0.41942 7:0.65504 8:-0.0597128 9:-0.169695 10:0.654016 11:0.147835 12:-0.735262 13:-0.627482 14:-0.598224 15:-0.261647 16:-0.633391 17:-1 18:-1 19:-0.344158 20:-0.418842 21:-0.28164 22:-0.503965 23:-0.949195 24:-0.394617 25:-0.63116 26:-0.510581 27:-1 28:-1 29:-0.246103 30:-0.60837 31:-0.672421 32:-0.789022 33:-0.82909 34:-0.129985 35:-0.664079 36:-0.734703 37:0.126951 38:-0.22163 
1 1:-0.805998 2:0.16361 3:-0.364296 4:-0.887337 5:-0.175742 6:-0.363282 7:0.61431 8:-0.125711 9:0.230858 10:0.697522 11:0.056966 12:-0.832705 13:-0.861529 14:-0.656822 15:-0.434807 16:-0.613308 17:-1 18:-1 19:-0.719801 20:-0.802856 21:-0.863816 22:-0.579652 23:-1 24:-1 25:-0.815935 26:-0.485421 27:-1 28:-1 29:-0.829226 30:-0.364515 31:-0.883303 32:-0.683272 33:-0.902905 34:-0.0950736 35:-0.625443 36:-0.692404 37:0.457894 38:-0.151731 
1 1:-0.788483 2:0.0346933 3:-0.261604 4:-0.916085 5:-0.164007 6:-0.471395 7:0.595707 8:0.0255755 9:0.0560136 10:0.729558 11:0.0469951 12:-0.808294 13:-0.960185 14:-0.740708 15:-0.44608 16:-0.780883 17:-0.741293 18:-0.853661 19:-0.496044 20:-0.811163 21:-0.661665 22:-0.89636 23:-0.845635 24:-0.909079 25:-0.657653 26:-0.81186 27:-0.753237 28:-0.871077 29:-0.900935 30:-0.756126 31:-0.646661 32:-0.762291 33:-0.928029 34:-0.0425807 35:-0.487482 36:-0.897799 37:0.098674 38:-0.479187 
1 1:-0.676715 2:0.0808362 3:-0.269667 4:-0.847444 5:-0.208423 6:-0.491371 7:0.565887 8:-0.0338969 9:0.0731053 10:0.726617 11:0.134964 12:-0.687942 13:-0.842875 14:-0.777174 15:-0.535381 16:-0.417827 17:-0.877863 18:-0.787266 19:-0.726071 20:-0.491106 21:-1 22:-1 23:-0.613512 24:-0.303043 25:-1 26:-1 27:-0.705557 28:-0.236573 29:-1 30:-1 31:-0.329781 32:-0.488004 33:-0.831314 34:0.190316 35:-0.437962 36:-0.607225 37:0.312542 38:-0.483259 
1 1:-0.740117 2:0.0421359 3:-0.221685 4:-0.841763 5:-0.226552 6:-0.555552 7:0.589044 8:0.0247911 9:-0.0328573 10:0.699061 11:0.195934 12:-0.683776 13:-0.745261 14:-0.423306 15:-0.359934 16:-0.644295 17:-0.723741 18:-0.714187 19:-0.298479 20:-0.6112 21:-0.106372 22:-0.760138 23:-0.326525 24:-0.495082 25:-0.275695 26:-0.66416 27:-0.687285 28:-0.620861 29:-0.661466 30:-0.84318 31:-0.749234 32:-0.630572 33:-0.856818 34:-0.0928444 35:-0.486968 36:-0.842271 37:0.144593 38:-0.565022 
1 1:-0.773377 2:-0.0383629 3:-0.106648 4:-0.784312 5:-0.267645 6:-0.445362 7:0.623819 8:0.10562 9:-0.257547 10:0.644085 11:0.231919 12:-0.725233 13:-0.837944 14:-0.69091 15:-0.819238 16:-0.800631 17:-0.793609 18:-0.446333 19:-0.851687 20:-0.586248 21:-0.859037 22:-0.495422 23:-0.839818 24:-0.48307 25:-0.883348 26:-0.7825 27:-0.770512 28:-0.73309 29:-0.800898 30:-0.93658 31:-0.758219 32:-0.609361 33:-0.633314 34:-0.0408366 35:-0.566639 36:-0.761505 37:0.0857671 38:-0.342508 
1 1:-0.840314 2:0.038509 3:-0.208109 4:-0.817605 5:-0.232481 6:-0.451271 7:0.66383 8:0.0172752 9:-0.0575551 10:0.657074 11:0.174321 12:-0.778226 13:-0.771416 14:-0.667247 15:-0.79008 16:-0.544214 17:-0.887335 18:-0.54454 19:-0.881415 20:-0.371768 21:-0.873736 22:-0.662298 23:-0.932913 24:-0.835305 25:-0.886589 26:-0.78249 27:-0.586752 28:-0.784053 29:-1 30:-1 31:-0.53959 32:-0.68621 33:-0.680131 34:-0.103556 35:-0.559642 36:-0.844427 37:-0.0956813 38:-0.380854 
1 1:-0.82148 2:0.0504041 3:-0.191487 4:-0.865193 5:-0.161797 6:-0.536247 7:0.634067 8:0.0120721 9:-0.105861 10:0.690186 11:0.0490903 12:-0.764111 13:-0.874053 14:-0.85059 15:-0.642189 16:-0.873725 17:-0.593059 18:-0.612086 19:-0.582519 20:-0.927359 21:-0.655537 22:-0.627068 23:-1 24:-1 25:-0.388317 26:-0.749552 27:-1 28:-1 29:-0.455083 30:-0.778028 31:-0.875551 32:-0.893335 33:-0.896077 34:0.217938 35:-0.509569 36:-0.944196 37:0.209939 38:-0.536532 
1 1:-0.643585 2:0.097969 3:-0.281519 4:-0.874114 5:-0.206899 6:-0.447189 7:0.545033 8:-0.0554952 9:0.0908041 10:0.748246 11:0.121738 12:-0.710334 13:-0.811207 14:-0.569546 15:-0.538773 16:-0.720677 17:-0.974389 18:-0.669252 19:-0.400798 20:-0.571716 21:-1 22:-1 23:-0.451135 24:-0.445187 25:-1 26:-1 27:-0.850255 28:-0.244787 29:-1 30:-1 31:-0.876578 32:-0.336697 33:-0.818165 34:-0.202147 35:-0.419512 36:-0.606906 37:0.271614 38:-0.408498 
1 1:-0.873478 2:0.0383649 3:-0.224209 4:-0.819945 5:-0.261683 6:-0.409516 7:0.674097 8:0.0133487 9:-0.0236043 10:0.647344 11:0.215283 12:-0.812473 13:-0.993116 14:-0.914124 15:-0.89924 16:-0.700251 17:-0.63865 18:-0.629789 19:-0.866787 20:-0.799473 21:-0.638785 22:-0.669297 23:-0.840061 24:-0.637913 25:-0.653339 26:-0.896829 27:-0.887666 28:-0.655797 29:-0.730887 30:-0.676083 31:-0.873398 32:-0.456091 33:-0.831418 34:0.125008 35:-0.472628 36:-0.745693 37:-0.0202917 38:-0.452822 
1 1:-0.671559 2:0.0621372 3:0.00584169 4:-0.876271 5:-0.0916657 6:-0.337259 7:0.545703 8:-0.0186974 9:-0.411627 10:0.710713 11:-0.0786352 12:-0.771994 13:-0.794027 14:-0.79439 15:-0.653037 16:-0.799714 17:-0.643547 18:-0.672048 19:-1 20:-1 21:-0.527429 22:-0.811284 23:-1 24:-1 25:-0.855958 26:-0.500895 27:-1 28:-1 29:-0.678514 30:-0.775474 31:-0.434466 32:-0.483276 33:-0.963902 34:0.0582507 35:-0.396841 36:-0.644312 37:0.549495 38:-0.414365 
1 1:-0.865899 2:0.0180427 3:-0.209024 4:-0.767444 5:-0.0921173 6:-0.591925 7:0.711807 8:0.0696241 9:-0.0684516 10:0.602222 11:-0.116002 12:-0.683021 13:-0.86379 14:-0.692479 15:-1 16:-1 17:-0.691727 18:-0.306785 19:-1 20:-1 21:-0.866114 22:-0.593192 23:-0.721035 24:-0.355975 25:-1 26:-1 27:-0.658382 28:-0.557716 29:-1 30:-1 31:-0.874017 32:-0.960096 33:-0.796965 34:0.159707 35:-0.748587 36:-0.66245 37:0.188565 38:-0.452194 
1 1:-0.764743 2:0.0251112 3:-0.201287 4:-0.850445 5:-0.265074 6:-0.523553 7:0.593614 8:0.04404 9:-0.078927 10:0.687805 11:0.266597 12:-0.725434 13:-0.350575 14:-0.503146 15:-1 16:-1 17:-0.606955 18:-0.620811 19:-1 20:-1 21:-0.89904 22:-0.88758 23:-0.52235 24:-0.827068 25:-1 26:-1 27:-0.370976 28:-0.546441 29:-1 30:-1 31:-0.634326 32:-0.711738 33:-0.883064 34:-0.0313987 35:-0.778801 36:-0.883333 37:0.107161 38:-0.518696 
1 1:-0.730595 2:0.0603202 3:-0.367564 4:-0.89299 5:-0.107599 6:-0.366518 7:0.580874 8:-0.0147188 9:0.235332 10:0.722164 11:-0.0564551 12:-0.797999 13:-0.867184 14:-0.475545 15:-0.642939 16:-0.413265 17:-0.806362 18:-0.315676 19:-0.611247 20:-0.384242 21:-1 22:-1 23:-0.774642 24:-0.557872 25:-0.689437 26:-0.712096 27:-0.75815 28:-0.443196 29:-0.629764 30:-0.900349 31:-0.635177 32:-0.395011 33:-0.814382 34:0.206612 35:-0.439529 36:-0.74318 37:0.351238 38:-0.439819 
1 1:-0.601535 2:0.113899 3:-0.274533 4:-0.816773 5:-0.14663 6:-0.352688 7:0.571599 8:-0.071038 9:0.0639775 10:0.732996 11:0.00731755 12:-0.6989 13:-0.884543 14:-0.689159 15:-0.599799 16:-0.484373 17:-0.705046 18:-0.879253 19:-0.622387 20:-0.667562 21:-0.475937 22:-0.823269 23:-0.802462 24:-0.571333 25:-0.836733 26:-0.698287 27:-0.908551 28:-0.642178 29:-0.8122 30:-0.562417 31:-0.900776 32:-0.00264481 33:-0.900344 34:0.113695 35:-0.396913 36:-0.408737 37:0.179568 38:-0.381582 
1 1:-0.78535 2:0.116336 3:-0.354527 4:-0.827328 5:-0.234374 6:-0.546531 7:0.605462 8:-0.0827168 9:0.287116 10:0.65778 11:0.209461 12:-0.709207 13:-0.612975 14:-0.861138 15:-1 16:-1 17:-0.536965 18:-0.478579 19:-1 20:-1 21:-0.575563 22:-0.734266 23:-1 24:-1 25:-0.86593 26:-0.920746 27:-0.694262 28:-0.530308 29:-1 30:-1 31:-0.45023 32:-0.547928 33:-0.93503 34:0.0623094 35:-0.553733 36:-0.648578 37:0.554692 38:-0.42576 
1 1:-0.653068 2:0.160667 3:-0.425552 4:-0.813782 5:-0.334111 6:-0.216715 7:0.574557 8:-0.10771 9:0.268692 10:0.689487 11:0.252392 12:-0.769401 13:-0.681719 14:-0.421015 15:-0.480503 16:-0.376791 17:-0.684009 18:-0.575315 19:-0.600855 20:-0.602272 21:-1 22:-1 23:-0.312664 24:-0.541088 25:-1 26:-1 27:-0.681028 28:-0.366682 29:-1 30:-1 31:-0.481316 32:-0.254884 33:-0.844752 34:0.233179 35:-0.515498 36:-0.481977 37:0.552506 38:-0.285979 
1 1:-0.78911 2:0.0968437 3:-0.253103 4:-0.773171 5:-0.338267 6:-0.41977 7:0.637468 8:-0.0539985 9:0.0317693 10:0.636583 11:0.3468 12:-0.737616 13:-0.877364 14:-0.640944 15:-0.437048 16:-0.491561 17:-0.648834 18:-0.577887 19:-0.777037 20:-0.763818 21:-0.669981 22:-0.694081 23:-0.777175 24:-0.752381 25:-0.769493 26:-0.62273 27:-0.590463 28:-0.935658 29:-0.374103 30:-0.664136 31:-0.385859 32:-0.680214 33:-0.775411 34:0.3726 35:-0.498525 36:-0.882782 37:0.173958 38:-0.385583 
1 1:-0.720474 2:0.0134488 3:-0.126335 4:-0.89348 5:-0.30348 6:-0.503574 7:0.529815 8:0.0554277 9:-0.242332 10:0.708403 11:0.33335 12:-0.742286 13:-0.767701 14:-0.709768 15:-0.463904 16:-0.517589 17:-0.509833 18:-0.708321 19:-0.718676 20:-0.713661 21:-0.905945 22:-0.811417 23:-0.727708 24:-0.576954 25:-0.69258 26:-0.735667 27:-0.64746 28:-0.589235 29:-0.592504 30:-0.861389 31:-0.440932 32:-0.943361 33:-0.847523 34:-0.0866648 35:-0.583602 36:-0.817476 37:0.157202 38:-0.506858 
1 1:-0.892494 2:0.0477348 3:-0.129118 4:-0.934355 5:-0.22035 6:-0.82426 7:0.478522 8:0.105042 9:-0.584708 10:0.600943 11:0.435955 12:-0.685517 13:-1 14:-1 15:-0.484308 16:-0.825162 17:-0.654998 18:-0.906841 19:-0.652177 20:-0.859024 21:-0.9396 22:-0.832243 23:-0.888976 24:-0.952912 25:-0.871819 26:-0.846921 27:-0.828757 28:-0.948743 29:-0.745135 30:-0.877059 31:-0.220508 32:-0.807533 33:-0.984949 34:0.0695468 35:-0.836235 36:-0.962378 37:0.134069 38:-0.91542 
1 1:-0.740378 2:0.111315 3:-0.242116 4:-0.468419 5:-0.372282 6:-0.114815 7:0.717327 8:-0.0635738 9:0.00283896 10:0.577307 11:0.260776 12:-0.683823 13:-0.559518 14:-0.606687 15:-0.342199 16:-0.491576 17:-0.475039 18:-0.475037 19:-0.275206 20:-0.247447 21:-0.154283 22:-0.420058 23:-0.708235 24:-0.827323 25:-0.724328 26:-0.560119 27:-0.765921 28:-0.448657 29:-0.320952 30:-0.330699 31:-0.000141844 32:0.17481 33:-0.860806 34:0.234454 35:-0.181382 36:-0.137157 37:0.48583 38:-0.415486 
1 1:-0.714292 2:0.0878002 3:-0.257153 4:-0.61447 5:-0.472556 6:-0.336768 7:0.633021 8:-0.0448364 9:0.0313811 10:0.572658 11:0.48927 12:-0.657244 13:-0.642522 14:-0.42467 15:-0.743816 16:-0.675023 17:-0.732154 18:-0.515092 19:-0.458298 20:-0.13958 21:-0.49759 22:0.0698359 23:-0.517116 24:-0.442764 25:-0.374352 26:-0.470397 27:-0.354202 28:-0.693695 29:-0.197071 30:-0.572798 31:0.0608156 32:-0.478017 33:-0.720073 34:0.357201 35:-0.285389 36:-0.859262 37:0.157725 38:-0.293694 
1 1:-0.759596 2:-0.0500203 3:-0.0719841 4:-0.64263 5:-0.531665 6:-0.333423 7:0.602435 8:0.0860122 9:-0.264748 10:0.540971 11:0.572674 12:-0.696377 13:-0.553505 14:-0.256869 15:-0.352224 16:-0.422001 17:-0.55624 18:-0.561859 19:-0.463542 20:-0.541988 21:-0.027706 22:-0.522492 23:-0.344459 24:-0.635821 25:-0.61248 26:-0.551838 27:-0.619454 28:-0.610616 29:-0.423093 30:-0.546969 31:0.1559 32:-0.388081 33:-0.858139 34:-0.209698 35:-0.390244 36:-0.764344 37:-0.133689 38:-0.487501 
1 1:-0.744458 2:0.0656767 3:-0.176938 4:-0.813468 5:-0.383398 6:-0.410784 7:0.585536 8:-0.0191952 9:-0.111864 10:0.656147 11:0.418102 12:-0.744769 13:-0.703365 14:-0.483336 15:-0.652624 16:-0.373884 17:-0.615636 18:-0.41562 19:-0.581614 20:-0.49793 21:-0.573416 22:-0.487775 23:-0.813638 24:-0.544157 25:-0.747582 26:-0.353864 27:-0.748773 28:-0.374759 29:-0.542761 30:-0.317821 31:-0.439358 32:-0.526895 33:-0.823887 34:-0.194175 35:-0.462833 36:-0.685057 37:0.0178293 38:-0.429779 
1 1:-0.799328 2:0.0419193 3:-0.169896 4:-0.894909 5:-0.247682 6:-0.614716 7:0.569183 8:0.0372426 9:-0.183423 10:0.696663 11:0.284486 12:-0.732543 13:-0.720381 14:-0.580281 15:-0.85946 16:-0.63373 17:-0.558637 18:-0.437446 19:-0.469753 20:-0.590888 21:-0.435399 22:-0.535223 23:-0.704658 24:-0.646526 25:-0.69203 26:-0.61429 27:-0.68453 28:-0.639071 29:-0.575144 30:-0.57994 31:-1 32:-1 33:-0.876063 34:-0.0738652 35:-0.574455 36:-0.903646 37:0.219557 38:-0.640532 
1 1:-0.508592 2:0.190252 3:-0.0514853 4:-0.664068 5:-0.0748735 6:-0.3465 7:0.57028 8:-0.143265 9:-0.300886 10:0.673115 11:-0.100615 12:-0.587265 13:-0.710522 14:-0.544204 15:-0.182588 16:-0.463214 17:-0.201082 18:-0.544725 19:0.222478 20:-0.52839 21:0.306264 22:-0.528687 23:0.239054 24:-0.35086 25:-0.447814 26:-0.23316 27:-0.71975 28:-0.147123 29:-0.601561 30:-0.169081 31:0.910837 32:0.363206 33:-0.913134 34:0.208787 35:-0.320459 36:-0.551526 37:0.241376 38:-0.237682 
1 1:-0.491616 2:0.00417669 3:-0.43404 4:-0.882124 5:-0.0720836 6:-0.34274 7:0.476638 8:0.0381083 9:0.32728 10:0.762202 11:-0.107525 12:-0.69278 13:-0.539133 14:-0.619081 15:-0.691421 16:-0.212868 17:-0.772005 18:-0.0481107 19:-0.650356 20:0.0332588 21:-0.717407 22:0.150185 23:-0.803804 24:0.137196 25:-0.723068 26:-0.511062 27:-0.692802 28:-0.562752 29:-0.504158 30:-0.560713 31:-0.117644 32:0.268658 33:-0.608921 34:0.146615 35:-0.363395 36:-0.647194 37:0.233383 38:-0.352489 
1 1:-0.643424 2:0.241656 3:-0.192252 4:-0.73108 5:-0.0614532 6:-0.231385 7:0.624677 8:-0.178572 9:-0.0672413 10:0.685775 11:-0.109786 12:-0.720201 13:-0.671392 14:-0.446843 15:-0.305019 16:-0.573917 17:-0.362874 18:-0.620928 19:-0.140421 20:-0.823135 21:-0.240497 22:-0.820623 23:-0.0779349 24:-0.805369 25:-0.452725 26:-0.78883 27:-0.537082 28:-0.747163 29:-0.303663 30:-0.799494 31:1 32:-0.104354 33:-0.913616 34:-0.243571 35:-0.139368 36:-0.848313 37:0.0962084 38:-0.346698 
1 1:-0.686217 2:0.0731575 3:-0.406855 4:-0.84818 5:-0.0198655 6:-0.187981 7:0.591237 8:-0.0332804 9:0.237305 10:0.70663 11:-0.16083 12:-0.804151 13:-0.779561 14:-0.614628 15:-0.557047 16:-0.48202 17:-0.603364 18:-0.485228 19:-0.569027 20:-0.530911 21:-0.639529 22:-0.586559 23:-0.490489 24:-0.54287 25:-0.667233 26:-0.675872 27:-0.704477 28:-0.478926 29:-0.591244 30:-0.21147 31:-0.484364 32:-0.258366 33:-0.894288 34:0.0205665 35:-0.150675 36:-0.684102 37:0.232615 38:-0.481725 
1 1:-0.813428 2:0.173936 3:-0.200398 4:-0.810964 5:-0.00196459 6:-0.252055 7:0.654293 8:-0.124133 9:-0.0579988 10:0.670831 11:-0.200313 12:-0.82145 13:-0.728827 14:-0.60123 15:-0.258359 16:-0.761646 17:-0.408202 18:-0.873098 19:-0.240343 20:-0.826637 21:-0.361254 22:-0.866943 23:-0.330094 24:-0.767282 25:-0.594683 26:-0.761395 27:-0.553588 28:-0.89471 29:-0.593484 30:-0.760552 31:0.223111 32:-0.550321 33:-0.935436 34:-0.18171 35:-0.202088 36:-0.828176 37:-0.143613 38:-0.24802 
1 1:-0.764884 2:0.16344 3:-0.294716 4:-0.804293 5:-0.0288337 6:-0.571577 7:0.61209 8:-0.154337 9:0.149867 10:0.657087 11:-0.256096 12:-0.661282 13:-0.563245 14:-0.656328 15:-0.382481 16:-0.480001 17:-0.660089 18:-0.207949 19:-0.635854 20:-0.108935 21:-0.595867 22:-0.0260576 23:-0.600159 24:-0.166459 25:-0.582727 26:-0.177003 27:-0.736015 28:-0.717055 29:-0.688581 30:-0.647719 31:-0.635343 32:-0.698079 33:-0.765406 34:0.0072412 35:-0.51523 36:-0.686775 37:0.000394586 38:-0.380874 
1 1:-0.613103 2:0.146994 3:-0.0577934 4:-0.894525 5:0.00154116 6:-0.280212 7:0.53352 8:-0.100164 9:-0.28232 10:0.737664 11:-0.20832 12:-0.773161 13:-0.895296 14:-0.598454 15:-0.769867 16:-0.387223 17:-0.609571 18:-0.205041 19:-0.47946 20:-0.206051 21:-0.817855 22:-0.333986 23:-0.732003 24:-0.387393 25:-0.72924 26:-0.431223 27:-0.879118 28:-0.539786 29:-0.783765 30:-0.497339 31:-0.678599 32:-0.411262 33:-0.7455 34:0.251298 35:-0.274838 36:-0.738101 37:0.152988 38:-0.35224 
1 1:-0.585553 2:0.0627059 3:-0.0461341 4:-0.912992 5:-0.235407 6:-0.400471 7:0.486435 8:-0.0165021 9:-0.351018 10:0.756193 11:0.159375 12:-0.728586 13:-0.700579 14:-0.744237 15:-0.801365 16:-0.684346 17:-0.643693 18:-0.532353 19:-0.615338 20:-0.535093 21:-0.627609 22:-0.393737 23:-0.547009 24:-0.392625 25:-0.737988 26:-0.274585 27:-0.728909 28:-0.264345 29:-0.592851 30:-0.168756 31:-0.480743 32:-0.245069 33:-0.864339 34:0.163326 35:-0.171716 36:-0.552974 37:0.213261 38:-0.518287 
1 1:-0.744048 2:0.0766556 3:-0.0913373 4:-0.935028 5:-0.203194 6:-0.576865 7:0.510024 8:-0.0239205 9:-0.373619 10:0.737163 11:0.1529 12:-0.750685 13:-0.739705 14:-0.846555 15:-0.833143 16:-0.784777 17:-0.728083 18:-0.541653 19:-0.711191 20:-0.581451 21:-0.686192 22:-0.493096 23:-0.624657 24:-0.566529 25:-0.596165 26:-0.513133 27:-0.761035 28:-0.474221 29:-0.67589 30:-0.369577 31:-0.59143 32:-0.83505 33:-0.900489 34:0.158553 35:-0.404766 36:-0.744757 37:0.241724 38:-0.623231 
1 1:-0.776363 2:0.0779632 3:-0.115407 4:-0.900335 5:-0.150418 6:-0.620132 7:0.553112 8:-0.0234059 9:-0.341528 10:0.714197 11:0.0301782 12:-0.716142 13:-0.816899 14:-0.743009 15:-0.896679 16:-0.681205 17:-0.773824 18:-0.591735 19:-0.687548 20:-0.989249 21:-0.660826 22:-0.556447 23:-0.57216 24:-0.476854 25:-1 26:-1 27:-0.547138 28:-0.463424 29:-0.523235 30:-0.641534 31:-0.675581 32:-0.707444 33:-0.882719 34:0.232116 35:-0.556951 36:-0.813067 37:0.25907 38:-0.6596 
1 1:-0.868665 2:0.102177 3:-0.130035 4:-0.93875 5:-0.115779 6:-0.516264 7:0.611625 8:-0.0623971 9:-0.251547 10:0.706448 11:-0.0531258 12:-0.861365 13:-0.942655 14:-0.788945 15:-0.891479 16:-0.691957 17:-0.766346 18:-0.567458 19:-1 20:-1 21:-0.612122 22:-0.750395 23:-0.629447 24:-0.609758 25:-1 26:-1 27:-0.841021 28:-0.550539 29:-0.915769 30:-0.883816 31:-0.683205 32:-0.788362 33:-0.925509 34:0.159945 35:-0.50901 36:-0.880975 37:0.271122 38:-0.485022 
1 1:-0.549359 2:0.139089 3:-0.139603 4:-0.894565 5:-0.214904 6:-0.233331 7:0.534936 8:-0.0903718 9:-0.145854 10:0.764303 11:0.0976304 12:-0.759696 13:-0.830671 14:-0.689511 15:-0.696502 16:-0.498497 17:-0.585963 18:-0.506746 19:-0.622634 20:-0.531041 21:-0.56506 22:-0.670247 23:-1 24:-1 25:-0.577255 26:-0.7421 27:-0.536639 28:-0.544231 29:-0.434677 30:-0.196654 31:-0.540825 32:0.0635537 33:-0.876163 34:0.0293088 35:-0.258605 36:-0.483581 37:0.288153 38:-0.507701 
1 1:-0.720584 2:0.0642287 3:-0.239793 4:-0.888578 5:-0.0990033 6:-0.394359 7:0.587613 8:-0.0174961 9:0.00604562 10:0.735016 11:-0.0733161 12:-0.780221 13:-0.799528 14:-0.610235 15:-0.412918 16:-0.606845 17:-0.413847 18:-0.57016 19:-0.366039 20:-0.528603 21:-0.711243 22:-0.486451 23:-0.705112 24:-0.899327 25:-0.623382 26:-0.522134 27:-0.636376 28:-0.436609 29:-0.631686 30:-0.215133 31:-0.756966 32:-0.437657 33:-0.885648 34:-0.0170021 35:-0.546105 36:-0.733185 37:0.103718 38:-0.125995 
1 1:-0.722401 2:0.0537382 3:-0.154693 4:-0.873856 5:-0.123046 6:-0.379916 7:0.593184 8:-0.00689142 9:-0.150405 10:0.724463 11:-0.0311807 12:-0.777565 13:-0.862884 14:-0.594168 15:-0.372926 16:-0.549104 17:-0.38242 18:-0.759579 19:-0.421995 20:-0.671867 21:-0.49116 22:-0.892489 23:-0.721969 24:-0.662309 25:-0.630942 26:-0.689851 27:-0.596492 28:-0.510983 29:-0.54391 30:-0.217407 31:-0.918144 32:-0.8243 33:-0.905358 34:0.230245 35:-0.5157 36:-0.715511 37:0.356019 38:-0.226291 
1 1:-0.732545 2:0.0199144 3:-0.280588 4:-0.863777 5:-0.0420677 6:-0.311507 7:0.604866 8:0.0225158 9:0.0718531 10:0.713475 11:-0.153507 12:-0.79826 13:-0.772054 14:-0.850259 15:-0.815947 16:-0.356937 17:-0.800703 18:-0.348207 19:-0.665283 20:-0.322771 21:-0.835472 22:-0.64708 23:-0.903741 24:-0.790685 25:-0.655059 26:-0.574257 27:-0.799624 28:-0.518788 29:-0.823638 30:-0.406023 31:-0.65419 32:-0.414577 33:-0.793616 34:0.0278712 35:-0.259877 36:-0.673235 37:0.200009 38:-0.574243 
1 1:-0.75248 2:0.0129958 3:-0.263805 4:-0.791476 5:-0.0781017 6:-0.615675 7:0.617337 8:0.0813901 9:0.0802393 10:0.658437 11:-0.154497 12:-0.606236 13:-0.595916 14:-0.859764 15:-0.62283 16:-0.120325 17:-0.671465 18:-0.0378303 19:-1 20:-1 21:-0.68431 22:-0.178019 23:-0.656906 24:-0.175786 25:-0.76565 26:-0.673236 27:-0.751314 28:-0.887883 29:-0.141341 30:-0.650263 31:-0.574228 32:-0.675091 33:-0.718216 34:0.046182 35:-0.797734 36:-0.657792 37:0.415161 38:-0.287485 
1 1:-0.646459 2:-0.0228338 3:-0.332612 4:-0.859951 5:-0.10136 6:-0.634424 7:0.47965 8:0.145285 9:0.277099 10:0.732755 11:-0.0980886 12:-0.575307 13:-0.935069 14:-0.898569 15:-0.655469 16:-0.23237 17:-0.826988 18:-0.202921 19:-0.891345 20:-0.511066 21:-0.787924 22:0.0322135 23:-0.785546 24:-0.504984 25:-0.826265 26:-0.491674 27:-0.682514 28:-0.525893 29:-0.886415 30:-0.668835 31:-0.695664 32:-0.867041 33:-0.654261 34:-0.0217441 35:-0.532843 36:-0.68512 37:0.271564 38:-0.696618 
1 1:-0.678479 2:0.000635047 3:-0.382007 4:-0.906909 5:-0.0527447 6:-0.442348 7:0.52703 8:0.0601648 9:0.291425 10:0.73596 11:-0.162378 12:-0.753976 13:-0.913005 14:-0.810624 15:-0.707988 16:-0.169945 17:-0.834862 18:-0.129057 19:-1 20:-1 21:-0.762909 22:-0.0439228 23:-0.777445 24:-0.493342 25:-1 26:-1 27:-0.685736 28:-0.610786 29:-0.844866 30:-0.543101 31:-0.901072 32:-0.719537 33:-0.64886 34:0.0164917 35:-0.482465 36:-0.868526 37:0.269627 38:-0.485176 
1 1:-0.598886 2:0.0856037 3:-0.262265 4:-0.613557 5:0.20319 6:-0.300157 7:0.595603 8:-0.0432086 9:0.0365611 10:0.609265 11:-0.482828 12:-0.62713 13:-0.697077 14:-0.714468 15:-0.838532 16:-0.370398 17:-0.899552 18:-0.533942 19:-0.884052 20:-0.406437 21:-0.737244 22:-0.460769 23:-0.550899 24:-0.510649 25:-0.903295 26:-0.754943 27:-0.306274 28:-0.594848 29:-0.421145 30:-0.787767 31:-0.429462 32:-0.267824 33:-0.732245 34:-0.262544 35:-0.426887 36:-0.492752 37:-0.249324 38:-0.220418 
1 1:-0.652355 2:0.122041 3:-0.300636 4:-0.853251 5:-0.0961382 6:-0.63448 7:0.503038 8:-0.0980896 9:0.187933 10:0.739346 11:-0.112219 12:-0.571124 13:-0.766507 14:-0.906238 15:-0.710083 16:-0.216166 17:-1 18:-1 19:-0.784911 20:-0.0227032 21:-1 22:-1 23:-0.713024 24:-0.214618 25:-0.957811 26:-0.726268 27:-0.650659 28:-0.792458 29:-0.797092 30:-0.856321 31:-0.432435 32:-0.933169 33:-0.650226 34:0.068437 35:-0.674074 36:-0.794453 37:0.239352 38:-0.562171 
1 1:-0.721698 2:0.112839 3:-0.285373 4:-0.881191 5:-0.248215 6:-0.542018 7:0.551861 8:-0.077601 9:0.120181 10:0.722873 11:0.239066 12:-0.71126 13:-0.928284 14:-0.708562 15:-0.766788 16:-0.226295 17:-1 18:-1 19:-0.74052 20:-0.28307 21:-0.753191 22:-0.375122 23:-0.838705 24:-0.60543 25:-0.752631 26:-0.520955 27:-1 28:-1 29:-0.391482 30:-0.50008 31:-0.603652 32:-0.857313 33:-0.743251 34:0.196662 35:-0.5819 36:-0.798999 37:0.285654 38:-0.372414 
1 1:-0.73258 2:0.0896621 3:-0.291502 4:-0.924229 5:-0.193482 6:-0.419532 7:0.568799 8:-0.045692 9:0.108697 10:0.745517 11:0.0951201 12:-0.800529 13:-0.871668 14:-0.744385 15:-0.682793 16:-0.206388 17:-1 18:-1 19:-0.785467 20:-0.181883 21:-0.842639 22:-0.619137 23:-0.589988 24:-0.662492 25:-0.804408 26:-0.598717 27:-1 28:-1 29:-0.776103 30:-0.472706 31:-0.542792 32:-0.6028 33:-0.723187 34:0.346272 35:-0.20058 36:-0.829679 37:0.261712 38:-0.642732 
1 1:-0.655486 2:0.140652 3:-0.319729 4:-0.928749 5:-0.154506 6:-0.524778 7:0.499757 8:-0.1151 9:0.195673 10:0.777901 11:0.0308711 12:-0.714745 13:-0.718808 14:-0.770178 15:-0.560022 16:-0.09631 17:-1 18:-1 19:-0.63167 20:-0.139897 21:-0.689197 22:-0.335707 23:-0.852142 24:-0.479743 25:-0.668332 26:-0.514785 27:-1 28:-1 29:-0.76391 30:-0.607185 31:-0.872686 32:-0.679618 33:-0.698022 34:0.099277 35:-0.701022 36:-0.746018 37:0.308991 38:-0.220303 
1 1:-0.733901 2:0.132339 3:-0.280401 4:-0.909831 5:-0.0485039 6:-0.625682 7:0.521387 8:-0.116634 9:0.133073 10:0.743962 11:-0.240834 12:-0.688228 13:-0.798147 14:-0.500287 15:-0.936019 16:-0.486974 17:-0.834154 18:-0.329857 19:-0.961071 20:-0.572301 21:-0.818454 22:-0.512729 23:-1 24:-1 25:-0.645447 26:-0.627857 27:-1 28:-1 29:-0.818837 30:-0.793766 31:-0.74029 32:-0.991677 33:-0.721282 34:0.0761802 35:-0.852555 36:-0.817986 37:0.0706453 38:-0.282295 
1 1:-0.795021 2:0.125369 3:-0.243382 4:-0.916678 5:-0.046415 6:-0.607201 7:0.568199 8:-0.103467 9:0.0252578 10:0.726298 11:-0.241197 12:-0.75211 13:-0.80623 14:-0.746223 15:-0.992566 16:-0.700333 17:-0.930896 18:-0.758531 19:-0.920105 20:-0.749513 21:-0.872147 22:-0.357657 23:-0.950088 24:-0.78032 25:-0.852228 26:-0.356897 27:-1 28:-1 29:-0.808192 30:-0.782112 31:-0.640317 32:-0.9925 33:-0.80122 34:-0.157017 35:-0.467791 36:-0.830133 37:0.188475 38:-0.670954 
1 1:-0.658367 2:0.153665 3:-0.199502 4:-0.930417 5:-0.173053 6:-0.713625 7:0.405807 8:-0.177325 9:-0.121515 10:0.812744 11:0.114739 12:-0.559813 13:-0.818398 14:-0.895105 15:-1 16:-1 17:-0.829059 18:-0.219017 19:-1 20:-1 21:-0.825051 22:-0.338029 23:-1 24:-1 25:-1 26:-1 27:-0.744426 28:-0.0455896 29:-1 30:-1 31:-0.844853 32:-0.762803 33:-0.80354 34:0.0489777 35:-0.527586 36:-0.583067 37:0.197115 38:-0.855613 
1 1:-0.736164 2:0.042064 3:-0.229783 4:-0.830753 5:-0.256536 6:-0.533129 7:0.590087 8:0.0212942 9:-0.012964 10:0.689302 11:0.250522 12:-0.687793 13:-0.696864 14:-0.705679 15:-0.81446 16:-0.877712 17:-0.832092 18:-0.656479 19:-0.871166 20:-0.763856 21:-0.778976 22:-0.742114 23:-0.554685 24:-0.408592 25:-1 26:-1 27:-0.501454 28:-0.547687 29:-0.381347 30:-0.94216 31:-1 32:-1 33:-0.874899 34:-0.078498 35:-0.435749 36:-0.802322 37:0.183335 38:-0.665268 
1 1:-0.693204 2:0.0685285 3:-0.245645 4:-0.795287 5:-0.118093 6:-0.477675 7:0.60709 8:-0.0190779 9:0.0203363 10:0.698807 11:-0.0434909 12:-0.669449 13:-0.837544 14:-0.591915 15:-0.225929 16:-0.316772 17:-1 18:-1 19:-0.238735 20:-0.440014 21:-1 22:-1 23:-0.408624 24:-0.267673 25:-1 26:-1 27:-0.624936 28:-0.409034 29:-0.597482 30:-0.769626 31:-0.327794 32:-0.158576 33:-0.857415 34:0.139836 35:-0.534339 36:-0.572558 37:0.238401 38:-0.467445 
1 1:-0.83774 2:0.13526 3:-0.223457 4:-0.862496 5:-0.134085 6:-0.412405 7:0.651508 8:-0.0988818 9:-0.0252168 10:0.688684 11:-0.0125989 12:-0.818865 13:-0.779547 14:-0.796709 15:-1 16:-1 17:-0.387464 18:-0.786878 19:-0.601982 20:-0.942356 21:-0.697055 22:-0.877882 23:-1 24:-1 25:-0.369622 26:-0.6333 27:-1 28:-1 29:-0.456749 30:-0.761591 31:-0.830866 32:-0.795542 33:-0.945642 34:0.20214 35:-0.416807 36:-0.890455 37:0.290895 38:-0.548637 
1 1:-0.769795 2:0.103894 3:-0.145 4:-0.913677 5:-0.220762 6:-0.446021 7:0.581043 8:-0.0628776 9:-0.187382 10:0.724636 11:0.151729 12:-0.805488 13:-0.951129 14:-0.762585 15:-0.793622 16:-0.749489 17:-0.710648 18:-0.59418 19:-0.701886 20:-0.743264 21:-0.634202 22:-0.939887 23:-0.6133 24:-0.81144 25:-0.633682 26:-0.597731 27:-0.737716 28:-0.548032 29:-0.906454 30:-0.654467 31:-0.827839 32:-0.637552 33:-0.901069 34:-0.0358412 35:-0.490653 36:-0.802721 37:0.135254 38:-0.486681 
1 1:-0.741941 2:0.117539 3:-0.269465 4:-0.854159 5:-0.146762 6:-0.604187 7:0.582393 8:-0.0889483 9:0.0951286 10:0.713049 11:0.0189095 12:-0.659837 13:-0.710434 14:-0.682346 15:-0.781679 16:-0.344631 17:-0.853505 18:-0.579025 19:-0.702645 20:-0.644733 21:-0.822302 22:-0.453826 23:-0.686544 24:-0.90716 25:-0.784177 26:-0.43759 27:-1 28:-1 29:-0.549141 30:-0.445398 31:-1 32:-1 33:-0.813691 34:0.00951014 35:-0.584047 36:-0.744005 37:0.259427 38:-0.346032 
1 1:-0.740597 2:0.072231 3:-0.314772 4:-0.85042 5:-0.146472 6:-0.52822 7:0.591345 8:-0.0205685 9:0.185386 10:0.706455 11:0.0138623 12:-0.706795 13:-0.86713 14:-0.556073 15:-0.59107 16:-0.84337 17:-0.829157 18:-0.834053 19:-0.626991 20:-0.525895 21:-0.790274 22:-0.849419 23:-0.69898 24:-0.489657 25:-0.745701 26:-0.774458 27:-1 28:-1 29:-0.671483 30:-0.139337 31:-1 32:-1 33:-0.87936 34:0.229495 35:-0.300873 36:-0.656179 37:0.239164 38:-0.635849 
1 1:-0.736885 2:0.154872 3:-0.32744 4:-0.839976 5:-0.262135 6:-0.603603 7:0.552004 8:-0.147511 9:0.247961 10:0.674237 11:0.302417 12:-0.649808 13:-0.726133 14:-0.616474 15:-0.594019 16:-0.431412 17:-0.72166 18:-0.759406 19:-0.799333 20:-0.489015 21:-0.86274 22:-0.785435 23:-0.503512 24:-0.575742 25:-0.678757 26:-0.587842 27:-1 28:-1 29:-0.396853 30:-0.503866 31:-1 32:-1 33:-0.78568 34:0.286577 35:-0.50879 36:-0.664964 37:0.43137 38:-0.668276 
1 1:-0.876129 2:0.0741791 3:-0.216421 4:-0.885081 5:-0.189081 6:-0.454038 7:0.656001 8:-0.025769 9:-0.0412245 10:0.683674 11:0.0948209 12:-0.843332 13:-0.698659 14:-0.767753 15:-0.433275 16:-0.701482 17:-0.98164 18:-0.662191 19:-0.848649 20:-0.422971 21:-1 22:-1 23:-0.785357 24:-0.617637 25:-1 26:-1 27:-0.739934 28:-0.872294 29:-1 30:-1 31:-0.760463 32:-0.97522 33:-0.867149 34:-0.0535862 35:-0.385158 36:-0.884252 37:0.334456 38:-0.345238 
1 1:-0.728994 2:-0.0210704 3:-0.131817 4:-0.767542 5:-0.18288 6:-0.534907 7:0.616053 8:0.106531 9:-0.238222 10:0.653704 11:0.0906093 12:-0.637257 13:-0.756116 14:-0.843218 15:-0.768855 16:-0.225047 17:-0.860599 18:-0.610518 19:-0.704095 20:0.19124 21:-0.798561 22:-0.450549 23:-0.665562 24:-0.451374 25:-0.766101 26:-0.921534 27:-0.97434 28:-0.917494 29:-0.809202 30:-0.824241 31:-0.640292 32:-0.742849 33:-0.485174 34:-0.0136072 35:-0.549602 36:-0.875434 37:-0.0135503 38:-0.411546 
1 1:-0.68472 2:0.0121739 3:-0.129409 4:-0.890282 5:-0.133826 6:-0.528838 7:0.532797 8:0.0624101 9:-0.246502 10:0.743455 11:-0.0133212 12:-0.702366 13:-0.689345 14:-0.804434 15:-0.726689 16:-0.862583 17:-0.686767 18:-0.627379 19:-0.428012 20:-0.8682 21:-0.705372 22:-0.560212 23:-0.917954 24:-0.850826 25:-0.868488 26:-0.475776 27:-1 28:-1 29:-0.887067 30:-0.807501 31:-0.547799 32:-0.744321 33:-0.893902 34:0.030567 35:-0.473963 36:-0.806678 37:0.378184 38:-0.416646 
1 1:-0.760103 2:0.000139063 3:-0.13021 4:-0.897449 5:-0.220555 6:-0.512347 7:0.566456 8:0.0770377 9:-0.241021 10:0.714646 11:0.169705 12:-0.76286 13:-0.704745 14:-0.778743 15:-0.716312 16:-0.838153 17:-0.661019 18:-0.739795 19:-0.49332 20:-0.890772 21:-0.661432 22:-0.589169 23:-0.707599 24:-0.879262 25:-0.763366 26:-0.631821 27:-0.53487 28:-0.961533 29:-0.84674 30:-0.912192 31:-0.594035 32:-0.914955 33:-0.930703 34:0.0277671 35:-0.391077 36:-0.937096 37:0.186631 38:-0.506639 
1 1:-0.715905 2:0.117791 3:-0.074539 4:-0.845577 5:-0.0727667 6:-0.493795 7:0.566287 8:-0.081378 9:-0.348864 10:0.69516 11:-0.134937 12:-0.709873 13:-0.6478 14:-0.633853 15:-0.927033 16:-0.814179 17:-0.830919 18:-0.439461 19:-0.669991 20:-0.319055 21:-0.84565 22:-0.514607 23:-0.726401 24:-0.242736 25:-0.862341 26:-0.715918 27:-0.448918 28:-0.561134 29:-0.805348 30:-0.802034 31:-0.638134 32:-0.671876 33:-0.783537 34:0.256341 35:-0.480349 36:-0.791797 37:0.320565 38:-0.478324 
1 1:-0.782649 2:0.145494 3:-0.142021 4:-0.932394 5:-0.0966733 6:-0.485915 7:0.574865 8:-0.118753 9:-0.207817 10:0.734392 11:-0.0892541 12:-0.811935 13:-0.803563 14:-0.8354 15:-1 16:-1 17:-0.838942 18:-0.338716 19:-1 20:-1 21:-0.783206 22:-0.579024 23:-0.761034 24:-0.817195 25:-0.686619 26:-0.702133 27:-0.666713 28:-0.909344 29:-0.747073 30:-0.765179 31:-0.818514 32:-0.831551 33:-0.864699 34:0.0784553 35:-0.511722 36:-0.902388 37:0.319797 38:-0.571932 
1 1:-0.664212 2:0.0872169 3:-0.146033 4:-0.978411 5:-0.109502 6:-0.567639 7:0.45885 8:-0.0404587 9:-0.22726 10:0.812139 11:-0.0707914 12:-0.734874 13:-0.818642 14:-0.820542 15:-0.936684 16:-0.660997 17:-0.896329 18:-0.482078 19:-0.843356 20:-0.572964 21:-0.892379 22:-0.423775 23:-0.848979 24:-0.488197 25:-0.862875 26:-0.461312 27:-1 28:-1 29:-0.829662 30:-0.649279 31:-0.911686 32:-0.734104 33:-0.723139 34:0.155817 35:-0.511727 36:-0.757313 37:0.210174 38:-0.559323 
1 1:-0.569672 2:0.108934 3:-0.130575 4:-0.957254 5:-0.168217 6:-0.534107 7:0.429399 8:-0.0714514 9:-0.244058 10:0.819747 11:0.0604748 12:-0.678731 13:-0.772363 14:-0.841373 15:-0.800557 16:-0.544899 17:-0.867873 18:-0.477477 19:-0.806352 20:-0.529775 21:-0.878622 22:-0.477006 23:-0.873406 24:-0.496478 25:-0.889092 26:-0.473442 27:-0.882107 28:-0.586732 29:-0.92156 30:-0.684136 31:-0.356942 32:-0.828388 33:-0.691642 34:0.14465 35:-0.570849 36:-0.644974 37:0.296634 38:-0.534188 
1 1:-0.430631 2:0.0933284 3:0.151951 4:-0.76783 5:-0.335077 6:-0.231301 7:0.470744 8:-0.050212 9:-0.54186 10:0.682731 11:0.24439 12:-0.666466 13:-0.581932 14:-0.836475 15:-0.0827083 16:-0.832913 17:-0.625524 18:-0.767939 19:-0.445232 20:-0.768981 21:-0.759587 22:-0.762662 23:-0.546111 24:-0.99958 25:-0.760115 26:-0.403542 27:-0.833864 28:-0.778381 29:-0.257681 30:-0.544465 31:-0.333355 32:-0.46366 33:-0.970376 34:0.0485445 35:-0.357716 36:-0.647958 37:0.465427 38:-0.402631 
1 1:-0.828101 2:0.21408 3:-0.261455 4:-0.772511 5:-0.072927 6:-0.630245 7:0.674516 8:-0.255509 9:0.0776491 10:0.605247 11:-0.174594 12:-0.631816 13:-0.70449 14:-0.742279 15:-0.271784 16:-0.746039 17:-1 18:-1 19:-0.0604588 20:-0.614582 21:-0.534679 22:-0.847713 23:-0.30219 24:-0.645513 25:-0.815756 26:-0.777389 27:-1 28:-1 29:-0.988584 30:-0.75314 31:-1 32:-1 33:-0.951271 34:0.00428065 35:-0.620454 36:-0.915886 37:0.0165306 38:-0.471411 
1 1:-0.786517 2:0.101824 3:-0.148185 4:-0.774448 5:-0.224645 6:-0.41942 7:0.65504 8:-0.0597128 9:-0.169695 10:0.654016 11:0.147835 12:-0.735262 13:-0.627482 14:-0.598224 15:-0.261647 16:-0.633391 17:-1 18:-1 19:-0.344158 20:-0.418842 21:-0.28164 22:-0.503965 23:-0.949195 24:-0.394617 25:-0.63116 26:-0.510581 27:-1 28:-1 29:-0.246103 30:-0.60837 31:-0.672421 32:-0.789022 33:-0.82909 34:-0.129985 35:-0.664079 36:-0.734703 37:0.126951 38:-0.22163 
1 1:-0.805998 2:0.16361 3:-0.364296 4:-0.887337 5:-0.175742 6:-0.363282 7:0.61431 8:-0.125711 9:0.230858 10:0.697522 11:0.056966 12:-0.832705 13:-0.861529 14:-0.656822 15:-0.434807 16:-0.613308 17:-1 18:-1 19:-0.719801 20:-0.802856 21:-0.863816 22:-0.579652 23:-1 24:-1 25:-0.815935 26:-0.485421 27:-1 28:-1 29:-0.829226 30:-0.364515 31:-0.883303 32:-0.683272 33:-0.902905 34:-0.0950736 35:-0.625443 36:-0.692404 37:0.457894 38:-0.151731 
1 1:-0.788483 2:0.0346933 3:-0.261604 4:-0.916085 5:-0.164007 6:-0.471395 7:0.595707 8:0.0255755 9:0.0560136 10:0.729558 11:0.0469951 12:-0.808294 13:-0.960185 14:-0.740708 15:-0.44608 16:-0.780883 17:-0.741293 18:-0.853661 19:-0.496044 20:-0.811163 21:-0.661665 22:-0.89636 23:-0.845635 24:-0.909079 25:-0.657653 26:-0.81186 27:-0.753237 28:-0.871077 29:-0.900935 30:-0.756126 31:-0.646661 32:-0.762291 33:-0.928029 34:-0.0425807 35:-0.487482 36:-0.897799 37:0.098674 38:-0.479187 
1 1:-0.740117 2:0.0421359 3:-0.221685 4:-0.841763 5:-0.226552 6:-0.555552 7:0.589044 8:0.0247911 9:-0.0328573 10:0.699061 11:0.195934 12:-0.683776 13:-0.745261 14:-0.423306 15:-0.359934 16:-0.644295 17:-0.723741 18:-0.714187 19:-0.298479 20:-0.6112 21:-0.106372 22:-0.760138 23:-0.326525 24:-0.495082 25:-0.275695 26:-0.66416 27:-0.687285 28:-0.620861 29:-0.661466 30:-0.84318 31:-0.749234 32:-0.630572 33:-0.856818 34:-0.0928444 35:-0.486968 36:-0.842271 37:0.144593 38:-0.565022 
1 1:-0.840314 2:0.038509 3:-0.208109 4:-0.817605 5:-0.232481 6:-0.451271 7:0.66383 8:0.0172752 9:-0.0575551 10:0.657074 11:0.174321 12:-0.778226 13:-0.771416 14:-0.667247 15:-0.79008 16:-0.544214 17:-0.887335 18:-0.54454 19:-0.881415 20:-0.371768 21:-0.873736 22:-0.662298 23:-0.932913 24:-0.835305 25:-0.886589 26:-0.78249 27:-0.586752 28:-0.784053 29:-1 30:-1 31:-0.53959 32:-0.68621 33:-0.680131 34:-0.103556 35:-0.559642 36:-0.844427 37:-0.0956813 38:-0.380854 
1 1:-0.82148 2:0.0504041 3:-0.191487 4:-0.865193 5:-0.161797 6:-0.536247 7:0.634067 8:0.0120721 9:-0.105861 10:0.690186 11:0.0490903 12:-0.764111 13:-0.874053 14:-0.85059 15:-0.642189 16:-0.873725 17:-0.593059 18:-0.612086 19:-0.582519 20:-0.927359 21:-0.655537 22:-0.627068 23:-1 24:-1 25:-0.388317 26:-0.749552 27:-1 28:-1 29:-0.455083 30:-0.778028 31:-0.875551 32:-0.893335 33:-0.896077 34:0.217938 35:-0.509569 36:-0.944196 37:0.209939 38:-0.536532 
1 1:-0.643585 2:0.097969 3:-0.281519 4:-0.874114 5:-0.206899 6:-0.447189 7:0.545033 8:-0.0554952 9:0.0908041 10:0.748246 11:0.121738 12:-0.710334 13:-0.811207 14:-0.569546 15:-0.538773 16:-0.720677 17:-0.974389 18:-0.669252 19:-0.400798 20:-0.571716 21:-1 22:-1 23:-0.451135 24:-0.445187 25:-1 26:-1 27:-0.850255 28:-0.244787 29:-1 30:-1 31:-0.876578 32:-0.336697 33:-0.818165 34:-0.202147 35:-0.419512 36:-0.606906 37:0.271614 38:-0.408498 
1 1:-0.873478 2:0.0383649 3:-0.224209 4:-0.819945 5:-0.261683 6:-0.409516 7:0.674097 8:0.0133487 9:-0.0236043 10:0.647344 11:0.215283 12:-0.812473 13:-0.993116 14:-0.914124 15:-0.89924 16:-0.700251 17:-0.63865 18:-0.629789 19:-0.866787 20:-0.799473 21:-0.638785 22:-0.669297 23:-0.840061 24:-0.637913 25:-0.653339 26:-0.896829 27:-0.887666 28:-0.655797 29:-0.730887 30:-0.676083 31:-0.873398 32:-0.456091 33:-0.831418 34:0.125008 35:-0.472628 36:-0.745693 37:-0.0202917 38:-0.452822 
1 1:-0.671559 2:0.0621372 3:0.00584169 4:-0.876271 5:-0.0916657 6:-0.337259 7:0.545703 8:-0.0186974 9:-0.411627 10:0.710713 11:-0.0786352 12:-0.771994 13:-0.794027 14:-0.79439 15:-0.653037 16:-0.799714 17:-0.643547 18:-0.672048 19:-1 20:-1 21:-0.527429 22:-0.811284 23:-1 24:-1 25:-0.855958 26:-0.500895 27:-1 28:-1 29:-0.678514 30:-0.775474 31:-0.434466 32:-0.483276 33:-0.963902 34:0.0582507 35:-0.396841 36:-0.644312 37:0.549495 38:-0.414365 
1 1:-0.865899 2:0.0180427 3:-0.209024 4:-0.767444 5:-0.0921173 6:-0.591925 7:0.711807 8:0.0696241 9:-0.0684516 10:0.602222 11:-0.116002 12:-0.683021 13:-0.86379 14:-0.692479 15:-1 16:-1 17:-0.691727 18:-0.306785 19:-1 20:-1 21:-0.866114 22:-0.593192 23:-0.721035 24:-0.355975 25:-1 26:-1 27:-0.658382 28:-0.557716 29:-1 30:-1 31:-0.874017 32:-0.960096 33:-0.796965 34:0.159707 35:-0.748587 36:-0.66245 37:0.188565 38:-0.452194 
1 1:-0.764743 2:0.0251112 3:-0.201287 4:-0.850445 5:-0.265074 6:-0.523553 7:0.593614 8:0.04404 9:-0.078927 10:0.687805 11:0.266597 12:-0.725434 13:-0.350575 14:-0.503146 15:-1 16:-1 17:-0.606955 18:-0.620811 19:-1 20:-1 21:-0.89904 22:-0.88758 23:-0.52235 24:-0.827068 25:-1 26:-1 27:-0.370976 28:-0.546441 29:-1 30:-1 31:-0.634326 32:-0.711738 33:-0.883064 34:-0.0313987 35:-0.778801 36:-0.883333 37:0.107161 38:-0.518696 
1 1:-0.730595 2:0.0603202 3:-0.367564 4:-0.89299 5:-0.107599 6:-0.366518 7:0.580874 8:-0.0147188 9:0.235332 10:0.722164 11:-0.0564551 12:-0.797999 13:-0.867184 14:-0.475545 15:-0.642939 16:-0.413265 17:-0.806362 18:-0.315676 19:-0.611247 20:-0.384242 21:-1 22:-1 23:-0.774642 24:-0.557872 25:-0.689437 26:-0.712096 27:-0.75815 28:-0.443196 29:-0.629764 30:-0.900349 31:-0.635177 32:-0.395011 33:-0.814382 34:0.206612 35:-0.439529 36:-0.74318 37:0.351238 38:-0.439819 
0.8951868128032721 1:-0.798534 2:0.119193 3:-0.329542 4:-0.822007 5:-0.171673 6:-0.430695 7:0.641891 8:-0.0804546 9:0.184921 10:0.673778 11:0.0560263 12:-0.766426 13:-1 14:-1 15:-0.926963 16:-0.6337 17:-0.922327 18:-0.690686 19:-0.831258 20:-0.23987 21:-0.8935 22:-0.646131 23:-0.704898 24:-0.841719 25:-0.702678 26:-0.839839 27:-0.495013 28:-0.772448 29:-0.634557 30:-0.944976 31:-0.327675 32:-0.851917 33:-0.693083 34:0.0925667 35:-0.539008 36:-0.968111 37:0.231988 38:-0.370443 
1 1:-0.601535 2:0.113899 3:-0.274533 4:-0.816773 5:-0.14663 6:-0.352688 7:0.571599 8:-0.071038 9:0.0639775 10:0.732996 11:0.00731755 12:-0.6989 13:-0.884543 14:-0.689159 15:-0.599799 16:-0.484373 17:-0.705046 18:-0.879253 19:-0.622387 20:-0.667562 21:-0.475937 22:-0.823269 23:-0.802462 24:-0.571333 25:-0.836733 26:-0.698287 27:-0.908551 28:-0.642178 29:-0.8122 30:-0.562417 31:-0.900776 32:-0.00264481 33:-0.900344 34:0.113695 35:-0.396913 36:-0.408737 37:0.179568 38:-0.381582 
1 1:-0.78535 2:0.116336 3:-0.354527 4:-0.827328 5:-0.234374 6:-0.546531 7:0.605462 8:-0.0827168 9:0.287116 10:0.65778 11:0.209461 12:-0.709207 13:-0.612975 14:-0.861138 15:-1 16:-1 17:-0.536965 18:-0.478579 19:-1 20:-1 21:-0.575563 22:-0.734266 23:-1 24:-1 25:-0.86593 26:-0.920746 27:-0.694262 28:-0.530308 29:-1 30:-1 31:-0.45023 32:-0.547928 33:-0.93503 34:0.0623094 35:-0.553733 36:-0.648578 37:0.554692 38:-0.42576 
1 1:-0.653068 2:0.160667 3:-0.425552 4:-0.813782 5:-0.334111 6:-0.216715 7:0.574557 8:-0.10771 9:0.268692 10:0.689487 11:0.252392 12:-0.769401 13:-0.681719 14:-0.421015 15:-0.480503 16:-0.376791 17:-0.684009 18:-0.575315 19:-0.600855 20:-0.602272 21:-1 22:-1 23:-0.312664 24:-0.541088 25:-1 26:-1 27:-0.681028 28:-0.366682 29:-1 30:-1 31:-0.481316 32:-0.254884 33:-0.844752 34:0.233179 35:-0.515498 36:-0.481977 37:0.552506 38:-0.285979 
1 1:-0.78911 2:0.0968437 3:-0.253103 4:-0.773171 5:-0.338267 6:-0.41977 7:0.637468 8:-0.0539985 9:0.0317693 10:0.636583 11:0.3468 12:-0.737616 13:-0.877364 14:-0.640944 15:-0.437048 16:-0.491561 17:-0.648834 18:-0.577887 19:-0.777037 20:-0.763818 21:-0.669981 22:-0.694081 23:-0.777175 24:-0.752381 25:-0.769493 26:-0.62273 27:-0.590463 28:-0.935658 29:-0.374103 30:-0.664136 31:-0.385859 32:-0.680214 33:-0.775411 34:0.3726 35:-0.498525 36:-0.882782 37:0.173958 38:-0.385583 
1 1:-0.720474 2:0.0134488 3:-0.126335 4:-0.89348 5:-0.30348 6:-0.503574 7:0.529815 8:0.0554277 9:-0.242332 10:0.708403 11:0.33335 12:-0.742286 13:-0.767701 14:-0.709768 15:-0.463904 16:-0.517589 17:-0.509833 18:-0.708321 19:-0.718676 20:-0.713661 21:-0.905945 22:-0.811417 23:-0.727708 24:-0.576954 25:-0.69258 26:-0.735667 27:-0.64746 28:-0.589235 29:-0.592504 30:-0.861389 31:-0.440932 32:-0.943361 33:-0.847523 34:-0.0866648 35:-0.583602 36:-0.817476 37:0.157202 38:-0.506858 
1 1:-0.892494 2:0.0477348 3:-0.129118 4:-0.934355 5:-0.22035 6:-0.82426 7:0.478522 8:0.105042 9:-0.584708 10:0.600943 11:0.435955 12:-0.685517 13:-1 14:-1 15:-0.484308 16:-0.825162 17:-0.654998 18:-0.906841 19:-0.652177 20:-0.859024 21:-0.9396 22:-0.832243 23:-0.888976 24:-0.952912 25:-0.871819 26:-0.846921 27:-0.828757 28:-0.948743 29:-0.745135 30:-0.877059 31:-0.220508 32:-0.807533 33:-0.984949 34:0.0695468 35:-0.836235 36:-0.962378 37:0.134069 38:-0.91542 
0.06245164830342905 1:-0.651197 2:0.240203 3:-0.313835 4:-0.719241 5:-0.242702 6:-0.303802 7:0.620496 8:-0.188454 9:0.120501 10:0.671195 11:0.146081 12:-0.691556 13:-0.38112 14:-0.629627 15:-0.645331 16:-0.253083 17:-0.803315 18:-0.133723 19:-0.633013 20:0.0392057 21:-0.456258 22:0.0509963 23:-0.646823 24:-0.366135 25:-0.469927 26:-0.789113 27:-0.544738 28:-0.564034 29:-0.751371 30:-0.576324 31:-0.200301 32:0.554156 33:-0.705284 34:0.201315 35:-0.286484 36:-0.379664 37:0.37438 38:-0.169355 
1 1:-0.740378 2:0.111315 3:-0.242116 4:-0.468419 5:-0.372282 6:-0.114815 7:0.717327 8:-0.0635738 9:0.00283896 10:0.577307 11:0.260776 12:-0.683823 13:-0.559518 14:-0.606687 15:-0.342199 16:-0.491576 17:-0.475039 18:-0.475037 19:-0.275206 20:-0.247447 21:-0.154283 22:-0.420058 23:-0.708235 24:-0.827323 25:-0.724328 26:-0.560119 27:-0.765921 28:-0.448657 29:-0.320952 30:-0.330699 31:-0.000141844 32:0.17481 33:-0.860806 34:0.234454 35:-0.181382 36:-0.137157 37:0.48583 38:-0.415486 
1 1:-0.714292 2:0.0878002 3:-0.257153 4:-0.61447 5:-0.472556 6:-0.336768 7:0.633021 8:-0.0448364 9:0.0313811 10:0.572658 11:0.48927 12:-0.657244 13:-0.642522 14:-0.42467 15:-0.743816 16:-0.675023 17:-0.732154 18:-0.515092 19:-0.458298 20:-0.13958 21:-0.49759 22:0.0698359 23:-0.517116 24:-0.442764 25:-0.374352 26:-0.470397 27:-0.354202 28:-0.693695 29:-0.197071 30:-0.572798 31:0.0608156 32:-0.478017 33:-0.720073 34:0.357201 35:-0.285389 36:-0.859262 37:0.157725 38:-0.293694 
1 1:-0.759596 2:-0.0500203 3:-0.0719841 4:-0.64263 5:-0.531665 6:-0.333423 7:0.602435 8:0.0860122 9:-0.264748 10:0.540971 11:0.572674 12:-0.696377 13:-0.553505 14:-0.256869 15:-0.352224 16:-0.422001 17:-0.55624 18:-0.561859 19:-0.463542 20:-0.541988 21:-0.027706 22:-0.522492 23:-0.344459 24:-0.635821 25:-0.61248 26:-0.551838 27:-0.619454 28:-0.610616 29:-0.423093 30:-0.546969 31:0.1559 32:-0.388081 33:-0.858139 34:-0.209698 35:-0.390244 36:-0.764344 37:-0.133689 38:-0.487501 
1 1:-0.744458 2:0.0656767 3:-0.176938 4:-0.813468 5:-0.383398 6:-0.410784 7:0.585536 8:-0.0191952 9:-0.111864 10:0.656147 11:0.418102 12:-0.744769 13:-0.703365 14:-0.483336 15:-0.652624 16:-0.373884 17:-0.615636 18:-0.41562 19:-0.581614 20:-0.49793 21:-0.573416 22:-0.487775 23:-0.813638 24:-0.544157 25:-0.747582 26:-0.353864 27:-0.748773 28:-0.374759 29:-0.542761 30:-0.317821 31:-0.439358 32:-0.526895 33:-0.823887 34:-0.194175 35:-0.462833 36:-0.685057 37:0.0178293 38:-0.429779 
1 1:-0.799328 2:0.0419193 3:-0.169896 4:-0.894909 5:-0.247682 6:-0.614716 7:0.569183 8:0.0372426 9:-0.183423 10:0.696663 11:0.284486 12:-0.732543 13:-0.720381 14:-0.580281 15:-0.85946 16:-0.63373 17:-0.558637 18:-0.437446 19:-0.469753 20:-0.590888 21:-0.435399 22:-0.535223 23:-0.704658 24:-0.646526 25:-0.69203 26:-0.61429 27:-0.68453 28:-0.639071 29:-0.575144 30:-0.57994 31:-1 32:-1 33:-0.876063 34:-0.0738652 35:-0.574455 36:-0.903646 37:0.219557 38:-0.640532 
1 1:-0.508592 2:0.190252 3:-0.0514853 4:-0.664068 5:-0.0748735 6:-0.3465 7:0.57028 8:-0.143265 9:-0.300886 10:0.673115 11:-0.100615 12:-0.587265 13:-0.710522 14:-0.544204 15:-0.182588 16:-0.463214 17:-0.201082 18:-0.544725 19:0.222478 20:-0.52839 21:0.306264 22:-0.528687 23:0.239054 24:-0.35086 25:-0.447814 26:-0.23316 27:-0.71975 28:-0.147123 29:-0.601561 30:-0.169081 31:0.910837 32:0.363206 33:-0.913134 34:0.208787 35:-0.320459 36:-0.551526 37:0.241376 38:-0.237682 
1 1:-0.491616 2:0.00417669 3:-0.43404 4:-0.882124 5:-0.0720836 6:-0.34274 7:0.476638 8:0.0381083 9:0.32728 10:0.762202 11:-0.107525 12:-0.69278 13:-0.539133 14:-0.619081 15:-0.691421 16:-0.212868 17:-0.772005 18:-0.0481107 19:-0.650356 20:0.0332588 21:-0.717407 22:0.150185 23:-0.803804 24:0.137196 25:-0.723068 26:-0.511062 27:-0.692802 28:-0.562752 29:-0.504158 30:-0.560713 31:-0.117644 32:0.268658 33:-0.608921 34:0.146615 35:-0.363395 36:-0.647194 37:0.233383 38:-0.352489 
1 1:-0.643424 2:0.241656 3:-0.192252 4:-0.73108 5:-0.0614532 6:-0.231385 7:0.624677 8:-0.178572 9:-0.0672413 10:0.685775 11:-0.109786 12:-0.720201 13:-0.671392 14:-0.446843 15:-0.305019 16:-0.573917 17:-0.362874 18:-0.620928 19:-0.140421 20:-0.823135 21:-0.240497 22:-0.820623 23:-0.0779349 24:-0.805369 25:-0.452725 26:-0.78883 27:-0.537082 28:-0.747163 29:-0.303663 30:-0.799494 31:1 32:-0.104354 33:-0.913616 34:-0.243571 35:-0.139368 36:-0.848313 37:0.0962084 38:-0.346698 
1 1:-0.686217 2:0.0731575 3:-0.406855 4:-0.84818 5:-0.0198655 6:-0.187981 7:0.591237 8:-0.0332804 9:0.237305 10:0.70663 11:-0.16083 12:-0.804151 13:-0.779561 14:-0.614628 15:-0.557047 16:-0.48202 17:-0.603364 18:-0.485228 19:-0.569027 20:-0.530911 21:-0.639529 22:-0.586559 23:-0.490489 24:-0.54287 25:-0.667233 26:-0.675872 27:-0.704477 28:-0.478926 29:-0.591244 30:-0.21147 31:-0.484364 32:-0.258366 33:-0.894288 34:0.0205665 35:-0.150675 36:-0.684102 37:0.232615 38:-0.481725 
1 1:-0.813428 2:0.173936 3:-0.200398 4:-0.810964 5:-0.00196459 6:-0.252055 7:0.654293 8:-0.124133 9:-0.0579988 10:0.670831 11:-0.200313 12:-0.82145 13:-0.728827 14:-0.60123 15:-0.258359 16:-0.761646 17:-0.408202 18:-0.873098 19:-0.240343 20:-0.826637 21:-0.361254 22:-0.866943 23:-0.330094 24:-0.767282 25:-0.594683 26:-0.761395 27:-0.553588 28:-0.89471 29:-0.593484 30:-0.760552 31:0.223111 32:-0.550321 33:-0.935436 34:-0.18171 35:-0.202088 36:-0.828176 37:-0.143613 38:-0.24802 
1 1:-0.764884 2:0.16344 3:-0.294716 4:-0.804293 5:-0.0288337 6:-0.571577 7:0.61209 8:-0.154337 9:0.149867 10:0.657087 11:-0.256096 12:-0.661282 13:-0.563245 14:-0.656328 15:-0.382481 16:-0.480001 17:-0.660089 18:-0.207949 19:-0.635854 20:-0.108935 21:-0.595867 22:-0.0260576 23:-0.600159 24:-0.166459 25:-0.582727 26:-0.177003 27:-0.736015 28:-0.717055 29:-0.688581 30:-0.647719 31:-0.635343 32:-0.698079 33:-0.765406 34:0.0072412 35:-0.51523 36:-0.686775 37:0.000394586 38:-0.380874 
1 1:-0.613103 2:0.146994 3:-0.0577934 4:-0.894525 5:0.00154116 6:-0.280212 7:0.53352 8:-0.100164 9:-0.28232 10:0.737664 11:-0.20832 12:-0.773161 13:-0.895296 14:-0.598454 15:-0.769867 16:-0.387223 17:-0.609571 18:-0.205041 19:-0.47946 20:-0.206051 21:-0.817855 22:-0.333986 23:-0.732003 24:-0.387393 25:-0.72924 26:-0.431223 27:-0.879118 28:-0.539786 29:-0.783765 30:-0.497339 31:-0.678599 32:-0.411262 33:-0.7455 34:0.251298 35:-0.274838 36:-0.738101 37:0.152988 38:-0.35224 
1 1:-0.585553 2:0.0627059 3:-0.0461341 4:-0.912992 5:-0.235407 6:-0.400471 7:0.486435 8:-0.0165021 9:-0.351018 10:0.756193 11:0.159375 12:-0.728586 13:-0.700579 14:-0.744237 15:-0.801365 16:-0.684346 17:-0.643693 18:-0.532353 19:-0.615338 20:-0.535093 21:-0.627609 22:-0.393737 23:-0.547009 24:-0.392625 25:-0.737988 26:-0.274585 27:-0.728909 28:-0.264345 29:-0.592851 30:-0.168756 31:-0.480743 32:-0.245069 33:-0.864339 34:0.163326 35:-0.171716 36:-0.552974 37:0.213261 38:-0.518287 
1 1:-0.744048 2:0.0766556 3:-0.0913373 4:-0.935028 5:-0.203194 6:-0.576865 7:0.510024 8:-0.0239205 9:-0.373619 10:0.737163 11:0.1529 12:-0.750685 13:-0.739705 14:-0.846555 15:-0.833143 16:-0.784777 17:-0.728083 18:-0.541653 19:-0.711191 20:-0.581451 21:-0.686192 22:-0.493096 23:-0.624657 24:-0.566529 25:-0.596165 26:-0.513133 27:-0.761035 28:-0.474221 29:-0.67589 30:-0.369577 31:-0.59143 32:-0.83505 33:-0.900489 34:0.158553 35:-0.404766 36:-0.744757 37:0.241724 38:-0.623231 
0.8188801797667465 1:-0.475584 2:0.0930254 3:-0.0751385 4:-0.796483 5:-0.404205 6:-0.300416 7:0.494098 8:-0.049875 9:-0.250571 10:0.712453 11:0.37046 12:-0.66392 13:-1 14:-1 15:-0.802494 16:-0.838031 17:-0.690724 18:-0.449733 19:-0.591343 20:-0.522046 21:-0.587382 22:-0.516344 23:-0.628929 24:-0.643587 25:-0.800408 26:-0.448069 27:-0.749042 28:-0.432209 29:0.0164706 30:0.289141 31:-0.0965012 32:-0.00587453 33:-0.874705 34:-0.0484092 35:-0.367523 36:-0.417954 37:0.233082 38:-0.524883 
1 1:-0.776363 2:0.0779632 3:-0.115407 4:-0.900335 5:-0.150418 6:-0.620132 7:0.553112 8:-0.0234059 9:-0.341528 10:0.714197 11:0.0301782 12:-0.716142 13:-0.816899 14:-0.743009 15:-0.896679 16:-0.681205 17:-0.773824 18:-0.591735 19:-0.687548 20:-0.989249 21:-0.660826 22:-0.556447 23:-0.57216 24:-0.476854 25:-1 26:-1 27:-0.547138 28:-0.463424 29:-0.523235 30:-0.641534 31:-0.675581 32:-0.707444 33:-0.882719 34:0.232116 35:-0.556951 36:-0.813067 37:0.25907 38:-0.6596 
1 1:-0.868665 2:0.102177 3:-0.130035 4:-0.93875 5:-0.115779 6:-0.516264 7:0.611625 8:-0.0623971 9:-0.251547 10:0.706448 11:-0.0531258 12:-0.861365 13:-0.942655 14:-0.788945 15:-0.891479 16:-0.691957 17:-0.766346 18:-0.567458 19:-1 20:-1 21:-0.612122 22:-0.750395 23:-0.629447 24:-0.609758 25:-1 26:-1 27:-0.841021 28:-0.550539 29:-0.915769 30:-0.883816 31:-0.683205 32:-0.788362 33:-0.925509 34:0.159945 35:-0.50901 36:-0.880975 37:0.271122 38:-0.485022 
1 1:-0.701542 2:0.0625717 3:-0.198386 4:-0.886863 5:-0.268017 6:0.0116536 7:0.607867 8:-0.0290368 9:-0.0489851 10:0.722131 11:0.131246 12:-0.861528 13:-0.911836 14:-0.854053 15:-0.830125 16:-0.728034 17:-0.746061 18:-0.536829 19:-0.683363 20:-0.540652 21:-0.716458 22:-0.472406 23:-0.770009 24:-0.619877 25:-0.545081 26:-0.590707 27:-0.528298 28:-0.447493 29:-0.340159 30:-0.35622 31:-0.436351 32:-0.239104 33:-0.868835 34:0.285171 35:-0.0105632 36:-0.698343 37:0.085943 38:-0.500482 
1 1:-0.549359 2:0.139089 3:-0.139603 4:-0.894565 5:-0.214904 6:-0.233331 7:0.534936 8:-0.0903718 9:-0.145854 10:0.764303 11:0.0976304 12:-0.759696 13:-0.830671 14:-0.689511 15:-0.696502 16:-0.498497 17:-0.585963 18:-0.506746 19:-0.622634 20:-0.531041 21:-0.56506 22:-0.670247 23:-1 24:-1 25:-0.577255 26:-0.7421 27:-0.536639 28:-0.544231 29:-0.434677 30:-0.196654 31:-0.540825 32:0.0635537 33:-0.876163 34:0.0293088 35:-0.258605 36:-0.483581 37:0.288153 38:-0.507701 
1 1:-0.720584 2:0.0642287 3:-0.239793 4:-0.888578 5:-0.0990033 6:-0.394359 7:0.587613 8:-0.0174961 9:0.00604562 10:0.735016 11:-0.0733161 12:-0.780221 13:-0.799528 14:-0.610235 15:-0.412918 16:-0.606845 17:-0.413847 18:-0.57016 19:-0.366039 20:-0.528603 21:-0.711243 22:-0.486451 23:-0.705112 24:-0.899327 25:-0.623382 26:-0.522134 27:-0.636376 28:-0.436609 29:-0.631686 30:-0.215133 31:-0.756966 32:-0.437657 33:-0.885648 34:-0.0170021 35:-0.546105 36:-0.733185 37:0.103718 38:-0.125995 
1 1:-0.722401 2:0.0537382 3:-0.154693 4:-0.873856 5:-0.123046 6:-0.379916 7:0.593184 8:-0.00689142 9:-0.150405 10:0.724463 11:-0.0311807 12:-0.777565 13:-0.862884 14:-0.594168 15:-0.372926 16:-0.549104 17:-0.38242 18:-0.759579 19:-0.421995 20:-0.671867 21:-0.49116 22:-0.892489 23:-0.721969 24:-0.662309 25:-0.630942 26:-0.689851 27:-0.596492 28:-0.510983 29:-0.54391 30:-0.217407 31:-0.918144 32:-0.8243 33:-0.905358 34:0.230245 35:-0.5157 36:-0.715511 37:0.356019 38:-0.226291 
1 1:-0.732545 2:0.0199144 3:-0.280588 4:-0.863777 5:-0.0420677 6:-0.311507 7:0.604866 8:0.0225158 9:0.0718531 10:0.713475 11:-0.153507 12:-0.79826 13:-0.772054 14:-0.850259 15:-0.815947 16:-0.356937 17:-0.800703 18:-0.348207 19:-0.665283 20:-0.322771 21:-0.835472 22:-0.64708 23:-0.903741 24:-0.790685 25:-0.655059 26:-0.574257 27:-0.799624 28:-0.518788 29:-0.823638 30:-0.406023 31:-0.65419 32:-0.414577 33:-0.793616 34:0.0278712 35:-0.259877 36:-0.673235 37:0.200009 38:-0.574243 
1 1:-0.75248 2:0.0129958 3:-0.263805 4:-0.791476 5:-0.0781017 6:-0.615675 7:0.617337 8:0.0813901 9:0.0802393 10:0.658437 11:-0.154497 12:-0.606236 13:-0.595916 14:-0.859764 15:-0.62283 16:-0.120325 17:-0.671465 18:-0.0378303 19:-1 20:-1 21:-0.68431 22:-0.178019 23:-0.656906 24:-0.175786 25:-0.76565 26:-0.673236 27:-0.751314 28:-0.887883 29:-0.141341 30:-0.650263 31:-0.574228 32:-0.675091 33:-0.718216 34:0.046182 35:-0.797734 36:-0.657792 37:0.415161 38:-0.287485 
1 1:-0.646459 2:-0.0228338 3:-0.332612 4:-0.859951 5:-0.10136 6:-0.634424 7:0.47965 8:0.145285 9:0.277099 10:0.732755 11:-0.0980886 12:-0.575307 13:-0.935069 14:-0.898569 15:-0.655469 16:-0.23237 17:-0.826988 18:-0.202921 19:-0.891345 20:-0.511066 21:-0.787924 22:0.0322135 23:-0.785546 24:-0.504984 25:-0.826265 26:-0.491674 27:-0.682514 28:-0.525893 29:-0.886415 30:-0.668835 31:-0.695664 32:-0.867041 33:-0.654261 34:-0.0217441 35:-0.532843 36:-0.68512 37:0.271564 38:-0.696618 
1 1:-0.678479 2:0.000635047 3:-0.382007 4:-0.906909 5:-0.0527447 6:-0.442348 7:0.52703 8:0.0601648 9:0.291425 10:0.73596 11:-0.162378 12:-0.753976 13:-0.913005 14:-0.810624 15:-0.707988 16:-0.169945 17:-0.834862 18:-0.129057 19:-1 20:-1 21:-0.762909 22:-0.0439228 23:-0.777445 24:-0.493342 25:-1 26:-1 27:-0.685736 28:-0.610786 29:-0.844866 30:-0.543101 31:-0.901072 32:-0.719537 33:-0.64886 34:0.0164917 35:-0.482465 36:-0.868526 37:0.269627 38:-0.485176 
1 1:-0.598886 2:0.0856037 3:-0.262265 4:-0.613557 5:0.20319 6:-0.300157 7:0.595603 8:-0.0432086 9:0.0365611 10:0.609265 11:-0.482828 12:-0.62713 13:-0.697077 14:-0.714468 15:-0.838532 16:-0.370398 17:-0.899552 18:-0.533942 19:-0.884052 20:-0.406437 21:-0.737244 22:-0.460769 23:-0.550899 24:-0.510649 25:-0.903295 26:-0.754943 27:-0.306274 28:-0.594848 29:-0.421145 30:-0.787767 31:-0.429462 32:-0.267824 33:-0.732245 34:-0.262544 35:-0.426887 36:-0.492752 37:-0.249324 38:-0.220418 
1 1:-0.652355 2:0.122041 3:-0.300636 4:-0.853251 5:-0.0961382 6:-0.63448 7:0.503038 8:-0.0980896 9:0.187933 10:0.739346 11:-0.112219 12:-0.571124 13:-0.766507 14:-0.906238 15:-0.710083 16:-0.216166 17:-1 18:-1 19:-0.784911 20:-0.0227032 21:-1 22:-1 23:-0.713024 24:-0.214618 25:-0.957811 26:-0.726268 27:-0.650659 28:-0.792458 29:-0.797092 30:-0.856321 31:-0.432435 32:-0.933169 33:-0.650226 34:0.068437 35:-0.674074 36:-0.794453 37:0.239352 38:-0.562171 
1 1:-0.721698 2:0.112839 3:-0.285373 4:-0.881191 5:-0.248215 6:-0.542018 7:0.551861 8:-0.077601 9:0.120181 10:0.722873 11:0.239066 12:-0.71126 13:-0.928284 14:-0.708562 15:-0.766788 16:-0.226295 17:-1 18:-1 19:-0.74052 20:-0.28307 21:-0.753191 22:-0.375122 23:-0.838705 24:-0.60543 25:-0.752631 26:-0.520955 27:-1 28:-1 29:-0.391482 30:-0.50008 31:-0.603652 32:-0.857313 33:-0.743251 34:0.196662 35:-0.5819 36:-0.798999 37:0.285654 38:-0.372414 
1 1:-0.73258 2:0.0896621 3:-0.291502 4:-0.924229 5:-0.193482 6:-0.419532 7:0.568799 8:-0.045692 9:0.108697 10:0.745517 11:0.0951201 12:-0.800529 13:-0.871668 14:-0.744385 15:-0.682793 16:-0.206388 17:-1 18:-1 19:-0.785467 20:-0.181883 21:-0.842639 22:-0.619137 23:-0.589988 24:-0.662492 25:-0.804408 26:-0.598717 27:-1 28:-1 29:-0.776103 30:-0.472706 31:-0.542792 32:-0.6028 33:-0.723187 34:0.346272 35:-0.20058 36:-0.829679 37:0.261712 38:-0.642732 
1 1:-0.655486 2:0.140652 3:-0.319729 4:-0.928749 5:-0.154506 6:-0.524778 7:0.499757 8:-0.1151 9:0.195673 10:0.777901 11:0.0308711 12:-0.714745 13:-0.718808 14:-0.770178 15:-0.560022 16:-0.09631 17:-1 18:-1 19:-0.63167 20:-0.139897 21:-0.689197 22:-0.335707 23:-0.852142 24:-0.479743 25:-0.668332 26:-0.514785 27:-1 28:-1 29:-0.76391 30:-0.607185 31:-0.872686 32:-0.679618 33:-0.698022 34:0.099277 35:-0.701022 36:-0.746018 37:0.308991 38:-0.220303 
1 1:-0.733901 2:0.132339 3:-0.280401 4:-0.909831 5:-0.0485039 6:-0.625682 7:0.521387 8:-0.116634 9:0.133073 10:0.743962 11:-0.240834 12:-0.688228 13:-0.798147 14:-0.500287 15:-0.936019 16:-0.486974 17:-0.834154 18:-0.329857 19:-0.961071 20:-0.572301 21:-0.818454 22:-0.512729 23:-1 24:-1 25:-0.645447 26:-0.627857 27:-1 28:-1 29:-0.818837 30:-0.793766 31:-0.74029 32:-0.991677 33:-0.721282 34:0.0761802 35:-0.852555 36:-0.817986 37:0.0706453 38:-0.282295 
1 1:-0.795021 2:0.125369 3:-0.243382 4:-0.916678 5:-0.046415 6:-0.607201 7:0.568199 8:-0.103467 9:0.0252578 10:0.726298 11:-0.241197 12:-0.75211 13:-0.80623 14:-0.746223 15:-0.992566 16:-0.700333 17:-0.930896 18:-0.758531 19:-0.920105 20:-0.749513 21:-0.872147 22:-0.357657 23:-0.950088 24:-0.78032 25:-0.852228 26:-0.356897 27:-1 28:-1 29:-0.808192 30:-0.782112 31:-0.640317 32:-0.9925 33:-0.80122 34:-0.157017 35:-0.467791 36:-0.830133 37:0.188475 38:-0.670954 
1 1:-0.658367 2:0.153665 3:-0.199502 4:-0.930417 5:-0.173053 6:-0.713625 7:0.405807 8:-0.177325 9:-0.121515 10:0.812744 11:0.114739 12:-0.559813 13:-0.818398 14:-0.895105 15:-1 16:-1 17:-0.829059 18:-0.219017 19:-1 20:-1 21:-0.825051 22:-0.338029 23:-1 24:-1 25:-1 26:-1 27:-0.744426 28:-0.0455896 29:-1 30:-1 31:-0.844853 32:-0.762803 33:-0.80354 34:0.0489777 35:-0.527586 36:-0.583067 37:0.197115 38:-0.855613 
1 1:-0.736164 2:0.042064 3:-0.229783 4:-0.830753 5:-0.256536 6:-0.533129 7:0.590087 8:0.0212942 9:-0.012964 10:0.689302 11:0.250522 12:-0.687793 13:-0.696864 14:-0.705679 15:-0.81446 16:-0.877712 17:-0.832092 18:-0.656479 19:-0.871166 20:-0.763856 21:-0.778976 22:-0.742114 23:-0.554685 24:-0.408592 25:-1 26:-1 27:-0.501454 28:-0.547687 29:-0.381347 30:-0.94216 31:-1 32:-1 33:-0.874899 34:-0.078498 35:-0.435749 36:-0.802322 37:0.183335 38:-0.665268 
0.3214192077768956 1:-0.699784 2:0.185001 3:-0.247146 4:-0.892293 5:-0.176861 6:-0.599103 7:0.528031 8:-0.196585 9:0.0336843 10:0.751278 11:0.0932749 12:-0.666948 13:-0.913479 14:-0.935632 15:-0.789616 16:-0.533479 17:-0.776935 18:-0.579308 19:-0.880106 20:-0.320856 21:-0.825711 22:-0.51976 23:-0.831628 24:-0.291315 25:-1 26:-1 27:-0.901891 28:-0.824739 29:-1 30:-1 31:-0.788274 32:-0.926401 33:-0.647826 34:0.0610298 35:-0.621864 36:-0.818093 37:0.227722 38:-0.388373 
1 1:-0.693204 2:0.0685285 3:-0.245645 4:-0.795287 5:-0.118093 6:-0.477675 7:0.60709 8:-0.0190779 9:0.0203363 10:0.698807 11:-0.0434909 12:-0.669449 13:-0.837544 14:-0.591915 15:-0.225929 16:-0.316772 17:-1 18:-1 19:-0.238735 20:-0.440014 21:-1 22:-1 23:-0.408624 24:-0.267673 25:-1 26:-1 27:-0.624936 28:-0.409034 29:-0.597482 30:-0.769626 31:-0.327794 32:-0.158576 33:-0.857415 34:0.139836 35:-0.534339 36:-0.572558 37:0.238401 38:-0.467445 
1 1:-0.83774 2:0.13526 3:-0.223457 4:-0.862496 5:-0.134085 6:-0.412405 7:0.651508 8:-0.0988818 9:-0.0252168 10:0.688684 11:-0.0125989 12:-0.818865 13:-0.779547 14:-0.796709 15:-1 16:-1 17:-0.387464 18:-0.786878 19:-0.601982 20:-0.942356 21:-0.697055 22:-0.877882 23:-1 24:-1 25:-0.369622 26:-0.6333 27:-1 28:-1 29:-0.456749 30:-0.761591 31:-0.830866 32:-0.795542 33:-0.945642 34:0.20214 35:-0.416807 36:-0.890455 37:0.290895 38:-0.548637 
1 1:-0.769795 2:0.103894 3:-0.145 4:-0.913677 5:-0.220762 6:-0.446021 7:0.581043 8:-0.0628776 9:-0.187382 10:0.724636 11:0.151729 12:-0.805488 13:-0.951129 14:-0.762585 15:-0.793622 16:-0.749489 17:-0.710648 18:-0.59418 19:-0.701886 20:-0.743264 21:-0.634202 22:-0.939887 23:-0.6133 24:-0.81144 25:-0.633682 26:-0.597731 27:-0.737716 28:-0.548032 29:-0.906454 30:-0.654467 31:-0.827839 32:-0.637552 33:-0.901069 34:-0.0358412 35:-0.490653 36:-0.802721 37:0.135254 38:-0.486681 
1 1:-0.741941 2:0.117539 3:-0.269465 4:-0.854159 5:-0.146762 6:-0.604187 7:0.582393 8:-0.0889483 9:0.0951286 10:0.713049 11:0.0189095 12:-0.659837 13:-0.710434 14:-0.682346 15:-0.781679 16:-0.344631 17:-0.853505 18:-0.579025 19:-0.702645 20:-0.644733 21:-0.822302 22:-0.453826 23:-0.686544 24:-0.90716 25:-0.784177 26:-0.43759 27:-1 28:-1 29:-0.549141 30:-0.445398 31:-1 32:-1 33:-0.813691 34:0.00951014 35:-0.584047 36:-0.744005 37:0.259427 38:-0.346032 
1 1:-0.740597 2:0.072231 3:-0.314772 4:-0.85042 5:-0.146472 6:-0.52822 7:0.591345 8:-0.0205685 9:0.185386 10:0.706455 11:0.0138623 12:-0.706795 13:-0.86713 14:-0.556073 15:-0.59107 16:-0.84337 17:-0.829157 18:-0.834053 19:-0.626991 20:-0.525895 21:-0.790274 22:-0.849419 23:-0.69898 24:-0.489657 25:-0.745701 26:-0.774458 27:-1 28:-1 29:-0.671483 30:-0.139337 31:-1 32:-1 33:-0.87936 34:0.229495 35:-0.300873 36:-0.656179 37:0.239164 38:-0.635849 
1 1:-0.736885 2:0.154872 3:-0.32744 4:-0.839976 5:-0.262135 6:-0.603603 7:0.552004 8:-0.147511 9:0.247961 10:0.674237 11:0.302417 12:-0.649808 13:-0.726133 14:-0.616474 15:-0.594019 16:-0.431412 17:-0.72166 18:-0.759406 19:-0.799333 20:-0.489015 21:-0.86274 22:-0.785435 23:-0.503512 24:-0.575742 25:-0.678757 26:-0.587842 27:-1 28:-1 29:-0.396853 30:-0.503866 31:-1 32:-1 33:-0.78568 34:0.286577 35:-0.50879 36:-0.664964 37:0.43137 38:-0.668276 
1 1:-0.841872 2:0.163215 3:-0.292813 4:-0.793259 5:-0.418737 6:-0.365556 7:0.628424 8:-0.123557 9:0.0987731 10:0.613978 11:0.451361 12:-0.797327 13:-0.827731 14:-0.481877 15:-0.655941 16:-0.405799 17:-0.861429 18:-0.948312 19:-0.794094 20:-0.55555 21:-0.862661 22:-0.854474 23:-0.916873 24:-0.678159 25:-1 26:-1 27:-0.742346 28:-0.613778 29:-0.852975 30:-0.508967 31:-0.66648 32:-0.630669 33:-0.795024 34:0.364446 35:-0.365015 36:-0.69001 37:0.518675 38:-0.450927 
1 1:-0.876129 2:0.0741791 3:-0.216421 4:-0.885081 5:-0.189081 6:-0.454038 7:0.656001 8:-0.025769 9:-0.0412245 10:0.683674 11:0.0948209 12:-0.843332 13:-0.698659 14:-0.767753 15:-0.433275 16:-0.701482 17:-0.98164 18:-0.662191 19:-0.848649 20:-0.422971 21:-1 22:-1 23:-0.785357 24:-0.617637 25:-1 26:-1 27:-0.739934 28:-0.872294 29:-1 30:-1 31:-0.760463 32:-0.97522 33:-0.867149 34:-0.0535862 35:-0.385158 36:-0.884252 37:0.334456 38:-0.345238 
1 1:-0.728994 2:-0.0210704 3:-0.131817 4:-0.767542 5:-0.18288 6:-0.534907 7:0.616053 8:0.106531 9:-0.238222 10:0.653704 11:0.0906093 12:-0.637257 13:-0.756116 14:-0.843218 15:-0.768855 16:-0.225047 17:-0.860599 18:-0.610518 19:-0.704095 20:0.19124 21:-0.798561 22:-0.450549 23:-0.665562 24:-0.451374 25:-0.766101 26:-0.921534 27:-0.97434 28:-0.917494 29:-0.809202 30:-0.824241 31:-0.640292 32:-0.742849 33:-0.485174 34:-0.0136072 35:-0.549602 36:-0.875434 37:-0.0135503 38:-0.411546 
1 1:-0.68472 2:0.0121739 3:-0.129409 4:-0.890282 5:-0.133826 6:-0.528838 7:0.532797 8:0.0624101 9:-0.246502 10:0.743455 11:-0.0133212 12:-0.702366 13:-0.689345 14:-0.804434 15:-0.726689 16:-0.862583 17:-0.686767 18:-0.627379 19:-0.428012 20:-0.8682 21:-0.705372 22:-0.560212 23:-0.917954 24:-0.850826 25:-0.868488 26:-0.475776 27:-1 28:-1 29:-0.887067 30:-0.807501 31:-0.547799 32:-0.744321 33:-0.893902 34:0.030567 35:-0.473963 36:-0.806678 37:0.378184 38:-0.416646 
1 1:-0.760103 2:0.000139063 3:-0.13021 4:-0.897449 5:-0.220555 6:-0.512347 7:0.566456 8:0.0770377 9:-0.241021 10:0.714646 11:0.169705 12:-0.76286 13:-0.704745 14:-0.778743 15:-0.716312 16:-0.838153 17:-0.661019 18:-0.739795 19:-0.49332 20:-0.890772 21:-0.661432 22:-0.589169 23:-0.707599 24:-0.879262 25:-0.763366 26:-0.631821 27:-0.53487 28:-0.961533 29:-0.84674 30:-0.912192 31:-0.594035 32:-0.914955 33:-0.930703 34:0.0277671 35:-0.391077 36:-0.937096 37:0.186631 38:-0.506639 
1 1:-0.715905 2:0.117791 3:-0.074539 4:-0.845577 5:-0.0727667 6:-0.493795 7:0.566287 8:-0.081378 9:-0.348864 10:0.69516 11:-0.134937 12:-0.709873 13:-0.6478 14:-0.633853 15:-0.927033 16:-0.814179 17:-0.830919 18:-0.439461 19:-0.669991 20:-0.319055 21:-0.84565 22:-0.514607 23:-0.726401 24:-0.242736 25:-0.862341 26:-0.715918 27:-0.448918 28:-0.561134 29:-0.805348 30:-0.802034 31:-0.638134 32:-0.671876 33:-0.783537 34:0.256341 35:-0.480349 36:-0.791797 37:0.320565 38:-0.478324 
1 1:-0.782649 2:0.145494 3:-0.142021 4:-0.932394 5:-0.0966733 6:-0.485915 7:0.574865 8:-0.118753 9:-0.207817 10:0.734392 11:-0.0892541 12:-0.811935 13:-0.803563 14:-0.8354 15:-1 16:-1 17:-0.838942 18:-0.338716 19:-1 20:-1 21:-0.783206 22:-0.579024 23:-0.761034 24:-0.817195 25:-0.686619 26:-0.702133 27:-0.666713 28:-0.909344 29:-0.747073 30:-0.765179 31:-0.818514 32:-0.831551 33:-0.864699 34:0.0784553 35:-0.511722 36:-0.902388 37:0.319797 38:-0.571932 
1 1:-0.569672 2:0.108934 3:-0.130575 4:-0.957254 5:-0.168217 6:-0.534107 7:0.429399 8:-0.0714514 9:-0.244058 10:0.819747 11:0.0604748 12:-0.678731 13:-0.772363 14:-0.841373 15:-0.800557 16:-0.544899 17:-0.867873 18:-0.477477 19:-0.806352 20:-0.529775 21:-0.878622 22:-0.477006 23:-0.873406 24:-0.496478 25:-0.889092 26:-0.473442 27:-0.882107 28:-0.586732 29:-0.92156 30:-0.684136 31:-0.356942 32:-0.828388 33:-0.691642 34:0.14465 35:-0.570849 36:-0.644974 37:0.296634 38:-0.534188 
1 1:-0.430631 2:0.0933284 3:0.151951 4:-0.76783 5:-0.335077 6:-0.231301 7:0.470744 8:-0.050212 9:-0.54186 10:0.682731 11:0.24439 12:-0.666466 13:-0.581932 14:-0.836475 15:-0.0827083 16:-0.832913 17:-0.625524 18:-0.767939 19:-0.445232 20:-0.768981 21:-0.759587 22:-0.762662 23:-0.546111 24:-0.99958 25:-0.760115 26:-0.403542 27:-0.833864 28:-0.778381 29:-0.257681 30:-0.544465 31:-0.333355 32:-0.46366 33:-0.970376 34:0.0485445 35:-0.357716 36:-0.647958 37:0.465427 38:-0.402631 
1 1:-0.828101 2:0.21408 3:-0.261455 4:-0.772511 5:-0.072927 6:-0.630245 7:0.674516 8:-0.255509 9:0.0776491 10:0.605247 11:-0.174594 12:-0.631816 13:-0.70449 14:-0.742279 15:-0.271784 16:-0.746039 17:-1 18:-1 19:-0.0604588 20:-0.614582 21:-0.534679 22:-0.847713 23:-0.30219 24:-0.645513 25:-0.815756 26:-0.777389 27:-1 28:-1 29:-0.988584 30:-0.75314 31:-1 32:-1 33:-0.951271 34:0.00428065 35:-0.620454 36:-0.915886 37:0.0165306 38:-0.471411 
1 1:-0.786517 2:0.101824 3:-0.148185 4:-0.774448 5:-0.224645 6:-0.41942 7:0.65504 8:-0.0597128 9:-0.169695 10:0.654016 11:0.147835 12:-0.735262 13:-0.627482 14:-0.598224 15:-0.261647 16:-0.633391 17:-1 18:-1 19:-0.344158 20:-0.418842 21:-0.28164 22:-0.503965 23:-0.949195 24:-0.394617 25:-0.63116 26:-0.510581 27:-1 28:-1 29:-0.246103 30:-0.60837 31:-0.672421 32:-0.789022 33:-0.82909 34:-0.129985 35:-0.664079 36:-0.734703 37:0.126951 38:-0.22163 
1 1:-0.805998 2:0.16361 3:-0.364296 4:-0.887337 5:-0.175742 6:-0.363282 7:0.61431 8:-0.125711 9:0.230858 10:0.697522 11:0.056966 12:-0.832705 13:-0.861529 14:-0.656822 15:-0.434807 16:-0.613308 17:-1 18:-1 19:-0.719801 20:-0.802856 21:-0.863816 22:-0.579652 23:-1 24:-1 25:-0.815935 26:-0.485421 27:-1 28:-1 29:-0.829226 30:-0.364515 31:-0.883303 32:-0.683272 33:-0.902905 34:-0.0950736 35:-0.625443 36:-0.692404 37:0.457894 38:-0.151731 
1 1:-0.788483 2:0.0346933 3:-0.261604 4:-0.916085 5:-0.164007 6:-0.471395 7:0.595707 8:0.0255755 9:0.0560136 10:0.729558 11:0.0469951 12:-0.808294 13:-0.960185 14:-0.740708 15:-0.44608 16:-0.780883 17:-0.741293 18:-0.853661 19:-0.496044 20:-0.811163 21:-0.661665 22:-0.89636 23:-0.845635 24:-0.909079 25:-0.657653 26:-0.81186 27:-0.753237 28:-0.871077 29:-0.900935 30:-0.756126 31:-0.646661 32:-0.762291 33:-0.928029 34:-0.0425807 35:-0.487482 36:-0.897799 37:0.098674 38:-0.479187 
1 1:-0.676715 2:0.0808362 3:-0.269667 4:-0.847444 5:-0.208423 6:-0.491371 7:0.565887 8:-0.0338969 9:0.0731053 10:0.726617 11:0.134964 12:-0.687942 13:-0.842875 14:-0.777174 15:-0.535381 16:-0.417827 17:-0.877863 18:-0.787266 19:-0.726071 20:-0.491106 21:-1 22:-1 23:-0.613512 24:-0.303043 25:-1 26:-1 27:-0.705557 28:-0.236573 29:-1 30:-1 31:-0.329781 32:-0.488004 33:-0.831314 34:0.190316 35:-0.437962 36:-0.607225 37:0.312542 38:-0.483259 
1 1:-0.740117 2:0.0421359 3:-0.221685 4:-0.841763 5:-0.226552 6:-0.555552 7:0.589044 8:0.0247911 9:-0.0328573 10:0.699061 11:0.195934 12:-0.683776 13:-0.745261 14:-0.423306 15:-0.359934 16:-0.644295 17:-0.723741 18:-0.714187 19:-0.298479 20:-0.6112 21:-0.106372 22:-0.760138 23:-0.326525 24:-0.495082 25:-0.275695 26:-0.66416 27:-0.687285 28:-0.620861 29:-0.661466 30:-0.84318 31:-0.749234 32:-0.630572 33:-0.856818 34:-0.0928444 35:-0.486968 36:-0.842271 37:0.144593 38:-0.565022 
1 1:-0.773377 2:-0.0383629 3:-0.106648 4:-0.784312 5:-0.267645 6:-0.445362 7:0.623819 8:0.10562 9:-0.257547 10:0.644085 11:0.231919 12:-0.725233 13:-0.837944 14:-0.69091 15:-0.819238 16:-0.800631 17:-0.793609 18:-0.446333 19:-0.851687 20:-0.586248 21:-0.859037 22:-0.495422 23:-0.839818 24:-0.48307 25:-0.883348 26:-0.7825 27:-0.770512 28:-0.73309 29:-0.800898 30:-0.93658 31:-0.758219 32:-0.609361 33:-0.633314 34:-0.0408366 35:-0.566639 36:-0.761505 37:0.0857671 38:-0.342508 
1 1:-0.840314 2:0.038509 3:-0.208109 4:-0.817605 5:-0.232481 6:-0.451271 7:0.66383 8:0.0172752 9:-0.0575551 10:0.657074 11:0.174321 12:-0.778226 13:-0.771416 14:-0.667247 15:-0.79008 16:-0.544214 17:-0.887335 18:-0.54454 19:-0.881415 20:-0.371768 21:-0.873736 22:-0.662298 23:-0.932913 24:-0.835305 25:-0.886589 26:-0.78249 27:-0.586752 28:-0.784053 29:-1 30:-1 31:-0.53959 32:-0.68621 33:-0.680131 34:-0.103556 35:-0.559642 36:-0.844427 37:-0.0956813 38:-0.380854 
1 1:-0.82148 2:0.0504041 3:-0.191487 4:-0.865193 5:-0.161797 6:-0.536247 7:0.634067 8:0.0120721 9:-0.105861 10:0.690186 11:0.0490903 12:-0.764111 13:-0.874053 14:-0.85059 15:-0.642189 16:-0.873725 17:-0.593059 18:-0.612086 19:-0.582519 20:-0.927359 21:-0.655537 22:-0.627068 23:-1 24:-1 25:-0.388317 26:-0.749552 27:-1 28:-1 29:-0.455083 30:-0.778028 31:-0.875551 32:-0.893335 33:-0.896077 34:0.217938 35:-0.509569 36:-0.944196 37:0.209939 38:-0.536532 
1 1:-0.643585 2:0.097969 3:-0.281519 4:-0.874114 5:-0.206899 6:-0.447189 7:0.545033 8:-0.0554952 9:0.0908041 10:0.748246 11:0.121738 12:-0.710334 13:-0.811207 14:-0.569546 15:-0.538773 16:-0.720677 17:-0.974389 18:-0.669252 19:-0.400798 20:-0.571716 21:-1 22:-1 23:-0.451135 24:-0.445187 25:-1 26:-1 27:-0.850255 28:-0.244787 29:-1 30:-1 31:-0.876578 32:-0.336697 33:-0.818165 34:-0.202147 35:-0.419512 36:-0.606906 37:0.271614 38:-0.408498 
1 1:-0.873478 2:0.0383649 3:-0.224209 4:-0.819945 5:-0.261683 6:-0.409516 7:0.674097 8:0.0133487 9:-0.0236043 10:0.647344 11:0.215283 12:-0.812473 13:-0.993116 14:-0.914124 15:-0.89924 16:-0.700251 17:-0.63865 18:-0.629789 19:-0.866787 20:-0.799473 21:-0.638785 22:-0.669297 23:-0.840061 24:-0.637913 25:-0.653339 26:-0.896829 27:-0.887666 28:-0.655797 29:-0.730887 30:-0.676083 31:-0.873398 32:-0.456091 33:-0.831418 34:0.125008 35:-0.472628 36:-0.745693 37:-0.0202917 38:-0.452822 
1 1:-0.671559 2:0.0621372 3:0.00584169 4:-0.876271 5:-0.0916657 6:-0.337259 7:0.545703 8:-0.0186974 9:-0.411627 10:0.710713 11:-0.0786352 12:-0.771994 13:-0.794027 14:-0.79439 15:-0.653037 16:-0.799714 17:-0.643547 18:-0.672048 19:-1 20:-1 21:-0.527429 22:-0.811284 23:-1 24:-1 25:-0.855958 26:-0.500895 27:-1 28:-1 29:-0.678514 30:-0.775474 31:-0.434466 32:-0.483276 33:-0.963902 34:0.0582507 35:-0.396841 36:-0.644312 37:0.549495 38:-0.414365 
1 1:-0.865899 2:0.0180427 3:-0.209024 4:-0.767444 5:-0.0921173 6:-0.591925 7:0.711807 8:0.0696241 9:-0.0684516 10:0.602222 11:-0.116002 12:-0.683021 13:-0.86379 14:-0.692479 15:-1 16:-1 17:-0.691727 18:-0.306785 19:-1 20:-1 21:-0.866114 22:-0.593192 23:-0.721035 24:-0.355975 25:-1 26:-1 27:-0.658382 28:-0.557716 29:-1 30:-1 31:-0.874017 32:-0.960096 33:-0.796965 34:0.159707 35:-0.748587 36:-0.66245 37:0.188565 38:-0.452194 
1 1:-0.764743 2:0.0251112 3:-0.201287 4:-0.850445 5:-0.265074 6:-0.523553 7:0.593614 8:0.04404 9:-0.078927 10:0.687805 11:0.266597 12:-0.725434 13:-0.350575 14:-0.503146 15:-1 16:-1 17:-0.606955 18:-0.620811 19:-1 20:-1 21:-0.89904 22:-0.88758 23:-0.52235 24:-0.827068 25:-1 26:-1 27:-0.370976 28:-0.546441 29:-1 30:-1 31:-0.634326 32:-0.711738 33:-0.883064 34:-0.0313987 35:-0.778801 36:-0.883333 37:0.107161 38:-0.518696 
1 1:-0.730595 2:0.0603202 3:-0.367564 4:-0.89299 5:-0.107599 6:-0.366518 7:0.580874 8:-0.0147188 9:0.235332 10:0.722164 11:-0.0564551 12:-0.797999 13:-0.867184 14:-0.475545 15:-0.642939 16:-0.413265 17:-0.806362 18:-0.315676 19:-0.611247 20:-0.384242 21:-1 22:-1 23:-0.774642 24:-0.557872 25:-0.689437 26:-0.712096 27:-0.75815 28:-0.443196 29:-0.629764 30:-0.900349 31:-0.635177 32:-0.395011 33:-0.814382 34:0.206612 35:-0.439529 36:-0.74318 37:0.351238 38:-0.439819 
1 1:-0.798534 2:0.119193 3:-0.329542 4:-0.822007 5:-0.171673 6:-0.430695 7:0.641891 8:-0.0804546 9:0.184921 10:0.673778 11:0.0560263 12:-0.766426 13:-1 14:-1 15:-0.926963 16:-0.6337 17:-0.922327 18:-0.690686 19:-0.831258 20:-0.23987 21:-0.8935 22:-0.646131 23:-0.704898 24:-0.841719 25:-0.702678 26:-0.839839 27:-0.495013 28:-0.772448 29:-0.634557 30:-0.944976 31:-0.327675 32:-0.851917 33:-0.693083 34:0.0925667 35:-0.539008 36:-0.968111 37:0.231988 38:-0.370443 
1 1:-0.601535 2:0.113899 3:-0.274533 4:-0.816773 5:-0.14663 6:-0.352688 7:0.571599 8:-0.071038 9:0.0639775 10:0.732996 11:0.00731755 12:-0.6989 13:-0.884543 14:-0.689159 15:-0.599799 16:-0.484373 17:-0.705046 18:-0.879253 19:-0.622387 20:-0.667562 21:-0.475937 22:-0.823269 23:-0.802462 24:-0.571333 25:-0.836733 26:-0.698287 27:-0.908551 28:-0.642178 29:-0.8122 30:-0.562417 31:-0.900776 32:-0.00264481 33:-0.900344 34:0.113695 35:-0.396913 36:-0.408737 37:0.179568 38:-0.381582 
1 1:-0.78535 2:0.116336 3:-0.354527 4:-0.827328 5:-0.234374 6:-0.546531 7:0.605462 8:-0.0827168 9:0.287116 10:0.65778 11:0.209461 12:-0.709207 13:-0.612975 14:-0.861138 15:-1 16:-1 17:-0.536965 18:-0.478579 19:-1 20:-1 21:-0.575563 22:-0.734266 23:-1 24:-1 25:-0.86593 26:-0.920746 27:-0.694262 28:-0.530308 29:-1 30:-1 31:-0.45023 32:-0.547928 33:-0.93503 34:0.0623094 35:-0.553733 36:-0.648578 37:0.554692 38:-0.42576 
1 1:-0.653068 2:0.160667 3:-0.425552 4:-0.813782 5:-0.334111 6:-0.216715 7:0.574557 8:-0.10771 9:0.268692 10:0.689487 11:0.252392 12:-0.769401 13:-0.681719 14:-0.421015 15:-0.480503 16:-0.376791 17:-0.684009 18:-0.575315 19:-0.600855 20:-0.602272 21:-1 22:-1 23:-0.312664 24:-0.541088 25:-1 26:-1 27:-0.681028 28:-0.366682 29:-1 30:-1 31:-0.481316 32:-0.254884 33:-0.844752 34:0.233179 35:-0.515498 36:-0.481977 37:0.552506 38:-0.285979 
1 1:-0.78911 2:0.0968437 3:-0.253103 4:-0.773171 5:-0.338267 6:-0.41977 7:0.637468 8:-0.0539985 9:0.0317693 10:0.636583 11:0.3468 12:-0.737616 13:-0.877364 14:-0.640944 15:-0.437048 16:-0.491561 17:-0.648834 18:-0.577887 19:-0.777037 20:-0.763818 21:-0.669981 22:-0.694081 23:-0.777175 24:-0.752381 25:-0.769493 26:-0.62273 27:-0.590463 28:-0.935658 29:-0.374103 30:-0.664136 31:-0.385859 32:-0.680214 33:-0.775411 34:0.3726 35:-0.498525 36:-0.882782 37:0.173958 38:-0.385583 
