svm_type c_svc
kernel_type rbf
gamma 0.0263158
nr_class 2
total_sv 2795
rho 8.78275
label 1 -1
nr_sv 1396 1399
SV
1 1:-0.999903 2:0.131828 3:-0.236857 4:0.231838 5:-0.255866 6:-0.568154 7:0.980973 8:-0.0477031 9:-0.000577344 10:-0.0820393 11:0.192872 12:-0.119826 13:-0.920879 14:-0.0350763 15:-0.906495 16:0.346026 17:-0.916173 18:0.344306 19:-0.912857 20:0.134577 21:-0.951839 22:-0.288876 23:-0.921051 24:0.209011 25:-0.909071 26:0.444998 27:-0.953083 28:-0.0312601 29:-0.93126 30:0.111206 31:-0.93166 32:-0.125072 33:-0.144603 34:0.485818 35:-0.621042 36:-0.0546282 37:0.497669 38:-0.455661 
1 1:-0.717931 2:0.183636 3:-0.273202 4:-0.832132 5:-0.247795 6:-0.356064 7:0.582659 8:-0.0924731 9:0.0566858 10:0.678594 11:0.168293 12:-0.734184 13:-0.693909 14:-0.748765 15:-0.843702 16:-0.450605 17:-0.855671 18:-0.378444 19:-0.727253 20:-0.299343 21:-0.640339 22:-0.0247689 23:-0.70962 24:0.0195714 25:-0.878697 26:-0.569423 27:-0.643841 28:-0.693614 29:-0.263849 30:-0.899455 31:-0.443248 32:-0.191739 33:-0.730394 34:0.174414 35:-0.175639 36:-0.735735 37:0.0341434 38:-0.456055 
1 1:-0.790065 2:0.0706428 3:-0.00884839 4:-0.875784 5:-0.364986 6:-0.156444 7:0.580937 8:0.00617315 9:-0.290371 10:0.655755 11:0.267077 12:-0.846283 13:-0.746075 14:-0.906286 15:-0.872098 16:-0.739014 17:-0.71343 18:-0.533961 19:-0.571551 20:-0.78153 21:-0.596368 22:-0.766606 23:-0.810412 24:-0.623835 25:-0.541337 26:-0.906029 27:-0.635475 28:-0.978109 29:-0.775482 30:-0.601175 31:-0.32992 32:-0.46967 33:-0.932527 34:0.00311642 35:-0.132888 36:-0.85962 37:0.166808 38:-0.168896 
1 1:-0.835332 2:0.129456 3:-0.248169 4:-0.908852 5:-0.144157 6:-0.288642 7:0.609406 8:-0.0412816 9:0.0151853 10:0.685149 11:0.017515 12:-0.858507 13:-0.746476 14:-0.817123 15:-0.871997 16:-0.513512 17:-0.848984 18:-0.463222 19:-0.839463 20:-0.456676 21:-0.873449 22:-0.388999 23:-0.81499 24:-0.240698 25:-0.799633 26:-0.604568 27:-0.762928 28:-0.445073 29:-0.636385 30:-0.662694 31:-0.350247 32:-0.585364 33:-0.850886 34:0.223013 35:-0.156793 36:-0.848572 37:0.130918 38:-0.266678 
1 1:-0.701136 2:0.110716 3:-0.362149 4:-0.854598 5:-0.169369 6:-0.378172 7:0.563193 8:-0.0263903 9:0.205665 10:0.692677 11:0.0564074 12:-0.731131 13:-0.815055 14:-0.655226 15:-0.705816 16:-0.49894 17:-0.751719 18:-0.369874 19:-0.698711 20:-0.321504 21:-0.526832 22:-0.252709 23:-0.721773 24:-0.341016 25:-0.748437 26:-0.429929 27:-0.59434 28:-0.471948 29:-0.198792 30:-0.5111 31:-0.186708 32:-0.37604 33:-0.778679 34:0.272078 35:-0.234057 36:-0.72044 37:0.317116 38:-0.350526 
1 1:-0.630005 2:-0.0186173 3:-0.111268 4:-0.79832 5:-0.198565 6:-0.605442 7:0.496925 8:0.140329 9:-0.290813 10:0.668558 11:0.140371 12:-0.502496 13:-0.663876 14:-0.763299 15:-0.714524 16:-0.678943 17:-0.675469 18:-0.849198 19:-0.119283 20:-0.523591 21:0.256179 22:-0.475397 23:-0.278657 24:-0.43831 25:-0.356787 26:-0.456978 27:-0.712247 28:-0.318067 29:-0.685216 30:-0.328591 31:0.560789 32:-0.592999 33:-0.91344 34:0.00308544 35:-0.119142 36:-0.760761 37:0.0869754 38:-0.627495 
1 1:-0.630005 2:-0.0186173 3:-0.111268 4:-0.79832 5:-0.198565 6:-0.605442 7:0.496925 8:0.140329 9:-0.290813 10:0.668558 11:0.140371 12:-0.502496 13:-0.663876 14:-0.763299 15:-0.714524 16:-0.678943 17:-0.675469 18:-0.849198 19:-0.119283 20:-0.523591 21:0.256179 22:-0.475397 23:-0.278657 24:-0.43831 25:-0.356787 26:-0.456978 27:-0.712247 28:-0.318067 29:-0.685216 30:-0.328591 31:0.560789 32:-0.592999 33:-0.91344 34:0.00308544 35:-0.119142 36:-0.760761 37:0.0869754 38:-0.627495 
1 1:-0.717931 2:0.183636 3:-0.273202 4:-0.832132 5:-0.247795 6:-0.356064 7:0.582659 8:-0.0924731 9:0.0566858 10:0.678594 11:0.168293 12:-0.734184 13:-0.693909 14:-0.748765 15:-0.843702 16:-0.450605 17:-0.855671 18:-0.378444 19:-0.727253 20:-0.299343 21:-0.640339 22:-0.0247689 23:-0.70962 24:0.0195714 25:-0.878697 26:-0.569423 27:-0.643841 28:-0.693614 29:-0.263849 30:-0.899455 31:-0.443248 32:-0.191739 33:-0.730394 34:0.174414 35:-0.175639 36:-0.735735 37:0.0341434 38:-0.456055 
1 1:-0.676891 2:0.0767167 3:-0.228738 4:-0.925437 5:-0.14069 6:-0.383408 7:0.531619 8:0.00603786 9:-0.0144544 10:0.743332 11:0.0137253 12:-0.760755 13:-0.688493 14:-0.640873 15:-0.590622 16:-0.44492 17:-0.586348 18:-0.434355 19:-0.517469 20:-0.366104 21:-0.497626 22:-0.405546 23:-0.449871 24:-0.248175 25:-0.849241 26:-0.382428 27:-0.817046 28:-0.336045 29:-0.517359 30:-0.112479 31:-0.438704 32:-0.0835049 33:-0.87513 34:0.0397035 35:-0.20093 36:-0.590811 37:0.0860969 38:-0.327185 
1 1:-0.835332 2:0.129456 3:-0.248169 4:-0.908852 5:-0.144157 6:-0.288642 7:0.609406 8:-0.0412816 9:0.0151853 10:0.685149 11:0.017515 12:-0.858507 13:-0.746476 14:-0.817123 15:-0.871997 16:-0.513512 17:-0.848984 18:-0.463222 19:-0.839463 20:-0.456676 21:-0.873449 22:-0.388999 23:-0.81499 24:-0.240698 25:-0.799633 26:-0.604568 27:-0.762928 28:-0.445073 29:-0.636385 30:-0.662694 31:-0.350247 32:-0.585364 33:-0.850886 34:0.223013 35:-0.156793 36:-0.848572 37:0.130918 38:-0.266678 
1 1:-0.676891 2:0.0767167 3:-0.228738 4:-0.925437 5:-0.14069 6:-0.383408 7:0.531619 8:0.00603786 9:-0.0144544 10:0.743332 11:0.0137253 12:-0.760755 13:-0.688493 14:-0.640873 15:-0.590622 16:-0.44492 17:-0.586348 18:-0.434355 19:-0.517469 20:-0.366104 21:-0.497626 22:-0.405546 23:-0.449871 24:-0.248175 25:-0.849241 26:-0.382428 27:-0.817046 28:-0.336045 29:-0.517359 30:-0.112479 31:-0.438704 32:-0.0835049 33:-0.87513 34:0.0397035 35:-0.20093 36:-0.590811 37:0.0860969 38:-0.327185 
1 1:-0.771651 2:0.0899827 3:-0.383949 4:-0.882419 5:-0.0492731 6:-0.24751 7:0.587254 8:-0.00738944 9:0.204488 10:0.681054 11:-0.104501 12:-0.82211 13:-0.798892 14:-0.707056 15:-0.555978 16:-0.599532 17:-0.746857 18:-0.575111 19:-0.653565 20:-0.56759 21:-0.704661 22:-0.620159 23:-0.550203 24:-0.524603 25:-0.671507 26:-0.666811 27:-0.748397 28:-0.48879 29:-0.499134 30:-0.292171 31:-0.45088 32:-0.44249 33:-0.91263 34:0.13738 35:-0.192885 36:-0.745378 37:0.154631 38:-0.418274 
1 1:-0.822356 2:0.184502 3:-0.195845 4:-0.839163 5:-0.00146555 6:-0.324706 7:0.621425 8:-0.0912219 9:-0.0654984 10:0.650415 11:-0.183572 12:-0.801764 13:-0.715621 14:-0.651768 15:-0.213017 16:-0.819423 17:-0.380081 18:-0.883211 19:-0.239741 20:-0.868654 21:-0.309024 22:-0.872843 23:-0.379825 24:-0.781749 25:-0.590436 26:-0.791881 27:-0.675868 28:-0.890342 29:-0.721642 30:-0.809773 31:0.202529 32:-0.612015 33:-0.948672 34:-0.102793 35:-0.11914 36:-0.8298 37:-0.205088 38:-0.1613 
1 1:-0.768098 2:0.061204 3:-0.168648 4:-0.671334 5:-0.508609 6:-0.394714 7:0.602653 8:0.0194549 9:-0.110724 10:0.531343 11:0.548291 12:-0.653114 13:-0.752755 14:-0.674609 15:-0.578821 16:-0.842931 17:-0.576501 18:-0.709336 19:-0.434103 20:-0.600915 21:-0.640485 22:-0.600725 23:-0.854868 24:-0.8232 25:-0.698257 26:-0.743631 27:-0.55747 28:-0.584033 29:-1 30:-1 31:-0.446933 32:-0.416033 33:-0.826466 34:-0.0376399 35:-0.459161 36:-0.658101 37:-0.108748 38:-0.398287 
1 1:-0.790065 2:0.0706428 3:-0.00884839 4:-0.875784 5:-0.364986 6:-0.156444 7:0.580937 8:0.00617315 9:-0.290371 10:0.655755 11:0.267077 12:-0.846283 13:-0.746075 14:-0.906286 15:-0.872098 16:-0.739014 17:-0.71343 18:-0.533961 19:-0.571551 20:-0.78153 21:-0.596368 22:-0.766606 23:-0.810412 24:-0.623835 25:-0.541337 26:-0.906029 27:-0.635475 28:-0.978109 29:-0.775482 30:-0.601175 31:-0.32992 32:-0.46967 33:-0.932527 34:0.00311642 35:-0.132888 36:-0.85962 37:0.166808 38:-0.168896 
1 1:-0.860634 2:0.117331 3:-0.255761 4:-0.962903 5:-0.215965 6:-0.148432 7:0.600971 8:-0.0278222 9:0.0209677 10:0.694296 11:0.09951 12:-0.920657 13:-0.94534 14:-0.901123 15:-0.894669 16:-0.836479 17:-0.701649 18:-0.66929 19:-0.831508 20:-0.636875 21:-0.880858 22:-0.591397 23:-0.903825 24:-0.829957 25:-0.933433 26:-0.810895 27:-0.949226 28:-0.847628 29:-0.864833 30:-0.858417 31:-0.632815 32:-0.523573 33:-0.91141 34:0.0658814 35:-0.00171505 36:-0.841463 37:0.193673 38:-0.417132 
1 1:-0.771651 2:0.0899827 3:-0.383949 4:-0.882419 5:-0.0492731 6:-0.24751 7:0.587254 8:-0.00738944 9:0.204488 10:0.681054 11:-0.104501 12:-0.82211 13:-0.798892 14:-0.707056 15:-0.555978 16:-0.599532 17:-0.746857 18:-0.575111 19:-0.653565 20:-0.56759 21:-0.704661 22:-0.620159 23:-0.550203 24:-0.524603 25:-0.671507 26:-0.666811 27:-0.748397 28:-0.48879 29:-0.499134 30:-0.292171 31:-0.45088 32:-0.44249 33:-0.91263 34:0.13738 35:-0.192885 36:-0.745378 37:0.154631 38:-0.418274 
0.1063299999547287 1:-0.769983 2:0.150015 3:-0.124836 4:-0.922077 5:-0.235201 6:-0.2974 7:0.570926 8:-0.0590654 9:-0.171348 10:0.701112 11:0.142349 12:-0.832633 13:-0.934478 14:-0.965393 15:-0.846206 16:-0.853398 17:-0.768904 18:-0.662101 19:-0.639882 20:-0.698537 21:-0.782955 22:-0.613225 23:-0.560156 24:-0.786185 25:-0.493895 26:-0.789692 27:-0.450017 28:-0.559552 29:-0.296222 30:-0.389334 31:-0.364839 32:-0.436587 33:-0.950514 34:0.109701 35:0.00910208 36:-0.811838 37:0.187833 38:-0.481756 
1 1:-0.681559 2:0.145406 3:-0.173876 4:-0.889261 5:-0.201381 6:-0.334745 7:0.551831 8:-0.0565193 9:-0.0999347 10:0.718229 11:0.0989433 12:-0.757834 13:-0.791491 14:-0.732271 15:-0.69469 16:-0.608188 17:-0.587755 18:-0.59297 19:-0.667286 20:-0.623287 21:-0.533083 22:-0.759882 23:-0.539888 24:-0.602722 25:-0.569947 26:-0.732773 27:-0.490979 28:-0.570848 29:-0.356759 30:-0.245422 31:-0.553515 32:0.00677668 33:-0.905505 34:0.118629 35:-0.150137 36:-0.62461 37:0.210416 38:-0.543496 
1 1:-0.788308 2:0.103963 3:-0.243621 4:-0.924572 5:-0.177698 6:-0.262716 7:0.587275 8:-0.018916 9:0.00754883 10:0.703876 11:0.0612852 12:-0.849895 13:-0.795886 14:-0.853355 15:-0.826213 16:-0.838365 17:-0.692821 18:-0.637517 19:-0.741766 20:-0.625136 21:-0.708735 22:-0.629948 23:-0.451589 24:-0.638303 25:-0.668818 26:-0.813995 27:-0.878793 28:-0.809175 29:-0.684064 30:-0.484459 31:-0.765024 32:-0.275425 33:-0.914042 34:0.116807 35:-0.181572 36:-0.687053 37:0.167172 38:-0.587543 
1 1:-0.73068 2:0.0575508 3:-0.179232 4:-0.899254 5:-0.120828 6:-0.47241 7:0.552022 8:0.0299695 9:-0.111272 10:0.71736 11:-0.0198993 12:-0.737635 13:-0.945453 14:-0.690736 15:-0.416661 16:-0.631706 17:-0.414596 18:-0.636092 19:-0.491932 20:-0.580358 21:-0.343292 22:-0.607833 23:-0.913714 24:-0.660749 25:-0.552647 26:-0.608179 27:-0.625026 28:-0.452651 29:-0.57811 30:-0.199222 31:-0.776947 32:-0.548395 33:-0.902615 34:0.122607 35:-0.30958 36:-0.64596 37:0.256409 38:-0.463416 
1 1:-0.734113 2:0.0488107 3:-0.144453 4:-0.876679 5:-0.14726 6:-0.512763 7:0.554561 8:0.0430266 9:-0.190048 10:0.700538 11:0.0282548 12:-0.7028 13:-0.930955 14:-0.704897 15:-0.392371 16:-0.651421 17:-0.432732 18:-0.883402 19:-0.533426 20:-0.703507 21:-0.699081 22:-0.966348 23:-0.696826 24:-0.52453 25:-0.61191 26:-0.67776 27:-0.59577 28:-0.511631 29:-0.565226 30:-0.217585 31:-0.940971 32:-0.899136 33:-0.928264 34:0.199102 35:-0.491826 36:-0.723195 37:0.270594 38:-0.272867 
1 1:-0.822356 2:0.184502 3:-0.195845 4:-0.839163 5:-0.00146555 6:-0.324706 7:0.621425 8:-0.0912219 9:-0.0654984 10:0.650415 11:-0.183572 12:-0.801764 13:-0.715621 14:-0.651768 15:-0.213017 16:-0.819423 17:-0.380081 18:-0.883211 19:-0.239741 20:-0.868654 21:-0.309024 22:-0.872843 23:-0.379825 24:-0.781749 25:-0.590436 26:-0.791881 27:-0.675868 28:-0.890342 29:-0.721642 30:-0.809773 31:0.202529 32:-0.612015 33:-0.948672 34:-0.102793 35:-0.11914 36:-0.8298 37:-0.205088 38:-0.1613 
1 1:-0.605673 2:0.109428 3:-0.25037 4:-0.880051 5:0.0368866 6:-0.403543 7:0.502745 8:-0.0255066 9:0.022038 10:0.727985 11:-0.257847 12:-0.687081 13:-0.724298 14:-0.863131 15:-0.699564 16:-0.365316 17:-0.825269 18:-0.196606 19:-1 20:-1 21:-0.74889 22:-0.03835 23:-0.699827 24:-0.607259 25:-0.904438 26:-0.804759 27:-0.761832 28:-0.763456 29:-0.715515 30:-0.62969 31:-0.542978 32:-0.202682 33:-0.700666 34:0.0608485 35:-0.424168 36:-0.633653 37:-0.132753 38:-0.246984 
1 1:-0.64231 2:0.064408 3:-0.295924 4:-0.6984 5:0.203823 6:-0.361177 7:0.559381 8:0.0150534 9:0.0877546 10:0.598875 11:-0.461182 12:-0.62323 13:-0.771743 14:-0.813509 15:-0.866303 16:-0.511171 17:-0.901632 18:-0.6372 19:-0.87351 20:-0.530152 21:-0.755713 22:-0.551654 23:-0.527819 24:-0.466278 25:-0.913726 26:-0.795863 27:-0.361869 28:-0.602666 29:-0.506834 30:-0.737429 31:-0.515309 32:-0.329179 33:-0.792243 34:-0.190966 35:-0.303874 36:-0.526239 37:-0.190917 38:-0.275732 
1 1:-0.64829 2:0.0719643 3:-0.327954 4:-0.494541 5:0.365213 6:-0.311996 7:0.587503 8:0.00636021 9:0.11978 10:0.48193 11:-0.606358 12:-0.554062 13:-0.543902 14:-0.421518 15:-0.748608 16:-0.598131 17:-0.860776 18:-0.384625 19:-0.821486 20:-0.44201 21:-0.882296 22:-0.721125 23:-0.501374 24:-0.663172 25:-0.271299 26:-0.887864 27:-0.742418 28:-0.800207 29:-0.14658 30:-0.656279 31:-0.3445 32:-0.155324 33:-0.733217 34:-0.26176 35:-0.296407 36:-0.297809 37:-0.570851 38:-0.161274 
1 1:-0.774378 2:0.0945171 3:-0.339593 4:-0.912111 5:-0.219268 6:-0.539681 7:0.543274 8:-0.0112834 9:0.230494 10:0.698947 11:0.174563 12:-0.746028 13:-0.864298 14:-0.748876 15:-0.713772 16:-0.526462 17:-1 18:-1 19:-0.730419 20:-0.422295 21:-0.719887 22:-0.575769 23:-0.754717 24:-0.666996 25:-0.760701 26:-0.540593 27:-1 28:-1 29:-0.60366 30:-0.415953 31:-1 32:-1 33:-0.871451 34:0.14611 35:-0.456164 36:-0.819681 37:0.118747 38:-0.449999 
1 1:-0.752414 2:0.0959965 3:-0.292896 4:-0.932755 5:-0.1829 6:-0.548542 7:0.528369 8:-0.0132163 9:0.130154 10:0.732498 11:0.103697 12:-0.742409 13:-0.943775 14:-0.99277 15:-0.795364 16:-0.381006 17:-1 18:-1 19:-0.846567 20:-0.286438 21:-0.86787 22:-0.62486 23:-0.599349 24:-0.647528 25:-0.845618 26:-0.580029 27:-1 28:-1 29:-0.803772 30:-0.505617 31:-0.637634 32:-0.775107 33:-0.806074 34:0.146175 35:-0.257718 36:-0.80274 37:0.118975 38:-0.568363 
1 1:-0.852232 2:0.132909 3:-0.209702 4:-0.907072 5:-0.122924 6:-0.483164 7:0.609273 8:-0.0560512 9:-0.0538434 10:0.679822 11:-0.0171905 12:-0.817256 13:-0.638694 14:-0.824105 15:-0.835551 16:-0.707321 17:-0.836602 18:-0.764814 19:-0.885689 20:-0.660397 21:-0.855969 22:-0.777152 23:-1 24:-1 25:-0.684796 26:-0.393743 27:-1 28:-1 29:-0.771858 30:-0.511308 31:-0.721561 32:-0.98944 33:-0.874684 34:0.165016 35:-0.308051 36:-0.819085 37:0.110011 38:-0.594293 
1 1:-0.765515 2:0.147333 3:-0.323486 4:-0.875717 5:-0.251402 6:-0.583851 7:0.544693 8:-0.083363 9:0.210516 10:0.673029 11:0.256989 12:-0.682686 13:-0.755145 14:-0.818579 15:-0.694382 16:-0.568563 17:-0.719361 18:-0.732082 19:-0.837527 20:-0.587933 21:-0.933917 22:-0.815559 23:-0.557373 24:-0.574085 25:-0.700692 26:-0.675456 27:-1 28:-1 29:-0.415644 30:-0.581812 31:-1 32:-1 33:-0.833121 34:0.199998 35:-0.493398 36:-0.672002 37:0.413009 38:-0.557949 
1 1:-0.807823 2:0.00675036 3:-0.108942 4:-0.811852 5:-0.239482 6:-0.49406 7:0.612326 8:0.0889103 9:-0.253931 10:0.622365 11:0.194132 12:-0.711555 13:-0.758835 14:-0.961608 15:-0.617415 16:-0.688261 17:-0.951435 18:-0.603259 19:-0.717033 20:-0.473345 21:-0.937735 22:-0.34352 23:-0.706224 24:-0.589298 25:-0.742187 26:-0.853017 27:-0.668141 28:-0.923986 29:-0.827209 30:-0.675409 31:-0.629287 32:-0.906423 33:-0.721426 34:0.14079 35:-0.475006 36:-0.865465 37:0.242601 38:-0.370602 
1 1:-0.595485 2:0.141134 3:-0.0694463 4:-0.845238 5:-0.189545 6:-0.55684 7:0.464851 8:-0.0683355 9:-0.356214 10:0.710653 11:0.111084 12:-0.56249 13:-0.582168 14:-0.881533 15:-0.802145 16:-0.514222 17:-0.717882 18:-0.557239 19:-0.751751 20:-0.423254 21:-0.803739 22:-0.741874 23:-0.324075 24:-0.424123 25:-0.788464 26:-0.807076 27:-0.216901 28:-0.746764 29:-1 30:-1 31:-0.876899 32:-0.629672 33:-0.815144 34:-0.00222685 35:-0.51912 36:-0.699366 37:0.456523 38:-0.340822 
1 1:-0.887225 2:0.0866775 3:-0.241107 4:-0.898108 5:-0.209022 6:-0.388655 7:0.629645 8:-0.00328626 9:0.00713004 10:0.661089 11:0.122683 12:-0.858638 13:-0.824366 14:-0.964893 15:-0.810754 16:-0.678921 17:-0.529192 18:-0.84431 19:-0.701579 20:-0.912931 21:-0.798029 22:-0.903294 23:-0.719626 24:-0.830729 25:-0.849462 26:-0.783335 27:-0.810926 28:-0.834866 29:-1 30:-1 31:-0.913805 32:-0.868054 33:-0.93418 34:0.222782 35:-0.375702 36:-0.878204 37:-0.151549 38:-0.240742 
1 1:-0.787681 2:0.043328 3:-0.220291 4:-0.856252 5:-0.253836 6:-0.500657 7:0.59009 8:0.0485231 9:-0.0322185 10:0.664543 11:0.225102 12:-0.728341 13:-0.74447 14:-0.580229 15:-0.510066 16:-0.816932 17:-0.710233 18:-0.882999 19:-0.356589 20:-0.684551 21:-0.0863613 22:-0.772996 23:-0.317312 24:-0.564663 25:-0.263954 26:-0.745034 27:-0.658104 28:-0.632434 29:-0.688733 30:-0.805922 31:-0.801391 32:-0.575009 33:-0.881518 34:-0.0399475 35:-0.405171 36:-0.872989 37:0.114275 38:-0.457267 
1 1:-0.84912 2:0.0541201 3:-0.174229 4:-0.895317 5:-0.149714 6:-0.532272 7:0.608562 8:0.0401378 9:-0.136601 10:0.671134 11:0.0349291 12:-0.786863 13:-0.850106 14:-0.905882 15:-0.778143 16:-0.874156 17:-0.775997 18:-0.658973 19:-0.618625 20:-0.843152 21:-0.713645 22:-0.684021 23:-0.661322 24:-0.933352 25:-0.596412 26:-0.759817 27:-1 28:-1 29:-0.484882 30:-0.793389 31:-0.77339 32:-0.798254 33:-0.917203 34:0.223377 35:-0.416954 36:-0.931865 37:0.199489 38:-0.462907 
1 1:-0.753742 2:0.0359314 3:-0.379274 4:-0.882284 5:-0.0763016 6:-0.377455 7:0.569732 8:0.0448248 9:0.236976 10:0.686262 11:-0.0838493 12:-0.777419 13:-0.801628 14:-0.745574 15:-0.642906 16:-0.608603 17:-0.813387 18:-0.387146 19:-0.663203 20:-0.594287 21:-1 22:-1 23:-0.734858 24:-0.674022 25:-0.78481 26:-0.675786 27:-0.790618 28:-0.606901 29:-0.709499 30:-0.845292 31:-0.623089 32:-0.552659 33:-0.825018 34:0.182007 35:-0.548182 36:-0.735767 37:0.335664 38:-0.339101 
1 1:-0.769451 2:0.0982667 3:-0.215219 4:-0.859405 5:-0.241003 6:-0.554212 7:0.573837 8:-0.0161175 9:-0.0456982 10:0.673331 11:0.22147 12:-0.688738 13:-0.935714 14:-0.810558 15:-0.956032 16:-0.726811 17:-0.642412 18:-0.538444 19:-0.927487 20:-0.665758 21:-0.416221 22:-0.705589 23:-0.893971 24:-0.573541 25:-0.243417 26:-0.673762 27:-0.872159 28:-0.568427 29:-0.624828 30:-0.618002 31:-0.793875 32:-0.699096 33:-0.846863 34:0.18925 35:-0.353098 36:-0.774724 37:0.0224147 38:-0.545666 
1 1:-0.765529 2:0.0627618 3:-0.283212 4:-0.856711 5:-0.0528519 6:-0.219389 7:0.603279 8:0.0136363 9:0.0600143 10:0.680063 11:-0.0962471 12:-0.81115 13:-0.786154 14:-0.609761 15:-0.505624 16:-0.510994 17:-0.74007 18:-0.692172 19:-0.662614 20:-0.579904 21:-0.594809 22:-0.642651 23:-0.551373 24:-0.65648 25:-1 26:-1 27:-0.535836 28:-0.589211 29:-1 30:-1 31:-0.508046 32:-0.342498 33:-0.816093 34:0.0605246 35:-0.404149 36:-0.781663 37:0.0850244 38:-0.335189 
1 1:-0.860634 2:0.117331 3:-0.255761 4:-0.962903 5:-0.215965 6:-0.148432 7:0.600971 8:-0.0278222 9:0.0209677 10:0.694296 11:0.09951 12:-0.920657 13:-0.94534 14:-0.901123 15:-0.894669 16:-0.836479 17:-0.701649 18:-0.66929 19:-0.831508 20:-0.636875 21:-0.880858 22:-0.591397 23:-0.903825 24:-0.829957 25:-0.933433 26:-0.810895 27:-0.949226 28:-0.847628 29:-0.864833 30:-0.858417 31:-0.632815 32:-0.523573 33:-0.91141 34:0.0658814 35:-0.00171505 36:-0.841463 37:0.193673 38:-0.417132 
1 1:-0.752426 2:0.0786155 3:-0.349788 4:-0.908738 5:-0.207774 6:-0.53436 7:0.533672 8:0.0085507 9:0.248746 10:0.704675 11:0.149053 12:-0.73066 13:-0.869809 14:-0.886887 15:-0.744901 16:-0.486 17:-1 18:-1 19:-0.760172 20:-0.427023 21:-1 22:-1 23:-0.765889 24:-0.410937 25:-1 26:-1 27:-0.698554 28:-0.521464 29:-0.541183 30:-0.656001 31:-0.582292 32:-0.606378 33:-0.831787 34:0.25622 35:-0.442144 36:-0.732261 37:0.240617 38:-0.377523 
1 1:-0.753742 2:0.0359314 3:-0.379274 4:-0.882284 5:-0.0763016 6:-0.377455 7:0.569732 8:0.0448248 9:0.236976 10:0.686262 11:-0.0838493 12:-0.777419 13:-0.801628 14:-0.745574 15:-0.642906 16:-0.608603 17:-0.813387 18:-0.387146 19:-0.663203 20:-0.594287 21:-1 22:-1 23:-0.734858 24:-0.674022 25:-0.78481 26:-0.675786 27:-0.790618 28:-0.606901 29:-0.709499 30:-0.845292 31:-0.623089 32:-0.552659 33:-0.825018 34:0.182007 35:-0.548182 36:-0.735767 37:0.335664 38:-0.339101 
1 1:-0.813439 2:0.0571443 3:-0.209506 4:-0.917699 5:-0.222269 6:-0.432311 7:0.584334 8:0.0285497 9:-0.0504609 10:0.69464 11:0.152168 12:-0.81745 13:-0.886403 14:-0.739415 15:-0.673111 16:-0.757996 17:-0.793547 18:-0.699692 19:-0.825301 20:-0.728095 21:-0.761039 22:-0.716752 23:-0.790755 24:-0.793321 25:-0.545603 26:-0.719037 27:-0.601442 28:-0.452786 29:-0.599818 30:-0.890014 31:-0.552952 32:-0.798367 33:-0.85922 34:0.0300478 35:-0.362558 36:-0.87798 37:0.027024 38:-0.460246 
1 1:-0.846472 2:0.0884355 3:-0.254961 4:-0.798694 5:-0.36122 6:-0.417028 7:0.628569 8:-0.00502719 9:0.0315793 10:0.600863 11:0.365906 12:-0.760214 13:-0.801983 14:-0.910625 15:-0.209542 16:-0.739501 17:-0.457361 18:-0.829796 19:-0.630685 20:-0.917564 21:-0.674022 22:-0.81 23:-0.691778 24:-0.783047 25:-0.876156 26:-0.764387 27:-0.795988 28:-0.454419 29:-0.85602 30:-0.753589 31:-0.786984 32:-0.670054 33:-0.920057 34:0.240982 35:-0.508792 36:-0.816494 37:0.0737113 38:-0.439806 
1 1:-0.857191 2:0.0305042 3:-0.161361 4:-0.937513 5:-0.199678 6:-0.840675 7:0.455211 8:0.192953 9:-0.398046 10:0.657625 11:0.335334 12:-0.56838 13:-1 14:-1 15:-0.536601 16:-0.849093 17:-0.304393 18:-0.574616 19:-0.892056 20:-0.88803 21:-0.903703 22:-0.808129 23:-0.924419 24:-0.988516 25:-0.887656 26:-0.882572 27:-0.89076 28:-0.94754 29:-0.886728 30:-0.945386 31:-0.705091 32:-0.77819 33:-0.944198 34:0.118687 35:-0.861391 36:-0.972021 37:0.088717 38:-0.883689 
1 1:-0.630005 2:-0.0186173 3:-0.111268 4:-0.79832 5:-0.198565 6:-0.605442 7:0.496925 8:0.140329 9:-0.290813 10:0.668558 11:0.140371 12:-0.502496 13:-0.663876 14:-0.763299 15:-0.714524 16:-0.678943 17:-0.675469 18:-0.849198 19:-0.119283 20:-0.523591 21:0.256179 22:-0.475397 23:-0.278657 24:-0.43831 25:-0.356787 26:-0.456978 27:-0.712247 28:-0.318067 29:-0.685216 30:-0.328591 31:0.560789 32:-0.592999 33:-0.91344 34:0.00308544 35:-0.119142 36:-0.760761 37:0.0869754 38:-0.627495 
1 1:-0.816916 2:0.0284339 3:-0.138011 4:-0.772832 5:-0.30319 6:-0.458405 7:0.630741 8:0.0591328 9:-0.183534 10:0.597576 11:0.288813 12:-0.706939 13:-0.812649 14:-0.918414 15:-0.576564 16:-0.713158 17:-0.9703 18:-0.593102 19:-0.641436 20:-0.511574 21:-0.952564 22:-0.349512 23:-0.662273 24:-0.475518 25:-0.776363 26:-0.844759 27:-0.665328 28:-0.872714 29:-0.758207 30:-0.695781 31:-0.624139 32:-0.909099 33:-0.737195 34:0.12953 35:-0.470907 36:-0.8584 37:0.231817 38:-0.338457 
1 1:-0.998894 2:0.155927 3:-0.232731 4:0.931155 5:-0.121934 6:-0.566052 7:1 8:-0.0599445 9:-0.00846339 10:-0.359195 11:-0.0115834 12:0.121327 13:-0.882593 14:0.990252 15:-0.914233 16:0.675364 17:-0.948807 18:0.438683 19:-0.89747 20:1 21:-0.926784 22:0.686954 23:-0.920462 24:0.879878 25:-0.925232 26:0.755993 27:-0.939428 28:0.694901 29:-0.940079 30:0.439947 31:-0.917462 32:0.469511 33:0.547146 34:-0.0184913 35:-0.446338 36:0.734065 37:-0.060587 38:-0.478814 
1 1:-0.999903 2:0.131828 3:-0.236857 4:0.231838 5:-0.255866 6:-0.568154 7:0.980973 8:-0.0477031 9:-0.000577344 10:-0.0820393 11:0.192872 12:-0.119826 13:-0.920879 14:-0.0350763 15:-0.906495 16:0.346026 17:-0.916173 18:0.344306 19:-0.912857 20:0.134577 21:-0.951839 22:-0.288876 23:-0.921051 24:0.209011 25:-0.909071 26:0.444998 27:-0.953083 28:-0.0312601 29:-0.93126 30:0.111206 31:-0.93166 32:-0.125072 33:-0.144603 34:0.485818 35:-0.621042 36:-0.0546282 37:0.497669 38:-0.455661 
1 1:-0.790065 2:0.0706428 3:-0.00884839 4:-0.875784 5:-0.364986 6:-0.156444 7:0.580937 8:0.00617315 9:-0.290371 10:0.655755 11:0.267077 12:-0.846283 13:-0.746075 14:-0.906286 15:-0.872098 16:-0.739014 17:-0.71343 18:-0.533961 19:-0.571551 20:-0.78153 21:-0.596368 22:-0.766606 23:-0.810412 24:-0.623835 25:-0.541337 26:-0.906029 27:-0.635475 28:-0.978109 29:-0.775482 30:-0.601175 31:-0.32992 32:-0.46967 33:-0.932527 34:0.00311642 35:-0.132888 36:-0.85962 37:0.166808 38:-0.168896 
1 1:-0.757755 2:0.0852237 3:-0.265432 4:-0.771044 5:-0.289076 6:-0.547003 7:0.601642 8:0.000144726 9:0.0636448 10:0.61053 11:0.305051 12:-0.615416 13:-0.970679 14:-0.893364 15:-0.757872 16:-0.489305 17:-0.925351 18:-0.805107 19:-0.830033 20:-0.795283 21:-0.900831 22:-0.601162 23:-0.492427 24:-0.822925 25:-0.873345 26:-0.461629 27:-0.241523 28:-0.925779 29:-1 30:-1 31:-1 32:-1 33:-0.757506 34:0.348907 35:-0.419166 36:-0.843826 37:0.0613853 38:-0.567742 
1 1:-0.664059 2:0.164047 3:-0.186467 4:-0.848261 5:-0.0339121 6:-0.281788 7:0.564885 8:-0.0683272 9:-0.0749967 10:0.701721 11:-0.127098 12:-0.743627 13:-0.71824 14:-0.715719 15:-0.622055 16:-0.520495 17:-0.608743 18:-0.421205 19:-0.616429 20:-0.214441 21:-0.715195 22:-0.27965 23:-0.568299 24:-0.272563 25:-0.385816 26:-0.686361 27:-0.429161 28:-0.810093 29:-0.102301 30:-0.865631 31:0.0417986 32:-0.143776 33:-0.805279 34:0.0550549 35:-0.0764638 36:-0.796515 37:0.112651 38:-0.379268 
1 1:-0.772055 2:0.12196 3:-0.240635 4:-0.841842 5:0.0166359 6:-0.379511 7:0.596404 8:-0.0372921 9:0.00541833 10:0.663776 11:-0.224286 12:-0.760089 13:-0.831955 14:-0.807072 15:-0.700838 16:-0.422702 17:-0.824562 18:-0.361702 19:-0.722522 20:-0.337603 21:-0.584773 22:-0.359039 23:-0.603474 24:-0.319698 25:-0.757609 26:-0.594671 27:-0.769939 28:-0.48525 29:-0.390271 30:-0.352862 31:-0.273794 32:-0.37517 33:-0.851102 34:0.057501 35:-0.316235 36:-0.756334 37:0.131491 38:-0.325124 
1 1:-0.769983 2:0.150015 3:-0.124836 4:-0.922077 5:-0.235201 6:-0.2974 7:0.570926 8:-0.0590654 9:-0.171348 10:0.701112 11:0.142349 12:-0.832633 13:-0.934478 14:-0.965393 15:-0.846206 16:-0.853398 17:-0.768904 18:-0.662101 19:-0.639882 20:-0.698537 21:-0.782955 22:-0.613225 23:-0.560156 24:-0.786185 25:-0.493895 26:-0.789692 27:-0.450017 28:-0.559552 29:-0.296222 30:-0.389334 31:-0.364839 32:-0.436587 33:-0.950514 34:0.109701 35:0.00910208 36:-0.811838 37:0.187833 38:-0.481756 
1 1:-0.664059 2:0.164047 3:-0.186467 4:-0.848261 5:-0.0339121 6:-0.281788 7:0.564885 8:-0.0683272 9:-0.0749967 10:0.701721 11:-0.127098 12:-0.743627 13:-0.71824 14:-0.715719 15:-0.622055 16:-0.520495 17:-0.608743 18:-0.421205 19:-0.616429 20:-0.214441 21:-0.715195 22:-0.27965 23:-0.568299 24:-0.272563 25:-0.385816 26:-0.686361 27:-0.429161 28:-0.810093 29:-0.102301 30:-0.865631 31:0.0417986 32:-0.143776 33:-0.805279 34:0.0550549 35:-0.0764638 36:-0.796515 37:0.112651 38:-0.379268 
1 1:-0.772055 2:0.12196 3:-0.240635 4:-0.841842 5:0.0166359 6:-0.379511 7:0.596404 8:-0.0372921 9:0.00541833 10:0.663776 11:-0.224286 12:-0.760089 13:-0.831955 14:-0.807072 15:-0.700838 16:-0.422702 17:-0.824562 18:-0.361702 19:-0.722522 20:-0.337603 21:-0.584773 22:-0.359039 23:-0.603474 24:-0.319698 25:-0.757609 26:-0.594671 27:-0.769939 28:-0.48525 29:-0.390271 30:-0.352862 31:-0.273794 32:-0.37517 33:-0.851102 34:0.057501 35:-0.316235 36:-0.756334 37:0.131491 38:-0.325124 
1 1:-0.765637 2:0.083224 3:-0.312339 4:-0.753497 5:-0.0862635 6:-0.332909 7:0.635506 8:-0.00115136 9:0.114296 10:0.633407 11:-0.0629571 12:-0.719218 13:-0.442818 14:-0.672439 15:-0.37261 16:-0.57124 17:-0.502267 18:-0.22914 19:-0.376132 20:-0.42207 21:-0.405401 22:0.00417206 23:-0.554814 24:-0.354798 25:-0.588005 26:-0.588008 27:-0.620715 28:-0.576979 29:-0.522469 30:-0.494029 31:0.458735 32:0.336487 33:-0.802528 34:-0.0336309 35:-0.222524 36:-0.698911 37:0.0852486 38:-0.39268 
1 1:-0.681559 2:0.145406 3:-0.173876 4:-0.889261 5:-0.201381 6:-0.334745 7:0.551831 8:-0.0565193 9:-0.0999347 10:0.718229 11:0.0989433 12:-0.757834 13:-0.791491 14:-0.732271 15:-0.69469 16:-0.608188 17:-0.587755 18:-0.59297 19:-0.667286 20:-0.623287 21:-0.533083 22:-0.759882 23:-0.539888 24:-0.602722 25:-0.569947 26:-0.732773 27:-0.490979 28:-0.570848 29:-0.356759 30:-0.245422 31:-0.553515 32:0.00677668 33:-0.905505 34:0.118629 35:-0.150137 36:-0.62461 37:0.210416 38:-0.543496 
1 1:-0.7944 2:0.009266 3:-0.104085 4:-0.755375 5:-0.410215 6:-0.370964 7:0.606942 8:0.0670017 9:-0.214057 10:0.586607 11:0.404751 12:-0.724336 13:-0.639652 14:-0.66552 15:-0.786234 16:-0.799524 17:-0.533945 18:-0.738743 19:-0.0896105 20:-0.841824 21:-0.563059 22:-0.807634 23:-0.78658 24:-0.909606 25:-0.470302 26:-0.814967 27:-0.621832 28:-0.537115 29:-0.885469 30:-0.944044 31:-0.388855 32:-0.374505 33:-0.946971 34:-0.0120322 35:-0.480812 36:-0.673505 37:-0.10531 38:-0.457962 
1 1:-0.746078 2:0.176431 3:-0.412705 4:-0.869052 5:-0.207864 6:-0.410062 7:0.56015 8:-0.0926107 9:0.305477 10:0.67404 11:0.11995 12:-0.753689 13:-0.762715 14:-0.711849 15:-0.554387 16:-0.587221 17:-0.829423 18:-0.341563 19:-0.754532 20:-0.159439 21:-0.892879 22:-0.381038 23:-0.840681 24:-0.237313 25:-0.731013 26:-0.55736 27:-0.739918 28:-0.515409 29:-0.571754 30:-0.678437 31:-0.360107 32:-0.371976 33:-0.808539 34:0.167285 35:-0.178706 36:-0.811463 37:0.144411 38:-0.465768 
1 1:-0.796854 2:0.0966153 3:-0.0709918 4:-0.806971 5:-0.209539 6:-0.30964 7:0.619757 8:-0.0128794 9:-0.252106 10:0.640736 11:0.106873 12:-0.774653 13:-0.587229 14:-0.663297 15:-0.568705 16:-0.609497 17:-0.663302 18:-0.627392 19:-0.56083 20:-0.580533 21:-0.552416 22:-0.609309 23:-0.311087 24:-0.486446 25:-0.335803 26:-0.293155 27:-0.505629 28:-0.382481 29:-0.776799 30:-0.425685 31:-0.333541 32:0.312646 33:-0.925213 34:-0.00324908 35:-0.202098 36:-0.658076 37:0.138345 38:-0.286048 
1 1:-0.680426 2:0.252164 3:-0.339787 4:-0.740647 5:-0.280184 6:-0.34286 7:0.592329 8:-0.148402 9:0.154969 10:0.638212 11:0.205486 12:-0.668713 13:-0.362759 14:-0.65524 15:-0.653875 16:-0.489835 17:-0.777674 18:-0.248685 19:-0.654458 20:-0.0763797 21:-0.474858 22:-0.0106921 23:-0.6481 24:-0.366631 25:-0.492796 26:-0.815194 27:-0.555349 28:-0.581623 29:-0.73893 30:-0.565001 31:-0.252429 32:0.487677 33:-0.705114 34:0.299904 35:-0.205467 36:-0.400855 37:0.449875 38:-0.222542 
1 1:-0.788308 2:0.103963 3:-0.243621 4:-0.924572 5:-0.177698 6:-0.262716 7:0.587275 8:-0.018916 9:0.00754883 10:0.703876 11:0.0612852 12:-0.849895 13:-0.795886 14:-0.853355 15:-0.826213 16:-0.838365 17:-0.692821 18:-0.637517 19:-0.741766 20:-0.625136 21:-0.708735 22:-0.629948 23:-0.451589 24:-0.638303 25:-0.668818 26:-0.813995 27:-0.878793 28:-0.809175 29:-0.684064 30:-0.484459 31:-0.765024 32:-0.275425 33:-0.914042 34:0.116807 35:-0.181572 36:-0.687053 37:0.167172 38:-0.587543 
1 1:-0.754857 2:0.0686024 3:-0.173999 4:-0.810435 5:-0.277515 6:-0.347137 7:0.603766 8:0.0122988 9:-0.100705 10:0.655598 11:0.208932 12:-0.743193 13:-0.773868 14:-0.717402 15:-0.415232 16:-0.581445 17:-0.59481 18:-0.585807 19:-0.609331 20:-0.598633 21:-0.677203 22:-0.508346 23:-0.605408 24:-0.490941 25:-0.717666 26:-0.558689 27:-0.690861 28:-0.440469 29:-0.486881 30:-0.367915 31:-0.134144 32:-0.340972 33:-0.901292 34:0.0109955 35:-0.430835 36:-0.678873 37:0.00868752 38:-0.222075 
1 1:-0.776888 2:0.0380666 3:-0.0648605 4:-0.868278 5:-0.379703 6:-0.385178 7:0.554571 8:0.0427704 9:-0.288038 10:0.643568 11:0.375396 12:-0.781095 13:-0.613282 14:-0.830616 15:-0.661478 16:-0.768282 17:-0.753424 18:-0.775843 19:-0.607623 20:-0.707554 21:-0.604605 22:-0.69083 23:-0.947575 24:-0.779873 25:-0.881837 26:-0.704024 27:-0.76969 28:-0.70023 29:-0.997559 30:-0.785669 31:-0.447311 32:-0.761251 33:-0.866182 34:0.0910994 35:-0.309745 36:-0.825664 37:0.049939 38:-0.430693 
1 1:-0.687059 2:0.0878381 3:-0.0757322 4:-0.872506 5:-0.103683 6:-0.582668 7:0.496935 8:-0.00243372 9:-0.371276 10:0.699669 11:-0.0607667 12:-0.62444 13:-0.606222 14:-0.776279 15:-0.697227 16:-0.836929 17:-0.752604 18:-0.574242 19:-0.562849 20:-0.580889 21:-0.537725 22:-0.574069 23:-0.576836 24:-0.234905 25:-1 26:-1 27:-0.5969 28:-0.498174 29:-1 30:-1 31:-0.739068 32:-0.558436 33:-0.844218 34:0.118344 35:-0.470927 36:-0.66442 37:0.332894 38:-0.469245 
1 1:-0.697694 2:0.0858556 3:-0.220728 4:-0.871918 5:-0.217753 6:-0.243993 7:0.57432 8:-0.00415332 9:-0.0251496 10:0.704374 11:0.109148 12:-0.782881 13:-0.874408 14:-0.720159 15:-0.86762 16:-0.663724 17:-0.62743 18:-0.413753 19:-0.541698 20:-0.461583 21:-0.108372 22:-0.311072 23:-0.465885 24:-0.533809 25:-0.600587 26:-0.430944 27:-0.575869 28:-0.384472 29:-0.473526 30:-0.151862 31:-0.642865 32:-0.0854219 33:-0.87042 34:0.148681 35:-0.0534736 36:-0.606906 37:0.0953411 38:-0.501582 
1 1:-0.73068 2:0.0575508 3:-0.179232 4:-0.899254 5:-0.120828 6:-0.47241 7:0.552022 8:0.0299695 9:-0.111272 10:0.71736 11:-0.0198993 12:-0.737635 13:-0.945453 14:-0.690736 15:-0.416661 16:-0.631706 17:-0.414596 18:-0.636092 19:-0.491932 20:-0.580358 21:-0.343292 22:-0.607833 23:-0.913714 24:-0.660749 25:-0.552647 26:-0.608179 27:-0.625026 28:-0.452651 29:-0.57811 30:-0.199222 31:-0.776947 32:-0.548395 33:-0.902615 34:0.122607 35:-0.30958 36:-0.64596 37:0.256409 38:-0.463416 
1 1:-0.746078 2:0.176431 3:-0.412705 4:-0.869052 5:-0.207864 6:-0.410062 7:0.56015 8:-0.0926107 9:0.305477 10:0.67404 11:0.11995 12:-0.753689 13:-0.762715 14:-0.711849 15:-0.554387 16:-0.587221 17:-0.829423 18:-0.341563 19:-0.754532 20:-0.159439 21:-0.892879 22:-0.381038 23:-0.840681 24:-0.237313 25:-0.731013 26:-0.55736 27:-0.739918 28:-0.515409 29:-0.571754 30:-0.678437 31:-0.360107 32:-0.371976 33:-0.808539 34:0.167285 35:-0.178706 36:-0.811463 37:0.144411 38:-0.465768 
1 1:-0.662065 2:0.0761825 3:-0.108735 4:-0.922738 5:-0.0995618 6:-0.576474 7:0.46305 8:0.0130596 9:-0.294422 10:0.752209 11:-0.0694318 12:-0.653229 13:-0.680007 14:-0.90435 15:-0.804153 16:-0.752833 17:-0.856494 18:-0.563728 19:-0.739461 20:-0.695167 21:-0.75325 22:-0.417523 23:-0.668058 24:-0.572657 25:-0.865965 26:-0.562043 27:-0.713501 28:-0.793327 29:-0.945186 30:-0.740123 31:-0.969347 32:-0.636826 33:-0.773984 34:0.169188 35:-0.456502 36:-0.691736 37:0.258515 38:-0.469158 
1 1:-0.692737 2:-0.0565494 3:-0.39294 4:-0.859017 5:-0.012063 6:-0.420439 7:0.535428 8:0.139359 9:0.271569 10:0.681365 11:-0.189139 12:-0.713801 13:-0.610942 14:-0.783512 15:-0.769103 16:-0.341665 17:-0.793757 18:-0.26464 19:-0.593598 20:-0.109893 21:-0.78664 22:-0.0543215 23:-0.754702 24:-0.196094 25:-0.770531 26:-0.55201 27:-0.796617 28:-0.557253 29:-0.6499 30:-0.582341 31:-0.462371 32:0.217909 33:-0.729737 34:0.0722373 35:-0.328684 36:-0.681573 37:0.156939 38:-0.294322 
1 1:-0.765637 2:0.083224 3:-0.312339 4:-0.753497 5:-0.0862635 6:-0.332909 7:0.635506 8:-0.00115136 9:0.114296 10:0.633407 11:-0.0629571 12:-0.719218 13:-0.442818 14:-0.672439 15:-0.37261 16:-0.57124 17:-0.502267 18:-0.22914 19:-0.376132 20:-0.42207 21:-0.405401 22:0.00417206 23:-0.554814 24:-0.354798 25:-0.588005 26:-0.588008 27:-0.620715 28:-0.576979 29:-0.522469 30:-0.494029 31:0.458735 32:0.336487 33:-0.802528 34:-0.0336309 35:-0.222524 36:-0.698911 37:0.0852486 38:-0.39268 
1 1:-0.680426 2:0.252164 3:-0.339787 4:-0.740647 5:-0.280184 6:-0.34286 7:0.592329 8:-0.148402 9:0.154969 10:0.638212 11:0.205486 12:-0.668713 13:-0.362759 14:-0.65524 15:-0.653875 16:-0.489835 17:-0.777674 18:-0.248685 19:-0.654458 20:-0.0763797 21:-0.474858 22:-0.0106921 23:-0.6481 24:-0.366631 25:-0.492796 26:-0.815194 27:-0.555349 28:-0.581623 29:-0.73893 30:-0.565001 31:-0.252429 32:0.487677 33:-0.705114 34:0.299904 35:-0.205467 36:-0.400855 37:0.449875 38:-0.222542 
1 1:-0.734113 2:0.0488107 3:-0.144453 4:-0.876679 5:-0.14726 6:-0.512763 7:0.554561 8:0.0430266 9:-0.190048 10:0.700538 11:0.0282548 12:-0.7028 13:-0.930955 14:-0.704897 15:-0.392371 16:-0.651421 17:-0.432732 18:-0.883402 19:-0.533426 20:-0.703507 21:-0.699081 22:-0.966348 23:-0.696826 24:-0.52453 25:-0.61191 26:-0.67776 27:-0.59577 28:-0.511631 29:-0.565226 30:-0.217585 31:-0.940971 32:-0.899136 33:-0.928264 34:0.199102 35:-0.491826 36:-0.723195 37:0.270594 38:-0.272867 
1 1:-0.644603 2:0.0800673 3:-0.179732 4:-0.978019 5:-0.105745 6:-0.631671 7:0.400536 8:0.010605 9:-0.146522 10:0.823304 11:-0.0652976 12:-0.646996 13:-0.794012 14:-0.821717 15:-0.848514 16:-0.699674 17:-0.929772 18:-0.583173 19:-0.849666 20:-0.637662 21:-0.885796 22:-0.3839 23:-0.870281 24:-0.476065 25:-0.895965 26:-0.577072 27:-1 28:-1 29:-0.821986 30:-0.616896 31:-1 32:-1 33:-0.713698 34:0.163188 35:-0.516921 36:-0.728153 37:0.100548 38:-0.622528 
1 1:-0.758323 2:0.125185 3:-0.096416 4:-0.883518 5:-0.0888934 6:-0.561629 7:0.543733 8:-0.0513571 9:-0.317574 10:0.684797 11:-0.09022 12:-0.698139 13:-0.671246 14:-0.745589 15:-0.777068 16:-0.540856 17:-0.845813 18:-0.664539 19:-0.645463 20:-0.453604 21:-0.842867 22:-0.677387 23:-0.608896 24:-0.241419 25:-0.83278 26:-0.890002 27:-0.416925 28:-0.689632 29:-1 30:-1 31:-0.677127 32:-0.667412 33:-0.841739 34:0.238706 35:-0.443607 36:-0.808211 37:0.251051 38:-0.449055 
1 1:-0.73068 2:0.0575508 3:-0.179232 4:-0.899254 5:-0.120828 6:-0.47241 7:0.552022 8:0.0299695 9:-0.111272 10:0.71736 11:-0.0198993 12:-0.737635 13:-0.945453 14:-0.690736 15:-0.416661 16:-0.631706 17:-0.414596 18:-0.636092 19:-0.491932 20:-0.580358 21:-0.343292 22:-0.607833 23:-0.913714 24:-0.660749 25:-0.552647 26:-0.608179 27:-0.625026 28:-0.452651 29:-0.57811 30:-0.199222 31:-0.776947 32:-0.548395 33:-0.902615 34:0.122607 35:-0.30958 36:-0.64596 37:0.256409 38:-0.463416 
1 1:-0.717931 2:0.183636 3:-0.273202 4:-0.832132 5:-0.247795 6:-0.356064 7:0.582659 8:-0.0924731 9:0.0566858 10:0.678594 11:0.168293 12:-0.734184 13:-0.693909 14:-0.748765 15:-0.843702 16:-0.450605 17:-0.855671 18:-0.378444 19:-0.727253 20:-0.299343 21:-0.640339 22:-0.0247689 23:-0.70962 24:0.0195714 25:-0.878697 26:-0.569423 27:-0.643841 28:-0.693614 29:-0.263849 30:-0.899455 31:-0.443248 32:-0.191739 33:-0.730394 34:0.174414 35:-0.175639 36:-0.735735 37:0.0341434 38:-0.456055 
1 1:-0.835332 2:0.129456 3:-0.248169 4:-0.908852 5:-0.144157 6:-0.288642 7:0.609406 8:-0.0412816 9:0.0151853 10:0.685149 11:0.017515 12:-0.858507 13:-0.746476 14:-0.817123 15:-0.871997 16:-0.513512 17:-0.848984 18:-0.463222 19:-0.839463 20:-0.456676 21:-0.873449 22:-0.388999 23:-0.81499 24:-0.240698 25:-0.799633 26:-0.604568 27:-0.762928 28:-0.445073 29:-0.636385 30:-0.662694 31:-0.350247 32:-0.585364 33:-0.850886 34:0.223013 35:-0.156793 36:-0.848572 37:0.130918 38:-0.266678 
1 1:-0.676891 2:0.0767167 3:-0.228738 4:-0.925437 5:-0.14069 6:-0.383408 7:0.531619 8:0.00603786 9:-0.0144544 10:0.743332 11:0.0137253 12:-0.760755 13:-0.688493 14:-0.640873 15:-0.590622 16:-0.44492 17:-0.586348 18:-0.434355 19:-0.517469 20:-0.366104 21:-0.497626 22:-0.405546 23:-0.449871 24:-0.248175 25:-0.849241 26:-0.382428 27:-0.817046 28:-0.336045 29:-0.517359 30:-0.112479 31:-0.438704 32:-0.0835049 33:-0.87513 34:0.0397035 35:-0.20093 36:-0.590811 37:0.0860969 38:-0.327185 
1 1:-0.72444 2:0.135793 3:-0.257891 4:-0.915615 5:-0.146788 6:-0.588426 7:0.515901 8:-0.068792 9:0.0554108 10:0.739765 11:0.0313207 12:-0.682025 13:-0.704874 14:-0.874012 15:-0.660311 16:-0.460037 17:-0.903731 18:-0.639125 19:-0.738141 20:-0.348845 21:-0.816122 22:-0.584269 23:-0.745238 24:-0.543692 25:-0.784106 26:-0.54794 27:-0.597096 28:-0.557672 29:-1 30:-1 31:-0.527924 32:-0.854004 33:-0.768581 34:0.0949242 35:-0.510307 36:-0.781951 37:0.10761 38:-0.470323 
1 1:-0.860634 2:0.117331 3:-0.255761 4:-0.962903 5:-0.215965 6:-0.148432 7:0.600971 8:-0.0278222 9:0.0209677 10:0.694296 11:0.09951 12:-0.920657 13:-0.94534 14:-0.901123 15:-0.894669 16:-0.836479 17:-0.701649 18:-0.66929 19:-0.831508 20:-0.636875 21:-0.880858 22:-0.591397 23:-0.903825 24:-0.829957 25:-0.933433 26:-0.810895 27:-0.949226 28:-0.847628 29:-0.864833 30:-0.858417 31:-0.632815 32:-0.523573 33:-0.91141 34:0.0658814 35:-0.00171505 36:-0.841463 37:0.193673 38:-0.417132 
1 1:-0.771651 2:0.0899827 3:-0.383949 4:-0.882419 5:-0.0492731 6:-0.24751 7:0.587254 8:-0.00738944 9:0.204488 10:0.681054 11:-0.104501 12:-0.82211 13:-0.798892 14:-0.707056 15:-0.555978 16:-0.599532 17:-0.746857 18:-0.575111 19:-0.653565 20:-0.56759 21:-0.704661 22:-0.620159 23:-0.550203 24:-0.524603 25:-0.671507 26:-0.666811 27:-0.748397 28:-0.48879 29:-0.499134 30:-0.292171 31:-0.45088 32:-0.44249 33:-0.91263 34:0.13738 35:-0.192885 36:-0.745378 37:0.154631 38:-0.418274 
1 1:-0.822356 2:0.184502 3:-0.195845 4:-0.839163 5:-0.00146555 6:-0.324706 7:0.621425 8:-0.0912219 9:-0.0654984 10:0.650415 11:-0.183572 12:-0.801764 13:-0.715621 14:-0.651768 15:-0.213017 16:-0.819423 17:-0.380081 18:-0.883211 19:-0.239741 20:-0.868654 21:-0.309024 22:-0.872843 23:-0.379825 24:-0.781749 25:-0.590436 26:-0.791881 27:-0.675868 28:-0.890342 29:-0.721642 30:-0.809773 31:0.202529 32:-0.612015 33:-0.948672 34:-0.102793 35:-0.11914 36:-0.8298 37:-0.205088 38:-0.1613 
1 1:-0.790065 2:0.0706428 3:-0.00884839 4:-0.875784 5:-0.364986 6:-0.156444 7:0.580937 8:0.00617315 9:-0.290371 10:0.655755 11:0.267077 12:-0.846283 13:-0.746075 14:-0.906286 15:-0.872098 16:-0.739014 17:-0.71343 18:-0.533961 19:-0.571551 20:-0.78153 21:-0.596368 22:-0.766606 23:-0.810412 24:-0.623835 25:-0.541337 26:-0.906029 27:-0.635475 28:-0.978109 29:-0.775482 30:-0.601175 31:-0.32992 32:-0.46967 33:-0.932527 34:0.00311642 35:-0.132888 36:-0.85962 37:0.166808 38:-0.168896 
1 1:-0.539982 2:0.0899499 3:-0.210753 4:-0.944591 5:-0.0434346 6:-0.3988 7:0.457175 8:-0.0067241 9:-0.0447483 10:0.787479 11:-0.134806 12:-0.694646 13:-0.842918 14:-0.941182 15:-0.755329 16:-0.287005 17:-0.853913 18:-0.098356 19:-1 20:-1 21:-0.799709 22:-0.0163887 23:-0.7223 24:-0.493048 25:-1 26:-1 27:-0.900581 28:-0.539416 29:-0.668708 30:-0.632412 31:-0.746051 32:-0.0973574 33:-0.651534 34:0.0100267 35:-0.449181 36:-0.605844 37:0.105374 38:-0.285156 
1 1:-0.744067 2:0.179476 3:-0.218316 4:-0.873614 5:-0.172186 6:-0.728326 7:0.502551 8:-0.176969 9:-0.0524364 10:0.695294 11:0.12041 12:-0.516377 13:-0.906098 14:-0.91162 15:-1 16:-1 17:-0.837412 18:-0.301207 19:-1 20:-1 21:-0.699884 22:-0.392412 23:-0.891824 24:-0.630514 25:-1 26:-1 27:-0.644018 28:-0.256649 29:-1 30:-1 31:-0.781892 32:-0.833971 33:-0.766836 34:0.103996 35:-0.577118 36:-0.690714 37:0.200687 38:-0.821003 
1 1:-0.697694 2:0.0858556 3:-0.220728 4:-0.871918 5:-0.217753 6:-0.243993 7:0.57432 8:-0.00415332 9:-0.0251496 10:0.704374 11:0.109148 12:-0.782881 13:-0.874408 14:-0.720159 15:-0.86762 16:-0.663724 17:-0.62743 18:-0.413753 19:-0.541698 20:-0.461583 21:-0.108372 22:-0.311072 23:-0.465885 24:-0.533809 25:-0.600587 26:-0.430944 27:-0.575869 28:-0.384472 29:-0.473526 30:-0.151862 31:-0.642865 32:-0.0854219 33:-0.87042 34:0.148681 35:-0.0534736 36:-0.606906 37:0.0953411 38:-0.501582 
1 1:-0.860634 2:0.117331 3:-0.255761 4:-0.962903 5:-0.215965 6:-0.148432 7:0.600971 8:-0.0278222 9:0.0209677 10:0.694296 11:0.09951 12:-0.920657 13:-0.94534 14:-0.901123 15:-0.894669 16:-0.836479 17:-0.701649 18:-0.66929 19:-0.831508 20:-0.636875 21:-0.880858 22:-0.591397 23:-0.903825 24:-0.829957 25:-0.933433 26:-0.810895 27:-0.949226 28:-0.847628 29:-0.864833 30:-0.858417 31:-0.632815 32:-0.523573 33:-0.91141 34:0.0658814 35:-0.00171505 36:-0.841463 37:0.193673 38:-0.417132 
1 1:-0.605673 2:0.109428 3:-0.25037 4:-0.880051 5:0.0368866 6:-0.403543 7:0.502745 8:-0.0255066 9:0.022038 10:0.727985 11:-0.257847 12:-0.687081 13:-0.724298 14:-0.863131 15:-0.699564 16:-0.365316 17:-0.825269 18:-0.196606 19:-1 20:-1 21:-0.74889 22:-0.03835 23:-0.699827 24:-0.607259 25:-0.904438 26:-0.804759 27:-0.761832 28:-0.763456 29:-0.715515 30:-0.62969 31:-0.542978 32:-0.202682 33:-0.700666 34:0.0608485 35:-0.424168 36:-0.633653 37:-0.132753 38:-0.246984 
1 1:-0.490966 2:0.0190088 3:0.136389 4:-0.88746 5:-0.307095 6:-0.482978 7:0.344238 8:0.066466 9:-0.671095 10:0.684575 11:0.285571 12:-0.600287 13:-1 14:-1 15:-0.611145 16:-0.798364 17:-1 18:-1 19:-0.586637 20:-0.766755 21:-1 22:-1 23:-0.966344 24:-0.697032 25:-1 26:-1 27:-1 28:-1 29:-0.798454 30:-0.657534 31:-1 32:-1 33:-0.89636 34:-0.107253 35:-0.635844 36:-0.584476 37:0.534909 38:-0.511157 
1 1:-0.769983 2:0.150015 3:-0.124836 4:-0.922077 5:-0.235201 6:-0.2974 7:0.570926 8:-0.0590654 9:-0.171348 10:0.701112 11:0.142349 12:-0.832633 13:-0.934478 14:-0.965393 15:-0.846206 16:-0.853398 17:-0.768904 18:-0.662101 19:-0.639882 20:-0.698537 21:-0.782955 22:-0.613225 23:-0.560156 24:-0.786185 25:-0.493895 26:-0.789692 27:-0.450017 28:-0.559552 29:-0.296222 30:-0.389334 31:-0.364839 32:-0.436587 33:-0.950514 34:0.109701 35:0.00910208 36:-0.811838 37:0.187833 38:-0.481756 
1 1:-0.681559 2:0.145406 3:-0.173876 4:-0.889261 5:-0.201381 6:-0.334745 7:0.551831 8:-0.0565193 9:-0.0999347 10:0.718229 11:0.0989433 12:-0.757834 13:-0.791491 14:-0.732271 15:-0.69469 16:-0.608188 17:-0.587755 18:-0.59297 19:-0.667286 20:-0.623287 21:-0.533083 22:-0.759882 23:-0.539888 24:-0.602722 25:-0.569947 26:-0.732773 27:-0.490979 28:-0.570848 29:-0.356759 30:-0.245422 31:-0.553515 32:0.00677668 33:-0.905505 34:0.118629 35:-0.150137 36:-0.62461 37:0.210416 38:-0.543496 
1 1:-0.820774 2:0.0601183 3:-0.0592001 4:-0.937363 5:-0.0675685 6:-0.487553 7:0.552161 8:0.0288505 9:-0.360456 10:0.6848 11:-0.119412 12:-0.821219 13:-0.623298 14:-0.665478 15:-0.775512 16:-0.967079 17:-0.790919 18:-0.991963 19:-0.578938 20:-0.952303 21:-0.719189 22:-0.817261 23:-1 24:-1 25:-0.742123 26:-0.977903 27:-1 28:-1 29:-0.893769 30:-0.812417 31:-0.659213 32:-0.652137 33:-0.938205 34:0.234137 35:-0.42014 36:-0.859285 37:0.368393 38:-0.43189 
1 1:-0.788308 2:0.103963 3:-0.243621 4:-0.924572 5:-0.177698 6:-0.262716 7:0.587275 8:-0.018916 9:0.00754883 10:0.703876 11:0.0612852 12:-0.849895 13:-0.795886 14:-0.853355 15:-0.826213 16:-0.838365 17:-0.692821 18:-0.637517 19:-0.741766 20:-0.625136 21:-0.708735 22:-0.629948 23:-0.451589 24:-0.638303 25:-0.668818 26:-0.813995 27:-0.878793 28:-0.809175 29:-0.684064 30:-0.484459 31:-0.765024 32:-0.275425 33:-0.914042 34:0.116807 35:-0.181572 36:-0.687053 37:0.167172 38:-0.587543 
1 1:-0.847528 2:0.207799 3:-0.134962 4:-0.51613 5:-0.246431 6:-0.377212 7:0.739213 8:-0.112644 9:-0.161315 10:0.48506 11:0.163372 12:-0.602549 13:-0.718017 14:-0.392845 15:-0.434322 16:-0.442632 17:-0.552047 18:-0.351632 19:-0.571796 20:0.176772 21:-0.43426 22:-0.245568 23:-0.613749 24:0.00904292 25:-0.256219 26:0.142557 27:-0.434113 28:0.25755 29:-0.451876 30:0.545233 31:-0.279971 32:0.763019 33:-0.831952 34:0.0642841 35:-0.0781505 36:-0.118161 37:0.155521 38:-0.458716 
1 1:-0.73068 2:0.0575508 3:-0.179232 4:-0.899254 5:-0.120828 6:-0.47241 7:0.552022 8:0.0299695 9:-0.111272 10:0.71736 11:-0.0198993 12:-0.737635 13:-0.945453 14:-0.690736 15:-0.416661 16:-0.631706 17:-0.414596 18:-0.636092 19:-0.491932 20:-0.580358 21:-0.343292 22:-0.607833 23:-0.913714 24:-0.660749 25:-0.552647 26:-0.608179 27:-0.625026 28:-0.452651 29:-0.57811 30:-0.199222 31:-0.776947 32:-0.548395 33:-0.902615 34:0.122607 35:-0.30958 36:-0.64596 37:0.256409 38:-0.463416 
1 1:-0.734113 2:0.0488107 3:-0.144453 4:-0.876679 5:-0.14726 6:-0.512763 7:0.554561 8:0.0430266 9:-0.190048 10:0.700538 11:0.0282548 12:-0.7028 13:-0.930955 14:-0.704897 15:-0.392371 16:-0.651421 17:-0.432732 18:-0.883402 19:-0.533426 20:-0.703507 21:-0.699081 22:-0.966348 23:-0.696826 24:-0.52453 25:-0.61191 26:-0.67776 27:-0.59577 28:-0.511631 29:-0.565226 30:-0.217585 31:-0.940971 32:-0.899136 33:-0.928264 34:0.199102 35:-0.491826 36:-0.723195 37:0.270594 38:-0.272867 
1 1:-0.64231 2:0.064408 3:-0.295924 4:-0.6984 5:0.203823 6:-0.361177 7:0.559381 8:0.0150534 9:0.0877546 10:0.598875 11:-0.461182 12:-0.62323 13:-0.771743 14:-0.813509 15:-0.866303 16:-0.511171 17:-0.901632 18:-0.6372 19:-0.87351 20:-0.530152 21:-0.755713 22:-0.551654 23:-0.527819 24:-0.466278 25:-0.913726 26:-0.795863 27:-0.361869 28:-0.602666 29:-0.506834 30:-0.737429 31:-0.515309 32:-0.329179 33:-0.792243 34:-0.190966 35:-0.303874 36:-0.526239 37:-0.190917 38:-0.275732 
1 1:-0.330307 2:0.683578 3:-0.10033 4:-0.361474 5:0.00168647 6:-0.895501 7:-0.0283773 8:-1 9:-0.393145 10:-0.079156 11:-0.358173 12:0.464176 13:-0.357781 14:-0.723975 15:-1 16:-1 17:-0.954795 18:-0.539948 19:-1 20:-1 21:-1 22:-1 23:-1 24:-1 25:-0.879917 26:-0.586262 27:-1 28:-1 29:-1 30:-1 31:-0.661478 32:-0.877454 33:-0.747569 34:0.244829 35:-0.930692 36:-0.90571 37:0.216463 38:-0.892855 
1 1:-0.539982 2:0.0899499 3:-0.210753 4:-0.944591 5:-0.0434346 6:-0.3988 7:0.457175 8:-0.0067241 9:-0.0447483 10:0.787479 11:-0.134806 12:-0.694646 13:-0.842918 14:-0.941182 15:-0.755329 16:-0.287005 17:-0.853913 18:-0.098356 19:-1 20:-1 21:-0.799709 22:-0.0163887 23:-0.7223 24:-0.493048 25:-1 26:-1 27:-0.900581 28:-0.539416 29:-0.668708 30:-0.632412 31:-0.746051 32:-0.0973574 33:-0.651534 34:0.0100267 35:-0.449181 36:-0.605844 37:0.105374 38:-0.285156 
1 1:-0.605673 2:0.109428 3:-0.25037 4:-0.880051 5:0.0368866 6:-0.403543 7:0.502745 8:-0.0255066 9:0.022038 10:0.727985 11:-0.257847 12:-0.687081 13:-0.724298 14:-0.863131 15:-0.699564 16:-0.365316 17:-0.825269 18:-0.196606 19:-1 20:-1 21:-0.74889 22:-0.03835 23:-0.699827 24:-0.607259 25:-0.904438 26:-0.804759 27:-0.761832 28:-0.763456 29:-0.715515 30:-0.62969 31:-0.542978 32:-0.202682 33:-0.700666 34:0.0608485 35:-0.424168 36:-0.633653 37:-0.132753 38:-0.246984 
1 1:-0.769983 2:0.150015 3:-0.124836 4:-0.922077 5:-0.235201 6:-0.2974 7:0.570926 8:-0.0590654 9:-0.171348 10:0.701112 11:0.142349 12:-0.832633 13:-0.934478 14:-0.965393 15:-0.846206 16:-0.853398 17:-0.768904 18:-0.662101 19:-0.639882 20:-0.698537 21:-0.782955 22:-0.613225 23:-0.560156 24:-0.786185 25:-0.493895 26:-0.789692 27:-0.450017 28:-0.559552 29:-0.296222 30:-0.389334 31:-0.364839 32:-0.436587 33:-0.950514 34:0.109701 35:0.00910208 36:-0.811838 37:0.187833 38:-0.481756 
1 1:-0.64231 2:0.064408 3:-0.295924 4:-0.6984 5:0.203823 6:-0.361177 7:0.559381 8:0.0150534 9:0.0877546 10:0.598875 11:-0.461182 12:-0.62323 13:-0.771743 14:-0.813509 15:-0.866303 16:-0.511171 17:-0.901632 18:-0.6372 19:-0.87351 20:-0.530152 21:-0.755713 22:-0.551654 23:-0.527819 24:-0.466278 25:-0.913726 26:-0.795863 27:-0.361869 28:-0.602666 29:-0.506834 30:-0.737429 31:-0.515309 32:-0.329179 33:-0.792243 34:-0.190966 35:-0.303874 36:-0.526239 37:-0.190917 38:-0.275732 
1 1:-0.64829 2:0.0719643 3:-0.327954 4:-0.494541 5:0.365213 6:-0.311996 7:0.587503 8:0.00636021 9:0.11978 10:0.48193 11:-0.606358 12:-0.554062 13:-0.543902 14:-0.421518 15:-0.748608 16:-0.598131 17:-0.860776 18:-0.384625 19:-0.821486 20:-0.44201 21:-0.882296 22:-0.721125 23:-0.501374 24:-0.663172 25:-0.271299 26:-0.887864 27:-0.742418 28:-0.800207 29:-0.14658 30:-0.656279 31:-0.3445 32:-0.155324 33:-0.733217 34:-0.26176 35:-0.296407 36:-0.297809 37:-0.570851 38:-0.161274 
1 1:-0.774378 2:0.0945171 3:-0.339593 4:-0.912111 5:-0.219268 6:-0.539681 7:0.543274 8:-0.0112834 9:0.230494 10:0.698947 11:0.174563 12:-0.746028 13:-0.864298 14:-0.748876 15:-0.713772 16:-0.526462 17:-1 18:-1 19:-0.730419 20:-0.422295 21:-0.719887 22:-0.575769 23:-0.754717 24:-0.666996 25:-0.760701 26:-0.540593 27:-1 28:-1 29:-0.60366 30:-0.415953 31:-1 32:-1 33:-0.871451 34:0.14611 35:-0.456164 36:-0.819681 37:0.118747 38:-0.449999 
1 1:-0.752414 2:0.0959965 3:-0.292896 4:-0.932755 5:-0.1829 6:-0.548542 7:0.528369 8:-0.0132163 9:0.130154 10:0.732498 11:0.103697 12:-0.742409 13:-0.943775 14:-0.99277 15:-0.795364 16:-0.381006 17:-1 18:-1 19:-0.846567 20:-0.286438 21:-0.86787 22:-0.62486 23:-0.599349 24:-0.647528 25:-0.845618 26:-0.580029 27:-1 28:-1 29:-0.803772 30:-0.505617 31:-0.637634 32:-0.775107 33:-0.806074 34:0.146175 35:-0.257718 36:-0.80274 37:0.118975 38:-0.568363 
1 1:-0.64829 2:0.0719643 3:-0.327954 4:-0.494541 5:0.365213 6:-0.311996 7:0.587503 8:0.00636021 9:0.11978 10:0.48193 11:-0.606358 12:-0.554062 13:-0.543902 14:-0.421518 15:-0.748608 16:-0.598131 17:-0.860776 18:-0.384625 19:-0.821486 20:-0.44201 21:-0.882296 22:-0.721125 23:-0.501374 24:-0.663172 25:-0.271299 26:-0.887864 27:-0.742418 28:-0.800207 29:-0.14658 30:-0.656279 31:-0.3445 32:-0.155324 33:-0.733217 34:-0.26176 35:-0.296407 36:-0.297809 37:-0.570851 38:-0.161274 
1 1:-0.747758 2:0.0932531 3:-0.0802552 4:-0.960934 5:-0.0438521 6:-0.296905 7:0.543706 8:-0.00997737 9:-0.239085 10:0.720022 11:-0.120184 12:-0.845324 13:-0.958316 14:-0.617476 15:-0.8809 16:-0.668329 17:-1 18:-1 19:-0.97277 20:-0.392458 21:-0.873966 22:-0.744463 23:-0.93546 24:-0.835342 25:-0.813268 26:-0.745951 27:-1 28:-1 29:-0.924284 30:-0.908967 31:-0.520921 32:-0.438068 33:-0.785665 34:0.386786 35:-0.132399 36:-0.778906 37:0.270965 38:-0.524899 
1 1:-0.852232 2:0.132909 3:-0.209702 4:-0.907072 5:-0.122924 6:-0.483164 7:0.609273 8:-0.0560512 9:-0.0538434 10:0.679822 11:-0.0171905 12:-0.817256 13:-0.638694 14:-0.824105 15:-0.835551 16:-0.707321 17:-0.836602 18:-0.764814 19:-0.885689 20:-0.660397 21:-0.855969 22:-0.777152 23:-1 24:-1 25:-0.684796 26:-0.393743 27:-1 28:-1 29:-0.771858 30:-0.511308 31:-0.721561 32:-0.98944 33:-0.874684 34:0.165016 35:-0.308051 36:-0.819085 37:0.110011 38:-0.594293 
1 1:-0.765515 2:0.147333 3:-0.323486 4:-0.875717 5:-0.251402 6:-0.583851 7:0.544693 8:-0.083363 9:0.210516 10:0.673029 11:0.256989 12:-0.682686 13:-0.755145 14:-0.818579 15:-0.694382 16:-0.568563 17:-0.719361 18:-0.732082 19:-0.837527 20:-0.587933 21:-0.933917 22:-0.815559 23:-0.557373 24:-0.574085 25:-0.700692 26:-0.675456 27:-1 28:-1 29:-0.415644 30:-0.581812 31:-1 32:-1 33:-0.833121 34:0.199998 35:-0.493398 36:-0.672002 37:0.413009 38:-0.557949 
1 1:-0.681559 2:0.145406 3:-0.173876 4:-0.889261 5:-0.201381 6:-0.334745 7:0.551831 8:-0.0565193 9:-0.0999347 10:0.718229 11:0.0989433 12:-0.757834 13:-0.791491 14:-0.732271 15:-0.69469 16:-0.608188 17:-0.587755 18:-0.59297 19:-0.667286 20:-0.623287 21:-0.533083 22:-0.759882 23:-0.539888 24:-0.602722 25:-0.569947 26:-0.732773 27:-0.490979 28:-0.570848 29:-0.356759 30:-0.245422 31:-0.553515 32:0.00677668 33:-0.905505 34:0.118629 35:-0.150137 36:-0.62461 37:0.210416 38:-0.543496 
1 1:-0.807823 2:0.00675036 3:-0.108942 4:-0.811852 5:-0.239482 6:-0.49406 7:0.612326 8:0.0889103 9:-0.253931 10:0.622365 11:0.194132 12:-0.711555 13:-0.758835 14:-0.961608 15:-0.617415 16:-0.688261 17:-0.951435 18:-0.603259 19:-0.717033 20:-0.473345 21:-0.937735 22:-0.34352 23:-0.706224 24:-0.589298 25:-0.742187 26:-0.853017 27:-0.668141 28:-0.923986 29:-0.827209 30:-0.675409 31:-0.629287 32:-0.906423 33:-0.721426 34:0.14079 35:-0.475006 36:-0.865465 37:0.242601 38:-0.370602 
1 1:-0.595485 2:0.141134 3:-0.0694463 4:-0.845238 5:-0.189545 6:-0.55684 7:0.464851 8:-0.0683355 9:-0.356214 10:0.710653 11:0.111084 12:-0.56249 13:-0.582168 14:-0.881533 15:-0.802145 16:-0.514222 17:-0.717882 18:-0.557239 19:-0.751751 20:-0.423254 21:-0.803739 22:-0.741874 23:-0.324075 24:-0.424123 25:-0.788464 26:-0.807076 27:-0.216901 28:-0.746764 29:-1 30:-1 31:-0.876899 32:-0.629672 33:-0.815144 34:-0.00222685 35:-0.51912 36:-0.699366 37:0.456523 38:-0.340822 
1 1:-0.758323 2:0.125185 3:-0.096416 4:-0.883518 5:-0.0888934 6:-0.561629 7:0.543733 8:-0.0513571 9:-0.317574 10:0.684797 11:-0.09022 12:-0.698139 13:-0.671246 14:-0.745589 15:-0.777068 16:-0.540856 17:-0.845813 18:-0.664539 19:-0.645463 20:-0.453604 21:-0.842867 22:-0.677387 23:-0.608896 24:-0.241419 25:-0.83278 26:-0.890002 27:-0.416925 28:-0.689632 29:-1 30:-1 31:-0.677127 32:-0.667412 33:-0.841739 34:0.238706 35:-0.443607 36:-0.808211 37:0.251051 38:-0.449055 
1 1:-0.774378 2:0.0945171 3:-0.339593 4:-0.912111 5:-0.219268 6:-0.539681 7:0.543274 8:-0.0112834 9:0.230494 10:0.698947 11:0.174563 12:-0.746028 13:-0.864298 14:-0.748876 15:-0.713772 16:-0.526462 17:-1 18:-1 19:-0.730419 20:-0.422295 21:-0.719887 22:-0.575769 23:-0.754717 24:-0.666996 25:-0.760701 26:-0.540593 27:-1 28:-1 29:-0.60366 30:-0.415953 31:-1 32:-1 33:-0.871451 34:0.14611 35:-0.456164 36:-0.819681 37:0.118747 38:-0.449999 
1 1:-0.832547 2:0.0711671 3:-0.210724 4:-0.933402 5:-0.0686475 6:-0.468827 7:0.58446 8:0.0153979 9:-0.0508129 10:0.699351 11:-0.114765 12:-0.830069 13:-1 14:-1 15:-0.908548 16:-0.676624 17:-1 18:-1 19:-0.893199 20:-0.501152 21:-0.853733 22:-0.495808 23:-1 24:-1 25:-0.779605 26:-0.842987 27:-1 28:-1 29:-0.740566 30:-0.851458 31:-0.46946 32:-0.782425 33:-0.853981 34:0.258223 35:-0.295618 36:-0.90456 37:0.288053 38:-0.437853 
1 1:-0.787681 2:0.043328 3:-0.220291 4:-0.856252 5:-0.253836 6:-0.500657 7:0.59009 8:0.0485231 9:-0.0322185 10:0.664543 11:0.225102 12:-0.728341 13:-0.74447 14:-0.580229 15:-0.510066 16:-0.816932 17:-0.710233 18:-0.882999 19:-0.356589 20:-0.684551 21:-0.0863613 22:-0.772996 23:-0.317312 24:-0.564663 25:-0.263954 26:-0.745034 27:-0.658104 28:-0.632434 29:-0.688733 30:-0.805922 31:-0.801391 32:-0.575009 33:-0.881518 34:-0.0399475 35:-0.405171 36:-0.872989 37:0.114275 38:-0.457267 
1 1:-0.84912 2:0.0541201 3:-0.174229 4:-0.895317 5:-0.149714 6:-0.532272 7:0.608562 8:0.0401378 9:-0.136601 10:0.671134 11:0.0349291 12:-0.786863 13:-0.850106 14:-0.905882 15:-0.778143 16:-0.874156 17:-0.775997 18:-0.658973 19:-0.618625 20:-0.843152 21:-0.713645 22:-0.684021 23:-0.661322 24:-0.933352 25:-0.596412 26:-0.759817 27:-1 28:-1 29:-0.484882 30:-0.793389 31:-0.77339 32:-0.798254 33:-0.917203 34:0.223377 35:-0.416954 36:-0.931865 37:0.199489 38:-0.462907 
1 1:-0.769451 2:0.0982667 3:-0.215219 4:-0.859405 5:-0.241003 6:-0.554212 7:0.573837 8:-0.0161175 9:-0.0456982 10:0.673331 11:0.22147 12:-0.688738 13:-0.935714 14:-0.810558 15:-0.956032 16:-0.726811 17:-0.642412 18:-0.538444 19:-0.927487 20:-0.665758 21:-0.416221 22:-0.705589 23:-0.893971 24:-0.573541 25:-0.243417 26:-0.673762 27:-0.872159 28:-0.568427 29:-0.624828 30:-0.618002 31:-0.793875 32:-0.699096 33:-0.846863 34:0.18925 35:-0.353098 36:-0.774724 37:0.0224147 38:-0.545666 
1 1:-0.754857 2:0.0686024 3:-0.173999 4:-0.810435 5:-0.277515 6:-0.347137 7:0.603766 8:0.0122988 9:-0.100705 10:0.655598 11:0.208932 12:-0.743193 13:-0.773868 14:-0.717402 15:-0.415232 16:-0.581445 17:-0.59481 18:-0.585807 19:-0.609331 20:-0.598633 21:-0.677203 22:-0.508346 23:-0.605408 24:-0.490941 25:-0.717666 26:-0.558689 27:-0.690861 28:-0.440469 29:-0.486881 30:-0.367915 31:-0.134144 32:-0.340972 33:-0.901292 34:0.0109955 35:-0.430835 36:-0.678873 37:0.00868752 38:-0.222075 
1 1:-0.788308 2:0.103963 3:-0.243621 4:-0.924572 5:-0.177698 6:-0.262716 7:0.587275 8:-0.018916 9:0.00754883 10:0.703876 11:0.0612852 12:-0.849895 13:-0.795886 14:-0.853355 15:-0.826213 16:-0.838365 17:-0.692821 18:-0.637517 19:-0.741766 20:-0.625136 21:-0.708735 22:-0.629948 23:-0.451589 24:-0.638303 25:-0.668818 26:-0.813995 27:-0.878793 28:-0.809175 29:-0.684064 30:-0.484459 31:-0.765024 32:-0.275425 33:-0.914042 34:0.116807 35:-0.181572 36:-0.687053 37:0.167172 38:-0.587543 
1 1:-0.765529 2:0.0627618 3:-0.283212 4:-0.856711 5:-0.0528519 6:-0.219389 7:0.603279 8:0.0136363 9:0.0600143 10:0.680063 11:-0.0962471 12:-0.81115 13:-0.786154 14:-0.609761 15:-0.505624 16:-0.510994 17:-0.74007 18:-0.692172 19:-0.662614 20:-0.579904 21:-0.594809 22:-0.642651 23:-0.551373 24:-0.65648 25:-1 26:-1 27:-0.535836 28:-0.589211 29:-1 30:-1 31:-0.508046 32:-0.342498 33:-0.816093 34:0.0605246 35:-0.404149 36:-0.781663 37:0.0850244 38:-0.335189 
1 1:-0.752414 2:0.0959965 3:-0.292896 4:-0.932755 5:-0.1829 6:-0.548542 7:0.528369 8:-0.0132163 9:0.130154 10:0.732498 11:0.103697 12:-0.742409 13:-0.943775 14:-0.99277 15:-0.795364 16:-0.381006 17:-1 18:-1 19:-0.846567 20:-0.286438 21:-0.86787 22:-0.62486 23:-0.599349 24:-0.647528 25:-0.845618 26:-0.580029 27:-1 28:-1 29:-0.803772 30:-0.505617 31:-0.637634 32:-0.775107 33:-0.806074 34:0.146175 35:-0.257718 36:-0.80274 37:0.118975 38:-0.568363 
1 1:-0.750295 2:0.0655992 3:-0.132583 4:-0.893346 5:-0.136191 6:-0.455646 7:0.562509 8:0.020155 9:-0.197026 10:0.702529 11:0.00715352 12:-0.753044 13:-0.906925 14:-0.763193 15:-0.711283 16:-0.622467 17:-1 18:-1 19:-0.787753 20:-0.426387 21:-0.867871 22:-0.455551 23:-0.908009 24:-0.966312 25:-0.5006 26:-0.756482 27:-1 28:-1 29:-0.748144 30:-0.799239 31:-0.11627 32:-0.40436 33:-0.86704 34:0.221054 35:-0.569049 36:-0.776101 37:0.115795 38:-0.0220799 
1 1:-0.813439 2:0.0571443 3:-0.209506 4:-0.917699 5:-0.222269 6:-0.432311 7:0.584334 8:0.0285497 9:-0.0504609 10:0.69464 11:0.152168 12:-0.81745 13:-0.886403 14:-0.739415 15:-0.673111 16:-0.757996 17:-0.793547 18:-0.699692 19:-0.825301 20:-0.728095 21:-0.761039 22:-0.716752 23:-0.790755 24:-0.793321 25:-0.545603 26:-0.719037 27:-0.601442 28:-0.452786 29:-0.599818 30:-0.890014 31:-0.552952 32:-0.798367 33:-0.85922 34:0.0300478 35:-0.362558 36:-0.87798 37:0.027024 38:-0.460246 
1 1:-0.846472 2:0.0884355 3:-0.254961 4:-0.798694 5:-0.36122 6:-0.417028 7:0.628569 8:-0.00502719 9:0.0315793 10:0.600863 11:0.365906 12:-0.760214 13:-0.801983 14:-0.910625 15:-0.209542 16:-0.739501 17:-0.457361 18:-0.829796 19:-0.630685 20:-0.917564 21:-0.674022 22:-0.81 23:-0.691778 24:-0.783047 25:-0.876156 26:-0.764387 27:-0.795988 28:-0.454419 29:-0.85602 30:-0.753589 31:-0.786984 32:-0.670054 33:-0.920057 34:0.240982 35:-0.508792 36:-0.816494 37:0.0737113 38:-0.439806 
1 1:-0.857191 2:0.0305042 3:-0.161361 4:-0.937513 5:-0.199678 6:-0.840675 7:0.455211 8:0.192953 9:-0.398046 10:0.657625 11:0.335334 12:-0.56838 13:-1 14:-1 15:-0.536601 16:-0.849093 17:-0.304393 18:-0.574616 19:-0.892056 20:-0.88803 21:-0.903703 22:-0.808129 23:-0.924419 24:-0.988516 25:-0.887656 26:-0.882572 27:-0.89076 28:-0.94754 29:-0.886728 30:-0.945386 31:-0.705091 32:-0.77819 33:-0.944198 34:0.118687 35:-0.861391 36:-0.972021 37:0.088717 38:-0.883689 
1 1:-0.630005 2:-0.0186173 3:-0.111268 4:-0.79832 5:-0.198565 6:-0.605442 7:0.496925 8:0.140329 9:-0.290813 10:0.668558 11:0.140371 12:-0.502496 13:-0.663876 14:-0.763299 15:-0.714524 16:-0.678943 17:-0.675469 18:-0.849198 19:-0.119283 20:-0.523591 21:0.256179 22:-0.475397 23:-0.278657 24:-0.43831 25:-0.356787 26:-0.456978 27:-0.712247 28:-0.318067 29:-0.685216 30:-0.328591 31:0.560789 32:-0.592999 33:-0.91344 34:0.00308544 35:-0.119142 36:-0.760761 37:0.0869754 38:-0.627495 
1 1:-0.578108 2:0.0340296 3:-0.073022 4:-0.838725 5:-0.191511 6:-0.432262 7:0.500706 8:0.0488456 9:-0.284596 10:0.714579 11:0.0938975 12:-0.631643 13:-0.770708 14:-0.924211 15:-0.644111 16:-0.558201 17:-1 18:-1 19:-0.545657 20:-0.404785 21:-0.927634 22:-0.343712 23:-0.803188 24:-0.545685 25:-0.533705 26:-0.745821 27:-1 28:-1 29:-0.232013 30:-0.403278 31:-0.216819 32:-0.407975 33:-0.767838 34:0.117159 35:-0.250008 36:-0.645347 37:0.259675 38:-0.531868 
1 1:-0.998894 2:0.155927 3:-0.232731 4:0.931155 5:-0.121934 6:-0.566052 7:1 8:-0.0599445 9:-0.00846339 10:-0.359195 11:-0.0115834 12:0.121327 13:-0.882593 14:0.990252 15:-0.914233 16:0.675364 17:-0.948807 18:0.438683 19:-0.89747 20:1 21:-0.926784 22:0.686954 23:-0.920462 24:0.879878 25:-0.925232 26:0.755993 27:-0.939428 28:0.694901 29:-0.940079 30:0.439947 31:-0.917462 32:0.469511 33:0.547146 34:-0.0184913 35:-0.446338 36:0.734065 37:-0.060587 38:-0.478814 
1 1:-0.999903 2:0.131828 3:-0.236857 4:0.231838 5:-0.255866 6:-0.568154 7:0.980973 8:-0.0477031 9:-0.000577344 10:-0.0820393 11:0.192872 12:-0.119826 13:-0.920879 14:-0.0350763 15:-0.906495 16:0.346026 17:-0.916173 18:0.344306 19:-0.912857 20:0.134577 21:-0.951839 22:-0.288876 23:-0.921051 24:0.209011 25:-0.909071 26:0.444998 27:-0.953083 28:-0.0312601 29:-0.93126 30:0.111206 31:-0.93166 32:-0.125072 33:-0.144603 34:0.485818 35:-0.621042 36:-0.0546282 37:0.497669 38:-0.455661 
1 1:-0.802623 2:0.176957 3:-0.315743 4:-0.926745 5:-0.169909 6:-0.677697 7:0.520874 8:-0.15641 9:0.250914 10:0.705926 11:0.102814 12:-0.694343 13:-0.819158 14:-0.798314 15:-1 16:-1 17:-0.849633 18:-0.516458 19:-1 20:-1 21:-0.894529 22:-0.63231 23:-0.995102 24:-0.66252 25:-1 26:-1 27:-0.853479 28:-0.310742 29:-1 30:-1 31:-1 32:-1 33:-0.90328 34:0.148449 35:-0.775689 36:-0.69608 37:0.165331 38:-0.644284 
1 1:-0.871525 2:0.115815 3:-0.246393 4:-0.898318 5:-0.104056 6:-0.550332 7:0.621132 8:-0.0396198 9:0.0256463 10:0.665281 11:-0.0599324 12:-0.798158 13:-0.84614 14:-0.951504 15:-0.734186 16:-0.515781 17:-1 18:-1 19:-0.972818 20:-0.500304 21:-1 22:-1 23:-0.859023 24:-0.32143 25:-0.803407 26:-0.834267 27:-1 28:-1 29:-0.279373 30:-0.974475 31:-1 32:-1 33:-0.859282 34:-0.0259428 35:-0.596436 36:-0.885639 37:0.15524 38:-0.368303 
1 1:-0.772055 2:0.12196 3:-0.240635 4:-0.841842 5:0.0166359 6:-0.379511 7:0.596404 8:-0.0372921 9:0.00541833 10:0.663776 11:-0.224286 12:-0.760089 13:-0.831955 14:-0.807072 15:-0.700838 16:-0.422702 17:-0.824562 18:-0.361702 19:-0.722522 20:-0.337603 21:-0.584773 22:-0.359039 23:-0.603474 24:-0.319698 25:-0.757609 26:-0.594671 27:-0.769939 28:-0.48525 29:-0.390271 30:-0.352862 31:-0.273794 32:-0.37517 33:-0.851102 34:0.057501 35:-0.316235 36:-0.756334 37:0.131491 38:-0.325124 
1 1:-0.73068 2:0.0575508 3:-0.179232 4:-0.899254 5:-0.120828 6:-0.47241 7:0.552022 8:0.0299695 9:-0.111272 10:0.71736 11:-0.0198993 12:-0.737635 13:-0.945453 14:-0.690736 15:-0.416661 16:-0.631706 17:-0.414596 18:-0.636092 19:-0.491932 20:-0.580358 21:-0.343292 22:-0.607833 23:-0.913714 24:-0.660749 25:-0.552647 26:-0.608179 27:-0.625026 28:-0.452651 29:-0.57811 30:-0.199222 31:-0.776947 32:-0.548395 33:-0.902615 34:0.122607 35:-0.30958 36:-0.64596 37:0.256409 38:-0.463416 
1 1:-0.73068 2:0.0575508 3:-0.179232 4:-0.899254 5:-0.120828 6:-0.47241 7:0.552022 8:0.0299695 9:-0.111272 10:0.71736 11:-0.0198993 12:-0.737635 13:-0.945453 14:-0.690736 15:-0.416661 16:-0.631706 17:-0.414596 18:-0.636092 19:-0.491932 20:-0.580358 21:-0.343292 22:-0.607833 23:-0.913714 24:-0.660749 25:-0.552647 26:-0.608179 27:-0.625026 28:-0.452651 29:-0.57811 30:-0.199222 31:-0.776947 32:-0.548395 33:-0.902615 34:0.122607 35:-0.30958 36:-0.64596 37:0.256409 38:-0.463416 
1 1:-0.764153 2:0.0758853 3:-0.171238 4:-0.908438 5:-0.16701 6:-0.502716 7:0.55856 8:0.0108426 9:-0.13421 10:0.71142 11:0.0653259 12:-0.752378 13:-0.945265 14:-0.969486 15:-1 16:-1 17:-0.620267 18:-0.582001 19:-1 20:-1 21:-0.634744 22:-0.654576 23:-0.933261 24:-0.796619 25:-0.468501 26:-0.607237 27:-0.818711 28:-0.439994 29:-1 30:-1 31:-0.985527 32:-0.618717 33:-0.91384 34:0.174856 35:-0.387797 36:-0.653878 37:0.200982 38:-0.467625 
1 1:-0.820774 2:0.0601183 3:-0.0592001 4:-0.937363 5:-0.0675685 6:-0.487553 7:0.552161 8:0.0288505 9:-0.360456 10:0.6848 11:-0.119412 12:-0.821219 13:-0.623298 14:-0.665478 15:-0.775512 16:-0.967079 17:-0.790919 18:-0.991963 19:-0.578938 20:-0.952303 21:-0.719189 22:-0.817261 23:-1 24:-1 25:-0.742123 26:-0.977903 27:-1 28:-1 29:-0.893769 30:-0.812417 31:-0.659213 32:-0.652137 33:-0.938205 34:0.234137 35:-0.42014 36:-0.859285 37:0.368393 38:-0.43189 
1 1:-0.734113 2:0.0488107 3:-0.144453 4:-0.876679 5:-0.14726 6:-0.512763 7:0.554561 8:0.0430266 9:-0.190048 10:0.700538 11:0.0282548 12:-0.7028 13:-0.930955 14:-0.704897 15:-0.392371 16:-0.651421 17:-0.432732 18:-0.883402 19:-0.533426 20:-0.703507 21:-0.699081 22:-0.966348 23:-0.696826 24:-0.52453 25:-0.61191 26:-0.67776 27:-0.59577 28:-0.511631 29:-0.565226 30:-0.217585 31:-0.940971 32:-0.899136 33:-0.928264 34:0.199102 35:-0.491826 36:-0.723195 37:0.270594 38:-0.272867 
1 1:-0.77378 2:0.0813661 3:-0.13635 4:-0.826132 5:-0.249901 6:-0.486855 7:0.593752 8:0.00358631 9:-0.196641 10:0.64816 11:0.210079 12:-0.704201 13:-0.999083 14:-0.877761 15:-0.558435 16:-0.583392 17:-1 18:-1 19:-0.445216 20:-0.354351 21:-0.132714 22:-0.632813 23:-0.565942 24:-0.660675 25:-0.526507 26:-0.523236 27:-1 28:-1 29:-0.552274 30:-0.311448 31:-0.639742 32:-0.81259 33:-0.877571 34:0.0326701 35:-0.373326 36:-0.764281 37:0.193702 38:-0.593867 
1 1:-0.664059 2:0.164047 3:-0.186467 4:-0.848261 5:-0.0339121 6:-0.281788 7:0.564885 8:-0.0683272 9:-0.0749967 10:0.701721 11:-0.127098 12:-0.743627 13:-0.71824 14:-0.715719 15:-0.622055 16:-0.520495 17:-0.608743 18:-0.421205 19:-0.616429 20:-0.214441 21:-0.715195 22:-0.27965 23:-0.568299 24:-0.272563 25:-0.385816 26:-0.686361 27:-0.429161 28:-0.810093 29:-0.102301 30:-0.865631 31:0.0417986 32:-0.143776 33:-0.805279 34:0.0550549 35:-0.0764638 36:-0.796515 37:0.112651 38:-0.379268 
1 1:-0.664059 2:0.164047 3:-0.186467 4:-0.848261 5:-0.0339121 6:-0.281788 7:0.564885 8:-0.0683272 9:-0.0749967 10:0.701721 11:-0.127098 12:-0.743627 13:-0.71824 14:-0.715719 15:-0.622055 16:-0.520495 17:-0.608743 18:-0.421205 19:-0.616429 20:-0.214441 21:-0.715195 22:-0.27965 23:-0.568299 24:-0.272563 25:-0.385816 26:-0.686361 27:-0.429161 28:-0.810093 29:-0.102301 30:-0.865631 31:0.0417986 32:-0.143776 33:-0.805279 34:0.0550549 35:-0.0764638 36:-0.796515 37:0.112651 38:-0.379268 
1 1:-0.772055 2:0.12196 3:-0.240635 4:-0.841842 5:0.0166359 6:-0.379511 7:0.596404 8:-0.0372921 9:0.00541833 10:0.663776 11:-0.224286 12:-0.760089 13:-0.831955 14:-0.807072 15:-0.700838 16:-0.422702 17:-0.824562 18:-0.361702 19:-0.722522 20:-0.337603 21:-0.584773 22:-0.359039 23:-0.603474 24:-0.319698 25:-0.757609 26:-0.594671 27:-0.769939 28:-0.48525 29:-0.390271 30:-0.352862 31:-0.273794 32:-0.37517 33:-0.851102 34:0.057501 35:-0.316235 36:-0.756334 37:0.131491 38:-0.325124 
1 1:-0.772055 2:0.12196 3:-0.240635 4:-0.841842 5:0.0166359 6:-0.379511 7:0.596404 8:-0.0372921 9:0.00541833 10:0.663776 11:-0.224286 12:-0.760089 13:-0.831955 14:-0.807072 15:-0.700838 16:-0.422702 17:-0.824562 18:-0.361702 19:-0.722522 20:-0.337603 21:-0.584773 22:-0.359039 23:-0.603474 24:-0.319698 25:-0.757609 26:-0.594671 27:-0.769939 28:-0.48525 29:-0.390271 30:-0.352862 31:-0.273794 32:-0.37517 33:-0.851102 34:0.057501 35:-0.316235 36:-0.756334 37:0.131491 38:-0.325124 
1 1:-0.787681 2:0.043328 3:-0.220291 4:-0.856252 5:-0.253836 6:-0.500657 7:0.59009 8:0.0485231 9:-0.0322185 10:0.664543 11:0.225102 12:-0.728341 13:-0.74447 14:-0.580229 15:-0.510066 16:-0.816932 17:-0.710233 18:-0.882999 19:-0.356589 20:-0.684551 21:-0.0863613 22:-0.772996 23:-0.317312 24:-0.564663 25:-0.263954 26:-0.745034 27:-0.658104 28:-0.632434 29:-0.688733 30:-0.805922 31:-0.801391 32:-0.575009 33:-0.881518 34:-0.0399475 35:-0.405171 36:-0.872989 37:0.114275 38:-0.457267 
1 1:-0.787681 2:0.043328 3:-0.220291 4:-0.856252 5:-0.253836 6:-0.500657 7:0.59009 8:0.0485231 9:-0.0322185 10:0.664543 11:0.225102 12:-0.728341 13:-0.74447 14:-0.580229 15:-0.510066 16:-0.816932 17:-0.710233 18:-0.882999 19:-0.356589 20:-0.684551 21:-0.0863613 22:-0.772996 23:-0.317312 24:-0.564663 25:-0.263954 26:-0.745034 27:-0.658104 28:-0.632434 29:-0.688733 30:-0.805922 31:-0.801391 32:-0.575009 33:-0.881518 34:-0.0399475 35:-0.405171 36:-0.872989 37:0.114275 38:-0.457267 
1 1:-0.852232 2:0.132909 3:-0.209702 4:-0.907072 5:-0.122924 6:-0.483164 7:0.609273 8:-0.0560512 9:-0.0538434 10:0.679822 11:-0.0171905 12:-0.817256 13:-0.638694 14:-0.824105 15:-0.835551 16:-0.707321 17:-0.836602 18:-0.764814 19:-0.885689 20:-0.660397 21:-0.855969 22:-0.777152 23:-1 24:-1 25:-0.684796 26:-0.393743 27:-1 28:-1 29:-0.771858 30:-0.511308 31:-0.721561 32:-0.98944 33:-0.874684 34:0.165016 35:-0.308051 36:-0.819085 37:0.110011 38:-0.594293 
1 1:-0.781835 2:0.109344 3:-0.237024 4:-0.831329 5:-0.213703 6:-0.398228 7:0.611986 8:-0.0257139 9:-0.000252574 10:0.662773 11:0.12775 12:-0.750727 13:-0.788064 14:-0.67934 15:-0.431539 16:-0.672705 17:-1 18:-1 19:-0.502611 20:-0.550342 21:-0.264247 22:-0.825371 23:-0.748764 24:-0.734612 25:-0.760791 26:-0.346575 27:-1 28:-1 29:-0.885125 30:-0.390001 31:-0.861804 32:-0.332546 33:-0.895374 34:0.207826 35:-0.17468 36:-0.662654 37:0.110608 38:-0.283282 
1 1:-0.813439 2:0.0571443 3:-0.209506 4:-0.917699 5:-0.222269 6:-0.432311 7:0.584334 8:0.0285497 9:-0.0504609 10:0.69464 11:0.152168 12:-0.81745 13:-0.886403 14:-0.739415 15:-0.673111 16:-0.757996 17:-0.793547 18:-0.699692 19:-0.825301 20:-0.728095 21:-0.761039 22:-0.716752 23:-0.790755 24:-0.793321 25:-0.545603 26:-0.719037 27:-0.601442 28:-0.452786 29:-0.599818 30:-0.890014 31:-0.552952 32:-0.798367 33:-0.85922 34:0.0300478 35:-0.362558 36:-0.87798 37:0.027024 38:-0.460246 
1 1:-0.813439 2:0.0571443 3:-0.209506 4:-0.917699 5:-0.222269 6:-0.432311 7:0.584334 8:0.0285497 9:-0.0504609 10:0.69464 11:0.152168 12:-0.81745 13:-0.886403 14:-0.739415 15:-0.673111 16:-0.757996 17:-0.793547 18:-0.699692 19:-0.825301 20:-0.728095 21:-0.761039 22:-0.716752 23:-0.790755 24:-0.793321 25:-0.545603 26:-0.719037 27:-0.601442 28:-0.452786 29:-0.599818 30:-0.890014 31:-0.552952 32:-0.798367 33:-0.85922 34:0.0300478 35:-0.362558 36:-0.87798 37:0.027024 38:-0.460246 
1 1:-0.746078 2:0.176431 3:-0.412705 4:-0.869052 5:-0.207864 6:-0.410062 7:0.56015 8:-0.0926107 9:0.305477 10:0.67404 11:0.11995 12:-0.753689 13:-0.762715 14:-0.711849 15:-0.554387 16:-0.587221 17:-0.829423 18:-0.341563 19:-0.754532 20:-0.159439 21:-0.892879 22:-0.381038 23:-0.840681 24:-0.237313 25:-0.731013 26:-0.55736 27:-0.739918 28:-0.515409 29:-0.571754 30:-0.678437 31:-0.360107 32:-0.371976 33:-0.808539 34:0.167285 35:-0.178706 36:-0.811463 37:0.144411 38:-0.465768 
1 1:-0.746078 2:0.176431 3:-0.412705 4:-0.869052 5:-0.207864 6:-0.410062 7:0.56015 8:-0.0926107 9:0.305477 10:0.67404 11:0.11995 12:-0.753689 13:-0.762715 14:-0.711849 15:-0.554387 16:-0.587221 17:-0.829423 18:-0.341563 19:-0.754532 20:-0.159439 21:-0.892879 22:-0.381038 23:-0.840681 24:-0.237313 25:-0.731013 26:-0.55736 27:-0.739918 28:-0.515409 29:-0.571754 30:-0.678437 31:-0.360107 32:-0.371976 33:-0.808539 34:0.167285 35:-0.178706 36:-0.811463 37:0.144411 38:-0.465768 
1 1:-0.680426 2:0.252164 3:-0.339787 4:-0.740647 5:-0.280184 6:-0.34286 7:0.592329 8:-0.148402 9:0.154969 10:0.638212 11:0.205486 12:-0.668713 13:-0.362759 14:-0.65524 15:-0.653875 16:-0.489835 17:-0.777674 18:-0.248685 19:-0.654458 20:-0.0763797 21:-0.474858 22:-0.0106921 23:-0.6481 24:-0.366631 25:-0.492796 26:-0.815194 27:-0.555349 28:-0.581623 29:-0.73893 30:-0.565001 31:-0.252429 32:0.487677 33:-0.705114 34:0.299904 35:-0.205467 36:-0.400855 37:0.449875 38:-0.222542 
1 1:-0.680426 2:0.252164 3:-0.339787 4:-0.740647 5:-0.280184 6:-0.34286 7:0.592329 8:-0.148402 9:0.154969 10:0.638212 11:0.205486 12:-0.668713 13:-0.362759 14:-0.65524 15:-0.653875 16:-0.489835 17:-0.777674 18:-0.248685 19:-0.654458 20:-0.0763797 21:-0.474858 22:-0.0106921 23:-0.6481 24:-0.366631 25:-0.492796 26:-0.815194 27:-0.555349 28:-0.581623 29:-0.73893 30:-0.565001 31:-0.252429 32:0.487677 33:-0.705114 34:0.299904 35:-0.205467 36:-0.400855 37:0.449875 38:-0.222542 
0.7684490293232856 1:-0.800034 2:0.105055 3:-0.183069 4:-0.93354 5:-0.22177 6:-0.500174 7:0.560521 8:-0.0238386 9:-0.110493 10:0.709188 11:0.169582 12:-0.798146 13:-0.970369 14:-0.852428 15:-0.73749 16:-0.82099 17:-0.739378 18:-0.72402 19:-0.715081 20:-0.781644 21:-0.651696 22:-0.899114 23:-0.57665 24:-0.738132 25:-0.895173 26:-0.589679 27:-0.804278 28:-0.73785 29:-0.882211 30:-0.632606 31:-0.884707 32:-0.603769 33:-0.914498 34:0.00162853 35:-0.52679 36:-0.761213 37:0.0427271 38:-0.402023 
1 1:-0.778286 2:0.127217 3:-0.175575 4:-0.844126 5:-0.179567 6:-0.474017 7:0.600284 8:-0.047568 9:-0.118238 10:0.668408 11:0.0837083 12:-0.725301 13:-0.631381 14:-0.775028 15:-0.627133 16:-0.506438 17:-1 18:-1 19:-0.718689 20:-0.518905 21:-0.81683 22:-0.955215 23:-0.825134 24:-0.921975 25:-0.436818 26:-0.789176 27:-1 28:-1 29:-0.207894 30:-0.588471 31:-1 32:-1 33:-0.849325 34:-0.0336175 35:-0.590395 36:-0.912224 37:0.183626 38:-0.386259 
1 1:-0.64231 2:0.064408 3:-0.295924 4:-0.6984 5:0.203823 6:-0.361177 7:0.559381 8:0.0150534 9:0.0877546 10:0.598875 11:-0.461182 12:-0.62323 13:-0.771743 14:-0.813509 15:-0.866303 16:-0.511171 17:-0.901632 18:-0.6372 19:-0.87351 20:-0.530152 21:-0.755713 22:-0.551654 23:-0.527819 24:-0.466278 25:-0.913726 26:-0.795863 27:-0.361869 28:-0.602666 29:-0.506834 30:-0.737429 31:-0.515309 32:-0.329179 33:-0.792243 34:-0.190966 35:-0.303874 36:-0.526239 37:-0.190917 38:-0.275732 
1 1:-0.64231 2:0.064408 3:-0.295924 4:-0.6984 5:0.203823 6:-0.361177 7:0.559381 8:0.0150534 9:0.0877546 10:0.598875 11:-0.461182 12:-0.62323 13:-0.771743 14:-0.813509 15:-0.866303 16:-0.511171 17:-0.901632 18:-0.6372 19:-0.87351 20:-0.530152 21:-0.755713 22:-0.551654 23:-0.527819 24:-0.466278 25:-0.913726 26:-0.795863 27:-0.361869 28:-0.602666 29:-0.506834 30:-0.737429 31:-0.515309 32:-0.329179 33:-0.792243 34:-0.190966 35:-0.303874 36:-0.526239 37:-0.190917 38:-0.275732 
1 1:-0.754857 2:0.0686024 3:-0.173999 4:-0.810435 5:-0.277515 6:-0.347137 7:0.603766 8:0.0122988 9:-0.100705 10:0.655598 11:0.208932 12:-0.743193 13:-0.773868 14:-0.717402 15:-0.415232 16:-0.581445 17:-0.59481 18:-0.585807 19:-0.609331 20:-0.598633 21:-0.677203 22:-0.508346 23:-0.605408 24:-0.490941 25:-0.717666 26:-0.558689 27:-0.690861 28:-0.440469 29:-0.486881 30:-0.367915 31:-0.134144 32:-0.340972 33:-0.901292 34:0.0109955 35:-0.430835 36:-0.678873 37:0.00868752 38:-0.222075 
1 1:-0.754857 2:0.0686024 3:-0.173999 4:-0.810435 5:-0.277515 6:-0.347137 7:0.603766 8:0.0122988 9:-0.100705 10:0.655598 11:0.208932 12:-0.743193 13:-0.773868 14:-0.717402 15:-0.415232 16:-0.581445 17:-0.59481 18:-0.585807 19:-0.609331 20:-0.598633 21:-0.677203 22:-0.508346 23:-0.605408 24:-0.490941 25:-0.717666 26:-0.558689 27:-0.690861 28:-0.440469 29:-0.486881 30:-0.367915 31:-0.134144 32:-0.340972 33:-0.901292 34:0.0109955 35:-0.430835 36:-0.678873 37:0.00868752 38:-0.222075 
1 1:-0.823196 2:0.151491 3:-0.215301 4:-0.858731 5:-0.239979 6:-0.287155 7:0.619382 8:-0.059599 9:-0.0341871 10:0.663491 11:0.146743 12:-0.823249 13:-0.638084 14:-0.705988 15:-0.731029 16:-0.768334 17:-0.766348 18:-0.362679 19:-0.707175 20:-0.271783 21:-0.733554 22:-0.292615 23:-0.81376 24:-0.121851 25:-0.680636 26:-0.142961 27:-0.598438 28:-0.414954 29:-0.388469 30:-0.476351 31:0.250419 32:-0.183049 33:-0.831446 34:0.120613 35:-0.0251764 36:-0.77988 37:0.141073 38:-0.244568 
1 1:-0.62293 2:0.22011 3:-0.292602 4:-0.872479 5:-0.2176 6:-0.395514 7:0.521394 8:-0.131382 9:0.092516 10:0.725512 11:0.130427 12:-0.69411 13:-0.787206 14:-0.832464 15:-0.462452 16:-0.687906 17:-1 18:-1 19:-0.514046 20:-0.848683 21:-0.887066 22:-0.804385 23:-0.834425 24:-0.724561 25:-0.772579 26:-0.303263 27:-1 28:-1 29:-0.959479 30:-0.111293 31:-0.880471 32:-0.472159 33:-0.911894 34:0.238919 35:-0.10352 36:-0.165567 37:0.037173 38:-0.532549 
1 1:-0.64829 2:0.0719643 3:-0.327954 4:-0.494541 5:0.365213 6:-0.311996 7:0.587503 8:0.00636021 9:0.11978 10:0.48193 11:-0.606358 12:-0.554062 13:-0.543902 14:-0.421518 15:-0.748608 16:-0.598131 17:-0.860776 18:-0.384625 19:-0.821486 20:-0.44201 21:-0.882296 22:-0.721125 23:-0.501374 24:-0.663172 25:-0.271299 26:-0.887864 27:-0.742418 28:-0.800207 29:-0.14658 30:-0.656279 31:-0.3445 32:-0.155324 33:-0.733217 34:-0.26176 35:-0.296407 36:-0.297809 37:-0.570851 38:-0.161274 
1 1:-0.765515 2:0.147333 3:-0.323486 4:-0.875717 5:-0.251402 6:-0.583851 7:0.544693 8:-0.083363 9:0.210516 10:0.673029 11:0.256989 12:-0.682686 13:-0.755145 14:-0.818579 15:-0.694382 16:-0.568563 17:-0.719361 18:-0.732082 19:-0.837527 20:-0.587933 21:-0.933917 22:-0.815559 23:-0.557373 24:-0.574085 25:-0.700692 26:-0.675456 27:-1 28:-1 29:-0.415644 30:-0.581812 31:-1 32:-1 33:-0.833121 34:0.199998 35:-0.493398 36:-0.672002 37:0.413009 38:-0.557949 
1 1:-0.774378 2:0.0945171 3:-0.339593 4:-0.912111 5:-0.219268 6:-0.539681 7:0.543274 8:-0.0112834 9:0.230494 10:0.698947 11:0.174563 12:-0.746028 13:-0.864298 14:-0.748876 15:-0.713772 16:-0.526462 17:-1 18:-1 19:-0.730419 20:-0.422295 21:-0.719887 22:-0.575769 23:-0.754717 24:-0.666996 25:-0.760701 26:-0.540593 27:-1 28:-1 29:-0.60366 30:-0.415953 31:-1 32:-1 33:-0.871451 34:0.14611 35:-0.456164 36:-0.819681 37:0.118747 38:-0.449999 
1 1:-0.7868 2:0.0863836 3:-0.204797 4:-0.882241 5:-0.099151 6:-0.463703 7:0.589831 8:-0.00220047 9:-0.0611409 10:0.689223 11:-0.0577598 12:-0.763268 13:-0.753306 14:-0.709063 15:-0.425499 16:-0.518717 17:-1 18:-1 19:-0.427265 20:-0.650872 21:-0.532011 22:-0.523047 23:-1 24:-1 25:-0.630085 26:-0.543526 27:-1 28:-1 29:-0.661747 30:-0.277939 31:-0.558915 32:-0.349403 33:-0.896604 34:0.133095 35:-0.216078 36:-0.718207 37:0.228293 38:-0.571166 
1 1:-0.692737 2:-0.0565494 3:-0.39294 4:-0.859017 5:-0.012063 6:-0.420439 7:0.535428 8:0.139359 9:0.271569 10:0.681365 11:-0.189139 12:-0.713801 13:-0.610942 14:-0.783512 15:-0.769103 16:-0.341665 17:-0.793757 18:-0.26464 19:-0.593598 20:-0.109893 21:-0.78664 22:-0.0543215 23:-0.754702 24:-0.196094 25:-0.770531 26:-0.55201 27:-0.796617 28:-0.557253 29:-0.6499 30:-0.582341 31:-0.462371 32:0.217909 33:-0.729737 34:0.0722373 35:-0.328684 36:-0.681573 37:0.156939 38:-0.294322 
1 1:-0.765637 2:0.083224 3:-0.312339 4:-0.753497 5:-0.0862635 6:-0.332909 7:0.635506 8:-0.00115136 9:0.114296 10:0.633407 11:-0.0629571 12:-0.719218 13:-0.442818 14:-0.672439 15:-0.37261 16:-0.57124 17:-0.502267 18:-0.22914 19:-0.376132 20:-0.42207 21:-0.405401 22:0.00417206 23:-0.554814 24:-0.354798 25:-0.588005 26:-0.588008 27:-0.620715 28:-0.576979 29:-0.522469 30:-0.494029 31:0.458735 32:0.336487 33:-0.802528 34:-0.0336309 35:-0.222524 36:-0.698911 37:0.0852486 38:-0.39268 
1 1:-0.746078 2:0.176431 3:-0.412705 4:-0.869052 5:-0.207864 6:-0.410062 7:0.56015 8:-0.0926107 9:0.305477 10:0.67404 11:0.11995 12:-0.753689 13:-0.762715 14:-0.711849 15:-0.554387 16:-0.587221 17:-0.829423 18:-0.341563 19:-0.754532 20:-0.159439 21:-0.892879 22:-0.381038 23:-0.840681 24:-0.237313 25:-0.731013 26:-0.55736 27:-0.739918 28:-0.515409 29:-0.571754 30:-0.678437 31:-0.360107 32:-0.371976 33:-0.808539 34:0.167285 35:-0.178706 36:-0.811463 37:0.144411 38:-0.465768 
1 1:-0.752414 2:0.0959965 3:-0.292896 4:-0.932755 5:-0.1829 6:-0.548542 7:0.528369 8:-0.0132163 9:0.130154 10:0.732498 11:0.103697 12:-0.742409 13:-0.943775 14:-0.99277 15:-0.795364 16:-0.381006 17:-1 18:-1 19:-0.846567 20:-0.286438 21:-0.86787 22:-0.62486 23:-0.599349 24:-0.647528 25:-0.845618 26:-0.580029 27:-1 28:-1 29:-0.803772 30:-0.505617 31:-0.637634 32:-0.775107 33:-0.806074 34:0.146175 35:-0.257718 36:-0.80274 37:0.118975 38:-0.568363 
1 1:-0.799459 2:0.0693876 3:-0.0377476 4:-0.954779 5:-0.082712 6:-0.588232 7:0.495805 8:0.0240933 9:-0.486844 10:0.694146 11:-0.111635 12:-0.781994 13:-0.769677 14:-0.680803 15:-0.860678 16:-0.958471 17:-0.696887 18:-0.804747 19:-0.760224 20:-0.944677 21:-0.656066 22:-0.746844 23:-1 24:-1 25:-0.757774 26:-0.886827 27:-1 28:-1 29:-0.759834 30:-0.820512 31:-1 32:-1 33:-0.915733 34:0.294586 35:-0.52716 36:-0.797067 37:0.489449 38:-0.245993 
1 1:-0.819808 2:0.155264 3:-0.232761 4:-0.795382 5:-0.332479 6:-0.493566 7:0.61847 8:-0.0801182 9:-0.00690941 10:0.601511 11:0.360293 12:-0.707827 13:-0.691256 14:-0.788073 15:-0.355519 16:-0.705343 17:-1 18:-1 19:0.0141645 20:-0.807291 21:-1 22:-1 23:-0.7586 24:-0.816613 25:-0.922951 26:-0.469879 27:-0.937551 28:-0.812162 29:-1 30:-1 31:-0.646356 32:-0.748525 33:-0.934672 34:0.226241 35:-0.392649 36:-0.804028 37:0.340848 38:-0.176337 
1 1:-0.783326 2:0.0786511 3:-0.245427 4:-0.928916 5:-0.117873 6:-0.393344 7:0.573993 8:0.00470009 9:0.0146022 10:0.713293 11:-0.0220638 12:-0.818872 13:-0.869013 14:-0.944418 15:-0.665233 16:-0.576243 17:-1 18:-1 19:-0.497248 20:-0.553676 21:-0.614515 22:-0.538567 23:-1 24:-1 25:-0.844381 26:-0.387196 27:-1 28:-1 29:-0.979142 30:-0.479932 31:-0.837755 32:-0.357668 33:-0.894621 34:0.0803297 35:-0.192286 36:-0.687134 37:0.098917 38:-0.44541 
1 1:-0.680426 2:0.252164 3:-0.339787 4:-0.740647 5:-0.280184 6:-0.34286 7:0.592329 8:-0.148402 9:0.154969 10:0.638212 11:0.205486 12:-0.668713 13:-0.362759 14:-0.65524 15:-0.653875 16:-0.489835 17:-0.777674 18:-0.248685 19:-0.654458 20:-0.0763797 21:-0.474858 22:-0.0106921 23:-0.6481 24:-0.366631 25:-0.492796 26:-0.815194 27:-0.555349 28:-0.581623 29:-0.73893 30:-0.565001 31:-0.252429 32:0.487677 33:-0.705114 34:0.299904 35:-0.205467 36:-0.400855 37:0.449875 38:-0.222542 
1 1:-0.810423 2:0.113752 3:-0.282362 4:-0.887654 5:-0.263725 6:-0.365872 7:0.596077 8:-0.0294099 9:0.0747767 10:0.675345 11:0.199127 12:-0.814697 13:-0.769312 14:-0.812475 15:-1 16:-1 17:-0.898527 18:-0.888088 19:-0.851975 20:-0.98562 21:-0.784932 22:-0.79241 23:-0.530493 24:-0.608717 25:-1 26:-1 27:-0.943461 28:-0.894139 29:-1 30:-1 31:-0.774341 32:-0.825958 33:-0.863051 34:0.505948 35:0.0199994 36:-0.676033 37:0.61011 38:-0.0674637 
1 1:-0.599115 2:0.137594 3:-0.23455 4:-0.954431 5:-0.130086 6:-0.381315 7:0.486159 8:-0.0521706 9:-0.00473792 10:0.778412 11:-0.00240512 12:-0.73889 13:-0.888057 14:-0.989485 15:-0.57697 16:-0.46696 17:-1 18:-1 19:-0.697958 20:-0.631814 21:-0.692294 22:-0.602036 23:-1 24:-1 25:-0.838202 26:-0.495357 27:-1 28:-1 29:-0.896673 30:-0.0841276 31:-0.783818 32:-0.0288524 33:-0.888723 34:0.182568 35:-0.282869 36:-0.315573 37:0.0308859 38:-0.555136 
1 1:-0.701136 2:0.110716 3:-0.362149 4:-0.854598 5:-0.169369 6:-0.378172 7:0.563193 8:-0.0263903 9:0.205665 10:0.692677 11:0.0564074 12:-0.731131 13:-0.815055 14:-0.655226 15:-0.705816 16:-0.49894 17:-0.751719 18:-0.369874 19:-0.698711 20:-0.321504 21:-0.526832 22:-0.252709 23:-0.721773 24:-0.341016 25:-0.748437 26:-0.429929 27:-0.59434 28:-0.471948 29:-0.198792 30:-0.5111 31:-0.186708 32:-0.37604 33:-0.778679 34:0.272078 35:-0.234057 36:-0.72044 37:0.317116 38:-0.350526 
1 1:-0.793889 2:0.188283 3:-0.504275 4:-0.913357 5:-0.358167 6:-0.29643 7:0.540919 8:-0.0907661 9:0.39546 10:0.649661 11:0.305715 12:-0.842482 13:-0.749416 14:-0.606894 15:-0.616579 16:-0.688558 17:-0.805007 18:-0.952351 19:-0.896326 20:-0.68152 21:-0.972348 22:-0.895236 23:-0.899847 24:-0.861675 25:-1 26:-1 27:-0.763358 28:-0.719982 29:-1 30:-1 31:-0.681928 32:-0.42772 33:-0.886411 34:0.292082 35:-0.279623 36:-0.611079 37:0.664861 38:-0.172473 
1 1:-0.638405 2:0.108056 3:-0.00424867 4:-0.94038 5:-0.116165 6:-0.425291 7:0.471165 8:-0.024822 9:-0.411129 10:0.736555 11:-0.0251052 12:-0.736566 13:-0.839854 14:-0.877531 15:-0.698651 16:-0.57001 17:-1 18:-1 19:-0.687194 20:-0.658753 21:-0.87568 22:-0.83116 23:-0.680079 24:-0.712717 25:-0.763679 26:-0.416366 27:-1 28:-1 29:-0.665402 30:-0.120992 31:-0.791717 32:-0.608737 33:-0.904382 34:0.139887 35:-0.210192 36:-0.442269 37:0.534064 38:-0.237877 
1 1:-0.717931 2:0.183636 3:-0.273202 4:-0.832132 5:-0.247795 6:-0.356064 7:0.582659 8:-0.0924731 9:0.0566858 10:0.678594 11:0.168293 12:-0.734184 13:-0.693909 14:-0.748765 15:-0.843702 16:-0.450605 17:-0.855671 18:-0.378444 19:-0.727253 20:-0.299343 21:-0.640339 22:-0.0247689 23:-0.70962 24:0.0195714 25:-0.878697 26:-0.569423 27:-0.643841 28:-0.693614 29:-0.263849 30:-0.899455 31:-0.443248 32:-0.191739 33:-0.730394 34:0.174414 35:-0.175639 36:-0.735735 37:0.0341434 38:-0.456055 
1 1:-0.835332 2:0.129456 3:-0.248169 4:-0.908852 5:-0.144157 6:-0.288642 7:0.609406 8:-0.0412816 9:0.0151853 10:0.685149 11:0.017515 12:-0.858507 13:-0.746476 14:-0.817123 15:-0.871997 16:-0.513512 17:-0.848984 18:-0.463222 19:-0.839463 20:-0.456676 21:-0.873449 22:-0.388999 23:-0.81499 24:-0.240698 25:-0.799633 26:-0.604568 27:-0.762928 28:-0.445073 29:-0.636385 30:-0.662694 31:-0.350247 32:-0.585364 33:-0.850886 34:0.223013 35:-0.156793 36:-0.848572 37:0.130918 38:-0.266678 
1 1:-0.676891 2:0.0767167 3:-0.228738 4:-0.925437 5:-0.14069 6:-0.383408 7:0.531619 8:0.00603786 9:-0.0144544 10:0.743332 11:0.0137253 12:-0.760755 13:-0.688493 14:-0.640873 15:-0.590622 16:-0.44492 17:-0.586348 18:-0.434355 19:-0.517469 20:-0.366104 21:-0.497626 22:-0.405546 23:-0.449871 24:-0.248175 25:-0.849241 26:-0.382428 27:-0.817046 28:-0.336045 29:-0.517359 30:-0.112479 31:-0.438704 32:-0.0835049 33:-0.87513 34:0.0397035 35:-0.20093 36:-0.590811 37:0.0860969 38:-0.327185 
1 1:-0.852232 2:0.132909 3:-0.209702 4:-0.907072 5:-0.122924 6:-0.483164 7:0.609273 8:-0.0560512 9:-0.0538434 10:0.679822 11:-0.0171905 12:-0.817256 13:-0.638694 14:-0.824105 15:-0.835551 16:-0.707321 17:-0.836602 18:-0.764814 19:-0.885689 20:-0.660397 21:-0.855969 22:-0.777152 23:-1 24:-1 25:-0.684796 26:-0.393743 27:-1 28:-1 29:-0.771858 30:-0.511308 31:-0.721561 32:-0.98944 33:-0.874684 34:0.165016 35:-0.308051 36:-0.819085 37:0.110011 38:-0.594293 
1 1:-0.795489 2:0.0528902 3:-0.221672 4:-0.95971 5:-0.205691 6:-0.572877 7:0.532086 8:0.0464529 9:-0.0327009 10:0.736221 11:0.160937 12:-0.787192 13:-0.959876 14:-0.905871 15:-1 16:-1 17:-0.883066 18:-0.489739 19:-1 20:-1 21:-0.901378 22:-0.988458 23:-0.865982 24:-0.801331 25:-1 26:-1 27:-0.626092 28:-0.501647 29:-1 30:-1 31:-0.948497 32:-0.827162 33:-0.89083 34:0.167138 35:-0.333487 36:-0.837962 37:0.188163 38:-0.760713 
1 1:-0.71912 2:0.0414569 3:-0.0322506 4:-0.934553 5:-0.126905 6:-0.648543 7:0.426603 8:0.0716145 9:-0.553902 10:0.710201 11:-0.0146646 12:-0.658211 13:-1 14:-1 15:-0.71067 16:-0.752612 17:-1 18:-1 19:-0.556689 20:-0.845884 21:-1 22:-1 23:-0.547145 24:-0.605902 25:-1 26:-1 27:-1 28:-1 29:-0.361519 30:-0.586691 31:-1 32:-1 33:-0.975132 34:0.118888 35:-0.590645 36:-0.676278 37:0.537074 38:-0.291122 
0.6011153476638881 1:-0.729905 2:0.0923409 3:-0.26243 4:-0.893463 5:-0.084786 6:-0.379682 7:0.566665 8:-0.00903058 9:0.0421835 10:0.710464 11:-0.0714869 12:-0.769933 13:-0.780966 14:-0.741625 15:-0.604818 16:-0.541856 17:-0.596675 18:-0.539032 19:-0.509617 20:-0.491753 21:-0.46873 22:-0.50366 23:-0.46576 24:-0.475549 25:-0.820269 26:-0.529974 27:-0.857958 28:-0.409564 29:-0.442141 30:-0.161742 31:-0.493848 32:-0.270326 33:-0.880489 34:0.169522 35:-0.26138 36:-0.649174 37:0.186283 38:-0.303281 
1 1:-0.771651 2:0.0899827 3:-0.383949 4:-0.882419 5:-0.0492731 6:-0.24751 7:0.587254 8:-0.00738944 9:0.204488 10:0.681054 11:-0.104501 12:-0.82211 13:-0.798892 14:-0.707056 15:-0.555978 16:-0.599532 17:-0.746857 18:-0.575111 19:-0.653565 20:-0.56759 21:-0.704661 22:-0.620159 23:-0.550203 24:-0.524603 25:-0.671507 26:-0.666811 27:-0.748397 28:-0.48879 29:-0.499134 30:-0.292171 31:-0.45088 32:-0.44249 33:-0.91263 34:0.13738 35:-0.192885 36:-0.745378 37:0.154631 38:-0.418274 
1 1:-0.822356 2:0.184502 3:-0.195845 4:-0.839163 5:-0.00146555 6:-0.324706 7:0.621425 8:-0.0912219 9:-0.0654984 10:0.650415 11:-0.183572 12:-0.801764 13:-0.715621 14:-0.651768 15:-0.213017 16:-0.819423 17:-0.380081 18:-0.883211 19:-0.239741 20:-0.868654 21:-0.309024 22:-0.872843 23:-0.379825 24:-0.781749 25:-0.590436 26:-0.791881 27:-0.675868 28:-0.890342 29:-0.721642 30:-0.809773 31:0.202529 32:-0.612015 33:-0.948672 34:-0.102793 35:-0.11914 36:-0.8298 37:-0.205088 38:-0.1613 
1 1:-0.790065 2:0.0706428 3:-0.00884839 4:-0.875784 5:-0.364986 6:-0.156444 7:0.580937 8:0.00617315 9:-0.290371 10:0.655755 11:0.267077 12:-0.846283 13:-0.746075 14:-0.906286 15:-0.872098 16:-0.739014 17:-0.71343 18:-0.533961 19:-0.571551 20:-0.78153 21:-0.596368 22:-0.766606 23:-0.810412 24:-0.623835 25:-0.541337 26:-0.906029 27:-0.635475 28:-0.978109 29:-0.775482 30:-0.601175 31:-0.32992 32:-0.46967 33:-0.932527 34:0.00311642 35:-0.132888 36:-0.85962 37:0.166808 38:-0.168896 
1 1:-0.787681 2:0.043328 3:-0.220291 4:-0.856252 5:-0.253835 6:-0.500657 7:0.59009 8:0.0485231 9:-0.0322185 10:0.664543 11:0.225102 12:-0.728341 13:-0.744472 14:-0.580229 15:-0.510066 16:-0.816932 17:-0.710233 18:-0.882998 19:-0.356591 20:-0.68455 21:-0.0863613 22:-0.772996 23:-0.317312 24:-0.564663 25:-0.263954 26:-0.745034 27:-0.658104 28:-0.632434 29:-0.688733 30:-0.805922 31:-0.801391 32:-0.575009 33:-0.881518 34:-0.0399475 35:-0.405171 36:-0.872989 37:0.114275 38:-0.457267 
1 1:-0.800034 2:0.105055 3:-0.183069 4:-0.93354 5:-0.22177 6:-0.500174 7:0.560521 8:-0.0238386 9:-0.110493 10:0.709188 11:0.169582 12:-0.798146 13:-0.970369 14:-0.852428 15:-0.73749 16:-0.82099 17:-0.739378 18:-0.72402 19:-0.715081 20:-0.781644 21:-0.651696 22:-0.899114 23:-0.57665 24:-0.738132 25:-0.895173 26:-0.589679 27:-0.804278 28:-0.73785 29:-0.882211 30:-0.632606 31:-0.884707 32:-0.603769 33:-0.914498 34:0.00162853 35:-0.52679 36:-0.761213 37:0.0427271 38:-0.402023 
1 1:-0.697694 2:0.0858556 3:-0.220728 4:-0.871918 5:-0.217753 6:-0.243993 7:0.57432 8:-0.00415332 9:-0.0251496 10:0.704374 11:0.109148 12:-0.782881 13:-0.874408 14:-0.720159 15:-0.86762 16:-0.663724 17:-0.62743 18:-0.413753 19:-0.541698 20:-0.461583 21:-0.108372 22:-0.311072 23:-0.465885 24:-0.533809 25:-0.600587 26:-0.430944 27:-0.575869 28:-0.384472 29:-0.473526 30:-0.151862 31:-0.642865 32:-0.0854219 33:-0.87042 34:0.148681 35:-0.0534736 36:-0.606906 37:0.0953411 38:-0.501582 
1 1:-0.860634 2:0.117331 3:-0.255761 4:-0.962903 5:-0.215965 6:-0.148432 7:0.600971 8:-0.0278222 9:0.0209677 10:0.694296 11:0.09951 12:-0.920657 13:-0.94534 14:-0.901123 15:-0.894669 16:-0.836479 17:-0.701649 18:-0.66929 19:-0.831508 20:-0.636875 21:-0.880858 22:-0.591397 23:-0.903825 24:-0.829957 25:-0.933433 26:-0.810895 27:-0.949226 28:-0.847628 29:-0.864833 30:-0.858417 31:-0.632815 32:-0.523573 33:-0.91141 34:0.0658814 35:-0.00171505 36:-0.841463 37:0.193673 38:-0.417132 
1 1:-0.769983 2:0.150015 3:-0.124836 4:-0.922077 5:-0.235201 6:-0.2974 7:0.570926 8:-0.0590654 9:-0.171348 10:0.701112 11:0.142349 12:-0.832633 13:-0.934478 14:-0.965393 15:-0.846206 16:-0.853398 17:-0.768904 18:-0.662101 19:-0.639882 20:-0.698537 21:-0.782955 22:-0.613225 23:-0.560156 24:-0.786185 25:-0.493895 26:-0.789692 27:-0.450017 28:-0.559552 29:-0.296222 30:-0.389334 31:-0.364839 32:-0.436587 33:-0.950514 34:0.109701 35:0.00910208 36:-0.811838 37:0.187833 38:-0.481756 
1 1:-0.645479 2:0.107138 3:-0.575253 4:-0.991254 5:-0.200893 6:-0.544522 7:0.340341 8:-0.0266369 9:0.723363 10:0.706596 11:0.1325 12:-0.731424 13:-0.549869 14:-0.834021 15:-1 16:-1 17:-0.805647 18:-0.812283 19:-1 20:-1 21:-0.992842 22:-0.780798 23:-1 24:-1 25:-1 26:-1 27:-0.811404 28:-0.683096 29:-1 30:-1 31:-1 32:-1 33:-0.999175 34:0.0546071 35:-0.206244 36:-1 37:0.101906 38:-0.650828 
1 1:-0.692737 2:-0.0565494 3:-0.39294 4:-0.859017 5:-0.012063 6:-0.420439 7:0.535428 8:0.139359 9:0.271569 10:0.681365 11:-0.189139 12:-0.713801 13:-0.610942 14:-0.783512 15:-0.769103 16:-0.341665 17:-0.793757 18:-0.26464 19:-0.593598 20:-0.109893 21:-0.78664 22:-0.0543215 23:-0.754702 24:-0.196094 25:-0.770531 26:-0.55201 27:-0.796617 28:-0.557253 29:-0.6499 30:-0.582341 31:-0.462371 32:0.217909 33:-0.729737 34:0.0722373 35:-0.328684 36:-0.681573 37:0.156939 38:-0.294322 
1 1:-0.681559 2:0.145406 3:-0.173876 4:-0.889261 5:-0.201381 6:-0.334745 7:0.551831 8:-0.0565193 9:-0.0999347 10:0.718229 11:0.0989433 12:-0.757834 13:-0.791491 14:-0.732271 15:-0.69469 16:-0.608188 17:-0.587755 18:-0.59297 19:-0.667286 20:-0.623287 21:-0.533083 22:-0.759882 23:-0.539888 24:-0.602722 25:-0.569947 26:-0.732773 27:-0.490979 28:-0.570848 29:-0.356759 30:-0.245422 31:-0.553515 32:0.00677668 33:-0.905505 34:0.118629 35:-0.150137 36:-0.62461 37:0.210416 38:-0.543496 
1 1:-0.765515 2:0.147333 3:-0.323486 4:-0.875717 5:-0.251402 6:-0.583851 7:0.544693 8:-0.083363 9:0.210516 10:0.673029 11:0.256989 12:-0.682686 13:-0.755145 14:-0.818579 15:-0.694382 16:-0.568563 17:-0.719361 18:-0.732082 19:-0.837527 20:-0.587933 21:-0.933917 22:-0.815559 23:-0.557373 24:-0.574085 25:-0.700692 26:-0.675456 27:-1 28:-1 29:-0.415644 30:-0.581812 31:-1 32:-1 33:-0.833121 34:0.199998 35:-0.493398 36:-0.672002 37:0.413009 38:-0.557949 
1 1:-0.73068 2:0.0575508 3:-0.179232 4:-0.899254 5:-0.120828 6:-0.47241 7:0.552022 8:0.0299695 9:-0.111272 10:0.71736 11:-0.0198993 12:-0.737635 13:-0.945453 14:-0.690736 15:-0.416661 16:-0.631706 17:-0.414596 18:-0.636092 19:-0.491932 20:-0.580358 21:-0.343292 22:-0.607833 23:-0.913714 24:-0.660749 25:-0.552647 26:-0.608179 27:-0.625026 28:-0.452651 29:-0.57811 30:-0.199222 31:-0.776947 32:-0.548395 33:-0.902615 34:0.122607 35:-0.30958 36:-0.64596 37:0.256409 38:-0.463416 
1 1:-0.734113 2:0.0488107 3:-0.144453 4:-0.876679 5:-0.14726 6:-0.512763 7:0.554561 8:0.0430266 9:-0.190048 10:0.700538 11:0.0282548 12:-0.7028 13:-0.930955 14:-0.704897 15:-0.392371 16:-0.651421 17:-0.432732 18:-0.883402 19:-0.533426 20:-0.703507 21:-0.699081 22:-0.966348 23:-0.696826 24:-0.52453 25:-0.61191 26:-0.67776 27:-0.59577 28:-0.511631 29:-0.565226 30:-0.217585 31:-0.940971 32:-0.899136 33:-0.928264 34:0.199102 35:-0.491826 36:-0.723195 37:0.270594 38:-0.272867 
1 1:-0.539982 2:0.0899499 3:-0.210753 4:-0.944591 5:-0.0434346 6:-0.3988 7:0.457175 8:-0.0067241 9:-0.0447483 10:0.787479 11:-0.134806 12:-0.694646 13:-0.842918 14:-0.941182 15:-0.755329 16:-0.287005 17:-0.853913 18:-0.098356 19:-1 20:-1 21:-0.799709 22:-0.0163887 23:-0.7223 24:-0.493048 25:-1 26:-1 27:-0.900581 28:-0.539416 29:-0.668708 30:-0.632412 31:-0.746051 32:-0.0973574 33:-0.651534 34:0.0100267 35:-0.449181 36:-0.605844 37:0.105374 38:-0.285156 
1 1:-0.887225 2:0.0866775 3:-0.241107 4:-0.898108 5:-0.209022 6:-0.388655 7:0.629645 8:-0.00328626 9:0.00713004 10:0.661089 11:0.122684 12:-0.858638 13:-0.824366 14:-0.964893 15:-0.810754 16:-0.678921 17:-0.529192 18:-0.84431 19:-0.701579 20:-0.912931 21:-0.798029 22:-0.903294 23:-0.719626 24:-0.830729 25:-0.849462 26:-0.783335 27:-0.810926 28:-0.834864 29:-1 30:-1 31:-0.913805 32:-0.868054 33:-0.93418 34:0.222782 35:-0.375702 36:-0.878204 37:-0.151549 38:-0.240742 
1 1:-0.603772 2:0.102119 3:-0.318511 4:-0.96256 5:-0.282532 6:-0.509729 7:0.426589 8:-0.0200763 9:0.16778 10:0.780218 11:0.277415 12:-0.689956 13:-0.736253 14:-0.843949 15:-0.858518 16:-0.79034 17:-1 18:-1 19:-0.924172 20:-0.743438 21:-1 22:-1 23:-0.836207 24:-0.569437 25:-1 26:-1 27:-0.827738 28:-0.601477 29:-1 30:-1 31:-1 32:-1 33:-0.891388 34:-0.162609 35:-0.286118 36:-0.330627 37:0.705976 38:-0.381413 
1 1:-0.605673 2:0.109428 3:-0.25037 4:-0.880051 5:0.0368866 6:-0.403543 7:0.502745 8:-0.0255066 9:0.022038 10:0.727985 11:-0.257847 12:-0.687081 13:-0.724298 14:-0.863131 15:-0.699564 16:-0.365316 17:-0.825269 18:-0.196606 19:-1 20:-1 21:-0.74889 22:-0.03835 23:-0.699827 24:-0.607259 25:-0.904438 26:-0.804759 27:-0.761832 28:-0.763456 29:-0.715515 30:-0.62969 31:-0.542978 32:-0.202682 33:-0.700666 34:0.0608485 35:-0.424168 36:-0.633653 37:-0.132753 38:-0.246984 
1 1:-0.64231 2:0.064408 3:-0.295924 4:-0.6984 5:0.203823 6:-0.361177 7:0.559381 8:0.0150534 9:0.0877546 10:0.598875 11:-0.461182 12:-0.62323 13:-0.771743 14:-0.813509 15:-0.866303 16:-0.511171 17:-0.901632 18:-0.6372 19:-0.87351 20:-0.530152 21:-0.755713 22:-0.551654 23:-0.527819 24:-0.466278 25:-0.913726 26:-0.795863 27:-0.361869 28:-0.602666 29:-0.506834 30:-0.737429 31:-0.515309 32:-0.329179 33:-0.792243 34:-0.190966 35:-0.303874 36:-0.526239 37:-0.190917 38:-0.275732 
1 1:-0.807823 2:0.00675036 3:-0.108942 4:-0.811852 5:-0.239482 6:-0.49406 7:0.612326 8:0.0889103 9:-0.253931 10:0.622365 11:0.194132 12:-0.711555 13:-0.758835 14:-0.961608 15:-0.617415 16:-0.688261 17:-0.951435 18:-0.603259 19:-0.717033 20:-0.473345 21:-0.937735 22:-0.34352 23:-0.706224 24:-0.589298 25:-0.742187 26:-0.853017 27:-0.668141 28:-0.923986 29:-0.827209 30:-0.675409 31:-0.629287 32:-0.906423 33:-0.721426 34:0.14079 35:-0.475006 36:-0.865465 37:0.242601 38:-0.370602 
1 1:-0.64829 2:0.0719643 3:-0.327954 4:-0.494541 5:0.365213 6:-0.311996 7:0.587503 8:0.00636021 9:0.11978 10:0.48193 11:-0.606358 12:-0.554062 13:-0.543902 14:-0.421518 15:-0.748608 16:-0.598131 17:-0.860776 18:-0.384625 19:-0.821486 20:-0.44201 21:-0.882296 22:-0.721125 23:-0.501374 24:-0.663172 25:-0.271299 26:-0.887864 27:-0.742418 28:-0.800207 29:-0.14658 30:-0.656279 31:-0.3445 32:-0.155324 33:-0.733217 34:-0.26176 35:-0.296407 36:-0.297809 37:-0.570851 38:-0.161274 
1 1:-0.774378 2:0.0945171 3:-0.339593 4:-0.912111 5:-0.219268 6:-0.539681 7:0.543274 8:-0.0112834 9:0.230494 10:0.698947 11:0.174563 12:-0.746028 13:-0.864298 14:-0.748876 15:-0.713772 16:-0.526462 17:-1 18:-1 19:-0.730419 20:-0.422295 21:-0.719887 22:-0.575769 23:-0.754717 24:-0.666996 25:-0.760701 26:-0.540593 27:-1 28:-1 29:-0.60366 30:-0.415953 31:-1 32:-1 33:-0.871451 34:0.14611 35:-0.456164 36:-0.819681 37:0.118747 38:-0.449999 
1 1:-0.752414 2:0.0959965 3:-0.292896 4:-0.932755 5:-0.1829 6:-0.548542 7:0.528369 8:-0.0132163 9:0.130154 10:0.732498 11:0.103697 12:-0.742409 13:-0.943775 14:-0.99277 15:-0.795364 16:-0.381006 17:-1 18:-1 19:-0.846567 20:-0.286438 21:-0.86787 22:-0.62486 23:-0.599349 24:-0.647528 25:-0.845618 26:-0.580029 27:-1 28:-1 29:-0.803772 30:-0.505617 31:-0.637634 32:-0.775107 33:-0.806074 34:0.146175 35:-0.257718 36:-0.80274 37:0.118975 38:-0.568363 
1 1:-0.765637 2:0.083224 3:-0.312339 4:-0.753497 5:-0.0862635 6:-0.332909 7:0.635506 8:-0.00115136 9:0.114296 10:0.633407 11:-0.0629571 12:-0.719218 13:-0.442818 14:-0.672439 15:-0.37261 16:-0.57124 17:-0.502267 18:-0.22914 19:-0.376132 20:-0.42207 21:-0.405401 22:0.00417206 23:-0.554814 24:-0.354798 25:-0.588005 26:-0.588008 27:-0.620715 28:-0.576979 29:-0.522469 30:-0.494029 31:0.458735 32:0.336487 33:-0.802528 34:-0.0336309 35:-0.222524 36:-0.698911 37:0.0852486 38:-0.39268 
1 1:-0.713217 2:0.124156 3:-0.350406 4:-0.952754 5:-0.190845 6:-0.433148 7:0.515744 8:-0.0422683 9:0.208605 10:0.740218 11:0.0979896 12:-0.783089 13:-0.647858 14:-0.813025 15:-1 16:-1 17:-0.893549 18:-0.403686 19:-0.676475 20:-0.610531 21:-0.656775 22:-0.244721 23:-0.972894 24:-0.728835 25:-0.744047 26:-0.593485 27:-0.905449 28:-0.885569 29:-0.669875 30:-0.569701 31:-0.85847 32:-0.946098 33:-0.794098 34:0.126435 35:-0.293489 36:-0.80346 37:0.155645 38:-0.381062 
1 1:-0.807823 2:0.00675036 3:-0.108942 4:-0.811852 5:-0.239482 6:-0.49406 7:0.612326 8:0.0889103 9:-0.253931 10:0.622365 11:0.194132 12:-0.711555 13:-0.758835 14:-0.961608 15:-0.617415 16:-0.688261 17:-0.951435 18:-0.603259 19:-0.717033 20:-0.473345 21:-0.937735 22:-0.34352 23:-0.706224 24:-0.589298 25:-0.742187 26:-0.853017 27:-0.668141 28:-0.923986 29:-0.827209 30:-0.675409 31:-0.629287 32:-0.906423 33:-0.721426 34:0.14079 35:-0.475006 36:-0.865465 37:0.242601 38:-0.370602 
