svm_type c_svc
kernel_type rbf
gamma 0.125
nr_class 2
total_sv 230
rho 9.69563
label 1 -1
nr_sv 117 113
SV
20.97746019399388 1:-0.958492 2:-0.0153563 3:-0.151264 4:-0.91557 5:0.0988 6:-0.405703 7:0.844022 8:-0.0433541 9:0.00185425 10:0.518842 11:-0.0339396 12:-0.895776 13:-0.87203 14:-0.794871 15:-0.860484 16:-0.835657 17:-0.741228 18:-0.720212 19:-0.750776 20:-0.673402 21:-0.714701 22:-0.685981 23:-0.626377 24:-0.70409 25:-0.771277 26:-0.692237 27:-0.754018 28:-0.619952 29:-0.760915 30:-0.601111 31:-0.882295 32:-0.721185 33:-0.945743 34:0.214533 35:-0.385461 36:-0.926854 37:0.0933924 38:-0.566854 39:-0.800929 40:-0.843588 41:0.029052 
32 1:-0.919776 2:-0.0402824 3:-0.222488 4:-0.910161 5:0.0150529 6:-0.468957 7:0.805427 8:-0.0115971 9:0.148023 10:0.557754 11:0.138119 12:-0.823572 13:-0.771546 14:-0.740509 15:-0.760403 16:-0.741733 17:-0.642151 18:-0.679313 19:-0.47057 20:-0.760202 21:-0.86328 22:-0.715 23:-0.827718 24:-0.641023 25:-0.764612 26:-0.605321 27:-0.777831 28:-0.604363 29:-0.779129 30:-0.667297 31:-0.889119 32:-0.780544 33:-0.952816 34:0.13417 35:-0.490857 36:-0.910576 37:0.0470666 38:-0.585653 39:-0.236161 40:-0.758108 41:-0.163614 
32 1:-0.901967 2:-0.024897 3:-0.339344 4:-0.917832 5:-0.051049 6:-0.399083 7:0.772524 8:-0.0302333 9:0.34657 10:0.538534 11:0.247895 12:-0.82717 13:-0.891915 14:-0.803507 15:-0.927662 16:-0.831177 17:-0.825097 18:-0.70917 19:-0.801454 20:-0.648533 21:-0.707919 22:-0.701909 23:-0.81754 24:-0.588818 25:-0.707029 26:-0.82898 27:-0.551128 28:-0.79533 29:-0.576292 30:-0.803675 31:-0.711196 32:-0.782223 33:-0.926794 34:0.0812577 35:-0.387731 36:-0.947801 37:0.00265462 38:-0.555806 39:-0.375599 40:-0.845704 41:0.150528 
32 1:-0.911457 2:-0.0195225 3:-0.291634 4:-0.91171 5:-0.101095 6:-0.389479 7:0.788151 8:-0.0365503 9:0.257402 10:0.534114 11:0.338294 12:-0.837953 13:-0.862477 14:-0.775362 15:-0.861362 16:-0.893488 17:-0.795252 18:-0.803334 19:-0.775437 20:-0.819191 21:-0.664604 22:-0.716447 23:-0.69452 24:-0.662921 25:-0.707454 26:-0.857283 27:-0.612752 28:-0.775739 29:-0.55984 30:-0.814824 31:-0.585571 32:-0.712132 33:-0.933378 34:0.0625878 35:-0.4134 36:-0.932653 37:-0.0502579 38:-0.523891 39:-0.492724 40:-0.739688 41:0.182284 
0.6026814672984553 1:-0.826994 2:-0.132496 3:-0.376762 4:-0.653757 5:0.356981 6:-0.347419 7:0.765461 8:0.0844752 9:0.358299 10:0.435358 11:-0.43183 12:-0.645791 13:-0.75601 14:-0.759226 15:-0.557956 16:-0.85456 17:-0.483956 18:-0.773736 19:-0.467292 20:-0.729922 21:-0.452748 22:-0.723711 23:-0.584792 24:-0.674771 25:-0.674755 26:-0.748556 27:-0.666168 28:-0.671349 29:-0.695025 30:-0.547837 31:-0.0470047 32:-0.0370615 33:-0.931921 34:0.323255 35:-0.408547 36:-0.531184 37:0.348913 38:-0.46927 39:0.302561 40:0.26478 41:0.322249 
21.64718376306967 1:-0.890065 2:-0.136641 3:-0.279619 4:-0.57533 5:0.137871 6:-0.551576 7:0.855474 8:0.129639 9:0.280175 10:0.336799 11:-0.13119 12:-0.545885 13:-0.952011 14:-0.704333 15:-0.896688 16:-0.762585 17:-0.788061 18:-0.256465 19:-0.767493 20:-0.142775 21:-0.649691 22:0.0399079 23:-0.867095 24:-0.174812 25:-0.835089 26:-0.607817 27:-0.922476 28:-0.864346 29:-0.627532 30:-0.859711 31:-0.352632 32:-0.778618 33:-0.600909 34:0.225085 35:-0.681822 36:-0.789035 37:0.137374 38:-0.54548 39:0.0253456 40:-0.0793135 41:-0.165988 
6.815654470468633 1:-0.793322 2:-0.0770846 3:-0.316729 4:-0.704267 5:0.255207 6:-0.300318 7:0.761444 8:0.0249874 9:0.252885 10:0.530354 11:-0.255102 12:-0.65005 13:-0.808976 14:-0.764941 15:-0.644882 16:-0.709644 17:-0.582044 18:-0.424602 19:-0.604099 20:-0.623496 21:-0.555422 22:-0.618898 23:-0.523311 24:-0.814311 25:-0.630183 26:-0.860966 27:-0.54106 28:-0.844718 29:-0.55872 30:-0.763492 31:0.27492 32:0.311181 33:-0.907261 34:0.308214 35:-0.33264 36:-0.651127 37:0.220873 38:-0.45748 39:0.841846 40:0.257217 41:0.370483 
32 1:-0.965327 2:-0.070201 3:-0.108385 4:-0.908658 5:-0.0715416 6:-0.502536 7:0.837843 8:0.0333134 9:-0.0994795 10:0.485037 11:0.345648 12:-0.882148 13:-0.836414 14:-0.68416 15:-0.763214 16:-0.675189 17:-0.872013 18:-0.617738 19:-0.838245 20:-0.606774 21:-0.824598 22:-0.713172 23:-0.889854 24:-0.736064 25:-0.735931 26:-0.868198 27:-0.59956 28:-0.870483 29:-0.586547 30:-0.829869 31:-0.859407 32:-0.809755 33:-0.912627 34:0.0590676 35:-0.540787 36:-0.948602 37:-0.0060731 38:-0.601559 39:-0.63492 40:-0.709587 41:-0.307109 
2.801757070160552 1:-0.777901 2:-0.0522167 3:-0.165383 4:-0.978621 5:0.0209982 6:-0.627419 7:0.575604 8:0.00926913 9:0.0291733 10:0.806773 11:0.150907 12:-0.554041 13:-0.862027 14:-0.848016 15:-0.81432 16:-0.784202 17:-0.447643 18:-0.872767 19:-0.300424 20:-0.803592 21:-0.207624 22:-0.819127 23:-0.0583639 24:-0.893245 25:-0.504158 26:-0.905241 27:-0.439666 28:-0.855678 29:-0.342978 30:-0.920659 31:-0.361262 32:-0.849322 33:-0.977869 34:0.142751 35:-0.708512 36:-0.98909 37:0.0477903 38:-0.65728 39:-0.234561 40:-0.96968 41:-0.231371 
8.863358856979014 1:-0.615052 2:-0.0916783 3:-0.624184 4:-0.88897 5:0.166336 6:-0.244629 7:0.562174 8:0.0330017 9:0.621545 10:0.613632 11:-0.101538 12:-0.599676 13:-0.66949 14:-0.895033 15:-0.691192 16:-0.735878 17:-0.653936 18:-0.572179 19:-0.635307 20:-0.622719 21:-0.711459 22:-0.73616 23:-0.803615 24:-0.688464 25:-0.804803 26:-0.869371 27:-0.801845 28:-0.601713 29:-0.82078 30:-0.578134 31:-0.00132645 32:-0.712138 33:-0.94408 34:0.198707 35:-0.386355 36:-0.882604 37:0.203357 38:-0.308043 39:0.890322 40:-0.705252 41:0.153164 
28.44491318531151 1:-0.938607 2:-0.0349934 3:-0.11204 4:-0.936999 5:0.0276209 6:-0.48766 7:0.813086 8:-0.0193528 9:-0.0877048 10:0.554197 11:0.115347 12:-0.861934 13:-0.813794 14:-0.763883 15:-0.739676 16:-0.687268 17:-0.584693 18:-0.859733 19:-0.602916 20:-0.872346 21:-0.690753 22:-0.879746 23:-0.772768 24:-0.858816 25:-0.635162 26:-0.841035 27:-0.723423 28:-0.830046 29:-0.655887 30:-0.767162 31:-0.711531 32:-0.799924 33:-0.936977 34:0.114379 35:-0.559226 36:-0.970509 37:0.0853498 38:-0.554436 39:-0.643604 40:-0.672108 41:-0.0915908 
1.200447068414313 1:-0.642618 2:-0.000236348 3:-0.198725 4:-0.955588 5:0.121387 6:-0.673372 7:0.372669 8:-0.0814458 9:0.116114 10:0.893734 11:-0.1177 12:-0.286657 13:-0.806165 14:-0.902818 15:-0.8562 16:-0.850745 17:-0.519316 18:-0.912476 19:-0.491765 20:-0.897084 21:-0.627349 22:-0.877612 23:-1 24:-1 25:-0.509468 26:-0.897422 27:-0.298633 28:-0.884537 29:0.0507518 30:-0.720947 31:0.297671 32:-0.688342 33:-0.983636 34:0.199869 35:-0.68179 36:-0.947855 37:0.133958 38:-0.754313 39:0.419349 40:-0.708331 41:-0.28576 
0.4232908578869068 1:-0.967001 2:-0.0619419 3:-0.139791 4:-0.763852 5:0.139479 6:-0.537103 7:0.898571 8:0.0222216 9:-0.0310521 10:0.396324 11:-0.146134 12:-0.778038 13:-0.779399 14:-0.597506 15:-0.663332 16:-0.479947 17:-0.66188 18:-0.310825 19:-0.656501 20:-0.36088 21:-0.777876 22:-0.484369 23:-0.761057 24:-0.519657 25:-0.826452 26:-0.478799 27:-0.90531 28:-0.567473 29:-0.903787 30:-0.491979 31:-0.512247 32:-0.424733 33:-0.829008 34:0.262071 35:-0.60847 36:-0.818534 37:0.105954 38:-0.604262 39:-0.300889 40:-0.577691 41:-0.16951 
16.7330249924492 1:-0.916899 2:0.0462954 3:-0.0169729 4:-0.854136 5:0.151623 6:-0.522871 7:0.791891 8:-0.141028 9:-0.303553 10:0.486564 11:-0.1657 12:-0.767474 13:-0.616626 14:-0.689608 15:-0.666507 16:-0.503344 17:-0.747166 18:-0.190495 19:-0.741989 20:-0.257933 21:-0.617749 22:-0.623817 23:-0.551296 24:-0.659939 25:-0.653634 26:-0.654676 27:-0.658507 28:-0.715039 29:-0.64513 30:-0.725869 31:-0.608779 32:-0.735832 33:-0.845039 34:0.22741 35:-0.561293 36:-0.934954 37:0.150174 38:-0.620837 39:-0.446503 40:-0.523987 41:-0.171566 
0.46620620592149 1:-0.904193 2:-0.0414573 3:-0.204979 4:-0.932054 5:0.0344646 6:-0.619198 7:0.757959 8:-0.00967925 9:0.14047 10:0.615051 11:0.119548 12:-0.745556 13:-0.808067 14:-0.87067 15:-0.579046 16:-0.881286 17:-0.471046 18:-0.849288 19:-1 20:-1 21:-0.31783 22:-0.610162 23:-0.706412 24:-0.867707 25:-1 26:-1 27:-0.683799 28:-0.727141 29:-0.781941 30:-0.814571 31:-0.786936 32:-0.898646 33:-0.951171 34:0.151516 35:-0.753277 36:-0.943036 37:0.0579971 38:-0.565215 39:-0.523968 40:-0.650683 41:-0.405553 
32 1:-0.926358 2:-0.00568612 3:-0.170264 4:-0.902002 5:0.0269939 6:-0.617981 7:0.801204 8:-0.0770269 9:0.0430219 10:0.559492 11:0.141489 12:-0.764357 13:-0.849218 14:-0.921181 15:-0.527643 16:-0.86015 17:-1 18:-1 19:-0.500212 20:-0.858111 21:-0.532564 22:-0.841945 23:-1 24:-1 25:-0.676207 26:-0.723056 27:-1 28:-1 29:-0.756492 30:-0.626449 31:-0.899002 32:-0.516824 33:-0.981137 34:0.165235 35:-0.666754 36:-0.870792 37:0.0380145 38:-0.675502 39:-0.532245 40:-0.701958 41:-0.427656 
32 1:-0.964142 2:-0.0425814 3:-0.201419 4:-0.948685 5:0.114209 6:-0.648577 7:0.822691 8:-0.00717028 9:0.143325 10:0.533988 11:-0.126306 12:-0.865989 13:-0.913345 14:-0.940117 15:-0.956287 16:-0.880638 17:-1 18:-1 19:-0.817052 20:-0.746463 21:-0.74811 22:-0.733875 23:-0.914788 24:-0.899344 25:-0.974568 26:-0.84685 27:-1 28:-1 29:-0.722503 30:-0.867092 31:-0.999264 32:-0.94655 33:-0.946415 34:0.197264 35:-0.690993 36:-0.97635 37:0.132775 38:-0.686812 39:-0.711213 40:-0.900056 41:-0.0615708 
9.545772187195499 1:-0.922381 2:-0.0718071 3:-0.0846315 4:-0.913345 5:0.0970289 6:-0.582798 7:0.788346 8:0.0428069 9:-0.180604 10:0.557008 11:-0.0526402 12:-0.785279 13:-1 14:-1 15:-0.589905 16:-0.748767 17:-1 18:-1 19:-0.456693 20:-0.735599 21:-0.755865 22:-0.925128 23:-0.856357 24:-0.68659 25:-0.713211 26:-0.827907 27:-1 28:-1 29:-0.896668 30:-0.831368 31:-0.909974 32:-0.798398 33:-0.938361 34:0.145421 35:-0.70095 36:-0.927072 37:0.159123 38:-0.570554 39:-0.451809 40:-0.703535 41:-0.573527 
32 1:-0.919044 2:0.000154601 3:-0.174683 4:-0.910678 5:-0.0308994 6:-0.627156 7:0.779629 8:-0.0892291 9:0.0559264 10:0.567313 11:0.312336 12:-0.752715 13:-0.811405 14:-0.891114 15:-0.545259 16:-0.764652 17:-1 18:-1 19:-0.516419 20:-0.727009 21:-0.90368 22:-0.924636 23:-0.242922 24:-0.875102 25:-0.735558 26:-0.713553 27:-1 28:-1 29:-0.892966 30:-0.835219 31:-0.895233 32:-0.779159 33:-0.944927 34:0.157239 35:-0.740029 36:-0.914419 37:-0.0471381 38:-0.612475 39:-0.340726 40:-0.808937 41:-0.567051 
31.70404845405516 1:-0.914439 2:-0.0442571 3:-0.174447 4:-0.929437 5:0.0543345 6:-0.646082 7:0.769095 8:-0.00395231 9:0.0567157 10:0.608376 11:0.0650386 12:-0.745674 13:-0.821561 14:-0.840933 15:-0.561577 16:-0.825294 17:-0.415977 18:-0.663521 19:-1 20:-1 21:-0.293831 22:-0.680307 23:-0.698497 24:-0.818442 25:-1 26:-1 27:-0.745694 28:-0.715334 29:-0.726117 30:-0.522494 31:-1 32:-1 33:-0.96711 34:0.176745 35:-0.721307 36:-0.925434 37:0.0645032 38:-0.682697 39:-0.407379 40:-0.743508 41:-0.495165 
4.742670025664516 1:-0.963004 2:-0.0444229 3:-0.225802 4:-0.854219 5:0.168269 6:-0.447776 7:0.859041 8:-0.00598005 9:0.151344 10:0.466248 11:-0.181145 12:-0.858655 13:-0.809664 14:-0.801198 15:-0.836055 16:-0.530103 17:-0.713257 18:-0.361176 19:-0.756633 20:-0.532073 21:-0.82384 22:-0.583295 23:-0.83356 24:-0.623377 25:-0.912343 26:-0.658894 27:-0.855629 28:-0.70188 29:-0.703789 30:-0.904995 31:-0.694147 32:-0.796766 33:-0.865556 34:0.241128 35:-0.5861 36:-0.92452 37:0.167678 38:-0.45027 39:-0.575007 40:-0.640802 41:-0.0298299 
10.72287140798872 1:-0.966529 2:0.0184743 3:-0.197931 4:-0.813208 5:0.00632035 6:-0.603295 7:0.883921 8:-0.118825 9:0.11807 10:0.416349 11:0.195361 12:-0.779769 13:-1 14:-1 15:-0.794399 16:-0.508057 17:-1 18:-1 19:-0.743242 20:-0.372216 21:-0.823502 22:-0.601937 23:-1 24:-1 25:-0.851246 26:-0.539812 27:-1 28:-1 29:-0.916154 30:-0.66741 31:-0.721734 32:-0.682392 33:-0.829534 34:0.137883 35:-0.675372 36:-0.888104 37:0.0321753 38:-0.647371 39:-0.618357 40:-0.639304 41:-0.469992 
1.76575106015779 1:-0.982225 2:-0.00281983 3:-0.182534 4:-0.694377 5:0.187072 6:-0.549752 7:0.931931 8:-0.0712043 9:0.0699134 10:0.312 11:-0.264085 12:-0.751722 13:-0.788013 14:-0.701785 15:-0.825001 16:-0.42525 17:-0.835437 18:-0.209645 19:-0.823873 20:-0.210033 21:-0.813959 22:-0.382871 23:-0.7712 24:-0.467208 25:-0.776646 26:-0.468295 27:-0.794697 28:-0.433281 29:-0.773154 30:-0.333759 31:-0.545273 32:-0.449076 33:-0.77002 34:0.265935 35:-0.601215 36:-0.775875 37:0.166196 38:-0.630835 39:-0.436186 40:-0.493806 41:-0.0302026 
32 1:-0.955902 2:-0.0445065 3:-0.115499 4:-0.953136 5:0.054803 6:-0.429369 7:0.828073 8:-0.00593185 9:-0.0708185 10:0.541108 11:0.0527746 12:-0.909424 13:-0.739613 14:-0.784201 15:-0.811545 16:-0.798165 17:-0.83497 18:-0.80244 19:-0.641761 20:-0.750001 21:-0.809084 22:-0.738772 23:-0.691117 24:-0.727836 25:-0.723347 26:-0.858047 27:-0.870025 28:-0.852506 29:-0.660532 30:-0.831748 31:-0.68069 32:-0.864096 33:-0.964983 34:0.130428 35:-0.44946 36:-0.963206 37:0.101049 38:-0.560226 39:-0.70226 40:-0.863955 41:0.017984 
11.93007060015795 1:-0.785225 2:-0.00262574 3:-0.0509398 4:-0.96317 5:0.112166 6:-0.551358 7:0.621709 8:-0.0684314 9:-0.229696 10:0.731253 11:-0.0765723 12:-0.622521 13:-0.559504 14:-0.711718 15:-0.295191 16:-0.841369 17:-0.0890171 18:-0.678649 19:-0.290307 20:-0.750655 21:-0.195138 22:-0.877154 23:-0.551476 24:-0.880201 25:-0.652619 26:-0.845453 27:-0.545912 28:-0.865905 29:-0.506871 30:-0.833644 31:-0.559602 32:-0.840913 33:-0.962489 34:0.208231 35:-0.671399 36:-0.982747 37:0.115783 38:-0.562732 39:-0.0107011 40:-0.903967 41:-0.290498 
32 1:-0.933282 2:-0.0392159 3:-0.133028 4:-0.970855 5:0.143123 6:-0.375082 7:0.806789 8:-0.012789 9:-0.0300731 10:0.57096 11:-0.112968 12:-0.89803 13:-0.82874 14:-0.789595 15:-0.559115 16:-0.928631 17:-0.501705 18:-0.911109 19:-0.59388 20:-0.77615 21:-0.510268 22:-0.838059 23:-0.69854 24:-0.910823 25:-0.714712 26:-0.912893 27:-0.730635 28:-0.915734 29:-0.758853 30:-0.906894 31:-0.756649 32:-0.893516 33:-0.971706 34:0.208277 35:-0.48287 36:-0.983344 37:0.157475 38:-0.447618 39:-0.637099 40:-0.956148 41:0.0724987 
32 1:-0.952244 2:0.00140662 3:-0.18718 4:-0.917181 5:0.0996423 6:-0.48633 7:0.834925 8:-0.0725403 9:0.0767456 10:0.527569 11:-0.0452762 12:-0.870479 13:-0.766462 14:-0.869298 15:-0.892112 16:-0.858008 17:-0.801252 18:-0.652486 19:-0.826913 20:-0.821571 21:-0.710864 22:-0.812305 23:-0.713044 24:-0.764135 25:-0.758584 26:-0.764143 27:-0.698304 28:-0.740137 29:-0.639741 30:-0.657348 31:-0.579244 32:-0.728638 33:-0.950957 34:0.169091 35:-0.422653 36:-0.925207 37:0.126356 38:-0.656802 39:-0.735834 40:-0.848546 41:0.0602826 
32 1:-0.920176 2:-0.0177587 3:-0.306226 4:-0.9496 5:0.00957661 6:-0.426643 7:0.784231 8:-0.0407209 9:0.302527 10:0.55474 11:0.141689 12:-0.859725 13:-0.782648 14:-0.696114 15:-0.824748 16:-0.860507 17:-0.669097 18:-0.700256 19:-0.611934 20:-0.629158 21:-0.752068 22:-0.838742 23:-0.741995 24:-0.775827 25:-0.713302 26:-0.771956 27:-0.863859 28:-0.701538 29:-0.709068 30:-0.808101 31:-0.627054 32:-0.854389 33:-0.955599 34:0.14348 35:-0.475796 36:-0.967732 37:0.0317408 38:-0.53377 39:-0.515109 40:-0.776842 41:0.135285 
2.133015793521385 1:-0.903314 2:-0.0472157 3:-0.351787 4:-0.937801 5:0.0766825 6:-0.423643 7:0.764562 8:-0.00271795 9:0.384043 10:0.549637 11:0.00931032 12:-0.832528 13:-0.721845 14:-0.8641 15:-0.849418 16:-0.768524 17:-0.778723 18:-0.720244 19:-0.792109 20:-0.654184 21:-0.615578 22:-0.808665 23:-0.687377 24:-0.795081 25:-0.710241 26:-0.795046 27:-0.567905 28:-0.780949 29:-0.626962 30:-0.773526 31:-0.654686 32:-0.870274 33:-0.944292 34:0.175616 35:-0.45992 36:-0.961837 37:0.095858 38:-0.538143 39:-0.524544 40:-0.769381 41:0.146328 
8.958348722668063 1:-0.948658 2:-0.0218802 3:-0.286463 4:-0.842889 5:0.254395 6:-0.425416 7:0.832015 8:-0.0350728 9:0.261169 10:0.449404 11:-0.338162 12:-0.840157 13:-0.755525 14:-0.909227 15:-0.825732 16:-0.899988 17:-0.771001 18:-0.628883 19:-0.71867 20:-0.730583 21:-0.64682 22:-0.785556 23:-0.758518 24:-0.661036 25:-0.829845 26:-0.661656 27:-0.749033 28:-0.636776 29:-0.742623 30:-0.625276 31:-0.70822 32:-0.728031 33:-0.921151 34:0.317263 35:-0.382399 36:-0.847249 37:0.213231 38:-0.594328 39:-0.605891 40:-0.6327 41:0.112799 
30.58936681513961 1:-0.944991 2:-0.094721 3:-0.215288 4:-0.886594 5:0.0828942 6:-0.449998 7:0.838071 8:0.0622781 9:0.130465 10:0.515055 11:-0.00507783 12:-0.851059 13:-0.8224 14:-0.679761 15:-0.514885 16:-0.646131 17:-0.605417 18:-0.421553 19:-0.760748 20:-0.594933 21:-0.736217 22:-0.601848 23:-0.735097 24:-0.624915 25:-0.756599 26:-0.641263 27:-0.694947 28:-0.662527 29:-0.770123 30:-0.729838 31:-0.657784 32:-0.697654 33:-0.909781 34:0.21079 35:-0.559291 36:-0.921046 37:0.0698392 38:-0.491429 39:-0.598442 40:-0.716544 41:-0.0419285 
19.56172625118642 1:-0.945336 2:-0.00997031 3:-0.071406 4:-0.904961 5:0.118961 6:-0.522715 7:0.820443 8:-0.0585796 9:-0.188968 10:0.512733 11:-0.0954638 12:-0.842161 13:-0.642912 14:-0.764658 15:-0.627962 16:-0.678263 17:-0.73844 18:-0.652458 19:-0.66387 20:-0.709285 21:-0.654482 22:-0.592112 23:-0.915764 24:-0.855819 25:-0.92449 26:-0.839076 27:-0.869523 28:-0.712142 29:-0.755227 30:-0.580555 31:-0.87602 32:-0.79228 33:-0.95021 34:0.235475 35:-0.62772 36:-0.901656 37:0.100038 38:-0.552807 39:-0.501167 40:-0.719188 41:-0.391746 
9.060194729507243 1:-0.770151 2:0.0317677 3:-0.419986 4:-0.868974 5:0.0573045 6:-0.641436 7:0.525953 8:-0.132785 9:0.670437 10:0.56703 11:0.0518495 12:-0.479793 13:-0.588967 14:-0.874739 15:-0.775806 16:-0.595956 17:-0.707097 18:-0.366113 19:-0.673427 20:-0.554126 21:-0.780587 22:-0.65183 23:-1 24:-1 25:-0.829271 26:-0.683596 27:-0.330215 28:-0.696388 29:-0.279744 30:-0.692936 31:-0.934362 32:-0.852041 33:-0.885512 34:0.144464 35:-0.682377 36:-0.917263 37:0.0949259 38:-0.703664 39:0.288278 40:-0.521251 41:-0.485693 
5.745888363187116 1:-0.928906 2:-0.0219475 3:-0.265735 4:-0.949638 5:0.054164 6:-0.491831 7:0.792307 8:-0.0384323 9:0.248917 10:0.563252 11:0.0562329 12:-0.854495 13:-0.837822 14:-0.803555 15:-0.563002 16:-0.776032 17:-0.54468 18:-0.65811 19:-0.686709 20:-0.865144 21:-0.629277 22:-0.798096 23:-0.656093 24:-0.874051 25:-0.696824 26:-0.88832 27:-0.789952 28:-0.87234 29:-0.671553 30:-0.895434 31:-0.815228 32:-0.873702 33:-0.948859 34:0.211588 35:-0.524971 36:-0.973473 37:0.0377113 38:-0.596316 39:-0.68306 40:-0.835299 41:-0.12007 
16.29471342119243 1:-0.887139 2:-0.0136984 3:-0.0998128 4:-0.968082 5:0.122755 6:-0.497196 7:0.749185 8:-0.0502635 9:-0.1139 10:0.632605 11:-0.096179 12:-0.801185 13:-0.580841 14:-0.775679 15:-0.456839 16:-0.781706 17:-0.513893 18:-0.653932 19:-0.592467 20:-0.803377 21:-0.556369 22:-0.84657 23:-0.556431 24:-0.818525 25:-0.565764 26:-0.876657 27:-0.512114 28:-0.891719 29:-0.535327 30:-0.849187 31:-0.560349 32:-0.871552 33:-0.963773 34:0.219637 35:-0.515502 36:-0.98537 37:0.119327 38:-0.61369 39:-0.5759 40:-0.863789 41:-0.135395 
15.6841634523551 1:-0.774429 2:0.0293062 3:-0.434205 4:-0.674648 5:0.0224458 6:-0.28143 7:0.744493 8:-0.0773149 9:0.410908 10:0.508493 11:0.0935347 12:-0.632327 13:-0.80299 14:-0.858451 15:-0.749172 16:-0.564114 17:-0.804547 18:-0.309961 19:-0.787447 20:-0.396676 21:-0.674605 22:-0.70843 23:-0.765434 24:-0.736903 25:-0.772824 26:-0.748205 27:-0.789544 28:-0.686851 29:-0.7039 30:-0.753006 31:0.0637147 32:0.328777 33:-0.880588 34:0.152474 35:-0.201797 36:-0.647468 37:0.0435031 38:-0.516979 39:0.523341 40:0.0272484 41:0.475325 
17.45638613138089 1:-0.856231 2:0.0281569 3:-0.231047 4:-0.602369 5:0.0822968 6:-0.239088 7:0.845597 8:-0.0751869 9:0.120567 10:0.466207 11:0.00723538 12:-0.691326 13:-0.798805 14:-0.822029 15:-0.60948 16:-0.807728 17:-0.609421 18:-0.737706 19:-0.543446 20:-0.599268 21:-0.668194 22:-0.777228 23:-0.705784 24:-0.669662 25:-0.752441 26:-0.632278 27:-0.804531 28:-0.604361 29:-0.827776 30:-0.526178 31:0.0481094 32:0.279032 33:-0.958791 34:0.226938 35:-0.226304 36:-0.442742 37:0.0602535 38:-0.443604 39:0.107985 40:0.0248121 41:0.501976 
4.461917592409099 1:-0.708313 2:-0.0141009 3:-0.326655 4:-0.959973 5:0.160096 6:-0.537554 7:0.54082 8:-0.0480902 9:0.36604 10:0.760939 11:-0.170473 12:-0.532788 13:-0.766124 14:-0.841343 15:-0.532148 16:-0.862347 17:-0.534082 18:-0.818408 19:-0.527736 20:-0.812073 21:-0.448439 22:-0.825398 23:-0.490908 24:-0.940329 25:-0.397617 26:-0.882824 27:-0.223129 28:-0.875293 29:-0.0735716 30:-0.78688 31:0.0448754 32:-0.809341 33:-0.971665 34:0.227316 35:-0.653439 36:-0.965488 37:0.170976 38:-0.540093 39:0.162748 40:-0.857803 41:-0.0244672 
21.02560500417157 1:-0.690758 2:-0.092807 3:-0.127891 4:-0.951476 5:-0.0304288 6:-0.57481 7:0.520585 8:0.0664206 9:-0.0545647 10:0.819458 11:0.248759 12:-0.466979 13:-0.816038 14:-0.91739 15:-0.649145 16:-0.892852 17:-0.494849 18:-0.886464 19:-0.542583 20:-0.826015 21:-0.451193 22:-0.804907 23:-0.443598 24:-0.896241 25:-0.397172 26:-0.931342 27:-0.218439 28:-0.934657 29:-0.037095 30:-0.835165 31:0.125068 32:-0.732994 33:-0.967578 34:0.123637 35:-0.584006 36:-0.958433 37:-0.0020756 38:-0.678112 39:-0.0122789 40:-0.723496 41:-0.195015 
29.94956905514102 1:-0.697347 2:0.0150625 3:-0.299719 4:-0.95659 5:0.0279 6:-0.556816 7:0.527215 8:-0.091198 9:0.31863 10:0.789758 11:0.113527 12:-0.498363 13:-0.769538 14:-0.876778 15:-0.836353 16:-0.844849 17:-0.507785 18:-0.921235 19:-0.531845 20:-0.92 21:-0.521942 22:-0.798935 23:-0.390015 24:-0.78846 25:-0.460543 26:-0.823168 27:-0.318312 28:-0.709135 29:-0.139016 30:-0.686255 31:0.0340031 32:-0.877021 33:-0.980212 34:0.145924 35:-0.478486 36:-0.956693 37:0.0549413 38:-0.712946 39:0.220909 40:-0.897785 41:-0.0894972 
32 1:-0.705729 2:-0.0620598 3:-0.431536 4:-0.944341 5:0.0714219 6:-0.256289 7:0.646965 8:0.00897887 9:0.400881 10:0.67463 11:0.0227428 12:-0.681382 13:-0.814428 14:-0.832947 15:-0.626741 16:-0.90079 17:-0.544806 18:-0.782169 19:-0.549564 20:-0.808336 21:-0.687544 22:-0.928307 23:-0.669183 24:-0.802558 25:-0.673558 26:-0.740139 27:-0.740982 28:-0.755563 29:-0.746608 30:-0.633094 31:0.0761168 32:-0.669532 33:-0.973867 34:0.192794 35:-0.254648 36:-0.941011 37:0.0739845 38:-0.445086 39:0.620291 40:-0.750932 41:0.521736 
32 1:-0.855141 2:0.0287351 3:-0.344419 4:-0.846488 5:-0.0541585 6:-0.42992 7:0.747539 8:-0.0966705 9:0.360171 10:0.542401 11:0.256616 12:-0.722281 13:-0.778377 14:-0.54957 15:-0.714702 16:-0.635099 17:-0.686126 18:-0.417828 19:-0.690718 20:-0.425589 21:-0.779394 22:-0.428939 23:-0.723026 24:-0.603365 25:-0.557128 26:-0.847633 27:-0.481356 28:-0.807017 29:-0.449053 30:-0.786471 31:-0.44907 32:-0.665291 33:-0.864375 34:0.110983 35:-0.478364 36:-0.907172 37:-0.0264486 38:-0.539083 39:-0.226026 40:-0.643347 41:-0.0203277 
7.999202422642562 1:-0.926967 2:-0.047435 3:-0.0628065 4:-0.875778 5:0.132003 6:-0.499005 7:0.81267 8:-0.00122302 9:-0.194944 10:0.514853 11:-0.116978 12:-0.803817 13:-0.704999 14:-0.605953 15:-0.729239 16:-0.602913 17:-0.692747 18:-0.450944 19:-0.697349 20:-0.441368 21:-0.75615 22:-0.542142 23:-0.850346 24:-0.639112 25:-0.826465 26:-0.768582 27:-0.636278 28:-0.669358 29:-0.527367 30:-0.755253 31:-0.391641 32:-0.801475 33:-0.875111 34:0.225113 35:-0.633877 36:-0.950608 37:0.129088 38:-0.490011 39:-0.432252 40:-0.741678 41:-0.256736 
32 1:-0.904631 2:-0.0409928 3:-0.227816 4:-0.970538 5:0.109244 6:-0.529225 7:0.759907 8:-0.0105883 9:0.175018 10:0.621155 11:-0.0733131 12:-0.817464 13:-0.638226 14:-0.74776 15:-0.498398 16:-0.900313 17:-0.55981 18:-0.741864 19:-0.716865 20:-0.895633 21:-0.726981 22:-0.921108 23:-0.606863 24:-0.776141 25:-0.669362 26:-0.819763 27:-0.57544 28:-0.908317 29:-0.542096 30:-0.896401 31:-0.560289 32:-0.856883 33:-0.969535 34:0.209556 35:-0.565725 36:-0.984974 37:0.110234 38:-0.622444 39:-0.440392 40:-0.89333 41:-0.222699 
32 1:-0.915622 2:-0.0340594 3:-0.176234 4:-0.971339 5:0.123873 6:-0.553159 7:0.769911 8:-0.0220095 9:0.0559362 10:0.618258 11:-0.116213 12:-0.826757 13:-0.666521 14:-0.759563 15:-0.517768 16:-0.908202 17:-0.546283 18:-0.831648 19:-0.645617 20:-0.902825 21:-0.690877 22:-0.863216 23:-0.606959 24:-0.823985 25:-0.605163 26:-0.863946 27:-0.666584 28:-0.906101 29:-0.612133 30:-0.885015 31:-0.498297 32:-0.851532 33:-0.969054 34:0.221884 35:-0.5884 36:-0.985598 37:0.119326 38:-0.643011 39:-0.573038 40:-0.972847 41:-0.347776 
32 1:-0.914721 2:-0.0348679 3:-0.102169 4:-0.972346 5:0.110832 6:-0.521944 7:0.770804 8:-0.0200603 9:-0.117534 10:0.608394 11:-0.0762002 12:-0.837315 13:-0.588428 14:-0.771332 15:-0.490106 16:-0.874093 17:-0.580124 18:-0.721357 19:-0.603685 20:-0.833476 21:-0.670914 22:-0.869769 23:-0.577213 24:-0.893899 25:-0.659803 26:-0.845179 27:-0.603323 28:-0.814804 29:-0.532698 30:-0.888366 31:-0.588261 32:-0.898036 33:-0.971121 34:0.206328 35:-0.645269 36:-0.987528 37:0.115956 38:-0.53391 39:-0.627998 40:-0.955092 41:-0.466731 
32 1:-0.921536 2:-0.0144422 3:-0.0685648 4:-0.966241 5:0.124299 6:-0.579016 7:0.760662 8:-0.056596 9:-0.22256 10:0.588779 11:-0.124943 12:-0.824586 13:-0.652889 14:-0.787602 15:-0.510442 16:-0.908956 17:-0.608643 18:-0.676977 19:-0.620302 20:-0.808698 21:-0.612857 22:-0.901671 23:-0.662094 24:-0.877476 25:-0.686264 26:-0.844114 27:-0.701741 28:-0.842894 29:-0.697617 30:-0.903294 31:-0.727261 32:-0.875856 33:-0.962719 34:0.231706 35:-0.625365 36:-0.98497 37:0.112067 38:-0.653339 39:-0.564505 40:-0.921948 41:-0.330398 
32 1:-0.908017 2:-0.0652608 3:-0.038326 4:-0.97165 5:0.0849721 6:-0.545226 7:0.74618 8:0.0282659 9:-0.275949 10:0.596864 11:-0.0167666 12:-0.819026 13:-0.63562 14:-0.879315 15:-0.630295 16:-0.769172 17:-0.552501 18:-0.733687 19:-0.685399 20:-0.874378 21:-0.691368 22:-0.921454 23:-0.619955 24:-0.794363 25:-0.653571 26:-0.793872 27:-0.666456 28:-0.846933 29:-0.598726 30:-0.860686 31:-0.700913 32:-0.921247 33:-0.978588 34:0.182657 35:-0.553949 36:-0.977125 37:0.0991368 38:-0.654541 39:-0.598092 40:-0.921054 41:-0.288234 
24.82924986106912 1:-0.821829 2:-0.0895542 3:-0.360321 4:-0.965019 5:0.0853695 6:-0.540667 7:0.640071 8:0.0617853 9:0.464751 10:0.649934 11:-0.0143364 12:-0.687606 13:-0.589527 14:-0.897617 15:-0.591906 16:-0.67735 17:-0.524805 18:-0.623905 19:-0.692879 20:-0.84596 21:-0.629943 22:-0.831335 23:-0.56602 24:-0.78412 25:-0.559169 26:-0.783232 27:-0.438096 28:-0.86851 29:-0.340973 30:-0.842612 31:-0.32568 32:-0.856544 33:-0.966131 34:0.208362 35:-0.57857 36:-0.979255 37:0.0806855 38:-0.63181 39:-0.198061 40:-0.825895 41:-0.301681 
13.05541470597974 1:-0.73197 2:0.0141292 3:-0.1168 4:-0.907117 5:0.0727416 6:-0.645198 7:0.534437 8:-0.106408 9:-0.0975209 10:0.784355 11:0.0115541 12:-0.418486 13:-0.824432 14:-0.811377 15:-0.37587 16:-0.794921 17:-0.470842 18:-0.866113 19:-0.199475 20:-0.760139 21:0.12027 22:-0.634675 23:0.308561 24:-0.579246 25:-0.628172 26:-0.870016 27:-0.695465 28:-0.802286 29:-0.639698 30:-0.703043 31:-0.647761 32:-0.59774 33:-0.945609 34:0.220828 35:-0.742577 36:-0.910652 37:0.0461417 38:-0.654278 39:0.332348 40:-0.606591 41:-0.231796 
4.267563031631921 1:-0.793526 2:-0.222186 3:-0.170695 4:-0.703926 5:0.111039 6:-0.631326 7:0.69385 8:0.29188 9:0.042414 10:0.537909 11:-0.0853099 12:-0.402143 13:-0.81542 14:-0.735979 15:-0.427625 16:-0.667077 17:-0.761132 18:-0.814003 19:-0.0478878 20:-0.34054 21:0.278187 22:-0.0773356 23:-0.455315 24:-0.53869 25:-0.762141 26:-0.715566 27:-0.849504 28:-0.691754 29:-0.844247 30:-0.600478 31:-0.884485 32:-0.567017 33:-0.712269 34:0.162031 35:-0.755099 36:-0.868028 37:0.163905 38:-0.610915 39:0.327814 40:0.229177 41:-0.242889 
3.409161683937951 1:-0.802218 2:-0.185412 3:-0.156166 4:-0.815958 5:0.113858 6:-0.656853 7:0.652181 8:0.253922 9:0.00389652 10:0.631998 11:-0.104551 12:-0.452495 13:-0.767655 14:-0.815885 15:-0.435731 16:-0.709895 17:-0.261188 18:-0.544544 19:-0.578062 20:-0.814114 21:-0.00460534 22:-0.474 23:0.174385 24:-0.27437 25:-0.768043 26:-0.72022 27:-0.853432 28:-0.759804 29:-0.894054 30:-0.656476 31:-0.904575 32:-0.764187 33:-0.887436 34:0.155342 35:-0.785191 36:-0.823621 37:0.18401 38:-0.610774 39:0.0624271 40:-0.153827 41:-0.316486 
19.9584513315686 1:-0.816616 2:-0.0994804 3:-0.376325 4:-0.789138 5:0.317076 6:-0.298029 7:0.742379 8:0.0476418 9:0.344047 10:0.523621 11:-0.351971 12:-0.709972 13:-0.7897 14:-0.835811 15:-0.626884 16:-0.738961 17:-0.605659 18:-0.740343 19:-0.490515 20:-0.777836 21:-0.378984 22:-0.852585 23:-0.521486 24:-0.813424 25:-0.840457 26:-0.850558 27:-0.903871 28:-0.525694 29:-0.906077 30:-0.516392 31:-0.117089 32:-0.438158 33:-0.938816 34:0.295505 35:-0.44282 36:-0.711886 37:0.336143 38:-0.33449 39:0.275864 40:-0.338867 41:0.309172 
21.42802924870313 1:-0.852937 2:-0.00112237 3:-0.266044 4:-0.965567 5:0.0458217 6:-0.549735 7:0.695886 8:-0.0731167 9:0.265803 10:0.67114 11:0.0780221 12:-0.724406 13:-0.660488 14:-0.812828 15:-0.510625 16:-0.862758 17:-0.47427 18:-0.756634 19:-0.619534 20:-0.838714 21:-0.667499 22:-0.909933 23:-0.533989 24:-0.927013 25:-0.554674 26:-0.895088 27:-0.437443 28:-0.862244 29:-0.344074 30:-0.812787 31:-0.351675 32:-0.785186 33:-0.965383 34:0.145344 35:-0.603436 36:-0.981309 37:0.0786812 38:-0.625864 39:-0.227931 40:-0.922794 41:-0.31948 
32 1:-0.92484 2:-0.0183827 3:-0.190073 4:-0.881716 5:-0.0258342 6:-0.482042 7:0.817899 8:-0.0426686 9:0.0814753 10:0.534087 11:0.228819 12:-0.809624 13:-0.897081 14:-0.813931 15:-0.771215 16:-0.748933 17:-0.875926 18:-0.759307 19:-0.839477 20:-0.735359 21:-0.771719 22:-0.664204 23:-0.406616 24:-0.458287 25:-0.757107 26:-0.730405 27:-0.777685 28:-0.71914 29:-0.644957 30:-0.845878 31:-0.593286 32:-0.638169 33:-0.941413 34:0.123592 35:-0.402132 36:-0.885057 37:0.00504922 38:-0.659643 39:-0.152303 40:-0.570281 41:0.148469 
32 1:-0.85673 2:-0.0686234 3:-0.3279 4:-0.924236 5:0.0128315 6:-0.636812 7:0.65478 8:0.0403577 9:0.478283 10:0.602932 11:0.179001 12:-0.648046 13:-0.63306 14:-0.794836 15:-0.556652 16:-0.757555 17:-0.514235 18:-0.512429 19:-0.529629 20:-0.79616 21:-0.549116 22:-0.829014 23:-0.721319 24:-0.852094 25:-0.554162 26:-0.721459 27:-0.612195 28:-0.840629 29:-0.546911 30:-0.923038 31:-0.585342 32:-0.949359 33:-0.914813 34:0.0889114 35:-0.681487 36:-0.968686 37:0.0786629 38:-0.699479 39:-0.480678 40:-0.678212 41:-0.387156 
3.973487355326368 1:-0.819372 2:-0.0717352 3:-0.354826 4:-0.911363 5:-0.0143451 6:-0.634963 7:0.601315 8:0.0437428 9:0.531022 10:0.609791 11:0.246259 12:-0.580807 13:-0.607735 14:-0.785994 15:-0.537883 16:-0.769894 17:-0.456156 18:-0.579508 19:-0.436627 20:-0.536777 21:-0.502928 22:-0.822051 23:-0.72022 24:-0.870775 25:-0.513873 26:-0.764719 27:-0.578267 28:-0.864841 29:-0.524091 30:-0.899498 31:-0.562066 32:-0.932594 33:-0.89423 34:0.0716202 35:-0.683148 36:-0.970649 37:0.0580435 38:-0.695777 39:-0.385914 40:-0.758057 41:-0.403547 
25.96337739762169 1:-0.821025 2:-0.0799888 3:-0.348435 4:-0.925014 5:0.0170755 6:-0.627842 7:0.607771 8:0.0578225 9:0.510576 10:0.630107 11:0.160523 12:-0.5978 13:-0.616167 14:-0.792223 15:-0.550296 16:-0.812678 17:-0.472797 18:-0.578593 19:-0.469469 20:-0.537453 21:-0.503096 22:-0.836788 23:-1 24:-1 25:-0.489896 26:-0.717972 27:-0.551512 28:-0.83559 29:-0.510933 30:-0.890463 31:-0.535702 32:-0.928443 33:-0.915703 34:0.0947586 35:-0.657065 36:-0.967594 37:0.0779277 38:-0.704248 39:-0.366633 40:-0.757988 41:-0.351711 
1.944753558548725 1:-0.73755 2:-0.184092 3:-0.123986 4:-0.688245 5:0.0538724 6:-0.59679 7:0.652017 8:0.204278 9:-0.064202 10:0.586483 11:0.057579 12:-0.360922 13:-0.0116107 14:-0.854311 15:-0.368538 16:-0.883977 17:0.0255864 18:-0.450758 19:-0.439684 20:-0.203067 21:-0.332017 22:0.132917 23:-0.543181 24:-0.662555 25:-0.68118 26:-0.769513 27:-0.76887 28:-0.78425 29:-0.751814 30:-0.746245 31:-0.778316 32:-0.844742 33:-0.866648 34:0.140854 35:-0.69192 36:-0.671956 37:0.0920388 38:-0.634723 39:0.384646 40:0.484471 41:-0.411063 
15.63866310139271 1:-0.716424 2:-0.198937 3:-0.160885 4:-0.740734 5:0.0709671 6:-0.578783 7:0.621792 8:0.218918 9:0.0191867 10:0.645676 11:0.0187906 12:-0.382534 13:0.00821641 14:-0.765462 15:-0.358643 16:-0.890786 17:-0.217492 18:0.0562696 19:-0.425186 20:-0.547938 21:-0.336816 22:-0.666269 23:-0.410411 24:-0.70063 25:-0.70698 26:-0.836515 27:-0.725888 28:-0.875191 29:-0.711264 30:-0.930566 31:-0.777813 32:-0.779021 33:-0.706758 34:0.195063 35:-0.70763 36:-0.922717 37:0.0696665 38:-0.579396 39:0.348689 40:0.0626554 41:-0.488052 
0.7762281248772783 1:-0.714592 2:0.148492 3:-0.10565 4:-0.709726 5:0.0920417 6:-0.539502 7:0.644194 8:-0.265564 9:-0.0916001 10:0.615298 11:-0.023579 12:-0.407599 13:-0.58915 14:-0.423021 15:0.369638 16:-0.31078 17:-0.371943 18:-0.37625 19:-0.465108 20:-0.473614 21:-0.391194 22:-0.446392 23:-0.687707 24:-0.751596 25:-0.68353 26:-0.794551 27:-0.740962 28:-0.804938 29:-0.779059 30:-0.745847 31:-0.818188 32:-0.641036 33:-0.722549 34:0.132048 35:-0.681438 36:-0.858138 37:0.161369 38:-0.532928 39:0.913244 40:-0.240312 41:-0.152419 
4.383995366921046 1:-0.799987 2:-0.0174795 3:-0.0297426 4:-0.91408 5:0.0442095 6:-0.408386 7:0.7024 8:-0.0385821 9:-0.212941 10:0.654255 11:0.0697172 12:-0.697354 13:-0.0738258 14:-0.80451 15:-0.232732 16:-0.565365 17:-0.429537 18:-0.68641 19:-0.42285 20:-0.661078 21:-0.311008 22:-0.510642 23:-0.600822 24:-0.849941 25:-0.626176 26:-0.920511 27:-0.642515 28:-0.870054 29:-0.593739 30:-0.864539 31:-0.565716 32:-0.740096 33:-0.914438 34:0.130967 35:-0.565108 36:-0.962257 37:0.0948835 38:-0.410884 39:0.00399722 40:-0.547505 41:0.24089 
32 1:-0.812893 2:-0.0685629 3:0.019414 4:-0.917328 5:0.00587634 6:-0.347334 7:0.716776 8:0.0194505 9:-0.273752 10:0.620998 11:0.130542 12:-0.739763 13:-0.35824 14:-0.815005 15:-0.400996 16:-0.661555 17:-0.476547 18:-0.695334 19:-0.465727 20:-0.733869 21:-0.347006 22:-0.684576 23:-0.569086 24:-0.609184 25:-0.599774 26:-0.902751 27:-0.584542 28:-0.81005 29:-0.539357 30:-0.734455 31:-0.453502 32:-0.56849 33:-0.945265 34:0.128511 35:-0.500804 36:-0.927628 37:0.0397253 38:-0.371484 39:-0.330768 40:-0.734866 41:0.231053 
32 1:-0.8558 2:-0.00311622 3:-0.201104 4:-0.882923 5:0.0756511 6:-0.255843 7:0.786429 8:-0.0481588 9:0.0817555 10:0.592381 11:0.0157974 12:-0.795927 13:-0.241034 14:-0.749831 15:-0.350085 16:-0.769747 17:-0.407076 18:-0.480405 19:-0.438849 20:-0.600475 21:-0.430558 22:-0.680953 23:-0.406534 24:-0.543474 25:-0.604579 26:-0.822295 27:-0.649451 28:-0.812116 29:-0.62088 30:-0.780418 31:-0.523557 32:-0.742698 33:-0.917449 34:0.130924 35:-0.365272 36:-0.906353 37:0.133285 38:-0.358544 39:-0.318595 40:-0.656006 41:0.642771 
22.02840224254515 1:-0.932891 2:-0.0370871 3:-0.310041 4:-0.944292 5:0.0496825 6:-0.447614 7:0.793994 8:-0.0158768 9:0.321207 10:0.537698 11:0.0635375 12:-0.869216 13:-0.805855 14:-0.77611 15:-0.901729 16:-0.790552 17:-0.816789 18:-0.656929 19:-0.792176 20:-0.643751 21:-0.666409 22:-0.711928 23:-0.628472 24:-0.932043 25:-0.87145 26:-0.959225 27:-0.769387 28:-0.862394 29:-0.650146 30:-0.864259 31:-0.611193 32:-0.85985 33:-0.935949 34:0.205537 35:-0.498573 36:-0.979592 37:0.0344702 38:-0.549274 39:-0.453077 40:-0.852527 41:-0.110123 
32 1:-0.749797 2:0.0961273 3:-0.124406 4:-0.823203 5:0.0101873 6:-0.373564 7:0.703077 8:-0.160806 9:-0.0385148 10:0.652086 11:0.123642 12:-0.617351 13:0.420717 14:-0.39869 15:-0.097156 16:-0.487997 17:-0.513678 18:-0.690259 19:-0.452818 20:-0.671696 21:-0.417329 22:-0.583944 23:-0.508345 24:-0.713194 25:-0.687954 26:-0.823096 27:-0.725734 28:-0.748323 29:-0.722373 30:-0.760955 31:-0.750748 32:-0.787511 33:-0.820066 34:0.10668 35:-0.525923 36:-0.920547 37:0.0652312 38:-0.40871 39:0.400851 40:-0.262839 41:-0.0674587 
11.79344321778767 1:-0.747981 2:0.0966732 3:-0.1141 4:-0.711353 5:0.013432 6:-0.676237 7:0.605205 8:-0.254863 9:-0.107299 10:0.58099 11:0.171938 12:-0.28157 13:-0.758434 14:-0.613687 15:-0.268654 16:-0.586531 17:0.251208 18:-0.159985 19:0.0983955 20:0.0565742 21:-0.358645 22:-0.257308 23:-0.735291 24:-0.737107 25:-0.79143 26:-0.673138 27:-0.889587 28:-0.561459 29:-0.870246 30:-0.459109 31:-0.791169 32:-0.444195 33:-0.769304 34:0.18707 35:-0.821244 36:-0.811382 37:-0.024572 38:-0.596667 39:0.572024 40:0.17504 41:-0.398367 
19.53575935942678 1:-0.90221 2:-0.0525387 3:-0.0282778 4:-0.927886 5:0.151755 6:-0.516315 7:0.757782 8:0.00662305 9:-0.277639 10:0.562246 11:-0.165625 12:-0.793341 13:-0.577579 14:-0.776345 15:-0.727944 16:-0.862109 17:-0.673077 18:-0.75789 19:-0.713116 20:-0.654391 21:-0.793109 22:-0.714378 23:-0.675473 24:-0.785179 25:-0.681431 26:-0.796304 27:-0.678903 28:-0.851517 29:-0.579017 30:-0.845858 31:-0.617286 32:-0.603034 33:-0.956978 34:0.19814 35:-0.589801 36:-0.930948 37:0.183244 38:-0.577649 39:-0.359467 40:-0.50617 41:-0.205198 
32 1:-0.821484 2:0.0610002 3:-0.198433 4:-0.906096 5:-0.0879075 6:-0.382887 7:0.730109 8:-0.128564 9:0.0861216 10:0.632524 11:0.302055 12:-0.728826 13:0.0186399 14:-0.557029 15:-0.0889549 16:-0.593724 17:-0.370297 18:-0.669321 19:-0.592631 20:-0.735793 21:-0.517371 22:-0.723068 23:-0.492865 24:-0.782442 25:-0.496112 26:-0.667106 27:-0.700014 28:-0.807531 29:-0.692936 30:-0.808732 31:-0.727082 32:-0.771642 33:-0.909348 34:0.0702728 35:-0.433056 36:-0.948752 37:-0.0344507 38:-0.507595 39:-0.127832 40:-0.614186 41:0.154932 
32 1:-0.851433 2:-0.0435256 3:-0.133197 4:-0.954871 5:0.172239 6:-0.351522 7:0.750283 8:-0.00777622 9:-0.025803 10:0.636315 11:-0.153398 12:-0.796562 13:-0.126402 14:-0.89708 15:-0.217759 16:-0.888342 17:-0.380927 18:-0.769646 19:-0.59716 20:-0.8362 21:-0.536592 22:-0.816934 23:-0.46038 24:-0.735485 25:-0.475022 26:-0.678604 27:-0.676055 28:-0.860456 29:-0.675201 30:-0.847718 31:-0.746295 32:-0.818017 33:-0.975751 34:0.224177 35:-0.405302 36:-0.955202 37:0.180274 38:-0.480102 39:-0.33 40:-0.773318 41:0.345063 
3.842051636044459 1:-0.827309 2:0.0534349 3:-0.203852 4:-0.906337 5:-0.0790522 6:-0.429972 7:0.724885 8:-0.128052 9:0.100607 10:0.634635 11:0.305656 12:-0.715664 13:0.106005 14:-0.551803 15:-0.106519 16:-0.629141 17:-0.371572 18:-0.643642 19:-0.579466 20:-0.728871 21:-0.508414 22:-0.736689 23:-0.470334 24:-0.731967 25:-0.508743 26:-0.733547 27:-0.705075 28:-0.795467 29:-0.703081 30:-0.75129 31:-0.727986 32:-0.802102 33:-0.91652 34:0.0851087 35:-0.479958 36:-0.9421 37:-0.034422 38:-0.543342 39:-0.00888994 40:-0.563831 41:0.114462 
12.43764472513675 1:-0.823754 2:0.0974582 3:-0.196227 4:-0.819357 5:-0.0664011 6:-0.531309 7:0.721309 8:-0.210342 9:0.0957143 10:0.591748 11:0.321652 12:-0.60678 13:-0.833802 14:-0.846832 15:-0.576869 16:-0.801878 17:0.133651 18:0.00975 19:-0.0777114 20:-0.712817 21:-0.525607 22:-0.708577 23:-0.519903 24:-0.704518 25:-0.580904 26:-0.649579 27:-0.647229 28:-0.824996 29:-0.694066 30:-0.792021 31:-0.734298 32:-0.732666 33:-0.823307 34:0.125401 35:-0.64864 36:-0.914223 37:-0.058724 38:-0.556361 39:0.234707 40:-0.0498857 41:-0.0565333 
8.400767249830189 1:-0.888845 2:-0.113818 3:-0.21797 4:-0.897784 5:0.0771549 6:-0.572007 7:0.76252 8:0.110074 9:0.159759 10:0.596298 11:0.00133067 12:-0.722886 13:-0.588469 14:-0.616167 15:-0.542727 16:-0.625441 17:-0.493233 18:-0.468878 19:-0.440358 20:-0.471814 21:-0.42504 22:-0.564297 23:-0.547215 24:-0.714943 25:-0.574109 26:-0.673681 27:-0.521101 28:-0.699996 29:-0.50561 30:-0.750021 31:-0.475019 32:-0.771791 33:-0.903323 34:0.173197 35:-0.613772 36:-0.941821 37:0.0965433 38:-0.656188 39:-0.488336 40:-0.751621 41:-0.218994 
23.89216147008064 1:-0.790766 2:0.00563306 3:-0.200694 4:-0.88474 5:-0.120438 6:-0.553444 7:0.651523 8:-0.0800516 9:0.107891 10:0.662565 11:0.454064 12:-0.583737 13:-0.716241 14:-0.877794 15:-0.672543 16:-0.873888 17:0.0965064 18:-0.579556 19:-0.728626 20:-0.869925 21:-0.693032 22:-0.833976 23:-0.626924 24:-0.815368 25:-0.679514 26:-0.729744 27:-0.67571 28:-0.659016 29:-0.861931 30:-0.733103 31:-0.915831 32:-0.699342 33:-0.950452 34:0.101366 35:-0.701956 36:-0.85876 37:-0.131458 38:-0.513156 39:0.292726 40:-0.637215 41:-0.416816 
18.21419744726168 1:-0.985397 2:-0.020189 3:-0.187336 4:-0.734069 5:0.010814 6:-0.479026 7:0.922602 8:-0.0399691 9:0.0754314 10:0.369055 11:0.148867 12:-0.81038 13:-0.880765 14:-0.688662 15:-0.842282 16:-0.487863 17:-0.865007 18:-0.187197 19:-0.845606 20:-0.160391 21:-0.866033 22:-0.331231 23:-0.622981 24:-0.429861 25:-0.753474 26:-0.466173 27:-0.849664 28:-0.473858 29:-0.896582 30:-0.408603 31:-0.669312 32:-0.408038 33:-0.786082 34:0.155179 35:-0.52886 36:-0.818502 37:0.025087 38:-0.579718 39:-0.520834 40:-0.514336 41:0.0755653 
32 1:-0.922362 2:-0.0314697 3:-0.221086 4:-0.914176 5:0.0682218 6:-0.427062 7:0.811455 8:-0.0229953 9:0.137447 10:0.556806 11:0.025599 12:-0.841735 13:-0.760362 14:-0.775812 15:-0.23287 16:-0.81976 17:-0.837214 18:-0.978729 19:-0.739465 20:-0.772057 21:-0.796614 22:-0.861933 23:-0.767457 24:-0.777659 25:-0.854401 26:-0.704135 27:-0.784656 28:-0.605234 29:-0.750626 30:-0.528728 31:-0.732048 32:-0.491852 33:-0.973303 34:0.194088 35:-0.52213 36:-0.891854 37:0.0673845 38:-0.491912 39:-0.299473 40:-0.607013 41:-0.241248 
32 1:-0.877676 2:-0.0191213 3:-0.167366 4:-0.894781 5:0.13054 6:-0.47554 7:0.772685 8:-0.0406874 9:0.0330324 10:0.599429 11:-0.105676 12:-0.752991 13:-0.867802 14:-0.724659 15:-0.462623 16:-0.700625 17:0.0353079 18:-0.597934 19:-0.790053 20:-0.70166 21:-0.841852 22:-0.743268 23:-0.808388 24:-0.649936 25:-0.920362 26:-0.743024 27:-0.72715 28:-0.703136 29:-0.708992 30:-0.797005 31:-0.651383 32:-0.579639 33:-0.907391 34:0.25589 35:-0.547207 36:-0.934107 37:0.0998336 38:-0.550963 39:0.0423288 40:-0.701866 41:-0.257221 
32 1:-0.716051 2:-0.0747902 3:-0.0929802 4:-0.958391 5:0.0800817 6:-0.51612 7:0.581174 8:0.0355603 9:-0.119398 10:0.788864 11:0.000535384 12:-0.552791 13:-0.555761 14:-0.782082 15:-0.0275818 16:-0.841688 17:-0.294375 18:-0.81848 19:-0.0342232 20:-0.751195 21:-0.629582 22:-0.819649 23:-0.669767 24:-0.869312 25:-0.775968 26:-0.850829 27:-0.614008 28:-0.701842 29:-0.704488 30:-0.710306 31:-0.616044 32:-0.741786 33:-0.974414 34:0.202087 35:-0.700662 36:-0.95827 37:0.0717509 38:-0.439836 39:0.353131 40:-0.830496 41:-0.323139 
7.82893878981197 1:-0.61731 2:0.0661861 3:-0.137317 4:-0.877817 5:0.136971 6:-0.534808 7:0.503579 8:-0.15099 9:-0.0262185 10:0.801257 11:-0.112009 12:-0.383329 13:-0.791349 14:-0.780117 15:-0.857244 16:-0.874903 17:0.145504 18:-0.664934 19:-0.0249935 20:-0.767673 21:-0.694566 22:-0.915097 23:-0.726439 24:-0.877984 25:-0.744209 26:-0.899029 27:-0.717812 28:-0.722134 29:-0.871851 30:-0.458877 31:-0.86228 32:-0.316189 33:-0.954497 34:0.232096 35:-0.733089 36:-0.83552 37:0.1292 38:-0.431237 39:0.397206 40:-0.477254 41:-0.425248 
31.56572781856 1:-0.958492 2:-0.0153563 3:-0.151264 4:-0.91557 5:0.0988 6:-0.405703 7:0.844022 8:-0.0433541 9:0.00185425 10:0.518842 11:-0.0339396 12:-0.895776 13:-0.87203 14:-0.794871 15:-0.860484 16:-0.835657 17:-0.741228 18:-0.720212 19:-0.750776 20:-0.673402 21:-0.714701 22:-0.685981 23:-0.626377 24:-0.70409 25:-0.771277 26:-0.692237 27:-0.754018 28:-0.619952 29:-0.760915 30:-0.601111 31:-0.882295 32:-0.721185 33:-0.945743 34:0.214533 35:-0.385461 36:-0.926854 37:0.0933924 38:-0.566854 39:-0.800929 40:-0.843588 41:0.029052 
8.676072020885691 1:-0.785952 2:0.0298335 3:-0.105236 4:-0.900071 5:0.178862 6:-0.521162 7:0.662379 8:-0.110683 9:-0.0984844 10:0.686048 11:-0.213768 12:-0.607929 13:-0.814487 14:-0.647392 15:-0.807044 16:-0.725907 17:-0.283504 18:-0.711474 19:0.243588 20:-0.617651 21:-0.762938 22:-0.712198 23:-0.739486 24:-0.79992 25:-0.678077 26:-0.820677 27:-0.690729 28:-0.864402 29:-0.644282 30:-0.7499 31:-0.728624 32:-0.574198 33:-0.921548 34:0.257845 35:-0.678533 36:-0.929497 37:0.166582 38:-0.472069 39:0.220632 40:-0.625375 41:-0.367634 
32 1:-0.919776 2:-0.0402824 3:-0.222488 4:-0.910161 5:0.0150529 6:-0.468957 7:0.805427 8:-0.0115971 9:0.148023 10:0.557754 11:0.138119 12:-0.823572 13:-0.771546 14:-0.740509 15:-0.760403 16:-0.741733 17:-0.642151 18:-0.679313 19:-0.47057 20:-0.760202 21:-0.86328 22:-0.715 23:-0.827718 24:-0.641023 25:-0.764612 26:-0.605321 27:-0.777831 28:-0.604363 29:-0.779129 30:-0.667297 31:-0.889119 32:-0.780544 33:-0.952816 34:0.13417 35:-0.490857 36:-0.910576 37:0.0470666 38:-0.585653 39:-0.236161 40:-0.758108 41:-0.163614 
25.6115704312385 1:-0.91747 2:-0.0496207 3:-0.160872 4:-0.907081 5:0.0309789 6:-0.463942 7:0.80832 8:0.00128377 9:0.0196189 10:0.564164 11:0.103673 12:-0.819776 13:-0.746978 14:-0.743292 15:-0.780305 16:-0.869707 17:-0.651438 18:-0.823063 19:-0.457226 20:-0.735505 21:-0.845642 22:-0.758797 23:-0.860825 24:-0.625297 25:-0.813574 26:-0.612362 27:-0.830252 28:-0.564988 29:-0.815576 30:-0.565592 31:-0.903471 32:-0.65458 33:-0.966291 34:0.148681 35:-0.525214 36:-0.889423 37:0.0562745 38:-0.549449 39:-0.255371 40:-0.805028 41:-0.125925 
1.001061618369723 1:-0.765271 2:0.0504015 3:-0.210063 4:-0.915863 5:0.0792231 6:-0.54193 7:0.633155 8:-0.143869 9:0.126696 10:0.731684 11:0.000354078 12:-0.572521 13:-0.840125 14:-0.616481 15:-0.964555 16:-0.815523 17:-0.55233 18:-0.694905 19:-0.0813622 20:-0.649415 21:0.263583 22:-0.631029 23:-0.697038 24:-0.701468 25:-0.78326 26:-0.767185 27:-0.75308 28:-0.650839 29:-0.76872 30:-0.732235 31:-0.759246 32:-0.699951 33:-0.933979 34:0.193333 35:-0.655434 36:-0.938913 37:0.0826926 38:-0.55773 39:0.353279 40:-0.774777 41:-0.272796 
5.034611900806413 1:-0.826994 2:-0.132496 3:-0.376762 4:-0.653757 5:0.356981 6:-0.347419 7:0.765461 8:0.0844752 9:0.358299 10:0.435358 11:-0.43183 12:-0.645791 13:-0.75601 14:-0.759226 15:-0.557956 16:-0.85456 17:-0.483956 18:-0.773736 19:-0.467292 20:-0.729922 21:-0.452748 22:-0.723711 23:-0.584792 24:-0.674771 25:-0.674755 26:-0.748556 27:-0.666168 28:-0.671349 29:-0.695025 30:-0.547837 31:-0.0470047 32:-0.0370615 33:-0.931921 34:0.323255 35:-0.408547 36:-0.531184 37:0.348913 38:-0.46927 39:0.302561 40:0.26478 41:0.322249 
32 1:-0.954261 2:-0.0466521 3:-0.121836 4:-0.905207 5:-0.0598954 6:-0.409999 7:0.836786 8:-0.00339937 9:-0.0544762 10:0.507055 11:0.275561 12:-0.883974 13:-0.829704 14:-0.706882 15:-0.815844 16:-0.645161 17:-0.574047 18:-0.675325 19:-0.695062 20:-0.644311 21:-0.803108 22:-0.737779 23:-0.884868 24:-0.793996 25:-0.667245 26:-0.875576 27:-0.687263 28:-0.829758 29:-0.751114 30:-0.840779 31:-0.68252 32:-0.773814 33:-0.891006 34:0.0424 35:-0.436093 36:-0.963902 37:0.0212989 38:-0.53787 39:-0.572302 40:-0.63598 41:-0.185293 
0.04127376195386293 1:-0.642618 2:-0.000236348 3:-0.198725 4:-0.955588 5:0.121387 6:-0.673372 7:0.372669 8:-0.0814458 9:0.116114 10:0.893734 11:-0.1177 12:-0.286657 13:-0.806165 14:-0.902818 15:-0.8562 16:-0.850745 17:-0.519316 18:-0.912476 19:-0.491765 20:-0.897084 21:-0.627349 22:-0.877612 23:-1 24:-1 25:-0.509468 26:-0.897422 27:-0.298633 28:-0.884537 29:0.0507518 30:-0.720947 31:0.297671 32:-0.688342 33:-0.983636 34:0.199869 35:-0.68179 36:-0.947855 37:0.133958 38:-0.754313 39:0.419349 40:-0.708331 41:-0.28576 
18.06467473968551 1:-0.637695 2:-0.247621 3:-0.101371 4:-0.878498 5:-0.0337975 6:-0.67088 7:0.389844 8:0.334942 9:-0.131402 10:0.789354 11:0.284494 12:-0.247724 13:-0.810412 14:-0.87265 15:-0.843433 16:-0.918566 17:-0.576226 18:-0.71394 19:-0.523497 20:-0.684252 21:-0.594695 22:-0.759104 23:-1 24:-1 25:-0.565761 26:-0.752883 27:-0.323022 28:-0.693535 29:0.0100672 30:-0.543619 31:0.36656 32:-0.712923 33:-0.950192 34:0.113026 35:-0.667542 36:-0.868596 37:0.000998546 38:-0.760611 39:0.284653 40:-0.611637 41:-0.262201 
1.205585536724714 1:-0.967001 2:-0.0619419 3:-0.139791 4:-0.763852 5:0.139479 6:-0.537103 7:0.898571 8:0.0222216 9:-0.0310521 10:0.396324 11:-0.146134 12:-0.778038 13:-0.779399 14:-0.597506 15:-0.663332 16:-0.479947 17:-0.66188 18:-0.310825 19:-0.656501 20:-0.36088 21:-0.777876 22:-0.484369 23:-0.761057 24:-0.519657 25:-0.826452 26:-0.478799 27:-0.90531 28:-0.567473 29:-0.903787 30:-0.491979 31:-0.512247 32:-0.424733 33:-0.829008 34:0.262071 35:-0.60847 36:-0.818534 37:0.105954 38:-0.604262 39:-0.300889 40:-0.577691 41:-0.16951 
32 1:-0.916899 2:0.0462954 3:-0.0169729 4:-0.854136 5:0.151623 6:-0.522871 7:0.791891 8:-0.141028 9:-0.303553 10:0.486564 11:-0.1657 12:-0.767474 13:-0.616626 14:-0.689608 15:-0.666507 16:-0.503344 17:-0.747166 18:-0.190495 19:-0.741989 20:-0.257933 21:-0.617749 22:-0.623817 23:-0.551296 24:-0.659939 25:-0.653634 26:-0.654676 27:-0.658507 28:-0.715039 29:-0.64513 30:-0.725869 31:-0.608779 32:-0.735832 33:-0.845039 34:0.22741 35:-0.561293 36:-0.934954 37:0.150174 38:-0.620837 39:-0.446503 40:-0.523987 41:-0.171566 
31.29044747807884 1:-0.904193 2:-0.0414573 3:-0.204979 4:-0.932054 5:0.0344646 6:-0.619198 7:0.757959 8:-0.00967925 9:0.14047 10:0.615051 11:0.119548 12:-0.745556 13:-0.808067 14:-0.87067 15:-0.579046 16:-0.881286 17:-0.471046 18:-0.849288 19:-1 20:-1 21:-0.31783 22:-0.610162 23:-0.706412 24:-0.867707 25:-1 26:-1 27:-0.683799 28:-0.727141 29:-0.781941 30:-0.814571 31:-0.786936 32:-0.898646 33:-0.951171 34:0.151516 35:-0.753277 36:-0.943036 37:0.0579971 38:-0.565215 39:-0.523968 40:-0.650683 41:-0.405553 
13.15632741866823 1:-0.909481 2:-0.00203793 3:-0.133464 4:-0.843562 5:0.0376053 6:-0.650298 7:0.796957 8:-0.0875525 9:-0.0653427 10:0.531854 11:0.114931 12:-0.66392 13:-0.820788 14:-0.782499 15:-0.543337 16:-0.643049 17:-0.434193 18:-0.506991 19:-1 20:-1 21:-0.228846 22:-0.581805 23:-0.577887 24:-0.582489 25:-0.964841 26:-0.865752 27:-0.904452 28:-0.619138 29:-0.845349 30:-0.447654 31:-0.843607 32:-0.68649 33:-0.923132 34:0.174166 35:-0.699227 36:-0.847168 37:0.046986 38:-0.709443 39:-0.306331 40:-0.658451 41:-0.5059 
27.92825399863994 1:-0.98963 2:-0.0334486 3:-0.199344 4:-0.813739 5:0.0762289 6:-0.492645 7:0.904852 8:-0.0217177 9:0.104063 10:0.411268 11:0.0067603 12:-0.861008 13:-0.932933 14:-0.770386 15:-0.885487 16:-0.436247 17:-0.908435 18:-0.240768 19:-0.804743 20:-0.431858 21:-0.863423 22:-0.522417 23:-0.831989 24:-0.533518 25:-0.93218 26:-0.582381 27:-0.920762 28:-0.634755 29:-0.921577 30:-0.624435 31:-0.916674 32:-0.685079 33:-0.820271 34:0.190407 35:-0.557756 36:-0.906607 37:0.0815571 38:-0.570406 39:-0.49897 40:-0.619027 41:0.0782416 
32 1:-0.964142 2:-0.0425814 3:-0.201419 4:-0.948685 5:0.114209 6:-0.648577 7:0.822691 8:-0.00717028 9:0.143325 10:0.533988 11:-0.126306 12:-0.865989 13:-0.913345 14:-0.940117 15:-0.956287 16:-0.880638 17:-1 18:-1 19:-0.817052 20:-0.746463 21:-0.74811 22:-0.733875 23:-0.914788 24:-0.899344 25:-0.974568 26:-0.84685 27:-1 28:-1 29:-0.722503 30:-0.867092 31:-0.999264 32:-0.94655 33:-0.946415 34:0.197264 35:-0.690993 36:-0.97635 37:0.132775 38:-0.686812 39:-0.711213 40:-0.900056 41:-0.0615708 
32 1:-0.922381 2:-0.0718071 3:-0.0846315 4:-0.913345 5:0.0970289 6:-0.582798 7:0.788346 8:0.0428069 9:-0.180604 10:0.557008 11:-0.0526402 12:-0.785279 13:-1 14:-1 15:-0.589905 16:-0.748767 17:-1 18:-1 19:-0.456693 20:-0.735599 21:-0.755865 22:-0.925128 23:-0.856357 24:-0.68659 25:-0.713211 26:-0.827907 27:-1 28:-1 29:-0.896668 30:-0.831368 31:-0.909974 32:-0.798398 33:-0.938361 34:0.145421 35:-0.70095 36:-0.927072 37:0.159123 38:-0.570554 39:-0.451809 40:-0.703535 41:-0.573527 
32 1:-0.931914 2:0.00154047 3:-0.181248 4:-0.951278 5:0.0729516 6:-0.676473 7:0.774488 8:-0.105173 9:0.0823968 10:0.604859 11:0.00521652 12:-0.782373 13:-1 14:-1 15:-0.602237 16:-0.794401 17:-1 18:-1 19:-0.509231 20:-0.761674 21:-0.840255 22:-0.917679 23:-0.383908 24:-0.881573 25:-0.764429 26:-0.816989 27:-1 28:-1 29:-0.796628 30:-0.760858 31:-0.986778 32:-0.903652 33:-0.960869 34:0.169089 35:-0.734462 36:-0.96369 37:0.0956785 38:-0.712402 39:-0.59636 40:-0.922103 41:-0.513427 
14.42310517963459 1:-0.91774 2:-0.0727126 3:-0.196795 4:-0.933247 5:0.10224 6:-0.585699 7:0.781615 8:0.0450465 9:0.111753 10:0.591887 11:-0.0676245 12:-0.789314 13:-1 14:-1 15:-0.608537 16:-0.893111 17:-1 18:-1 19:-0.49628 20:-0.825949 21:-0.408786 22:-0.843475 23:-1 24:-1 25:-0.736734 26:-0.74574 27:-1 28:-1 29:-0.75579 30:-0.682728 31:-0.697629 32:-0.645677 33:-0.979692 34:0.196046 35:-0.60388 36:-0.922759 37:0.11094 38:-0.674517 39:-0.594187 40:-0.85512 41:-0.363667 
7.577875454124475 1:-0.935922 2:-0.0255996 3:-0.235438 4:-0.831645 5:0.0463645 6:-0.568964 7:0.839439 8:-0.0362117 9:0.204082 10:0.480554 11:0.0795145 12:-0.757516 13:-1 14:-1 15:-0.885505 16:-0.580846 17:-0.847494 18:-0.327526 19:-0.90242 20:-0.747607 21:-0.844141 22:-0.292814 23:-0.760236 24:-0.648945 25:-1 26:-1 27:-0.686483 28:-0.802006 29:-0.744507 30:-0.849785 31:-0.354294 32:-0.883433 33:-0.844458 34:0.150212 35:-0.638517 36:-0.903149 37:0.0758309 38:-0.620865 39:-0.301167 40:-0.520265 41:-0.347271 
32 1:-0.914439 2:-0.0442571 3:-0.174447 4:-0.929437 5:0.0543345 6:-0.646082 7:0.769095 8:-0.00395231 9:0.0567157 10:0.608376 11:0.0650386 12:-0.745674 13:-0.821561 14:-0.840933 15:-0.561577 16:-0.825294 17:-0.415977 18:-0.663521 19:-1 20:-1 21:-0.293831 22:-0.680307 23:-0.698497 24:-0.818442 25:-1 26:-1 27:-0.745694 28:-0.715334 29:-0.726117 30:-0.522494 31:-1 32:-1 33:-0.96711 34:0.176745 35:-0.721307 36:-0.925434 37:0.0645032 38:-0.682697 39:-0.407379 40:-0.743508 41:-0.495165 
20.12118452088598 1:-0.963004 2:-0.0444229 3:-0.225802 4:-0.854219 5:0.168269 6:-0.447776 7:0.859041 8:-0.00598005 9:0.151344 10:0.466248 11:-0.181145 12:-0.858655 13:-0.809664 14:-0.801198 15:-0.836055 16:-0.530103 17:-0.713257 18:-0.361176 19:-0.756633 20:-0.532073 21:-0.82384 22:-0.583295 23:-0.83356 24:-0.623377 25:-0.912343 26:-0.658894 27:-0.855629 28:-0.70188 29:-0.703789 30:-0.904995 31:-0.694147 32:-0.796766 33:-0.865556 34:0.241128 35:-0.5861 36:-0.92452 37:0.167678 38:-0.45027 39:-0.575007 40:-0.640802 41:-0.0298299 
32 1:-0.966529 2:0.0184743 3:-0.197931 4:-0.813208 5:0.00632035 6:-0.603295 7:0.883921 8:-0.118825 9:0.11807 10:0.416349 11:0.195361 12:-0.779769 13:-1 14:-1 15:-0.794399 16:-0.508057 17:-1 18:-1 19:-0.743242 20:-0.372216 21:-0.823502 22:-0.601937 23:-1 24:-1 25:-0.851246 26:-0.539812 27:-1 28:-1 29:-0.916154 30:-0.66741 31:-0.721734 32:-0.682392 33:-0.829534 34:0.137883 35:-0.675372 36:-0.888104 37:0.0321753 38:-0.647371 39:-0.618357 40:-0.639304 41:-0.469992 
12.22216081359433 1:-0.905116 2:0.0213782 3:-0.165163 4:-0.901337 5:-0.00253611 6:-0.673435 7:0.755726 8:-0.14291 9:0.0286787 10:0.590095 11:0.251239 12:-0.683339 13:-0.899716 14:-0.897391 15:-0.57681 16:-0.779533 17:-0.448947 18:-0.714036 19:-1 20:-1 21:-0.300979 22:-0.699578 23:-0.489173 24:-0.794123 25:-1 26:-1 27:-0.709658 28:-0.715838 29:-0.896327 30:-0.554514 31:-0.96273 32:-0.746927 33:-0.951176 34:0.158015 35:-0.70067 36:-0.903356 37:0.0101445 38:-0.737053 39:-0.479183 40:-0.768731 41:-0.456761 
3.764281855726054 1:-0.982225 2:-0.00281983 3:-0.182534 4:-0.694377 5:0.187072 6:-0.549752 7:0.931931 8:-0.0712043 9:0.0699134 10:0.312 11:-0.264085 12:-0.751722 13:-0.788013 14:-0.701785 15:-0.825001 16:-0.42525 17:-0.835437 18:-0.209645 19:-0.823873 20:-0.210033 21:-0.813959 22:-0.382871 23:-0.7712 24:-0.467208 25:-0.776646 26:-0.468295 27:-0.794697 28:-0.433281 29:-0.773154 30:-0.333759 31:-0.545273 32:-0.449076 33:-0.77002 34:0.265935 35:-0.601215 36:-0.775875 37:0.166196 38:-0.630835 39:-0.436186 40:-0.493806 41:-0.0302026 
32 1:-0.955902 2:-0.0445065 3:-0.115499 4:-0.953136 5:0.054803 6:-0.429369 7:0.828073 8:-0.00593185 9:-0.0708185 10:0.541108 11:0.0527746 12:-0.909424 13:-0.739613 14:-0.784201 15:-0.811545 16:-0.798165 17:-0.83497 18:-0.80244 19:-0.641761 20:-0.750001 21:-0.809084 22:-0.738772 23:-0.691117 24:-0.727836 25:-0.723347 26:-0.858047 27:-0.870025 28:-0.852506 29:-0.660532 30:-0.831748 31:-0.68069 32:-0.864096 33:-0.964983 34:0.130428 35:-0.44946 36:-0.963206 37:0.101049 38:-0.560226 39:-0.70226 40:-0.863955 41:0.017984 
32 1:-0.958246 2:-0.0967896 3:-0.213149 4:-0.855109 5:0.043984 6:-0.576145 7:0.858561 8:0.0856828 9:0.152715 10:0.468619 11:0.0875008 12:-0.808646 13:-0.756749 14:-0.614342 15:-0.702879 16:-0.492119 17:-0.816672 18:-0.410538 19:-0.835356 20:-0.445685 21:-0.798785 22:-0.598486 23:-0.776308 24:-0.591884 25:-0.771833 26:-0.608925 27:-0.679768 28:-0.637776 29:-0.632024 30:-0.742865 31:-0.619725 32:-0.845149 33:-0.86376 34:0.153788 35:-0.654108 36:-0.921393 37:0.0698046 38:-0.622903 39:-0.687786 40:-0.668031 41:-0.31495 
17.06188495856619 1:-0.701466 2:0.0636285 3:-0.52282 4:-0.679317 5:-0.274263 6:-0.310558 7:0.64486 8:-0.108209 9:0.528448 10:0.480585 11:0.515142 12:-0.566353 13:-0.679723 14:-0.747583 15:-0.649412 16:-0.7608 17:-0.621222 18:-0.722851 19:-0.740847 20:-0.778642 21:-0.660999 22:-0.623496 23:-0.828359 24:-0.759166 25:-0.873288 26:-0.462749 27:-0.836449 28:-0.421197 29:-0.861505 30:-0.339819 31:-0.051597 32:-0.522065 33:-0.854477 34:-0.112448 35:-0.251758 36:-0.675726 37:-0.134216 38:-0.52329 39:0.574787 40:-0.358425 41:0.413709 
17.57179192624102 1:-0.821993 2:-0.0436521 3:-0.312575 4:-0.917488 5:0.0983152 6:-0.540141 7:0.674147 8:-0.00664003 9:0.357475 10:0.64705 11:-0.0436902 12:-0.656708 13:-0.815313 14:-0.645693 15:-0.821959 16:-0.754519 17:-0.811365 18:-0.580399 19:-0.754165 20:-0.67323 21:-0.610679 22:-0.672659 23:-0.617194 24:-0.798127 25:-0.575118 26:-0.705637 27:-0.481066 28:-0.704749 29:-0.163442 30:-0.707263 31:-0.30251 32:-0.790479 33:-0.90308 34:0.255106 35:-0.437456 36:-0.964703 37:0.0685553 38:-0.717976 39:-0.0629635 40:-0.687068 41:0.114415 
32 1:-0.963351 2:-0.0200371 3:-0.100361 4:-0.905449 5:0.0482357 6:-0.427943 7:0.847836 8:-0.0383242 9:-0.10001 10:0.502654 11:0.065864 12:-0.892739 13:-0.846789 14:-0.722103 15:-0.72203 16:-0.781696 17:-0.686419 18:-0.679539 19:-0.729177 20:-0.853716 21:-0.778139 22:-0.737701 23:-0.737241 24:-0.692451 25:-0.821219 26:-0.663838 27:-0.7308 28:-0.641543 29:-0.726322 30:-0.589005 31:-0.73991 32:-0.582378 33:-0.966217 34:0.181509 35:-0.412285 36:-0.893588 37:0.0539276 38:-0.584608 39:-0.672078 40:-0.725683 41:0.0708529 
16.17596517206319 1:-0.951489 2:-0.046358 3:-0.139439 4:-0.9184 5:-0.0433462 6:-0.535467 7:0.82516 8:-0.00200183 9:-0.0331557 10:0.520369 11:0.296838 12:-0.856847 13:-0.966178 14:-0.779334 15:-0.881849 16:-0.742099 17:-0.908844 18:-0.673845 19:-0.941849 20:-0.594014 21:-0.737394 22:-0.705834 23:-0.67036 24:-0.735168 25:-0.661195 26:-0.878023 27:-0.665087 28:-0.842505 29:-0.564394 30:-0.843166 31:-0.875566 32:-0.843028 33:-0.905956 34:0.05193 35:-0.505493 36:-0.965575 37:0.0323074 38:-0.669486 39:-0.65182 40:-0.71674 41:-0.0734417 
32 1:-0.952244 2:0.00140662 3:-0.18718 4:-0.917181 5:0.0996423 6:-0.48633 7:0.834925 8:-0.0725403 9:0.0767456 10:0.527569 11:-0.0452762 12:-0.870479 13:-0.766462 14:-0.869298 15:-0.892112 16:-0.858008 17:-0.801252 18:-0.652486 19:-0.826913 20:-0.821571 21:-0.710864 22:-0.812305 23:-0.713044 24:-0.764135 25:-0.758584 26:-0.764143 27:-0.698304 28:-0.740137 29:-0.639741 30:-0.657348 31:-0.579244 32:-0.728638 33:-0.950957 34:0.169091 35:-0.422653 36:-0.925207 37:0.126356 38:-0.656802 39:-0.735834 40:-0.848546 41:0.0602826 
32 1:-0.920176 2:-0.0177587 3:-0.306226 4:-0.9496 5:0.00957661 6:-0.426643 7:0.784231 8:-0.0407209 9:0.302527 10:0.55474 11:0.141689 12:-0.859725 13:-0.782648 14:-0.696114 15:-0.824748 16:-0.860507 17:-0.669097 18:-0.700256 19:-0.611934 20:-0.629158 21:-0.752068 22:-0.838742 23:-0.741995 24:-0.775827 25:-0.713302 26:-0.771956 27:-0.863859 28:-0.701538 29:-0.709068 30:-0.808101 31:-0.627054 32:-0.854389 33:-0.955599 34:0.14348 35:-0.475796 36:-0.967732 37:0.0317408 38:-0.53377 39:-0.515109 40:-0.776842 41:0.135285 
18.88882893093054 1:-0.903314 2:-0.0472157 3:-0.351787 4:-0.937801 5:0.0766825 6:-0.423643 7:0.764562 8:-0.00271795 9:0.384043 10:0.549637 11:0.00931032 12:-0.832528 13:-0.721845 14:-0.8641 15:-0.849418 16:-0.768524 17:-0.778723 18:-0.720244 19:-0.792109 20:-0.654184 21:-0.615578 22:-0.808665 23:-0.687377 24:-0.795081 25:-0.710241 26:-0.795046 27:-0.567905 28:-0.780949 29:-0.626962 30:-0.773526 31:-0.654686 32:-0.870274 33:-0.944292 34:0.175616 35:-0.45992 36:-0.961837 37:0.095858 38:-0.538143 39:-0.524544 40:-0.769381 41:0.146328 
32 1:-0.948658 2:-0.0218802 3:-0.286463 4:-0.842889 5:0.254395 6:-0.425416 7:0.832015 8:-0.0350728 9:0.261169 10:0.449404 11:-0.338162 12:-0.840157 13:-0.755525 14:-0.909227 15:-0.825732 16:-0.899988 17:-0.771001 18:-0.628883 19:-0.71867 20:-0.730583 21:-0.64682 22:-0.785556 23:-0.758518 24:-0.661036 25:-0.829845 26:-0.661656 27:-0.749033 28:-0.636776 29:-0.742623 30:-0.625276 31:-0.70822 32:-0.728031 33:-0.921151 34:0.317263 35:-0.382399 36:-0.847249 37:0.213231 38:-0.594328 39:-0.605891 40:-0.6327 41:0.112799 
22.28261305554799 1:-0.752796 2:0.0447646 3:-0.402898 4:-0.861087 5:0.0344658 6:-0.681605 7:0.476294 8:-0.165303 9:0.67192 10:0.580137 11:0.116313 12:-0.399903 13:-0.613197 14:-0.832117 15:-0.762207 16:-0.571279 17:-0.720465 18:-0.360366 19:-0.765174 20:-0.576666 21:-0.725363 22:-0.623276 23:-1 24:-1 25:-0.816785 26:-0.652067 27:-0.25047 28:-0.708959 29:-0.961546 30:-0.796169 31:-0.96317 32:-0.838475 33:-0.867939 34:0.111717 35:-0.636601 36:-0.916085 37:0.0833226 38:-0.788057 39:0.217558 40:-0.509302 41:-0.382341 
22.38921522067724 1:-0.742883 2:-0.0223793 3:-0.399898 4:-0.866943 5:0.0960587 6:-0.684869 7:0.461413 8:-0.0442479 9:0.665762 10:0.601692 11:-0.0537473 12:-0.383203 13:-0.56094 14:-0.917195 15:-0.740014 16:-0.609868 17:-0.700669 18:-0.379669 19:-0.706031 20:-0.578508 21:-0.711222 22:-0.635477 23:-1 24:-1 25:-0.255829 26:-0.478247 27:-0.262636 28:-0.714622 29:-0.869876 30:-0.785801 31:-0.958701 32:-0.854594 33:-0.895088 34:0.175991 35:-0.653287 36:-0.903153 37:0.115777 38:-0.784035 39:0.226086 40:-0.530681 41:-0.406343 
32 1:-0.979131 2:-0.07454 3:-0.182024 4:-0.776053 5:-0.121669 6:-0.493249 7:0.889391 8:0.0378495 9:0.0650281 10:0.37577 11:0.443929 12:-0.823047 13:-0.849601 14:-0.773107 15:-0.825432 16:-0.598441 17:-0.834225 18:-0.464532 19:-0.743433 20:-0.727261 21:-0.613573 22:-0.684558 23:-0.832259 24:-0.587424 25:-0.803528 26:-0.555876 27:-0.757005 28:-0.545166 29:-0.832397 30:-0.643771 31:-0.833236 32:-0.628775 33:-0.872547 34:0.0345807 35:-0.497024 36:-0.790223 37:-0.0522766 38:-0.620445 39:-0.58593 40:-0.597033 41:0.0792846 
32 1:-0.941963 2:0.00339559 3:-0.220068 4:-0.912417 5:0.150785 6:-0.461926 7:0.823121 8:-0.0721751 9:0.142695 10:0.528504 11:-0.149757 12:-0.858995 13:-0.847301 14:-0.677706 15:-0.901262 16:-0.767462 17:-0.805448 18:-0.672578 19:-0.82995 20:-0.744632 21:-0.810111 22:-0.789808 23:-0.797979 24:-0.728385 25:-0.77163 26:-0.829796 27:-0.744937 28:-0.761497 29:-0.654652 30:-0.601479 31:-0.664936 32:-0.646694 33:-0.925594 34:0.274767 35:-0.476121 36:-0.940965 37:0.113747 38:-0.585276 39:-0.6642 40:-0.729337 41:-0.187089 
-32 1:-0.873836 2:-0.0151336 3:-0.136252 4:-0.899218 5:0.0947512 6:-0.626226 7:0.732328 8:-0.0583757 9:-0.0515727 10:0.631118 11:-0.0519105 12:-0.660473 13:-0.843221 14:-0.902704 15:-0.562858 16:-0.620274 17:-1 18:-1 19:-0.542815 20:-0.479726 21:-0.68576 22:-0.869475 23:-0.367714 24:-0.732823 25:-0.493502 26:-0.468576 27:-1 28:-1 29:-0.247804 30:-0.683726 31:-0.989703 32:-0.697744 33:-0.931521 34:0.190867 35:-0.621833 36:-0.916364 37:0.105936 38:-0.727239 39:-0.353452 40:-0.489922 41:-0.121051 
-24.77460718360685 1:-0.856891 2:0.00174555 3:-0.247213 4:-0.895209 5:0.0319699 6:-0.641979 7:0.695986 8:-0.0909954 9:0.260231 10:0.634195 11:0.127145 12:-0.616087 13:-0.60008 14:-0.769008 15:-0.487694 16:-0.679527 17:-1 18:-1 19:-0.672567 20:-0.593734 21:-0.453608 22:-0.593026 23:-0.711922 24:-0.838688 25:-0.330243 26:-0.728003 27:-1 28:-1 29:-0.47907 30:-0.60157 31:-0.495507 32:-1 33:-0.921951 34:0.153621 35:-0.610406 36:-0.919041 37:0.0542738 38:-0.750509 39:-0.140883 40:-0.664188 41:-0.572386 
-32 1:-0.929058 2:-0.110068 3:-0.127441 4:-0.91158 5:0.0417151 6:-0.666348 7:0.788373 8:0.136607 9:-0.0918071 10:0.561698 11:0.107998 12:-0.747615 13:-0.92707 14:-0.91926 15:-0.607874 16:-0.664071 17:-1 18:-1 19:-0.609622 20:-0.766179 21:-0.55171 22:-0.651203 23:-1 24:-1 25:-0.579891 26:-0.655622 27:-1 28:-1 29:-0.820339 30:-0.638953 31:-0.863806 32:-0.891104 33:-0.951018 34:0.182725 35:-0.647329 36:-0.917582 37:0.0473727 38:-0.758464 39:-0.596977 40:-0.79115 41:-0.43948 
-32 1:-0.910223 2:0.00369657 3:-0.196619 4:-0.951808 5:0.0397923 6:-0.721236 7:0.720837 8:-0.121592 9:0.146068 10:0.650689 11:0.128087 12:-0.69754 13:-0.621446 14:-0.775634 15:-0.739734 16:-0.954498 17:-0.568583 18:-0.835899 19:-0.737103 20:-0.956619 21:-0.607827 22:-0.786845 23:-0.709829 24:-0.976005 25:-0.638536 26:-0.70745 27:-0.726419 28:-0.97928 29:-0.633672 30:-0.574991 31:-1 32:-1 33:-0.982334 34:0.153965 35:-0.709638 36:-0.946256 37:0.0636514 38:-0.802083 39:-0.600851 40:-0.740825 41:-0.664145 
-1.311519243043093 1:-0.515611 2:-0.059758 3:-0.431119 4:-0.875979 5:0.0221374 6:-0.618642 7:0.288057 8:0.0149339 9:0.571465 10:0.754619 11:0.121162 12:-0.206484 13:-0.926067 14:-0.738789 15:-0.736754 16:-0.509948 17:-0.739771 18:-0.741193 19:-0.65032 20:-0.606368 21:-0.575875 22:-0.869801 23:-0.708498 24:-0.78453 25:-1 26:-1 27:-0.692275 28:-0.770622 29:-0.689943 30:-0.799902 31:0.247836 32:-0.694556 33:-0.865081 34:0.12856 35:-0.619939 36:-0.948012 37:0.0609666 38:-0.716756 39:0.888435 40:-0.523236 41:-0.306043 
-5.141375131905548 1:-0.86856 2:-0.0232854 3:-0.329729 4:-0.960377 5:0.0174747 6:-0.535382 7:0.700735 8:-0.0375512 9:0.404252 10:0.613977 11:0.142598 12:-0.755143 13:-0.812991 14:-0.827707 15:-0.816772 16:-0.759573 17:-0.54541 18:-0.7502 19:-0.673851 20:-0.736193 21:-1 22:-1 23:-0.726192 24:-0.803128 25:-1 26:-1 27:-0.753234 28:-0.900734 29:-1 30:-1 31:-0.604499 32:-0.88663 33:-0.96013 34:0.15364 35:-0.641335 36:-0.979764 37:0.031303 38:-0.553145 39:-0.342158 40:-0.75155 41:-0.328752 
-17.8476858850514 1:-0.873627 2:0.0118216 3:-0.133102 4:-0.88651 5:0.029851 6:-0.673956 7:0.718163 8:-0.119616 9:-0.0706453 10:0.625256 11:0.143129 12:-0.607445 13:-0.844294 14:-0.897086 15:-0.614882 16:-0.641139 17:-1 18:-1 19:-0.594036 20:-0.59473 21:-1 22:-1 23:-0.414703 24:-0.561462 25:-0.666396 26:-0.693511 27:-1 28:-1 29:-0.953819 30:-0.871658 31:-0.955276 32:-0.887291 33:-0.91949 34:0.12343 35:-0.716766 36:-0.907901 37:0.0742704 38:-0.724688 39:-0.515637 40:-0.79487 41:-0.272419 
-1.820208960003571 1:-0.895615 2:-0.0604745 3:-0.172873 4:-0.796222 5:-0.0619993 6:-0.251612 7:0.829751 8:0.00853392 9:0.0397824 10:0.516421 11:0.223063 12:-0.801468 13:-0.745273 14:-0.858321 15:-0.804957 16:-0.668855 17:-0.652419 18:-0.4187 19:-0.766513 20:-0.741326 21:-0.769845 22:-0.681015 23:-0.453238 24:-0.438938 25:-0.451785 26:-0.564688 27:-0.862718 28:-0.815596 29:-0.866557 30:-0.881993 31:-0.792798 32:-0.879733 33:-0.839048 34:0.0760711 35:-0.441598 36:-0.85534 37:-0.00859356 38:-0.26283 39:-0.425586 40:-0.486939 41:-0.0505803 
-20.54475096493487 1:-0.875428 2:-0.0265948 3:-0.226353 4:-0.790247 5:-0.0370009 6:-0.695372 7:0.742476 8:-0.0408242 9:0.221811 10:0.500987 11:0.360206 12:-0.513146 13:-1 14:-1 15:-0.747242 16:-0.926315 17:-0.619636 18:-0.421089 19:-0.698167 20:-0.743179 21:-0.437567 22:-0.543331 23:-1 24:-1 25:-0.640995 26:-0.555702 27:-0.735452 28:-0.512985 29:-1 30:-1 31:-0.727137 32:-0.866598 33:-0.830566 34:0.104114 35:-0.743125 36:-0.850863 37:0.000674974 38:-0.733172 39:-0.508692 40:-0.643248 41:-0.222274 
-32 1:-0.938454 2:-0.0655457 3:-0.18034 4:-0.740454 5:0.0687685 6:-0.456395 7:0.877559 8:0.0220762 9:0.0587855 10:0.43923 11:0.0243377 12:-0.757283 13:-0.949736 14:-0.611089 15:-0.744226 16:-0.741088 17:-0.632678 18:-0.0931898 19:-0.680073 20:-0.421852 21:-0.641571 22:-0.422272 23:-0.646063 24:-0.620705 25:-0.793698 26:-0.331007 27:-0.70407 28:-0.586851 29:-0.767202 30:-0.788007 31:-0.526485 32:-0.801924 33:-0.768632 34:0.177669 35:-0.603136 36:-0.85094 37:0.0828353 38:-0.464325 39:-0.4525 40:-0.531426 41:0.102864 
-25.29807263752191 1:-0.88475 2:-0.0231338 3:-0.168723 4:-0.800503 5:0.0743396 6:-0.32479 7:0.821589 8:-0.0299548 9:0.0341869 10:0.534397 11:0.0165079 12:-0.770491 13:-0.640464 14:-0.691579 15:-0.490908 16:-0.601555 17:-0.343443 18:-0.429502 19:-0.456145 20:-0.645315 21:-0.465938 22:-0.400351 23:-0.681617 24:-0.845573 25:-0.434826 26:-0.597497 27:-0.774742 28:-0.65554 29:-0.939283 30:-0.75437 31:-0.81042 32:-0.433228 33:-0.87175 34:0.118503 35:-0.559908 36:-0.817688 37:0.166437 38:-0.228228 39:-0.402826 40:-0.533615 41:0.236343 
-10.08031791364963 1:-0.836024 2:-0.0481395 3:-0.181692 4:-0.743143 5:-0.0178951 6:-0.462675 7:0.780203 8:-0.00147091 9:0.0602094 10:0.544661 11:0.194171 12:-0.625409 13:-0.755918 14:-0.891925 15:-0.563538 16:-0.574729 17:-0.478723 18:-0.139339 19:-0.635985 20:-0.578851 21:-0.465881 22:-0.478007 23:-1 24:-1 25:-0.194472 26:-0.696195 27:-0.797693 28:-0.931553 29:-0.908398 30:-0.922083 31:-0.897266 32:-0.832479 33:-0.775605 34:0.123523 35:-0.671481 36:-0.850831 37:0.00567227 38:-0.3671 39:-0.181886 40:-0.475087 41:-0.230235 
-32 1:-0.875168 2:-0.0696322 3:-0.243625 4:-0.874416 5:0.163906 6:-0.481767 7:0.76803 8:0.0288246 9:0.190512 10:0.576431 11:-0.176052 12:-0.736314 13:-0.798472 14:-0.800698 15:-0.127061 16:-0.522727 17:-0.55522 18:-0.669907 19:-0.555658 20:-0.700388 21:-0.395661 22:-0.549765 23:-0.547571 24:-0.710483 25:-0.423718 26:-0.70312 27:-0.537573 28:-0.50898 29:-0.735143 30:-0.800689 31:-0.686197 32:-0.824409 33:-0.897111 34:0.229051 35:-0.638537 36:-0.91666 37:0.17339 38:-0.461038 39:-0.138794 40:-0.559533 41:0.117974 
-32 1:-0.67539 2:0.00405683 3:-0.49665 4:-0.958981 5:0.0953491 6:-0.272267 7:0.604755 8:-0.0527035 9:0.492252 10:0.672874 11:-0.0113742 12:-0.656407 13:-0.660681 14:-0.890142 15:-0.39374 16:-0.925617 17:-0.218275 18:-0.821352 19:-0.293622 20:-0.856371 21:-0.517659 22:-0.89022 23:-0.761535 24:-0.903831 25:-0.765752 26:-0.914893 27:-0.443157 28:-0.711369 29:-0.745469 30:-0.725321 31:-0.559773 32:-0.781383 33:-0.988297 34:0.19863 35:-0.466848 36:-0.941213 37:0.101169 38:-0.25928 39:0.0769908 40:-0.86434 41:0.197891 
-24.67045918425587 1:-0.798112 2:0.0730623 3:-0.370907 4:-0.631553 5:-0.079307 6:-0.336327 7:0.76811 8:-0.126928 9:0.342941 10:0.477625 11:0.25667 12:-0.610591 13:-0.656591 14:-0.609437 15:-0.588435 16:-0.691264 17:-0.783183 18:-0.113446 19:-0.32251 20:-0.566942 21:-0.344952 22:-0.316705 23:-0.248373 24:-0.278398 25:-0.920201 26:-0.748778 27:-0.905504 28:-0.837025 29:-0.896563 30:-0.875387 31:-0.478013 32:-0.64615 33:-0.663193 34:0.105235 35:-0.427417 36:-0.784898 37:-0.0538571 38:-0.431195 39:-0.0728297 40:-0.199699 41:0.0806803 
-31.9809880195156 1:-0.930499 2:-0.0707302 3:-0.30148 4:-0.829703 5:0.26237 6:-0.409057 7:0.81861 8:0.0260197 9:0.280393 10:0.459241 11:-0.339638 12:-0.814663 13:-0.864922 14:-0.742748 15:-0.887117 16:-0.857325 17:-0.520848 18:-0.545328 19:-0.757783 20:-0.783645 21:-0.874415 22:-0.699522 23:-0.789763 24:-0.59115 25:-0.929187 26:-0.98205 27:-0.683057 28:-0.603495 29:-0.620309 30:-0.496853 31:-0.873867 32:-0.931773 33:-0.877611 34:0.381639 35:-0.307389 36:-0.864982 37:0.181712 38:-0.610399 39:-0.588798 40:-0.60241 41:-0.00611056 
-32 1:-0.893442 2:-0.0373115 3:-0.190067 4:-0.859337 5:0.0192675 6:-0.579374 7:0.783882 8:-0.0167373 9:0.0910929 10:0.566679 11:0.149075 12:-0.699403 13:-0.527171 14:-0.674667 15:-0.779181 16:-0.602698 17:-0.324451 18:-0.327297 19:-0.514404 20:-0.484003 21:-0.542793 22:-0.619111 23:-0.596524 24:-0.67306 25:-0.79652 26:-0.547228 27:-0.545156 28:-0.634586 29:-0.580086 30:-0.824258 31:-0.873972 32:-0.87478 33:-0.877875 34:0.155102 35:-0.591137 36:-0.90871 37:0.0375917 38:-0.679503 39:-0.343415 40:-0.650405 41:-0.312021 
-32 1:-0.877095 2:-0.0495003 3:-0.178325 4:-0.833432 5:-0.0405113 6:-0.513913 7:0.782375 8:0.00173359 9:0.0571296 10:0.557453 11:0.265766 12:-0.698247 13:-0.57929 14:-0.640686 15:-0.884719 16:-0.630635 17:-0.416044 18:-0.561277 19:-0.629647 20:-0.642737 21:-0.58261 22:-0.636814 23:-0.89968 24:-0.69832 25:-0.839095 26:-0.933876 27:-0.538207 28:-0.697972 29:-0.625295 30:-0.592015 31:-1 32:-1 33:-0.888202 34:0.0894315 35:-0.58641 36:-0.857379 37:0.00906251 38:-0.572036 39:-0.370543 40:-0.632587 41:-0.459602 
-0.06944084326557662 1:-0.893861 2:-0.0245011 3:-0.167287 4:-0.843562 5:-0.0159011 6:-0.511236 7:0.798632 8:-0.0346897 9:0.0331638 10:0.54904 11:0.212578 12:-0.729288 13:-0.590534 14:-0.6998 15:-0.950265 16:-0.587439 17:-0.465206 18:-0.49422 19:-1 20:-1 21:-0.628412 22:-0.701596 23:-0.549979 24:-0.451114 25:-0.734354 26:-0.905097 27:-0.710494 28:-0.856476 29:-0.613832 30:-0.794032 31:-0.848829 32:-0.774726 33:-0.867703 34:0.108057 35:-0.607754 36:-0.898621 37:0.0266791 38:-0.537847 39:-0.566891 40:-0.674347 41:-0.437674 
-26.63606028722845 1:-0.937492 2:-0.0256855 3:-0.0974 4:-0.914878 5:0.044274 6:-0.60732 7:0.805027 8:-0.0388786 9:-0.15944 10:0.54223 11:0.0907456 12:-0.801725 13:-1 14:-1 15:-0.676741 16:-0.784945 17:-0.834649 18:-0.569259 19:-0.839681 20:-0.845265 21:-0.685934 22:-1 23:-1 24:-1 25:-0.735939 26:-0.682128 27:-0.85912 28:-0.850794 29:-0.732768 30:-0.65157 31:-0.939705 32:-0.959967 33:-0.944075 34:0.16103 35:-0.618313 36:-0.924815 37:0.063551 38:-0.689422 39:-0.582999 40:-0.826324 41:-0.390485 
-32 1:-0.884764 2:-0.045483 3:-0.182425 4:-0.862668 5:-0.0245495 6:-0.587545 7:0.767381 8:-0.00297377 9:0.072375 10:0.574989 11:0.263607 12:-0.682596 13:-0.706923 14:-0.975769 15:-0.827829 16:-0.643669 17:-0.365391 18:-0.440242 19:-1 20:-1 21:-0.546833 22:-0.66907 23:-0.566025 24:-0.513632 25:-1 26:-1 27:-0.596327 28:-0.730259 29:-0.650914 30:-0.676253 31:-0.879134 32:-0.826265 33:-0.880841 34:0.12093 35:-0.619736 36:-0.911085 37:0.00630447 38:-0.669058 39:-0.418368 40:-0.686886 41:-0.19009 
-4.629426293117768 1:-0.930316 2:-0.0563249 3:-0.104099 4:-0.857819 5:-0.0398351 6:-0.615769 7:0.811785 8:0.0177136 9:-0.140219 10:0.494164 11:0.327429 12:-0.74092 13:-0.813099 14:-0.732304 15:-0.807184 16:-0.556611 17:-0.529682 18:-0.627054 19:-0.516557 20:-0.844851 21:-0.640398 22:-0.617895 23:-1 24:-1 25:-0.77099 26:-0.837404 27:-0.733558 28:-0.651895 29:-0.886132 30:-0.800051 31:-0.907336 32:-0.835576 33:-0.895002 34:0.0976115 35:-0.686018 36:-0.889808 37:0.00343718 38:-0.657062 39:-0.385039 40:-0.727294 41:-0.635088 
-32 1:-0.928591 2:-0.0784487 3:-0.211663 4:-0.875384 5:0.0520754 6:-0.646433 7:0.808622 8:0.0644621 9:0.168272 10:0.528616 11:0.0717283 12:-0.729812 13:-0.70154 14:-0.932222 15:-0.757707 16:-0.522189 17:-0.521921 18:-0.41477 19:-1 20:-1 21:-0.502907 22:-0.792012 23:-0.695907 24:-0.629657 25:-1 26:-1 27:-0.574808 28:-0.674796 29:-0.64803 30:-0.638741 31:-1 32:-1 33:-0.890879 34:0.175288 35:-0.684021 36:-0.922404 37:0.0614748 38:-0.706761 39:-0.50735 40:-0.730634 41:-0.169185 
-2.720585642008619 1:-0.823441 2:-0.0171377 3:-0.285986 4:-0.727479 5:-0.0589983 6:-0.444766 7:0.763119 8:-0.039875 9:0.250586 10:0.52509 11:0.264221 12:-0.616368 13:-0.844045 14:-0.879791 15:-0.436745 16:-0.652816 17:-0.68815 18:-0.597619 19:-1 20:-1 21:-0.274147 22:-0.566497 23:-0.35913 24:-0.422591 25:-1 26:-1 27:-0.396861 28:-0.652471 29:-0.790813 30:-0.733434 31:-0.94274 32:-0.833914 33:-0.875256 34:0.133478 35:-0.525543 36:-0.696787 37:-0.0595394 38:-0.504234 39:-0.116283 40:-0.414945 41:-0.146673 
-32 1:-0.916849 2:-0.0344242 3:-0.194743 4:-0.831507 5:-0.0890236 6:-0.599963 7:0.803313 8:-0.022049 9:0.106142 10:0.486748 11:0.443528 12:-0.708497 13:-0.943352 14:-0.711207 15:-0.932878 16:-0.652351 17:-1 18:-1 19:-0.538832 20:-0.654356 21:-0.712074 22:-0.620582 23:-1 24:-1 25:-0.759127 26:-0.897649 27:-1 28:-1 29:-0.659382 30:-0.762713 31:-0.969822 32:-0.910101 33:-0.839673 34:0.0835925 35:-0.678607 36:-0.914732 37:-0.0676773 38:-0.604777 39:-0.516337 40:-0.726727 41:-0.0995023 
-17.91147273103204 1:-0.742428 2:-0.00413561 3:0.0612333 4:-0.924203 5:0.109265 6:-0.403116 7:0.636126 8:-0.0526254 9:-0.35832 10:0.667991 11:-0.0450854 12:-0.644 13:-0.175155 14:-0.635891 15:-0.193933 16:-0.739667 17:0.135182 18:-0.638661 19:-0.224989 20:-0.677206 21:-0.461009 22:-0.740921 23:-0.647043 24:-0.793902 25:-0.63601 26:-0.718876 27:-0.611862 28:-0.787792 29:-0.61192 30:-0.783089 31:-0.609065 32:-0.754456 33:-0.939833 34:0.204374 35:-0.644329 36:-0.946343 37:0.115094 38:-0.343917 39:0.503854 40:-0.869079 41:-0.456028 
-32 1:-0.911423 2:0.0348316 3:-0.132111 4:-0.866157 5:0.178202 6:-0.355524 7:0.817916 8:-0.0977302 9:-0.0284987 10:0.533997 11:-0.166692 12:-0.822783 13:-0.930426 14:-0.845089 15:-0.563742 16:-0.695793 17:-0.599385 18:-0.560733 19:-0.598667 20:-0.611302 21:-0.624899 22:-0.651518 23:-1 24:-1 25:-0.866401 26:-0.722076 27:-0.858367 28:-0.712052 29:-0.421854 30:-0.807559 31:-0.91939 32:-0.683655 33:-0.916162 34:0.198001 35:-0.422066 36:-0.880216 37:0.211469 38:-0.458032 39:-0.368817 40:-0.577555 41:0.110565 
-32 1:-0.842217 2:-0.0571136 3:-0.0199008 4:-0.974582 5:0.0860204 6:-0.435363 7:0.709563 8:0.00991158 9:-0.249033 10:0.650671 11:-0.00892101 12:-0.768181 13:-0.253136 14:-0.872733 15:-0.243048 16:-0.88503 17:-0.488356 18:-0.876204 19:-0.636581 20:-0.863189 21:-0.637952 22:-0.88315 23:-0.651009 24:-0.877566 25:-0.78982 26:-0.887471 27:-0.64411 28:-0.882346 29:-0.804259 30:-0.918479 31:-0.690235 32:-0.583123 33:-0.991205 34:0.178641 35:-0.620209 36:-0.967313 37:0.105966 38:-0.424551 39:-0.240367 40:-0.610058 41:-0.358094 
-32 1:-0.792539 2:-0.0385255 3:-0.0494924 4:-0.989091 5:0.0776543 6:-0.522134 7:0.634503 8:-0.0141663 9:-0.222042 10:0.736356 11:0.00411179 12:-0.667013 13:-0.207164 14:-0.885079 15:-0.17663 16:-0.915303 17:-0.200412 18:-0.883791 19:-0.21483 20:-0.895215 21:-0.506754 22:-0.907449 23:-0.557442 24:-0.903625 25:-0.563151 26:-0.911684 27:-0.741556 28:-0.80374 29:-0.714928 30:-0.821851 31:-0.720723 32:-0.884901 33:-0.994041 34:0.179409 35:-0.635785 36:-0.98717 37:0.0935623 38:-0.552078 39:-0.0553079 40:-0.944636 41:-0.347669 
-18.88366393516621 1:-0.921866 2:-0.0893381 3:-0.2322 4:-0.937878 5:0.0463328 6:-0.804264 7:0.685655 8:0.150702 9:0.363928 10:0.602155 11:0.127583 12:-0.613017 13:-1 14:-1 15:-0.765273 16:-0.872087 17:-1 18:-1 19:-0.799838 20:-0.826748 21:-0.54405 22:-0.723874 23:-1 24:-1 25:-0.81481 26:-0.823234 27:-1 28:-1 29:-0.830234 30:-0.726209 31:-0.771725 32:-0.770417 33:-0.954449 34:0.186015 35:-0.801333 36:-0.949717 37:0.0491276 38:-0.855702 39:-0.586316 40:-0.881611 41:-0.253547 
-14.8199287157452 1:-0.742543 2:-0.0907661 3:-0.227106 4:-0.975628 5:0.0827782 6:-0.529067 7:0.594516 8:0.0602441 9:0.160731 10:0.786762 11:-0.00663239 12:-0.585771 13:-0.697658 14:-0.886612 15:-0.780624 16:-0.936854 17:-0.791425 18:-0.909254 19:-1 20:-1 21:-0.21965 22:-0.881153 23:-0.25084 24:-0.84519 25:-1 26:-1 27:-0.27987 28:-0.8469 29:-0.282806 30:-0.815828 31:-0.0440223 32:-0.783859 33:-0.988276 34:0.196715 35:-0.523903 36:-0.97237 37:0.0851616 38:-0.656812 39:-0.13556 40:-0.886445 41:-0.0652076 
-16.9309964794576 1:-0.84943 2:-0.000281572 3:-0.180327 4:-0.810841 5:-0.0685758 6:-0.73247 7:0.668563 8:-0.103482 9:0.0806598 10:0.549718 11:0.49837 12:-0.427191 13:-0.740966 14:-0.680626 15:-0.411974 16:-0.719032 17:-0.473219 18:-0.669861 19:-0.563916 20:-0.573117 21:-0.60085 22:-0.706034 23:-1 24:-1 25:-0.698706 26:-0.77294 27:-0.630152 28:-0.586929 29:-0.636428 30:-0.536265 31:-0.44673 32:-0.635639 33:-0.862753 34:0.0882549 35:-0.725903 36:-0.853362 37:-0.0245811 38:-0.809528 39:-0.0578463 40:-0.58108 41:-0.615133 
-32 1:-0.929237 2:-0.0465857 3:-0.268858 4:-0.956625 5:-0.0395772 6:-0.591189 7:0.7633 8:-0.000619379 9:0.305016 10:0.55845 11:0.316131 12:-0.827169 13:-1 14:-1 15:-0.808751 16:-0.857843 17:-0.807088 18:-0.830773 19:-0.809208 20:-0.856017 21:-1 22:-1 23:-0.761401 24:-0.827672 25:-0.776116 26:-0.872132 27:-0.886815 28:-0.873255 29:-0.892444 30:-0.831113 31:-0.479728 32:-0.794312 33:-0.974548 34:0.111889 35:-0.70939 36:-0.954198 37:-0.015929 38:-0.568056 39:-0.301966 40:-0.908391 41:-0.19552 
-2.428599954345255 1:-0.60831 2:-0.0797808 3:0.0318031 4:-0.711875 5:-0.275944 6:-0.37171 7:0.586615 8:0.027698 9:-0.263708 10:0.610838 11:0.547009 12:-0.453433 13:-0.511619 14:-0.575221 15:-0.107581 16:-0.311599 17:0.0219751 18:-0.486123 19:-0.476708 20:-0.564294 21:-0.806909 22:-0.889008 23:-0.755327 24:-0.875685 25:-0.803968 26:-0.811416 27:-0.720983 28:-0.679684 29:-0.763605 30:-0.689333 31:-0.709524 32:-0.698335 33:-0.789237 34:0.032994 35:-0.700407 36:-0.775512 37:-0.343576 38:-0.0862284 39:0.53578 40:-0.291804 41:-0.309642 
-18.65889061287411 1:-0.619299 2:-0.0296798 3:-0.450634 4:-0.866319 5:-0.0739264 6:-0.538325 7:0.451804 8:-0.0249987 9:0.572425 10:0.675124 11:0.301673 12:-0.398215 13:-0.679202 14:-0.579076 15:-0.701508 16:-0.612104 17:-0.570974 18:-0.48514 19:-0.509429 20:-0.422662 21:-0.509887 22:-0.863989 23:-0.37683 24:-0.862176 25:-0.293703 26:-0.777067 27:-0.199898 28:-0.827879 29:-0.149243 30:-0.80494 31:-0.0433159 32:-0.811844 33:-0.855273 34:0.0516717 35:-0.613703 36:-0.949538 37:-0.00166895 38:-0.597014 39:0.270666 40:-0.571491 41:-0.24565 
-6.84172086943946 1:-0.896101 2:-0.0998073 3:-0.110557 4:-0.876701 5:0.130205 6:-0.591956 7:0.772255 8:0.0908419 9:-0.11262 10:0.568045 11:-0.13965 12:-0.708557 13:-0.670226 14:-0.894168 15:-1 16:-1 17:-0.560267 18:-0.831801 19:-0.765674 20:-0.803733 21:-0.715033 22:-0.95867 23:-0.772712 24:-0.810099 25:-0.70984 26:-0.97028 27:-0.72017 28:-0.592275 29:-0.609462 30:-0.885807 31:-0.691735 32:-0.536977 33:-0.974146 34:0.202919 35:-0.544086 36:-0.84808 37:0.14069 38:-0.719729 39:-0.565087 40:-0.759979 41:-0.481973 
-27.31992471950984 1:-0.859234 2:0.0285444 3:-0.201745 4:-0.959505 5:0.0316809 6:-0.320783 7:0.761502 8:-0.0864092 9:0.088189 10:0.631037 11:0.087397 12:-0.815952 13:-0.523843 14:-0.774847 15:-0.45152 16:-0.75917 17:-0.480886 18:-0.70567 19:-1 20:-1 21:-0.385758 22:-0.794853 23:-0.357419 24:-0.760321 25:-0.698456 26:-0.93434 27:-0.681861 28:-0.753768 29:-0.601755 30:-0.931003 31:-0.519115 32:-0.939599 33:-0.967562 34:0.148239 35:-0.336571 36:-0.969711 37:0.0575558 38:-0.474979 39:-0.562373 40:-0.838321 41:0.0987369 
-10.36375474620671 1:-0.806941 2:-0.147576 3:-0.324798 4:-0.893602 5:0.14384 6:-0.485364 7:0.681823 8:0.131309 9:0.347257 10:0.627969 11:-0.128386 12:-0.657679 13:-0.296476 14:-0.579433 15:-0.680088 16:-0.962175 17:-0.398577 18:-0.577146 19:-0.508962 20:-1 21:-0.292799 22:-0.693292 23:-1 24:-1 25:-0.604244 26:-0.563977 27:-0.847673 28:-0.701101 29:-0.744741 30:-0.815648 31:-0.776202 32:-0.489837 33:-0.933266 34:0.214322 35:-0.623357 36:-0.899958 37:0.160074 38:-0.47444 39:-0.181163 40:-0.491485 41:-0.366618 
-1.36547739849526 1:-0.508434 2:-0.00854591 3:-0.0818048 4:-0.870554 5:-0.0337624 6:-0.674261 7:0.252137 8:-0.0600984 9:-0.162204 10:0.85148 11:0.262275 12:-0.0938825 13:-0.551633 14:-0.950327 15:0.125555 16:-0.911035 17:-0.571698 18:-0.933612 19:0.254965 20:-0.930036 21:-0.591584 22:-0.996617 23:-0.36068 24:-0.94568 25:-1 26:-1 27:-0.748096 28:-0.73488 29:-1 30:-1 31:-0.638151 32:-0.233116 33:-0.992408 34:0.148572 35:-0.82852 36:-0.742327 37:-0.0620494 38:-0.563306 39:0.556556 40:0.0593892 41:-0.600515 
-6.01541893793064 1:-0.65153 2:-0.000999125 3:-0.43536 4:-0.786381 5:-0.086453 6:-0.558256 7:0.495248 8:-0.063252 9:0.561739 10:0.607424 11:0.336513 12:-0.37547 13:-0.760181 14:-0.388654 15:-0.722227 16:-0.58751 17:-0.675426 18:-0.510437 19:-0.66374 20:-0.580004 21:-0.674221 22:-0.581319 23:-0.557512 24:-0.775432 25:-0.5251 26:-0.73552 27:-0.078155 28:-0.854565 29:-0.180225 30:-0.440362 31:-0.220749 32:-0.376561 33:-0.837982 34:0.0621391 35:-0.552804 36:-0.841797 37:-0.0271992 38:-0.676412 39:0.459761 40:-0.133103 41:-0.0617259 
-32 1:-0.89228 2:-0.00513722 3:-0.245435 4:-0.913846 5:0.00536994 6:-0.679363 7:0.717431 8:-0.0868679 9:0.285019 10:0.603606 11:0.226218 12:-0.664432 13:-0.476007 14:-0.743088 15:-0.48052 16:-0.725711 17:-0.490473 18:-0.743881 19:-0.687181 20:-0.759107 21:-0.530942 22:-0.609868 23:-0.583825 24:-0.643895 25:-1 26:-1 27:-0.533884 28:-0.506681 29:-0.774906 30:-0.628555 31:-0.772039 32:-0.860526 33:-0.954768 34:0.117618 35:-0.696568 36:-0.916639 37:0.0473072 38:-0.752634 39:-0.452545 40:-0.683845 41:-0.664585 
-31.15408265417028 1:-0.921312 2:-0.00681604 3:-0.154417 4:-0.981027 5:0.00882587 6:-0.327906 7:0.800122 8:-0.0492823 9:0.0102073 10:0.586281 11:0.128978 12:-0.896109 13:-0.544117 14:-0.802591 15:-0.56601 16:-0.84833 17:-0.569658 18:-0.795514 19:-0.578104 20:-0.82353 21:-0.559956 22:-0.832139 23:-1 24:-1 25:-0.461803 26:-0.830078 27:-0.491487 28:-0.833348 29:-0.475251 30:-0.83148 31:-0.583376 32:-0.856425 33:-0.983742 34:0.128991 35:-0.3864 36:-0.98612 37:0.0435831 38:-0.451464 39:-0.61795 40:-0.990831 41:0.0646823 
-32 1:-0.942507 2:0.0270219 3:-0.175216 4:-0.940206 5:0.0150674 6:-0.227739 7:0.830284 8:-0.0781232 9:0.0433464 10:0.541386 11:0.107576 12:-0.914797 13:-0.641606 14:-0.685501 15:-0.61168 16:-0.722654 17:-0.629376 18:-0.675724 19:-0.490974 20:-0.712138 21:-0.660963 22:-0.727557 23:-0.548093 24:-0.720391 25:-0.632159 26:-0.705319 27:-0.62973 28:-0.723704 29:-0.62994 30:-0.712594 31:-0.657618 32:-0.738778 33:-0.953984 34:0.122737 35:-0.217872 36:-0.95492 37:0.0559827 38:-0.428261 39:-0.506765 40:-0.890792 41:0.197716 
-21.49499741984733 1:-0.978828 2:-0.0216836 3:-0.180628 4:-0.967686 5:0.112072 6:-0.754851 7:0.82514 8:-0.0682813 9:0.0984099 10:0.529577 11:-0.183065 12:-0.879065 13:-0.822725 14:-0.834769 15:-0.80865 16:-0.861124 17:-1 18:-1 19:-0.789522 20:-0.807051 21:-0.774394 22:-0.823023 23:-0.949969 24:-0.933109 25:-0.789174 26:-0.801978 27:-1 28:-1 29:-0.7716 30:-0.821245 31:-0.915453 32:-0.92067 33:-0.974895 34:0.210194 35:-0.802818 36:-0.974008 37:0.115142 38:-0.774724 39:-0.893372 40:-0.961244 41:-0.70084 
-3.121781792032128 1:-0.805325 2:-0.143708 3:0.0730003 4:-0.880592 5:-0.076737 6:-0.329622 7:0.708684 8:0.097002 9:-0.345929 10:0.579148 11:0.258878 12:-0.724619 13:-0.242684 14:-0.677171 15:-0.16258 16:-0.74568 17:-0.502422 18:-0.619785 19:-0.458454 20:-0.648363 21:-0.455876 22:-0.672712 23:-0.449491 24:-0.663032 25:-0.425752 26:-0.650242 27:-0.437411 28:-0.614839 29:-0.306979 30:-0.445912 31:-0.173213 32:-0.460293 33:-0.934628 34:0.042684 35:-0.229353 36:-0.891011 37:-0.00137902 38:-0.561134 39:0.279383 40:-0.411748 41:0.221498 
-32 1:-0.934889 2:-0.047824 3:-0.215591 4:-0.967085 5:0.17441 6:-0.558962 7:0.78295 8:0.000890808 9:0.155483 10:0.574868 11:-0.248422 12:-0.855569 13:-0.846685 14:-0.897076 15:-0.822958 16:-0.858302 17:-0.787792 18:-0.818929 19:-0.706868 20:-0.85592 21:-0.588074 22:-0.938235 23:-1 24:-1 25:-0.577346 26:-0.931554 27:-0.632412 28:-0.931807 29:-0.592365 30:-0.923259 31:-0.641981 32:-0.920171 33:-0.960683 34:0.289732 35:-0.561663 36:-0.987479 37:0.132724 38:-0.666202 39:-0.707523 40:-0.948232 41:0.0812306 
-5.798444282623577 1:-0.668504 2:-0.0107303 3:0.0627598 4:-0.687189 5:0.283386 6:-0.326747 7:0.659108 8:-0.0397838 9:-0.300532 10:0.581641 11:-0.289163 12:-0.52092 13:-0.248751 14:-0.374092 15:0.131667 16:-0.688074 17:-0.516919 18:-0.843375 19:-0.623803 20:-0.552166 21:-0.32661 22:-0.715066 23:-0.558865 24:-0.781284 25:-1 26:-1 27:-0.812567 28:-0.737465 29:-0.821739 30:-0.787011 31:-0.533773 32:0.305079 33:-0.818466 34:0.382436 35:-0.446684 36:-0.70471 37:0.195411 38:-0.39338 39:0.611882 40:0.0778729 41:0.142634 
-32 1:-0.965434 2:-0.00523561 3:-0.180578 4:-0.933224 5:0.0934882 6:-0.699069 7:0.831438 8:-0.0972547 9:0.0848572 10:0.523329 11:-0.0733087 12:-0.830945 13:-0.955472 14:-0.882139 15:-0.92033 16:-0.897425 17:-0.871051 18:-0.768964 19:-0.915216 20:-0.724707 21:-0.933615 22:-0.904576 23:-0.700393 24:-0.706925 25:-0.766101 26:-0.673629 27:-0.992085 28:-0.925579 29:-0.644336 30:-0.753929 31:-0.898375 32:-0.743403 33:-0.952761 34:0.215993 35:-0.70879 36:-0.943979 37:0.0834326 38:-0.768202 39:-0.593543 40:-0.847016 41:-0.33503 
-32 1:-0.964403 2:0.00685677 3:-0.197688 4:-0.914282 5:0.100011 6:-0.302928 7:0.849576 8:-0.063205 9:0.0819962 10:0.510397 11:-0.0268158 12:-0.918099 13:-0.684331 14:-0.635851 15:-0.74996 16:-0.736522 17:-0.774218 18:-0.479727 19:-0.789013 20:-0.63411 21:-0.68873 22:-0.632422 23:-0.785439 24:-0.616941 25:-0.736209 26:-0.634949 27:-0.708107 28:-0.693666 29:-0.62418 30:-0.596752 31:-0.720123 32:-0.643093 33:-0.938407 34:0.211023 35:-0.369129 36:-0.93165 37:0.0956395 38:-0.425928 39:-0.643503 40:-0.694978 41:0.179257 
-32 1:-0.952184 2:-0.0352921 3:-0.334061 4:-0.784019 5:-0.0822805 6:-0.251637 7:0.854603 8:-0.0163297 9:0.28037 10:0.437469 11:0.255755 12:-0.855375 13:-1 14:-1 15:-0.825007 16:-0.541011 17:-0.833142 18:-0.403211 19:-0.83165 20:-0.441015 21:-0.889762 22:-0.577837 23:-0.944517 24:-0.4572 25:-0.951627 26:-0.568328 27:-0.947561 28:-0.507945 29:-0.537374 30:-0.549731 31:-0.667453 32:-0.65636 33:-0.833088 34:0.0693863 35:-0.27249 36:-0.842701 37:-0.0282189 38:-0.42212 39:-0.259714 40:-0.603473 41:0.13999 
-32 1:-0.810736 2:0.0312159 3:-0.00187119 4:-0.917183 5:0.202948 6:-0.354715 7:0.712825 8:-0.0901607 9:-0.241239 10:0.622031 11:-0.200139 12:-0.734744 13:-0.131515 14:-0.802881 15:-0.279012 16:-0.818144 17:-0.360415 18:-0.724367 19:-0.463412 20:-0.770365 21:-0.576804 22:-0.700683 23:-0.613555 24:-0.61372 25:-0.598961 26:-0.777807 27:-0.515131 28:-0.770597 29:-0.566135 30:-0.754656 31:-0.578137 32:-0.721406 33:-0.955379 34:0.23182 35:-0.423384 36:-0.918682 37:0.216458 38:-0.4681 39:-0.104448 40:-0.722164 41:0.0243422 
-25.64890483323303 1:-0.795479 2:-0.00197922 3:-0.00949036 4:-0.932094 5:0.16045 6:-0.40382 7:0.688454 8:-0.0565805 9:-0.246491 10:0.655477 11:-0.139773 12:-0.703941 13:-0.091204 14:-0.76094 15:-0.247278 16:-0.872016 17:-0.290036 18:-0.828 19:-0.386951 20:-0.837095 21:-0.470697 22:-0.689487 23:-0.49746 24:-0.568948 25:-0.518692 26:-0.701967 27:-0.461348 28:-0.726929 29:-0.509136 30:-0.826623 31:-0.472685 32:-0.81568 33:-0.968957 34:0.206629 35:-0.430179 36:-0.929099 37:0.177384 38:-0.541079 39:-0.0760526 40:-0.729482 41:-0.0298624 
-32 1:-0.749 2:-0.142314 3:-0.197382 4:-0.848531 5:0.123655 6:-0.612953 7:0.6005 8:0.153827 9:0.106954 10:0.708134 11:-0.113322 12:-0.445468 13:-0.7521 14:-0.789455 15:-1 16:-1 17:-0.0943096 18:-0.561054 19:-0.510781 20:-0.80147 21:-0.550946 22:-0.432355 23:-0.655387 24:-0.594073 25:-0.770035 26:-0.722185 27:-0.65747 28:-0.570187 29:-0.901355 30:-0.850857 31:-0.636283 32:-0.654472 33:-0.855016 34:0.269971 35:-0.514102 36:-0.905238 37:0.0937683 38:-0.754677 39:0.180687 40:-0.562741 41:0.0125213 
-16.14016919726641 1:-0.979396 2:-0.0461953 3:-0.194872 4:-0.98822 5:0.0673494 6:-0.426305 7:0.837841 8:-0.00359552 9:0.0885917 10:0.533894 11:0.0271665 12:-0.964018 13:-0.842747 14:-0.96202 15:-0.764017 16:-0.965795 17:-0.792733 18:-0.804185 19:-0.788275 20:-0.852784 21:-0.788949 22:-0.841339 23:-0.742678 24:-0.899189 25:-0.789695 26:-0.855693 27:-0.782269 28:-0.827563 29:-0.795291 30:-0.915581 31:-0.756056 32:-0.839083 33:-0.990976 34:0.176739 35:-0.413343 36:-0.989437 37:0.0815748 38:-0.58121 39:-0.89032 40:-0.994625 41:0.257476 
-10.47088293555046 1:-0.858398 2:-0.0524808 3:-0.335499 4:-0.95153 5:-0.0463721 6:-0.490113 7:0.703892 8:0.00535679 9:0.383511 10:0.606041 11:0.268497 12:-0.756383 13:-0.688998 14:-0.898899 15:-0.692748 16:-0.904708 17:-0.519091 18:-0.794095 19:-1 20:-1 21:-0.493764 22:-0.847097 23:-0.516427 24:-0.840509 25:-1 26:-1 27:-0.512946 28:-0.841597 29:-0.713539 30:-0.907514 31:-0.738769 32:-0.932573 33:-0.968481 34:0.108341 35:-0.599106 36:-0.954415 37:-0.0203074 38:-0.507907 39:-0.555227 40:-0.929859 41:-0.318569 
-4.91416503439547 1:-0.790884 2:-0.0614038 3:-0.203668 4:-0.851057 5:0.142817 6:-0.405896 7:0.722116 8:0.013301 9:0.0961596 10:0.642505 11:-0.107467 12:-0.656735 13:-0.790359 14:-0.741507 15:-0.777891 16:-0.868901 17:-1 18:-1 19:-0.249572 20:-0.512111 21:-1 22:-1 23:-0.149964 24:-0.586265 25:-0.679245 26:-0.75154 27:-1 28:-1 29:-0.707132 30:-0.687133 31:-0.734001 32:-0.774575 33:-0.88268 34:0.144153 35:-0.562315 36:-0.894994 37:0.265444 38:-0.35032 39:-0.0302541 40:-0.520329 41:0.108659 
-32 1:-0.944084 2:-0.054854 3:-0.238927 4:-0.889784 5:0.130066 6:-0.390667 7:0.835463 8:0.00643491 9:0.164635 10:0.513218 11:-0.0904007 12:-0.866267 13:-0.912723 14:-0.916462 15:-0.886308 16:-0.872491 17:-0.92402 18:-0.839179 19:-0.859872 20:-0.487883 21:-0.851197 22:-0.552858 23:-0.37668 24:-0.861888 25:-0.670712 26:-0.712022 27:-0.723857 28:-0.700049 29:-0.79431 30:-0.796431 31:-0.884261 32:-0.879456 33:-0.866458 34:0.247794 35:-0.240344 36:-0.953436 37:0.111364 38:-0.618113 39:-0.218303 40:-0.617609 41:0.246308 
-6.180960551032293 1:-0.914844 2:-0.0496972 3:-0.137724 4:-0.933156 5:-0.0128478 6:-0.501454 7:0.789813 8:0.00225791 9:-0.0322615 10:0.581888 11:0.207709 12:-0.819271 13:-0.520733 14:-0.922341 15:-0.498083 16:-0.883572 17:-1 18:-1 19:-0.605814 20:-0.854065 21:-1 22:-1 23:-0.592607 24:-0.819099 25:-0.67307 26:-0.8002 27:-1 28:-1 29:-0.687643 30:-0.629819 31:-0.804093 32:-0.683564 33:-0.978883 34:0.124248 35:-0.52653 36:-0.914904 37:0.0166866 38:-0.60407 39:-0.484087 40:-0.684242 41:-0.102331 
-32 1:-0.983895 2:-0.0623503 3:-0.175003 4:-0.875977 5:0.0567624 6:-0.429364 7:0.877792 8:0.0178399 9:0.04814 10:0.466212 11:0.0487725 12:-0.904089 13:-0.764315 14:-0.570886 15:-0.649991 16:-0.628806 17:-0.819211 18:-0.523983 19:-0.824008 20:-0.553862 21:-0.852555 22:-0.609783 23:-0.917022 24:-0.62848 25:-0.95796 26:-0.982827 27:-0.959293 28:-0.982212 29:-0.984621 30:-0.97956 31:-0.988438 32:-0.978409 33:-0.899875 34:0.16379 35:-0.596067 36:-0.912709 37:0.0784771 38:-0.429737 39:-0.643128 40:-0.846177 41:-0.414775 
-32 1:-0.822439 2:-0.0133792 3:-0.264272 4:-0.986766 5:-0.0171168 6:-0.305776 7:0.725379 8:-0.0397589 9:0.185078 10:0.662529 11:0.164169 12:-0.79282 13:-0.480454 14:-0.928481 15:-0.475244 16:-0.946421 17:-0.452562 18:-0.946212 19:-0.494268 20:-0.962323 21:-0.490288 22:-0.954269 23:-0.428141 24:-0.925634 25:-0.455902 26:-0.962817 27:-0.443107 28:-0.957666 29:-0.475844 30:-0.963047 31:0.0255906 32:-0.759305 33:-0.994621 34:0.112769 35:-0.350566 36:-0.983356 37:0.0228532 38:-0.452662 39:0.356228 40:-0.791318 41:0.173134 
-4.811909490436602 1:-0.420351 2:0.103197 3:-0.389514 4:-0.709187 5:0.0806505 6:-0.73224 7:0.114335 8:-0.223189 9:0.52457 10:0.646705 11:-0.00320887 12:0.123568 13:-0.651595 14:-0.869796 15:-0.600284 16:-0.738247 17:-0.652436 18:-0.862712 19:-0.607771 20:-0.733356 21:-0.582772 22:-0.792784 23:-0.585219 24:-0.782579 25:-0.682441 26:-0.907695 27:-0.999022 28:-0.824134 29:-0.422076 30:-0.0738538 31:0.343655 32:-0.186576 33:-0.949073 34:0.169381 35:-0.292468 36:-0.715971 37:0.0958032 38:-0.92466 39:0.806664 40:-0.107204 41:0.319017 
-32 1:-0.898835 2:-0.0512081 3:-0.116987 4:-0.947628 5:0.14391 6:-0.68003 7:0.71578 8:0.0116972 9:-0.12838 10:0.638682 11:-0.229862 12:-0.705645 13:-1 14:-1 15:-0.280774 16:-0.75888 17:-0.567164 18:-0.623867 19:-1 20:-1 21:-0.630795 22:-0.796652 23:-0.749012 24:-0.820058 25:-1 26:-1 27:-0.76764 28:-0.810038 29:-0.759786 30:-0.782378 31:-0.52108 32:-0.783377 33:-0.960351 34:0.214016 35:-0.761281 36:-0.959404 37:0.155605 38:-0.696359 39:-0.333488 40:-0.835242 41:-0.540863 
-2.762817426437309 1:-0.504265 2:0.265184 3:-0.277847 4:-0.610078 5:-0.467003 6:-0.0312544 7:0.637208 8:-0.216145 9:0.141701 10:0.602384 11:0.577196 12:-0.525416 13:0.666346 14:-0.4844 15:0.274803 16:-0.619235 17:0.163014 18:-0.465078 19:-0.259981 20:-0.562632 21:-0.469914 22:-0.657874 23:-0.539376 24:-0.697086 25:-0.866614 26:-0.768097 27:-0.767341 28:-0.768432 29:-0.783305 30:-0.689297 31:-0.641363 32:-0.549492 33:-0.733842 34:-0.102109 35:-0.224254 36:-0.677737 37:-0.420652 38:-0.0966986 39:0.714831 40:-0.408471 41:0.284895 
-4.032047465066395 1:-0.755664 2:0.0381153 3:-0.428343 4:-0.877774 5:0.140537 6:-0.293105 7:0.683493 8:-0.0883371 9:0.415929 10:0.612091 11:-0.0814098 12:-0.68818 13:-0.557073 14:-0.808134 15:-0.392845 16:-0.74954 17:-0.47893 18:-0.646703 19:-1 20:-1 21:-0.361669 22:-0.691364 23:-0.389395 24:-0.594674 25:-1 26:-1 27:-0.505472 28:-0.657039 29:-0.539882 30:-0.414337 31:-0.066344 32:-0.427087 33:-0.958372 34:0.188072 35:-0.262238 36:-0.861639 37:0.164911 38:-0.490172 39:0.171764 40:-0.282634 41:0.146833 
-32 1:-0.990613 2:-0.0329348 3:-0.162097 4:-0.981826 5:0.0948835 6:-0.517558 7:0.848624 8:-0.023494 9:0.0211799 10:0.517602 11:-0.0410713 12:-0.970501 13:-0.862873 14:-0.882669 15:-0.839684 16:-0.89919 17:-0.874058 18:-0.826935 19:-0.831987 20:-0.79831 21:-0.825945 22:-0.862282 23:-0.814283 24:-0.823576 25:-0.819267 26:-0.746542 27:-0.818076 28:-0.764836 29:-0.815729 30:-0.74277 31:-0.734294 32:-0.801895 33:-0.99132 34:0.206071 35:-0.454507 36:-0.980446 37:0.0946081 38:-0.68511 39:-0.893058 40:-0.859428 41:0.0884317 
-32 1:-0.998581 2:-0.0361298 3:-0.1942 4:-0.960539 5:0.0328912 6:-0.50977 7:0.863502 8:-0.0182509 9:0.0971738 10:0.48996 11:0.109389 12:-0.969796 13:-0.940195 14:-0.808033 15:-0.912918 16:-0.84105 17:-0.921378 18:-0.805584 19:-0.943749 20:-0.798464 21:-0.935378 22:-0.746901 23:-0.887535 24:-0.699419 25:-0.857861 26:-0.761705 27:-0.853177 28:-0.757429 29:-0.861483 30:-0.764327 31:-0.806716 32:-0.681456 33:-0.97379 34:0.142461 35:-0.441162 36:-0.966305 37:0.0633343 38:-0.680936 39:-0.839133 40:-0.902285 41:0.0385393 
-30.90861971081761 1:-0.904126 2:0.0189317 3:-0.2927 4:-0.853761 5:-0.0496571 6:-0.29752 7:0.811724 8:-0.0736694 9:0.229542 10:0.521461 11:0.216138 12:-0.82433 13:-0.861662 14:-0.844575 15:-0.858389 16:-0.870022 17:-0.803985 18:-0.862024 19:-0.872294 20:-0.861185 21:-0.811196 22:-0.826482 23:-0.80037 24:-0.778012 25:-0.853064 26:-0.798451 27:-0.832836 28:-0.787152 29:-0.801384 30:-0.789718 31:-0.214431 32:-0.138858 33:-0.980616 34:0.143033 35:-0.215636 36:-0.806368 37:-0.0404544 38:-0.536308 39:0.131271 40:-0.134211 41:0.607504 
-17.04897481378539 1:-0.746542 2:-0.10064 3:-0.565647 4:-0.89005 5:0.0320574 6:-0.188709 7:0.671301 8:0.0404711 9:0.543359 10:0.56804 11:0.0750272 12:-0.725076 13:-0.644704 14:-0.868329 15:-0.584202 16:-0.761699 17:-0.616652 18:-0.625843 19:-0.606162 20:-0.717917 21:-0.60006 22:-0.734101 23:-0.569293 24:-0.556698 25:-0.500764 26:-0.444372 27:-0.521866 28:-0.635524 29:-0.521775 30:-0.614763 31:-0.177287 32:-0.599246 33:-0.93834 34:0.0993237 35:-0.133924 36:-0.896361 37:0.0963158 38:-0.431259 39:0.457963 40:-0.313401 41:0.651976 
-17.8151133210536 1:-0.849039 2:0.0569224 3:-0.284415 4:-0.780865 5:0.0413035 6:-0.677297 7:0.702813 8:-0.201541 9:0.37749 10:0.509989 11:0.102798 12:-0.485123 13:-0.728121 14:-0.471818 15:-0.734464 16:-0.548171 17:-0.746355 18:-0.436857 19:-0.720547 20:-0.454856 21:-0.716481 22:-0.514028 23:-0.719091 24:-0.499558 25:-0.740245 26:-0.497193 27:-0.711549 28:-0.477762 29:-0.73374 30:-0.45621 31:-0.075624 32:-0.155656 33:-0.861927 34:0.170419 35:-0.68763 36:-0.809894 37:0.0521128 38:-0.759554 39:0.415913 40:-0.292569 41:-0.346453 
-32 1:-0.930356 2:0.0566748 3:-0.177142 4:-0.891296 5:0.0961464 6:-0.705456 7:0.791431 8:-0.241142 9:0.0711641 10:0.539499 11:-0.0800823 12:-0.701006 13:-0.635773 14:-0.633697 15:-0.654881 16:-0.729286 17:-0.653504 18:-0.647758 19:-0.655018 20:-0.671528 21:-0.606124 22:-0.664646 23:-0.591445 24:-0.668512 25:-1 26:-1 27:-0.608205 28:-0.660345 29:-0.597436 30:-0.678605 31:-0.486637 32:-0.489765 33:-0.938685 34:0.194901 35:-0.757048 36:-0.892208 37:0.105854 38:-0.740865 39:-0.457943 40:-0.505172 41:-0.708827 
-32 1:-0.99297 2:-0.0264873 3:-0.199197 4:-0.941496 5:0.0813906 6:-0.326674 7:0.862881 8:-0.0273546 9:0.0872489 10:0.493239 11:0.00309715 12:-0.963572 13:-0.862963 14:-0.727482 15:-0.868402 16:-0.808125 17:-0.870319 18:-0.767197 19:-0.850824 20:-0.784475 21:-0.855831 22:-0.703261 23:-0.853267 24:-0.651307 25:-0.856148 26:-0.654504 27:-0.861956 28:-0.661128 29:-0.864411 30:-0.742983 31:-0.70131 32:-0.684495 33:-0.967229 34:0.201056 35:-0.312448 36:-0.944564 37:0.0809402 38:-0.51051 39:-0.74412 40:-0.841866 41:0.192109 
-13.76389661450027 1:-0.985723 2:-0.0581259 3:-0.136241 4:-0.966684 5:0.0368211 6:-0.358412 7:0.850505 8:0.0100838 9:-0.023994 10:0.513268 11:0.0840225 12:-0.965407 13:-0.803963 14:-0.795412 15:-0.798472 16:-0.82737 17:-0.814845 18:-0.70398 19:-0.805302 20:-0.784393 21:-0.728309 22:-0.770077 23:-0.800327 24:-0.777194 25:-0.780482 26:-0.750645 27:-0.762136 28:-0.749514 29:-0.801515 30:-0.795846 31:-0.73877 32:-0.756156 33:-0.975694 34:0.142619 35:-0.334677 36:-0.972926 37:0.0689362 38:-0.543116 39:-0.823797 40:-0.946001 41:0.322224 
-0.8637445427588337 1:-0.358595 2:-0.246324 3:0.01469 4:-0.48922 5:-0.271948 6:-0.225961 7:0.539045 8:0.144277 9:-0.175225 10:0.640376 11:0.420349 12:-0.304244 13:0.773053 14:-0.633109 15:0.715768 16:-0.349812 17:-0.152836 18:0.0235678 19:-0.35505 20:-0.0162269 21:-0.849769 22:-0.420603 23:-0.879254 24:-0.703458 25:-0.849477 26:-0.700922 27:-0.842379 28:-0.703369 29:-0.815766 30:-0.662243 31:-0.854602 32:-0.630324 33:-0.479929 34:-0.0315231 35:-0.31458 36:-0.748983 37:-0.191924 38:-0.355864 39:0.614375 40:-0.176008 41:0.247176 
-22.48036701239687 1:-0.830887 2:-0.0668664 3:-0.23022 4:-0.964762 5:0.114823 6:-0.701275 7:0.590299 8:0.0459553 9:0.241613 10:0.756461 11:-0.133875 12:-0.559519 13:-1 14:-1 15:-0.551931 16:-0.828853 17:-1 18:-1 19:-0.440423 20:-0.853265 21:-0.584903 22:-0.931302 23:-0.684791 24:-0.988556 25:-0.45985 26:-0.870143 27:-1 28:-1 29:-0.20589 30:-0.928295 31:-0.487001 32:-0.796932 33:-0.985378 34:0.197493 35:-0.670482 36:-0.961526 37:0.12533 38:-0.796268 39:-0.286882 40:-0.859974 41:-0.336406 
