svm_type c_svc
kernel_type rbf
gamma 0.00195312
nr_class 2
total_sv 865
rho 1.0007
label 1 -1
nr_sv 475 390
SV
1.910999013645255 1:-0.0210388 2:-0.64345 3:-0.032439 4:0.178869 5:0.129237 6:-0.39625 7:-0.910865 8:-0.0640222 9:-0.167782 10:0.213772 11:-0.191309 12:0.376842 13:0.576865 14:-0.0203608 15:-0.176672 16:-0.102521 17:-0.707961 18:0.0363123 19:-0.668206 20:-0.263978 21:-0.57512 22:-0.185279 23:-0.414728 24:0.0194146 25:-0.68641 26:0.272926 27:-0.587089 28:0.377729 29:-0.523653 30:0.0225067 31:-0.795064 32:-0.0435492 33:-0.688935 34:-0.0576416 35:-0.54483 36:0.261947 37:-0.275224 38:-0.578658 39:0.261947 40:-0.275224 41:-0.578658 42:0.6 43:0.6 44:0.2 45:0.6 46:0.2 47:-0.6 48:-1 49:-0.6 50:-0.6 51:-0.2 52:0.6 53:-0.2 54:0.2 55:-0.2 56:-1 57:0.2 58:-0.2 59:0.2 60:0.6 61:-0.6 62:-0.2 63:-1 64:0.2 65:1 66:0.2 67:0.2 68:0.2 69:-1 70:-1 71:-0.2 72:-0.2 73:0.2 74:0.2 75:0.2 76:-1 77:-1 78:-1 79:-0.2 80:-0.6 81:0.2 82:-0.2 83:-0.2 84:-1 85:-0.6 86:0.6 87:-0.6 88:0.2 89:-0.2 90:-0.2 91:-1 92:-1 93:-0.2 94:0.2 95:-0.2 96:0.2 97:0.6 98:-1 99:-0.2 100:-1 101:0.2 102:-0.6 103:-0.2 104:0.2 105:-1 106:-0.6 107:-1 108:0.6 109:-1 110:-1 111:1 112:-1 113:-1 114:-1 115:0.6 116:-1 117:-0.6 118:0.6 119:-1 120:-1 121:-0.6 122:0.2 123:-1 124:-1 125:0.6 126:-1 127:-1 128:-0.6 129:-0.2 130:-1 131:-1 132:0.6 133:-1 134:-1 135:0.6 136:-0.2 137:-1 138:-1 139:0.6 140:-1 141:-0.23077 142:0.23077 143:0.076924 144:-1 145:-1 146:1 147:0.692308 148:-0.076924 149:-0.846154 150:-0.384616 151:0.384616 152:-0.076924 153:-0.076924 154:-0.846154 155:-1 156:-0.076924 157:-0.846154 158:-0.23077 159:-0.846154 160:-1 161:0.692308 162:0.538462 163:-0.23077 164:-0.846154 165:-0.692308 166:0.23077 167:0.384616 168:-0.692308 169:-1 170:-1 171:-1 172:-0.538462 173:-0.076924 174:-1 175:-1 176:-1 177:-1 178:0.384616 179:-0.538462 180:-0.538462 181:-0.846154 182:-0.538462 183:-0.538462 184:-0.692308 185:0.98438 186:-0.99927 187:-0.334082 188:0.968204 189:0.907278 190:0.92655 191:-1 192:0.978574 193:0.996192 194:0.995888 195:0.984218 196:0.960666 197:0.960298 198:-0.995801 199:-1 200:0.96323 201:0.97004 202:0.982626 203:0.97859 204:0.973224 205:-0.996433 206:-1 207:0.889374 208:0.908146 209:0.979612 210:0.987352 211:0.982422 212:-1 213:-1 214:0.886922 215:0.886748 216:0.9839 217:0.987188 218:0.983106 219:-1 220:-1 221:-1 222:-0.993974 223:0.974038 224:0.9797 225:0.95127 226:0.883826 227:-1 228:0.946788 229:-0.994643 230:0.972504 231:0.986114 232:0.955692 233:0.897958 234:-1 235:-1 236:-0.999672 237:0.986638 238:0.99414 239:0.960678 240:0.916272 241:-1 242:0.97253 243:-1 244:1 245:0.997588 246:0.957426 247:0.923172 248:-1 249:0.993524 250:-1 251:0.961584 252:-1 253:-1 254:0.830156 255:-1 256:-1 257:-1 258:0.86214 259:-1 260:0.525718 261:0.530252 262:-1 263:-1 264:0.256616 265:-0.03253 266:-1 267:-1 268:0.155408 269:-1 270:-1 271:-0.735022 272:-0.735022 273:-1 274:-1 275:-0.889517 276:-1 277:-1 278:-0.414608 279:-0.39566 280:-1 281:-1 282:-0.696936 283:-1 284:-0.608764 285:-0.497028 286:-0.197998 287:-1 288:-1 289:0.385112 290:0.26315 291:-0.99541 292:0.97552 293:1 294:0.996626 295:0.96127 296:0.934946 297:0.903868 298:-1 299:0.982088 300:0.968364 301:0.902812 302:0.929754 303:-1 304:0.990368 305:0.560438 306:-0.603796 307:0.890228 308:0.992678 309:0.991624 310:0.920188 311:0.840906 312:-1 313:-1 314:-1 315:0.77544 316:0.644526 317:-1 318:-1 319:-1 320:-1 321:-0.92835 322:-0.481578 323:-0.50517 324:-0.39175 325:-0.962809 326:-0.505584 327:-0.733298 328:-0.503067 329:-0.868776 
1.105199875183885 1:-0.137633 2:-0.172513 3:-0.0332602 4:0.108804 5:0.161754 6:-0.386487 7:-0.8714 8:0.00883194 9:-0.183306 10:0.253564 11:-0.226434 12:0.374547 13:0.538362 14:-0.078507 15:-0.194879 16:-0.142952 17:-0.594186 18:0.0742672 19:-0.59687 20:-0.277007 21:-0.545521 22:-0.208125 23:-0.587108 24:-0.0674731 25:-0.671468 26:0.144686 27:-0.677517 28:0.368955 29:-0.304882 30:0.0769148 31:-0.517866 32:0.00110711 33:-0.562165 34:0.012013 35:-0.0594019 36:0.114584 37:-0.291463 38:-0.554032 39:0.114584 40:-0.291463 41:-0.554032 42:-0.333334 43:0.333334 44:-0.333334 47:-0.666666 48:-1 50:0.666666 51:0.666666 52:-0.333334 54:-0.333334 55:-0.333334 56:-1 57:-0.333334 58:0.333334 61:-0.666666 62:-1 63:-1 64:0.333334 65:0.333334 66:-0.333334 67:0.333334 69:-1 70:-1 72:-0.666666 75:-0.333334 76:-1 77:-1 78:-0.666666 79:-0.666666 80:-0.333334 83:-0.333334 84:-1 85:-0.666666 86:-0.666666 87:-0.333334 88:0.333334 89:-0.333334 90:-0.333334 91:-1 92:-1 93:-0.666666 95:-0.333334 96:0.333334 98:-1 99:-0.333334 100:-0.666666 102:-1 103:0.333334 104:0.333334 105:-1 106:0.333334 107:-0.666666 108:-0.333334 109:-1 110:-0.666666 111:1 112:-1 113:-1 115:-0.666666 116:-1 117:-1 118:0.666666 119:-1 120:-1 122:-0.333334 123:-1 124:-1 125:0.333334 126:-1 127:-1 128:-0.333334 129:-1 130:-1 131:-1 132:0.333334 133:-1 134:-1 135:1 136:-1 137:-1 138:-1 139:0.666666 140:-1 141:-0.333334 142:0.555556 143:-1 144:-1 145:-1 146:1 147:0.444444 148:-0.888889 149:-1 150:-0.222222 151:0.111112 152:-0.111112 153:-1 154:-1 155:-0.666666 156:-0.333334 157:-0.222222 158:-1 159:-1 160:-0.777778 161:1 162:-0.444444 163:-1 164:-1 165:-0.555556 166:1 167:-0.666666 168:-0.888889 169:-1 170:-1 171:-0.555556 172:-0.555556 173:-0.888889 174:-1 175:-1 176:-1 177:0.333334 178:-0.777778 179:-1 180:-0.444444 181:-0.555556 182:-0.777778 183:-1 184:-0.888889 185:0.999024 186:-0.002918 187:0.974124 188:0.926584 189:0.90994 190:0.963542 191:-1 192:-0.332096 193:0.197544 194:0.985238 195:0.956316 196:0.938288 197:0.945314 198:0.976286 199:-1 200:0.96617 201:0.976688 202:0.968762 203:0.956286 204:0.945528 205:-1 206:-1 207:0.908188 208:0.941552 209:0.985364 210:0.969816 211:0.961164 212:-1 213:-1 214:0.859732 215:0.865142 216:0.97958 217:0.97769 218:0.954796 219:-1 220:-1 221:0.900098 222:0.88543 223:0.989584 224:0.978802 225:0.944572 226:0.914944 227:-1 228:0.937684 229:0.938326 230:0.986888 231:0.992926 232:0.964278 233:0.922544 234:-1 235:-1 236:0.962996 237:0.998382 238:0.999188 239:0.966266 240:0.943626 241:-1 242:0.983998 243:0.993016 244:1 245:-1 246:0.958912 247:0.92865 248:-1 249:0.94339 250:0.968884 251:0.925368 252:-1 253:0.945956 254:0.639412 255:-1 256:-1 257:0.868106 258:0.823684 259:-1 260:-1 261:0.172502 262:-1 263:-1 264:0.37229 265:0.441906 266:-1 267:-1 268:-0.609902 269:-1 270:-1 271:-0.468628 272:-1 273:-1 274:-1 275:-0.81048 276:-1 277:-1 278:-0.194776 279:-1 280:-1 281:-1 282:-0.438434 283:-1 284:0.326602 285:0.673058 286:-1 287:-1 288:-1 289:0.756348 290:-0.255102 291:0.965178 292:-1 293:0.979796 294:0.96667 295:0.923874 296:-1 297:-1 298:0.990068 299:0.950916 300:0.87641 301:-1 302:-1 303:1 304:0.975262 305:0.163698 306:-1 307:-1 308:0.987848 309:0.89908 310:0.791294 311:0.55522 312:-1 313:-1 314:0.857092 315:0.25372 316:-0.152086 317:-1 318:-1 319:-1 320:-0.550322 321:-0.632494 322:-1 323:-0.157496 324:-0.591388 325:-0.10371 326:-1 327:-0.614092 328:-0.48773 329:-0.869058 
0.9805657173811558 1:-0.0280089 2:-0.402936 3:-0.0326793 4:0.00445612 5:0.0973661 6:-0.256934 7:-0.875882 8:0.00649849 9:-0.178832 10:0.348857 11:-0.158522 12:0.238831 13:0.566305 14:-0.0776051 15:-0.250012 16:-0.103598 17:-0.778306 18:-0.0965117 19:-0.641984 20:-0.328043 21:-0.455365 22:-0.239236 23:-0.458342 24:-0.0416333 25:-0.590194 26:0.21728 27:-0.589959 28:0.36413 29:-0.167726 30:0.119721 31:-0.470335 32:-0.0553373 33:-0.760734 34:-0.00584187 35:-0.440378 36:0.00212647 37:-0.174847 38:-0.56672 39:0.00212647 40:-0.174847 41:-0.56672 42:-0.2 43:0.6 44:0.2 45:0.6 46:0.6 47:-0.6 48:-1 49:-1 50:-0.2 51:0.2 52:0.6 53:-0.6 54:0.2 55:0.2 56:-1 57:0.2 58:0.2 59:0.6 60:0.6 61:-1 62:-0.6 63:-1 64:-0.2 65:0.6 66:0.2 67:0.6 68:-0.6 69:-1 70:-1 71:-0.2 72:0.2 73:0.6 74:0.2 75:-0.2 76:-1 77:-1 78:-0.6 79:-0.2 80:0.2 81:0.2 82:0.2 83:-1 84:-1 85:-0.2 86:-0.6 87:0.2 88:0.6 89:0.6 90:-1 91:-1 92:-0.6 93:-0.2 94:0.6 95:-0.2 96:0.6 97:-1 98:-1 99:0.2 100:-0.2 101:0.6 102:-1 103:1 104:-1 105:-1 106:-0.2 107:-0.2 108:-0.6 109:-1 110:1 111:-0.2 112:-1 113:-1 114:0.6 115:-1 116:-1 117:-0.6 118:0.6 119:-1 120:-1 121:0.2 122:-1 123:-1 124:-0.6 125:0.2 126:-1 127:-1 128:-0.2 129:-1 130:-1 131:-0.6 132:0.2 133:-1 134:-0.2 135:1 136:-1 137:-1 138:-0.2 139:-0.2 140:-1 141:-0.578948 142:-0.052632 143:-0.368422 144:-1 145:-0.789474 146:0.789474 147:0.052632 148:-0.68421 149:-1 150:-0.368422 151:0.157894 152:-0.473684 153:-0.894737 154:-0.894737 155:-0.473684 156:-0.68421 157:-0.68421 158:-0.473684 159:-1 160:-0.789474 161:1 162:-0.368422 163:-1 164:-1 165:-0.368422 166:0.368422 167:-0.368422 168:-1 169:-1 170:-1 171:-0.789474 172:-0.368422 173:-1 174:-0.894737 175:-1 176:-1 177:-0.052632 178:-0.578948 179:-1 180:-0.789474 181:-0.68421 182:-0.578948 183:-0.894737 184:-1 185:-0.997912 186:-0.999326 187:-0.340868 188:0.92907 189:0.914724 190:0.939586 191:-1 192:-1 193:0.98835 194:0.980274 195:0.950998 196:0.931432 197:0.947648 198:-0.342046 199:-1 200:-0.365804 201:0.954294 202:0.960328 203:0.95714 204:-1 205:0.92606 206:-1 207:0.827936 208:-0.040364 209:0.965282 210:0.967682 211:0.976162 212:-1 213:-1 214:0.808254 215:0.843008 216:0.967674 217:0.976404 218:0.975588 219:-1 220:-1 221:0.831832 222:-0.995333 223:0.971592 224:0.981564 225:0.914908 226:-1 227:-1 228:-0.998503 229:0.910628 230:0.976224 231:0.985794 232:0.952628 233:-1 234:-1 235:0.91239 236:-0.989378 237:0.99221 238:0.984746 239:0.931978 240:-1 241:-1 242:0.992976 243:-0.992563 244:1 245:-1 246:0.932264 247:-1 248:-1 249:0.989552 250:0.975788 251:0.94771 252:-1 253:0.615964 254:0.119916 255:-1 256:-1 257:0.862478 258:-1 259:-1 260:0.057702 261:0.009246 262:-1 263:-1 264:0.23851 265:-1 266:-1 267:-0.256008 268:-0.435136 269:-1 270:-1 271:-0.29309 272:-1 273:-1 274:-0.857188 275:-0.834951 276:-1 277:-0.248422 278:-0.264568 279:-1 280:-1 281:-0.366158 282:-0.408098 283:-1 284:0.992116 285:-0.804548 286:0.27293 287:-1 288:-0.982785 289:0.505656 290:0.162996 291:-0.37231 292:-1 293:0.98231 294:0.962302 295:0.906468 296:0.81765 297:0.81527 298:0.985856 299:0.952374 300:0.829066 301:0.093012 302:-1 303:0.990834 304:0.77426 305:-0.990802 306:-1 307:-1 308:1 309:0.659578 310:0.554762 311:-1 312:-1 313:-1 314:0.880678 315:0.323734 316:-1 317:0.059404 318:-1 319:-1 320:-0.763824 321:-0.983085 322:-1 323:-0.355696 324:-0.296686 325:-0.31366 326:-0.262734 327:-1 328:-0.48773 329:-0.869369 
2.709451910485329 1:0.0388055 2:-0.0199656 3:0.161894 4:-0.0908093 5:-0.0388498 6:0.512996 7:-0.658852 8:-0.186528 9:-0.0664203 10:0.410795 11:-0.0258868 12:-0.559322 13:0.187185 14:0.0691332 15:-0.333383 16:-0.43843 17:-0.674912 18:-0.685342 19:-0.248349 20:-0.63331 21:-0.128157 22:-0.624727 23:-0.167315 24:-0.421795 25:0.0101607 26:-0.263724 27:0.00403088 28:-0.0928892 29:-0.459811 30:0.3399 31:-0.431485 32:0.298399 33:-0.4563 34:0.081767 35:-0.834332 36:-0.451908 37:0.430402 38:-0.391642 39:-0.451908 40:0.430402 41:-0.391642 42:-1 43:-1 44:-1 45:-1 46:-1 47:-0.555556 48:-0.111112 49:-1 50:-1 51:-1 52:-1 53:0.333334 54:0.111112 55:-0.111112 56:-1 57:-1 58:-1 59:-0.333334 60:0.111112 61:-0.111112 62:-1 63:-1 64:-1 65:-1 66:-0.333334 67:0.333334 68:-0.333334 69:-1 70:-1 71:-1 72:-1 73:-0.333334 74:0.555556 75:-0.555556 76:-1 77:-1 78:-1 79:-0.777778 80:0.555556 81:0.333334 82:-0.555556 83:-1 84:-1 85:-1 86:-1 87:1 88:-0.111112 89:-0.333334 90:-1 91:-1 92:-1 93:-1 94:-0.111112 95:0.111112 96:-0.333334 97:-1 98:-1 99:-1 100:-0.555556 101:-0.333334 102:0.333334 103:-0.555556 104:-1 105:-1 106:-1 107:0.111112 108:-0.111112 109:-0.555556 110:-0.555556 111:-1 112:-1 113:0.111112 114:-0.333334 115:-0.777778 116:-0.555556 117:-0.555556 118:-1 119:-0.333334 120:-0.555556 121:-1 122:-1 123:-0.111112 124:-0.777778 125:-1 126:0.555556 127:-1 128:-1 129:-1 130:1 131:-1 132:-1 133:-0.111112 134:-1 135:-1 136:-1 137:-0.333334 138:-1 139:-1 140:-1 141:-1 142:-1 143:0.857142 144:-0.857143 145:-0.857143 146:-0.285714 147:0.285714 148:-0.571428 149:-0.857143 150:-0.571428 151:-0.285714 152:0.142858 153:-0.285714 154:-0.857143 155:-0.142858 156:-1 157:0.571428 158:-0.714286 159:-1 160:-0.714286 161:-0.714286 162:0.714286 163:-0.142858 164:-0.714286 165:-1 166:-0.285714 167:-0.428572 169:-0.571428 170:-1 171:-0.285714 172:-0.428572 173:0.142858 174:-0.857143 175:-1 176:-1 177:-0.285714 178:1 179:-0.571428 180:-1 181:-1 182:-0.285714 183:0.285714 184:-0.857143 185:-1 186:-1 187:-1 188:-1 189:-1 190:0.912314 191:-0.02453 192:-1 193:-1 194:-1 195:-1 196:0.336804 197:0.08909 198:-0.99206 199:-1 200:-1 201:-1 202:0.333786 203:-0.785926 204:-0.22678 205:-1 206:-1 207:-1 208:-1 209:0.664912 210:-0.072436 211:-0.61709 212:-1 213:-1 214:-1 215:-1 216:0.876246 217:0.536518 218:0.450342 219:-1 220:-1 221:-1 222:0.97709 223:0.852392 224:-0.537386 225:0.41707 226:-1 227:-1 228:-1 229:-1 230:-0.727172 231:-0.135186 232:-0.518936 233:-1 234:-1 235:-1 236:-1 237:-0.061832 238:0.832002 239:-0.304252 240:-1 241:-1 242:-1 243:-0.99769 244:0.853328 245:0.216874 246:0.698464 247:-1 248:-1 249:-1 250:0.170034 251:0.903918 252:-0.970096 253:-0.870346 254:-1 255:-1 256:0.803682 257:0.95819 258:0.940224 259:0.812338 260:0.99455 261:-1 262:0.590088 263:0.62693 264:-1 265:-1 266:0.866594 267:0.961216 268:-1 269:0.581578 270:-1 271:-1 272:-1 273:0.968942 274:-1 275:-1 276:0.403548 277:-1 278:-1 279:-1 280:1 281:-1 282:-1 283:-1 284:-1 285:-1 286:-0.52565 287:0.988208 288:0.364214 289:0.528152 290:-0.6361 291:0.515188 292:0.64899 293:0.472826 294:0.399882 295:-0.484488 296:-0.237226 297:0.836232 298:0.484238 299:-1 300:0.11657 301:0.80915 302:-1 303:-0.913399 304:0.8008 305:-0.635546 306:0.234116 307:0.67815 308:-1 309:0.821756 310:-0.997094 311:-0.71146 312:-0.371964 313:-1 314:0.90084 315:0.897766 316:-0.504952 317:1 318:-1 319:-1 320:0.73642 321:-0.36758 322:0.52717 323:-1 324:-1 325:0.95763 326:-0.675054 327:0.274646 328:-0.52454 329:-0.883058 
0.1747263452132196 1:0.303341 2:0.424367 3:0.858907 4:-0.249227 5:0.109964 6:0.0973734 7:-0.619531 8:-0.394681 9:0.460413 10:0.737129 11:-0.166569 12:-0.109957 13:0.217646 14:0.159392 15:-0.575936 16:0.524225 17:-0.453644 18:0.0701953 19:-0.231702 20:-0.501251 21:-0.641074 22:-0.573177 23:-0.672195 24:-0.455824 25:-0.72589 26:-0.320675 27:-0.719999 28:-0.106866 29:-0.472384 30:-0.169028 31:-0.303671 32:-0.298999 33:-0.286763 34:-0.472509 35:0.0607139 36:0.234771 37:0.068071 38:-0.135713 39:0.234771 40:0.068071 41:-0.135713 42:-0.2 43:-1 44:-1 45:-0.4 46:-1 47:-1 48:-0.4 49:-0.8 50:-0.6 51:-0.8 53:-1 54:-0.6 55:-0.8 56:-1 57:-0.6 59:0.2 60:-0.2 61:-0.6 62:-1 63:-1 64:-1 65:-0.2 66:-0.2 67:-0.6 68:-1 69:-1 70:-1 71:-1 72:0.4 73:0.2 75:-1 76:-1 77:-1 78:-1 79:-0.2 80:-0.4 81:-0.4 82:-1 83:-1 84:-1 85:-1 86:-0.4 88:-0.4 89:-1 90:-1 91:-1 92:-1 93:-0.2 94:-0.4 95:-0.4 96:-1 97:-1 98:-1 99:-1 100:1 101:0.4 103:-1 104:-1 105:-1 106:-0.8 107:-0.2 108:-0.6 109:-0.6 110:-1 111:-1 112:-1 113:-0.8 114:-0.2 115:-0.6 116:-0.6 117:-1 118:-1 119:-1 120:-0.8 121:-0.4 122:-0.4 123:-0.8 124:-1 125:-1 126:-1 127:-1 128:-0.4 129:-0.6 130:-1 131:-1 132:-1 133:-1 134:-1 135:-0.2 136:-0.6 137:-1 138:-1 139:-1 140:-0.625 141:-0.125 142:-0.875 143:-1 144:-1 145:0.125 146:1 147:-0.375 148:-1 149:-1 150:-0.75 151:1 152:-0.875 153:-1 154:-1 155:0.125 156:0.25 157:-1 158:-1 159:-1 160:0.125 161:0.5 162:-1 163:-1 164:-1 166:0.75 167:-1 168:-1 169:-1 171:-0.375 172:-0.5 173:-1 174:-1 175:-1 176:-0.625 177:-0.625 178:-0.625 179:-1 180:-1 181:-1 182:-0.25 183:-0.625 184:-0.75 185:0.98188 186:-1 187:-1 188:0.387116 189:-1 190:-1 191:0.918964 192:1 193:0.95388 194:0.662908 195:0.594636 196:-1 197:0.988694 198:0.980578 199:-1 200:0.830324 201:0.87122 202:0.910148 203:0.8439 204:0.903096 205:-1 206:-1 207:-1 208:0.948204 209:0.99191 210:0.969776 211:-1 212:-1 213:-1 214:-1 215:0.958956 216:0.980136 217:0.958424 218:-1 219:-1 220:-1 221:-1 222:0.98847 223:0.995298 224:0.967924 225:-1 226:-1 227:-1 228:-1 229:0.99854 230:0.99428 231:0.972686 232:-1 233:-1 234:-1 235:-1 236:0.99365 237:0.976412 238:0.948532 239:-1 240:-1 241:-1 242:-1 243:0.934862 244:0.901618 245:0.86537 246:-1 247:-1 248:-1 249:0.542622 250:0.76912 251:0.734054 252:0.774296 253:-1 254:-1 255:-1 256:0.465472 257:0.671016 258:0.702396 259:0.632034 260:-1 261:-1 262:-1 263:0.578532 264:0.649658 265:-0.390102 266:0.95457 267:-1 268:-1 269:-1 270:-1 271:0.653852 272:0.963512 273:-1 274:-1 275:-1 276:-1 277:-1 278:-0.677554 279:0.938398 280:-1 281:-1 282:-1 283:0.392772 284:0.909382 285:1 286:-1 287:-1 288:0.751588 289:0.90497 290:0.908366 291:-1 292:-1 293:0.982788 294:0.973988 295:0.94643 296:-1 297:-1 298:0.99807 299:0.975624 300:-1 301:-1 302:-1 303:0.998094 304:0.985118 305:-1 306:-1 307:-1 308:0.951902 309:0.895912 310:-1 311:-1 312:-1 313:0.674486 314:0.737368 315:0.728156 316:-1 317:-1 318:-1 319:0.624474 320:0.82481 321:-0.221298 322:-1 323:-1 324:-1 325:-0.60137 326:-0.987931 327:-0.601618 328:-0.564417 329:-0.806856 
1.623687654255813 1:-0.634411 2:-0.39241 3:0.572615 4:-0.608073 5:0.0831709 6:0.0290657 7:-0.841318 8:-0.0652995 9:0.188231 10:0.826498 11:-0.145067 12:-0.0694268 13:0.159707 14:-0.021304 15:-0.732351 16:-0.829999 17:-0.418897 18:-0.633047 19:-0.389415 20:-0.427996 21:-0.658463 22:-0.488609 23:-0.733866 24:-0.258632 25:-0.571682 26:-0.145037 27:-0.550228 28:-0.347471 29:-0.508939 30:-0.134089 31:-0.541687 32:-0.0967482 33:-0.245694 34:-0.179175 35:-0.622348 36:-0.712262 37:0.140025 38:-0.188019 39:-0.712262 40:0.140025 41:-0.188019 42:-1 43:-1 44:-1 45:0.428572 46:0.714286 47:-0.714286 48:-1 49:-1 50:-1 51:-1 52:-1 53:1 54:-1 55:-1 56:-1 57:-1 58:-0.428572 59:-0.428572 60:-0.428572 61:-0.714286 62:-0.714286 63:-1 64:-0.428572 65:0.142858 66:-0.428572 67:-0.428572 68:-0.142858 69:-0.428572 70:-1 71:0.428572 72:0.714286 73:0.142858 74:-0.428572 75:0.142858 76:-1 77:-0.714286 78:-0.428572 79:-0.428572 80:0.142858 81:-0.428572 82:0.428572 83:-1 84:-0.142858 85:-0.714286 86:0.142858 87:-0.142858 88:-0.714286 89:-0.714286 90:-1 91:-0.428572 92:-0.428572 93:0.142858 94:-0.142858 95:-0.428572 96:-0.428572 97:-1 98:-0.142858 99:-0.142858 100:-0.142858 101:-0.142858 102:-0.714286 103:-0.428572 104:-1 105:-1 106:-0.142858 107:1 108:-0.428572 109:-1 110:-0.142858 111:-1 112:-1 113:0.428572 114:-0.142858 115:-1 116:-1 117:0.428572 118:-0.714286 119:-0.428572 120:0.142858 121:-1 122:-1 123:-1 124:-0.428572 125:0.428572 126:-0.142858 127:-0.428572 128:-0.714286 129:-1 130:-1 131:-0.714286 132:0.428572 133:-0.714286 134:0.714286 135:-0.428572 136:-1 137:-1 138:-1 139:0.428572 140:-0.625 141:-0.5 142:-0.5 143:-0.625 144:-1 145:-0.875 146:-0.875 147:-0.5 148:-0.25 149:-1 150:-1 151:-1 152:-0.625 153:1 154:-0.125 155:-1 156:-1 157:-0.625 158:0.875 160:-1 161:-0.75 162:-0.125 163:0.75 164:-0.375 165:-0.875 166:-0.375 167:0.625 168:-0.25 169:-0.75 170:-0.625 171:-0.5 172:0.25 173:-0.875 174:-1 175:-0.75 176:-0.875 177:0.25 178:0.25 179:-0.75 180:-1 181:-1 182:-0.625 183:-0.125 184:-0.5 185:-1 186:-1 187:-1 188:0.723064 189:0.229226 190:-0.039902 191:-1 192:-1 193:-1 194:-1 195:-1 196:0.870616 197:-1 198:-1 199:-1 200:-1 201:0.835768 202:0.897468 203:0.893096 204:0.888396 205:0.877556 206:-1 207:0.89833 208:0.948152 209:0.955994 210:0.938448 211:0.938262 212:0.929888 213:-1 214:0.946158 215:0.980858 216:0.989044 217:0.994992 218:1 219:-1 220:0.951848 221:0.960968 222:-0.996246 223:0.979322 224:0.989316 225:0.997958 226:-1 227:0.973378 228:0.966464 229:-0.998609 230:0.983674 231:0.978642 232:0.972186 233:-1 234:0.971852 235:0.947378 236:-0.993045 237:0.9603 238:0.96356 239:0.938 240:-1 241:0.937132 242:0.920376 243:-0.344974 244:0.919698 245:0.920636 246:0.87437 247:-1 248:-1 249:0.963018 250:-0.154824 251:0.951106 252:-1 253:-0.354658 254:-1 255:-1 256:0.511588 257:0.980784 258:-1 259:-1 260:0.99581 261:0.998372 262:0.188388 263:0.17704 264:-1 265:-1 266:-1 267:0.952064 268:0.140926 269:0.073342 270:0.280274 271:0.279992 272:-1 273:-1 274:-0.270816 275:-0.387034 276:0.349158 277:0.231308 278:0.402518 279:-1 280:-1 281:-1 282:-0.956337 283:0.785258 284:0.22996 285:0.773676 286:0.479828 287:-1 288:0.84754 289:0.875974 290:0.879054 291:0.90366 292:-1 293:-1 294:-1 295:0.923738 296:0.969622 297:0.98875 298:-1 299:-1 300:-0.355982 301:0.998048 302:1 303:-1 304:0.970862 305:-0.146282 306:0.976392 307:0.98749 308:0.978944 309:0.963302 310:-0.255744 311:0.937578 312:0.932184 313:0.995538 314:0.599742 315:0.537006 316:0.97021 317:-1 318:-0.160742 319:0.949058 320:-0.000308 321:-0.72069 322:0.289648 323:-1 324:-1 325:-0.709624 326:-0.49798 327:0.3175 328:-0.469325 329:-0.832793 
4.60395413028719 1:0.47964 2:-0.0589063 3:0.633887 4:-0.142392 5:0.125562 6:-0.00562058 7:-0.684898 8:-0.251231 9:0.296025 10:0.659149 11:-0.180058 12:-0.0338367 13:0.330667 14:0.089764 15:-0.492784 16:0.0525704 17:-0.16907 18:0.243557 19:-0.406038 20:-0.554278 21:-0.674948 22:-0.571963 23:-0.617695 24:-0.410823 25:-0.692103 26:-0.273011 27:-0.648424 28:-0.133765 29:-0.0998429 30:-0.218409 31:-0.24929 32:-0.376104 33:-0.314892 34:-0.442811 35:-0.377949 36:0.387569 37:-0.0221483 38:-0.357836 39:0.387569 40:-0.0221483 41:-0.357836 42:-0.5 43:-0.75 44:-1 45:0.25 46:0.25 47:-1 48:-1 49:-1 50:-0.25 52:-0.25 54:0.25 56:-1 57:-1 58:-0.25 60:0.25 62:-1 63:-1 64:-1 65:-1 66:0.25 67:0.5 68:-1 69:-1 70:-1 71:-1 72:-1 75:-1 76:-1 77:-1 78:-1 79:-1 80:0.5 81:0.75 82:-1 83:-1 84:-1 85:-1 86:-1 87:1 88:0.5 89:-1 90:-1 91:-1 92:-1 93:-0.75 95:0.5 96:-1 97:-1 98:-1 99:-1 100:-0.5 101:-0.25 103:-1 104:-1 105:-1 106:-1 107:-0.5 108:-0.5 109:0.25 110:-1 111:-1 112:-1 113:-1 114:-0.5 115:-0.75 116:-0.25 117:-1 118:-1 119:-1 120:-1 121:-0.75 122:-0.5 123:-0.25 124:-1 125:-1 126:-1 127:-1 128:-0.75 129:-0.5 130:-0.25 131:-1 132:-1 133:-1 134:-1 135:-0.25 136:-1 137:-0.5 138:-1 139:-1 140:-0.333334 141:-0.809524 142:-1 143:-0.619048 144:-1 145:-0.714286 146:-0.428572 147:1 148:-0.04762 149:-1 150:-1 151:0.238096 152:-0.428572 153:-1 154:-1 155:-1 156:0.238096 157:-0.52381 158:-1 159:-1 160:-1 161:0.52381 162:-0.714286 163:-1 164:-1 165:-0.428572 166:-0.809524 167:-0.52381 168:-1 169:-1 170:-0.809524 171:-0.809524 172:-0.809524 173:-0.52381 174:-0.904762 175:-1 176:-0.904762 177:-0.714286 178:-0.809524 179:-0.714286 180:-1 181:-1 182:-0.714286 183:-1 184:-0.619048 185:0.96938 186:0.994326 187:-1 188:0.58851 189:0.633548 190:-1 191:-1 192:-1 193:0.994956 194:0.838448 195:0.898672 196:0.87933 197:0.926766 198:0.959104 199:-1 200:-1 201:0.909158 202:0.925926 203:0.155848 204:-0.022094 205:-1 206:-1 207:-1 208:-1 209:0.942954 210:0.978316 211:-1 212:-1 213:-1 214:-1 215:-1 216:0.934712 217:0.985254 218:-1 219:-1 220:-1 221:-1 222:-1 223:0.98405 224:1 225:-1 226:-1 227:-1 228:-1 229:-1 230:0.496092 231:0.975502 232:-1 233:-1 234:-1 235:-1 236:0.930872 237:0.926342 238:0.893716 239:-1 240:-1 241:-1 242:-1 243:-0.995483 244:0.870126 245:0.775702 246:-1 247:-1 248:-1 249:-1 250:0.64215 251:0.770678 252:0.66889 253:-1 254:-1 255:-1 256:-1 257:0.293564 258:0.59457 259:0.69739 260:-1 261:-1 262:-1 263:-1 264:0.16727 265:0.533158 266:-0.444066 267:-1 268:-1 269:-1 270:-1 271:-0.118612 272:0.528638 273:0.86004 274:-1 275:-1 276:-1 277:-1 278:0.511978 279:-1 280:0.711204 281:-1 282:-1 283:0.608254 284:0.546058 285:-1 286:0.983064 287:-1 288:0.908078 289:0.928162 290:0.175822 291:0.912928 292:-1 293:-1 294:0.978586 295:0.929154 296:-1 297:-1 298:-1 299:1 300:0.182656 301:-1 302:-1 303:-1 304:0.71248 305:0.91614 306:-1 307:-1 308:0.781918 309:-0.978083 310:0.793562 311:-1 312:-1 313:0.294674 314:0.69297 315:0.648498 316:0.7031 317:0.635662 318:-1 319:0.168272 320:-0.727426 321:-0.972313 322:-0.443588 323:-1 324:-1 325:0.513276 326:-1 327:0.781612 328:-0.588957 329:-0.810742 
0.107598723281801 1:-0.511541 2:-0.0273362 3:0.539324 4:-0.440329 5:0.0185242 6:0.270067 7:-0.733278 8:0.334388 9:-0.131509 10:0.629771 11:-0.0720698 12:-0.355085 13:0.161051 14:-0.351642 15:-0.513833 16:-0.695025 17:-0.676436 18:-0.574494 19:-0.511643 20:-0.327073 21:-0.409118 22:-0.300017 23:-0.384281 24:0.00218743 25:-0.243334 26:0.203102 27:-0.133848 28:-0.224232 29:-0.612904 30:-0.168703 31:-0.752377 32:-0.326087 33:-0.680834 34:-0.443543 35:-0.444171 36:-0.37885 37:0.214318 38:-0.555565 39:-0.37885 40:0.214318 41:-0.555565 42:-1 43:-1 44:-1 45:-1 46:0.142858 47:-0.428572 48:-1 49:-1 50:-1 51:-1 52:-1 53:-0.428572 54:-0.428572 55:-1 56:-1 57:-1 58:-0.142858 59:-0.714286 60:-0.142858 61:-0.428572 62:-1 63:-1 64:0.428572 65:0.428572 66:-0.428572 67:0.142858 68:0.428572 69:-0.142858 70:-0.714286 71:0.714286 72:0.142858 73:-0.428572 74:-0.428572 75:0.142858 76:0.142858 77:-0.714286 78:0.142858 79:0.142858 80:-0.142858 81:-0.428572 82:-0.428572 83:-0.142858 84:-0.428572 85:-0.142858 86:-0.428572 87:-0.714286 88:-0.428572 89:-0.714286 90:-0.428572 91:-0.142858 92:0.714286 93:1 94:0.714286 95:0.714286 96:-1 97:-0.714286 98:-0.142858 99:0.142858 100:-1 101:-0.428572 102:-0.142858 103:-1 104:-0.428572 105:-0.714286 106:-0.428572 107:-1 108:-0.714286 109:-0.428572 110:-1 111:-1 112:-0.428572 113:-0.714286 114:-1 115:-0.714286 116:-0.428572 117:-1 118:-1 119:0.142858 120:-0.714286 121:-0.714286 122:0.428572 123:-0.428572 124:-1 125:-1 126:-0.142858 127:-1 128:-0.714286 129:-0.714286 130:-0.714286 131:-1 132:-1 133:0.142858 134:-1 135:-1 136:-0.428572 137:-1 138:-1 139:-1 140:-1 141:-1 142:-1 143:-0.3 144:-1 145:-1 146:-1 147:-0.8 148:-0.2 149:-0.8 150:-1 151:-0.9 152:1 153:-0.1 154:-0.8 155:-1 156:-0.1 157:0.9 158:-0.6 159:-0.7 160:-1 161:0.5 162:-0.2 163:-1 164:-0.5 165:-1 166:0.1 167:0.3 168:-0.6 169:-1 170:-1 171:-0.8 173:-1 174:-1 175:-1 177:-0.5 178:-1 179:-1 180:-0.7 181:-0.2 182:-1 183:-1 184:-1 185:-1 186:-1 187:-1 188:-1 189:0.913594 190:0.923986 191:-1 192:-1 193:-1 194:-1 195:-1 196:0.895208 197:0.909742 198:-1 199:-1 200:-1 201:0.70173 202:0.802592 203:0.891488 204:0.932614 205:-1 206:-1 207:0.573162 208:0.733848 209:0.845048 210:0.91845 211:0.948854 212:0.915206 213:0.269812 214:0.51077 215:0.768094 216:0.916838 217:0.960532 218:0.974392 219:0.963418 220:0.187254 221:0.515778 222:0.833268 223:0.957632 224:0.986722 225:0.967462 226:0.944466 227:0.094658 228:0.683966 229:0.868508 230:0.99321 231:0.99923 232:0.971526 233:0.879334 234:0.128542 235:0.722312 236:0.894702 237:0.98762 238:0.986476 239:-1 240:0.821714 241:0.648678 242:-0.06021 243:-1 244:0.980846 245:0.998952 246:-1 247:0.775882 248:0.965026 249:-0.993669 250:-1 251:0.978592 252:0.993066 253:-1 254:-1 255:0.964966 256:0.97451 257:-1 258:1 259:-0.996952 260:-1 261:-1 262:0.944496 263:0.976746 264:0.992232 265:0.20069 266:-0.999329 267:-1 268:-1 269:0.881178 270:-1 271:0.984168 272:0.990966 273:0.998614 274:-1 275:-1 276:0.804234 277:-1 278:-1 279:0.961608 280:-1 281:-1 282:-1 283:-1 284:-1 285:-1 286:0.920256 287:-1 288:-1 289:-1 290:0.924222 291:0.851522 292:0.785466 293:-1 294:0.93448 295:0.910982 296:0.633882 297:0.441408 298:-1 299:0.908992 300:0.906162 301:0.50486 302:0.229492 303:-1 304:0.937058 305:0.775276 306:-1 307:0.118552 308:-1 309:0.98828 310:0.571964 311:0.679652 312:-1 313:-1 314:0.995652 315:-0.611084 316:-1 317:-1 318:-1 319:-0.96523 320:1 321:-1 322:-1 323:0.79965 324:0.428944 325:-1 326:-1 327:-1 328:-0.503067 329:-0.855005 
0.1505284387728149 1:0.2006 2:0.107122 3:0.272061 4:0.201046 5:0.0347162 6:0.503608 7:-0.586167 8:0.0779508 9:-0.318494 10:0.0817793 11:-0.0891814 12:-0.626097 13:0.283065 14:-0.138863 15:0.000534599 16:-0.502375 17:-0.669918 18:-0.616171 19:-0.155472 20:-0.617643 21:-0.354274 22:-0.450706 23:-0.139714 24:-0.316203 25:-0.0928947 26:-0.135965 27:0.0469031 28:0.620019 29:0.110833 30:0.679618 31:-0.429291 32:-0.789823 33:-0.828331 34:-0.940906 35:-0.925489 36:-0.308992 37:0.483272 38:-0.49244 39:-0.308992 40:0.483272 41:-0.49244 42:-1 43:-1 44:-1 45:-1 46:-1 47:-0.636364 48:0.272728 49:-1 50:-1 51:-1 52:-1 53:-0.818182 54:0.09091 55:-0.818182 56:-1 57:-1 58:-1 59:-1 60:-0.636364 61:-0.09091 62:0.09091 63:-1 64:-1 65:-1 66:-1 67:-0.454546 68:-0.09091 69:-0.818182 70:-1 71:-1 72:-1 73:-1 74:-0.272728 75:-0.09091 76:-0.636364 77:-1 78:-1 79:-1 80:-0.454546 81:0.636364 82:1 83:-1 84:-1 85:-1 86:-1 87:-0.272728 88:-0.454546 89:0.272728 90:-1 91:-1 92:-1 93:-1 94:-0.454546 95:0.454546 96:0.09091 97:-1 98:-1 99:-0.818182 100:-0.454546 101:-0.454546 102:-0.636364 103:-0.09091 104:-1 105:-0.636364 106:-0.09091 107:-0.09091 108:-0.818182 109:-0.636364 110:-0.818182 111:-1 112:0.09091 113:-1 114:-1 115:-1 116:-0.818182 117:-0.636364 118:-1 119:-1 120:-1 121:-1 122:-1 123:-0.636364 124:-0.636364 125:-1 126:-1 127:-1 128:-1 129:-1 130:-0.09091 131:-0.818182 132:-1 133:-1 134:-1 135:-1 136:-1 137:-0.818182 138:-1 139:-1 140:-1 141:-1 142:-0.75 143:-0.125 144:-1 145:-1 146:-0.125 147:-0.375 148:-0.25 149:-0.75 150:-1 151:-0.125 153:-0.375 154:-1 155:-0.25 156:-1 157:0.5 158:-0.375 159:-0.875 160:-0.375 161:-1 162:1 163:-0.375 164:-1 165:-0.625 166:-0.625 167:-0.25 168:-0.125 169:-0.5 170:-0.875 171:-0.625 172:0.125 173:-0.625 174:-0.75 175:-1 176:-0.75 178:-1 179:-1 180:-1 181:-1 182:-0.625 183:-1 184:-1 185:-1 186:-1 187:-1 188:-1 189:-1 190:0.348726 191:0.001388 192:-1 193:-1 194:-1 195:-1 196:0.208028 197:0.428104 198:0.51948 199:-1 200:-1 201:-1 202:-1 203:0.402576 204:0.488852 205:0.532784 206:-1 207:-1 208:-1 209:-1 210:0.498914 211:0.52465 212:0.522182 213:-1 214:-1 215:-1 216:-1 217:-0.971872 218:-0.661382 219:0.4909 220:-1 221:-1 222:-1 223:0.801272 224:-0.818802 225:-0.086818 226:-1 227:-1 228:-1 229:-1 230:0.886438 231:-0.567134 232:0.437902 233:-1 234:-1 235:-1 236:-1 237:0.964584 238:-0.981681 239:0.309216 240:-1 241:-1 242:0.558578 243:0.689706 244:0.977628 245:0.815034 246:0.477496 247:-1 248:0.28737 249:0.337274 250:0.62443 251:0.847516 252:0.856238 253:0.654388 254:-1 255:0.295046 256:-1 257:-1 258:-1 259:0.87023 260:-0.990774 261:-1 262:-1 263:-1 264:-1 265:-1 266:-0.996513 267:-0.987276 268:-1 269:-1 270:-1 271:-1 272:-1 273:0.97414 274:0.933142 275:-1 276:-1 277:-1 278:-1 279:-1 280:1 281:-1 282:-1 283:-1 284:-1 285:0.529514 286:-0.042144 287:-1 288:-1 289:0.5388 290:0.502806 291:0.444018 292:0.378736 293:-1 294:-0.33603 295:-0.61839 296:-0.758808 297:-1 298:-0.672028 299:-1 300:-0.77332 301:0.869316 302:0.700094 303:0.061148 304:-1 305:-0.610664 306:0.830828 307:-1 308:0.272008 309:0.347954 310:-0.540434 311:0.803868 312:0.966782 313:0.325146 314:0.300024 315:0.240958 316:0.734674 317:0.879528 318:-1 319:0.240428 320:-0.010338 321:-1 322:-1 323:-1 324:-1 325:1 326:-1 327:-1 328:-0.579755 329:-0.859662 
4.151516606830658 1:0.276225 2:0.219939 3:0.268255 4:0.245083 5:0.253962 6:0.452367 7:-0.554041 8:0.066501 9:-0.322196 10:0.0835631 11:-0.33219 12:-0.567474 13:0.343163 14:-0.129233 15:0.0423275 16:-0.481057 17:-0.553112 18:-0.610846 19:-0.0742006 20:-0.637385 21:-0.261379 22:-0.509821 23:-0.0559787 24:-0.397646 25:0.0461804 26:0.709509 27:0.140043 28:0.951501 29:-0.0872897 30:-0.842632 31:-0.831612 32:-0.789931 33:-0.865784 34:-0.908875 35:-0.928294 36:-0.277199 37:0.503858 38:-0.523602 39:-0.277199 40:0.503858 41:-0.523602 42:-1 43:-1 44:-1 45:-1 46:-1 47:-0.6 48:1 49:-1 50:-1 51:-1 52:-1 53:-1 54:0.2 55:-0.8 56:-1 57:-1 58:-1 59:-1 60:-0.4 62:-0.2 63:-1 64:-1 65:-1 66:-1 67:-0.2 69:-0.8 70:-1 71:-1 72:-1 73:-1 74:-0.4 75:0.4 76:-0.8 77:-1 78:-1 79:-1 80:-0.6 81:0.4 82:1 83:-1 84:-1 85:-1 86:-1 88:-0.4 89:0.4 90:-1 91:-1 92:-1 93:-1 95:0.4 96:0.2 97:-1 98:-0.4 99:0.4 100:-0.2 101:-0.4 102:-0.6 104:-1 105:-0.2 106:-1 107:-1 108:-1 109:-0.6 110:-0.8 111:-1 112:-1 113:-1 114:-1 115:-1 116:-0.6 117:-0.8 118:-1 119:-1 120:-1 121:-1 122:-1 123:-0.2 124:-0.8 125:-1 126:-1 127:-1 128:-1 129:-1 130:0.2 131:-0.8 132:-1 133:-1 134:-1 135:-1 136:-1 137:-0.8 138:-1 139:-1 140:-1 141:-1 142:-0.733334 143:0.2 144:-0.866667 145:-1 146:-0.333334 147:-0.466666 148:-0.066666 149:-0.733334 150:-1 151:-0.066666 152:-0.066666 153:-0.2 154:-0.866667 155:-0.066666 156:-1 157:0.333334 158:-0.2 159:-1 160:-0.733334 161:-0.866667 162:1 163:-0.466666 164:-0.866667 165:-0.733334 166:0.066666 167:0.333334 168:-0.2 169:0.066666 170:-1 171:-1 172:-0.333334 173:-0.866667 174:-1 175:-1 176:-1 177:0.2 178:-1 179:-1 180:-1 181:-1 182:-0.466666 183:-1 184:-1 185:-1 186:-1 187:-1 188:-1 189:-1 190:0.31506 191:-0.204796 192:-1 193:-1 194:-1 195:-1 196:-1 197:0.267406 198:0.318152 199:-1 200:-1 201:-1 202:-1 203:0.242968 204:0.311164 205:0.38519 206:-1 207:-1 208:-1 209:-1 210:0.298586 211:0.31989 212:0.331238 213:-1 214:-1 215:-1 216:-1 217:-0.452202 218:-0.40429 219:0.249586 220:-1 221:-1 222:-1 223:-0.925258 224:-0.765604 225:-0.236132 226:-1 227:-1 228:-1 229:-1 230:0.797846 231:-0.378448 232:0.13756 233:-1 234:-1 235:-1 236:-1 237:0.950886 238:-0.83648 239:0.149956 240:-1 241:0.400294 242:0.419256 243:0.657848 244:0.945896 245:-0.906499 246:0.172402 247:-1 248:0.391078 249:-1 250:-1 251:-1 252:0.655194 253:0.440192 254:-1 255:-1 256:-1 257:-1 258:-1 259:0.91434 260:0.984034 261:-1 262:-1 263:-1 264:-1 265:-1 266:1 267:0.99801 268:-1 269:-1 270:-1 271:-1 272:-1 273:0.995814 274:0.996036 275:-1 276:-1 277:-1 278:-1 279:-1 280:0.985654 281:-1 282:-1 283:-1 284:-1 285:0.737024 286:-0.010302 287:0.79556 288:-1 289:0.37358 290:0.3253 291:0.288772 292:0.209152 293:-1 294:-0.427628 295:-0.786482 296:-0.137512 297:0.622766 298:-0.654544 299:-1 300:-0.456114 301:-0.445426 302:-1 303:-0.318458 304:-0.00233 305:-0.620886 306:-0.061678 307:0.862484 308:0.039554 309:0.394442 310:0.128062 311:0.716224 312:0.939766 313:-1 314:-1 315:0.743812 316:0.847836 317:-1 318:-1 319:-1 320:1 321:-1 322:-1 323:-1 324:-1 325:0.990854 326:-1 327:-1 328:-0.588957 329:-0.859717 
1.175683036305926 1:0.164108 2:0.285077 3:0.286302 4:0.0215078 5:0.15701 6:0.471743 7:-0.463769 8:0.121547 9:-0.303804 10:0.245043 11:-0.22589 12:-0.599314 13:0.168214 14:-0.177939 15:-0.0762841 16:-0.485706 17:-0.601521 18:-0.622969 19:-0.0107876 20:-0.623607 21:-0.0235635 22:-0.583752 23:0.196233 24:-0.516171 25:0.174538 26:0.359214 27:0.128792 28:0.820746 29:-0.141855 30:-0.736932 31:-0.883169 32:-0.806811 33:-0.862106 34:-0.883365 35:-0.825969 36:-0.317535 37:0.534354 38:-0.47806 39:-0.317535 40:0.534354 41:-0.47806 42:-1 43:-1 44:-1 45:-1 46:-1 47:-0.818182 48:1 49:-1 50:-1 51:-1 52:-1 53:-1 54:-0.09091 55:-0.818182 56:-1 57:-1 58:-1 59:-1 60:-1 61:0.818182 62:-0.272728 63:-1 64:-1 65:-1 66:-1 67:-0.09091 68:0.09091 69:-0.818182 70:-1 71:-1 72:-1 73:-1 74:-0.272728 75:0.09091 76:-0.818182 77:-1 78:-1 79:-1 80:-1 81:1 82:0.272728 83:-1 84:-1 85:-1 86:-1 87:0.636364 88:-0.09091 89:-0.454546 90:-1 91:-1 92:-1 93:-1 94:-0.636364 95:0.454546 96:-0.454546 97:-1 98:-0.272728 99:-0.09091 100:-0.272728 101:-0.272728 102:-0.09091 103:-0.636364 104:-1 105:-0.636364 106:-0.454546 107:-0.272728 108:-0.454546 109:-0.09091 110:-0.818182 111:-1 112:-1 113:-1 114:-1 115:-1 116:0.09091 117:-0.818182 118:-1 119:-1 120:-1 121:-1 122:-1 123:-0.272728 124:-1 125:-1 126:-1 127:-1 128:-1 129:-1 130:0.09091 131:-1 132:-1 133:-1 134:-1 135:-1 136:-1 137:-0.636364 138:-1 139:-1 140:-1 141:-1 142:-0.6 143:0.066666 144:-0.866667 145:-1 146:-0.333334 147:-0.733334 148:-0.333334 149:-0.066666 150:-1 151:0.066666 152:-0.333334 153:-0.066666 154:-0.6 155:-0.2 156:-0.866667 157:0.2 158:-0.066666 159:-0.866667 160:-0.6 161:-1 162:0.333334 163:-0.333334 164:-0.866667 165:-1 166:0.066666 167:1 168:0.2 169:-0.6 170:-1 171:-0.733334 172:0.733334 173:-0.733334 174:-0.733334 175:-1 176:-1 177:-0.066666 178:-1 179:-1 180:-1 181:-1 182:-0.333334 183:-1 184:-1 185:-1 186:-1 187:-1 188:-1 189:-1 190:0.355024 191:-0.684554 192:-1 193:-1 194:-1 195:-1 196:-1 197:-0.138898 198:-0.013238 199:-1 200:-1 201:-1 202:-1 203:-1 204:-0.108422 205:0.083004 206:-1 207:-1 208:-1 209:-1 210:-0.078398 211:0.003034 212:0.062034 213:-1 214:-1 215:-1 216:-1 217:-0.503706 218:-0.324954 219:-0.041268 220:-1 221:-1 222:-1 223:-1 224:-0.139766 225:-0.941443 226:-1 227:-1 228:-1 229:-1 230:-0.953209 231:-0.649096 232:-0.083304 233:-1 234:-1 235:-1 236:-1 237:0.875462 238:-0.55482 239:-0.072134 240:-1 241:-0.982212 242:-0.007432 243:0.782028 244:0.960952 245:0.587818 246:0.535606 247:-1 248:0.57753 249:0.698716 250:0.786922 251:0.941294 252:0.728204 253:0.698308 254:-1 255:-1 256:-1 257:-1 258:-1 259:0.739892 260:1 261:-1 262:-1 263:-1 264:-1 265:-1 266:0.87257 267:-1 268:-1 269:-1 270:-1 271:-1 272:-1 273:0.876462 274:-1 275:-1 276:-1 277:-1 278:-1 279:-1 280:0.80394 281:-1 282:-1 283:-1 284:-1 285:0.570068 286:-0.854618 287:0.38519 288:-1 289:0.097536 290:0.012466 291:-0.032312 292:-0.165952 293:-1 294:-0.21114 295:-0.391884 296:0.004148 297:-0.747432 298:-0.602966 299:0.06177 300:-0.874827 301:0.3158 302:0.197894 303:-0.473808 304:-1 305:-0.821897 306:0.065222 307:0.731696 308:-1 309:-0.585098 310:-0.458258 311:0.86901 312:1 313:-1 314:0.61265 315:0.791216 316:0.959154 317:0.990454 318:-1 319:-1 320:0.92793 321:-1 322:-1 323:-1 324:-1 325:0.87183 326:-1 327:-1 328:-0.552147 329:-0.8566 
1.977063827872136 1:-0.215232 2:0.292274 3:0.281175 4:-0.358256 5:0.244054 6:0.428648 7:-0.524268 8:0.35118 9:-0.0912506 10:0.586942 11:-0.30858 12:-0.500114 13:0.0147439 14:-0.343669 15:-0.43554 16:-0.617192 17:-0.598552 18:-0.570978 19:-0.131324 20:-0.516762 21:0.0193153 22:-0.396931 23:0.212718 24:-0.114762 25:-0.424267 26:-0.0760719 27:-0.247875 28:-0.257081 29:-0.442596 30:0.141045 31:-0.0117662 32:-0.0642989 33:-0.457753 34:-0.28461 35:-0.426215 36:-0.449092 37:0.318549 38:-0.48207 39:-0.449092 40:0.318549 41:-0.48207 42:-1 43:-1 44:-1 45:-1 46:-1 47:1 49:-1 50:-1 51:-1 52:-1 53:0.25 54:-0.5 55:-1 56:-1 57:-1 58:-1 59:0.25 60:0.5 61:-0.5 62:0.25 63:-1 64:-1 65:-1 68:-0.25 69:-0.5 70:-1 71:-1 72:-1 73:0.25 74:-0.5 76:-0.25 77:-1 78:-1 79:-0.75 80:-0.25 81:-0.5 82:-0.75 83:-0.25 84:-1 85:-1 86:0.5 88:0.25 89:-0.5 90:0.25 91:-1 92:-1 93:-0.75 94:0.5 95:-0.5 96:-0.75 97:-0.75 98:-1 99:-1 100:-0.5 101:-0.25 102:-0.5 103:-0.75 104:-1 105:-1 106:-1 108:-0.25 109:-0.25 110:-1 111:-1 112:-0.5 113:0.25 114:-0.75 115:-0.75 116:-0.25 117:-0.75 118:-1 119:-0.25 120:-0.5 121:-1 122:-0.5 123:-0.25 124:-1 125:-1 126:-0.75 127:-1 128:-1 129:-0.5 130:-0.5 131:-1 132:-1 133:-1 134:-0.75 135:-1 137:-1 138:-1 139:-1 140:-1 141:-1 142:-0.538462 143:0.384616 144:-1 145:-1 146:-0.076924 147:-0.076924 148:0.692308 149:-0.692308 150:-1 151:1 152:0.23077 153:-0.538462 154:-0.538462 155:-0.384616 156:0.846154 157:-0.23077 158:-0.846154 159:-1 160:-0.692308 161:-0.076924 162:-0.538462 163:-1 164:-1 165:-0.846154 166:0.23077 167:-0.23077 168:-0.23077 169:-1 170:-0.692308 171:0.384616 172:0.076924 173:-0.384616 174:-1 175:-0.384616 176:0.692308 177:-1 178:-1 179:-1 180:-1 181:-0.23077 182:-1 183:-0.846154 184:-1 185:-1 186:-1 187:-1 188:-1 189:-1 190:-0.70611 191:-0.841348 192:-1 193:-1 194:-1 195:-1 196:0.309654 197:0.602158 198:-1 199:-1 200:-1 201:-1 202:0.047508 203:0.432102 204:0.677674 205:0.796734 206:-1 207:-1 208:-1 209:0.099294 210:0.587258 211:0.783172 212:0.888114 213:-1 214:-1 215:-1 216:0.092258 217:0.663116 218:-0.077694 219:0.930266 220:-1 221:-1 222:0.1706 223:0.548518 224:0.827424 225:0.900214 226:0.948726 227:-1 228:-1 229:0.637846 230:0.828032 231:0.910378 232:0.949182 233:0.946426 234:-1 235:-1 236:0.794994 237:0.19162 238:0.83613 239:0.910384 240:0.931478 241:-1 242:-1 243:1 244:-0.317068 245:0.779626 246:0.750974 247:-1 248:-1 249:-1 250:0.944226 251:0.968488 252:0.811514 253:-1 254:-1 255:0.342062 256:0.51258 257:0.760422 258:0.93725 259:0.91182 260:0.585966 261:-1 262:0.414006 263:0.784096 264:-1 265:0.96079 266:0.901912 267:-1 268:-1 269:0.15241 270:-1 271:-1 272:0.979188 273:-0.896549 274:-1 275:-1 276:-1 277:0.79194 278:-1 279:0.967078 280:-1 281:-1 282:-1 283:-1 284:-1 285:1 286:-0.140328 287:-1 288:-1 289:0.806224 290:0.595632 291:0.276654 292:-0.051362 293:-1 294:0.85072 295:0.111152 296:0.218182 297:-0.335746 298:0.964046 299:0.903282 300:0.54178 301:0.184608 302:-1 303:0.967152 304:0.911748 305:0.72921 306:-1 307:-1 308:0.954592 309:0.84059 310:0.802362 311:0.956548 312:-1 313:0.259376 314:0.740928 315:0.946252 316:0.906116 317:-1 318:0.432712 319:0.59714 320:-1 321:-1 322:-1 323:-1 324:0.359254 325:-1 326:0.813384 327:-1 328:-0.564417 329:-0.849 
1.414400696277733 1:-0.0543395 2:-0.319572 3:0.419263 4:-0.142559 5:0.197179 6:-0.463549 7:-0.733308 8:-0.193275 9:-0.0223848 10:0.487021 11:-0.254283 12:0.417461 13:0.2775 14:0.0732579 15:-0.391165 16:-0.510102 17:-0.673242 18:-0.66715 19:-0.317599 20:-0.611469 21:-0.594885 22:-0.364198 23:-0.503488 24:-0.537369 25:-0.448034 26:-0.480221 27:-0.347138 28:0.141695 29:-0.420373 30:0.490732 31:-0.543519 32:-0.76022 33:-0.728621 34:-0.73928 35:-0.557621 36:-0.408795 37:-0.448847 38:-0.294013 39:-0.408795 40:-0.448847 41:-0.294013 42:0.333334 43:0.333334 44:-1 45:-1 46:-1 47:-1 48:-1 49:-0.666666 50:0.333334 51:-1 52:-1 53:-1 54:-1 55:-1 56:-1 59:-1 60:-1 61:-1 62:-1 63:-1 64:0.333334 66:-0.333334 67:-1 68:-1 69:-1 70:-1 72:0.333334 73:-0.333334 74:-1 75:-1 76:-1 77:-1 78:-0.333334 79:-0.333334 81:-0.333334 82:-1 83:-1 84:-1 85:-0.666666 87:0.666666 88:-1 89:-1 90:-1 91:-1 92:-0.333334 94:1 95:-1 96:-1 97:-1 98:-1 99:-0.666666 100:0.666666 102:-1 103:-1 104:-1 105:-1 107:-0.333334 108:-0.333334 110:0.333334 112:-1 114:-0.666666 115:-1 116:-1 117:-0.333334 118:-0.333334 119:-1 120:-0.666666 121:-0.333334 122:-1 123:-1 124:-1 125:-0.333334 126:-1 127:-1 128:0.333334 129:-1 130:-1 131:-1 132:-1 133:-1 134:-0.333334 135:0.333334 136:-1 137:-1 138:-1 139:-1 140:-1 141:-0.6 142:0.2 143:-0.8 144:-1 145:-0.4 146:-0.6 147:-0.6 148:-0.4 149:-1 150:0.6 151:0.4 152:-0.6 153:-0.8 154:-1 155:-1 157:-0.6 158:-0.8 159:-0.8 160:-1 161:1 162:-0.4 163:-0.6 165:-1 166:-0.6 167:0.4 168:-0.8 170:-0.4 171:-0.4 172:0.6 173:-0.6 174:-0.6 175:-1 176:-0.4 178:-0.4 179:-1 180:-0.8 181:-0.6 182:-1 183:-0.4 184:-1 185:-0.3786 186:0.251722 187:-1 188:-1 189:-1 190:-1 191:-1 192:0.642592 193:0.7135 194:-1 195:-1 196:-1 197:-1 198:-1 199:-1 200:0.896228 201:-0.333744 202:-1 203:-1 204:-1 205:-1 206:-1 207:0.928138 208:0.96542 209:-0.983959 210:-1 211:-1 212:-1 213:-1 214:0.968064 215:0.975126 216:-0.991184 217:-1 218:-1 219:-1 220:-1 221:-0.938085 222:0.981442 223:0.911022 224:-0.904213 225:-1 226:-1 227:-1 228:0.838864 229:0.903828 230:-0.72848 231:-1 232:-1 233:-1 234:-1 235:0.688528 236:0.625612 237:-0.429002 238:-1 239:-1 240:-1 241:-1 242:0.546204 243:-0.69341 244:0.89833 245:-1 246:-1 247:-1 248:-1 249:-0.493464 250:-0.968232 251:0.956714 252:0.870088 253:0.612712 254:0.47928 255:-1 256:0.67902 257:0.760824 258:-1 259:-1 260:-0.999999 261:-0.973046 262:-1 263:1 264:0.788168 265:-1 266:-1 267:-1 268:-0.973048 269:-1 270:-1 271:-0.459562 272:-1 273:-1 274:-1 275:-1 276:-1 277:-0.59938 278:-0.59938 279:-1 280:-1 281:-1 282:-1 283:-1 284:0.983166 285:-0.753514 286:1 287:-1 288:0.912108 289:0.85123 290:0.730334 291:-0.564084 292:-1 293:-0.016588 294:-0.69088 295:0.942582 296:0.963468 297:-1 298:-1 299:0.220168 300:0.878502 301:0.89894 302:0.889838 303:-1 304:-0.282726 305:0.712274 306:0.706388 307:0.662392 308:-1 309:-0.973023 310:-0.766362 311:0.762158 312:0.831368 313:0.46208 314:-0.512434 315:0.622 316:0.9051 317:0.943494 318:-1 319:0.552896 320:-0.530672 321:-0.050212 322:-1 323:-0.170754 324:-0.170754 325:-1 326:-0.96658 327:-1 328:-0.699387 329:-0.802624 
3.443597626303663 1:0.644775 2:-0.344131 3:0.451993 4:-0.00380219 5:0.0900232 6:-0.0933616 7:-0.881158 8:-0.206163 9:0.348257 10:0.582899 11:-0.151819 12:0.0367196 13:0.442958 14:0.0588915 15:-0.484592 16:0.818254 17:-0.60884 18:0.273666 19:-0.646065 20:-0.536254 21:-0.681617 22:-0.526758 23:-0.629756 24:-0.499187 25:-0.731402 26:-0.175986 27:-0.812219 28:-0.0523127 29:-0.73919 30:-0.0224901 31:-0.403085 32:-0.118842 33:-0.584572 34:-0.223498 35:-0.397197 36:0.519331 37:-0.0308659 38:-0.287369 39:0.519331 40:-0.0308659 41:-0.287369 42:-0.6 43:-1 44:-1 45:1 46:-1 47:-1 48:-0.2 49:-0.8 50:0.4 51:-1 52:0.4 53:-0.2 54:-0.2 55:-1 56:-1 57:-0.6 59:0.8 60:0.6 61:-0.8 62:-1 63:-1 64:-1 65:-0.4 66:-0.2 67:-0.4 68:-1 69:-1 70:-1 71:-1 72:-0.6 74:-0.2 75:-1 76:-1 77:-1 78:-1 79:-0.6 80:0.6 82:-1 83:-1 84:-1 85:-1 86:-0.8 87:-0.2 88:-0.6 89:-1 90:-1 91:-1 92:-1 93:-0.6 94:0.4 95:-0.4 96:-1 97:-1 98:-1 99:-1 102:-0.2 103:-1 104:-1 105:-1 106:-1 108:-0.6 109:0.6 110:-1 111:-1 112:-1 113:-1 114:-0.4 115:-1 116:-0.2 117:-1 118:-1 119:-1 120:-1 121:-0.2 122:-1 123:-0.4 124:-1 125:-1 126:-1 127:-1 128:-0.4 129:-1 130:-0.6 131:-1 132:-1 133:-1 134:-1 136:-1 137:0.4 138:-1 139:-1 140:-0.4 141:1 142:0.3 143:-0.9 144:-1 145:-0.5 146:0.4 147:-0.3 148:-1 149:-1 151:-0.2 152:-0.8 153:-1 154:-1 156:-0.6 157:-1 158:-1 159:-1 160:0.3 161:-0.4 162:-1 163:-1 164:-1 165:-0.6 166:0.4 167:-0.9 168:-1 169:-1 170:-1 171:-0.4 172:0.1 173:-1 174:-1 175:-1 176:-1 177:-0.2 178:-0.9 179:-1 180:-0.9 181:-0.8 182:-0.1 183:-0.9 184:-0.9 185:-0.944092 186:-1 187:-1 188:-0.632594 189:-1 190:-1 191:0.879954 192:0.994306 193:-0.716734 194:-1 195:-0.71303 196:-0.007026 197:-0.97898 198:-1 199:-1 200:-0.995409 201:0.980402 202:0.987788 203:0.958692 204:0.949162 205:-1 206:-1 207:-1 208:0.946326 209:0.98194 210:0.954272 211:-1 212:-1 213:-1 214:-1 215:0.949858 216:0.992812 217:0.96817 218:-1 219:-1 220:-1 221:-1 222:0.974928 223:1 224:0.981062 225:-1 226:-1 227:-1 228:-1 229:0.97238 230:0.99495 231:0.989436 232:-1 233:-1 234:-1 235:-1 236:0.97259 237:0.982664 238:0.969906 239:-1 240:-1 241:-1 242:-1 243:0.968256 244:0.962172 245:0.950548 246:-1 247:-1 248:-1 249:-1 250:0.9166 251:0.950722 252:0.92027 253:-1 254:-1 255:-1 256:-1 257:0.572958 258:-1 259:0.858844 260:-1 261:-1 262:-1 263:-1 264:0.403504 265:-1 266:-0.990113 267:-1 268:-1 269:-1 270:-1 271:0.034024 272:-1 273:-0.306522 274:-1 275:-1 276:-1 277:-1 278:0.495872 279:-1 280:-0.368074 281:-1 282:-1 283:-0.957071 284:-0.425664 285:-0.83055 286:0.981874 287:-1 288:0.985988 289:0.974162 290:0.40904 291:-1 292:-1 293:0.989112 294:0.965058 295:0.928784 296:-1 297:-1 298:1 299:0.973556 300:-1 301:-1 302:-1 303:0.990322 304:0.974692 305:-1 306:-1 307:-1 308:0.96797 309:0.96072 310:0.946048 311:-1 312:-1 313:-1 314:0.914378 315:-0.058762 316:-1 317:-1 318:-1 319:-1 320:-0.144792 321:-0.995716 322:-1 323:0.468888 324:0.058798 325:-0.06884 326:-0.305468 327:-0.351286 328:-0.503067 329:-0.885179 
0.02409251477833035 1:-0.309232 2:-0.0830492 3:0.320995 4:-0.149066 5:0.0931774 6:0.230946 7:-0.848119 8:-0.196378 9:-0.0161049 10:0.514067 11:-0.154078 12:-0.277857 13:0.411227 14:0.0770845 15:-0.416866 16:-0.501273 17:-0.656856 18:-0.359691 19:-0.572141 20:-0.229805 21:-0.582188 22:-0.0916908 23:-0.464076 24:-0.0771505 25:-0.541956 26:0.11117 27:-0.711146 28:0.243508 29:-0.626755 30:0.148262 31:-0.265927 32:-0.0846441 33:-0.611811 34:-0.0121995 35:-0.36384 36:-0.162681 37:0.24877 38:-0.512457 39:-0.162681 40:0.24877 41:-0.512457 42:-1 43:-1 44:-1 45:-1 46:-1 47:0.25 48:0.25 49:-1 50:-1 51:-0.75 52:-0.5 53:-0.5 54:-0.25 55:-0.25 56:-1 57:-0.75 58:0.25 59:-0.5 60:-0.5 61:0.25 62:-1 63:-0.5 65:0.75 68:0.75 69:-0.75 70:-0.25 71:-0.5 72:-0.25 73:-0.25 74:-0.25 76:-0.75 77:-0.75 78:-0.25 79:-0.5 80:-0.25 81:-0.75 83:-1 84:-1 85:-0.25 86:-0.25 87:-0.25 88:-0.75 89:-0.25 90:-1 91:-0.75 92:-0.25 93:-0.25 94:1 95:-0.5 97:-1 99:0.25 100:-1 101:-0.5 102:-0.25 103:-0.5 104:-1 105:-0.25 106:-0.5 107:-1 108:-0.75 110:-1 111:-1 112:-0.25 113:-1 114:-1 115:-1 116:-0.5 117:-0.5 118:-1 119:-0.5 120:-0.5 121:-1 122:-1 123:-0.25 124:-0.5 125:-1 126:-0.5 127:-1 128:-1 129:-1 130:-0.5 131:-0.25 132:-1 133:0.5 134:-1 135:-1 136:-1 138:-0.25 139:-1 140:-0.888889 141:-0.111112 142:-0.777778 143:-1 144:-1 145:-0.888889 146:0.444444 147:0.333334 148:-1 149:-1 151:0.777778 152:-0.555556 153:-1 154:-1 155:0.666666 156:0.222222 157:-0.222222 158:-1 159:-1 161:0.333334 162:-0.444444 163:-1 164:-1 165:-0.333334 166:1 167:-1 168:-1 169:-1 170:-1 171:-0.222222 172:-0.111112 173:-0.777778 174:-1 175:-1 176:-1 177:0.222222 178:-0.777778 179:-1 180:-0.777778 181:-0.333334 182:-0.444444 183:-0.777778 184:-1 185:-1 186:-1 187:-1 188:-1 189:-1 190:0.98342 191:0.940254 192:-1 193:-1 194:0.834624 195:0.954348 196:-0.995426 197:-0.34023 198:-0.344096 199:-1 200:0.80433 201:0.842576 202:0.950444 203:0.995848 204:0.18069 205:-1 206:0.93718 207:0.883256 208:0.93606 209:0.970048 210:0.967026 211:0.353856 212:0.780926 213:0.956408 214:0.976164 215:0.984974 216:0.981376 217:0.933752 218:0.78563 219:0.745206 220:1 221:0.995116 222:0.999558 223:0.976252 224:0.943644 225:-0.100184 226:-1 227:-1 228:0.98378 229:0.995304 230:0.972926 231:0.934734 232:0.862838 233:-1 234:0.959982 235:0.967484 236:0.976882 237:0.986988 238:0.95496 239:0.881462 240:-1 241:0.938868 242:0.941176 243:-1 244:0.967758 245:0.966206 246:0.906972 247:-1 248:-0.632814 249:0.893156 250:-1 251:0.921198 252:0.927344 253:-1 254:-1 255:0.074264 256:-1 257:-1 258:-1 259:0.942364 260:0.731412 261:-1 262:-0.255832 263:-0.10687 264:-1 265:-1 266:-0.794072 267:-0.170722 268:-1 269:-0.081226 270:-1 271:-1 272:-1 273:-0.641164 274:-0.617312 275:-1 276:0.070078 277:-1 278:-1 279:-1 280:-0.716568 281:-0.680852 282:-1 283:0.983626 284:0.970158 285:0.965776 286:-1 287:-1 288:0.991696 289:0.653812 290:-0.61485 291:-1 292:-1 293:0.9756 294:0.93063 295:-0.09483 296:-1 297:-1 298:0.994512 299:0.92175 300:0.31191 301:-1 302:-1 303:1 304:0.980734 305:0.88225 306:-1 307:-1 308:0.972022 309:0.956224 310:-1 311:-1 312:-1 313:-1 314:0.450828 315:-0.626876 316:0.70108 317:-1 318:-1 319:-1 320:-0.691348 321:-0.237046 322:-1 323:-0.613324 324:-0.468236 325:-0.110688 326:0.001726 327:-1 328:-0.453988 329:-0.875855 
2.680060527032449 1:0.467015 2:-0.180217 3:0.268295 4:0.35511 5:0.537929 6:-0.356944 7:-0.677123 8:-0.272077 9:0.148773 10:0.361 11:-0.515952 12:0.2611 13:0.500093 14:0.105083 15:-0.215949 16:-0.13835 17:-0.691696 18:0.136861 19:0.0568561 20:0.383401 21:-0.117075 22:-0.640375 23:-0.682742 24:-0.597222 25:-0.682485 26:-0.264773 27:-0.470127 28:0.0710442 29:-0.537187 30:0.268085 31:-0.722054 32:0.332622 33:-0.382684 34:0.339004 35:-0.216985 36:0.58804 37:-0.262761 38:-0.306842 39:0.58804 40:-0.262761 41:-0.306842 42:-1 43:-1 45:0.8 46:-1 47:-1 48:-1 50:-1 51:-0.6 52:-0.2 53:-1 54:-1 55:-1 56:-0.4 57:-1 58:-0.6 59:-0.2 61:-0.8 62:-1 63:-1 65:-0.6 66:1 67:-0.6 68:-0.2 70:-1 71:-1 72:-1 74:-0.6 75:-1 76:-1 77:-1 78:-1 79:-1 80:-0.2 82:-1 83:-1 84:-1 85:-1 86:-1 87:0.2 88:0.6 89:-1 90:-1 91:-1 92:-1 93:-0.6 94:0.8 96:-1 97:-1 98:-1 99:-1 100:0.4 102:-0.2 103:-1 104:-1 105:-1 106:-1 107:0.2 108:-0.8 109:0.2 110:-1 111:-1 112:-1 113:-1 114:-0.2 115:-1 116:-0.4 117:-0.6 118:-1 119:-1 120:-1 121:-0.2 122:-1 123:-1 124:-0.2 125:-1 126:-1 127:-0.8 128:-0.4 129:-1 130:-1 131:-0.2 132:-0.8 133:-1 134:-1 135:0.6 136:-1 137:-1 138:-0.4 140:-1 141:0.428572 142:-0.285714 143:-1 144:-1 145:0.285714 146:0.714286 147:-0.571428 148:-0.142858 149:-0.714286 150:0.285714 151:-0.142858 152:-0.428572 153:-0.714286 154:-0.142858 155:0.285714 156:0.142858 157:-0.714286 158:-1 159:-1 160:-0.428572 162:-0.714286 163:-0.857143 164:-1 165:-0.714286 166:-0.142858 167:1 168:-0.857143 169:-1 170:-1 171:-0.142858 172:1 173:-0.714286 174:-1 175:-1 176:-0.428572 177:-0.142858 178:-0.428572 179:-0.714286 180:-0.857143 182:-1 183:-0.571428 184:-0.142858 185:-1 186:-1 187:0.825764 188:0.932568 189:-1 190:-1 191:-1 192:0.866228 193:-1 194:0.506188 195:0.845372 196:-1 197:-1 198:-1 199:0.903046 200:-1 201:-0.988363 202:0.957654 203:0.201316 204:0.927144 205:-1 206:-1 207:0.703878 208:-0.988982 209:0.942408 210:1 211:-0.860617 212:0.472764 213:-1 214:-1 215:-1 216:0.98295 217:-0.998154 218:-1 219:-1 220:-1 221:-1 222:-1 223:0.976844 224:0.984892 225:-1 226:-1 227:-1 228:-1 229:-1 230:0.966116 231:0.98946 232:-1 233:-1 234:-1 235:-1 236:-0.982327 237:0.958678 238:-0.606902 239:-1 240:-1 241:-1 242:-1 243:0.922234 244:-0.61663 245:0.963874 246:-1 247:-1 248:-1 249:-1 250:0.97901 251:0.976414 252:0.954088 253:-1 254:-1 255:-1 256:-1 257:0.986632 258:-1 259:0.892642 260:0.716522 261:-1 262:-1 263:-1 264:0.988558 265:-1 266:-1 267:0.680872 268:-1 269:-1 270:0.93491 271:0.979642 272:-1 273:-1 274:0.583352 275:0.55407 276:-1 277:-1 278:0.406498 279:-1 280:-1 281:0.607124 282:0.61261 283:-1 284:0.88995 285:0.18945 286:-1 287:-1 288:0.983016 289:-0.46166 290:-0.540458 291:0.892998 292:0.778156 293:0.969864 294:0.852648 295:-0.333146 296:0.513946 297:0.693824 298:1 299:0.988016 300:0.98995 301:-1 302:-1 303:0.971902 304:0.978544 305:-0.983269 306:0.926242 307:-1 308:0.962906 309:0.9686 310:0.388154 311:0.996308 312:-1 313:-1 314:0.955534 315:-0.11659 316:0.820484 317:-1 318:-1 319:0.995876 320:-0.866173 321:0.594134 322:0.565676 323:0.925968 324:0.890678 325:-1 326:-0.554794 327:0.611526 328:-0.484663 329:-0.886962 
0.3027942367806418 1:0.165135 2:0.248737 3:-0.00561848 4:0.201749 5:0.275312 6:0.193427 7:-0.590403 8:-0.106275 9:-0.153919 10:0.31138 11:-0.338206 12:-0.247973 13:0.514154 14:0.0117795 15:-0.0918057 16:-0.791588 17:-0.779846 18:-0.879781 19:-0.855077 20:-0.760617 21:0.229939 22:-0.760201 23:-0.192464 24:-0.661872 25:-0.126075 26:-0.418356 27:-0.0543749 28:-0.152054 29:-0.197647 30:0.124141 31:-0.0478615 32:0.592931 33:-0.539144 34:0.710882 35:-0.728477 36:-0.91766 37:0.135491 38:-0.324832 39:-0.91766 40:0.135491 41:-0.324832 42:-1 43:-1 44:-1 45:-1 46:-0.428572 47:-0.142858 48:-1 49:-1 50:-1 51:-1 52:-1 53:0.142858 54:-0.428572 55:-1 56:-1 57:-1 58:-1 59:-0.714286 60:1 61:-1 62:-1 63:-1 64:-1 65:-1 66:-0.714286 67:1 68:-0.714286 69:-1 70:-1 71:-1 72:-1 73:-0.714286 74:0.428572 75:-0.142858 76:-1 77:-1 78:-1 79:-1 80:-0.714286 81:1 82:-0.428572 83:-1 84:-1 85:-1 86:-1 87:-1 88:1 89:-0.142858 90:-1 91:-1 92:-1 93:-1 94:-0.714286 95:0.142858 96:0.428572 97:-1 98:-1 99:-1 100:-1 101:-1 102:0.428572 103:0.142858 104:-0.142858 105:-1 106:-1 107:-1 108:-0.714286 109:-0.142858 110:-0.714286 111:0.142858 112:-1 113:-1 114:-1 115:-0.428572 116:-0.428572 117:-1 118:0.142858 119:-0.428572 120:0.714286 121:0.142858 122:0.142858 123:-1 124:-1 125:-0.428572 126:-0.428572 127:-0.714286 128:-1 129:-1 130:-1 131:-0.714286 132:-1 133:-0.142858 134:-1 135:-1 136:-1 137:-1 138:-0.142858 139:1 140:-1 141:-1 143:-1 144:-1 145:-1 146:-0.428572 147:-0.142858 148:-0.571428 149:-1 150:-0.714286 151:-0.571428 152:-0.714286 153:-0.857143 154:-1 155:-0.142858 156:-0.571428 158:-0.571428 159:-1 160:-0.285714 161:-0.142858 162:-0.714286 163:-0.571428 164:-1 165:-0.857143 167:-0.142858 168:-1 169:-1 170:-0.571428 171:-1 172:0.428572 173:-0.571428 174:-1 175:-1 176:-1 177:0.571428 178:0.285714 179:-1 180:-1 181:-0.714286 182:1 183:-1 184:-1 185:-1 186:-1 187:-1 188:-1 189:0.164808 190:-0.021318 191:-1 192:-1 193:-1 194:-1 195:-1 196:-0.933794 197:-0.006236 198:-1 199:-1 200:-1 201:-1 202:0.083302 203:-0.265988 204:-1 205:-1 206:-1 207:-1 208:-1 209:0.178216 210:-0.346492 211:-0.10536 212:-1 213:-1 214:-1 215:-1 216:0.147906 217:0.036556 218:-0.225336 219:-1 220:-1 221:-1 222:-1 223:0.16596 224:0.108872 225:-0.09374 226:-1 227:-1 228:-1 229:-1 230:-1 231:0.16271 232:0.232322 233:-1 234:-1 235:-1 236:-1 237:0.160748 238:0.227042 239:0.382274 240:-1 241:-1 242:-1 243:-1 244:-1 245:0.490882 246:0.507552 247:0.68977 248:-1 249:-1 250:-1 251:0.126386 252:0.456092 253:0.975048 254:0.930014 255:-1 256:-1 257:-1 258:0.601104 259:-0.868855 260:-1 261:0.930358 262:0.881362 263:0.948418 264:0.008598 265:-0.061038 266:-1 267:-1 268:0.979836 269:0.861098 270:0.88897 271:-1 272:-1 273:-1 274:1 275:-1 276:0.815064 277:-1 278:-1 279:-1 280:-1 281:0.937188 282:0.952466 283:-1 284:-1 285:-0.544896 286:-1 287:-1 288:-1 289:-0.443612 290:-0.67487 291:-0.76063 292:-1 293:0.225678 294:0.073344 295:-0.050736 296:-0.444742 297:-1 298:0.180984 299:0.094742 300:0.10206 301:-0.090852 302:-1 303:0.215356 304:0.281894 305:0.284104 306:0.41025 307:-1 308:0.512312 309:0.589096 310:0.686108 311:-1 312:-1 313:0.522942 314:-1 315:0.862918 316:-0.39161 317:-1 318:-1 319:-1 320:0.301376 321:-0.293622 322:-1 323:-1 324:0.96853 325:1 326:-1 327:-1 328:-0.641104 329:-0.832417 
4.162624706113235 1:0.420339 2:-0.204307 3:0.395587 4:0.0108724 5:0.18 6:0.260493 7:-0.565748 8:-0.174277 9:-0.0966551 10:0.440902 11:-0.240385 12:-0.312948 13:0.376216 14:0.0623739 15:-0.224956 16:-0.718337 17:-0.742865 18:-0.642846 19:-0.55465 20:0.0630735 21:0.0180285 22:-0.32521 23:-0.622699 24:-0.108853 25:-0.472141 26:-0.521228 27:-0.3078 28:0.609898 29:-0.257878 30:0.525696 31:-0.373034 32:-0.790141 33:-0.810289 34:-0.699423 35:-0.615957 36:0.184883 37:0.355024 38:-0.456523 39:0.184883 40:0.355024 41:-0.456523 42:-1 43:-1 44:-1 45:-0.142858 46:-0.142858 47:-1 48:-1 49:-1 50:-1 51:-1 52:-0.714286 53:-0.142858 54:-1 55:-1 56:-1 57:-1 58:-0.714286 59:0.142858 60:-0.142858 61:-1 62:-0.714286 63:-1 64:-1 65:0.142858 66:0.428572 67:-0.142858 68:0.142858 69:-0.142858 70:-1 71:-0.428572 72:-0.428572 73:0.714286 74:-0.714286 75:-1 76:-1 77:-1 78:-0.428572 79:-0.142858 80:0.428572 81:-0.714286 82:-1 83:-1 84:-0.714286 85:-0.428572 86:-0.142858 87:0.142858 88:-1 89:-1 90:-1 91:-1 92:-1 93:0.142858 94:0.142858 95:-1 96:-1 97:-1 98:-1 99:-1 100:-0.142858 101:1 102:-1 103:-1 104:-1 105:0.142858 106:0.142858 107:0.142858 108:0.714286 109:-0.142858 110:-1 111:-1 112:-0.428572 113:-0.714286 114:-0.142858 115:-0.142858 116:-0.714286 117:-1 118:-1 119:-1 120:-1 121:-1 122:-0.142858 123:-1 124:-1 125:-1 126:-1 127:-1 128:-1 129:0.142858 130:-1 131:-1 132:-1 133:-1 134:-1 135:-1 136:0.714286 137:-0.142858 138:-1 139:-1 140:-0.846154 141:-0.23077 142:-1 143:-1 144:-1 145:-0.384616 146:-0.23077 147:-0.846154 148:-0.692308 149:-0.692308 150:-0.076924 151:0.846154 152:-0.692308 153:-0.846154 154:0.076924 155:-1 156:0.076924 157:-0.538462 158:-0.846154 159:-1 160:-0.384616 161:0.538462 162:-0.538462 163:-1 164:-0.846154 165:-1 166:0.384616 167:-1 168:0.076924 169:-0.538462 170:-1 171:-0.076924 172:-1 173:-0.384616 174:1 175:-1 176:-0.23077 177:-0.692308 178:-1 179:-1 180:-0.538462 181:-0.384616 182:-0.692308 183:-1 184:-1 185:-1 186:-1 187:-1 188:-0.354574 189:0.89443 190:-1 191:-1 192:-1 193:-1 194:-1 195:0.467412 196:-0.556258 197:-1 198:-1 199:-1 200:-1 201:0.99045 202:0.823944 203:-0.415774 204:-1 205:0.851802 206:-1 207:-1 208:-0.986332 209:0.857702 210:-0.393302 211:-0.724624 212:0.831314 213:-1 214:0.923724 215:0.955092 216:-0.940144 217:0.532096 218:-1 219:-1 220:-1 221:0.942144 222:-0.322142 223:1 224:0.891 225:-1 226:-1 227:0.84583 228:-0.948884 229:-0.320614 230:0.00855 231:-1 232:-1 233:-1 234:-1 235:-1 236:-0.064978 237:0.639604 238:-1 239:-1 240:-1 241:-1 242:-1 243:-0.465748 244:0.447428 245:-1 246:-1 247:-1 248:0.91701 249:0.939574 250:0.000306 251:-0.608938 252:-0.573604 253:-1 254:-1 255:0.925944 256:0.94171 257:0.841482 258:0.492406 259:0.399298 260:-1 261:-1 262:-1 263:-1 264:-1 265:0.540472 266:-1 267:-1 268:-1 269:-1 270:-1 271:-1 272:0.7121 273:-1 274:-1 275:-1 276:-1 277:-1 278:-1 279:0.95322 280:0.95322 281:-1 282:-1 283:0.866684 284:0.87169 285:-1 286:-1 287:-1 288:0.877568 289:-0.720202 290:0.442798 291:0.81346 292:-0.903411 293:0.23478 294:-0.615288 295:-0.788074 296:0.576934 297:-0.587192 298:-1 299:-0.138332 300:-0.38624 301:1 302:-1 303:0.62556 304:0.146268 305:-0.308134 306:-1 307:0.507412 308:-1 309:0.334132 310:-1 311:-0.102168 312:-0.47471 313:-1 314:-0.547118 315:-1 316:0.911196 317:0.518878 318:-1 319:0.643546 320:0.52985 321:-1 322:-1 323:0.843966 324:0.958702 325:0.958702 326:-1 327:-1 328:-0.634969 329:-0.802446 
2.242318492352925 1:0.502573 2:-0.135227 3:0.398852 4:0.144255 5:0.248423 6:0.339294 7:-0.431501 8:-0.206382 9:-0.0919262 10:0.376855 11:-0.303018 12:-0.380479 13:0.335735 14:0.0823511 15:-0.134875 16:-0.647844 17:-0.711076 18:-0.701635 19:-0.298095 20:0.0563582 21:0.0523028 22:-0.401375 23:-0.337463 24:-0.226982 25:-0.426125 26:0.360869 27:-0.316732 28:0.679025 29:-0.275284 30:-0.720227 31:-0.879044 32:-0.761298 33:-0.904686 34:-0.723855 35:-0.641196 36:0.258931 37:0.44383 38:-0.471922 39:0.258931 40:0.44383 41:-0.471922 42:-1 43:-1 44:-1 45:-0.5 46:1 47:-1 48:-1 49:-1 50:-1 51:-1 52:-0.75 53:-0.25 54:-1 55:-1 56:-1 57:-1 58:-1 59:0.25 60:-0.25 61:-0.75 62:-1 63:-1 64:-1 65:-0.5 67:-0.25 68:0.5 70:-1 71:-1 72:-0.25 73:0.25 74:-0.75 75:-1 76:-1 77:-1 78:-0.5 79:-0.5 81:-0.75 82:-1 83:-1 84:-1 85:-0.25 86:-0.25 87:0.5 88:-1 89:-1 90:-1 91:0.25 92:-0.5 93:-0.25 94:-0.25 95:-1 96:-1 97:-1 98:-0.75 101:0.5 102:-0.75 103:-1 104:-1 105:-1 106:-1 107:0.5 108:0.25 109:-0.75 110:-1 111:-1 112:-1 113:-1 114:-1 115:-0.25 116:-0.75 117:-1 118:-1 119:-1 120:-1 121:-1 122:0.25 123:-1 124:-1 125:-1 126:-1 127:-1 128:-1 129:-0.5 130:-1 131:-1 132:-1 133:-1 134:-1 135:-1 136:1 137:-1 138:-1 139:-1 140:-0.6 141:0.6 142:-1 143:-1 144:-1 146:-0.4 147:-0.6 148:-0.8 149:-0.8 150:0.8 151:0.2 152:-0.8 153:-0.8 154:1 155:-0.6 156:-0.2 157:-0.6 158:-0.6 159:-1 160:0.4 161:0.4 162:-0.4 163:0.2 164:-0.6 165:-1 166:0.8 167:-1 168:-0.4 169:0.8 170:-1 172:-1 173:-1 174:0.4 175:-1 176:-0.4 177:-0.2 178:-1 179:-1 180:-0.6 181:-0.6 182:-0.2 183:-1 184:-1 185:-1 186:-1 187:-1 188:-0.881426 189:-0.882949 190:-1 191:-1 192:-1 193:-1 194:-1 195:0.807922 196:0.592132 197:-1 198:-1 199:-1 200:-1 201:-1 202:0.84235 203:0.543638 204:0.383114 205:-1 206:-1 207:-1 208:-0.941683 209:0.852174 210:0.41332 211:-0.088288 212:0.009122 213:-1 214:-1 215:-0.35846 216:-0.600578 217:0.691986 218:-1 219:-1 220:-1 221:0.871174 222:0.955068 223:0.98319 224:0.681776 225:-1 226:-1 227:-1 228:0.7372 229:-0.319672 230:0.905054 231:-1 232:-1 233:-1 234:-0.195716 235:0.454348 236:-0.405496 237:0.61234 238:-1 239:-1 240:-1 241:0.697528 242:-0.059644 243:-0.182402 244:-0.090294 245:0.383964 246:-1 247:-1 248:-1 249:-1 250:0.162702 251:-0.772528 252:0.343118 253:-1 254:-1 255:-1 256:-1 257:-1 258:-0.525218 259:0.633068 260:-1 261:-1 262:-1 263:-1 264:-1 265:-0.84945 266:-1 267:-1 268:-1 269:-1 270:-1 271:-1 272:1 273:-1 274:-1 275:-1 276:-1 277:-1 278:-1 279:0.931784 280:-1 281:-1 282:-1 283:0.983298 284:-0.652114 285:-1 286:-1 287:-1 288:0.838352 289:0.669058 290:0.513464 291:0.47409 292:0.394836 293:0.055604 294:0.147226 295:0.952624 296:-0.916045 297:-0.154466 298:0.887034 299:1 300:0.832142 301:0.977994 302:-1 303:0.84899 304:0.778412 305:0.61689 306:-0.063468 307:0.677456 308:-1 309:-0.239268 310:-1 311:-0.266054 312:-0.429662 313:-1 314:-0.687002 315:-1 316:-1 317:0.23363 318:-1 319:-0.41991 320:-0.236808 321:-1 322:-1 323:0.864562 324:0.931438 325:0.998318 326:-1 327:-1 328:-0.647239 329:-0.802778 
1.921378850050389 1:0.042153 2:0.327836 3:-0.0143517 4:0.249193 5:-0.0976642 6:0.331396 7:-0.565826 8:-0.138581 9:-0.0755818 10:0.308451 11:0.025624 12:-0.366042 13:0.44154 14:0.0316833 15:-0.121593 16:-0.707599 17:-0.760632 18:-0.775878 19:-0.85551 20:-0.768787 21:-0.0218258 22:-0.766154 23:-0.113477 24:-0.746168 25:-0.13524 26:-0.396076 27:0.428945 28:-0.248555 29:-0.125937 30:0.0588982 31:-0.644523 32:0.63524 33:-0.507181 34:0.650887 35:-0.460352 36:-0.841044 37:0.271976 38:-0.288697 39:-0.841044 40:0.271976 41:-0.288697 42:-1 43:-1 44:-1 45:-1 46:-0.777778 47:0.111112 48:-0.555556 49:-1 50:-1 51:-1 52:-1 53:-0.777778 54:0.333334 55:-1 56:-1 57:-1 58:-1 59:-1 60:-0.111112 61:-0.777778 62:-1 63:-1 64:-1 65:-1 66:-1 67:0.333334 68:-0.111112 69:-1 70:-1 71:-1 72:-1 73:-1 74:0.111112 75:0.111112 76:-1 77:-1 78:-1 79:-1 80:-1 81:0.333334 82:-0.333334 83:-1 84:-1 85:-1 86:-1 87:-1 88:0.111112 89:-0.555556 90:-1 91:-1 92:-1 93:-1 94:-0.777778 95:0.111112 96:-0.333334 97:-1 98:-1 99:-1 100:-1 101:-1 102:0.111112 103:-0.555556 104:-0.111112 105:-1 106:-1 107:-1 108:-1 109:-0.111112 110:-1 111:-0.111112 112:-1 113:-1 114:-1 115:-0.555556 116:-0.777778 117:-1 118:-0.333334 119:-0.333334 120:-0.555556 121:-0.111112 122:-0.111112 123:-0.777778 124:-1 125:-0.555556 126:-0.111112 127:-0.333334 128:-1 129:-1 130:-1 131:-1 132:-1 133:-0.555556 134:-0.777778 135:-1 136:-1 137:-1 138:-0.777778 139:1 140:-1 141:-1 142:0.538462 143:-1 144:-1 145:-1 146:-0.538462 147:0.076924 148:-0.846154 149:-1 150:-0.384616 151:-0.538462 152:-0.692308 153:-0.692308 154:-1 155:-0.384616 156:0.076924 157:-0.23077 158:-0.692308 159:-1 160:-0.384616 161:-0.384616 162:-0.692308 163:-1 164:-1 165:-0.846154 166:0.076924 167:-0.23077 168:-1 169:-1 170:-0.384616 171:-0.846154 172:0.23077 173:-0.846154 174:-1 175:-1 176:-0.846154 177:1 178:-0.538462 179:-1 180:-1 181:-0.23077 182:0.846154 183:-0.692308 184:-1 185:-1 186:-1 187:-1 188:-1 189:0.355414 190:-0.743508 191:0.81219 192:-1 193:-1 194:-1 195:-1 196:0.027364 197:-0.277766 198:-1 199:-1 200:-1 201:-1 202:-1 203:-0.513854 204:0.086588 205:-1 206:-1 207:-1 208:-1 209:-1 210:-0.337446 211:-0.573086 212:-1 213:-1 214:-1 215:-1 216:-1 217:-0.458298 218:-0.185522 219:-1 220:-1 221:-1 222:-1 223:-1 224:0.018444 225:-0.297922 226:-1 227:-1 228:-1 229:-1 230:-1 231:0.025018 232:-0.167232 233:-1 234:-1 235:-1 236:-1 237:-0.766052 238:-0.020792 239:0.410114 240:-1 241:-1 242:-1 243:-1 244:-1 245:0.513546 246:0.66509 247:0.734254 248:-1 249:-1 250:-1 251:-1 252:0.577354 253:-1 254:0.95692 255:-1 256:-1 257:-1 258:0.427426 259:0.566816 260:-1 261:0.929266 262:0.913496 263:0.990202 264:0.816312 265:0.445166 266:0.710234 267:-1 268:1 269:0.87506 270:0.963496 271:-1 272:-1 273:-1 274:-1 275:-1 276:0.78071 277:0.91657 278:-1 279:-1 280:-1 281:0.963872 282:-0.801252 283:-1 284:-1 285:-0.617276 286:-1 287:-1 288:-1 289:-0.674216 290:-0.80459 291:0.046074 292:-1 293:0.054026 294:-0.727414 295:-0.064576 296:-0.2429 297:-1 298:0.002942 299:-0.296642 300:-0.110488 301:-0.436414 302:-1 303:0.082426 304:0.27899 305:0.052786 306:-1 307:-1 308:0.499048 309:0.363194 310:0.711634 311:-1 312:-1 313:0.62611 314:0.179534 315:0.974988 316:0.615246 317:-1 318:-1 319:0.946584 320:-0.360558 321:-0.666068 322:-1 323:-1 324:0.927412 325:-0.692686 326:1 327:-1 328:-0.665644 329:-0.832329 
6.958686790094172 1:-0.0654548 2:-0.147337 3:0.40416 4:-0.214433 5:-0.0281585 6:0.363028 7:-0.731028 8:-0.094513 9:-0.0172354 10:0.539317 11:-0.0360728 12:-0.409453 13:0.263132 14:0.00129954 15:-0.429996 16:-0.59304 17:-0.708015 18:-0.717114 19:-0.442186 20:-0.700229 21:-0.456904 22:-0.570503 23:-0.282435 24:-0.392782 25:-0.132579 26:0.236354 27:-0.508415 28:0.687231 29:-0.448553 30:-0.697983 31:-0.749666 32:-0.797347 33:-0.924554 34:-0.730871 35:-0.646884 36:-0.501409 37:0.476683 38:-0.269726 39:-0.501409 40:0.476683 41:-0.269726 42:-1 43:-1 44:-1 45:-1 46:-1 47:0.333334 48:1 49:-1 50:-1 51:-1 52:-1 53:-1 55:-0.333334 56:-1 57:-1 58:-1 59:-1 60:-0.666666 62:-0.333334 63:-1 64:-1 65:-1 66:-1 67:-0.333334 68:0.333334 69:-0.666666 70:-1 71:-1 72:-1 73:-1 74:1 76:-0.666666 77:-1 78:-1 79:-1 80:-0.666666 81:1 83:-0.666666 84:-1 85:-1 86:-1 87:-0.333334 89:0.333334 90:-1 91:-1 92:-1 93:-1 94:-1 95:0.666666 97:-1 98:-0.666666 99:0.666666 100:-1 101:-0.666666 102:0.333334 104:-1 105:-0.333334 106:0.666666 107:0.333334 109:0.333334 110:0.333334 111:-1 112:-1 113:-1 114:-1 115:-1 116:-0.666666 118:-1 119:-1 120:-1 121:-1 122:-1 123:-0.333334 124:-0.333334 125:-1 126:-1 127:-1 128:-1 129:-1 131:-1 132:-1 133:-1 134:-1 135:-1 136:-1 137:0.666666 139:-1 140:-1 141:-1 142:-1 143:0.333334 144:-0.666666 145:-1 146:-0.333334 147:-0.5 148:-0.5 149:-0.833333 150:-0.333334 151:-0.333334 152:-0.166666 153:-0.333334 154:-1 155:-0.666666 156:-1 157:-0.166666 158:-0.5 159:-0.833333 160:-0.833333 161:-1 162:0.666666 163:-0.333334 164:-0.833333 165:-1 166:-1 167:0.333334 168:-0.166666 169:-0.666666 170:-1 171:-1 172:0.166666 173:1 175:-1 176:-1 177:-0.5 178:-0.333334 179:-1 180:-1 181:-0.5 182:-0.5 183:-0.666666 184:-1 185:-1 186:-1 187:-1 188:-1 189:-1 190:-0.146436 191:0.845226 192:-1 193:-1 194:-1 195:-1 196:-1 197:0.623568 198:0.65862 199:-1 200:-1 201:-1 202:-1 203:0.446746 204:0.42008 205:0.376276 206:-1 207:-1 208:-1 209:-1 210:-0.987528 211:0.458086 212:0.442574 213:-1 214:-1 215:-1 216:-1 217:-0.508796 218:-0.429726 219:0.771044 220:-1 221:-1 222:-1 223:0.258364 224:-0.442864 225:-0.553136 226:1 227:-1 228:-1 229:-1 230:-0.908762 231:-0.438552 232:-0.148606 233:-1 234:-1 235:-1 236:-1 237:-1 238:-0.612734 239:-0.349488 240:-1 241:0.861798 242:0.113338 243:-1 244:0.964338 245:-0.97072 246:0.733152 247:-1 248:0.8615 249:0.112804 250:0.921268 251:0.990882 252:0.898758 253:0.73888 254:-1 255:-1 256:-1 257:-1 258:-1 259:0.854748 260:0.752714 261:-1 262:-1 263:-1 264:-1 265:-1 266:0.89059 267:0.875936 268:-1 269:-1 270:-1 271:-1 272:-1 273:0.919056 274:-1 275:-1 276:-1 277:-1 278:-1 279:-1 280:0.88187 281:0.89207 282:-1 283:-1 284:-1 285:-1 286:0.361026 287:0.798694 288:-1 289:0.426746 290:0.552016 291:0.539572 292:0.665726 293:-0.944816 294:-0.248332 295:-0.073354 296:-0.107944 297:-1 298:-0.919913 299:-1 300:-0.651484 301:0.721114 302:1 303:0.249012 304:-1 305:0.504914 306:0.891766 307:0.872966 308:-1 309:-1 310:-0.126058 311:0.081174 312:0.912704 313:-1 314:-1 315:-0.75755 316:0.85935 317:0.920972 318:-1 319:-1 320:0.880756 321:0.911988 322:-1 323:-1 324:0.790042 325:0.943086 326:0.943088 327:-1 328:-0.680982 329:-0.803198 
3.842060859217142 1:-0.224825 2:-0.0275263 3:0.405542 4:-0.497987 5:0.194871 6:0.368656 7:-0.625172 8:0.00298321 9:0.211345 10:0.763319 11:-0.241798 12:-0.369043 13:0.0483793 14:-0.0666942 15:-0.634675 16:-0.65834 17:-0.669565 18:-0.774466 19:-0.586552 20:-0.741975 21:-0.25775 22:-0.680105 23:-0.268486 24:-0.541229 25:-0.121334 26:-0.568151 27:-0.272211 28:0.351311 29:-0.38795 30:0.332219 31:-0.778152 32:-0.767563 33:-0.930847 34:-0.74404 35:-0.582592 36:-0.6817 37:0.431178 38:-0.114986 39:-0.6817 40:0.431178 41:-0.114986 42:-1 43:-1 44:-1 45:-1 46:-1 47:0.333334 48:1 49:-1 50:-1 51:-1 52:-1 53:-1 54:-0.333334 55:-0.333334 56:-1 57:-1 58:-1 59:-1 60:-0.333334 61:-0.333334 62:-0.333334 63:-1 64:-1 65:-1 66:-1 67:-0.333334 69:-0.666666 70:-1 71:-1 72:-1 73:-1 74:-0.333334 75:0.333334 76:-0.666666 77:-1 78:-1 79:-1 80:-1 81:0.333334 83:-0.666666 84:-1 85:-1 86:-1 87:-0.666666 89:-0.333334 90:-1 91:-1 92:-1 93:-1 94:-1 95:0.666666 97:-1 98:-1 99:-1 100:-1 101:-0.666666 102:0.333334 103:-0.333334 104:-1 105:-0.333334 106:-0.333334 108:-0.333334 111:-1 112:-0.333334 113:-1 114:-1 115:-1 116:-0.333334 117:-0.333334 118:-1 119:-1 120:-1 121:-1 122:-1 124:-0.666666 125:-1 126:-1 127:-1 128:-1 129:-1 131:-1 132:-1 133:-1 134:-1 135:-1 136:-0.666666 137:0.666666 139:-1 140:-1 141:-1 142:-1 143:0.333334 144:-0.666666 145:-1 146:-0.5 147:-0.666666 148:-0.5 149:-0.666666 150:-1 151:-0.166666 152:-0.333334 153:-0.666666 154:-1 155:-0.666666 156:-1 157:-0.333334 158:-0.5 159:-0.833333 160:-0.5 161:-0.833333 162:0.166666 163:-0.666666 164:-1 165:-1 166:-1 167:-0.5 168:-0.666666 169:-0.666666 170:-1 171:-1 172:-0.5 173:1 175:-1 176:-1 177:-0.333334 178:-0.5 179:-1 180:-1 181:-0.333334 182:-0.666666 183:-0.5 184:-1 185:-1 186:-1 187:-1 188:-1 189:-1 190:-0.942583 191:-0.973356 192:-1 193:-1 194:-1 195:-1 196:-1 197:0.468264 198:0.80951 199:-1 200:-1 201:-1 202:-1 203:-0.703038 204:-0.22908 205:-0.183294 206:-1 207:-1 208:-1 209:-1 210:-0.008556 211:-0.061972 212:-0.044462 213:-1 214:-1 215:-1 216:-1 217:0.216168 218:0.10642 219:0.084276 220:-1 221:-1 222:-1 223:-1 224:-0.478534 225:0.252432 226:0.915676 227:-1 228:-1 229:-1 230:-0.272692 231:0.04032 232:0.128654 233:-1 234:-1 235:-1 236:-1 237:-1 238:-0.403284 239:0.021338 240:-1 241:-1 242:-1 243:-1 244:0.970946 245:-0.185976 246:-0.933109 247:-1 248:0.56347 249:0.597224 250:0.86093 251:0.97599 252:0.891578 253:0.634552 254:-1 255:0.552674 256:-1 257:-1 258:-1 259:0.851316 260:0.709106 261:-1 262:-1 263:-1 264:-1 265:-1 266:0.898428 267:0.790184 268:-1 269:-1 270:-1 271:-1 272:-1 273:1 274:-1 275:-1 276:-1 277:-1 278:-1 279:0.92442 280:0.822366 281:0.754332 282:-1 283:-1 284:-1 285:-1 286:-0.45018 287:1 288:-1 289:-0.203932 290:-0.884705 291:0.560378 292:0.02426 293:-1 294:0.120232 295:-0.443246 296:-0.940554 297:-1 298:0.012846 299:-1 300:-0.362108 301:0.215408 302:0.960034 303:-0.511548 304:0.113664 305:0.031918 306:-0.74096 307:-1 308:-1 309:-1 310:-0.499944 311:0.832762 312:0.99383 313:-1 314:-1 315:-0.517028 316:0.186426 317:0.929894 318:-1 319:-1 320:0.978604 321:0.961104 322:-1 323:-1 324:0.70794 325:0.96898 326:0.96898 327:-1 328:-0.748466 329:-0.802907 
4.343818033659216 1:-0.597685 2:-0.334116 3:0.504412 4:-0.69503 5:0.114549 6:-0.095105 7:-0.771021 8:-0.127116 9:0.24795 10:0.884917 11:-0.172901 12:0.0450253 13:0.0728097 14:0.0194511 15:-0.77531 16:-0.752105 17:-0.634261 18:-0.563529 19:-0.540383 20:-0.415664 21:-0.559134 22:-0.320886 23:-0.491338 24:-0.0989528 25:-0.470173 26:-0.288088 27:-0.413568 28:-0.239537 29:-0.297317 30:-0.318753 31:-0.425286 32:-0.414755 33:-0.396001 34:-0.485375 35:-0.565387 36:-0.60321 37:-0.0602947 38:-0.330975 39:-0.60321 40:-0.0602947 41:-0.330975 42:-0.6 43:0.6 44:1 45:-0.6 46:-1 47:-1 48:-1 49:-1 50:1 51:0.2 52:-1 53:-1 54:-1 55:-1 56:-0.2 57:0.2 58:-0.2 59:-0.2 60:-0.6 61:-1 62:-1 63:0.2 64:0.6 65:-0.2 66:0.6 67:1 68:0.2 69:-1 70:0.2 71:-0.2 72:-0.6 73:-0.2 74:0.2 75:0.2 76:-0.6 77:-0.2 78:-0.2 79:-0.6 80:-0.2 81:-0.6 82:-0.6 83:-0.2 84:-0.2 85:-0.2 86:-0.6 87:-0.2 88:-0.2 89:-1 90:-1 91:-0.2 92:-0.2 93:-0.2 94:1 95:1 96:-1 97:-1 98:-0.2 99:0.6 100:-0.2 101:0.2 102:-0.2 103:-1 104:-1 105:-0.2 106:-0.2 107:-1 108:-0.2 109:-0.2 110:-1 111:-1 112:-0.2 113:-0.2 114:-1 115:-0.6 116:0.2 117:-1 118:-1 119:-0.6 120:-0.2 121:-0.6 122:-0.2 123:-0.2 124:-1 125:-1 126:-1 127:-0.2 128:-0.6 129:-0.2 130:-0.2 131:-1 132:-1 133:-0.6 134:0.6 135:-0.6 136:-0.2 137:0.6 138:-1 139:-1 140:0.09091 141:0.454546 142:-1 143:-1 144:-1 145:-1 146:-0.09091 147:0.09091 148:-0.272728 149:-1 150:-1 151:-0.636364 152:0.818182 153:1 154:-0.454546 155:-1 156:-1 157:0.818182 158:0.09091 159:-0.09091 160:-1 161:0.09091 162:1 163:-0.818182 164:-0.636364 165:-0.454546 166:0.454546 167:0.272728 168:-0.818182 169:-1 170:-0.09091 171:-0.636364 172:-0.636364 173:-0.09091 174:-0.818182 175:-1 176:-0.636364 177:-0.272728 178:-0.636364 179:-0.454546 180:-1 181:-0.09091 182:-0.272728 183:-0.272728 184:-0.454546 185:0.873886 186:-0.1014 187:0.109016 188:0.886516 189:-1 190:-1 191:-1 192:-1 193:0.911684 194:0.914396 195:-1 196:-1 197:-1 198:-1 199:0.882772 200:0.950574 201:0.948742 202:0.937054 203:0.900498 204:-1 205:-1 206:-0.37505 207:-0.985991 208:-0.982255 209:-0.992256 210:0.887574 211:0.808998 212:-1 213:-0.294588 214:0.99354 215:1 216:0.962224 217:-0.333824 218:0.727442 219:0.655416 220:0.94059 221:0.974494 222:0.99944 223:0.959376 224:0.882608 225:0.630146 226:0.620044 227:0.906066 228:0.95274 229:0.95371 230:0.966426 231:0.91915 232:-1 233:-1 234:-0.968315 235:0.9103 236:0.913842 237:0.896786 238:0.910138 239:-1 240:-1 241:0.718556 242:0.802854 243:0.851894 244:0.85553 245:-0.984526 246:-1 247:-1 248:0.641924 249:0.68494 250:-1 251:0.816316 252:0.77023 253:-1 254:-1 255:0.765606 256:0.661708 257:-1 258:0.736174 259:0.724348 260:-1 261:-1 262:0.808342 263:0.841652 264:0.789674 265:0.666854 266:0.588162 267:-1 268:-1 269:-1 270:0.933568 271:0.911612 272:0.797892 273:0.691768 274:-1 275:-1 276:0.692782 277:0.690216 278:0.834164 279:0.713394 280:0.72366 281:-1 282:-1 283:-0.425354 284:0.891188 285:-1 286:-1 287:-1 288:-1 289:0.93001 290:0.947392 291:0.905686 292:-1 293:-1 294:1 295:-0.614114 296:0.175404 297:-0.33998 298:-1 299:-1 300:0.97969 301:-0.974012 302:0.662522 303:-1 304:0.925164 305:0.926326 306:0.89714 307:-0.887345 308:0.85092 309:0.431782 310:-0.258654 311:0.7617 312:-1 313:0.770566 314:0.725926 315:0.650864 316:0.672446 317:0.85683 318:-1 319:0.644736 320:-0.93264 321:-0.906622 322:0.812556 323:-1 324:0.653336 325:0.733042 326:0.813874 327:0.928022 328:-0.570552 329:-0.848977 
2.85230379577061 1:-0.342054 2:-0.114516 3:0.222746 4:-0.542589 5:-0.0496285 6:0.345092 7:-0.516398 8:0.347361 9:0.00785684 10:0.750507 11:-0.0133913 12:-0.396326 13:-0.0399784 14:-0.329011 15:-0.575325 16:-0.566266 17:-0.663879 18:-0.827684 19:-0.0822304 20:-0.783459 21:-0.0992164 22:-0.555686 23:-0.276338 24:-0.359389 25:-0.576333 26:-0.580691 27:-0.414225 28:-0.530068 29:-0.461862 30:0.184589 31:0.0625157 32:-0.128228 33:-0.0721046 34:-0.416451 35:-0.499966 36:-0.58311 37:0.344151 38:-0.369128 39:-0.58311 40:0.344151 41:-0.369128 42:-1 43:-1 44:-1 45:-1 46:-1 47:-0.333334 48:-0.777778 49:-1 50:-1 51:-1 52:-1 53:-1 54:-0.333334 55:-0.333334 56:-1 57:-1 58:-1 59:-1 60:0.777778 61:-0.777778 62:-1 63:-1 64:-1 65:-1 66:-0.777778 67:1 68:-0.777778 69:-1 70:-1 71:-1 72:-0.777778 73:-0.333334 74:-0.555556 75:-0.555556 76:-1 77:-1 78:-1 79:-0.333334 80:-0.333334 81:-0.333334 82:-1 83:-1 84:-1 85:-0.333334 86:-0.777778 87:-0.333334 88:-0.555556 89:-1 90:-1 91:-1 92:-1 93:-0.777778 94:0.111112 95:-0.333334 96:-1 97:-1 98:-1 99:-1 100:-1 101:-0.333334 102:-0.111112 103:-0.777778 104:-1 105:-1 106:-1 107:-0.555556 108:-0.333334 109:-1 110:0.111112 111:-1 112:-1 113:-0.111112 114:-0.777778 115:-1 116:-0.777778 117:-1 118:-1 119:-0.555556 120:-0.777778 121:-1 122:-1 123:-0.555556 124:-0.555556 125:-1 126:-0.555556 127:-1 128:-1 129:-1 130:-0.333334 131:-1 132:-1 133:-1 134:-0.555556 135:-0.777778 136:-0.555556 137:-0.777778 138:-1 139:-1 140:-1 141:-1 143:0.5 144:-1 145:-0.75 146:-0.5 147:-0.75 148:-0.5 149:-0.25 150:-0.5 151:-0.75 152:-0.5 153:1 154:0.5 155:-1 156:-0.75 159:-1 160:-0.75 161:-0.25 162:0.75 163:0.75 164:-1 165:-0.25 166:-0.5 167:-0.25 168:-1 169:-1 170:0.25 171:-0.25 172:0.25 173:-0.5 174:-1 175:-0.25 177:-1 178:-1 179:0.5 180:-0.25 181:-0.25 182:-1 183:-1 184:-1 185:-1 186:-1 187:-1 188:-1 189:-1 190:-0.111252 191:0.939074 192:-1 193:-1 194:-1 195:-1 196:-1 197:-0.353966 198:0.074068 199:-1 200:-1 201:-1 202:-1 203:-0.451086 204:-0.050326 205:-1 206:-1 207:-1 208:-1 209:-0.306674 210:-0.40836 211:0.070118 212:-1 213:-1 214:-1 215:0.508412 216:0.198506 217:0.05072 218:-0.126766 219:-1 220:-1 221:-1 222:-0.34246 223:-0.35395 224:-0.434756 225:-1 226:-1 227:-1 228:-0.375758 229:0.79935 230:-0.354204 231:0.872036 232:-1 233:-1 234:-1 235:-1 236:0.68398 237:-0.640294 238:-0.465414 239:-1 240:-1 241:-1 242:-1 243:-1 244:0.794112 245:-0.974454 246:0.57852 247:-1 248:-1 249:-1 250:0.949492 251:1 252:-1 253:0.705146 254:-1 255:-1 256:-0.865065 257:0.688832 258:-1 259:0.854706 260:-1 261:-1 262:-0.682814 263:-0.682806 264:-1 265:-1 266:0.864758 267:0.811376 268:-1 269:-0.682814 270:-1 271:-1 272:-1 273:0.956934 274:-1 275:-1 276:-1 277:-0.280954 278:-0.243456 279:-0.977156 280:0.593364 281:-1 282:-1 283:-1 284:-1 285:-0.346928 286:0.220186 287:-1 288:-0.886152 289:-0.464044 290:-0.432188 291:-0.321704 292:-0.225806 293:-0.281446 294:-0.41027 295:-0.397024 296:-0.370306 297:-0.251278 298:-1 299:0.964636 300:-0.940083 301:-0.005484 302:-1 303:0.712914 304:0.776124 305:-0.229806 306:0.321638 307:-1 308:0.787234 309:0.711608 310:0.603936 311:-1 312:-1 313:1 314:0.753064 315:0.116962 316:-0.498526 317:-1 318:0.967008 319:0.887308 320:-1 321:-1 322:-0.77046 323:-0.475244 324:-0.255886 325:-1 326:-1 327:-1 328:-0.723926 329:-0.767341 
4.891829426853787 1:-0.023287 2:-0.203793 3:0.114463 4:-0.206007 5:0.277165 6:-0.522712 7:-0.621708 8:-0.341447 9:-0.243789 10:0.390155 11:-0.361485 12:0.559628 13:0.120147 14:0.218774 15:-0.291838 16:-0.467537 17:-0.768697 18:-0.651643 19:-0.184826 20:-0.691121 21:-0.511036 22:-0.560634 23:-0.482158 24:-0.320773 25:-0.482934 26:-0.527801 27:-0.453708 28:0.251315 29:-0.113788 30:0.442217 31:-0.105838 32:-0.829391 33:-0.773176 34:-0.847639 35:-0.625844 36:-0.284471 37:-0.4694 38:-0.449935 39:-0.284471 40:-0.4694 41:-0.449935 42:-0.142858 43:-0.428572 44:-1 45:-1 46:-1 47:-1 48:-1 49:-0.428572 50:-0.428572 51:-1 52:-1 53:-1 54:-1 55:-1 56:-0.714286 57:-0.428572 58:-0.142858 59:-1 60:-1 61:-1 62:-1 63:-1 64:-0.428572 65:-0.142858 66:-0.428572 67:-1 68:-1 69:-1 70:-1 71:-0.428572 72:1 73:-0.428572 74:-0.714286 75:-1 76:-1 77:-1 78:-0.714286 79:0.142858 80:-0.142858 81:-0.428572 82:-1 83:-1 84:-1 85:-1 86:0.142858 87:0.142858 88:-1 89:-1 90:-1 91:-1 92:-1 93:0.142858 94:-0.142858 95:-1 96:-1 97:-1 98:-1 99:-1 100:-1 101:-0.714286 102:-1 103:-0.714286 104:-0.714286 105:-1 106:-1 107:0.142858 108:0.142858 109:-1 110:-0.142858 111:-0.142858 112:-1 113:-0.428572 114:-0.428572 115:0.142858 116:0.142858 117:-0.714286 118:-1 119:-1 120:-1 121:-0.428572 122:-0.714286 123:-1 124:-1 125:-0.714286 126:-1 127:-1 128:-0.714286 129:-0.142858 130:-1 131:-1 132:-1 133:-1 134:-1 135:-0.714286 136:-0.714286 137:-1 138:-1 139:-1 140:-1 141:-0.777778 142:1 143:-1 144:-1 145:-0.333334 146:-0.777778 147:-0.777778 148:-1 149:-0.777778 150:0.111112 151:1 152:-0.555556 153:-0.555556 154:-1 155:-1 156:-0.111112 157:0.111112 158:-0.777778 159:-1 160:-1 161:0.111112 162:-0.555556 163:-0.777778 164:-1 165:-0.555556 166:-0.111112 167:-0.111112 168:-0.777778 169:0.555556 170:-0.111112 171:-0.555556 172:0.111112 173:-0.111112 174:-0.333334 175:-0.777778 176:-1 177:-0.777778 178:-0.555556 179:-1 180:-1 181:-1 182:-1 183:-0.333334 184:-0.333334 185:-0.37225 186:0.695618 187:-1 188:-1 189:-1 190:-1 191:-1 192:0.862612 193:0.741996 194:-1 195:-1 196:-1 197:-1 198:-1 199:0.887572 200:0.976016 201:0.149236 202:-1 203:-1 204:-1 205:-1 206:-1 207:0.979864 208:0.996962 209:0.872982 210:-1 211:-1 212:-1 213:-1 214:-0.96007 215:-0.166158 216:0.961388 217:0.92803 218:-1 219:-1 220:-1 221:0.829076 222:0.927012 223:-0.371452 224:0.871776 225:-1 226:-1 227:-1 228:-1 229:-0.045796 230:-0.034334 231:-1 232:-1 233:-1 234:-1 235:-1 236:-0.197846 237:-0.40402 238:-1 239:-1 240:-1 241:-1 242:-1 243:-1 244:0.793818 245:-1 246:0.723004 247:0.779294 248:-1 249:-1 250:-0.978951 251:0.917176 252:-1 253:0.70156 254:-0.451152 255:-1 256:0.60826 257:0.774324 258:1 259:0.88151 260:0.667442 261:-1 262:-1 263:-1 264:0.842488 265:0.944162 266:-1 267:-1 268:0.91205 269:-1 270:-1 271:0.802498 272:0.91794 273:-1 274:-1 275:-1 276:-1 277:-1 278:0.831946 279:0.797558 280:-1 281:-1 282:-1 283:-1 284:0.935502 285:0.381522 286:-1 287:-1 288:0.975712 289:-0.420694 290:0.867942 291:-1 292:-0.183652 293:0.933264 294:0.078896 295:0.917594 296:0.939452 297:-1 298:-1 299:0.906972 300:-0.621792 301:0.862502 302:-1 303:-1 304:0.131228 305:0.771116 306:0.59875 307:-1 308:0.732938 309:-0.206188 310:-0.09242 311:0.71193 312:0.852648 313:0.726934 314:-0.886639 315:0.651782 316:0.883444 317:1 318:0.892166 319:-1 320:0.794046 321:0.888276 322:-1 323:-1 324:-1 325:-1 326:-0.374776 327:0.8787 328:-0.751534 329:-0.760443 
3.541424893436472 1:-0.064993 2:-0.528533 3:-0.0329598 4:-0.0057626 5:0.0288319 6:-0.349608 7:-0.886967 8:-0.15958 9:-0.143241 10:0.351093 11:-0.0866133 12:0.331523 13:0.504536 14:0.0559074 15:-0.284555 16:0.146847 17:-0.659753 18:-0.122557 19:-0.588675 20:-0.28811 21:-0.544965 22:-0.259928 23:-0.353461 24:-0.0253532 25:-0.553037 26:0.247749 27:-0.625064 28:0.442681 29:-0.629167 30:-0.051356 31:-0.728139 32:-0.0814203 33:-0.548618 34:-0.0748066 35:-0.488232 36:0.0153011 37:-0.221671 38:-0.558135 39:0.0153011 40:-0.221671 41:-0.558135 42:-0.333334 44:-0.333334 45:0.333334 46:0.333334 48:-0.333334 49:-1 50:-0.333334 53:-0.333334 54:-1 55:-0.666666 56:-1 60:0.666666 61:-1 62:-1 63:-1 64:-0.333334 65:0.333334 67:0.666666 69:-1 70:-1 71:-0.666666 74:-0.333334 76:-1 77:-1 78:-0.666666 79:-0.333334 80:-0.333334 81:-0.333334 83:-0.666666 84:-1 85:-0.666666 86:-0.666666 88:-0.333334 90:-0.333334 91:-1 92:-0.666666 93:-1 95:-0.333334 98:-1 99:-0.333334 100:-1 102:-0.666666 104:0.333334 105:-1 106:-0.666666 107:-1 109:-1 110:-0.666666 111:1 112:-1 113:-1 114:-1 116:-1 119:-1 120:-1 121:-0.666666 123:-1 124:-1 125:0.333334 126:-1 127:-1 128:-1 129:-0.333334 130:-1 131:-1 132:0.333334 133:-1 134:-1 136:0.333334 137:-1 138:-1 140:-0.866667 141:0.6 142:-0.066666 143:-0.866667 144:-1 145:0.2 146:0.333334 147:-0.2 148:-0.866667 149:-1 150:0.466666 151:-0.2 152:-0.2 153:-0.866667 154:-1 155:-0.466666 156:-0.6 157:-0.6 158:-0.6 159:-0.733334 160:-0.733334 161:1 162:-0.466666 163:-0.6 164:-1 165:-1 166:0.6 167:0.2 168:-0.733334 169:-1 170:-1 171:-0.866667 172:-0.466666 173:-0.333334 174:-1 175:-1 176:-1 177:-0.733334 178:0.466666 179:-1 180:-0.466666 181:-0.733334 182:-0.733334 183:-0.866667 184:-0.866667 185:-0.996232 186:-0.330494 187:0.99252 188:0.963384 189:0.945464 190:0.967168 191:0.91078 192:-1 193:-0.997884 194:0.994018 195:0.974676 196:0.965032 197:-1 198:0.872306 199:-1 200:-0.367244 201:0.965808 202:0.98512 203:0.97804 204:-1 205:-1 206:-1 207:0.800112 208:0.869136 209:0.986616 210:0.980164 211:0.991748 212:-1 213:-1 214:0.78167 215:-0.401108 216:0.97613 217:0.990246 218:0.93457 219:-1 220:-1 221:0.873018 222:-0.981565 223:0.966944 224:0.993092 225:0.959806 226:0.89947 227:-1 228:0.906592 229:0.912944 230:0.94851 231:0.987956 232:0.97108 233:0.936046 234:-1 235:0.94783 236:-1 237:0.972586 238:0.982666 239:0.970634 240:0.945604 241:-1 242:-0.99521 243:-1 244:0.984588 245:0.976192 246:0.962522 247:0.951442 248:-1 249:1 250:-1 251:0.962656 252:-1 253:0.971992 254:0.871394 255:-1 256:-1 257:-1 258:0.910724 259:-1 260:0.646976 261:0.42654 262:-1 263:-1 264:0.546026 265:-0.07125 266:-1 267:-1 268:-0.328586 269:-1 270:-1 271:-1 272:-0.379002 273:-1 274:-1 275:-0.547912 276:-1 277:-1 278:-0.303394 279:-0.278728 280:-1 281:-1 282:-0.61807 283:0.97589 284:0.000918 285:-0.181952 286:0.96203 287:-1 288:0.541208 289:0.978314 290:-0.343296 291:0.910008 292:-1 293:0.983632 294:0.970276 295:0.864336 296:0.805026 297:-1 298:0.983692 299:0.954906 300:0.823536 301:0.836184 302:0.795728 303:0.977062 304:0.96664 305:-0.02576 306:0.919862 307:-1 308:-1 309:0.970162 310:0.484212 311:0.85109 312:-1 313:-1 314:1 315:0.664834 316:0.658676 317:-1 318:-1 319:-1 320:-0.641108 321:-0.911874 322:-1 323:-0.839833 324:-0.278726 325:-0.848321 326:-0.278728 327:-0.278726 328:-0.509202 329:-0.870967 
2.883549941054078 1:0.107731 2:-0.319308 3:0.11939 4:0.018031 5:0.264346 6:-0.516969 7:-0.71862 8:-0.264389 9:-0.300867 10:0.195344 11:-0.349939 12:0.561486 13:0.304967 14:0.155573 15:-0.143245 16:-0.44805 17:-0.812641 18:-0.60234 19:-0.523754 20:-0.622765 21:-0.545034 22:-0.579279 23:-0.483774 24:-0.29873 25:-0.445745 26:-0.479029 27:-0.468041 28:0.47314 29:-0.110714 30:0.600835 31:-0.233633 32:-0.792752 33:-0.846772 34:-0.846698 35:-0.711585 36:-0.15808 37:-0.491114 38:-0.50024 39:-0.15808 40:-0.491114 41:-0.50024 42:-0.142858 43:-1 44:-1 45:-1 46:-1 47:-1 48:-1 49:-0.142858 50:-1 51:-1 52:-1 53:-1 54:-1 55:-1 56:-0.428572 57:-0.142858 58:-0.714286 59:-1 60:-1 61:-1 62:-1 63:-0.714286 64:0.142858 65:-0.142858 66:-1 67:-1 68:-1 69:-1 70:-1 71:-0.428572 72:1 73:-0.428572 74:-1 75:-1 76:-1 77:-1 78:-0.428572 79:-0.142858 80:-0.142858 81:-0.142858 82:-1 83:-1 84:-1 85:-0.714286 86:-0.142858 87:-0.142858 88:-1 89:-1 90:-1 91:-1 92:-0.714286 93:0.142858 94:-0.428572 95:-1 96:-1 97:-1 98:-1 99:-1 100:-1 101:-0.714286 102:-1 103:-0.142858 104:-0.428572 105:-1 106:-0.714286 107:-0.142858 108:0.428572 109:0.428572 110:-1 111:-1 112:-1 113:-0.428572 114:-0.142858 115:-0.714286 116:-1 117:-1 118:0.142858 119:-1 120:-1 121:0.142858 122:-1 123:-1 124:-1 125:-1 126:-1 127:-1 128:-0.142858 129:-0.142858 130:-1 131:-1 132:-1 133:-1 134:-1 135:-0.714286 136:-0.714286 137:-1 138:-1 139:-1 140:-1 141:-1 142:0.5 143:-0.75 144:-1 145:-0.25 146:-0.5 147:-0.75 148:-1 149:-1 150:-0.25 151:1 152:-0.25 153:-1 155:-1 157:0.25 158:-0.75 159:-0.75 160:-1 162:-0.75 163:-0.75 164:-0.75 165:-0.25 166:0.75 167:0.25 169:1 170:-0.5 171:-0.5 173:-0.5 174:-1 175:-1 176:-1 177:-0.25 178:-0.75 179:-1 180:-1 181:-1 182:-1 183:0.75 184:-0.75 185:0.68838 186:-1 187:-1 188:-1 189:-1 190:-1 191:-1 192:0.844702 193:-1 194:-1 195:-1 196:-1 197:-1 198:-1 199:0.74895 200:0.881636 201:-0.30271 202:-1 203:-1 204:-1 205:-1 206:0.82386 207:0.928124 208:-0.363654 209:-1 210:-1 211:-1 212:-1 213:-1 214:0.93645 215:0.923266 216:0.933812 217:-1 218:-1 219:-1 220:-1 221:0.839894 222:0.906238 223:-0.370002 224:0.940928 225:-1 226:-1 227:-1 228:0.743534 229:0.870814 230:-0.35476 231:-1 232:-1 233:-1 234:-1 235:0.756984 236:0.75222 237:0.834536 238:-1 239:-1 240:-1 241:-1 242:-1 243:-1 244:0.952008 245:-1 246:-0.575034 247:0.39281 248:-1 249:0.66838 250:0.749744 251:0.943448 252:0.822798 253:-1 254:-1 255:-1 256:0.67015 257:0.739798 258:0.988056 259:-1 260:-1 261:0.41589 262:-1 263:-1 264:0.771984 265:-1 266:-1 267:-1 268:-1 269:-1 270:-1 271:0.745916 272:0.718718 273:-1 274:-1 275:-1 276:-1 277:-1 278:1 279:0.987986 280:-1 281:-1 282:-1 283:-1 284:-1 285:0.770232 286:0.896122 287:-1 288:0.934084 289:-0.446548 290:0.77177 291:-1 292:-1 293:-0.327838 294:-0.51853 295:0.979536 296:-1 297:0.986086 298:-1 299:-0.003264 300:0.21533 301:0.969868 302:0.955552 303:-1 304:-0.005812 305:0.90782 306:0.951984 307:0.94551 308:-0.515832 309:-0.24315 310:-0.608488 311:0.852698 312:1 313:0.462302 314:0.595666 315:-0.03826 316:0.773736 317:-1 318:-1 319:-1 320:0.807326 321:0.863526 322:-1 323:-1 324:-1 325:-1 326:-0.32382 327:0.851222 328:-0.751534 329:-0.757348 
3.577426768735105 1:0.194256 2:-0.338058 3:0.137017 4:0.303465 5:0.146995 6:-0.619876 7:-0.787968 8:-0.210582 9:-0.314565 10:-0.047737 11:-0.212647 12:0.649889 13:0.363572 14:0.101833 15:-0.00406775 16:-0.418795 17:-0.74311 18:-0.598031 19:-0.506519 20:-0.586225 21:-0.558145 22:-0.485763 23:-0.510604 24:-0.242631 25:-0.524006 26:-0.3919 27:-0.412217 28:0.687953 29:-0.304356 30:0.675671 31:-0.610939 32:-0.785367 33:-0.801019 34:-0.844771 35:-0.647047 36:0.118396 37:-0.602089 38:-0.464062 39:0.118396 40:-0.602089 41:-0.464062 43:-0.666666 44:-1 45:-1 46:-1 47:-1 48:-1 49:0.333334 50:-0.666666 51:-1 52:-1 53:-1 54:-1 55:-1 56:-0.333334 57:0.333334 58:-1 59:-1 60:-1 61:-1 62:-1 63:-0.666666 65:0.666666 66:-1 67:-1 68:-1 69:-1 70:-1 72:1 74:-1 75:-1 76:-1 77:-1 78:-0.333334 79:0.333334 80:0.333334 81:-0.333334 82:-1 83:-1 84:-1 85:-0.666666 86:0.333334 88:-1 89:-1 90:-1 91:-1 92:-0.666666 93:1 94:-0.333334 95:-1 96:-1 97:-1 98:-1 99:-1 100:-1 102:-1 103:-0.666666 104:-0.666666 105:-1 106:-0.666666 107:-0.333334 110:0.333334 111:-0.333334 112:-1 113:-0.333334 114:0.333334 115:-1 116:-1 117:-1 118:0.333334 119:-1 120:-1 122:-0.666666 123:-1 124:-1 125:-1 126:-1 127:-1 128:-0.666666 130:-1 131:-1 132:-1 133:-1 134:-1 135:-1 136:-0.666666 137:-1 138:-1 139:-1 140:-1 141:-1 144:-1 145:-0.4 146:-0.8 147:-0.8 148:-0.8 149:-1 150:-0.4 151:0.8 153:-0.4 154:-1 155:-1 157:0.2 158:-0.8 159:-1 160:-1 161:-0.2 162:-0.4 163:-0.8 164:-1 165:-0.8 166:1 167:0.4 168:-0.2 169:0.2 170:-1 171:-0.4 172:0.2 173:-0.6 174:-1 175:-1 176:-1 177:-0.6 178:-0.6 179:-1 180:-1 181:-1 182:-1 183:-0.2 184:-0.8 185:-0.442212 186:0.849238 187:-1 188:-1 189:-1 190:-1 191:-1 192:0.812216 193:0.833778 194:-1 195:-1 196:-1 197:-1 198:-1 199:0.732452 200:0.86832 201:-1 202:-1 203:-1 204:-1 205:-1 206:0.735506 207:0.907946 208:-0.616288 209:-1 210:-1 211:-1 212:-1 213:-1 214:-0.326426 215:0.338432 216:0.983194 217:-1 218:-1 219:-1 220:-1 221:-0.982518 222:1 223:-0.997674 224:-0.995872 225:-1 226:-1 227:-1 228:0.871272 229:0.935122 230:-0.346828 231:-1 232:-1 233:-1 234:-1 235:0.871434 236:0.805152 237:-0.973174 238:-1 239:-1 240:-1 241:-1 242:-1 243:-1 244:0.944896 245:-1 246:0.645866 247:0.666532 248:-1 249:0.77957 250:0.76943 251:0.949752 252:0.859254 253:0.691298 254:0.684622 255:-1 256:0.83667 257:-0.999146 258:-1 259:-1 260:-1 261:-0.166734 262:-1 263:-1 264:0.8873 265:0.910238 266:-1 267:-1 268:-1 269:-1 270:-1 271:0.940336 272:0.93507 273:-1 274:-1 275:-1 276:-1 277:-1 278:-1 279:0.974348 280:-1 281:-1 282:-1 283:-1 284:-1 285:0.047656 286:0.840152 287:-1 288:0.87666 289:0.819972 290:0.764088 291:0.690004 292:-1 293:-0.347982 294:0.096804 295:0.263566 296:1 297:-1 298:-1 299:0.996628 300:-0.992021 301:0.942886 302:-1 303:-1 304:0.929082 305:-0.354046 306:0.849896 307:-1 308:0.661332 309:-0.584308 310:-0.25498 311:-0.105164 312:0.95107 313:-1 314:-0.446222 315:-0.426646 316:0.817836 317:-1 318:-1 319:-1 320:0.889092 321:0.885162 322:-1 323:-1 324:-1 325:-1 326:-0.045274 327:0.93428 328:-0.730061 329:-0.756075 
1.739672645019863 1:-0.0642544 2:-0.273921 3:0.133411 4:-0.241743 5:0.135773 6:-0.690741 7:-0.728191 8:-0.0781206 9:-0.102232 10:0.401774 11:-0.196907 12:0.672689 13:0.0144794 14:-0.00997894 15:-0.426025 16:-0.506043 17:-0.557905 18:-0.712476 19:-0.526739 20:-0.707306 21:-0.61136 22:-0.609298 23:-0.270599 24:-0.526356 25:-0.434589 26:-0.479208 27:-0.610097 28:-0.387451 29:-0.582418 30:0.12728 31:-0.550169 32:-0.0143147 33:-0.876086 34:-0.637929 35:-0.901221 36:-0.32737 37:-0.53014 38:-0.369625 39:-0.32737 40:-0.53014 41:-0.369625 42:-0.333334 43:-0.333334 44:-1 45:-1 46:-1 47:-1 48:-1 51:-1 52:-1 53:-1 54:-1 55:-1 56:-1 57:0.333334 58:-0.666666 59:-1 60:-1 61:-1 62:-1 63:-1 65:-0.333334 66:-1 67:-1 68:-1 69:-1 70:-1 71:0.333334 72:0.333334 73:-0.333334 74:-1 75:-1 76:-1 77:-1 78:-0.666666 79:1 80:-0.666666 81:-1 82:-1 83:-1 84:-1 85:-1 86:0.333334 88:-0.666666 89:-1 90:-1 91:-1 92:-1 93:0.666666 95:-1 96:-1 97:-1 98:-1 99:-1 100:-1 101:-1 102:-0.666666 103:-1 104:-1 105:-1 106:-1 107:0.333334 109:-0.666666 110:-1 111:-1 112:-1 113:-0.666666 114:0.333334 116:0.333334 117:-0.333334 118:-0.666666 119:-1 120:-1 121:-0.666666 123:-1 124:-1 125:0.333334 126:-1 127:-1 128:-1 129:-0.666666 130:-0.333334 131:-1 132:-1 133:-1 134:-1 135:-1 136:-0.666666 137:-0.666666 138:-1 139:-1 140:-1 141:-1 142:-1 143:0.714286 144:0.428572 145:-1 146:-0.428572 147:-0.428572 148:-0.714286 149:-1 150:0.428572 151:0.142858 152:0.142858 153:-0.428572 154:-1 155:-0.428572 156:0.142858 157:-0.714286 158:-0.714286 159:-1 160:-0.714286 161:0.428572 162:-0.714286 163:-1 164:-1 165:-1 166:0.428572 167:1 168:0.142858 169:-0.714286 170:-1 171:-1 172:0.142858 173:1 174:0.142858 175:-1 176:-1 177:1 178:-0.714286 179:-1 180:-1 181:-1 182:0.142858 183:-0.714286 184:-1 185:0.74942 186:0.758648 187:-1 188:-1 189:-1 190:-1 191:-1 192:0.726344 193:0.816528 194:-1 195:-1 196:-1 197:-1 198:-1 199:-1 200:0.565166 201:0.493012 202:-1 203:-1 204:-1 205:-1 206:-1 207:0.379576 208:-0.965245 209:-1 210:-1 211:-1 212:-1 213:-1 214:0.69722 215:0.729118 216:-0.976284 217:-1 218:-1 219:-1 220:-1 221:0.80628 222:0.740578 223:0.745424 224:-1 225:-1 226:-1 227:-1 228:-1 229:0.780776 230:0.880468 231:0.895826 232:-1 233:-1 234:-1 235:-1 236:0.949732 237:0.919604 238:-1 239:-1 240:-1 241:-1 242:-1 243:-1 244:-1 245:0.830914 246:-1 247:-1 248:-1 249:-1 250:-0.065312 251:-0.348662 252:0.949056 253:-1 254:-1 255:-1 256:0.818414 257:0.85838 258:-0.32847 259:0.981538 260:0.923644 261:0.954738 262:-1 263:-1 264:0.847138 265:0.908292 266:-1 267:-1 268:0.915102 269:-1 270:-1 271:-1 272:0.84079 273:0.941456 274:-1 275:-1 276:-1 277:-1 278:-1 279:1 280:0.993444 281:-1 282:-1 283:-1 284:-1 285:-1 286:0.790156 287:0.04684 288:-1 289:0.577934 290:0.538954 291:0.640156 292:-1 293:0.652538 294:0.632282 295:-0.194054 296:-0.993233 297:-1 298:0.755634 299:0.7681 300:0.794266 301:0.834294 302:-1 303:0.843956 304:0.865228 305:0.792386 306:-1 307:-1 308:-1 309:0.97629 310:0.38669 311:-0.028202 312:0.979284 313:-1 314:-1 315:0.887202 316:0.404792 317:1 318:-1 319:-1 320:0.931904 321:0.945338 322:-1 323:-1 324:-1 325:0.999628 326:0.86934 327:-1 328:-0.773006 329:-0.753037 
0.6246458934738784 1:-0.335519 2:0.437154 3:0.178299 4:-0.414866 5:0.14368 6:-0.705665 7:-0.391719 8:-0.0383851 9:0.109908 10:0.644246 11:-0.198535 12:0.599736 13:-0.170997 14:-0.039695 15:-0.522642 16:-0.558403 17:-0.548403 18:-0.753312 19:-0.512628 20:-0.711351 21:-0.590318 22:-0.630405 23:-0.279325 24:-0.501738 25:0.304884 26:-0.414799 27:0.566172 28:-0.675288 29:-0.80501 30:-0.534201 31:-0.491334 32:-0.44662 33:-0.488638 34:-0.307126 35:-0.634276 36:-0.457635 37:-0.457395 38:-0.336316 39:-0.457635 40:-0.457395 41:-0.336316 42:0.2 43:-0.2 44:-1 45:-1 46:-1 47:-1 48:-1 49:0.2 50:-0.2 51:-0.6 52:-1 53:-1 54:-1 55:-1 56:-1 57:0.6 58:-0.2 59:-1 60:-1 61:-1 62:-1 63:-1 64:0.2 65:0.2 66:-0.6 67:-1 68:-1 69:-1 70:-1 71:0.2 72:0.2 73:-0.2 74:-0.6 75:-1 76:-1 77:-1 78:-0.6 79:0.6 80:-0.2 81:-0.2 82:-1 83:-1 84:-1 85:-1 86:-0.2 87:0.2 88:-0.6 89:-0.6 90:-1 91:-1 92:-1 93:1 94:-0.2 95:-0.6 96:-1 97:-1 98:-1 99:-1 100:0.2 101:0.2 102:-1 103:-1 104:-1 105:-1 106:-1 107:-1 108:-1 109:-1 110:-1 111:-1 112:-1 113:-1 114:0.6 115:0.2 116:-0.6 117:-1 118:-1 119:-1 120:-1 121:-1 122:0.2 123:-0.6 124:0.6 125:-0.6 126:-1 127:-1 128:-1 129:-1 130:-0.6 131:0.2 132:-0.6 133:-1 134:-1 135:-1 136:-1 137:-0.6 138:0.2 139:-0.6 140:-1 141:-1 142:1 143:-0.818182 144:-1 145:-0.636364 146:-0.454546 147:-0.818182 148:-1 149:-1 150:0.09091 151:0.454546 152:-0.636364 153:-1 154:-1 155:-0.454546 156:-0.272728 157:-1 158:-0.818182 159:-0.818182 160:-0.09091 161:-0.272728 162:-0.818182 163:-1 164:-0.818182 165:-1 166:0.09091 167:-0.818182 168:-1 169:-0.818182 170:-1 171:-0.09091 172:-0.636364 173:-0.818182 174:-1 175:-1 176:-0.272728 177:-0.09091 178:-1 179:-1 180:-1 181:0.636364 182:-0.636364 183:-1 184:-1 185:-0.51666 186:0.872084 187:-1 188:-1 189:-1 190:-1 191:-1 192:0.841466 193:0.885256 194:0.878468 195:-1 196:-1 197:-1 198:-1 199:-1 200:0.88757 201:0.608784 202:-1 203:-1 204:-1 205:-1 206:-1 207:0.75191 208:0.71194 209:0.675802 210:-1 211:-1 212:-1 213:-1 214:0.077602 215:0.762452 216:0.615124 217:-0.57108 218:-1 219:-1 220:-1 221:0.90415 222:-0.534968 223:0.656912 224:0.535158 225:-1 226:-1 227:-1 228:-1 229:0.86709 230:0.815916 231:0.74476 232:0.70705 233:-1 234:-1 235:-1 236:0.12423 237:0.814144 238:0.690922 239:-1 240:-1 241:-1 242:-1 243:-0.130004 244:0.809154 245:-1 246:-1 247:-1 248:-1 249:-1 250:-1 251:-1 252:-1 253:-1 254:-1 255:-1 256:-1 257:0.031782 258:1 259:0.891636 260:-1 261:-1 262:-1 263:-1 264:-1 265:0.771362 266:0.747774 267:0.634596 268:0.604918 269:-1 270:-1 271:-1 272:-1 273:0.610446 274:0.647466 275:0.667264 276:-1 277:-1 278:-1 279:-1 280:0.638354 281:0.68326 282:0.814322 283:-1 284:-1 285:0.100556 286:0.920552 287:-1 288:0.778344 289:0.685084 290:0.908226 291:-1 292:-1 293:0.77842 294:0.631456 295:-0.564334 296:-1 297:-1 298:0.78856 299:0.565372 300:-1 301:-0.11392 302:-0.173894 303:0.825832 304:0.759352 305:0.667784 306:-1 307:-0.938354 308:-1 309:0.778644 310:0.652028 311:-1 312:0.065564 313:-1 314:1 315:-0.94709 316:0.848124 317:-1 318:-1 319:0.724854 320:0.591198 321:-1 322:-1 323:-1 324:0.634332 325:0.658142 326:-1 327:-1 328:-0.773006 329:-0.752059 
