svm_type c_svc
kernel_type rbf
gamma 1.41421
nr_class 2
total_sv 1615
rho 0.986851
label 1 -1
nr_sv 479 1136
SV
0.9437258228643571 1:-0.292552 2:-0.577494 3:-0.00614972 4:-0.770681 5:-0.230532 6:0.248181 7:-0.91279 8:0.209588 9:-0.56146 10:-0.432655 11:-0.919591 12:-0.478969 13:-0.765044 14:-0.546168 15:-0.760565 16:-0.480513 17:-0.853635 18:-0.403273 19:-0.901372 20:-0.262249 21:-0.859254 22:-0.156444 23:-0.726199 24:-0.0146814 25:-0.687246 26:-1 27:-1 28:-1 29:-1 30:-0.935454 31:0.0669317 32:-0.920178 33:-0.935454 34:0.0669317 35:-0.920178 
5.65685424949 1:-0.618054 2:-0.616414 3:-0.378966 4:-0.91043 5:-0.171948 6:0.200271 7:-0.915729 8:0.0359386 9:-0.698706 10:-0.67792 11:-0.849594 12:-0.647263 13:-0.615049 14:-1 15:-1 16:-1 17:-1 18:-1 19:-1 20:-1 21:-1 22:-1 23:-1 24:-1 25:-1 26:-1 27:-1 28:-1 29:-1 30:-0.932483 31:0.0626428 32:-0.945197 33:-0.932483 34:0.0626428 35:-0.945197 
1.841641393727016 1:-0.568896 2:-0.636471 3:-0.110031 4:-0.878146 5:-0.136462 6:0.32769 7:-0.939938 8:0.0509975 9:-0.645431 10:-0.400021 11:-0.848272 12:-1 13:-1 14:-0.342863 15:-0.691851 16:-0.389508 17:-0.643923 18:-0.576336 19:-0.762009 20:-0.662118 21:-0.754846 22:-0.714352 23:-0.781036 24:-0.742809 25:-0.762326 26:-1 27:-1 28:-1 29:-1 30:-0.906993 31:0.0803138 32:-0.943095 33:-0.906993 34:0.0803138 35:-0.943095 
2.517914415724392 1:-0.663533 2:-0.643461 3:-0.0259391 4:-0.913505 5:-0.118344 6:0.246435 7:-0.926044 8:0.0135761 9:-0.549288 10:-1 11:-1 12:-0.713407 13:-0.605842 14:-0.637751 15:-0.670113 16:-0.621046 17:-0.788942 18:-0.54911 19:-0.69922 20:-0.505664 21:-0.722635 22:-0.481585 23:-0.721632 24:-1 25:-1 26:-1 27:-1 28:-1 29:-1 30:-0.969541 31:0.0648457 32:-0.913612 33:-0.969541 34:0.0648457 35:-0.913612 
0.5082872131795821 1:-0.800167 2:-0.554195 3:0.118097 4:-0.953491 5:-0.124114 6:0.196589 7:-0.881345 8:0.12173 9:-0.508685 10:-0.729719 11:-0.608479 12:-0.759106 13:-0.552124 14:-0.856807 15:-0.530909 16:-0.857412 17:-0.471244 18:-0.703356 19:-0.642205 20:-0.661549 21:-0.767505 22:-0.608742 23:-0.799966 24:-0.568456 25:-0.808258 26:-0.872151 27:-0.75565 28:-1 29:-1 30:-0.982885 31:0.0518656 32:-0.897867 33:-0.982885 34:0.0518656 35:-0.897867 
1.002739922812832 1:-0.755834 2:-0.49796 3:0.129294 4:-0.960984 5:-0.168836 6:0.15566 7:-0.862839 8:0.0820041 9:-0.514153 10:-0.597759 11:-0.718541 12:-0.682932 13:-0.672627 14:-0.687221 15:-0.558379 16:-0.801714 17:-0.589394 18:-0.766677 19:-0.608438 20:-0.73489 21:-0.583019 22:-0.721877 23:-0.622556 24:-0.661317 25:-0.55043 26:-0.8741 27:-0.598969 28:-1 29:-1 30:-0.964607 31:0.04453 32:-0.908151 33:-0.964607 34:0.04453 35:-0.908151 
0.8406598239501955 1:-0.69621 2:-0.469077 3:-0.217645 4:-0.94671 5:-0.178162 6:0.255694 7:-0.859029 8:0.126877 9:-0.641738 10:-0.534789 11:-0.573367 12:-1 13:-1 14:-0.643952 15:-0.554116 16:-0.686547 17:-0.56363 18:-0.621469 19:-0.686749 20:-0.594637 21:-0.731784 22:-0.575833 23:-0.690788 24:-0.55648 25:-0.660013 26:-1 27:-1 28:-1 29:-1 30:-0.966921 31:0.0691396 32:-0.942104 33:-0.966921 34:0.0691396 35:-0.942104 
0.1517004548204213 1:-0.559583 2:-0.124364 3:0.0175474 4:-0.909309 5:-0.146426 6:0.326157 7:-0.763034 8:-0.0264684 9:-0.504344 10:-0.465037 11:-0.778341 12:-0.317899 13:-0.731105 14:-0.46485 15:-0.695069 16:-0.618794 17:-0.740963 18:-0.840678 19:-0.781695 20:-0.90172 21:-0.685702 22:-0.874199 23:-0.345795 24:-0.797105 25:0.108154 26:-1 27:-1 28:-1 29:-1 30:-0.917689 31:0.0765004 32:-0.918415 33:-0.917689 34:0.0765004 35:-0.918415 
2.30453458653867 1:-0.639623 2:-0.617043 3:-0.74071 4:-0.916081 5:-0.180153 6:0.280944 7:-0.92073 8:-0.0458238 9:-0.745555 10:-0.488852 11:-0.920519 12:-0.500725 13:-0.706913 14:-0.411271 15:-0.701506 16:-0.613833 17:-0.813105 18:-0.72425 19:-0.789646 20:-0.732828 21:-0.780858 22:-0.818106 23:-0.960574 24:-0.697633 25:-0.818584 26:-1 27:-1 28:-1 29:-1 30:-0.935141 31:0.075681 32:-0.94784 33:-0.935141 34:0.075681 35:-0.94784 
0.3353145305092667 1:-0.569145 2:-0.46076 3:-0.0192508 4:-0.889284 5:-0.111805 6:0.192132 7:-0.860283 8:0.0690688 9:-0.638079 10:-0.442129 11:-0.721688 12:-0.331097 13:-0.689779 14:-0.431354 15:-0.616586 16:-0.567196 17:-0.746736 18:-0.550455 19:-0.601361 20:-0.446393 21:-0.486608 22:-0.505488 23:-0.362587 24:-1 25:-1 26:-1 27:-1 28:-1 29:-1 30:-0.925817 31:0.0584936 32:-0.937622 33:-0.925817 34:0.0584936 35:-0.937622 
5.65685424949 1:-0.657887 2:-0.733135 3:0.00883005 4:-0.927733 5:-0.152471 6:0.270926 7:-0.948692 8:0.111213 9:-0.520917 10:-0.461518 11:-0.912807 12:-0.545443 13:-0.739263 14:-0.478277 15:-0.797051 16:-0.501421 17:-0.809755 18:-0.674397 19:-0.873333 20:-0.682188 21:-0.889033 22:-0.709779 23:-0.897783 24:-0.731208 25:-0.873608 26:-0.712273 27:-0.863644 28:-0.894813 29:-0.860066 30:-0.929488 31:0.0740557 32:-0.931636 33:-0.929488 34:0.0740557 35:-0.931636 
0.138444863648988 1:-0.840294 2:-0.577647 3:-0.148107 4:-0.970709 5:-0.162093 6:0.210327 7:-0.926077 8:-0.00767387 9:-0.565384 10:-0.687551 11:-0.569867 12:-0.645284 13:-0.833548 14:-0.987104 15:-0.911 16:-0.65899 17:-0.706204 18:-0.791399 19:-0.924178 20:-0.823379 21:-0.937049 22:-0.760472 23:-0.666021 24:-0.814186 25:-0.774227 26:-1 27:-1 28:-1 29:-1 30:-0.972809 31:0.0598713 32:-0.926618 33:-0.972809 34:0.0598713 35:-0.926618 
0.2493041290834094 1:-0.649324 2:-0.26585 3:-0.124385 4:-0.93245 5:-0.142019 6:0.250267 7:-0.79772 8:0.0777832 9:-0.637931 10:-0.604946 11:-0.496026 12:-0.547581 13:-0.382405 14:-0.507403 15:-0.491542 16:-0.630664 17:-0.548794 18:-0.571062 19:-0.634506 20:-0.487732 21:-0.545174 22:-0.577739 23:-0.453364 24:-0.469626 25:-0.141974 26:-0.690207 27:-0.657403 28:-1 29:-1 30:-0.963618 31:0.0694773 32:-0.942868 33:-0.963618 34:0.0694773 35:-0.942868 
0.01746349163974544 1:0.323605 2:-0.238907 3:0.505292 4:-0.763242 5:-0.175657 6:0.319665 7:-0.803057 8:0.130488 9:-0.490844 10:-0.540131 11:-0.382387 12:-0.515202 13:-0.201206 14:-0.418623 15:-0.787982 16:-0.122457 17:-0.708213 18:0.0204664 19:-0.545513 20:0.536702 21:-0.498328 22:-1 23:-1 24:-1 25:-1 26:-1 27:-1 28:-1 29:-1 30:-0.945414 31:0.0689514 32:-0.917806 33:-0.945414 34:0.0689514 35:-0.917806 
1.474787211506028 1:-0.622687 2:-0.388635 3:-0.258727 4:-0.931406 5:-0.161465 6:0.315577 7:-0.805367 8:0.126377 9:-0.543973 10:-0.65988 11:-0.612503 12:-0.62077 13:-0.535899 14:-0.705347 15:-0.462617 16:-0.927944 17:-0.797452 18:-0.940248 19:-0.711694 20:-0.618331 21:-0.558067 22:-0.630691 23:-0.809762 24:-0.716675 25:-0.422442 26:-1 27:-1 28:-1 29:-1 30:-0.956062 31:0.0718859 32:-0.922818 33:-0.956062 34:0.0718859 35:-0.922818 
1.568497674028827 1:-0.423638 2:-0.355669 3:-0.361431 4:-0.858002 5:-0.138064 6:0.123002 7:-0.742628 8:-0.121017 9:-0.799634 10:-0.770192 11:-0.427012 12:-0.739639 13:-0.42352 14:-0.48994 15:-0.277103 16:-0.224654 17:-0.332975 18:-0.565915 19:-0.542784 20:-0.675298 21:-0.766475 22:-1 23:-1 24:-0.576098 25:-0.737591 26:-0.678164 27:-0.743628 28:-1 29:-1 30:-0.941542 31:0.0436472 32:-0.960941 33:-0.941542 34:0.0436472 35:-0.960941 
1.918232059946574 1:-0.689037 2:-0.544899 3:-0.218046 4:-0.937629 5:-0.173413 6:0.191591 7:-0.927162 8:-0.0310053 9:-0.650277 10:-0.567656 11:-0.798128 12:-1 13:-1 14:-0.582327 15:-0.633308 16:-0.581336 17:-0.813185 18:-0.628985 19:-0.755681 20:-0.671213 21:-0.722194 22:-0.900404 23:-0.725711 24:-0.860013 25:-0.868187 26:-1 27:-1 28:-1 29:-1 30:-0.951452 31:0.0626166 32:-0.94476 33:-0.951452 34:0.0626166 35:-0.94476 
1.423794687452657 1:0.331321 2:-0.224123 3:0.18215 4:-0.473191 5:-0.493205 6:-0.231944 7:-0.73784 8:0.0682176 9:-0.418737 10:-0.434026 11:-0.670912 12:-0.450913 13:-0.701573 14:-0.480707 15:-0.73193 16:-0.575181 17:-0.780313 18:-0.538517 19:-0.431716 20:-0.511682 21:-0.450739 22:-0.488602 23:-0.100989 24:0.18746 25:-0.18818 26:-1 27:-1 28:-1 29:-1 30:-0.85919 31:0.00485879 32:-0.893635 33:-0.85919 34:0.00485879 35:-0.893635 
0.7114200495973311 1:-0.546564 2:-0.541911 3:-0.0195514 4:-0.91092 5:-0.171671 6:0.171354 7:-0.907335 8:0.112389 9:-0.485841 10:-0.712449 11:-0.747736 12:-0.674478 13:-0.636797 14:-0.686078 15:-0.787718 16:-0.662826 17:-0.806685 18:-0.636711 19:-0.724695 20:-0.565909 21:-0.733541 22:-0.501223 23:-0.704199 24:-0.331061 25:-0.628552 26:-1 27:-1 28:-1 29:-1 30:-0.979516 31:0.056814 32:-0.892202 33:-0.979516 34:0.056814 35:-0.892202 
1.065697458875888 1:-0.0920011 2:-0.530305 3:-0.103543 4:-0.777108 5:-0.148065 6:0.13221 7:-0.943103 8:0.103667 9:-0.577509 10:-0.580434 11:-0.835908 12:-0.574702 13:-0.634807 14:-0.641789 15:-0.841681 16:-0.537233 17:-0.844643 18:-0.664736 19:-0.955913 20:-0.647159 21:-0.798739 22:-0.723674 23:-0.72824 24:-1 25:-1 26:-1 27:-1 28:-1 29:-1 30:-0.784595 31:0.0552806 32:-0.937892 33:-0.784595 34:0.0552806 35:-0.937892 
1.492283499319904 1:-0.558702 2:-0.492755 3:-0.137987 4:-0.853593 5:-0.162687 6:0.245142 7:-0.883173 8:0.0184114 9:-0.611779 10:-0.368327 11:-0.67536 12:-0.316955 13:-0.587799 14:-0.538014 15:-0.813343 16:-0.560033 17:-0.756255 18:-0.461384 19:-0.653783 20:-0.458313 21:-0.595669 22:-0.442015 23:-0.400508 24:-0.741876 25:-0.774384 26:-1 27:-1 28:-1 29:-1 30:-0.907835 31:0.066496 32:-0.937382 33:-0.907835 34:0.066496 35:-0.937382 
0.5846804366138065 1:-0.214545 2:-0.33056 3:-0.0522163 4:-0.809082 5:-0.223771 6:0.291718 7:-0.771778 8:0.00537734 9:-0.662743 10:-0.457768 11:-0.766902 12:-0.209875 13:-0.539374 14:-0.0380593 15:-0.323424 16:-0.274629 17:-0.525253 18:-0.326494 19:-0.28846 20:-0.637804 21:-0.678188 22:-0.640717 23:-0.62289 24:-0.636461 25:-0.488961 26:-0.742992 27:-0.720925 28:-1 29:-1 30:-0.843805 31:0.072066 32:-0.946957 33:-0.843805 34:0.072066 35:-0.946957 
2.077342068856544 1:-0.529439 2:-0.158297 3:-0.118949 4:-0.881559 5:-0.133091 6:0.297612 7:-0.790976 8:0.16109 9:-0.64018 10:-0.415413 11:-0.36761 12:-0.306922 13:-0.372974 14:-0.530028 15:-0.744692 16:-0.575558 17:-0.747949 18:-0.458377 19:-0.558317 20:-0.503673 21:-0.421617 22:-0.659779 23:-0.517988 24:-1 25:-1 26:-1 27:-1 28:-1 29:-1 30:-0.928535 31:0.0769944 32:-0.935394 33:-0.928535 34:0.0769944 35:-0.935394 
0.4208569924576467 1:0.266269 2:-0.171746 3:0.536604 4:-0.601399 5:-0.250613 6:-0.0940549 7:-0.706317 8:0.18249 9:-0.37362 10:-0.492281 11:-0.480611 12:-0.493346 13:-0.559378 14:-0.389455 15:-0.813064 16:-0.317667 17:-0.557734 18:-0.190618 19:-0.516703 20:0.184687 21:-0.0376928 22:-1 23:-1 24:-1 25:-1 26:-1 27:-1 28:-1 29:-1 30:-0.913855 31:0.0314675 32:-0.902369 33:-0.913855 34:0.0314675 35:-0.902369 
3.652149891957259 1:-0.66751 2:-0.576406 3:-0.0516902 4:-0.913854 5:-0.116044 6:0.391826 7:-0.922289 8:0.041333 9:-0.507501 10:-0.618816 11:-0.74731 12:-0.627179 13:-0.766826 14:-0.535981 15:-0.650429 16:-0.753627 17:-0.790085 18:-0.67237 19:-0.640678 20:-0.851863 21:-0.622586 22:-0.684032 23:-0.846306 24:-0.565692 25:-0.800509 26:-0.561959 27:-0.782426 28:-1 29:-1 30:-0.957941 31:0.0893599 32:-0.908412 33:-0.957941 34:0.0893599 35:-0.908412 
1.204181588445043 1:-0.590995 2:-0.338547 3:-0.0125625 4:-0.935182 5:-0.192937 6:0.327001 7:-0.78266 8:0.00816116 9:-0.467224 10:-0.695227 11:-0.366832 12:-0.724106 13:-0.464083 14:-0.720041 15:-0.49605 16:-0.831677 17:-0.902106 18:-0.77186 19:-0.824279 20:-0.508573 21:-0.489467 22:-0.421581 23:-0.662439 24:-0.767805 25:-0.728291 26:-1 27:-1 28:-1 29:-1 30:-0.976189 31:0.084736 32:-0.899231 33:-0.976189 34:0.084736 35:-0.899231 
0.2102148403355425 1:-0.604837 2:-0.411346 3:-0.00995729 4:-0.949299 5:-0.105615 6:0.320834 7:-0.792935 8:0.0867661 9:-0.475498 10:-0.685985 11:-0.574143 12:-0.65452 13:-0.29698 14:-0.749847 15:-0.385073 16:-0.786642 17:-0.653063 18:-0.740698 19:-0.534537 20:-0.648114 21:-0.544151 22:-0.476878 23:-0.570202 24:-0.9762 25:-0.685551 26:-1 27:-1 28:-1 29:-1 30:-0.975846 31:0.0810981 32:-0.8944 33:-0.975846 34:0.0810981 35:-0.8944 
2.885088769978241 1:-0.810709 2:-0.58033 3:-0.30552 4:-0.974775 5:-0.183747 6:0.236431 7:-0.909098 8:-0.0616274 9:-0.635184 10:-0.664329 11:-0.652163 12:-0.892617 13:-0.652562 14:-0.82218 15:-0.728245 16:-0.776527 17:-0.694843 18:-0.589323 19:-0.745814 20:-0.688495 21:-0.840052 22:-0.678793 23:-0.829769 24:-0.921707 25:-0.792118 26:-0.792451 27:-0.65176 28:-1 29:-1 30:-0.985004 31:0.0632002 32:-0.927458 33:-0.985004 34:0.0632002 35:-0.927458 
0.5088479544714137 1:-0.697346 2:-0.544926 3:0.191343 4:-0.950612 5:-0.161629 6:0.308618 7:-0.85246 8:-0.0288168 9:-0.611001 10:-0.735422 11:-0.584231 12:-0.686468 13:-0.513823 14:-0.608036 15:-0.522834 16:-0.637511 17:-0.543085 18:-0.627556 19:-0.42414 20:-0.660541 21:-0.66095 22:-0.689686 23:-0.691013 24:-0.611712 25:-0.719262 26:-1 27:-1 28:-1 29:-1 30:-0.968006 31:0.0815279 32:-0.925148 33:-0.968006 34:0.0815279 35:-0.925148 
2.204701819563658 1:-0.387936 2:-0.544103 3:-0.324533 4:-0.861483 5:-0.154464 6:0.297909 7:-0.884967 8:0.0534151 9:-0.649188 10:-0.182563 11:-0.6158 12:-0.446574 13:-0.548905 14:-1 15:-1 16:-0.455553 17:-0.733399 18:-0.403311 19:-0.669741 20:-0.642866 21:-0.803732 22:-0.694419 23:-0.719029 24:-0.69432 25:-0.689109 26:-0.695476 27:-0.735047 28:-1 29:-1 30:-0.872604 31:0.0765791 32:-0.943904 33:-0.872604 34:0.0765791 35:-0.943904 
0.9497454736967694 1:-0.560556 2:-0.127666 3:-0.215215 4:-0.888398 5:-0.11281 6:0.320944 7:-0.767745 8:0.167467 9:-0.671264 10:-0.524367 11:-0.550785 12:-0.465967 13:-0.492923 14:-0.443724 15:-0.406197 16:-0.436029 17:-0.524397 18:-0.559026 19:-0.621807 20:-0.528523 21:-0.715164 22:-0.545767 23:-0.645491 24:-0.462989 25:-0.582796 26:-0.388747 27:-0.240528 28:-1 29:-1 30:-0.939199 31:0.0785581 32:-0.947279 33:-0.939199 34:0.0785581 35:-0.947279 
0.1396977652157169 1:-0.0392461 2:-0.50615 3:-0.106524 4:-0.794608 5:-0.162858 6:0.183751 7:-0.921856 8:0.103138 9:-0.657134 10:-0.0827247 11:-0.811254 12:-0.573982 13:-0.770721 14:-0.683525 15:-0.593499 16:-0.671473 17:-0.865461 18:-0.656632 19:-0.698033 20:-0.645494 21:-0.667254 22:-0.609962 23:-0.581629 24:-0.961566 25:-0.65988 26:-1 27:-1 28:-1 29:-1 30:-0.780506 31:0.0627817 32:-0.948476 33:-0.780506 34:0.0627817 35:-0.948476 
1.807769479009129 1:-0.702949 2:-0.658141 3:-0.211508 4:-0.916415 5:-0.167372 6:0.0826532 7:-0.925634 8:0.00220484 9:-0.598117 10:-0.612798 11:-0.676031 12:-0.60673 13:-0.645305 14:-0.842553 15:-0.638017 16:-0.712817 17:-0.893988 18:-0.716105 19:-0.820509 20:-0.61117 21:-0.70608 22:-0.801129 23:-0.798608 24:-0.628358 25:-0.724036 26:-1 27:-1 28:-1 29:-1 30:-0.931188 31:0.0345477 32:-0.931402 33:-0.931188 34:0.0345477 35:-0.931402 
3.216534047959885 1:-0.654269 2:-0.66054 3:0.115567 4:-0.917867 5:-0.218952 6:0.37376 7:-0.924634 8:-0.0971994 9:-0.548677 10:-0.798766 11:-0.872946 12:-0.612537 13:-0.791799 14:-0.679244 15:-0.623776 16:-0.745716 17:-0.610757 18:-0.647168 19:-0.649411 20:-0.63493 21:-0.677736 22:-0.599256 23:-0.770205 24:-0.57195 25:-0.743612 26:-0.952298 27:-0.791219 28:-1 29:-1 30:-0.965479 31:0.0873453 32:-0.910638 33:-0.965479 34:0.0873453 35:-0.910638 
0.7467320779159893 1:-0.765575 2:-0.417242 3:0.16742 4:-0.954211 5:-0.189833 6:0.346034 7:-0.806714 8:-0.00606096 9:-0.616442 10:-0.709831 11:-0.637604 12:-0.746256 13:-0.544608 14:-0.750626 15:-0.383583 16:-0.690645 17:-0.359535 18:-0.721786 19:-0.417329 20:-0.597312 21:-0.688249 22:-0.5921 23:-0.696263 24:-0.611261 25:-0.607849 26:-1 27:-1 28:-1 29:-1 30:-0.974749 31:0.0896275 32:-0.923177 33:-0.974749 34:0.0896275 35:-0.923177 
1.352072043463597 1:-0.64411 2:-0.335974 3:-0.0422465 4:-0.923897 5:-0.205337 6:0.35787 7:-0.823683 8:0.0368519 9:-0.574662 10:-1 11:-1 12:-0.492009 13:-0.446533 14:-0.595258 15:-0.712819 16:-0.65473 17:-0.701844 18:-0.62326 19:-0.583689 20:-0.701948 21:-0.746431 22:-0.849228 23:-0.311908 24:-0.679735 25:-0.124809 26:-1 27:-1 28:-1 29:-1 30:-0.937667 31:0.0844692 32:-0.942913 33:-0.937667 34:0.0844692 35:-0.942913 
0.1640967588457061 1:-0.523727 2:-0.71207 3:-0.308626 4:-0.869776 5:-0.155205 6:0.328404 7:-0.954961 8:0.0664176 9:-0.63523 10:-0.484499 11:-0.861244 12:-0.515512 13:-0.876626 14:-0.502861 15:-0.721678 16:-0.45966 17:-0.754068 18:-0.571692 19:-0.832979 20:-0.55504 21:-0.894037 22:-0.489816 23:-0.885609 24:-0.380768 25:-0.791707 26:-0.400178 27:-0.859823 28:-1 29:-1 30:-0.937701 31:0.0784591 32:-0.931074 33:-0.937701 34:0.0784591 35:-0.931074 
1.579666394310425 1:-0.636196 2:-0.648881 3:0.0981325 4:-0.90821 5:-0.181279 6:0.130187 7:-0.911796 8:0.16908 9:-0.579872 10:-0.799118 11:-0.876151 12:-0.57051 13:-0.707581 14:-0.69741 15:-0.849136 16:-0.708519 17:-0.677753 18:-0.625484 19:-0.812055 20:-0.598011 21:-0.784786 22:-0.463565 23:-0.75586 24:-0.485738 25:-0.553074 26:-0.904609 27:-0.757857 28:-1 29:-1 30:-0.963663 31:0.0493234 32:-0.914563 33:-0.963663 34:0.0493234 35:-0.914563 
1.46696330183755 1:0.201282 2:0.0202177 3:-0.290039 4:-0.671711 5:-0.236787 6:0.194723 7:-0.613308 8:-0.0011251 9:-0.662458 10:-0.776881 11:-0.817331 12:0.143925 13:-0.290477 14:-0.19027 15:-0.299589 16:0.0389538 17:0.116166 18:-0.42344 19:-0.750464 20:-0.615179 21:-0.794903 22:-0.707221 23:-0.792645 24:-0.686674 25:-0.791539 26:-0.712314 27:-0.693833 28:-1 29:-1 30:-0.698877 31:0.0431934 32:-0.944295 33:-0.698877 34:0.0431934 35:-0.944295 
0.5365205724875121 1:-0.461344 2:-0.610833 3:-0.0690748 4:-0.877107 5:-0.153337 6:0.443855 7:-0.913722 8:-0.0389377 9:-0.534257 10:-0.588022 11:-0.764683 12:-0.727924 13:-0.79208 14:-1 15:-1 16:-0.681472 17:-0.755116 18:-0.539325 19:-0.723849 20:-0.545389 21:-0.785088 22:-0.41564 23:-0.783189 24:-1 25:-1 26:-1 27:-1 28:-1 29:-1 30:-0.946828 31:0.105957 32:-0.90975 33:-0.946828 34:0.105957 35:-0.90975 
1.309820987960709 1:-0.326039 2:-0.252028 3:-0.103268 4:-0.855275 5:-0.191878 6:0.276029 7:-0.811156 8:0.122248 9:-0.545341 10:-0.678582 11:-0.894033 12:-0.734832 13:-0.794781 14:-0.710286 15:-0.891953 16:-0.810755 17:-0.873327 18:-0.668932 19:-0.592194 20:-0.747168 21:-0.272872 22:-0.800637 23:-0.131838 24:-1 25:-1 26:-1 27:-1 28:-1 29:-1 30:-0.849639 31:0.0724234 32:-0.937142 33:-0.849639 34:0.0724234 35:-0.937142 
1.264911377139673 1:-0.590749 2:-0.567608 3:0.103142 4:-0.922777 5:-0.133289 6:0.308512 7:-0.871384 8:0.178293 9:-0.560213 10:-0.713265 11:-0.673648 12:-0.743293 13:-0.801227 14:-0.790287 15:-0.627918 16:-0.606604 17:-0.677142 18:-0.697635 19:-0.678534 20:-0.653523 21:-0.68316 22:-0.522749 23:-0.683305 24:-0.414544 25:-0.644278 26:-0.348693 27:-0.825405 28:-1 29:-1 30:-0.976737 31:0.0762727 32:-0.909139 33:-0.976737 34:0.0762727 35:-0.909139 
0.3435734696279007 1:-0.716098 2:-0.368771 3:-0.0367105 4:-0.93057 5:-0.172001 6:0.288023 7:-0.799301 8:0.36003 9:-0.506383 10:-0.656233 11:-0.809344 12:-0.723152 13:-0.476143 14:-0.646555 15:-0.709402 16:-0.639261 17:-0.836087 18:-0.603643 19:-0.742996 20:-0.58411 21:-0.788385 22:-0.576233 23:-0.606188 24:-1 25:-1 26:-1 27:-1 28:-1 29:-1 30:-0.96362 31:0.0743703 32:-0.892906 33:-0.96362 34:0.0743703 35:-0.892906 
0.04983803434661696 1:-0.433919 2:-0.565203 3:0.13731 4:-0.885615 5:-0.169304 6:0.394997 7:-0.888341 8:0.140991 9:-0.480663 10:-0.612624 11:-0.666277 12:-0.576453 13:-0.513803 14:-0.627558 15:-0.597209 16:-0.61385 17:-0.733369 18:-0.579782 19:-0.799091 20:-0.619154 21:-0.912464 22:-0.566274 23:-0.821564 24:-0.613486 25:-0.714714 26:-0.424965 27:-0.713246 28:-1 29:-1 30:-0.95063 31:0.0905609 32:-0.909781 33:-0.95063 34:0.0905609 35:-0.909781 
0.01592604342450391 1:-0.476465 2:-0.117375 3:-0.213637 4:-0.913797 5:-0.0373777 6:0.215977 7:-0.675497 8:-0.0219239 9:-0.653235 10:-0.783833 11:-0.247805 12:-0.76492 13:0.0272887 14:-1 15:-1 16:-1 17:-1 18:-1 19:-1 20:-1 21:-1 22:-1 23:-1 24:-1 25:-1 26:-1 27:-1 28:-1 29:-1 30:-0.920667 31:0.0667239 32:-0.94605 33:-0.920667 34:0.0667239 35:-0.94605 
0.06003210750514776 1:-0.710686 2:-0.594443 3:-0.0633384 4:-0.966409 5:-0.131213 6:0.309863 7:-0.919338 8:-0.101345 9:-0.460748 10:-0.849238 11:-0.820052 12:-0.873724 13:-0.673378 14:-0.921259 15:-0.923029 16:-0.925546 17:-0.886367 18:-0.875665 19:-0.869476 20:-0.67603 21:-0.67515 22:-1 23:-1 24:-1 25:-1 26:-1 27:-1 28:-1 29:-1 30:-0.976519 31:0.0664855 32:-0.937839 33:-0.976519 34:0.0664855 35:-0.937839 
0.03893079081896617 1:-0.487848 2:-0.352342 3:0.269824 4:-0.898972 5:-0.162727 6:0.231444 7:-0.85194 8:0.103124 9:-0.633993 10:-0.376642 11:-0.489848 12:-0.28279 13:-0.346194 14:-0.433537 15:-0.392331 16:-0.860823 17:-0.415233 18:-0.71613 19:-0.626028 20:-0.676638 21:-0.641715 22:-0.766685 23:-0.549465 24:-1 25:-1 26:-1 27:-1 28:-1 29:-1 30:-0.941755 31:0.0652797 32:-0.938847 33:-0.941755 34:0.0652797 35:-0.938847 
0.04349808420379945 1:0.0595819 2:-0.174524 3:0.631793 4:-0.827823 5:-0.0768808 6:0.365092 7:-0.781841 8:0.0512527 9:-0.443657 10:-0.561906 11:-0.320696 12:-0.575894 13:-0.553917 14:-0.651892 15:-0.582544 16:-0.680167 17:-0.530391 18:-0.611401 19:-0.222209 20:-0.699747 21:-0.475354 22:0.0805637 23:-0.851272 24:-1 25:-1 26:-1 27:-1 28:-1 29:-1 30:-0.950743 31:0.0758883 32:-0.908225 33:-0.950743 34:0.0758883 35:-0.908225 
1.8068453008271 1:-0.152767 2:-0.40864 3:0.18245 4:-0.87081 5:-0.159147 6:0.189103 7:-0.788097 8:0.206877 9:-0.416406 10:-0.566671 11:-0.788278 12:-0.532083 13:-0.768964 14:-0.513988 15:-0.665395 16:-0.630622 17:-0.795899 18:-0.618312 19:-0.659184 20:-0.620223 21:-0.609602 22:-0.629685 23:-0.416966 24:-0.0459243 25:-0.326711 26:-0.535201 27:-0.596364 28:-1 29:-1 30:-0.953887 31:0.0660401 32:-0.8983 33:-0.953887 34:0.0660401 35:-0.8983 
0.02169957326975936 1:-0.291938 2:-0.146165 3:0.274834 4:-0.778398 5:-0.293787 6:0.0815308 7:-0.635552 8:0.149251 9:-0.661564 10:-0.447858 11:-0.684954 12:-0.489663 13:-0.213041 14:-0.458912 15:-0.184857 16:-1 17:-1 18:-1 19:-1 20:-1 21:-1 22:-1 23:-1 24:-1 25:-1 26:-1 27:-1 28:-1 29:-1 30:-0.876806 31:0.0307048 32:-0.940167 33:-0.876806 34:0.0307048 35:-0.940167 
0.01982067967240504 1:-0.355584 2:-0.631202 3:0.0268408 4:-0.858507 5:-0.00823463 6:0.0909695 7:-0.931118 8:0.0837747 9:-0.578604 10:-0.721168 11:-0.704336 12:-0.478067 13:-0.713296 14:-0.23598 15:-0.761279 16:-0.150562 17:-0.748323 18:-0.652731 19:-0.638706 20:-1 21:-1 22:-1 23:-1 24:-1 25:-1 26:-1 27:-1 28:-1 29:-1 30:-0.975264 31:0.0344476 32:-0.90384 33:-0.975264 34:0.0344476 35:-0.90384 
0.05141746835167546 1:-0.735583 2:-0.494859 3:-0.559324 4:-0.939966 5:-0.171619 6:0.283077 7:-0.857189 8:0.259036 9:-0.690047 10:-0.886177 11:-0.837631 12:-0.884373 13:-0.779625 14:-0.818448 15:-0.609155 16:-0.920121 17:-0.585785 18:-1 19:-1 20:-1 21:-1 22:-1 23:-1 24:-1 25:-1 26:-1 27:-1 28:-1 29:-1 30:-0.941302 31:0.0697651 32:-0.946699 33:-0.941302 34:0.0697651 35:-0.946699 
1.811907945178248 1:-0.248226 2:-0.469847 3:-0.275736 4:-0.815887 5:-0.150506 6:0.242002 7:-0.842504 8:0.0955528 9:-0.643709 10:-0.207979 11:-0.711223 12:-0.345654 13:-0.416852 14:-0.398073 15:-0.520694 16:-0.333546 17:-0.645601 18:-0.430733 19:-0.724134 20:-0.637393 21:-0.846189 22:-0.73381 23:-0.86592 24:-0.676245 25:-0.801937 26:-0.850464 27:-0.741716 28:-0.789239 29:-0.623609 30:-0.820977 31:0.0630885 32:-0.941528 33:-0.820977 34:0.0630885 35:-0.941528 
0.006502816216727656 1:-0.268423 2:-0.173041 3:0.254794 4:-0.868071 5:0.0937432 6:0.161968 7:-0.624392 8:0.0152799 9:-0.650377 10:-0.177187 11:-0.183723 12:-0.366672 13:-0.225415 14:-0.805884 15:-0.243361 16:-0.565169 17:-0.672553 18:-0.30145 19:-0.404713 20:-0.221688 21:-0.55113 22:-0.0711021 23:-0.660705 24:-1 25:-1 26:-1 27:-1 28:-1 29:-1 30:-0.954846 31:0.0604322 32:-0.947303 33:-0.954846 34:0.0604322 35:-0.947303 
4.644926925054707 1:-0.681653 2:-0.660091 3:-0.376461 4:-0.925195 5:-0.165335 6:0.238802 7:-0.910501 8:-0.0907495 9:-0.730107 10:-1 11:-1 12:-1 13:-1 14:-1 15:-1 16:-0.771503 17:-0.864569 18:-1 19:-1 20:-1 21:-1 22:-1 23:-1 24:-1 25:-1 26:-1 27:-1 28:-1 29:-1 30:-0.948491 31:0.0524695 32:-0.965069 33:-0.948491 34:0.0524695 35:-0.965069 
0.01748373783100497 1:-0.361098 2:0.0164009 3:0.0836287 4:-0.884669 5:-0.0899026 6:0.23619 7:-0.726083 8:0.0205733 9:-0.598505 10:-0.576063 11:-0.437281 12:-0.434899 13:-0.251155 14:-0.403362 15:-0.46906 16:-0.300996 17:-0.226914 18:-0.0872434 19:-0.506689 20:-1 21:-1 22:-1 23:-1 24:-1 25:-1 26:-1 27:-1 28:-1 29:-1 30:-0.965226 31:0.0624558 32:-0.923717 33:-0.965226 34:0.0624558 35:-0.923717 
0.03298651573581248 1:-0.433935 2:-0.332368 3:-0.271252 4:-0.88999 5:-0.155652 6:0.229838 7:-0.813602 8:-0.160782 9:-0.721092 10:-0.816616 11:-0.368182 12:-0.849276 13:-0.745854 14:-1 15:-1 16:-1 17:-1 18:-1 19:-1 20:-1 21:-1 22:-1 23:-1 24:-1 25:-1 26:-1 27:-1 28:-1 29:-1 30:-0.908319 31:0.0677879 32:-0.955569 33:-0.908319 34:0.0677879 35:-0.955569 
0.001106561772519949 1:-0.224363 2:0.178971 3:0.497777 4:-0.83822 5:-0.0877176 6:0.295197 7:-0.565503 8:-0.0900478 9:-0.429096 10:-0.628347 11:-0.365344 12:-0.537983 13:-0.400358 14:-0.470494 15:-0.762346 16:-0.301147 17:-0.564442 18:0.0249533 19:-0.40603 20:-0.35015 21:0.235693 22:-1 23:-1 24:-1 25:-1 26:-1 27:-1 28:-1 29:-1 30:-0.981363 31:0.0611234 32:-0.910746 33:-0.981363 34:0.0611234 35:-0.910746 
2.453533008382217 1:-0.691927 2:-0.274582 3:-0.132225 4:-0.93648 5:-0.17003 6:0.170877 7:-0.8549 8:-0.0299952 9:-0.589047 10:-0.605028 11:-0.527355 12:-0.561439 13:-0.424728 14:-0.497583 15:-0.515613 16:-0.612475 17:-0.801009 18:-0.592528 19:-0.639894 20:-0.623243 21:-0.77312 22:-0.617327 23:-0.639376 24:-0.613202 25:-0.575285 26:-0.614059 27:-0.341367 28:-1 29:-1 30:-0.957889 31:0.05754 32:-0.924713 33:-0.957889 34:0.05754 35:-0.924713 
0.0187660061375439 1:-0.401905 2:-0.0109454 3:0.0919703 4:-0.853421 5:-0.165257 6:0.214363 7:-0.630012 8:-0.0581412 9:-0.651305 10:-0.235624 11:-0.351166 12:-0.148834 13:-0.229327 14:-1 15:-1 16:-1 17:-1 18:-1 19:-1 20:-1 21:-1 22:-1 23:-1 24:-1 25:-1 26:-1 27:-1 28:-1 29:-1 30:-0.945584 31:0.0625891 32:-0.932744 33:-0.945584 34:0.0625891 35:-0.932744 
1.547616037316955 1:-0.118055 2:-0.481376 3:0.211783 4:-0.775712 5:-0.134854 6:-0.0272041 7:-0.86047 8:0.0396047 9:-0.341717 10:-0.697007 11:-0.542589 12:-0.643987 13:-0.400906 14:-0.67498 15:-0.688261 16:-0.767237 17:-0.676353 18:-0.794231 19:-0.543869 20:-0.784413 21:-0.616251 22:-0.761498 23:-0.677694 24:0.151252 25:-0.483096 26:-1 27:-1 28:-1 29:-1 30:-0.949886 31:0.0285033 32:-0.871744 33:-0.949886 34:0.0285033 35:-0.871744 
1.019060162492283 1:0.237278 2:-0.225592 3:-0.25259 4:-0.642688 5:-0.191732 6:0.223652 7:-0.715242 8:-0.0341646 9:-0.679834 10:-0.403128 11:-0.578874 12:0.0718001 13:-0.225547 14:-0.312706 15:-0.617866 16:-0.283496 17:-0.573029 18:-0.527054 19:-0.779563 20:-0.339222 21:-0.932831 22:-0.657843 23:-0.84611 24:-0.687536 25:-0.872927 26:-0.675608 27:-0.848202 28:-0.849602 29:-0.795678 30:-0.638683 31:0.0542414 32:-0.952032 33:-0.638683 34:0.0542414 35:-0.952032 
2.330260275329223 1:-0.713306 2:-0.423789 3:-0.29575 4:-0.950156 5:-0.171097 6:0.258344 7:-0.859954 8:0.150789 9:-0.587286 10:-0.886215 11:-0.719539 12:-0.893375 13:-0.87811 14:-0.757635 15:-0.720202 16:-0.700423 17:-0.836873 18:-0.848449 19:-0.658794 20:-0.705224 21:-0.563217 22:-0.658228 23:-0.469016 24:-1 25:-1 26:-1 27:-1 28:-1 29:-1 30:-0.962827 31:0.0729949 32:-0.937371 33:-0.962827 34:0.0729949 35:-0.937371 
1.359273013879386 1:-0.748865 2:-0.682903 3:-0.096855 4:-0.953245 5:-0.152004 6:0.17582 7:-0.921959 8:0.000914326 9:-0.573113 10:-0.713408 11:-0.811011 12:-0.579984 13:-0.664694 14:-0.568004 15:-0.688481 16:-0.727671 17:-0.703275 18:-0.737099 19:-0.573672 20:-0.708458 21:-0.807517 22:-0.818208 23:-0.815281 24:-0.648171 25:-0.702146 26:-0.677863 27:-0.743216 28:-0.896118 29:-0.7946 30:-0.959782 31:0.0591705 32:-0.924231 33:-0.959782 34:0.0591705 35:-0.924231 
3.748061683652868 1:-0.509003 2:-0.512303 3:-0.115191 4:-0.861989 5:-0.238568 6:0.182857 7:-0.89483 8:-0.00898343 9:-0.639888 10:-0.350151 11:-0.705438 12:-0.270817 13:-0.587131 14:-0.385718 15:-0.597105 16:-0.479864 17:-0.668803 18:-0.453557 19:-0.611587 20:-0.483245 21:-0.534245 22:-0.479414 23:-0.464936 24:-0.674531 25:-0.689198 26:-1 27:-1 28:-1 29:-1 30:-0.914003 31:0.0576809 32:-0.93132 33:-0.914003 34:0.0576809 35:-0.93132 
3.430828409578223 1:-0.838398 2:-0.582666 3:-0.100988 4:-0.975176 5:-0.158231 6:0.177225 7:-0.920185 8:0.0372481 9:-0.612265 10:-0.759846 11:-0.85008 12:-0.78935 13:-0.720067 14:-0.786279 15:-0.627627 16:-0.7194 17:-0.537978 18:-0.664526 19:-0.587457 20:-0.823941 21:-0.797524 22:-0.84709 23:-0.890853 24:-0.821501 25:-0.748645 26:-0.86356 27:-0.893855 28:-0.816295 29:-0.934285 30:-0.979745 31:0.05649 32:-0.931924 33:-0.979745 34:0.05649 35:-0.931924 
0.7608397203397889 1:-0.39846 2:-0.66194 3:-0.0689495 4:-0.800679 5:-0.145762 6:0.0472229 7:-0.928635 8:0.158846 9:-0.589896 10:-0.480987 11:-0.812482 12:-0.442606 13:-0.724345 14:-0.519694 15:-0.77747 16:-0.414615 17:-0.821452 18:-0.490204 19:-0.812012 20:-0.377427 21:-0.871646 22:-0.344912 23:-0.838081 24:-0.292766 25:-0.762535 26:-0.357894 27:-0.826701 28:-1 29:-1 30:-0.908018 31:0.0263645 32:-0.911593 33:-0.908018 34:0.0263645 35:-0.911593 
0.005403085138195805 1:-0.258018 2:-0.282403 3:0.292369 4:-0.779642 5:0.0938269 6:0.099051 7:-0.810319 8:0.220765 9:-0.560997 10:-0.531517 11:-0.426956 12:-0.497614 13:-0.552225 14:-0.394895 15:-0.355123 16:-0.152403 17:-0.580428 18:0.0152829 19:-0.613369 20:-0.0535827 21:-0.673803 22:-1 23:-1 24:-1 25:-1 26:-1 27:-1 28:-1 29:-1 30:-0.945271 31:0.0455711 32:-0.921715 33:-0.945271 34:0.0455711 35:-0.921715 
0.01497588624791653 1:-0.570679 2:-0.31849 3:0.254794 4:-0.911818 5:-0.14078 6:0.217381 7:-0.857303 8:0.0745039 9:-0.60252 10:-0.37701 11:-0.532267 12:-0.533881 13:-0.673928 14:-0.566194 15:-0.461608 16:-0.605214 17:-0.676322 18:-0.512209 19:-0.367388 20:-0.523321 21:-0.407382 22:-0.548855 23:-0.37768 24:-1 25:-1 26:-1 27:-1 28:-1 29:-1 30:-0.933297 31:0.062382 32:-0.928293 33:-0.933297 34:0.062382 35:-0.928293 
0.3168130380136664 1:-0.648542 2:-0.631314 3:-0.0808732 4:-0.910655 5:-0.185272 6:0.254577 7:-0.912139 8:0.165523 9:-0.563237 10:-0.613573 11:-0.912941 12:-0.776871 13:-0.89422 14:-0.765143 15:-0.739258 16:-0.832649 17:-0.556362 18:-0.74193 19:-0.626674 20:-0.634364 21:-0.767144 22:-0.537941 23:-0.860309 24:-0.44608 25:-0.815675 26:-0.384655 27:-0.730202 28:-1 29:-1 30:-0.974385 31:0.0623524 32:-0.90528 33:-0.974385 34:0.0623524 35:-0.90528 
2.451332702995408 1:0.0560361 2:-0.303438 3:0.195827 4:-0.732668 5:-0.158583 6:0.194729 7:-0.773371 8:0.0556171 9:-0.622816 10:-0.184117 11:-0.588 12:-0.44487 13:-0.648493 14:-0.183277 15:-0.211804 16:-0.283089 17:-0.525684 18:-0.20774 19:-0.398008 20:-0.493724 21:-0.621871 22:-0.616421 23:-0.823502 24:-0.705237 25:-0.853306 26:-0.636712 27:-0.838716 28:-0.657816 29:-0.67393 30:-0.734029 31:0.0427799 32:-0.936944 33:-0.734029 34:0.0427799 35:-0.936944 
0.005255576884307511 1:-0.277485 2:-0.367613 3:0.0994852 4:-0.831555 5:-0.102819 6:0.199518 7:-0.856462 8:0.0804584 9:-0.591424 10:-0.299584 11:-0.810633 12:-0.0479977 13:-0.625289 14:-0.580705 15:-0.78761 16:-1 17:-1 18:-1 19:-1 20:-1 21:-1 22:-1 23:-1 24:-1 25:-1 26:-1 27:-1 28:-1 29:-1 30:-0.971459 31:0.067586 32:-0.908479 33:-0.971459 34:0.067586 35:-0.908479 
1.978252594009625 1:-0.654412 2:-0.665794 3:-0.0384389 4:-0.9102 5:-0.15791 6:0.182311 7:-0.931302 8:0.147701 9:-0.557646 10:-0.604885 11:-0.916531 12:-0.617862 13:-0.889718 14:-0.660096 15:-0.850149 16:-0.77023 17:-0.692911 18:-0.741513 19:-0.643557 20:-0.6294 21:-0.773214 22:-0.526517 23:-0.831583 24:-0.445197 25:-0.781338 26:-0.400462 27:-0.746907 28:-1 29:-1 30:-0.964576 31:0.0516232 32:-0.909121 33:-0.964576 34:0.0516232 35:-0.909121 
2.083381426568032 1:-0.21133 2:-0.584821 3:-0.040493 4:-0.708963 5:-0.190589 6:0.0566326 7:-0.927043 8:0.176457 9:-0.573437 10:-0.394285 11:-0.827685 12:-0.384205 13:-0.781524 14:-0.459711 15:-0.666172 16:-0.394245 17:-0.818919 18:-0.398678 19:-0.884449 20:-0.32844 21:-0.89078 22:-0.193347 23:-0.869413 24:0.0290607 25:-0.642666 26:0.0226865 27:-0.719678 28:-1 29:-1 30:-0.89937 31:0.0329037 32:-0.920115 33:-0.89937 34:0.0329037 35:-0.920115 
0.02282474137921088 1:-0.462992 2:0.0399275 3:0.197179 4:-0.866139 5:-0.184601 6:0.29604 7:-0.724571 8:0.197004 9:-0.598594 10:-0.588888 11:-0.216131 12:-0.47367 13:-0.380002 14:-0.432592 15:-0.581797 16:-0.434304 17:-0.348835 18:-0.269672 19:-0.50529 20:-0.264838 21:-0.567632 22:-0.671344 23:-0.644399 24:-1 25:-1 26:-1 27:-1 28:-1 29:-1 30:-0.954234 31:0.0740893 32:-0.921618 33:-0.954234 34:0.0740893 35:-0.921618 
0.5774400974502691 1:-0.240815 2:-0.656494 3:-0.0569757 4:-0.762712 5:-0.202063 6:0.180167 7:-0.930908 8:0.165563 9:-0.660389 10:-0.511152 11:-0.87699 12:-0.476036 13:-0.842098 14:-0.484449 15:-0.738983 16:-0.41591 17:-0.739293 18:-0.451142 19:-0.90484 20:-0.326622 21:-0.902711 22:-0.16048 23:-0.870651 24:-0.027544 25:-0.745673 26:0.0738491 27:-0.780428 28:-1 29:-1 30:-0.92345 31:0.0453557 32:-0.930638 33:-0.92345 34:0.0453557 35:-0.930638 
5.65685424949 1:-0.80017 2:-0.682832 3:-0.131324 4:-0.96396 5:-0.1601 6:0.266172 7:-0.934599 8:0.146335 9:-0.617528 10:-0.59856 11:-0.768328 12:-0.620061 13:-0.796849 14:-1 15:-1 16:-0.691411 17:-0.748124 18:-0.820814 19:-0.816821 20:-0.892493 21:-0.87985 22:-0.844102 23:-0.838718 24:-0.812873 25:-0.87638 26:-1 27:-1 28:-1 29:-1 30:-0.963751 31:0.0661238 32:-0.940207 33:-0.963751 34:0.0661238 35:-0.940207 
0.6296958887099869 1:-0.694471 2:-0.661086 3:-0.228216 4:-0.926599 5:-0.0981699 6:0.134819 7:-0.929765 8:0.103997 9:-0.601329 10:-0.753444 11:-0.818625 12:-0.598119 13:-0.905772 14:-0.540011 15:-0.765011 16:-0.624565 17:-0.655183 18:-0.747854 19:-0.68219 20:-0.658327 21:-0.782974 22:-0.702971 23:-0.733048 24:-0.762363 25:-0.91559 26:-0.571045 27:-0.769405 28:-0.865321 29:-0.722722 30:-0.947488 31:0.0423224 32:-0.923603 33:-0.947488 34:0.0423224 35:-0.923603 
0.4667760388262731 1:-0.325783 2:-0.670816 3:-0.823174 4:-0.801099 5:-0.119951 6:0.404743 7:-0.916548 8:0.0331572 9:-0.745763 10:-0.477318 11:-0.83195 12:-0.543932 13:-0.625945 14:-0.475849 15:-0.805107 16:-0.461606 17:-0.741449 18:-1 19:-1 20:-0.597996 21:-0.735903 22:-0.449086 23:-0.75595 24:-1 25:-1 26:-1 27:-1 28:-1 29:-1 30:-0.917804 31:0.0859238 32:-0.945219 33:-0.917804 34:0.0859238 35:-0.945219 
1.967647613919292 1:-0.268214 2:-0.671601 3:-0.46183 4:-0.762066 5:-0.181944 6:0.36035 7:-0.955899 8:0.0716706 9:-0.699822 10:-0.503646 11:-0.843387 12:-0.406553 13:-0.727854 14:-1 15:-1 16:-0.425066 17:-0.869971 18:-0.339082 19:-0.887867 20:-0.262492 21:-0.8998 22:-0.113931 23:-0.772036 24:-0.419081 25:-0.929509 26:-1 27:-1 28:-1 29:-1 30:-0.921264 31:0.0733173 32:-0.946573 33:-0.921264 34:0.0733173 35:-0.946573 
1.4085744360273 1:-0.56934 2:-0.49492 3:0.220401 4:-0.875571 5:-0.140722 6:0.263054 7:-0.915918 8:0.0587268 9:-0.615732 10:-0.370594 11:-0.776909 12:-0.33443 13:-0.756372 14:-0.452857 15:-0.800897 16:-0.49046 17:-0.622467 18:-0.469042 19:-0.390156 20:-0.473447 21:-0.633883 22:-0.446201 23:-0.717995 24:-0.407835 25:-0.599417 26:-1 27:-1 28:-1 29:-1 30:-0.913517 31:0.0741549 32:-0.929288 33:-0.913517 34:0.0741549 35:-0.929288 
2.315464440272942 1:-0.0316805 2:-0.598067 3:-0.430243 4:-0.642431 5:-0.194167 6:0.292402 7:-0.940572 8:0.0811144 9:-0.637584 10:-0.408636 11:-0.865299 12:-0.398681 13:-0.701936 14:-0.323385 15:-0.678066 16:-0.326869 17:-0.903751 18:-0.112385 19:-0.721277 20:0.0474457 21:-0.813565 22:0.178512 23:-0.685266 24:-0.469933 25:-0.645518 26:-1 27:-1 28:-1 29:-1 30:-0.919266 31:0.0658055 32:-0.918539 33:-0.919266 34:0.0658055 35:-0.918539 
0.007531997776690031 1:-0.212153 2:-0.337361 3:0.12704 4:-0.797079 5:-0.124238 6:0.262746 7:-0.789029 8:0.192818 9:-0.582012 10:-0.449428 11:-0.388045 12:-0.389923 13:-0.63322 14:-0.393128 15:-0.7532 16:-0.229994 17:-0.392467 18:-0.0555556 19:-0.371632 20:0.0498487 21:-0.286528 22:-1 23:-1 24:-1 25:-1 26:-1 27:-1 28:-1 29:-1 30:-0.930309 31:0.0649303 32:-0.925015 33:-0.930309 34:0.0649303 35:-0.925015 
2.452496761691443 1:-0.598746 2:-0.606011 3:0.0939743 4:-0.93746 5:-0.12575 6:0.336273 7:-0.894001 8:0.0987721 9:-0.537088 10:-0.663566 11:-0.661195 12:-0.62484 13:-0.584961 14:-0.687481 15:-0.668598 16:-0.61252 17:-0.796349 18:-0.733159 19:-0.590717 20:-0.67637 21:-0.553231 22:-0.5739 23:-0.634882 24:-0.456806 25:-0.71397 26:-0.717613 27:-0.835613 28:-1 29:-1 30:-0.97012 31:0.0836724 32:-0.898153 33:-0.97012 34:0.0836724 35:-0.898153 
0.02370263461227197 1:-0.371835 2:-0.214462 3:-0.0307737 4:-0.867531 5:-0.128877 6:0.244823 7:-0.766616 8:0.0364413 9:-0.74105 10:-0.240457 11:-0.242637 12:-0.363405 13:-0.518985 14:-0.185216 15:-0.474073 16:-0.305532 17:-0.85803 18:-0.531908 19:-0.643773 20:-0.759536 21:-0.741401 22:-0.93181 23:-0.755516 24:-1 25:-1 26:-1 27:-1 28:-1 29:-1 30:-0.93235 31:0.0754371 32:-0.951436 33:-0.93235 34:0.0754371 35:-0.951436 
1.455072614136145 1:0.212437 2:-0.297514 3:0.174434 4:-0.658158 5:-0.216992 6:0.290833 7:-0.727308 8:0.00721414 9:-0.610194 10:-0.337883 11:-0.335954 12:0.210805 13:-0.329111 14:-0.318135 15:-0.599933 16:-0.309699 17:-0.58753 18:-0.190642 19:-0.350288 20:-0.612235 21:-0.78592 22:-0.613097 23:-0.852696 24:-0.660144 25:-0.878644 26:-0.666322 27:-0.879385 28:-0.676099 29:-0.65534 30:-0.656954 31:0.0670409 32:-0.941966 33:-0.656954 34:0.0670409 35:-0.941966 
0.001230720822787606 1:-0.603853 2:-0.395852 3:0.440162 4:-0.92095 5:-0.119316 6:0.138658 7:-0.798234 8:-0.125325 9:-0.357688 10:-0.546183 11:-0.769212 12:-0.635935 13:-0.767129 14:-0.873011 15:-0.756347 16:-0.944116 17:-0.772019 18:-0.654739 19:-0.936176 20:-0.572765 21:-0.570423 22:-0.67435 23:-0.443516 24:-0.915699 25:-0.779643 26:-1 27:-1 28:-1 29:-1 30:-0.949654 31:0.065532 32:-0.937241 33:-0.949654 34:0.065532 35:-0.937241 
1.889211124066984 1:-0.701733 2:-0.464113 3:-0.125587 4:-0.927813 5:-0.155398 6:0.156741 7:-0.878914 8:0.139695 9:-0.629255 10:-0.535024 11:-0.735783 12:-0.470316 13:-0.692106 14:-0.54471 15:-0.666542 16:-0.56205 17:-0.734933 18:-0.596843 19:-0.676691 20:-0.631782 21:-0.734131 22:-0.689907 23:-0.863388 24:-0.701871 25:-0.673343 26:-0.90419 27:-0.965485 28:-0.786547 29:-0.540079 30:-0.94 31:0.0517151 32:-0.924363 33:-0.94 34:0.0517151 35:-0.924363 
0.008330664791806145 1:-0.4756 2:-0.177141 3:0.0318508 4:-0.880034 5:-0.121291 6:0.179029 7:-0.816736 8:0.16113 9:-0.622806 10:-0.508499 11:-0.488681 12:-0.431144 13:-0.258359 14:-0.644624 15:-0.733326 16:-0.502911 17:-0.824251 18:-0.298586 19:-0.460278 20:-0.231347 21:-0.435212 22:-1 23:-1 24:-1 25:-1 26:-1 27:-1 28:-1 29:-1 30:-0.945467 31:0.0561715 32:-0.938871 33:-0.945467 34:0.0561715 35:-0.938871 
0.6613749626775512 1:-0.706969 2:-0.399485 3:-0.100938 4:-0.929105 5:-0.136428 6:0.143941 7:-0.863022 8:0.145074 9:-0.593926 10:-0.817034 11:-0.875844 12:-0.600634 13:-0.755356 14:-0.482567 15:-0.57427 16:-0.567937 17:-0.740454 18:-0.610491 19:-0.658335 20:-0.682957 21:-0.819019 22:-0.694025 23:-0.841464 24:-0.703804 25:-0.699282 26:-0.684042 27:-0.670392 28:-0.73963 29:-0.476255 30:-0.942671 31:0.0516697 32:-0.924403 33:-0.942671 34:0.0516697 35:-0.924403 
0.9739234107666096 1:-0.350384 2:-0.305059 3:-0.143122 4:-0.884179 5:-0.137267 6:0.229544 7:-0.766231 8:0.00442084 9:-0.675977 10:-0.413187 11:-0.436457 12:-0.537294 13:-0.276626 14:-0.536393 15:-0.232925 16:-0.536204 17:-0.337459 18:-0.554574 19:-0.565365 20:-0.435706 21:-0.704898 22:-0.324745 23:-0.562655 24:-0.106345 25:-0.375378 26:-0.504765 27:-0.653876 28:-1 29:-1 30:-0.958611 31:0.0721994 32:-0.942708 33:-0.958611 34:0.0721994 35:-0.942708 
0.007579993484510201 1:-0.518048 2:-0.0722085 3:0.14207 4:-0.903737 5:-0.197273 6:0.234082 7:-0.702097 8:-0.096511 9:-0.605494 10:-0.3488 11:-0.424439 12:-0.771068 13:-0.364049 14:-0.759809 15:-0.0511075 16:-0.77638 17:-0.227362 18:-0.805621 19:0.180815 20:-1 21:-1 22:-1 23:-1 24:-1 25:-1 26:-1 27:-1 28:-1 29:-1 30:-0.934206 31:0.0640922 32:-0.931421 33:-0.934206 34:0.0640922 35:-0.931421 
0.2541124195087702 1:-0.125777 2:-0.625114 3:-0.440914 4:-0.66121 5:-0.126036 6:0.381955 7:-0.936929 8:0.0417852 9:-0.626053 10:-0.489167 11:-0.900443 12:-0.468354 13:-0.760247 14:-0.361715 15:-0.682442 16:-0.401346 17:-0.84279 18:-0.218013 19:-0.697192 20:-0.0483096 21:-0.715472 22:0.125631 23:-0.665924 24:-1 25:-1 26:-1 27:-1 28:-1 29:-1 30:-0.923934 31:0.0908996 32:-0.908859 33:-0.923934 34:0.0908996 35:-0.908859 
1.077397079961246 1:0.141112 2:-0.301008 3:0.162811 4:-0.615459 5:-0.117777 6:0.449319 7:-0.77936 8:0.000243023 9:-0.516765 10:0.283159 11:-0.382101 12:-0.118542 13:-0.63969 14:-0.364881 15:-0.605344 16:-0.253961 17:-0.317453 18:-0.193221 19:-0.413721 20:-0.644293 21:-0.782648 22:-0.590601 23:-0.822992 24:-0.646579 25:-0.803051 26:-0.571863 27:-0.847726 28:-0.552532 29:-0.689986 30:-0.642036 31:0.097021 32:-0.930323 33:-0.642036 34:0.097021 35:-0.930323 
0.01429326606168395 1:-0.478956 2:-0.298395 3:-0.383976 4:-0.885407 5:-0.178616 6:0.222486 7:-0.786749 8:-0.0317892 9:-0.735311 10:-0.28574 11:-0.703552 12:-0.413482 13:-0.280346 14:-0.790998 15:-0.254978 16:-0.868074 17:-0.277679 18:-0.820345 19:-0.589084 20:-1 21:-1 22:-1 23:-1 24:-1 25:-1 26:-1 27:-1 28:-1 29:-1 30:-0.943126 31:0.0604009 32:-0.946026 33:-0.943126 34:0.0604009 35:-0.946026 
0.9835943871217159 1:-0.433052 2:-0.360445 3:0.0819504 4:-0.876249 5:-0.126527 6:0.222538 7:-0.85522 8:0.109572 9:-0.663099 10:-0.476466 11:-0.496303 12:-0.48668 13:-0.616293 14:-0.530756 15:-0.335944 16:-0.458111 17:-0.671233 18:-0.378881 19:-0.729838 20:-0.185931 21:-0.437818 22:-1 23:-1 24:-1 25:-1 26:-1 27:-1 28:-1 29:-1 30:-0.936658 31:0.0590371 32:-0.938404 33:-0.936658 34:0.0590371 35:-0.938404 
1.862037795041679 1:-0.32355 2:-0.703038 3:-0.824702 4:-0.798633 5:-0.173475 6:0.419334 7:-0.919841 8:0.0433967 9:-0.728111 10:-1 11:-1 12:-0.622613 13:-0.683789 14:-0.514723 15:-0.772859 16:-0.472535 17:-0.709642 18:-0.60279 19:-0.724417 20:-1 21:-1 22:-0.444053 23:-0.795236 24:-1 25:-1 26:-1 27:-1 28:-1 29:-1 30:-0.933961 31:0.0848331 32:-0.951252 33:-0.933961 34:0.0848331 35:-0.951252 
0.04156187103404092 1:-0.481802 2:-0.473035 3:0.450182 4:-0.891228 5:-0.201454 6:0.269835 7:-0.86735 8:-0.0846496 9:-0.61524 10:-0.742935 11:-0.606948 12:-0.627723 13:-0.454306 14:-0.322249 15:-0.594673 16:-0.713308 17:-0.825098 18:-0.825586 19:-0.814486 20:-0.798156 21:-0.865369 22:-0.694815 23:-0.846213 24:-0.87299 25:-0.898562 26:-0.698459 27:-0.897284 28:-1 29:-1 30:-0.939323 31:0.05323 32:-0.951318 33:-0.939323 34:0.05323 35:-0.951318 
0.997757404103823 1:-0.101453 2:-0.651241 3:-0.425483 4:-0.667915 5:-0.135791 6:0.335428 7:-0.950049 8:0.0643664 9:-0.668081 10:-1 11:-1 12:-0.482412 13:-0.738753 14:-0.406138 15:-0.732598 16:-0.380563 17:-0.865476 18:-0.212244 19:-0.757181 20:-0.0793112 21:-0.919717 22:0.151221 23:-0.639686 24:-1 25:-1 26:-1 27:-1 28:-1 29:-1 30:-0.933831 31:0.0804804 32:-0.935473 33:-0.933831 34:0.0804804 35:-0.935473 
0.007778986408560127 1:-0.229026 2:-0.184238 3:0.229744 4:-0.845613 5:-0.132549 6:0.181352 7:-0.745403 8:-0.00399894 9:-0.645828 10:0.00992259 11:-0.604533 12:-0.0191639 13:-0.545353 14:-0.443727 15:-0.598572 16:-0.811194 17:-0.257801 18:-0.815396 19:-0.166349 20:-0.849479 21:-0.146281 22:-0.812888 23:-0.146506 24:-1 25:-1 26:-1 27:-1 28:-1 29:-1 30:-0.855546 31:0.054554 32:-0.944525 33:-0.855546 34:0.054554 35:-0.944525 
0.007178570621452236 1:-0.361779 2:-0.113006 3:0.0819504 4:-0.861141 5:-0.116212 6:0.293726 7:-0.624159 8:-0.023189 9:-0.58315 10:-0.674564 11:-0.124565 12:-0.801708 13:-0.0219665 14:-0.660663 15:-0.0750796 16:-0.526526 17:-0.720597 18:-0.407461 19:-0.731104 20:-0.281047 21:-0.638161 22:-0.180034 23:-0.514066 24:-0.185822 25:-0.543258 26:-1 27:-1 28:-1 29:-1 30:-0.968144 31:0.0788714 32:-0.92705 33:-0.968144 34:0.0788714 35:-0.92705 
1.224132326742882 1:0.0210206 2:-0.573755 3:0.3084 4:-0.673612 5:-0.204016 6:-0.0435749 7:-0.905839 8:0.00446788 9:-0.352354 10:-0.505298 11:-0.809072 12:-0.494834 13:-0.791978 14:-0.664497 15:-0.907204 16:-0.652493 17:-0.748367 18:-0.622729 19:-0.627222 20:-0.709672 21:-0.689782 22:-0.731523 23:-0.539292 24:0.135403 25:-0.516669 26:-1 27:-1 28:-1 29:-1 30:-0.927781 31:0.030244 32:-0.871695 33:-0.927781 34:0.030244 35:-0.871695 
0.06307405433216635 1:-0.569345 2:-0.357434 3:0.0944753 4:-0.901457 5:-0.133438 6:0.18871 7:-0.740702 8:0.0278846 9:-0.627524 10:-0.49285 11:-0.474993 12:-0.466642 13:-0.411723 14:-0.714656 15:-0.468344 16:-0.679147 17:-0.392157 18:-0.627346 19:-0.379289 20:-0.557244 21:-0.250823 22:-0.804318 23:-0.82473 24:-1 25:-1 26:-1 27:-1 28:-1 29:-1 30:-0.917106 31:0.0550486 32:-0.946699 33:-0.917106 34:0.0550486 35:-0.946699 
3.527526252873634 1:-0.810245 2:-0.629706 3:0.0595559 4:-0.974643 5:-0.145597 6:0.272091 7:-0.918312 8:0.077885 9:-0.585874 10:-0.787066 11:-0.869299 12:-0.801108 13:-0.890591 14:-0.626461 15:-0.674504 16:-0.775738 17:-0.668132 18:-0.731027 19:-0.621814 20:-0.896928 21:-0.546816 22:-0.839839 23:-0.816883 24:-0.672945 25:-0.726596 26:-0.816205 27:-0.812724 28:-1 29:-1 30:-0.977072 31:0.0752818 32:-0.931692 33:-0.977072 34:0.0752818 35:-0.931692 
0.9397746699367564 1:-0.328374 2:-0.378841 3:0.312408 4:-0.868781 5:-0.289059 6:0.0759298 7:-0.810137 8:0.11857 9:-0.470438 10:-0.742277 11:-0.626678 12:-0.765844 13:-0.847422 14:-0.73075 15:-0.829377 16:-0.558026 17:-0.644344 18:-0.211734 19:-0.708539 20:-0.0756059 21:-0.725953 22:-0.154906 23:-0.809295 24:-1 25:-1 26:-1 27:-1 28:-1 29:-1 30:-0.963308 31:0.0327429 32:-0.903656 33:-0.963308 34:0.0327429 35:-0.903656 
2.324755215688657 1:0.117456 2:-0.327561 3:0.175987 4:-0.660578 5:-0.107052 6:-0.114877 7:-0.808302 8:0.112055 9:-0.38435 10:-0.560323 11:-0.668586 12:-0.543927 13:-0.579694 14:-0.476081 15:-0.445946 16:-0.562227 17:-0.601552 18:-0.681373 19:-0.535633 20:-0.700638 21:-0.488691 22:-0.672007 23:-0.452784 24:-0.864407 25:-0.591452 26:0.154918 27:-0.83149 28:-1 29:-1 30:-0.908393 31:0.0286985 32:-0.899813 33:-0.908393 34:0.0286985 35:-0.899813 
0.03325968059856992 1:-0.730701 2:-0.49313 3:-0.245175 4:-0.931302 5:-0.140612 6:0.310542 7:-0.850384 8:0.138647 9:-0.536495 10:-0.823063 11:-0.685129 12:-0.749877 13:-0.523779 14:-0.721067 15:-0.652764 16:-0.876675 17:-0.828232 18:-0.645407 19:-0.616865 20:-0.632257 21:-0.695906 22:-0.827637 23:-0.9068 24:-1 25:-1 26:-1 27:-1 28:-1 29:-1 30:-0.947113 31:0.0859282 32:-0.909231 33:-0.947113 34:0.0859282 35:-0.909231 
5.65685424949 1:-0.703886 2:-0.700179 3:0.0440751 4:-0.923006 5:-0.147698 6:0.255837 7:-0.947184 8:0.116238 9:-0.597421 10:-0.805346 11:-0.846681 12:-0.503954 13:-0.782317 14:-0.542297 15:-0.811473 16:-0.502467 17:-0.800285 18:-0.573905 19:-0.857328 20:-0.613935 21:-0.890517 22:-0.615889 23:-0.782504 24:-0.604435 25:-0.859431 26:-0.55453 27:-0.793668 28:-0.651458 29:-0.796636 30:-0.945116 31:0.0706606 32:-0.927787 33:-0.945116 34:0.0706606 35:-0.927787 
1.963855459920543 1:-0.598081 2:-0.618038 3:0.16211 4:-0.936183 5:-0.164951 6:0.134091 7:-0.9012 8:-0.0113551 9:-0.386903 10:-0.782216 11:-0.670862 12:-0.957622 13:-0.978319 14:-0.707018 15:-0.975036 16:-0.498182 17:-0.749724 18:-0.409542 19:-0.661456 20:-0.481886 21:-0.68689 22:-1 23:-1 24:-1 25:-1 26:-1 27:-1 28:-1 29:-1 30:-0.975532 31:0.0455593 32:-0.918515 33:-0.975532 34:0.0455593 35:-0.918515 
0.6355071220035584 1:-0.0231017 2:-0.574071 3:-0.409076 4:-0.647787 5:-0.0796298 6:0.469568 7:-0.93665 8:0.0102982 9:-0.634288 10:-0.431731 11:-0.832487 12:-0.434814 13:-0.743221 14:-0.320196 15:-0.669079 16:-0.41172 17:-0.840009 18:-0.231604 19:-0.736667 20:-0.0912574 21:-0.796436 22:0.115449 23:-0.799133 24:-0.848969 25:-0.661086 26:-1 27:-1 28:-1 29:-1 30:-0.903485 31:0.104725 32:-0.924707 33:-0.903485 34:0.104725 35:-0.924707 
0.02438695690384598 1:-0.289462 2:-0.329381 3:0.365013 4:-0.88384 5:-0.173385 6:0.258488 7:-0.869393 8:0.0583143 9:-0.654688 10:-0.179298 11:-0.621512 12:-0.0282698 13:-0.652278 14:-0.43361 15:-0.561613 16:-0.588545 17:-0.66034 18:-0.55185 19:-0.207953 20:-0.802026 21:-0.38288 22:-0.897795 23:-0.79632 24:-1 25:-1 26:-1 27:-1 28:-1 29:-1 30:-0.911985 31:0.0682979 32:-0.938223 33:-0.911985 34:0.0682979 35:-0.938223 
0.2852505470860245 1:-0.609005 2:-0.417454 3:0.0569006 4:-0.923336 5:-0.15281 6:0.189055 7:-0.848465 8:0.0132521 9:-0.661042 10:-0.545355 11:-0.39147 12:-0.502848 13:-0.751171 14:-0.569481 15:-0.670979 16:-0.470536 17:-0.71411 18:-0.376414 19:-0.743923 20:-1 21:-1 22:-1 23:-1 24:-1 25:-1 26:-1 27:-1 28:-1 29:-1 30:-0.974037 31:0.0616216 32:-0.931938 33:-0.974037 34:0.0616216 35:-0.931938 
1.507772309732779 1:-0.509007 2:-0.188213 3:0.252289 4:-0.887317 5:-0.179344 6:0.186071 7:-0.822172 8:-0.0440111 9:-0.530372 10:-0.547344 11:-0.583726 12:-0.701833 13:-0.527339 14:-0.549024 15:-0.662415 16:-0.524291 17:-0.408643 18:-0.44 19:-0.907238 20:-0.463417 21:-0.828911 22:-0.401912 23:-0.661637 24:-0.257806 25:-0.666374 26:-1 27:-1 28:-1 29:-1 30:-0.95708 31:0.0617577 32:-0.90632 33:-0.95708 34:0.0617577 35:-0.90632 
1.5158279027942 1:-0.130656 2:-0.641994 3:-0.449832 4:-0.699595 5:-0.149155 6:0.461984 7:-0.952418 8:0.013943 9:-0.654093 10:-0.538201 11:-0.819117 12:-0.497336 13:-0.758921 14:-0.373958 15:-0.689118 16:-0.435385 17:-0.881882 18:-0.274288 19:-0.720869 20:-0.204464 21:-0.822995 22:-1 23:-1 24:-0.0045501 25:-0.832596 26:-1 27:-1 28:-1 29:-1 30:-0.915636 31:0.103426 32:-0.9255 33:-0.915636 34:0.103426 35:-0.9255 
2.176357249450206 1:-0.620052 2:-0.559576 3:0.257299 4:-0.909191 5:-0.218921 6:0.2147 7:-0.937322 8:0.000717551 9:-0.578672 10:-0.563533 11:-0.752115 12:-0.589416 13:-0.731538 14:-0.607915 15:-0.734079 16:-0.737316 17:-0.699113 18:-1 19:-1 20:-1 21:-1 22:-1 23:-1 24:-1 25:-1 26:-1 27:-1 28:-1 29:-1 30:-0.939619 31:0.0669926 32:-0.920706 33:-0.939619 34:0.0669926 35:-0.920706 
0.05835798628293962 1:-0.446039 2:-0.385803 3:0.212209 4:-0.864871 5:-0.0251922 6:0.237755 7:-0.870236 8:0.0645611 9:-0.584485 10:-0.605097 11:-0.661776 12:-0.524581 13:-0.773234 14:-0.250915 15:-0.735658 16:-0.351047 17:-0.598908 18:-0.220717 19:-0.941128 20:-1 21:-1 22:-1 23:-1 24:-1 25:-1 26:-1 27:-1 28:-1 29:-1 30:-0.974215 31:0.0718114 32:-0.914103 33:-0.974215 34:0.0718114 35:-0.914103 
0.6419701913656215 1:-0.76724 2:-0.519881 3:0.209704 4:-0.969467 5:-0.158498 6:0.202754 7:-0.870675 8:0.0028104 9:-0.511614 10:-0.767777 11:-0.728614 12:-0.752989 13:-0.613407 14:-1 15:-1 16:-0.925806 17:-0.690979 18:-0.898952 19:-0.681628 20:-0.934429 21:-0.894322 22:-0.921781 23:-0.721554 24:-1 25:-1 26:-1 27:-1 28:-1 29:-1 30:-0.973482 31:0.0551099 32:-0.955541 33:-0.973482 34:0.0551099 35:-0.955541 
0.836917039401458 1:-0.0680324 2:-0.149984 3:0.344973 4:-0.808411 5:-0.33818 6:0.216465 7:-0.72264 8:0.102274 9:-0.545111 10:-0.497595 11:-0.366593 12:-0.427786 13:-0.112947 14:-0.470409 15:-0.523197 16:-0.399889 17:-0.598972 18:-0.185761 19:-0.515564 20:0.123225 21:-0.522232 22:0.186381 23:-0.685343 24:-1 25:-1 26:-1 27:-1 28:-1 29:-1 30:-0.958977 31:0.0639038 32:-0.910906 33:-0.958977 34:0.0639038 35:-0.910906 
1.895013981159958 1:-0.212732 2:-0.505454 3:0.442492 4:-0.785241 5:-0.126638 6:0.409915 7:-0.879376 8:-0.00382963 9:-0.508685 10:-0.197694 11:-0.477857 12:-0.363292 13:-0.677598 14:-0.355508 15:-0.599556 16:-0.270048 17:-0.562149 18:-0.569424 19:-0.79674 20:-0.583796 21:-0.892103 22:-0.61597 23:-0.812108 24:-0.550258 25:-0.785046 26:-0.49466 27:-0.693102 28:-0.556599 29:-0.928819 30:-0.806829 31:0.0911515 32:-0.923986 33:-0.806829 34:0.0911515 35:-0.923986 
1.429149048349447 1:-0.563876 2:-0.162941 3:0.189664 4:-0.9194 5:-0.159582 6:0.318538 7:-0.77708 8:0.0925596 9:-0.459224 10:-0.648556 11:-0.296202 12:-0.868424 13:-0.810952 14:-0.693357 15:-0.0955303 16:-0.781616 17:-0.391113 18:-0.693701 19:-0.797587 20:-0.32557 21:-0.780604 22:-1 23:-1 24:-1 25:-1 26:-1 27:-1 28:-1 29:-1 30:-0.969498 31:0.0649354 32:-0.937601 33:-0.969498 34:0.0649354 35:-0.937601 
2.956960376807554 1:-0.681766 2:-0.622814 3:0.349983 4:-0.95946 5:-0.132396 6:0.21737 7:-0.93832 8:0.0592868 9:-0.580139 10:-0.537712 11:-0.644458 12:-0.808958 13:-0.747464 14:-0.879845 15:-0.721245 16:-0.621817 17:-0.81329 18:-0.75981 19:-0.772647 20:-1 21:-1 22:-1 23:-1 24:-1 25:-1 26:-1 27:-1 28:-1 29:-1 30:-0.953903 31:0.0558645 32:-0.915922 33:-0.953903 34:0.0558645 35:-0.915922 
0.6811486888183508 1:-0.441821 2:0.25758 3:0.179645 4:-0.874822 5:-0.00032115 6:0.159183 7:-0.559837 8:0.0933165 9:-0.584767 10:-0.468604 11:0.193828 12:-0.475193 13:-0.0282446 14:-0.614407 15:-0.690193 16:-0.498237 17:-0.671071 18:-0.236561 19:-0.68553 20:-0.198983 21:-0.356036 22:-0.773619 23:-0.889018 24:-1 25:-1 26:-1 27:-1 28:-1 29:-1 30:-0.958225 31:0.0562578 32:-0.926172 33:-0.958225 34:0.0562578 35:-0.926172 
1.295995034484738 1:-0.722123 2:-0.487659 3:-0.255946 4:-0.951227 5:-0.166702 6:0.294742 7:-0.864925 8:0.0873881 9:-0.515663 10:-0.78878 11:-0.704165 12:-0.908193 13:-0.63113 14:-0.775034 15:-0.510089 16:-0.908506 17:-0.660178 18:-0.759126 19:-0.511203 20:-0.9131 21:-0.747303 22:-0.833313 23:-0.576001 24:-1 25:-1 26:-1 27:-1 28:-1 29:-1 30:-0.94275 31:0.0868837 32:-0.910256 33:-0.94275 34:0.0868837 35:-0.910256 
4.517583525714704 1:-0.816546 2:-0.621927 3:0.00755251 4:-0.96147 5:-0.136422 6:0.311864 7:-0.901197 8:-0.013148 9:-0.518102 10:-0.711166 11:-0.671316 12:-0.632075 13:-0.765589 14:-0.634082 15:-0.763494 16:-0.874307 17:-0.8349 18:-1 19:-1 20:-0.88124 21:-0.694216 22:-0.883487 23:-0.77043 24:-0.830509 25:-0.624224 26:-1 27:-1 28:-1 29:-1 30:-0.967417 31:0.0724522 32:-0.913131 33:-0.967417 34:0.0724522 35:-0.913131 
0.9982847122416276 1:-0.312601 2:-0.299855 3:-0.262434 4:-0.822336 5:-0.152135 6:0.343497 7:-0.814016 8:0.070436 9:-0.619385 10:-0.834414 11:-0.786963 12:-0.767956 13:-0.283078 14:-0.660652 15:-0.646521 16:-0.713605 17:-0.696848 18:-0.556883 19:-0.763876 20:-0.493649 21:-0.758275 22:-0.330305 23:-0.780768 24:-0.0365525 25:-0.823232 26:-1 27:-1 28:-1 29:-1 30:-0.974668 31:0.0799234 32:-0.927118 33:-0.974668 34:0.0799234 35:-0.927118 
3.154267857246575 1:-0.662698 2:-0.546376 3:0.0318508 4:-0.914743 5:-0.170194 6:0.399474 7:-0.858818 8:0.198209 9:-0.489473 10:-1 11:-1 12:-0.698803 13:-0.608105 14:-0.64894 15:-0.518348 16:-0.66383 17:-0.781473 18:-0.615995 19:-0.73864 20:-0.628378 21:-0.64501 22:-0.637181 23:-0.573372 24:-1 25:-1 26:-1 27:-1 28:-1 29:-1 30:-0.957171 31:0.0896974 32:-0.902129 33:-0.957171 34:0.0896974 35:-0.902129 
0.197467035091991 1:-0.525235 2:-0.0917967 3:0.17213 4:-0.87407 5:-0.0375853 6:0.285252 7:-0.627638 8:-0.139468 9:-0.678801 10:-0.720168 11:-0.595215 12:-0.743771 13:0.0509022 14:-0.803539 15:-0.0527322 16:-0.812882 17:-0.23619 18:-1 19:-1 20:-1 21:-1 22:-1 23:-1 24:-1 25:-1 26:-1 27:-1 28:-1 29:-1 30:-0.903081 31:0.0830559 32:-0.946132 33:-0.903081 34:0.0830559 35:-0.946132 
0.9978093229114703 1:0.27654 2:-0.538994 3:-0.810523 4:-0.562346 5:-0.0217399 6:0.151916 7:-0.92035 8:0.11435 9:-0.72291 10:-0.513438 11:-0.832516 12:-0.440224 13:-0.804258 14:-0.659186 15:-0.900656 16:-0.483557 17:-0.855942 18:0.168272 19:-0.593739 20:0.571465 21:-0.60488 22:-1 23:-1 24:-1 25:-1 26:-1 27:-1 28:-1 29:-1 30:-0.934939 31:0.0533929 32:-0.937782 33:-0.934939 34:0.0533929 35:-0.937782 
1.177211885152371 1:-0.245356 2:-0.353784 3:0.0384639 4:-0.808377 5:-0.248831 6:0.353455 7:-0.827787 8:0.120578 9:-0.545786 10:-0.668794 11:-0.365372 12:-0.6076 13:-0.668572 14:-0.646806 15:-0.690753 16:-0.605157 17:-0.75265 18:-0.461483 19:-0.759727 20:-0.484679 21:-0.685949 22:-0.0703198 23:-0.751437 24:0.0132717 25:-0.784382 26:-1 27:-1 28:-1 29:-1 30:-0.968103 31:0.0795292 32:-0.922783 33:-0.968103 34:0.0795292 35:-0.922783 
1.325913589415297 1:-0.639423 2:-0.460486 3:-0.0275172 4:-0.904594 5:-0.158317 6:0.268701 7:-0.898724 8:-0.122448 9:-0.556565 10:-1 11:-1 12:-0.563486 13:-0.807822 14:-0.462441 15:-0.612589 16:-0.594349 17:-0.784698 18:-0.567467 19:-0.703291 20:-0.463374 21:-0.775017 22:-0.5132 23:-0.544649 24:-1 25:-1 26:-1 27:-1 28:-1 29:-1 30:-0.950028 31:0.0741608 32:-0.915652 33:-0.950028 34:0.0741608 35:-0.915652 
3.455837458910838 1:-0.823451 2:-0.631346 3:-0.186433 4:-0.972767 5:-0.151432 6:0.234648 7:-0.924866 8:-0.00163143 9:-0.574379 10:-0.67519 11:-0.616356 12:-0.600825 13:-0.690787 14:-0.737034 15:-0.917637 16:-0.983187 17:-0.980323 18:-0.793144 19:-0.917318 20:-0.808142 21:-0.873564 22:-0.808924 23:-0.855802 24:-0.829008 25:-0.852583 26:-1 27:-1 28:-1 29:-1 30:-0.970641 31:0.0649769 32:-0.928839 33:-0.970641 34:0.0649769 35:-0.928839 
0.6774939544802432 1:-0.518633 2:-0.652475 3:-0.275184 4:-0.86867 5:-0.157975 6:0.192621 7:-0.947272 8:0.0308219 9:-0.653092 10:-0.305542 11:-0.75317 12:-0.273992 13:-0.641139 14:-0.560126 15:-0.807453 16:-0.568291 17:-0.721538 18:-0.550486 19:-0.72898 20:-0.517882 21:-0.781896 22:-1 23:-1 24:-1 25:-1 26:-1 27:-1 28:-1 29:-1 30:-0.907059 31:0.056202 32:-0.931985 33:-0.907059 34:0.056202 35:-0.931985 
1.204886583283743 1:0.0967097 2:-0.74331 3:-0.818665 4:-0.607039 5:-0.197522 6:0.0866536 7:-0.971201 8:0.0467568 9:-0.761033 10:-0.487004 11:-0.876349 12:-1 13:-1 14:-0.431738 15:-0.845866 16:-0.235752 17:-0.863873 18:0.165261 19:-0.714247 20:-0.210076 21:-0.879746 22:-0.180029 23:-0.971182 24:-1 25:-1 26:-1 27:-1 28:-1 29:-1 30:-0.914233 31:0.0529231 32:-0.952804 33:-0.914233 34:0.0529231 35:-0.952804 
0.7422075959681004 1:-0.599672 2:-0.478674 3:0.0577773 4:-0.912635 5:-0.172043 6:0.296836 7:-0.875759 8:-0.0265778 9:-0.545015 10:-0.58733 11:-0.71626 12:-0.470925 13:-0.70145 14:-0.414922 15:-0.478534 16:-0.457961 17:-0.458148 18:-0.789092 19:-0.481178 20:-0.595819 21:-0.597443 22:-0.693398 23:-0.511499 24:-0.673986 25:-0.460759 26:-0.778387 27:-0.612138 28:-1 29:-1 30:-0.93047 31:0.0727118 32:-0.921539 33:-0.93047 34:0.0727118 35:-0.921539 
0.1539785467543847 1:-0.663796 2:-0.530736 3:0.105873 4:-0.913876 5:-0.21815 6:0.262306 7:-0.90428 8:0.179284 9:-0.596319 10:-0.508112 11:-0.59913 12:-0.466723 13:-0.520482 14:-0.477573 15:-0.714692 16:-0.587472 17:-0.811707 18:-0.473626 19:-0.737312 20:-0.583999 21:-0.686211 22:-0.535804 23:-0.689952 24:-0.502601 25:-0.556338 26:-0.489716 27:-0.732035 28:-1 29:-1 30:-0.945371 31:0.0746991 32:-0.928957 33:-0.945371 34:0.0746991 35:-0.928957 
0.001715592096523597 1:-0.378543 2:-0.113926 3:0.00179106 4:-0.870309 5:-0.218376 6:0.186376 7:-0.735966 8:-0.0416148 9:-0.618239 10:-0.23341 11:-0.594183 12:-0.675872 13:-0.807599 14:-0.724306 15:-0.729365 16:-0.62912 17:-0.0728998 18:-0.644444 19:-0.17348 20:-0.748518 21:0.0265869 22:-0.935619 23:-0.917457 24:-1 25:-1 26:-1 27:-1 28:-1 29:-1 30:-0.876054 31:0.0641964 32:-0.945971 33:-0.876054 34:0.0641964 35:-0.945971 
1.311859550212964 1:-0.655168 2:-0.47016 3:0.0250874 4:-0.931149 5:-0.150562 6:0.248358 7:-0.812709 8:-0.0825897 9:-0.55101 10:-0.653675 11:-0.63293 12:-0.468534 13:-0.363029 14:-0.819885 15:-0.443703 16:-0.775638 17:-0.514303 18:-0.881195 19:-0.647329 20:-0.707032 21:-0.686434 22:-0.537479 23:-0.668667 24:-0.587636 25:-0.580921 26:-0.793148 27:-0.807365 28:-1 29:-1 30:-0.959529 31:0.0742861 32:-0.918219 33:-0.959529 34:0.0742861 35:-0.918219 
1.295427720048602 1:-0.276312 2:-0.505208 3:0.136834 4:-0.786442 5:0.0134952 6:0.509767 7:-0.921215 8:0.0991651 9:-0.581866 10:-0.36125 11:-0.837693 12:-0.377025 13:-0.756044 14:-0.552145 15:-0.713167 16:-0.512078 17:-0.678111 18:-0.511004 19:-0.536719 20:-0.476979 21:-0.692116 22:-0.437021 23:-0.692424 24:-0.411853 25:-0.516621 26:-1 27:-1 28:-1 29:-1 30:-0.864344 31:0.116043 32:-0.924197 33:-0.864344 34:0.116043 35:-0.924197 
0.01806262520617205 1:-0.319783 2:-0.119477 3:0.587956 4:-0.860297 5:-0.169943 6:0.158385 7:-0.756052 8:-0.0228364 9:-0.462415 10:-0.233991 11:-0.566568 12:-0.226015 13:-0.56583 14:-0.55574 15:-0.648527 16:-0.814456 17:-0.351951 18:-0.611601 19:-0.0155785 20:-0.80013 21:-0.392712 22:-0.297571 23:-0.167753 24:-1 25:-1 26:-1 27:-1 28:-1 29:-1 30:-0.887025 31:0.0576599 32:-0.928518 33:-0.887025 34:0.0576599 35:-0.928518 
0.1809200984214876 1:-0.0921736 2:-0.367066 3:0.182826 4:-0.776842 5:-0.192177 6:0.264338 7:-0.881645 8:0.102825 9:-0.669642 10:-0.115469 11:-0.746796 12:0.137563 13:-0.559344 14:0.168282 15:-0.49513 16:-0.252814 17:-0.600072 18:-0.517816 19:-0.595829 20:-0.67687 21:-0.760245 22:-0.638029 23:-0.783112 24:-0.66929 25:-0.580551 26:-1 27:-1 28:-1 29:-1 30:-0.790437 31:0.0693778 32:-0.948 33:-0.790437 34:0.0693778 35:-0.948 
1.279709128341523 1:-0.552422 2:-0.394421 3:0.160507 4:-0.947318 5:-0.156999 6:0.207117 7:-0.827936 8:-0.0382605 9:-0.532113 10:-0.76003 11:-0.623209 12:-0.672295 13:-0.303388 14:-0.68605 15:-0.461061 16:-0.648578 17:-0.47214 18:-0.770401 19:-0.527712 20:-0.729124 21:-0.728932 22:-0.631005 23:-0.598015 24:-0.506463 25:-0.547457 26:-0.296304 27:-0.567187 28:-1 29:-1 30:-0.977184 31:0.0695244 32:-0.925402 33:-0.977184 34:0.0695244 35:-0.925402 
1.869276793806714 1:-0.151192 2:-0.322676 3:-0.115793 4:-0.819392 5:-0.224715 6:0.213617 7:-0.740998 8:0.131462 9:-0.655955 10:-0.716985 11:-0.68097 12:-0.425031 13:-0.525679 14:-0.176797 15:-0.538976 16:-0.50442 17:-0.619295 18:0.142308 19:-0.515745 20:-0.88632 21:-0.36357 22:-0.847483 23:-0.360179 24:-0.751964 25:-0.246976 26:-0.681589 27:-0.279881 28:-0.794297 29:-0.470725 30:-0.886812 31:0.0669581 32:-0.932529 33:-0.886812 34:0.0669581 35:-0.932529 
0.9183630105776451 1:-0.633581 2:-0.311364 3:0.133227 4:-0.913995 5:-0.150593 6:0.344013 7:-0.86688 8:0.0461067 9:-0.565995 10:-0.612904 11:-0.797093 12:-0.454716 13:-0.470942 14:-0.47052 15:-0.412752 16:-0.517496 17:-0.806082 18:-0.472998 19:-0.698126 20:-0.596321 21:-0.804166 22:-0.588398 23:-0.68173 24:-0.559043 25:-0.475415 26:-0.571303 27:-0.230307 28:-1 29:-1 30:-0.943472 31:0.0867227 32:-0.918443 33:-0.943472 34:0.0867227 35:-0.918443 
1.003077787244412 1:-0.784038 2:-0.231452 3:-0.167019 4:-0.957137 5:-0.129129 6:0.201251 7:-0.844933 8:0.0100385 9:-0.597882 10:-0.877892 11:-0.482863 12:-0.701959 13:-0.153704 14:-0.635153 15:-0.888884 16:-0.686747 17:-0.875845 18:-0.614129 19:-0.815678 20:-0.714339 21:-0.757246 22:-0.911086 23:-0.852689 24:-1 25:-1 26:-1 27:-1 28:-1 29:-1 30:-0.973653 31:0.0609793 32:-0.920116 33:-0.973653 34:0.0609793 35:-0.920116 
0.588385678002936 1:-0.544132 2:-0.422334 3:0.0776168 4:-0.928606 5:-0.177559 6:0.383262 7:-0.779543 8:0.142489 9:-0.565879 10:-0.854007 11:-0.399226 12:-0.820753 13:-0.380257 14:-0.81002 15:-0.444784 16:-0.790512 17:-0.373899 18:-0.748219 19:-0.450115 20:-0.874377 21:-0.593459 22:-0.563215 23:-0.595002 24:-0.395793 25:-0.789498 26:-0.841901 27:-0.89442 28:-1 29:-1 30:-0.981195 31:0.0913309 32:-0.911506 33:-0.981195 34:0.0913309 35:-0.911506 
0.5360606240651149 1:-0.232503 2:-0.750634 3:-0.357172 4:-0.835622 5:-0.109732 6:0.269954 7:-0.963167 8:0.0117134 9:-0.663496 10:-0.116685 11:-0.779956 12:0.032802 13:-0.819688 14:-0.60361 15:-0.860839 16:-0.799381 17:-0.890543 18:-0.631583 19:-0.824761 20:-0.739413 21:-0.819917 22:-0.718833 23:-0.792873 24:-1 25:-1 26:-1 27:-1 28:-1 29:-1 30:-0.884042 31:0.0744763 32:-0.949872 33:-0.884042 34:0.0744763 35:-0.949872 
0.01566457597917434 1:-0.338745 2:-0.687941 3:-0.0248118 4:-0.77607 5:-0.182556 6:0.366229 7:-0.951707 8:-0.00748507 9:-0.598915 10:-0.294889 11:-0.678812 12:-0.249329 13:-0.756605 14:-0.460357 15:-0.884698 16:-0.442524 17:-0.786848 18:-0.3296 19:-0.789182 20:-0.276442 21:-0.76918 22:-0.260771 23:-0.758976 24:-1 25:-1 26:-1 27:-1 28:-1 29:-1 30:-0.878715 31:0.0863363 32:-0.938122 33:-0.878715 34:0.0863363 35:-0.938122 
1.112616166331484 1:0.24479 2:-0.211829 3:-0.00655052 4:-0.647971 5:-0.261002 6:0.260429 7:-0.685616 8:-0.0600318 9:-0.66346 10:-0.32456 11:-0.798777 12:0.195886 13:-0.476792 14:0.525006 15:-0.204292 16:-0.310725 17:-0.632917 18:-0.636063 19:-0.774592 20:-0.71016 21:-0.731771 22:-0.717755 23:-0.666657 24:-0.748638 25:-0.548423 26:-0.836283 27:-0.658099 28:-1 29:-1 30:-0.629013 31:0.0689416 32:-0.950415 33:-0.629013 34:0.0689416 35:-0.950415 
0.5033828963158498 1:-0.756104 2:-0.253431 3:-0.182074 4:-0.950084 5:-0.117621 6:0.187338 7:-0.850203 8:-0.037211 9:-0.607203 10:-0.783925 11:-0.230454 12:-0.709143 13:-0.870818 14:-0.606059 15:-0.81036 16:-0.614515 17:-0.839423 18:-0.638229 19:-0.828129 20:-0.669396 21:-0.781825 22:-0.909226 23:-0.90656 24:-1 25:-1 26:-1 27:-1 28:-1 29:-1 30:-0.974302 31:0.0572226 32:-0.92655 33:-0.974302 34:0.0572226 35:-0.92655 
0.1168703705459156 1:-0.305822 2:-0.667392 3:-0.0167207 4:-0.763244 5:-0.124254 6:0.287136 7:-0.954913 8:-0.0203182 9:-0.628879 10:-0.294319 11:-0.748802 12:-0.190367 13:-0.725879 14:-0.335776 15:-0.759207 16:-0.369107 17:-0.793413 18:-0.237782 19:-0.825865 20:-0.228224 21:-0.864026 22:-0.174959 23:-0.693683 24:-0.235915 25:-0.850304 26:-1 27:-1 28:-1 29:-1 30:-0.882763 31:0.073012 32:-0.936093 33:-0.882763 34:0.073012 35:-0.936093 
5.277350891881405 1:-0.610134 2:-0.586378 3:-0.163538 4:-0.922126 5:-0.170155 6:0.254108 7:-0.911283 8:-0.0310826 9:-0.584056 10:-0.650374 11:-0.827295 12:-0.689379 13:-0.766262 14:-0.714315 15:-0.784301 16:-1 17:-1 18:-1 19:-1 20:-1 21:-1 22:-1 23:-1 24:-1 25:-1 26:-1 27:-1 28:-1 29:-1 30:-0.938641 31:0.0688684 32:-0.931619 33:-0.938641 34:0.0688684 35:-0.931619 
1.032006481625947 1:-0.111885 2:-0.00380412 3:0.556644 4:-0.849044 5:-0.349446 6:0.197054 7:-0.53784 8:-0.0571703 9:-0.409562 10:-0.492467 11:-0.368046 12:-0.660296 13:-0.479 14:-0.534149 15:-0.481356 16:-0.449374 17:0.120874 18:-0.0680476 19:-0.00684494 20:0.156872 21:-0.072987 22:-1 23:-1 24:-1 25:-1 26:-1 27:-1 28:-1 29:-1 30:-0.953181 31:0.0588402 32:-0.907869 33:-0.953181 34:0.0588402 35:-0.907869 
2.396193574766477 1:-0.0754148 2:0.0514431 3:0.265114 4:-0.727178 5:-0.352154 6:0.00651368 7:-0.751882 8:0.0957127 9:-0.328623 10:-0.485788 11:-0.644739 12:-0.557141 13:-0.822146 14:-0.523365 15:-0.692353 16:-0.680187 17:-0.650811 18:-0.664816 19:-0.542095 20:-0.650879 21:-0.56912 22:0.153704 23:-0.21512 24:0.066542 25:-0.307936 26:-1 27:-1 28:-1 29:-1 30:-0.924115 31:0.0325541 32:-0.852108 33:-0.924115 34:0.0325541 35:-0.852108 
3.231307274467752 1:-0.855165 2:-0.692781 3:0.010308 4:-0.980974 5:-0.151335 6:0.270762 7:-0.939553 8:-0.0715372 9:-0.593283 10:-0.836372 11:-0.791444 12:-0.638402 13:-0.770485 14:-0.650226 15:-0.825121 16:-0.683152 17:-0.652388 18:-0.725689 19:-0.798935 20:-0.871997 21:-0.778631 22:-0.911343 23:-0.787337 24:-0.898414 25:-0.658361 26:-0.895243 27:-0.86699 28:-1 29:-1 30:-0.973032 31:0.0775969 32:-0.925534 33:-0.973032 34:0.0775969 35:-0.925534 
0.2183320650757921 1:-0.437179 2:-0.435574 3:-0.0533185 4:-0.894178 5:-0.098692 6:0.0456498 7:-0.773835 8:0.130462 9:-0.585055 10:-0.711327 11:-0.565763 12:-0.72857 13:-0.400435 14:-0.701439 15:-0.396803 16:-0.741648 17:-0.436408 18:-0.575298 19:-0.462898 20:-0.56217 21:-0.585274 22:-0.447654 23:-0.56125 24:-0.486568 25:-0.426162 26:-1 27:-1 28:-1 29:-1 30:-0.957565 31:0.0391705 32:-0.922975 33:-0.957565 34:0.0391705 35:-0.922975 
0.002947262990693513 1:-0.44742 2:-0.0822695 3:0.207199 4:-0.848564 5:-0.222346 6:0.116614 7:-0.539217 8:0.171048 9:-0.672368 10:-0.786729 11:-0.400322 12:-0.582625 13:-0.134477 14:-0.611903 15:-0.0184874 16:-0.539011 17:-0.0880266 18:-1 19:-1 20:-1 21:-1 22:-1 23:-1 24:-1 25:-1 26:-1 27:-1 28:-1 29:-1 30:-0.892202 31:0.0361006 32:-0.941285 33:-0.892202 34:0.0361006 35:-0.941285 
0.5944034054866381 1:-0.547226 2:-0.352871 3:0.0315753 4:-0.921859 5:-0.225272 6:0.19548 7:-0.774443 8:0.160709 9:-0.544723 10:-0.786704 11:-0.328071 12:-0.63533 13:-0.324763 14:-0.607478 15:-0.536792 16:-0.713706 17:-0.55551 18:-0.745182 19:-0.478551 20:-0.852232 21:-0.598759 22:-0.533885 23:-0.771921 24:-0.361911 25:-0.775411 26:-0.812653 27:-0.740449 28:-1 29:-1 30:-0.975974 31:0.0704904 32:-0.922572 33:-0.975974 34:0.0704904 35:-0.922572 
1.727926976505291 1:-0.375212 2:-0.488861 3:-0.257224 4:-0.812372 5:-0.18956 6:0.345596 7:-0.900682 8:0.0495793 9:-0.683835 10:-0.257837 11:-0.783612 12:-0.139451 13:-0.622078 14:-1 15:-1 16:-0.242072 17:-0.6273 18:-0.317662 19:-0.630241 20:-0.637128 21:-0.788751 22:-0.675459 23:-0.736115 24:-0.662079 25:-0.685035 26:-0.620425 27:-0.575403 28:-1 29:-1 30:-0.840308 31:0.0784297 32:-0.955022 33:-0.840308 34:0.0784297 35:-0.955022 
0.6930228314623327 1:-0.285396 2:-0.571513 3:-0.18989 4:-0.757625 5:-0.18168 6:0.331026 7:-0.891407 8:0.0783936 9:-0.67996 10:-0.270715 11:-0.813172 12:-0.0955932 13:-0.8214 14:-0.0419373 15:-0.682238 16:-0.0488001 17:-0.875779 18:-0.487069 19:-0.585784 20:-0.615388 21:-0.661983 22:-0.703128 23:-0.80157 24:-0.634945 25:-0.674456 26:-0.588872 27:-0.660854 28:-1 29:-1 30:-0.80508 31:0.0761501 32:-0.952008 33:-0.80508 34:0.0761501 35:-0.952008 
1.56357306106551 1:-0.150202 2:-0.507924 3:-0.183277 4:-0.766935 5:-0.165201 6:0.270689 7:-0.903474 8:0.0131732 9:-0.741814 10:-1 11:-1 12:-0.302856 13:-0.89329 14:-0.119484 15:-0.784078 16:0.0157748 17:-0.732901 18:-0.168093 19:-0.629978 20:-0.596724 21:-0.62586 22:-0.689786 23:-0.6931 24:-0.890904 25:-0.831318 26:-0.764195 27:-0.486749 28:-1 29:-1 30:-0.849276 31:0.0728525 32:-0.956901 33:-0.849276 34:0.0728525 35:-0.956901 
2.027467648217518 1:-0.65747 2:-0.432575 3:-0.0231836 4:-0.900264 5:-0.177077 6:0.18285 7:-0.875582 8:0.00344272 9:-0.684634 10:-0.57365 11:-0.761465 12:-0.503221 13:-0.611688 14:-0.509301 15:-0.592689 16:-0.521965 17:-0.576923 18:-0.479856 19:-0.614274 20:-0.53969 21:-0.670829 22:-0.499196 23:-0.613268 24:-0.761972 25:-0.809052 26:-0.74708 27:-0.611673 28:-1 29:-1 30:-0.941222 31:0.0643769 32:-0.941788 33:-0.941222 34:0.0643769 35:-0.941788 
0.815481112485093 1:0.288255 2:-0.645061 3:-0.822372 4:-0.519739 5:-0.248312 6:0.229044 7:-0.945649 8:0.0907264 9:-0.73858 10:-0.537474 11:-0.814818 12:-0.269631 13:-0.84969 14:-1 15:-1 16:-0.0789498 17:-0.787522 18:0.300737 19:-0.698411 20:0.583969 21:-0.722224 22:-1 23:-1 24:-1 25:-1 26:-1 27:-1 28:-1 29:-1 30:-0.945247 31:0.0618249 32:-0.936945 33:-0.945247 34:0.0618249 35:-0.936945 
0.0675059378932034 1:-0.352339 2:-0.559689 3:-0.276687 4:-0.832732 5:-0.187842 6:0.255805 7:-0.903195 8:-0.0707706 9:-0.734745 10:-1 11:-1 12:-0.484125 13:-0.770328 14:-0.275703 15:-0.702729 16:-0.158657 17:-0.613984 18:-0.380073 19:-0.656285 20:-0.589594 21:-0.746047 22:-0.876268 23:-0.823489 24:-0.89234 25:-0.810458 26:-0.845432 27:-0.787583 28:-1 29:-1 30:-0.895612 31:0.0748424 32:-0.954498 33:-0.895612 34:0.0748424 35:-0.954498 
0.9693895428590852 1:-0.0611888 2:-0.13531 3:0.192495 4:-0.805331 5:-0.10241 6:0.025614 7:-0.823586 8:-0.00142323 9:-0.451874 10:-0.506681 11:-0.631659 12:-0.467661 13:-0.55887 14:-0.505245 15:-0.585964 16:-0.573865 17:-0.831969 18:-0.537989 19:-0.717623 20:-0.505568 21:-0.632484 22:-0.599607 23:-0.645807 24:0.0231785 25:0.0811916 26:-1 27:-1 28:-1 29:-1 30:-0.928316 31:0.0413754 32:-0.908953 33:-0.928316 34:0.0413754 35:-0.908953 
0.5403811191828392 1:-0.370689 2:-0.428289 3:-0.25259 4:-0.864746 5:-0.148158 6:0.26103 7:-0.857718 8:-0.0925755 9:-0.711773 10:-0.83173 11:-0.705491 12:-0.469807 13:-0.632416 14:-0.353556 15:-0.609266 16:-0.209291 17:-0.547481 18:-0.0989222 19:-0.349344 20:-0.876029 21:-0.73256 22:-0.908055 23:-0.666937 24:-0.924453 25:-0.706554 26:-0.903666 27:-0.67762 28:-1 29:-1 30:-0.912894 31:0.0808119 32:-0.935783 33:-0.912894 34:0.0808119 35:-0.935783 
2.006975874427436 1:-0.683244 2:-0.688462 3:-0.239864 4:-0.951102 5:-0.140651 6:0.320038 7:-0.933746 8:0.000385222 9:-0.634005 10:-0.811026 11:-0.756529 12:-0.680002 13:-0.742652 14:-0.83516 15:-0.829559 16:-0.832352 17:-0.921979 18:-0.574705 19:-0.859032 20:-0.796311 21:-0.882285 22:-0.858375 23:-0.892282 24:-0.825958 25:-0.697382 26:-0.663634 27:-0.901433 28:-1 29:-1 30:-0.973439 31:0.078098 32:-0.936072 33:-0.973439 34:0.078098 35:-0.936072 
0.01210575280080421 1:-0.419981 2:-0.112875 3:0.0994852 4:-0.857312 5:-0.155044 6:0.256597 7:-0.70442 8:-0.158953 9:-0.568434 10:-0.629098 11:-0.368656 12:-0.744143 13:-0.0304843 14:-0.59184 15:-0.0854682 16:-0.521447 17:-0.713904 18:-0.446909 19:-0.724856 20:-0.242916 21:-0.804044 22:-0.209414 23:-0.605767 24:-1 25:-1 26:-1 27:-1 28:-1 29:-1 30:-0.956864 31:0.0762371 32:-0.911883 33:-0.956864 34:0.0762371 35:-0.911883 
5.65685424949 1:-0.664656 2:-0.694783 3:-0.218747 4:-0.941507 5:-0.165706 6:0.337467 7:-0.93301 8:-0.00448454 9:-0.592514 10:-0.759867 11:-0.768375 12:-0.709966 13:-0.741594 14:-0.631477 15:-0.658082 16:-0.608206 17:-0.722524 18:-1 19:-1 20:-0.794171 21:-0.865825 22:-0.846589 23:-0.883489 24:-0.77959 25:-0.791812 26:-0.643581 27:-0.914601 28:-1 29:-1 30:-0.974138 31:0.0805553 32:-0.920053 33:-0.974138 34:0.0805553 35:-0.920053 
3.837102266192375 1:-0.594071 2:-0.650721 3:-0.197104 4:-0.923688 5:-0.154333 6:0.358598 7:-0.914226 8:-0.0288838 9:-0.607456 10:-0.740646 11:-0.794709 12:-0.64814 13:-0.677918 14:-0.623961 15:-0.637901 16:-1 17:-1 18:-0.608782 19:-0.622256 20:-0.825355 21:-0.871481 22:-0.86225 23:-0.944483 24:-0.787678 25:-0.714706 26:-0.563695 27:-0.890253 28:-1 29:-1 30:-0.966271 31:0.080909 32:-0.933389 33:-0.966271 34:0.080909 35:-0.933389 
0.6906462793370208 1:-0.506485 2:-0.547638 3:-0.25269 4:-0.88659 5:-0.177748 6:0.242362 7:-0.914601 8:0.0728457 9:-0.652045 10:-1 11:-1 12:-0.260967 13:-0.650303 14:-0.313525 15:-0.639456 16:-0.611711 17:-0.852467 18:-0.591507 19:-0.703291 20:-0.778341 21:-0.734852 22:-0.86851 23:-0.906438 24:-1 25:-1 26:-1 27:-1 28:-1 29:-1 30:-0.922711 31:0.0673198 32:-0.939242 33:-0.922711 34:0.0673198 35:-0.939242 
0.09036325707587896 1:-0.595703 2:-0.447854 3:-0.0864092 4:-0.941252 5:-0.167235 6:0.303888 7:-0.808819 8:0.109534 9:-0.568199 10:-0.762719 11:-0.639867 12:-0.633754 13:-0.614726 14:-0.613372 15:-0.650743 16:-0.575432 17:-0.6924 18:-0.788601 19:-0.889076 20:-0.870708 21:-0.744095 22:-0.800074 23:-0.896198 24:-0.958299 25:-0.6004 26:-0.564653 27:-0.40172 28:-1 29:-1 30:-0.969578 31:0.0733938 32:-0.922421 33:-0.969578 34:0.0733938 35:-0.922421 
0.01848647220619222 1:-0.440245 2:-0.404675 3:-0.331371 4:-0.858771 5:-0.0743654 6:0.206525 7:-0.79249 8:-0.120431 9:-0.753227 10:-0.701183 11:-0.545704 12:-0.67209 13:-0.439886 14:-0.326946 15:-0.516665 16:-0.239486 17:-0.390925 18:-0.804013 19:-0.670262 20:-0.758036 21:-0.737999 22:-0.709604 23:-0.833475 24:-0.603922 25:-0.602117 26:-0.641242 27:-0.759702 28:-1 29:-1 30:-0.932127 31:0.0496305 32:-0.95842 33:-0.932127 34:0.0496305 35:-0.95842 
0.005288103197665641 1:-0.403474 2:0.0198292 3:-0.308826 4:-0.902266 5:-0.400263 6:0.243901 7:-0.659883 8:-0.121895 9:-0.673212 10:-0.827309 11:-0.297736 12:-0.832981 13:0.0699944 14:-1 15:-1 16:-1 17:-1 18:-1 19:-1 20:-1 21:-1 22:-1 23:-1 24:-1 25:-1 26:-1 27:-1 28:-1 29:-1 30:-0.910098 31:0.0698395 32:-0.945172 33:-0.910098 34:0.0698395 35:-0.945172 
0.4665297409963012 1:-0.682802 2:-0.576832 3:-0.344372 4:-0.925239 5:-0.167368 6:0.22025 7:-0.907742 8:0.174951 9:-0.539634 10:-0.746828 11:-0.905403 12:-0.757489 13:-0.633304 14:-0.714161 15:-0.824557 16:-0.689616 17:-0.805401 18:-0.507109 19:-0.718953 20:-0.832354 21:-0.784578 22:-0.707529 23:-0.783568 24:-1 25:-1 26:-1 27:-1 28:-1 29:-1 30:-0.963587 31:0.0772396 32:-0.908466 33:-0.963587 34:0.0772396 35:-0.908466 
2.043738242042895 1:-0.537444 2:-0.241215 3:0.150687 4:-0.889684 5:-0.0119033 6:0.318403 7:-0.782357 8:0.110209 9:-0.658459 10:-0.568392 11:-0.467558 12:-0.503653 13:-0.368095 14:-0.48496 15:-0.361695 16:-0.48566 17:-0.440272 18:-0.456487 19:-0.387821 20:-0.534034 21:-0.677329 22:-0.479059 23:-0.537823 24:-0.355196 25:-0.24458 26:-0.31901 27:-0.340233 28:-1 29:-1 30:-0.949215 31:0.0789408 32:-0.939008 33:-0.949215 34:0.0789408 35:-0.939008 
0.06207661935974783 1:-0.297594 2:-0.465382 3:0.153643 4:-0.824191 5:-0.126768 6:0.367616 7:-0.919815 8:0.0650597 9:-0.596484 10:-0.329273 11:-0.713917 12:-0.275732 13:-0.685608 14:-0.468931 15:-0.715188 16:-0.491183 17:-0.626093 18:-0.456542 19:-0.319992 20:-0.435267 21:-0.725231 22:-0.353665 23:-0.774657 24:-0.248875 25:-0.442613 26:-1 27:-1 28:-1 29:-1 30:-0.887756 31:0.0914217 32:-0.926517 33:-0.887756 34:0.0914217 35:-0.926517 
1.277412748547156 1:-0.474036 2:-0.646852 3:-0.341616 4:-0.81825 5:-0.15079 6:0.204124 7:-0.952241 8:-0.0122627 9:-0.666097 10:-0.357728 11:-0.741342 12:-0.283252 13:-0.769377 14:-0.294308 15:-0.865582 16:-0.450393 17:-0.821903 18:-0.490419 19:-0.862448 20:-1 21:-1 22:-0.337701 23:-0.887973 24:-0.251006 25:-0.808447 26:-1 27:-1 28:-1 29:-1 30:-0.901655 31:0.0633901 32:-0.939649 33:-0.901655 34:0.0633901 35:-0.939649 
0.9872916078232082 1:-0.229441 2:-0.721333 3:-0.339162 4:-0.819138 5:-0.160512 6:0.252523 7:-0.962213 8:-0.00717454 9:-0.666694 10:-0.232666 11:-0.744388 12:-0.115865 13:-0.754353 14:0.0229647 15:-0.792584 16:-0.532824 17:-0.813007 18:-0.543558 19:-0.846416 20:-0.582821 21:-0.842632 22:-1 23:-1 24:-0.655437 25:-0.760781 26:-1 27:-1 28:-1 29:-1 30:-0.861187 31:0.0703609 32:-0.939592 33:-0.861187 34:0.0703609 35:-0.939592 
0.6688411757676576 1:-0.232059 2:-0.722285 3:-0.369121 4:-0.785245 5:-0.154405 6:0.215204 7:-0.96185 8:0.0113459 9:-0.669822 10:-0.265493 11:-0.744632 12:-0.163273 13:-0.784608 14:0.0201934 15:-0.803939 16:-0.455166 17:-0.822914 18:-1 19:-1 20:-0.42292 21:-0.858628 22:-0.48641 23:-0.848644 24:-0.320276 25:-0.803319 26:-1 27:-1 28:-1 29:-1 30:-0.872187 31:0.0651081 32:-0.943906 33:-0.872187 34:0.0651081 35:-0.943906 
1.898909962118618 1:-0.679653 2:-0.671799 3:-0.249032 4:-0.928648 5:-0.118166 6:0.333783 7:-0.944032 8:0.0781775 9:-0.639076 10:-0.889406 11:-0.756203 12:-0.640413 13:-0.854476 14:-0.559596 15:-0.813345 16:-0.593603 17:-0.835321 18:-0.515089 19:-0.891243 20:-0.56922 21:-0.593612 22:-0.649775 23:-0.817706 24:-0.689655 25:-0.764293 26:-0.746565 27:-0.803255 28:-0.878692 29:-0.846901 30:-0.956354 31:0.0845439 32:-0.927066 33:-0.956354 34:0.0845439 35:-0.927066 
0.005298075304010362 1:-0.417769 2:-0.126849 3:0.194674 4:-0.895535 5:-0.0787254 6:0.166388 7:-0.632341 8:0.0238367 9:-0.565261 10:-0.413896 11:-0.285518 12:-0.408216 13:-0.271518 14:-0.536003 15:-0.293327 16:-0.743258 17:-0.25339 18:-0.71676 19:-0.150955 20:-0.655179 21:-0.0423695 22:-0.715811 23:-0.0375388 24:-1 25:-1 26:-1 27:-1 28:-1 29:-1 30:-0.905027 31:0.0469762 32:-0.930552 33:-0.905027 34:0.0469762 35:-0.930552 
0.6688462959429918 1:0.227676 2:-0.763314 3:-0.839782 4:-0.443987 5:-0.19144 6:0.425885 7:-0.962906 8:0.0566929 9:-0.721813 10:-0.632134 11:-0.782002 12:-0.338991 13:-0.867468 14:-1 15:-1 16:-0.109401 17:-0.882416 18:0.228925 19:-0.851126 20:0.518296 21:-0.861572 22:-1 23:-1 24:-1 25:-1 26:-1 27:-1 28:-1 29:-1 30:-0.928145 31:0.0881578 32:-0.940592 33:-0.928145 34:0.0881578 35:-0.940592 
0.01241500188725597 1:-0.205494 2:-0.436188 3:0.139565 4:-0.807721 5:-0.0493616 6:0.239714 7:-0.890752 8:-0.16277 9:-0.540015 10:-0.703618 11:-0.813829 12:-0.655279 13:-0.686088 14:-0.602866 15:-0.629673 16:-0.463984 17:-0.704209 18:-0.312544 19:-0.674984 20:-0.0407254 21:-0.679151 22:-0.00327783 23:-0.627898 24:-1 25:-1 26:-1 27:-1 28:-1 29:-1 30:-0.954313 31:0.0729518 32:-0.896208 33:-0.954313 34:0.0729518 35:-0.896208 
1.224435480893088 1:-0.210703 2:-0.708135 3:-0.0131887 4:-0.775998 5:-0.136152 6:0.258929 7:-0.959717 8:-0.0199845 9:-0.689698 10:-0.225733 11:-0.735729 12:-0.0408817 13:-0.719518 14:0.0428021 15:-0.840178 16:-0.399648 17:-0.82462 18:-0.384208 19:-0.811028 20:-0.273747 21:-0.854177 22:-0.286761 23:-0.82424 24:-0.651743 25:-0.957242 26:-1 27:-1 28:-1 29:-1 30:-0.86671 31:0.0725396 32:-0.940753 33:-0.86671 34:0.0725396 35:-0.940753 
0.7945969354705089 1:-0.617869 2:-0.586209 3:-0.194424 4:-0.908927 5:-0.175256 6:0.248848 7:-0.928184 8:-0.00680606 9:-0.684328 10:-0.495416 11:-0.826806 12:-0.380395 13:-0.754652 14:-0.444931 15:-0.8471 16:-0.479868 17:-0.846973 18:-1 19:-1 20:-0.660109 21:-0.876069 22:-0.701325 23:-0.765489 24:-0.679868 25:-0.536582 26:-0.717665 27:-0.498191 28:-1 29:-1 30:-0.921056 31:0.0701172 32:-0.948921 33:-0.921056 34:0.0701172 35:-0.948921 
2.159985104933072 1:-0.57825 2:-0.322357 3:0.515312 4:-0.892484 5:-0.218985 6:0.317924 7:-0.876377 8:0.0392311 9:-0.629308 10:-0.534412 11:-0.713907 12:-0.507223 13:-0.512534 14:-0.485775 15:-0.481778 16:-0.505791 17:-0.559846 18:-0.491326 19:-0.348838 20:-0.685216 21:-0.494862 22:-0.67942 23:-0.796785 24:-1 25:-1 26:-1 27:-1 28:-1 29:-1 30:-0.937304 31:0.0743987 32:-0.933729 33:-0.937304 34:0.0743987 35:-0.933729 
2.630807231380615 1:-0.609558 2:-0.718093 3:-0.318195 4:-0.904586 5:-0.15946 6:0.230182 7:-0.954865 8:-0.0493171 9:-0.721769 10:-0.453362 11:-0.800068 12:-1 13:-1 14:-0.383694 15:-0.773473 16:-0.402701 17:-0.866579 18:-0.436791 19:-0.85858 20:-0.685486 21:-0.897647 22:-0.709594 23:-0.759829 24:-0.869717 25:-0.893036 26:-0.855853 27:-0.891917 28:-1 29:-1 30:-0.916117 31:0.0680764 32:-0.954694 33:-0.916117 34:0.0680764 35:-0.954694 
3.201267614993856 1:-0.565893 2:-0.689758 3:-0.319598 4:-0.88753 5:-0.156017 6:0.226083 7:-0.951924 8:-0.0459492 9:-0.701964 10:-0.453024 11:-0.831432 12:-0.419068 13:-0.852387 14:-1 15:-1 16:-0.348314 17:-0.846638 18:-0.455543 19:-0.757958 20:-0.66725 21:-0.891459 22:-0.719053 23:-0.771348 24:-0.871921 25:-0.923721 26:-0.856742 27:-0.892606 28:-1 29:-1 30:-0.898322 31:0.0694155 32:-0.952722 33:-0.898322 34:0.0694155 35:-0.952722 
1.943152705474097 1:-0.72363 2:-0.599135 3:-0.301236 4:-0.939947 5:-0.157381 6:0.135867 7:-0.945448 8:0.0442099 9:-0.583323 10:-0.598562 11:-0.753642 12:-0.667958 13:-0.882227 14:-0.63226 15:-0.88513 16:-0.638248 17:-0.585246 18:-0.710916 19:-0.765966 20:-0.634271 21:-0.740753 22:-0.900877 23:-0.867455 24:-0.517647 25:-0.613085 26:-0.494967 27:-0.655062 28:-1 29:-1 30:-0.959191 31:0.0457294 32:-0.920941 33:-0.959191 34:0.0457294 35:-0.920941 
2.342393227784942 1:-0.668479 2:-0.504938 3:-0.10184 4:-0.941963 5:-0.15266 6:0.275145 7:-0.871837 8:0.0791099 9:-0.57575 10:-0.711521 11:-0.749955 12:-0.843897 13:-0.767706 14:-0.748477 15:-0.84046 16:-0.649067 17:-0.769008 18:-0.46908 19:-0.605221 20:-0.673809 21:-0.799501 22:-0.691245 23:-0.757799 24:-0.682807 25:-0.518089 26:-0.666413 27:-0.526457 28:-1 29:-1 30:-0.969519 31:0.0640897 32:-0.905625 33:-0.969519 34:0.0640897 35:-0.905625 
1.088073866304826 1:0.1365 2:-0.723015 3:-0.84895 4:-0.54098 5:-0.1573 6:0.389594 7:-0.964134 8:0.0233192 9:-0.744025 10:-0.62429 11:-0.69362 12:-1 13:-1 14:-0.344678 15:-0.87641 16:-0.121705 17:-0.813352 18:0.119774 19:-0.88978 20:0.349806 21:-0.855739 22:-1 23:-1 24:-1 25:-1 26:-1 27:-1 28:-1 29:-1 30:-0.925181 31:0.0824439 32:-0.946237 33:-0.925181 34:0.0824439 35:-0.946237 
1.59099763569702 1:-0.508136 2:-0.632586 3:-0.452787 4:-0.834888 5:-0.169402 6:0.12899 7:-0.953106 8:-0.0084336 9:-0.757689 10:-0.40157 11:-0.857616 12:-0.432135 13:-0.81557 14:-0.483208 15:-0.591913 16:-0.377571 17:-0.902464 18:-0.248043 19:-0.773858 20:-1 21:-1 22:-0.638554 23:-0.906146 24:-0.699647 25:-0.891947 26:-1 27:-1 28:-1 29:-1 30:-0.923325 31:0.0542506 32:-0.954029 33:-0.923325 34:0.0542506 35:-0.954029 
0.2326271921218626 1:-0.470002 2:-0.407275 3:-0.539635 4:-0.909762 5:-0.211712 6:0.219374 7:-0.811452 8:0.0770145 9:-0.675719 10:-1 11:-1 12:-0.664304 13:-0.760027 14:-0.65853 15:-0.5995 16:-0.884562 17:-0.508992 18:-0.956937 19:-0.717364 20:-0.895689 21:-0.299534 22:-1 23:-1 24:-1 25:-1 26:-1 27:-1 28:-1 29:-1 30:-0.904254 31:0.0687025 32:-0.948381 33:-0.904254 34:0.0687025 35:-0.948381 
1.108917535132427 1:-0.557314 2:-0.139247 3:0.0766148 4:-0.920324 5:-0.132955 6:0.229992 7:-0.798813 8:-0.0142294 9:-0.653486 10:-0.527357 11:-0.551419 12:-0.451401 13:-0.471457 14:-0.442815 15:-0.409811 16:-0.502113 17:-0.392369 18:-0.557124 19:-0.503657 20:-0.594928 21:-0.486754 22:-0.602899 23:-0.448228 24:-0.50237 25:-0.03639 26:-0.470103 27:-0.185663 28:-1 29:-1 30:-0.943348 31:0.0617906 32:-0.939841 33:-0.943348 34:0.0617906 35:-0.939841 
0.7183305368820541 1:-0.467899 2:-0.422871 3:0.121579 4:-0.843557 5:-0.0422038 6:0.0808472 7:-0.888033 8:0.15758 9:-0.55516 10:-0.404527 11:-0.736902 12:-0.408226 13:-0.664459 14:-0.51927 15:-0.625091 16:-0.490582 17:-0.625506 18:-0.54605 19:-0.54647 20:-0.502799 21:-0.672956 22:-0.438266 23:-0.577142 24:-0.400134 25:-0.503503 26:-1 27:-1 28:-1 29:-1 30:-0.909602 31:0.0444636 32:-0.919475 33:-0.909602 34:0.0444636 35:-0.919475 
0.02866588250794627 1:-0.621213 2:-0.184505 3:0.532847 4:-0.905542 5:-0.151626 6:0.282834 7:-0.808666 8:0.169336 9:-0.521555 10:-0.519585 11:-0.57659 12:-0.42324 13:-0.0936562 14:-0.473607 15:-0.48318 16:-0.530746 17:-0.695479 18:-0.477625 19:-0.537958 20:-0.598105 21:-0.419368 22:-0.63255 23:-0.456787 24:-1 25:-1 26:-1 27:-1 28:-1 29:-1 30:-0.93297 31:0.0739999 32:-0.909102 33:-0.93297 34:0.0739999 35:-0.909102 
1.125068624039079 1:-0.509022 2:-0.747699 3:-0.458649 4:-0.862468 5:-0.148622 6:0.141922 7:-0.95762 8:0.0257953 9:-0.730803 10:-0.454437 11:-0.888536 12:-0.51136 13:-0.844627 14:-0.511432 15:-0.777649 16:-0.363206 17:-0.885206 18:-1 19:-1 20:-0.26702 21:-0.763947 22:-0.701257 23:-0.867619 24:-0.771098 25:-0.931648 26:-1 27:-1 28:-1 29:-1 30:-0.937163 31:0.0540522 32:-0.94581 33:-0.937163 34:0.0540522 35:-0.94581 
0.3694591774464201 1:-0.665943 2:-0.556647 3:-0.349482 4:-0.924564 5:-0.121654 6:0.343244 7:-0.891634 8:-0.0308304 9:-0.577661 10:-0.592847 11:-0.615239 12:-0.870937 13:-0.71516 14:-0.611939 15:-0.720741 16:-0.684833 17:-0.783149 18:-0.569309 19:-0.770158 20:-0.69395 21:-0.821999 22:-0.854648 23:-0.893429 24:-1 25:-1 26:-1 27:-1 28:-1 29:-1 30:-0.943157 31:0.0944475 32:-0.923171 33:-0.943157 34:0.0944475 35:-0.923171 
0.7345623899158409 1:-0.558198 2:-0.364668 3:-0.51932 4:-0.905949 5:-0.157578 6:0.204427 7:-0.833849 8:0.0379684 9:-0.693697 10:-1 11:-1 12:-0.4194 13:-0.546075 14:-0.723379 15:-0.708575 16:-0.836777 17:-0.747213 18:-0.941104 19:-0.749223 20:-0.83277 21:-0.252168 22:-1 23:-1 24:-1 25:-1 26:-1 27:-1 28:-1 29:-1 30:-0.925049 31:0.0645375 32:-0.954891 33:-0.925049 34:0.0645375 35:-0.954891 
3.310305803441587 1:-0.529488 2:-0.618793 3:-0.511204 4:-0.895289 5:-0.147636 6:0.20988 7:-0.91699 8:-0.00228706 9:-0.715692 10:-1 11:-1 12:-0.398631 13:-0.905653 14:-0.745304 15:-0.844442 16:-0.868286 17:-0.751817 18:-0.666425 19:-0.643247 20:-0.855242 21:-0.804255 22:-1 23:-1 24:-1 25:-1 26:-1 27:-1 28:-1 29:-1 30:-0.909296 31:0.0618815 32:-0.954111 33:-0.909296 34:0.0618815 35:-0.954111 
0.02407495714628998 1:-0.495916 2:-0.118772 3:0.011811 4:-0.899981 5:-0.163229 6:0.252622 7:-0.78306 8:-0.182947 9:-0.682047 10:-0.828867 11:-0.640369 12:-0.761887 13:-0.316742 14:-0.721191 15:-0.0254687 16:-1 17:-1 18:-1 19:-1 20:-1 21:-1 22:-1 23:-1 24:-1 25:-1 26:-1 27:-1 28:-1 29:-1 30:-0.913691 31:0.0720867 32:-0.950559 33:-0.913691 34:0.0720867 35:-0.950559 
0.4552754170914412 1:-0.564828 2:-0.26269 3:-0.180772 4:-0.889025 5:-0.184214 6:0.303445 7:-0.804196 8:0.147 9:-0.646394 10:-0.348298 11:-0.605607 12:-0.390178 13:-0.62818 14:-0.390301 15:-0.61472 16:-0.496093 17:-0.653842 18:-0.647011 19:-0.799824 20:-0.629306 21:-0.724079 22:-0.579562 23:-0.506387 24:-0.633828 25:-0.402024 26:-0.870371 27:-0.444921 28:-1 29:-1 30:-0.912526 31:0.0737019 32:-0.945123 33:-0.912526 34:0.0737019 35:-0.945123 
0.9368355446618477 1:-0.515017 2:-0.296601 3:-0.503087 4:-0.903508 5:-0.163397 6:0.175589 7:-0.861004 8:0.0577361 9:-0.662358 10:-0.457579 11:-0.745898 12:-1 13:-1 14:-0.624181 15:-0.663817 16:-0.632844 17:-0.696346 18:-0.820167 19:-0.441336 20:-0.698464 21:-0.682202 22:-1 23:-1 24:-1 25:-1 26:-1 27:-1 28:-1 29:-1 30:-0.91449 31:0.056443 32:-0.944503 33:-0.91449 34:0.056443 35:-0.944503 
2.812075650254171 1:-0.593001 2:-0.656062 3:-0.491715 4:-0.908851 5:-0.158989 6:0.191922 7:-0.926189 8:-0.0153117 9:-0.671599 10:-1 11:-1 12:-0.678003 13:-0.876866 14:-0.630742 15:-0.665923 16:-0.905003 17:-0.912814 18:-0.832908 19:-0.894727 20:-0.722363 21:-0.885787 22:-1 23:-1 24:-1 25:-1 26:-1 27:-1 28:-1 29:-1 30:-0.912126 31:0.0577362 32:-0.951803 33:-0.912126 34:0.0577362 35:-0.951803 
0.9025323073640019 1:-0.526616 2:-0.493649 3:-0.195251 4:-0.866718 5:-0.228098 6:0.18381 7:-0.880485 8:-0.00132577 9:-0.622405 10:-0.342945 11:-0.687898 12:-0.371299 13:-0.481958 14:-0.349994 15:-0.441647 16:-0.532361 17:-0.790116 18:-0.48067 19:-0.602914 20:-0.490894 21:-0.721532 22:-0.461862 23:-0.552432 24:-0.649979 25:-0.564172 26:-1 27:-1 28:-1 29:-1 30:-0.916526 31:0.0605384 32:-0.932329 33:-0.916526 34:0.0605384 35:-0.932329 
0.6533058772318016 1:-0.631049 2:-0.443841 3:-0.178442 4:-0.905626 5:-0.159261 6:0.391301 7:-0.825776 8:-0.0183063 9:-0.524482 10:-0.67225 11:-0.440119 12:-0.679308 13:-0.412774 14:-0.777862 15:-0.427381 16:-0.821435 17:-0.572864 18:-0.655042 19:-0.75399 20:-0.624375 21:-0.790383 22:-0.567327 23:-0.721236 24:-0.604608 25:-0.66531 26:-0.578031 27:-0.717654 28:-1 29:-1 30:-0.970711 31:0.0882272 32:-0.914659 33:-0.970711 34:0.0882272 35:-0.914659 
0.7338347892447423 1:-0.462822 2:-0.734226 3:-0.380368 4:-0.831249 5:-0.142728 6:0.218035 7:-0.963556 8:0.0149453 9:-0.689098 10:-0.393529 11:-0.770445 12:-0.295192 13:-0.762009 14:-0.224102 15:-0.852735 16:-0.498511 17:-0.853023 18:-1 19:-1 20:-0.545085 21:-0.871062 22:-0.37119 23:-0.891781 24:-0.324763 25:-0.822552 26:-1 27:-1 28:-1 29:-1 30:-0.904386 31:0.0664487 32:-0.947729 33:-0.904386 34:0.0664487 35:-0.947729 
2.093233757157206 1:-0.408218 2:-0.521578 3:-0.623978 4:-0.796888 5:-0.153929 6:0.435976 7:-0.861921 8:0.158949 9:-0.684725 10:-0.365562 11:-0.586391 12:-0.415373 13:-0.706314 14:-0.45175 15:-0.756658 16:-0.55004 17:-0.857225 18:-1 19:-1 20:-0.477017 21:-0.847733 22:-0.516634 23:-0.866621 24:-1 25:-1 26:-1 27:-1 28:-1 29:-1 30:-0.861121 31:0.101938 32:-0.947011 33:-0.861121 34:0.101938 35:-0.947011 
0.282944794449805 1:-0.669356 2:-0.593324 3:0.310429 4:-0.924131 5:-0.141552 6:0.150919 7:-0.930648 8:0.0338537 9:-0.585903 10:-0.530862 11:-0.811719 12:-0.50736 13:-0.719618 14:-0.513774 15:-0.718732 16:-0.619031 17:-0.763426 18:-0.556256 19:-0.702669 20:-0.616805 21:-0.742652 22:-0.613538 23:-0.6779 24:-0.609839 25:-0.603991 26:-0.752708 27:-0.601568 28:-1 29:-1 30:-0.946866 31:0.0505709 32:-0.933044 33:-0.946866 34:0.0505709 35:-0.933044 
0.3546014143407643 1:-0.562024 2:-0.458695 3:-0.486028 4:-0.904249 5:-0.134803 6:0.194834 7:-0.861498 8:0.0265918 9:-0.674024 10:-1 11:-1 12:-0.599009 13:-0.843611 14:-0.750376 15:-0.699506 16:-0.802326 17:-0.745099 18:-0.652846 19:-0.386497 20:-0.856594 21:-0.678961 22:-1 23:-1 24:-1 25:-1 26:-1 27:-1 28:-1 29:-1 30:-0.912817 31:0.0566379 32:-0.953151 33:-0.912817 34:0.0566379 35:-0.953151 
0.1978350467409635 1:-0.537469 2:-0.377498 3:-0.364186 4:-0.905974 5:-0.188155 6:0.22672 7:-0.844452 8:0.0956295 9:-0.697527 10:-0.449142 11:-0.655524 12:-0.426323 13:-0.775719 14:-0.899857 15:-0.85036 16:-0.793884 17:-0.738743 18:-0.621983 19:-0.377671 20:-0.78975 21:-0.459962 22:-1 23:-1 24:-1 25:-1 26:-1 27:-1 28:-1 29:-1 30:-0.924614 31:0.0610248 32:-0.945897 33:-0.924614 34:0.0610248 35:-0.945897 
0.7075228515684379 1:-0.529228 2:-0.6296 3:-0.268346 4:-0.882343 5:-0.187636 6:0.218414 7:-0.932373 8:-0.0625712 9:-0.741205 10:-0.767557 11:-0.942789 12:-0.477354 13:-0.889563 14:-0.698244 15:-0.834385 16:-1 17:-1 18:-0.592468 19:-0.58504 20:-0.843449 21:-0.753966 22:-1 23:-1 24:-1 25:-1 26:-1 27:-1 28:-1 29:-1 30:-0.901668 31:0.0692591 32:-0.963198 33:-0.901668 34:0.0692591 35:-0.963198 
0.7876760843196515 1:-0.510018 2:-0.449869 3:-0.265114 4:-0.893244 5:-0.220877 6:0.264806 7:-0.872585 8:0.0827818 9:-0.65804 10:-1 11:-1 12:-0.646237 13:-0.719391 14:-0.686776 15:-0.819375 16:-0.657417 17:-0.787676 18:-0.79171 19:-0.967567 20:-0.533696 21:-0.466624 22:-1 23:-1 24:-1 25:-1 26:-1 27:-1 28:-1 29:-1 30:-0.914467 31:0.0719699 32:-0.950168 33:-0.914467 34:0.0719699 35:-0.950168 
0.5816774580889504 1:-0.578085 2:-0.255058 3:-0.337859 4:-0.904095 5:-0.202762 6:0.20735 7:-0.856456 8:0.136532 9:-0.649458 10:-0.532635 11:-0.750459 12:-0.436529 13:-0.82229 14:-0.427868 15:-0.717306 16:-0.352946 17:-0.567888 18:-0.449501 19:-0.462459 20:-0.637189 21:-0.877404 22:-0.64261 23:-0.886704 24:-0.569421 25:-0.592493 26:-0.646195 27:-0.561686 28:-0.805378 29:-0.491362 30:-0.932868 31:0.0623536 32:-0.939212 33:-0.932868 34:0.0623536 35:-0.939212 
0.04613466616122668 1:-0.592838 2:-0.293063 3:0.149585 4:-0.893612 5:-0.145188 6:0.261223 7:-0.853735 8:0.104457 9:-0.610018 10:-0.55798 11:-0.486981 12:-0.546417 13:-0.598373 14:-0.545534 15:-0.613536 16:-0.448487 17:-0.590704 18:-0.409147 19:-0.188369 20:-0.405889 21:-0.584143 22:-0.768891 23:-0.561899 24:-1 25:-1 26:-1 27:-1 28:-1 29:-1 30:-0.949805 31:0.0666648 32:-0.930359 33:-0.949805 34:0.0666648 35:-0.930359 
0.6399993373913175 1:-0.371354 2:-0.370794 3:0.20001 4:-0.83331 5:-0.139596 6:0.449482 7:-0.890427 8:0.0330668 9:-0.600204 10:-0.393711 11:-0.739051 12:-0.382094 13:-0.703574 14:-0.417772 15:-0.563276 16:-0.536875 17:-0.438656 18:-0.552659 19:-0.355422 20:-0.516405 21:-0.534657 22:-0.564038 23:-0.461013 24:-0.5119 25:-0.199774 26:-1 27:-1 28:-1 29:-1 30:-0.871109 31:0.109237 32:-0.926803 33:-0.871109 34:0.109237 35:-0.926803 
0.2206643122848171 1:-0.489599 2:-0.533465 3:-0.0390651 4:-0.874668 5:-0.0643763 6:0.375087 7:-0.89678 8:0.0739557 9:-0.575857 10:-0.543297 11:-0.736094 12:-0.452168 13:-0.580167 14:-0.488223 15:-0.541953 16:-0.586875 17:-0.641778 18:-0.628288 19:-0.665977 20:-0.526833 21:-0.701597 22:-0.419037 23:-0.726014 24:-0.365502 25:-0.711254 26:-0.327542 27:-0.798378 28:-1 29:-1 30:-0.953811 31:0.0864027 32:-0.925133 33:-0.953811 34:0.0864027 35:-0.925133 
0.3664227216447368 1:-0.572029 2:-0.429931 3:-0.212309 4:-0.92237 5:-0.143913 6:0.252927 7:-0.845164 8:-0.0325976 9:-0.662271 10:-0.792631 11:-0.897554 12:-0.565607 13:-0.67889 14:-0.647226 15:-0.538886 16:-1 17:-1 18:-0.646629 19:-0.291455 20:-0.784458 21:-0.676732 22:-1 23:-1 24:-1 25:-1 26:-1 27:-1 28:-1 29:-1 30:-0.933188 31:0.0718323 32:-0.951534 33:-0.933188 34:0.0718323 35:-0.951534 
0.2943332463885367 1:-0.570399 2:-0.44931 3:-0.156123 4:-0.906875 5:-0.0849629 6:0.354275 7:-0.811054 8:-0.0746912 9:-0.562533 10:-0.791418 11:-0.463607 12:-0.766575 13:-0.354617 14:-0.863115 15:-0.600393 16:-0.694383 17:-0.485857 18:-0.65972 19:-0.791597 20:-0.600046 21:-0.814665 22:-0.545089 23:-0.841101 24:-0.463562 25:-0.726232 26:-0.488067 27:-0.509032 28:-1 29:-1 30:-0.980685 31:0.0818865 32:-0.920844 33:-0.980685 34:0.0818865 35:-0.920844 
1.546835037946782 1:-0.651617 2:-0.404963 3:-0.26023 4:-0.926401 5:-0.170124 6:0.218419 7:-0.834635 8:0.0652901 9:-0.624757 10:-1 11:-1 12:-0.577548 13:-0.822156 14:-0.727909 15:-0.716144 16:-1 17:-1 18:-0.637498 19:-0.327318 20:-0.849496 21:-0.616317 22:-1 23:-1 24:-1 25:-1 26:-1 27:-1 28:-1 29:-1 30:-0.940495 31:0.0657174 32:-0.94523 33:-0.940495 34:0.0657174 35:-0.94523 
0.7753818977489116 1:-0.483127 2:-0.422775 3:-0.671222 4:-0.908992 5:-0.158937 6:0.206006 7:-0.906306 8:-0.00441986 9:-0.703066 10:-0.255536 11:-0.677094 12:-0.617255 13:-0.931523 14:-0.59143 15:-0.799947 16:-0.625763 17:-0.67253 18:-1 19:-1 20:-0.641169 21:-0.59044 22:-1 23:-1 24:-1 25:-1 26:-1 27:-1 28:-1 29:-1 30:-0.930849 31:0.0592778 32:-0.942826 33:-0.930849 34:0.0592778 35:-0.942826 
1.087886279228576 1:-0.0162042 2:-0.294806 3:-0.162861 4:-0.771343 5:-0.14039 6:0.223999 7:-0.828434 8:-0.0866439 9:-0.554001 10:-0.667814 11:-0.671152 12:-0.795314 13:-0.672019 14:-0.775587 15:-0.748249 16:-0.804824 17:-0.753601 18:-0.611815 19:-0.774329 20:-0.564675 21:-0.767207 22:-0.538308 23:-0.808996 24:-1 25:-1 26:-1 27:-1 28:-1 29:-1 30:-0.784549 31:0.0689054 32:-0.944798 33:-0.784549 34:0.0689054 35:-0.944798 
1.389086878037679 1:-0.515103 2:-0.674347 3:-0.659373 4:-0.896156 5:-0.15766 6:0.203868 7:-0.929902 8:-0.0190868 9:-0.679784 10:-0.493751 11:-0.847269 12:-1 13:-1 14:-0.653423 15:-0.805185 16:-0.762503 17:-0.693487 18:-1 19:-1 20:-0.691269 21:-0.87304 22:-1 23:-1 24:-1 25:-1 26:-1 27:-1 28:-1 29:-1 30:-0.908242 31:0.0548803 32:-0.947889 33:-0.908242 34:0.0548803 35:-0.947889 
0.04510962304333353 1:-0.814298 2:-0.60072 3:-0.000839168 4:-0.982619 5:0.117575 6:0.21189 7:-0.897727 8:0.072976 9:-0.56079 10:-0.776982 11:-0.733279 12:-0.860442 13:-0.844639 14:-0.629454 15:-0.762662 16:-0.624463 17:-0.590185 18:-0.71834 19:-0.598521 20:-0.882279 21:-0.686282 22:-0.806875 23:-0.631426 24:-0.770701 25:-0.548043 26:-0.76931 27:-0.549214 28:-1 29:-1 30:-0.980979 31:0.0580177 32:-0.912664 33:-0.980979 34:0.0580177 35:-0.912664 
1.229760790761422 1:-0.556084 2:-0.495113 3:-0.536654 4:-0.901578 5:-0.174369 6:0.194246 7:-0.843875 8:-0.0671491 9:-0.674236 10:-0.408953 11:-0.765389 12:-1 13:-1 14:-0.727995 15:-0.751886 16:-0.776154 17:-0.592406 18:-1 19:-1 20:-0.683786 21:-0.397186 22:-1 23:-1 24:-1 25:-1 26:-1 27:-1 28:-1 29:-1 30:-0.918294 31:0.055997 32:-0.945903 33:-0.918294 34:0.055997 35:-0.945903 
0.1927069591339141 1:-0.553847 2:-0.658183 3:-0.150086 4:-0.886048 5:-0.233403 6:0.16268 7:-0.938836 8:0.0759119 9:-0.606046 10:-0.730838 11:-0.805949 12:-0.62701 13:-0.769081 14:-0.520306 15:-0.713563 16:-0.431552 17:-0.838913 18:-0.35085 19:-0.672591 20:-0.628775 21:-0.854363 22:-0.595509 23:-0.786493 24:-0.633501 25:-0.760661 26:-0.486744 27:-0.747224 28:-0.721108 29:-0.862112 30:-0.956676 31:0.0581959 32:-0.925972 33:-0.956676 34:0.0581959 35:-0.925972 
0.2764690428451198 1:-0.226053 2:-0.693956 3:-0.00827895 4:-0.838246 5:-0.163411 6:0.27879 7:-0.940967 8:0.014943 9:-0.645251 10:-0.282963 11:-0.761676 12:-0.0599936 13:-0.665959 14:0.0265518 15:-0.661149 16:-0.623304 17:-0.872233 18:-0.658578 19:-0.819638 20:-0.724407 21:-0.8413 22:-0.758375 23:-0.862418 24:-1 25:-1 26:-1 27:-1 28:-1 29:-1 30:-0.881521 31:0.0722703 32:-0.944723 33:-0.881521 34:0.0722703 35:-0.944723 
3.555020683534556 1:-0.478096 2:-0.717874 3:-0.388785 4:-0.840818 5:-0.221355 6:0.327526 7:-0.961295 8:-0.0144576 9:-0.611118 10:-0.659432 11:-0.924721 12:-0.577094 13:-0.923385 14:-0.456529 15:-0.868995 16:-0.462771 17:-0.890609 18:-0.28966 19:-0.830292 20:-0.234011 21:-0.823593 22:-1 23:-1 24:-1 25:-1 26:-1 27:-1 28:-1 29:-1 30:-0.942156 31:0.0843276 32:-0.930145 33:-0.942156 34:0.0843276 35:-0.930145 
0.3167950777847632 1:-0.543639 2:-0.372947 3:-0.145702 4:-0.922599 5:-0.141566 6:0.318003 7:-0.815856 8:-0.049343 9:-0.601687 10:-0.768842 11:-0.408839 12:-0.710587 13:-0.262451 14:-0.790186 15:-0.521401 16:-0.792811 17:-0.492739 18:-0.615444 19:-0.433577 20:-0.547472 21:-0.784016 22:-0.490112 23:-0.831915 24:-0.401732 25:-0.763303 26:-0.266688 27:-0.643386 28:-1 29:-1 30:-0.985671 31:0.0763081 32:-0.921234 33:-0.985671 34:0.0763081 35:-0.921234 
0.0475553972920696 1:-0.595335 2:-0.54127 3:0.284854 4:-0.905097 5:-0.14564 6:0.230222 7:-0.886847 8:-0.0814619 9:-0.517894 10:-0.696186 11:-0.642597 12:-0.684469 13:-0.744697 14:-0.559918 15:-0.601037 16:-0.458102 17:-0.754024 18:-0.442474 19:-0.71324 20:-0.459047 21:-0.728357 22:-0.406648 23:-0.580857 24:-1 25:-1 26:-1 27:-1 28:-1 29:-1 30:-0.965504 31:0.0698229 32:-0.897126 33:-0.965504 34:0.0698229 35:-0.897126 
4.942963334699996 1:-0.669794 2:-0.609777 3:-0.496224 4:-0.939203 5:-0.14514 6:0.263208 7:-0.88771 8:-0.0439863 9:-0.735372 10:-0.46561 11:-0.664239 12:-1 13:-1 14:-0.771416 15:-0.747008 16:-1 17:-1 18:-0.715051 19:-0.692203 20:-0.971541 21:-0.988951 22:-1 23:-1 24:-1 25:-1 26:-1 27:-1 28:-1 29:-1 30:-0.95825 31:0.0729778 32:-0.948436 33:-0.95825 34:0.0729778 35:-0.948436 
3.239825077148061 1:-0.551965 2:-0.581035 3:-0.381571 4:-0.883254 5:-0.0982245 6:0.199431 7:-0.939601 8:0.067321 9:-0.680195 10:-0.567638 11:-0.580935 12:-0.516198 13:-0.894214 14:-0.378779 15:-0.768594 16:-0.550093 17:-0.791252 18:-0.32094 19:-0.753085 20:-0.444571 21:-0.79694 22:-0.638363 23:-0.737076 24:-0.780123 25:-0.839534 26:-0.619932 27:-0.783303 28:-0.773522 29:-0.785866 30:-0.921041 31:0.061311 32:-0.937029 33:-0.921041 34:0.061311 35:-0.937029 
1.013633947551336 1:-0.460916 2:-0.450469 3:-0.556869 4:-0.882979 5:-0.174781 6:0.330054 7:-0.855515 8:0.12936 9:-0.680432 10:-0.232331 11:-0.592161 12:-1 13:-1 14:-0.645617 15:-0.749224 16:-0.818006 17:-0.786476 18:-1 19:-1 20:-0.799 21:-0.657272 22:-1 23:-1 24:-1 25:-1 26:-1 27:-1 28:-1 29:-1 30:-0.920392 31:0.078746 32:-0.944373 33:-0.920392 34:0.078746 35:-0.944373 
1.929258541741256 1:-0.416448 2:-0.591308 3:-0.612154 4:-0.804742 5:-0.138003 6:0.410031 7:-0.850471 8:0.170575 9:-0.699368 10:-0.353363 11:-0.603144 12:-0.386203 13:-0.655856 14:-0.425884 15:-0.700087 16:-1 17:-1 18:-0.5061 19:-0.858128 20:-0.546471 21:-0.772094 22:-0.504037 23:-0.800511 24:-1 25:-1 26:-1 27:-1 28:-1 29:-1 30:-0.859924 31:0.102346 32:-0.944314 33:-0.859924 34:0.102346 35:-0.944314 
1.318585980678507 1:-0.567004 2:-0.678023 3:-0.0725818 4:-0.890318 5:-0.206189 6:0.12915 7:-0.942898 8:0.0340598 9:-0.635225 10:-0.875199 11:-0.872725 12:-0.582364 13:-0.755621 14:-0.471076 15:-0.721899 16:-0.418162 17:-0.822724 18:-0.325324 19:-0.664961 20:-0.596411 21:-0.792 22:-0.835437 23:-0.830493 24:-0.806688 25:-0.654107 26:-0.781371 27:-0.929628 28:-0.717765 29:-0.819885 30:-0.948865 31:0.0515038 32:-0.929272 33:-0.948865 34:0.0515038 35:-0.929272 
