svm_type c_svc
kernel_type rbf
gamma 0.0078125
nr_class 2
total_sv 45
rho 0.213899
label 1 -1
nr_sv 21 24
SV
1 1:-0.841644 2:-0.665735 3:-0.185505 4:-0.890348 5:-0.029697 6:-0.990592 7:-0.889439 8:0.0795076 9:0.875694 10:-0.774837 11:-0.534342 12:0.764683 13:-0.544407 14:-0.758796 15:-1 16:-1 17:-0.619721 18:-0.839594 19:-0.588216 20:-0.907961 21:-0.680673 22:-0.859456 23:-0.939059 24:-0.829085 25:-0.881078 26:-0.953069 27:-0.889101 28:-0.857191 29:-0.788179 30:-0.94733 31:-0.731029 32:-0.889687 33:-0.220508 34:-0.671534 35:-1 36:-0.778936 37:0.259927 38:-0.979852 39:-0.207345 40:-0.829228 
1 1:-0.0322591 2:-0.666054 3:-0.079723 4:-0.880783 5:-0.0933729 6:-0.972903 7:-0.859355 8:0.320994 9:0.889307 10:-0.835222 11:-0.0945692 12:0.887729 13:-0.765105 14:-0.679127 15:-0.730678 16:-0.654403 17:-0.766 18:-0.558515 19:-0.71827 20:-0.675678 21:-0.429108 22:-0.208218 23:0.132869 24:-0.192071 25:-0.432266 26:-0.142449 27:-0.669342 28:-0.418832 29:-0.410338 30:-0.305294 31:-0.400385 32:-0.479689 33:-0.314435 34:-0.436831 35:-0.7631 36:-0.849859 37:0.862968 38:-0.784342 39:-0.156849 40:-0.325011 
1 1:-0.542524 2:-0.160151 3:-0.0902132 4:-0.795957 5:-0.134473 6:-0.983978 7:-0.903481 8:0.472692 9:0.898888 10:-0.902861 11:0.00418254 12:0.889598 13:-0.64734 14:-0.787599 15:-0.86541 16:-0.703054 17:-0.756468 18:-0.271407 19:-0.721465 20:-0.108457 21:-0.774509 22:-0.160255 23:-0.537321 24:-0.0951628 25:-0.533856 26:0.0176115 27:-0.681341 28:-0.524742 29:-0.658988 30:-0.565237 31:-0.778301 32:-0.863376 33:-0.57408 34:-0.538812 35:-0.695335 36:-0.697899 37:0.638843 38:-0.806121 39:-0.0823954 40:0.137458 
1 1:-0.736072 2:-0.0179911 3:-0.148719 4:-0.896728 5:-0.0720086 6:-0.982169 7:-0.899146 8:0.310253 9:0.922886 10:-0.817178 11:-0.156873 12:0.841836 13:-0.619515 14:-0.793536 15:-0.704025 16:-0.587214 17:-0.896364 18:-0.663965 19:-0.473203 20:-0.444212 21:-0.513194 22:-0.592142 23:-0.430339 24:-0.526473 25:-0.683648 26:-0.6477 27:-0.733552 28:-0.640167 29:-0.609776 30:-0.629122 31:-0.551629 32:-0.623088 33:-1 34:-0.891502 35:-0.885573 36:-0.874402 37:0.493957 38:-0.930433 39:-0.0305995 40:-0.353049 
0.8088929248832954 1:-0.730207 2:0.181378 3:-0.126892 4:-0.858625 5:0.00950537 6:-0.990736 7:-0.883346 8:0.351934 9:0.892092 10:-0.855374 11:-0.335781 12:0.87448 13:-0.684764 14:-0.806939 15:-0.72448 16:-0.84909 17:-0.876957 18:-0.802543 19:-0.675448 20:-0.547165 21:-0.734852 22:-0.582734 23:-0.683379 24:-0.483552 25:-0.597956 26:-0.567969 27:-0.650613 28:-0.545797 29:-0.704409 30:-0.459728 31:-0.657951 32:-0.434333 33:-0.59143 34:-0.702983 35:-0.911242 36:-0.719687 37:0.645658 38:-0.796738 39:0.0152291 40:-0.323078 
1 1:-0.788858 2:0.202865 3:-0.139652 4:-0.85719 5:-0.0154695 6:-0.983327 7:-0.864603 8:0.30429 9:0.914521 10:-0.855053 11:-0.305594 12:0.855968 13:-0.745618 14:-0.78142 15:-0.806189 16:-0.747254 17:-0.92381 18:-0.707521 19:-0.730043 20:-0.596645 21:-0.713146 22:-0.989282 23:-0.657786 24:-0.548096 25:-0.541724 26:-0.478592 27:-1 28:-1 29:-0.439826 30:-0.448633 31:-0.496847 32:-0.678355 33:-0.675581 34:-0.557142 35:-0.892567 36:-0.670719 37:0.509606 38:-0.854216 39:0.0510917 40:-0.386079 
1 1:-0.718477 2:0.353598 3:-0.0883597 4:-0.967757 5:-0.240845 6:-0.974703 7:-0.847181 8:0.288551 9:0.876281 10:-0.749706 11:0.276317 12:0.870927 13:-0.809221 14:-0.677378 15:-0.931271 16:-0.900244 17:-0.745938 18:-0.295735 19:-0.793498 20:-0.212507 21:-0.900247 22:-0.512564 23:-0.786023 24:0.0516478 25:-0.770289 26:-0.506629 27:-0.849689 28:-0.525777 29:-0.607282 30:-0.512824 31:-0.880128 32:-0.702852 33:-0.695664 34:-0.739545 35:-0.652483 36:-0.839706 37:0.531158 38:-0.746557 39:0.0769221 40:-0.450204 
1 1:-0.841644 2:-0.665735 3:-0.185505 4:-0.890348 5:-0.029697 6:-0.990592 7:-0.889439 8:0.0795076 9:0.875694 10:-0.774837 11:-0.534342 12:0.764683 13:-0.544407 14:-0.758796 15:-1 16:-1 17:-0.619721 18:-0.839594 19:-0.588216 20:-0.907961 21:-0.680673 22:-0.859456 23:-0.939059 24:-0.829085 25:-0.881078 26:-0.953069 27:-0.889101 28:-0.857191 29:-0.788179 30:-0.94733 31:-0.731029 32:-0.889687 33:-0.220508 34:-0.671534 35:-1 36:-0.778936 37:0.259927 38:-0.979852 39:-0.207345 40:-0.829228 
1 1:-0.0322591 2:-0.666054 3:-0.079723 4:-0.880783 5:-0.0933729 6:-0.972903 7:-0.859355 8:0.320994 9:0.889307 10:-0.835222 11:-0.0945692 12:0.887729 13:-0.765105 14:-0.679127 15:-0.730678 16:-0.654403 17:-0.766 18:-0.558515 19:-0.71827 20:-0.675678 21:-0.429108 22:-0.208218 23:0.132869 24:-0.192071 25:-0.432266 26:-0.142449 27:-0.669342 28:-0.418832 29:-0.410338 30:-0.305294 31:-0.400385 32:-0.479689 33:-0.314435 34:-0.436831 35:-0.7631 36:-0.849859 37:0.862968 38:-0.784342 39:-0.156849 40:-0.325011 
1 1:-0.542524 2:-0.160151 3:-0.0902132 4:-0.795957 5:-0.134473 6:-0.983978 7:-0.903481 8:0.472692 9:0.898888 10:-0.902861 11:0.00418254 12:0.889598 13:-0.64734 14:-0.787599 15:-0.86541 16:-0.703054 17:-0.756468 18:-0.271407 19:-0.721465 20:-0.108457 21:-0.774509 22:-0.160255 23:-0.537321 24:-0.0951628 25:-0.533856 26:0.0176115 27:-0.681341 28:-0.524742 29:-0.658988 30:-0.565237 31:-0.778301 32:-0.863376 33:-0.57408 34:-0.538812 35:-0.695335 36:-0.697899 37:0.638843 38:-0.806121 39:-0.0823954 40:0.137458 
1 1:-0.736072 2:-0.0179911 3:-0.148719 4:-0.896728 5:-0.0720086 6:-0.982169 7:-0.899146 8:0.310253 9:0.922886 10:-0.817178 11:-0.156873 12:0.841836 13:-0.619515 14:-0.793536 15:-0.704025 16:-0.587214 17:-0.896364 18:-0.663965 19:-0.473203 20:-0.444212 21:-0.513194 22:-0.592142 23:-0.430339 24:-0.526473 25:-0.683648 26:-0.6477 27:-0.733552 28:-0.640167 29:-0.609776 30:-0.629122 31:-0.551629 32:-0.623088 33:-1 34:-0.891502 35:-0.885573 36:-0.874402 37:0.493957 38:-0.930433 39:-0.0305995 40:-0.353049 
1 1:-0.419356 2:0.0444903 3:-0.135119 4:-0.763428 5:-0.201523 6:-0.962818 7:-0.821423 8:0.357757 9:0.945221 10:-0.936819 11:0.156636 12:0.809936 13:-0.887571 14:-0.740892 15:-0.537698 16:-0.662004 17:-0.544633 18:-0.522925 19:-0.594292 20:-0.217475 21:-0.665687 22:-0.111665 23:-0.592244 24:-0.0077205 25:-0.571715 26:-0.169228 27:-0.638986 28:-0.232217 29:-0.67346 30:-0.709255 31:-0.671344 32:-0.683905 33:-0.635343 34:-0.54644 35:-0.769284 36:-0.820411 37:0.546904 38:-0.747949 39:-0.483713 40:0.0967484 
1 1:-0.730207 2:0.181378 3:-0.126892 4:-0.858625 5:0.00950537 6:-0.990736 7:-0.883346 8:0.351934 9:0.892092 10:-0.855374 11:-0.335781 12:0.87448 13:-0.684764 14:-0.806939 15:-0.72448 16:-0.84909 17:-0.876957 18:-0.802543 19:-0.675448 20:-0.547165 21:-0.734852 22:-0.582734 23:-0.683379 24:-0.483552 25:-0.597956 26:-0.567969 27:-0.650613 28:-0.545797 29:-0.704409 30:-0.459728 31:-0.657951 32:-0.434333 33:-0.59143 34:-0.702983 35:-0.911242 36:-0.719687 37:0.645658 38:-0.796738 39:0.0152291 40:-0.323078 
1 1:-0.788858 2:0.202865 3:-0.139652 4:-0.85719 5:-0.0154695 6:-0.983327 7:-0.864603 8:0.30429 9:0.914521 10:-0.855053 11:-0.305594 12:0.855968 13:-0.745618 14:-0.78142 15:-0.806189 16:-0.747254 17:-0.92381 18:-0.707521 19:-0.730043 20:-0.596645 21:-0.713146 22:-0.989282 23:-0.657786 24:-0.548096 25:-0.541724 26:-0.478592 27:-1 28:-1 29:-0.439826 30:-0.448633 31:-0.496847 32:-0.678355 33:-0.675581 34:-0.557142 35:-0.892567 36:-0.670719 37:0.509606 38:-0.854216 39:0.0510917 40:-0.386079 
1 1:-0.718477 2:0.353598 3:-0.0883597 4:-0.967757 5:-0.240845 6:-0.974703 7:-0.847181 8:0.288551 9:0.876281 10:-0.749706 11:0.276317 12:0.870927 13:-0.809221 14:-0.677378 15:-0.931271 16:-0.900244 17:-0.745938 18:-0.295735 19:-0.793498 20:-0.212507 21:-0.900247 22:-0.512564 23:-0.786023 24:0.0516478 25:-0.770289 26:-0.506629 27:-0.849689 28:-0.525777 29:-0.607282 30:-0.512824 31:-0.880128 32:-0.702852 33:-0.695664 34:-0.739545 35:-0.652483 36:-0.839706 37:0.531158 38:-0.746557 39:0.0769221 40:-0.450204 
1 1:-0.829914 2:0.652527 3:-0.0930615 4:-0.774151 5:-0.102728 6:-0.989751 7:-0.872642 8:0.201337 9:0.837844 10:-0.951174 11:-0.0986398 12:0.935399 13:-0.703687 14:-0.665932 15:-0.807775 16:-0.896838 17:-1 18:-1 19:-0.79597 20:-0.22841 21:-1 22:-1 23:-0.823483 24:-0.325566 25:-1 26:-1 27:-1 28:-1 29:-0.683865 30:-0.0192808 31:-1 32:-1 33:-0.844853 34:-0.620412 35:-0.809359 36:-0.792629 37:0.535858 38:-0.660686 39:-0.0769976 40:-0.725626 
1 1:-0.753668 2:0.884171 3:-0.124064 4:-0.772827 5:-0.235478 6:-0.970438 7:-0.904279 8:0.32249 9:0.913944 10:-0.932556 11:0.248908 12:0.82376 13:-0.610624 14:-0.732416 15:-0.710114 16:-0.622809 17:-0.700624 18:-0.478347 19:-0.667782 20:-0.7623 21:-0.815773 22:-0.490581 23:-0.86151 24:-0.781395 25:-0.468192 26:-0.577151 27:-0.722069 28:-0.615494 29:-1 30:-1 31:-0.36347 32:-0.554828 33:-1 34:-0.891502 35:-0.79059 36:-0.634466 37:0.552661 38:-0.729597 39:0.407317 40:-0.401108 
1 1:-0.841644 2:-0.665735 3:-0.185505 4:-0.890348 5:-0.029697 6:-0.990592 7:-0.889439 8:0.0795076 9:0.875694 10:-0.774837 11:-0.534342 12:0.764683 13:-0.544407 14:-0.758796 15:-1 16:-1 17:-0.619721 18:-0.839594 19:-0.588216 20:-0.907961 21:-0.680673 22:-0.859456 23:-0.939059 24:-0.829085 25:-0.881078 26:-0.953069 27:-0.889101 28:-0.857191 29:-0.788179 30:-0.94733 31:-0.731029 32:-0.889687 33:-0.220508 34:-0.671534 35:-1 36:-0.778936 37:0.259927 38:-0.979852 39:-0.207345 40:-0.829228 
1 1:-0.0322591 2:-0.666054 3:-0.079723 4:-0.880783 5:-0.0933729 6:-0.972903 7:-0.859355 8:0.320994 9:0.889307 10:-0.835222 11:-0.0945692 12:0.887729 13:-0.765105 14:-0.679127 15:-0.730678 16:-0.654403 17:-0.766 18:-0.558515 19:-0.71827 20:-0.675678 21:-0.429108 22:-0.208218 23:0.132869 24:-0.192071 25:-0.432266 26:-0.142449 27:-0.669342 28:-0.418832 29:-0.410338 30:-0.305294 31:-0.400385 32:-0.479689 33:-0.314435 34:-0.436831 35:-0.7631 36:-0.849859 37:0.862968 38:-0.784342 39:-0.156849 40:-0.325011 
1 1:-0.542524 2:-0.160151 3:-0.0902132 4:-0.795957 5:-0.134473 6:-0.983978 7:-0.903481 8:0.472692 9:0.898888 10:-0.902861 11:0.00418254 12:0.889598 13:-0.64734 14:-0.787599 15:-0.86541 16:-0.703054 17:-0.756468 18:-0.271407 19:-0.721465 20:-0.108457 21:-0.774509 22:-0.160255 23:-0.537321 24:-0.0951628 25:-0.533856 26:0.0176115 27:-0.681341 28:-0.524742 29:-0.658988 30:-0.565237 31:-0.778301 32:-0.863376 33:-0.57408 34:-0.538812 35:-0.695335 36:-0.697899 37:0.638843 38:-0.806121 39:-0.0823954 40:0.137458 
1 1:-0.736072 2:-0.0179911 3:-0.148719 4:-0.896728 5:-0.0720086 6:-0.982169 7:-0.899146 8:0.310253 9:0.922886 10:-0.817178 11:-0.156873 12:0.841836 13:-0.619515 14:-0.793536 15:-0.704025 16:-0.587214 17:-0.896364 18:-0.663965 19:-0.473203 20:-0.444212 21:-0.513194 22:-0.592142 23:-0.430339 24:-0.526473 25:-0.683648 26:-0.6477 27:-0.733552 28:-0.640167 29:-0.609776 30:-0.629122 31:-0.551629 32:-0.623088 33:-1 34:-0.891502 35:-0.885573 36:-0.874402 37:0.493957 38:-0.930433 39:-0.0305995 40:-0.353049 
-1 1:-0.999526 2:-0.989283 3:-0.264562 4:-0.256227 5:-0.13347 6:-0.932668 7:0.0517403 8:0.432947 9:-0.389248 10:0.457745 11:0.00135938 12:0.785054 13:-0.512461 14:0.354424 15:0.660824 16:-0.11858 17:-0.363509 18:-0.522144 19:-0.0878469 20:0.0798049 21:-0.212339 22:-0.219841 23:-0.939543 24:-0.981549 25:-0.865784 26:-0.637144 27:-0.8431 28:-0.591771 29:-1 30:-1 31:-0.974309 32:-0.970647 33:-0.86085 34:-0.873577 35:-0.904195 36:-0.443405 37:0.0945544 38:-0.694293 39:-0.140425 40:-1 
-1 1:-0.999305 2:-1 3:-0.0681479 4:0.781655 5:-0.324259 6:-0.97806 7:0.0910879 8:0.836282 9:-0.593546 10:-0.010977 11:0.282204 12:0.87369 13:0.00429595 14:-0.293883 15:-0.152013 16:-0.369034 17:-0.479203 18:-0.53955 19:-1 20:-1 21:-0.0373765 22:-0.321877 23:-0.0347259 24:-0.315353 25:-0.232825 26:-0.418772 27:-0.385054 28:-0.549484 29:-0.322703 30:-0.937941 31:-0.508582 32:-0.638271 33:-0.924593 34:-0.849881 35:-0.687698 36:-0.573371 37:0.14742 38:-0.719628 39:-0.140425 40:-1 
-1 1:-0.999543 2:-0.975234 3:-0.503997 4:0.0813644 5:-0.272117 6:-0.887068 7:0.229476 8:-0.917997 9:-0.101998 10:0.247395 11:0.285086 12:0.593624 13:-0.687458 14:-0.726839 15:-0.738902 16:0.135111 17:-0.787343 18:-0.363325 19:-0.65923 20:-0.457968 21:-0.463444 22:0.0862602 23:-0.840146 24:-0.553153 25:-0.4786 26:-0.503428 27:-0.898866 28:-0.569906 29:-0.753223 30:0.0379348 31:-0.78973 32:-0.482558 33:-0.939274 34:-0.888798 35:-0.85094 36:-0.297004 37:0.259956 38:-0.759409 39:-0.140425 40:-1 
-1 1:-0.999621 2:-0.98418 3:-0.62499 4:-0.464411 5:-0.0608181 6:-0.788456 7:0.27447 8:-0.149847 9:0.119415 10:0.627317 11:-0.167026 12:0.125552 13:-0.528965 14:-0.784279 15:-0.624907 16:-0.626015 17:-0.813158 18:-0.917739 19:-0.782194 20:-0.660125 21:-0.885451 22:-0.6067 23:-0.850928 24:-0.141128 25:-0.854631 26:-0.692333 27:-0.798752 28:-0.776183 29:-0.633418 30:-0.499263 31:-0.621741 32:-0.570531 33:-0.984187 34:-0.887006 35:-0.962866 36:-0.403936 37:0.159424 38:-0.961989 39:-0.140425 40:-1 
-1 1:-0.999501 2:-0.977632 3:-0.472024 4:-0.176267 5:-0.326898 6:-0.910841 7:0.0593221 8:-0.785449 9:-0.103604 10:0.376884 11:0.446715 12:0.633612 13:0.0944863 14:-0.831537 15:-0.0297405 16:-0.737599 17:-1 18:-1 19:-0.735917 20:-0.9024 21:-0.605731 22:-0.319699 23:-0.464673 24:-0.17448 25:-0.474272 26:-0.792576 27:-1 28:-1 29:-0.41796 30:-0.714136 31:0.116575 32:-0.727829 33:-0.976521 34:-0.887031 35:-0.447767 36:-0.587595 37:0.00637826 38:-0.450795 39:-0.140425 40:-1 
-1 1:-0.999499 2:-0.980807 3:-0.673151 4:-0.557279 5:-0.225507 6:-0.746842 7:0.166935 8:-0.42766 9:0.0928112 10:0.722045 11:0.183863 12:0.0891848 13:-0.766384 14:-1 15:-1 16:-1 17:-0.664956 18:-0.246461 19:-0.761721 20:-0.973869 21:-0.697544 22:-0.0313098 23:-0.776436 24:0.0049494 25:-0.754544 26:-0.0380653 27:-0.758823 28:-0.557179 29:-0.58039 30:-0.907779 31:-0.516041 32:-0.715638 33:-0.900816 34:-0.887795 35:-0.883197 36:-0.380232 37:0.155894 38:-0.914181 39:-0.140425 40:-1 
-1 1:-0.99975 2:-0.989137 3:-0.270833 4:-0.239172 5:-0.0218465 6:-0.91683 7:0.380212 8:0.548536 9:-0.36212 10:0.276372 11:-0.377062 12:0.584051 13:-0.520827 14:-0.809782 15:-0.301751 16:-0.534824 17:-0.548332 18:-0.144147 19:-0.470556 20:-0.700902 21:-0.801601 22:-0.706195 23:-0.285273 24:-0.00243612 25:-0.179894 26:-0.0111612 27:-0.375505 28:0.0721906 29:-0.455848 30:0.0892034 31:-0.189483 32:-0.48983 33:-0.967021 34:-0.888425 35:-0.982392 36:0.316047 37:0.182827 38:-0.955456 39:-0.140425 40:-1 
-1 1:-0.99941 2:-0.991053 3:-0.275598 4:-0.0569883 5:-0.297164 6:-0.91166 7:0.0700516 8:0.461538 9:-0.388143 10:0.414594 11:0.345809 12:0.762413 13:-0.294465 14:-0.16582 15:-0.317487 16:-0.0629322 17:-1 18:-1 19:-1 20:-1 21:0.214781 22:0.172832 23:0.134309 24:0.0754319 25:-0.0269793 26:0.423679 27:0.291145 28:0.00974381 29:0.835929 30:-0.0242845 31:-0.573832 32:-0.52756 33:-0.90702 34:-0.884244 35:-0.824629 36:0.188346 37:0.245171 38:-0.928353 39:-0.140425 40:-1 
-1 1:-0.99963 2:-0.982942 3:-0.260023 4:-0.48376 5:-0.176721 6:-0.993882 7:-0.214019 8:-0.389674 9:-0.368759 10:0.440006 11:0.18346 12:1 13:-0.681367 14:-0.782228 15:-0.801353 16:-0.60509 17:-0.375087 18:-0.171793 19:-0.982531 20:-0.964826 21:-0.810506 22:-0.406302 23:-1 24:-1 25:-0.835142 26:-0.580275 27:-0.845348 28:-0.561167 29:-0.831331 30:-0.664601 31:-0.844216 32:-0.660541 33:-0.946433 34:-0.899732 35:-0.769199 36:-0.554094 37:0.206111 38:-0.868177 39:-0.140425 40:-1 
-1 1:-0.999725 2:-0.987647 3:-0.362197 4:-0.228691 5:-0.160745 6:-0.892085 7:0.421089 8:0.300131 9:-0.192407 10:0.372662 11:0.0861219 12:0.543069 13:-0.286932 14:-0.568651 15:-0.867721 16:-0.909461 17:-0.823738 18:-0.480014 19:-0.691074 20:-0.612443 21:-0.670761 22:-0.305644 23:-0.482882 24:0.16474 25:-0.424846 26:-0.333033 27:-0.605302 28:-0.47254 29:-0.398748 30:-0.360647 31:-0.878145 32:-0.299506 33:-0.899257 34:-0.931239 35:-0.493647 36:-0.284185 37:0.285809 38:-0.801766 39:-0.140425 40:-1 
-1 1:-0.999669 2:-0.982645 3:-0.216458 4:-0.105689 5:-0.0370648 6:-0.964404 7:0.242515 8:-0.368365 9:-0.474504 10:0.183756 11:-0.31169 12:0.925415 13:-0.766384 14:-1 15:-0.636513 16:-0.650132 17:-0.378004 18:-0.0736717 19:0.045434 20:0.101572 21:-0.532926 22:-0.519345 23:-0.805854 24:-0.381395 25:-0.325286 26:-0.119082 27:-0.378966 28:-0.62664 29:-0.471495 30:-0.201337 31:-0.601027 32:-0.58662 33:-0.903288 34:-0.864581 35:-0.815484 36:-0.319711 37:0.03299 38:-0.862024 39:-0.140425 40:-1 
-1 1:-0.999733 2:-0.991218 3:-0.179618 4:0.263506 5:-0.223611 6:-0.880792 7:0.558835 8:0.539428 9:-0.519443 10:0.0799669 11:0.2109 12:0.604503 13:-0.766384 14:-1 15:-1 16:-1 17:-0.791262 18:-0.338302 19:0.0543576 20:0.432851 21:-0.0322597 22:-0.038669 23:-0.513348 24:-0.575912 25:-0.796575 26:-0.982918 27:-0.55099 28:-0.69395 29:-0.707129 30:-0.309242 31:0.189922 32:-0.652645 33:-0.881823 34:-0.896196 35:-0.821238 36:-0.536736 37:0.180981 38:-0.842916 39:-0.140425 40:-1 
-1 1:-0.999589 2:-0.992223 3:-0.293587 4:-0.174197 5:-0.140507 6:-0.946634 7:0.0841505 8:0.780569 9:-0.339315 10:0.275771 11:0.0206919 12:0.74791 13:-0.403047 14:-0.758817 15:-0.52295 16:-0.208571 17:-0.835164 18:-0.384588 19:-0.889604 20:-0.364709 21:-0.767706 22:-0.626889 23:-0.826584 24:-0.355794 25:-0.437647 26:-0.328981 27:-0.46603 28:-0.320416 29:-1 30:-1 31:-0.867499 32:-0.653274 33:-0.932702 34:-0.864497 35:-0.510992 36:-0.502385 37:0.151578 38:-0.736214 39:-0.140425 40:-1 
-0.451400572831345 1:-0.999724 2:-0.990759 3:-0.221819 4:-0.0238564 5:-0.178005 6:-0.959967 7:0.312732 8:0.705261 9:-0.463068 10:0.0295122 11:0.139192 12:0.802249 13:-0.361268 14:-0.483741 15:0.455216 16:0.165489 17:-0.075361 18:0.0800021 19:0.445087 20:0.212239 21:-1 22:-1 23:0.302438 24:-0.643666 25:-0.327608 26:-0.708939 27:-1 28:-1 29:-1 30:-1 31:-1 32:-1 33:-0.907294 34:-0.892023 35:-0.9874 36:-0.35735 37:0.0881712 38:-0.867663 39:-0.140425 40:-1 
-1 1:-0.999736 2:-0.986874 3:-0.472167 4:-0.302491 5:-0.0652101 6:-0.84986 7:0.441707 8:0.173835 9:-0.0150288 10:0.450842 11:-0.196207 12:0.310075 13:-0.766384 14:-1 15:-0.322626 16:-0.396765 17:-0.399552 18:-0.223177 19:-0.995218 20:-0.479636 21:-0.870974 22:-0.815087 23:-0.735098 24:-0.453209 25:-0.443809 26:-0.267413 27:-0.498187 28:-0.501815 29:-0.160068 30:-0.677259 31:-1 32:-1 33:-0.937227 34:-0.913499 35:-0.782556 36:-0.559906 37:0.117495 38:-0.805106 39:-0.140425 40:-1 
-11:-0.99982 2:-0.984914 3:-0.183264 4:-0.23207 5:-0.196383 6:-0.953291 7:0.488733 8:-0.0338377 9:-0.572774 10:0.110289 11:0.272608 12:0.782471 13:-0.766384 14:-1 15:-0.984342 16:-0.404856 17:-1 18:-1 19:-0.6043 20:-0.471327 21:-1 22:-1 23:-0.190437 24:-0.739094 25:0.0113493 26:-0.404342 27:-0.235444 28:-0.204881 29:0.181079 30:-0.60834 31:-0.330706 32:-0.735335 33:-0.945839 34:-0.844411 35:-0.527917 36:-0.514544 37:0.172245 38:-0.923451 39:-0.140425 40:-1 
-1 1:-0.999422 2:-0.981832 3:-0.568207 4:-0.513825 5:-0.25176 6:-0.879716 7:-0.104674 8:-0.381218 9:0.0399184 10:0.654607 11:0.277797 12:0.488353 13:0.000901242 14:-0.298913 15:-0.466318 16:-0.578081 17:-0.568047 18:-0.255769 19:-0.549737 20:-0.189735 21:-1 22:-1 23:-0.560615 24:-0.906551 25:-0.439069 26:-0.710523 27:-0.358271 28:-0.828925 29:0.00643856 30:-0.66613 31:0.199237 32:-0.763687 33:-0.91975 34:-0.858484 35:-0.732851 36:-0.727922 37:0.158295 38:-0.640902 39:-0.140425 40:-1 
-1 1:-0.999494 2:-0.981829 3:-0.553373 4:-0.438824 5:-0.207557 6:-0.869363 7:0.0301038 8:-0.390611 9:0.0353129 10:0.614462 11:0.180789 12:0.466653 13:0.294894 14:-0.684535 15:-0.0194473 16:-0.782737 17:-0.60441 18:-0.707381 19:-0.857151 20:-0.270525 21:-0.672894 22:-0.350667 23:-0.818764 24:-0.851444 25:-0.547584 26:-0.517167 27:-0.530078 28:-0.690977 29:-0.190557 30:-0.524574 31:-1 32:-1 33:-0.955057 34:-0.915894 35:-0.57918 36:-0.496813 37:0.322091 38:-0.668533 39:-0.140425 40:-1 
-1 1:-0.999546 2:-0.982541 3:-0.544311 4:-0.513929 5:-0.247078 6:-0.881571 7:0.00154404 8:-0.339027 9:0.0740589 10:0.617335 11:0.306643 12:0.423466 13:-0.335283 14:-0.418008 15:-0.388379 16:-0.0225668 17:-0.429874 18:-0.0747641 19:-0.493919 20:-0.0583967 21:-0.79208 22:-0.695487 23:-0.441009 24:-0.815467 25:-0.759354 26:-0.570147 27:-0.519386 28:-0.361299 29:-0.695583 30:-0.911625 31:-0.836696 32:-0.875448 33:-0.913969 34:-0.896864 35:-0.957928 36:-0.644541 37:0.114011 38:-0.971734 39:-0.140425 40:-1 
-1 1:-0.999458 2:-0.982076 3:-0.626424 4:-0.524162 5:-0.253611 6:-0.850731 7:-0.0299532 8:-0.350566 9:0.107382 10:0.651697 11:0.274135 12:0.363305 13:-0.335127 14:-0.415936 15:-0.901152 16:-0.448117 17:-0.481156 18:-0.0669673 19:-0.443404 20:-0.0570171 21:-0.840348 22:-0.723908 23:-0.483686 24:-0.798009 25:-0.554152 26:-0.150104 27:-0.876085 28:-0.71781 29:-0.887391 30:-0.902749 31:-0.803422 32:-0.856111 33:-0.904654 34:-0.895417 35:-0.963276 36:-0.619959 37:0.126914 38:-0.966745 39:-0.140425 40:-1 
-1 1:-0.99997 2:-0.984408 3:-0.26899 4:-0.553851 5:-0.108492 6:-0.930144 7:0.887839 8:-0.125067 9:-0.263248 10:0.25027 11:-0.195803 12:0.119495 13:-0.733785 14:-0.844886 15:-1 16:-1 17:-0.865775 18:-0.964183 19:-0.940573 20:-0.481259 21:-0.835161 22:-0.345576 23:-0.811353 24:-0.379141 25:-0.602073 26:-0.18092 27:-0.714883 28:-0.346242 29:-0.759617 30:-0.782363 31:-0.782713 32:-0.857183 33:-0.938211 34:-0.893953 35:-0.742999 36:-0.648713 37:0.060631 38:-0.936245 39:-0.140425 40:-1 
-1 1:-0.999734 2:-0.985561 3:-0.263007 4:-0.67497 5:-0.10994 6:-0.95124 7:-0.0539784 8:0.137318 9:-0.337398 10:0.730935 11:-0.12896 12:0.626428 13:-0.554601 14:-0.650949 15:-0.838208 16:-0.44236 17:-0.875077 18:-0.949064 19:-0.428186 20:-0.289615 21:-0.418804 22:-0.144099 23:-0.422452 24:-0.151179 25:-0.738135 26:-0.488096 27:-0.594405 28:-0.561661 29:-0.701196 30:-0.541828 31:-0.673412 32:-0.648104 33:-0.944063 34:-0.899183 35:-0.93203 36:-0.439215 37:0.0323846 38:-0.93993 39:-0.140425 40:-1 
-1 1:-0.999949 2:-0.984187 3:-0.279675 4:-0.761369 5:-0.151933 6:-0.958738 7:0.497676 8:-0.243998 9:-0.0507072 10:0.643874 11:0.229506 12:0.0133224 13:-0.337773 14:-0.745051 15:-1 16:-1 17:-0.79915 18:-0.779766 19:-0.739271 20:-0.694517 21:-0.816131 22:-0.938659 23:-0.709347 24:-0.569798 25:-0.93631 26:-0.615923 27:-1 28:-1 29:-0.719298 30:-0.659325 31:-0.582777 32:-0.84981 33:-0.987617 34:-0.885353 35:-0.876865 36:-0.694326 37:0.119799 38:-0.958602 39:-0.140425 40:-1 
-1 1:-0.999966 2:-0.98496 3:-0.247438 4:-0.732029 5:-0.0870754 6:-0.96279 7:0.638387 8:0.197632 9:-0.300827 10:0.460971 11:-0.64814 12:0.0374448 13:-0.766384 14:-1 15:-1 16:-1 17:-1 18:-1 19:-0.967839 20:-0.637403 21:-0.867213 22:-0.962669 23:-0.945743 24:-0.960395 25:-0.85749 26:-0.874571 27:-0.867701 28:-0.852393 29:-0.670441 30:-0.843533 31:-0.726686 32:-0.848031 33:-0.987283 34:-0.899759 35:-0.941557 36:-0.754025 37:0.0761961 38:-1 39:-0.140425 40:-1 
