svm_type c_svc
kernel_type rbf
gamma 0.5
nr_class 2
total_sv 3730
rho 22.704
label 1 -1
nr_sv 1863 1867
SV
8 1:-0.780429 2:0.181974 3:-0.408615 4:-0.718084 5:-0.304074 6:-0.680602 
8 1:-0.613606 2:0.11007 3:-0.402846 4:-0.61211 5:-0.178637 6:-0.676036 
8 1:-0.606947 2:0.132783 3:-0.402465 4:-0.629988 5:-0.15717 6:-0.690821 
8 1:-0.794844 2:0.207186 3:-0.265852 4:-0.48454 5:-0.397626 6:-0.705607 
8 1:-0.576228 2:-0.277796 3:-0.51617 4:-0.755376 5:0.163887 6:-0.530191 
8 1:-0.76212 2:0.215786 3:-0.295109 4:-0.52583 5:-0.3636 6:-0.678766 
8 1:-0.709318 2:0.256999 3:-0.328668 4:-0.606902 5:-0.358164 6:-0.672776 
8 1:-0.787474 2:0.270433 3:-0.300428 4:-0.538533 5:-0.350831 6:-0.658217 
8 1:-0.594584 2:-0.333083 3:-0.442601 4:-0.751985 5:0.126088 6:-0.567542 
8 1:-0.62254 2:-0.00590744 3:-0.417065 4:-0.742258 5:-0.110341 6:-0.63246 
8 1:-0.59559 2:-0.293926 3:-0.467842 4:-0.752078 5:0.12336 6:-0.569718 
8 1:-0.661105 2:-0.312756 3:-0.423012 4:-0.682481 5:0.124262 6:-0.601762 
8 1:-0.55857 2:0.160214 3:-0.436179 4:-0.839398 5:-0.150098 6:-0.647769 
8 1:-0.603914 2:0.158947 3:-0.42457 4:-0.838128 5:-0.150661 6:-0.626836 
8 1:-0.632378 2:0.233921 3:-0.407502 4:-0.823706 5:-0.184696 6:-0.641043 
8 1:-0.615436 2:0.236755 3:-0.415765 4:-0.813687 5:-0.183311 6:-0.641427 
8 1:-0.656965 2:0.264934 3:-0.405024 4:-0.817395 5:-0.188489 6:-0.621857 
8 1:-0.656965 2:0.264934 3:-0.405024 4:-0.817395 5:-0.188489 6:-0.621857 
8 1:-0.671692 2:-0.143263 3:-0.358453 4:-0.809434 5:-0.0105694 6:-0.640151 
8 1:-0.647623 2:-0.120776 3:-0.421434 4:-0.776269 5:0.0160023 6:-0.685703 
8 1:-0.841596 2:-0.154556 3:-0.297756 4:-0.62851 5:0.0677527 6:-0.627653 
8 1:-0.534393 2:-0.126942 3:-0.359614 4:-0.93279 5:-0.0468656 6:-0.682887 
8 1:-0.818 2:-0.18119 3:-0.300105 4:-0.589907 5:0.0962016 6:-0.637904 
8 1:-0.5 2:-0.0140607 3:-0.377404 4:-0.968432 5:-0.0826609 6:-0.684059 
8 1:-0.843819 2:-0.164565 3:-0.283813 4:-0.631609 5:0.111296 6:-0.639176 
8 1:-0.483115 2:-0.00436409 3:-0.384673 4:-0.974556 5:-0.0958466 6:-0.583926 
8 1:-0.876187 2:-0.113513 3:-0.285192 4:-0.539384 5:0.17546 6:-0.604053 
8 1:-0.637674 2:0.10865 3:-0.422662 4:-0.859594 5:-0.152157 6:-0.6777 
8 1:-0.696175 2:-0.205493 3:-0.354948 4:-0.805587 5:0.0587201 6:-0.642196 
8 1:-0.606418 2:0.168345 3:-0.379584 4:-0.90086 5:-0.152673 6:-0.643768 
8 1:-0.653887 2:-0.244845 3:-0.388988 4:-0.771764 5:0.0558892 6:-0.646762 
8 1:-0.627868 2:0.105304 3:-0.363798 4:-0.901645 5:-0.14363 6:-0.618895 
8 1:-0.670825 2:-0.250792 3:-0.368074 4:-0.758186 5:0.063393 6:-0.635977 
8 1:-0.450587 2:-0.0456578 3:-0.36716 4:-0.985181 5:-0.102902 6:-0.51588 
8 1:-0.678661 2:-0.228527 3:-0.382879 4:-0.770476 5:0.0840845 6:-0.611227 
8 1:-0.741803 2:0.178778 3:-0.308344 4:-0.881913 5:-0.172017 6:-0.60853 
8 1:-0.690289 2:-0.23306 3:-0.352358 4:-0.765583 5:0.0656418 6:-0.607089 
8 1:-0.495083 2:0.0653372 3:-0.338122 4:-0.99564 5:-0.124761 6:-0.598797 
8 1:-0.689136 2:-0.214472 3:-0.350831 4:-0.777998 5:0.0761004 6:-0.605559 
8 1:-0.679107 2:-0.201998 3:-0.342908 4:-0.777105 5:0.0738843 6:-0.617674 
8 1:-0.610974 2:0.0649876 3:-0.309897 4:-0.926719 5:-0.123902 6:-0.54007 
8 1:-0.695093 2:-0.206569 3:-0.353486 4:-0.78149 5:0.0832977 6:-0.636843 
8 1:-0.793942 2:0.194902 3:-0.313748 4:-0.768226 5:-0.204179 6:-0.662786 
8 1:-0.810407 2:0.187525 3:-0.311302 4:-0.89005 5:-0.0848841 6:-0.618443 
8 1:-0.618076 2:0.00810977 3:-0.369934 4:-0.871891 5:-0.158661 6:-0.6513 
8 1:-0.789015 2:-0.291221 3:-0.324109 4:-0.466251 5:0.189434 6:-0.660255 
8 1:-0.725697 2:0.203049 3:-0.307973 4:-0.875187 5:-0.170688 6:-0.594943 
8 1:-0.827978 2:-0.238349 3:-0.293061 4:-0.348504 5:0.201206 6:-0.664616 
8 1:-0.719147 2:0.0360367 3:-0.333954 4:-0.871621 5:-0.177711 6:-0.659792 
8 1:-0.843275 2:-0.17704 3:-0.274595 4:-0.42975 5:0.169739 6:-0.6594 
8 1:-0.629707 2:0.137982 3:-0.339192 4:-0.93569 5:-0.175387 6:-0.589276 
8 1:-0.836824 2:-0.195271 3:-0.289096 4:-0.395184 5:0.209443 6:-0.655517 
8 1:-0.768506 2:0.139857 3:-0.280569 4:-0.925015 5:-0.165612 6:-0.556788 
8 1:-0.828559 2:-0.169624 3:-0.265448 4:-0.428414 5:0.186484 6:-0.663423 
8 1:-0.733901 2:0.126005 3:-0.315856 4:-0.881805 5:-0.0315671 6:-0.650185 
8 1:-0.744015 2:0.12082 3:-0.307922 4:-0.878774 5:-0.0101894 6:-0.650053 
8 1:-0.749393 2:0.124708 3:-0.299207 4:-0.884967 5:-0.0293611 6:-0.636889 
8 1:-0.716874 2:0.0601991 3:-0.344971 4:-0.892307 5:-0.168388 6:-0.655497 
8 1:-0.738165 2:0.124051 3:-0.324723 4:-0.872215 5:-0.0166917 6:-0.625938 
8 1:-0.680991 2:0.118849 3:-0.368089 4:-0.88521 5:-0.181916 6:-0.62896 
8 1:-0.73018 2:0.118836 3:-0.305808 4:-0.88529 5:-0.0291155 6:-0.620471 
8 1:-0.713612 2:0.124258 3:-0.329811 4:-0.878349 5:-0.188062 6:-0.673205 
8 1:-0.736263 2:0.10234 3:-0.288004 4:-0.880322 5:0.00186719 6:-0.620791 
8 1:0.416002 2:0.262902 3:-0.696157 4:-0.878082 5:-0.210181 6:-0.58231 
8 1:-0.741264 2:0.119777 3:-0.286197 4:-0.893868 5:-0.00402138 6:-0.635331 
8 1:-0.759968 2:0.13851 3:-0.26974 4:-0.904511 5:-0.0128363 6:-0.605416 
8 1:-0.734002 2:0.0640559 3:-0.375598 4:-0.915871 5:-0.199785 6:-0.601599 
8 1:-0.750948 2:0.139856 3:-0.284138 4:-0.884278 5:-0.000577278 6:-0.621494 
8 1:-0.939737 2:0.0545424 3:-0.192759 4:-0.915253 5:-0.123123 6:-0.725245 
8 1:-0.742242 2:0.146232 3:-0.280253 4:-0.902504 5:-0.0347976 6:-0.637795 
8 1:-0.942329 2:0.0555575 3:-0.181035 4:-0.928826 5:-0.105138 6:-0.712012 
8 1:-0.729988 2:0.159862 3:-0.311942 4:-0.890405 5:-0.0469318 6:-0.630458 
8 1:-0.754435 2:0.0973173 3:-0.335463 4:-0.930115 5:-0.187156 6:-0.598851 
8 1:-0.752685 2:0.150331 3:-0.260443 4:-0.885594 5:-0.00441602 6:-0.637707 
8 1:-0.747507 2:0.112123 3:-0.346273 4:-0.920258 5:-0.172255 6:-0.616333 
8 1:-0.752068 2:0.157774 3:-0.289002 4:-0.887985 5:-0.0218745 6:-0.632606 
8 1:-0.710537 2:0.0426946 3:-0.35248 4:-0.936322 5:-0.158437 6:-0.649321 
8 1:-0.697396 2:0.145604 3:-0.246288 4:-0.922841 5:-0.0540333 6:-0.641284 
8 1:-0.676746 2:0.00745244 3:-0.353064 4:-0.932743 5:-0.152335 6:-0.657442 
8 1:-0.760097 2:0.163092 3:-0.259802 4:-0.868993 5:0.00744673 6:-0.648709 
8 1:-0.724824 2:0.0473968 3:-0.368031 4:-0.932824 5:-0.149257 6:-0.668218 
8 1:-0.752826 2:0.159509 3:-0.261979 4:-0.869212 5:-0.00234254 6:-0.626698 
8 1:-0.948871 2:0.04285 3:-0.231153 4:-0.897734 5:-0.018197 6:-0.733277 
8 1:-0.740911 2:0.159915 3:-0.250517 4:-0.869408 5:0.00286682 6:-0.651226 
8 1:-0.966929 2:0.047687 3:-0.211696 4:-0.872044 5:-0.0359529 6:-0.745786 
8 1:-0.732915 2:0.185886 3:-0.263994 4:-0.882145 5:-0.0375533 6:-0.633326 
8 1:-0.637886 2:0.0747852 3:-0.347777 4:-0.857891 5:-0.164439 6:-0.72129 
8 1:-0.752382 2:0.154134 3:-0.255059 4:-0.893501 5:-0.0323076 6:-0.602443 
8 1:-0.741804 2:0.163083 3:-0.280119 4:-0.864892 5:-0.0214769 6:-0.638899 
8 1:-0.971149 2:0.0332203 3:-0.21821 4:-0.849517 5:-0.0100543 6:-0.752047 
8 1:-0.738426 2:0.153897 3:-0.25789 4:-0.892765 5:-0.0346142 6:-0.618486 
8 1:-0.6821 2:-0.135445 3:-0.358327 4:-0.707932 5:-0.0481316 6:-0.626015 
8 1:-0.609813 2:-0.0242207 3:-0.343514 4:-0.765916 5:-0.131202 6:-0.629052 
8 1:0.277751 2:0.208537 3:-0.611588 4:-0.739618 5:-0.228995 6:-0.715409 
8 1:-0.577566 2:-0.0939679 3:-0.368857 4:-0.778304 5:-0.0653915 6:-0.637601 
8 1:-0.598496 2:-0.0932824 3:-0.35238 4:-0.777351 5:-0.102889 6:-0.631416 
8 1:-0.968401 2:0.0341482 3:-0.22498 4:-0.874052 5:-0.0415406 6:-0.782546 
8 1:-0.580797 2:-0.0980572 3:-0.374227 4:-0.786179 5:-0.0854283 6:-0.629106 
8 1:-0.615139 2:-0.196673 3:-0.377266 4:-0.722666 5:-0.0403723 6:-0.622589 
8 1:-0.574586 2:-0.182652 3:-0.366246 4:-0.736562 5:-0.0539718 6:-0.62886 
8 1:-0.600096 2:-0.138287 3:-0.359645 4:-0.743158 5:-0.101744 6:-0.639988 
8 1:-0.794654 2:0.335132 3:-0.207964 4:-0.467038 5:0.129293 6:-0.634373 
8 1:-0.78012 2:0.34036 3:-0.20879 4:-0.513031 5:0.089143 6:-0.647706 
8 1:-0.552645 2:-0.052289 3:-0.355885 4:-0.814672 5:-0.113508 6:-0.639342 
8 1:-0.76497 2:0.382043 3:-0.204666 4:-0.467154 5:0.118846 6:-0.614969 
8 1:-0.819977 2:0.0999693 3:-0.285971 4:-0.892525 5:-0.19566 6:-0.698587 
8 1:-0.783137 2:0.361974 3:-0.213225 4:-0.494048 5:0.100687 6:-0.653384 
8 1:-0.945534 2:0.0631334 3:-0.294102 4:-0.901801 5:-0.0968146 6:-0.724784 
8 1:-0.751853 2:0.395568 3:-0.2023 4:-0.489399 5:0.0907118 6:-0.633787 
8 1:-0.773674 2:0.37283 3:-0.222163 4:-0.517997 5:0.0836254 6:-0.65687 
8 1:-0.985967 2:0.0176973 3:-0.248057 4:-0.802593 5:-0.050517 6:-0.82655 
8 1:-0.775581 2:0.371379 3:-0.205079 4:-0.485939 5:0.123285 6:-0.640126 
8 1:-0.983622 2:0.020864 3:-0.257826 4:-0.802981 5:-0.0486556 6:-0.810704 
8 1:-0.571401 2:-0.0600679 3:-0.367532 4:-0.830713 5:-0.0891609 6:-0.653273 
8 1:-0.772815 2:0.375537 3:-0.198175 4:-0.556843 5:0.0987945 6:-0.636763 
8 1:-0.589197 2:-0.0596935 3:-0.35118 4:-0.83826 5:-0.0884698 6:-0.622221 
8 1:-0.79913 2:-0.100646 3:-0.244875 4:-0.793537 5:0.0331487 6:-0.776158 
8 1:-0.588896 2:-0.0469307 3:-0.338778 4:-0.838361 5:-0.11557 6:-0.618283 
8 1:-0.786703 2:0.0391579 3:-0.236135 4:-0.898326 5:-0.200723 6:-0.737988 
8 1:-0.746763 2:0.388066 3:-0.185144 4:-0.583658 5:0.0865094 6:-0.621517 
8 1:-0.792653 2:0.0221027 3:-0.269223 4:-0.894834 5:0.0332188 6:-0.717948 
8 1:-0.573083 2:-0.0402427 3:-0.349056 4:-0.833057 5:-0.113892 6:-0.647471 
8 1:-0.80221 2:0.0636079 3:-0.267608 4:-0.893342 5:0.0107669 6:-0.744036 
8 1:-0.573083 2:-0.0402427 3:-0.349056 4:-0.833057 5:-0.113892 6:-0.647471 
8 1:-0.80221 2:0.0636079 3:-0.267608 4:-0.893342 5:0.0107669 6:-0.744036 
8 1:-0.573083 2:-0.0402427 3:-0.349056 4:-0.833057 5:-0.113892 6:-0.647471 
8 1:-0.80221 2:0.0636079 3:-0.267608 4:-0.893342 5:0.0107669 6:-0.744036 
8 1:-0.573083 2:-0.0402427 3:-0.349056 4:-0.833057 5:-0.113892 6:-0.647471 
8 1:-0.80221 2:0.0636079 3:-0.267608 4:-0.893342 5:0.0107669 6:-0.744036 
8 1:-0.573083 2:-0.0402427 3:-0.349056 4:-0.833057 5:-0.113892 6:-0.647471 
8 1:-0.80221 2:0.0636079 3:-0.267608 4:-0.893342 5:0.0107669 6:-0.744036 
8 1:-0.743013 2:0.429515 3:-0.172857 4:-0.562091 5:0.112696 6:-0.633941 
8 1:-0.782811 2:0.0913859 3:-0.264717 4:-0.888774 5:0.0271924 6:-0.739503 
8 1:-0.780967 2:-0.0104962 3:-0.266798 4:-0.913458 5:-0.122247 6:-0.808258 
8 1:-0.687506 2:-0.192947 3:-0.336103 4:-0.775638 5:-0.0181433 6:-0.614592 
8 1:-0.82818 2:0.164131 3:-0.247908 4:-0.827889 5:0.0174847 6:-0.769594 
8 1:-0.687607 2:-0.19564 3:-0.343108 4:-0.768738 5:-0.03906 6:-0.62554 
8 1:-0.779769 2:-0.0354783 3:-0.281459 4:-0.901877 5:-0.137298 6:-0.792632 
8 1:-0.797121 2:0.000588057 3:-0.278479 4:-0.919369 5:-0.138339 6:-0.784076 
8 1:-0.665681 2:-0.183248 3:-0.343573 4:-0.803718 5:-0.0229491 6:-0.625026 
8 1:-0.762182 2:0.0675835 3:-0.259501 4:-0.874777 5:-0.21038 6:-0.75329 
8 1:-0.715743 2:0.303947 3:-0.161287 4:-0.795804 5:0.0122011 6:-0.635291 
8 1:-0.777529 2:0.0310904 3:-0.293458 4:-0.918666 5:-0.196883 6:-0.691442 
8 1:-0.649171 2:-0.0121984 3:-0.359968 4:-0.890524 5:-0.0804788 6:-0.630647 
7.310150282699249 1:-0.690366 2:-0.200742 3:-0.365236 4:-0.774152 5:0.0350542 6:-0.610746 
8 1:-0.777299 2:-0.110051 3:-0.208328 4:-0.874424 5:-0.269149 6:-0.601768 
8 1:-0.684426 2:-0.222617 3:-0.357772 4:-0.765852 5:0.0207755 6:-0.608342 
8 1:-0.825408 2:0.0695943 3:-0.30569 4:-0.868369 5:0.0364484 6:-0.689555 
8 1:-0.724599 2:0.274875 3:-0.141962 4:-0.798504 5:0.0271182 6:-0.611804 
8 1:-0.774522 2:0.177957 3:-0.327916 4:-0.904314 5:0.0523692 6:-0.551787 
8 1:-0.716672 2:0.344681 3:-0.139118 4:-0.736074 5:0.0381705 6:-0.59687 
8 1:-0.832207 2:0.0669368 3:-0.30525 4:-0.868828 5:0.0116287 6:-0.698441 
8 1:-0.725265 2:0.331467 3:-0.143097 4:-0.734486 5:0.0353917 6:-0.595412 
8 1:-0.725063 2:0.0626346 3:-0.247178 4:-0.901996 5:-0.204222 6:-0.715998 
8 1:-0.652873 2:0.0298728 3:-0.368444 4:-0.897917 5:-0.0783216 6:-0.616107 
8 1:-0.83962 2:0.0744271 3:-0.284922 4:-0.887276 5:-0.00506749 6:-0.654202 
8 1:-0.702972 2:0.314763 3:-0.147663 4:-0.758976 5:0.0132725 6:-0.617154 
8 1:-0.742823 2:0.0616497 3:-0.242344 4:-0.90886 5:-0.188022 6:-0.664804 
8 1:-0.700232 2:0.300964 3:-0.145879 4:-0.803094 5:-0.000389744 6:-0.626095 
8 1:-0.707038 2:0.312619 3:-0.147386 4:-0.753686 5:0.0136337 6:-0.608868 
8 1:-0.79679 2:-0.0974794 3:-0.20091 4:-0.905863 5:-0.216318 6:-0.558775 
8 1:-0.720633 2:0.317659 3:-0.163157 4:-0.742672 5:-0.0127334 6:-0.635882 
8 1:-0.820949 2:0.132654 3:-0.275913 4:-0.909072 5:0.0179331 6:-0.548565 
8 1:-0.711024 2:0.295284 3:-0.13789 4:-0.75565 5:0.000632723 6:-0.609717 
8 1:-0.834752 2:-0.0259867 3:-0.194269 4:-0.944665 5:-0.189502 6:-0.556594 
8 1:-0.689419 2:0.336702 3:-0.144044 4:-0.746728 5:-0.0251496 6:-0.625409 
8 1:-0.829034 2:0.0887553 3:-0.322224 4:-0.95165 5:-0.0292212 6:-0.580214 
8 1:-0.705371 2:0.309723 3:-0.172035 4:-0.763174 5:-0.0520913 6:-0.63091 
8 1:-0.856396 2:-0.0486226 3:-0.194547 4:-0.922611 5:-0.191638 6:-0.580972 
8 1:-0.705811 2:0.254926 3:-0.159482 4:-0.827756 5:-0.0193634 6:-0.636037 
8 1:-0.841596 2:0.0967426 3:-0.324358 4:-0.948932 5:-0.0323616 6:-0.543975 
8 1:-0.673919 2:0.253614 3:-0.153282 4:-0.833418 5:-0.0636373 6:-0.604501 
8 1:-0.852868 2:0.0986749 3:-0.303516 4:-0.950818 5:-0.0570963 6:-0.48777 
8 1:-0.670867 2:0.244289 3:-0.154431 4:-0.829862 5:-0.0613736 6:-0.624499 
8 1:-0.851772 2:0.0824599 3:-0.324416 4:-0.959541 5:-0.0519122 6:-0.545422 
8 1:-0.654366 2:0.226077 3:-0.158906 4:-0.862071 5:-0.0855856 6:-0.625832 
8 1:-0.85803 2:0.089013 3:-0.302098 4:-0.956261 5:-0.0651505 6:-0.489617 
8 1:-0.658971 2:0.250872 3:-0.149313 4:-0.823375 5:-0.0643328 6:-0.615841 
8 1:-0.839798 2:0.126893 3:-0.322523 4:-0.940196 5:-0.0752024 6:-0.545342 
8 1:-0.694592 2:0.188015 3:-0.151432 4:-0.870308 5:-0.0832891 6:-0.61929 
8 1:-0.677714 2:0.178835 3:-0.167062 4:-0.827963 5:-0.0993272 6:-0.605674 
8 1:-0.674745 2:0.175826 3:-0.147621 4:-0.829312 5:-0.0887133 6:-0.599389 
8 1:-0.636799 2:0.0351817 3:-0.366567 4:-0.85478 5:-0.06345 6:-0.605293 
8 1:-0.677204 2:0.020852 3:-0.335376 4:-0.845256 5:-0.0401799 6:-0.621346 
8 1:-0.852561 2:-0.0229013 3:-0.288384 4:-0.952535 5:-0.0858584 6:-0.604593 
8 1:-0.697309 2:0.0287994 3:-0.31789 4:-0.849086 5:-0.00426191 6:-0.61561 
8 1:-0.670235 2:0.119746 3:-0.142866 4:-0.843907 5:-0.108099 6:-0.620033 
8 1:-0.865874 2:-0.109185 3:-0.286517 4:-0.849559 5:-0.0448432 6:-0.683996 
8 1:-0.654701 2:-0.00850443 3:-0.360443 4:-0.852762 5:-0.0443655 6:-0.646036 
8 1:-0.640608 2:0.127118 3:-0.146413 4:-0.828113 5:-0.116827 6:-0.619133 
8 1:-0.864711 2:-0.105603 3:-0.291062 4:-0.888209 5:-0.0435398 6:-0.669545 
8 1:-0.627668 2:0.0456927 3:-0.13477 4:-0.800849 5:-0.140643 6:-0.636552 
8 1:-0.856915 2:-0.0941352 3:-0.295087 4:-0.904512 5:-0.0511954 6:-0.669571 
8 1:-0.633015 2:0.0263905 3:-0.133066 4:-0.814383 5:-0.177967 6:-0.63035 
8 1:-0.865145 2:-0.0832339 3:-0.292156 4:-0.898684 5:-0.0419583 6:-0.694161 
8 1:-0.60813 2:0.000350421 3:-0.131759 4:-0.830164 5:-0.160791 6:-0.634776 
8 1:-0.853565 2:-0.088722 3:-0.28315 4:-0.887394 5:-0.0447334 6:-0.694481 
8 1:-0.63595 2:0.0379685 3:-0.143854 4:-0.822758 5:-0.15539 6:-0.632631 
8 1:-0.830392 2:-0.0147765 3:-0.26577 4:-0.921958 5:-0.0305741 6:-0.650396 
8 1:-0.600799 2:0.0485506 3:-0.131229 4:-0.82441 5:-0.178581 6:-0.626675 
8 1:-0.852868 2:-0.0701765 3:-0.281259 4:-0.90304 5:-0.0616085 6:-0.72859 
8 1:-0.617189 2:0.00561698 3:-0.111909 4:-0.827173 5:-0.182303 6:-0.61016 
8 1:-0.849061 2:-0.043508 3:-0.28424 4:-0.936227 5:-0.0679422 6:-0.710731 
8 1:-0.598577 2:0.00231804 3:-0.134347 4:-0.824736 5:-0.186197 6:-0.635762 
8 1:-0.854303 2:-0.0933967 3:-0.259907 4:-0.901859 5:-0.0459072 6:-0.735045 
8 1:-0.583273 2:0.0139437 3:-0.130069 4:-0.798177 5:-0.188049 6:-0.623979 
8 1:-0.85359 2:-0.0147989 3:-0.274534 4:-0.942258 5:-0.093697 6:-0.705118 
8 1:-0.58037 2:-0.0298361 3:-0.117551 4:-0.821545 5:-0.171585 6:-0.644097 
8 1:-0.854516 2:-0.040985 3:-0.272291 4:-0.930297 5:-0.0755558 6:-0.717204 
8 1:-0.594585 2:-0.0417729 3:-0.131831 4:-0.799894 5:-0.191749 6:-0.649344 
8 1:-0.843619 2:-0.0497167 3:-0.244288 4:-0.941424 5:-0.0670294 6:-0.714614 
8 1:-0.629212 2:0.000188463 3:-0.137284 4:-0.785166 5:-0.191488 6:-0.637344 
8 1:-0.858265 2:-0.0355437 3:-0.249518 4:-0.936921 5:-0.0508445 6:-0.73512 
8 1:-0.634417 2:-0.0327731 3:-0.128878 4:-0.770893 5:-0.220428 6:-0.617669 
8 1:-0.848119 2:-0.00878813 3:-0.2605 4:-0.937214 5:-0.0699746 6:-0.716444 
8 1:-0.640995 2:-0.0314123 3:-0.141207 4:-0.789404 5:-0.20519 6:-0.635022 
8 1:-0.845821 2:-0.010054 3:-0.239763 4:-0.946144 5:-0.0814391 6:-0.754086 
8 1:-0.638514 2:-0.0630091 3:-0.13509 4:-0.771498 5:-0.21818 6:-0.638953 
8 1:-0.824033 2:-0.0198914 3:-0.255655 4:-0.930669 5:-0.0884101 6:-0.732851 
8 1:-0.668116 2:-0.0765763 3:-0.132968 4:-0.780003 5:-0.208846 6:-0.631428 
8 1:-0.846621 2:-0.0145139 3:-0.250314 4:-0.945158 5:-0.0815539 6:-0.752142 
8 1:-0.619129 2:0.0160095 3:-0.366123 4:-0.82877 5:-0.0333804 6:-0.63047 
8 1:-0.928731 2:-0.0356117 3:-0.241909 4:-0.853872 5:-0.112709 6:-0.717553 
8 1:-0.786387 2:-0.141039 3:-0.262635 4:-0.554961 5:0.107633 6:-0.632171 
8 1:-0.853601 2:-0.0193229 3:-0.244403 4:-0.935172 5:-0.103076 6:-0.733197 
8 1:-0.655514 2:-0.090437 3:-0.154856 4:-0.765856 5:-0.222038 6:-0.633112 
8 1:-0.87844 2:0.082782 3:-0.251929 4:-0.948142 5:-0.0658113 6:-0.701026 
8 1:-0.650301 2:-0.114527 3:-0.144151 4:-0.762754 5:-0.23033 6:-0.644326 
8 1:-0.87212 2:0.108974 3:-0.250608 4:-0.943138 5:-0.0876374 6:-0.69115 
8 1:-0.624142 2:-0.0170902 3:-0.370379 4:-0.776654 5:0.0496622 6:-0.608327 
8 1:-0.885051 2:0.0842592 3:-0.252749 4:-0.946146 5:-0.0581118 6:-0.684668 
8 1:-0.668218 2:-0.127239 3:-0.118269 4:-0.755049 5:-0.294452 6:-0.630684 
8 1:-0.85631 2:0.125126 3:-0.239543 4:-0.926311 5:-0.0781888 6:-0.679676 
8 1:-0.671078 2:-0.10656 3:-0.143158 4:-0.710081 5:-0.301519 6:-0.65779 
8 1:-0.898702 2:-0.0115074 3:-0.244845 4:-0.92802 5:-0.0783183 6:-0.654259 
8 1:-0.660989 2:-0.147868 3:-0.1194 4:-0.692473 5:-0.33926 6:-0.642836 
8 1:-0.806562 2:0.0377807 3:-0.181574 4:-0.437066 5:0.217827 6:-0.657962 
8 1:-0.895593 2:0.0159123 3:-0.208667 4:-0.63863 5:-0.244945 6:-0.628417 
8 1:-0.82934 2:0.104803 3:-0.202049 4:-0.425471 5:0.242014 6:-0.653908 
8 1:-0.815553 2:0.125734 3:-0.180471 4:-0.47519 5:0.282389 6:-0.64221 
8 1:-0.841703 2:0.136387 3:-0.198564 4:-0.462997 5:0.188936 6:-0.633992 
8 1:-0.872892 2:0.0103373 3:-0.213469 4:-0.593698 5:-0.238873 6:-0.659889 
8 1:-0.812724 2:0.12855 3:-0.169155 4:-0.511988 5:0.220259 6:-0.657047 
8 1:-0.86373 2:0.04218 3:-0.19334 4:-0.712882 5:-0.211352 6:-0.676202 
8 1:-0.814092 2:0.129143 3:-0.162722 4:-0.498876 5:0.220965 6:-0.651148 
8 1:-0.86262 2:0.0657946 3:-0.188099 4:-0.715896 5:-0.189814 6:-0.668304 
8 1:-0.838692 2:0.159815 3:-0.171679 4:-0.435092 5:0.247401 6:-0.616125 
8 1:-0.843984 2:0.0306729 3:-0.143073 4:-0.741909 5:-0.160941 6:-0.619075 
8 1:-0.805 2:0.155302 3:-0.187367 4:-0.470024 5:0.237809 6:-0.640068 
8 1:-0.77245 2:-0.116339 3:-0.0952583 4:-0.701943 5:-0.238262 6:-0.674672 
8 1:-0.796291 2:0.169004 3:-0.177799 4:-0.493974 5:0.212578 6:-0.6322 
8 1:-0.730252 2:0.0261558 3:-0.0912335 4:-0.714681 5:-0.187243 6:-0.658565 
8 1:-0.775373 2:0.115515 3:-0.183345 4:-0.540081 5:0.224598 6:-0.649541 
8 1:-0.756838 2:-0.139408 3:-0.0808488 4:-0.686149 5:-0.250739 6:-0.692105 
8 1:-0.764226 2:0.162537 3:-0.188968 4:-0.517872 5:0.194476 6:-0.607295 
8 1:-0.742429 2:-0.00686054 3:-0.100319 4:-0.708229 5:-0.170513 6:-0.632194 
8 1:-0.816428 2:0.144661 3:-0.178304 4:-0.508511 5:0.276214 6:-0.593979 
8 1:-0.721552 2:-0.0510408 3:-0.123289 4:-0.677543 5:-0.189548 6:-0.675404 
8 1:-0.737849 2:0.189366 3:-0.165304 4:-0.589941 5:0.221413 6:-0.59908 
8 1:-0.789967 2:-0.0600968 3:-0.0893773 4:-0.752389 5:-0.179238 6:-0.661113 
8 1:-0.810964 2:0.157602 3:-0.338478 4:-0.544704 5:-0.457036 6:-0.629117 
8 1:-0.78405 2:-0.0811502 3:-0.102324 4:-0.748041 5:-0.152707 6:-0.644698 
8 1:-0.822954 2:0.169185 3:-0.351169 4:-0.528402 5:-0.497611 6:-0.627084 
8 1:-0.789221 2:-0.0707876 3:-0.0890783 4:-0.745238 5:-0.222108 6:-0.662068 
8 1:-0.732514 2:0.219228 3:-0.410008 4:-0.649516 5:-0.289582 6:-0.62578 
8 1:-0.836444 2:-0.0994251 3:-0.119021 4:-0.591862 5:-0.266703 6:-0.636203 
8 1:-0.715703 2:0.252269 3:-0.441639 4:-0.630677 5:-0.316828 6:-0.608876 
8 1:-0.761672 2:-0.0589144 3:-0.0546645 4:-0.755912 5:-0.158751 6:-0.63865 
8 1:-0.711764 2:0.224063 3:-0.433374 4:-0.619939 5:-0.276137 6:-0.625806 
8 1:-0.756233 2:-0.126406 3:-0.0801847 4:-0.667317 5:-0.176782 6:-0.650288 
8 1:-0.78401 2:0.17886 3:-0.374448 4:-0.581664 5:-0.445015 6:-0.635559 
8 1:-0.798976 2:-0.118794 3:-0.123173 4:-0.523553 5:-0.29948 6:-0.639834 
8 1:-0.651398 2:0.108621 3:-0.46721 4:-0.753645 5:-0.154825 6:-0.609422 
8 1:-0.710748 2:-0.1502 3:-0.0698619 4:-0.688916 5:-0.235181 6:-0.668659 
8 1:-0.656431 2:0.149543 3:-0.464672 4:-0.751047 5:-0.14464 6:-0.643016 
8 1:-0.760524 2:-0.111016 3:-0.103081 4:-0.510662 5:-0.326661 6:-0.69314 
8 1:-0.656431 2:0.149543 3:-0.464672 4:-0.751047 5:-0.14464 6:-0.643016 
8 1:-0.760524 2:-0.111016 3:-0.103081 4:-0.510662 5:-0.326661 6:-0.69314 
8 1:-0.800483 2:0.16626 3:-0.292961 4:-0.781461 5:0.0735117 6:-0.319574 
8 1:-0.800483 2:0.16626 3:-0.292961 4:-0.781461 5:0.0735117 6:-0.319574 
8 1:-0.875863 2:0.0472408 3:-0.305016 4:-0.928625 5:0.0416961 6:-0.238155 
8 1:-0.88664 2:0.0294847 3:-0.253344 4:-0.930078 5:-0.174147 6:-0.281713 
8 1:-0.886506 2:0.0320653 3:-0.227667 4:-0.92545 5:-0.175674 6:-0.219695 
8 1:-0.807047 2:-0.00225388 3:-0.252367 4:-0.838791 5:-0.191093 6:-0.243993 
8 1:-0.742215 2:0.0688077 3:-0.135034 4:-0.634409 5:-0.284309 6:-0.243799 
8 1:-0.905767 2:0.025633 3:-0.289863 4:-0.957201 5:-0.163909 6:-0.148432 
8 1:-0.875863 2:0.0472408 3:-0.305016 4:-0.928625 5:0.0416961 6:-0.238155 
8 1:-0.809205 2:0.0779884 3:-0.174369 4:-0.914507 5:-0.209257 6:-0.241895 
8 1:-0.865197 2:0.166843 3:-0.337136 4:-0.882197 5:0.0130524 6:-0.2974 
8 1:-0.80742 2:0.173003 3:-0.297021 4:-0.842797 5:-0.0191562 6:-0.334745 
8 1:-0.809205 2:0.0779884 3:-0.174369 4:-0.914507 5:-0.209257 6:-0.241895 
8 1:-0.79356 2:0.00419975 3:-0.133457 4:-0.778792 5:-0.143305 6:-0.322888 
8 1:-0.859865 2:0.0433237 3:-0.261047 4:-0.909934 5:-0.138073 6:-0.262716 
8 1:-0.889232 2:-0.0177446 3:-0.256934 4:-0.863557 5:-0.0862892 6:-0.274559 
8 1:-0.592103 2:0.166923 3:-0.288683 4:-0.878446 5:-0.258281 6:-0.377212 
8 1:-0.745809 2:-0.15703 3:-0.193249 4:-0.8581 5:-0.000207918 6:-0.397564 
8 1:-0.979955 2:-0.174997 3:-0.234315 4:0.336424 5:-0.324518 6:-0.895501 
8 1:-0.753159 2:0.189834 3:-0.0594787 4:-0.655146 5:0.0997925 6:-0.31666 
8 1:-0.698309 2:0.115675 3:-0.25195 4:-0.926388 5:-0.203116 6:-0.3988 
8 1:-0.865197 2:0.166843 3:-0.337136 4:-0.882197 5:0.0130524 6:-0.2974 
3.362103516694441 1:-0.735776 2:0.0414243 3:-0.45296 4:-0.689081 5:0.157282 6:-0.361177 
8 1:-0.64158 2:-0.115315 3:-0.578447 4:-0.595236 5:0.197904 6:-0.311996 
8 1:-0.856529 2:0.0908653 3:-0.182264 4:-0.887242 5:0.0500479 6:-0.539681 
8 1:-0.894064 2:0.17434 3:-0.152042 4:-0.536626 5:0.119407 6:-0.317801 
8 1:-0.64158 2:-0.115315 3:-0.578447 4:-0.595236 5:0.197904 6:-0.311996 
8 1:-0.84026 2:-0.00957818 3:-0.37178 4:-0.940823 5:-0.1546 6:-0.296905 
5.01225917448436 1:-0.882103 2:-0.0501528 3:-0.149837 4:-0.801109 5:-0.179951 6:-0.583851 
8 1:-0.80742 2:0.173003 3:-0.297021 4:-0.842797 5:-0.0191562 6:-0.334745 
8 1:-0.776657 2:0.206886 3:-0.37432 4:-0.7546 5:-0.100368 6:-0.55684 
8 1:-0.966521 2:0.0195837 3:-0.206151 4:-0.593645 5:0.252983 6:-0.492957 
8 1:-0.84652 2:0.244057 3:-0.137971 4:-0.620178 5:0.201328 6:-0.360762 
8 1:-0.752639 2:0.174897 3:-0.318948 4:-0.929631 5:-0.0697236 6:-0.590843 
8 1:-0.856529 2:0.0908653 3:-0.182264 4:-0.887242 5:0.0500479 6:-0.539681 
8 1:-0.827783 2:-0.0613482 3:-0.113306 4:-0.693058 5:-0.111926 6:-0.382158 
8 1:-0.859865 2:0.0433237 3:-0.261047 4:-0.909934 5:-0.138073 6:-0.262716 
8 1:-0.895136 2:0.0649521 3:-0.288676 4:-0.760978 5:-0.186502 6:-0.219389 
8 1:-0.675826 2:0.169143 3:-0.168089 4:-0.765938 5:-0.0476661 6:-0.252677 
8 1:-0.91884 2:-0.00732229 3:-0.143685 4:-0.728948 5:0.0643518 6:-0.360256 
8 1:-0.957085 2:-0.0442472 3:-0.270781 4:-0.852335 5:0.0246933 6:-0.840675 
8 1:-0.889232 2:-0.0177446 3:-0.256934 4:-0.863557 5:-0.0862892 6:-0.274559 
8 1:-0.741388 2:0.0666311 3:-0.268943 4:-0.958964 5:-0.178695 6:-0.462745 
8 1:-0.776975 2:-0.126755 3:-0.152875 4:-0.730268 5:-0.231487 6:-0.432262 
8 1:-0.798687 2:0.0479571 3:-0.20395 4:-0.933801 5:-0.0905385 6:-0.327851 
8 1:-0.00861924 2:-0.0859753 3:-0.334628 4:-0.994139 5:-0.0736327 6:-0.568154 
8 1:-0.674648 2:0.0257456 3:-0.269711 4:-0.728479 5:-0.184397 6:-0.261967 
8 1:-0.82307 2:-0.145415 3:-0.200705 4:-0.740795 5:0.031831 6:-0.31905 
8 1:-0.831353 2:0.0808972 3:-0.315925 4:-0.966307 5:-0.0799027 6:-0.677697 
8 1:-0.802614 2:0.00641013 3:-0.234239 4:-0.650183 5:-0.0124598 6:-0.320632 
8 1:-0.753294 2:0.0466119 3:-0.261379 4:-0.865601 5:-0.0578877 6:-0.317218 
8 1:-0.72675 2:-0.0376512 3:-0.283632 4:-0.863647 5:-0.170554 6:-0.250581 
8 1:-0.815415 2:0.0529448 3:-0.302998 4:-0.580264 5:-0.158006 6:-0.304322 
8 1:-0.815733 2:0.167985 3:-0.261817 4:-0.916012 5:-0.0908319 6:-0.332035 
8 1:-0.825487 2:0.0744955 3:-0.237588 4:-0.555018 5:0.103703 6:-0.359587 
8 1:-0.825487 2:0.0744955 3:-0.237588 4:-0.555018 5:0.103703 6:-0.359587 
8 1:-0.786051 2:0.176645 3:-0.27749 4:-0.896323 5:-0.0648107 6:-0.354023 
8 1:-0.745809 2:-0.15703 3:-0.193249 4:-0.8581 5:-0.000207918 6:-0.397564 
8 1:-0.741388 2:0.0666311 3:-0.268943 4:-0.958964 5:-0.178695 6:-0.462745 
8 1:-0.741388 2:0.0666311 3:-0.268943 4:-0.958964 5:-0.178695 6:-0.462745 
8 1:-0.812351 2:0.201048 3:-0.259215 4:-0.77244 5:-0.222922 6:-0.281788 
8 1:-0.812351 2:0.201048 3:-0.259215 4:-0.77244 5:-0.222922 6:-0.281788 
8 1:-0.743748 2:0.109292 3:-0.163384 4:-0.912005 5:-0.163016 6:-0.317318 
8 1:-0.704972 2:0.082653 3:-0.297293 4:-0.907182 5:-0.110605 6:-0.359032 
8 1:-0.704972 2:0.082653 3:-0.297293 4:-0.907182 5:-0.110605 6:-0.359032 
8 1:-0.669502 2:-0.0352905 3:-0.381058 4:-0.86717 5:-0.0776121 6:-0.34286 
8 1:-0.669502 2:-0.0352905 3:-0.381058 4:-0.86717 5:-0.0776121 6:-0.34286 
8 1:-0.744278 2:0.144235 3:-0.386107 4:-0.775075 5:-0.165926 6:-0.290826 
8 1:-0.744278 2:0.144235 3:-0.386107 4:-0.775075 5:-0.165926 6:-0.290826 
8 1:-0.760601 2:0.158803 3:-0.40731 4:-0.810944 5:-0.13977 6:-0.312768 
8 1:-0.760601 2:0.158803 3:-0.40731 4:-0.810944 5:-0.13977 6:-0.312768 
8 1:-0.831543 2:0.138791 3:-0.126565 4:-0.762978 5:0.00193241 6:-0.347189 
8 1:-0.831543 2:0.138791 3:-0.126565 4:-0.762978 5:0.00193241 6:-0.347189 
8 1:-0.821366 2:0.0277193 3:-0.160229 4:-0.752379 5:-0.236718 6:-0.310484 
8 1:-0.821366 2:0.0277193 3:-0.160229 4:-0.752379 5:-0.236718 6:-0.310484 
8 1:-0.742215 2:0.0688077 3:-0.135034 4:-0.634409 5:-0.284309 6:-0.243799 
8 1:-0.742215 2:0.0688077 3:-0.135034 4:-0.634409 5:-0.284309 6:-0.243799 
8 1:-0.79356 2:0.00419975 3:-0.133457 4:-0.778792 5:-0.143305 6:-0.322888 
8 1:-0.79356 2:0.00419975 3:-0.133457 4:-0.778792 5:-0.143305 6:-0.322888 
8 1:-0.735776 2:0.0414243 3:-0.45296 4:-0.689081 5:0.157282 6:-0.361177 
8 1:-0.735776 2:0.0414243 3:-0.45296 4:-0.689081 5:0.157282 6:-0.361177 
8 1:-0.753159 2:0.189834 3:-0.0594787 4:-0.655146 5:0.0997925 6:-0.31666 
8 1:-0.753159 2:0.189834 3:-0.0594787 4:-0.655146 5:0.0997925 6:-0.31666 
8 1:-0.894064 2:0.17434 3:-0.152042 4:-0.536626 5:0.119407 6:-0.317801 
8 1:-0.84652 2:0.244057 3:-0.137971 4:-0.620178 5:0.201328 6:-0.360762 
8 1:-0.84652 2:0.244057 3:-0.137971 4:-0.620178 5:0.201328 6:-0.360762 
8 1:-0.798687 2:0.0479571 3:-0.20395 4:-0.933801 5:-0.0905385 6:-0.327851 
8 1:-0.798687 2:0.0479571 3:-0.20395 4:-0.933801 5:-0.0905385 6:-0.327851 
8 1:-0.69826 2:0.0532796 3:-0.315845 4:-0.92261 5:-0.143457 6:-0.395514 
8 1:-0.64158 2:-0.115315 3:-0.578447 4:-0.595236 5:0.197904 6:-0.311996 
8 1:-0.743748 2:0.109292 3:-0.163384 4:-0.912005 5:-0.163016 6:-0.317318 
8 1:-0.882103 2:-0.0501528 3:-0.149837 4:-0.801109 5:-0.179951 6:-0.583851 
8 1:-0.856529 2:0.0908653 3:-0.182264 4:-0.887242 5:0.0500479 6:-0.539681 
8 1:-0.704972 2:0.0826531 3:-0.297292 4:-0.907182 5:-0.110605 6:-0.359032 
8 1:-0.837318 2:0.224445 3:-0.204164 4:-0.777283 5:-0.0867369 6:-0.390939 
8 1:-0.615201 2:-0.0459617 3:-0.328311 4:-0.919556 5:-0.0300089 6:-0.455362 
8 1:-0.778178 2:0.119021 3:-0.463991 4:-0.924534 5:-0.261439 6:-0.426369 
8 1:-0.914326 2:0.0263735 3:-0.2319 4:-0.604316 5:-0.221253 6:-0.321921 
8 1:-0.704972 2:0.0826531 3:-0.297292 4:-0.907182 5:-0.110605 6:-0.359032 
3.210289245885038 1:-0.864483 2:0.0368177 3:-0.385962 4:-0.948447 5:-0.183633 6:-0.588232 
8 1:-0.931168 2:-0.0133754 3:-0.221426 4:-0.572671 5:-0.142655 6:-0.313412 
8 1:-0.71946 2:-0.0289575 3:-0.249314 4:-0.909185 5:-0.0452503 6:-0.382087 
8 1:-0.759262 2:0.101512 3:-0.248234 4:-0.888465 5:0.010859 6:-0.407558 
8 1:-0.772692 2:0.08974 3:-0.202141 4:-0.948833 5:-0.0447246 6:-0.422057 
8 1:-0.811014 2:0.0904807 3:-0.197462 4:-0.925385 5:0.0411034 6:-0.361365 
8 1:-0.797049 2:0.151805 3:-0.197878 4:-0.886242 5:0.0464929 6:-0.35613 
8 1:-0.792958 2:0.125971 3:-0.238618 4:-0.865299 5:0.0240329 6:-0.39343 
8 1:-0.71946 2:-0.0289575 3:-0.249314 4:-0.909185 5:-0.0452503 6:-0.382087 
8 1:-0.77167 2:0.19593 3:-0.272727 4:-0.762846 5:-0.11078 6:-0.370578 
8 1:-0.669502 2:-0.0352905 3:-0.381058 4:-0.86717 5:-0.0776121 6:-0.34286 
8 1:-0.869396 2:0.0416573 3:-0.167777 4:-0.875219 5:0.0233007 6:-0.365872 
8 1:-0.731696 2:-0.00307391 3:-0.248692 4:-0.946341 5:-0.0809106 6:-0.381315 
8 1:-0.841199 2:-0.167831 3:-0.277693 4:-0.738149 5:-0.0471655 6:-0.314124 
8 1:-0.827783 2:-0.0613482 3:-0.113306 4:-0.693058 5:-0.111926 6:-0.382158 
8 1:-0.77167 2:0.19593 3:-0.272727 4:-0.762846 5:-0.11078 6:-0.370578 
8 1:-0.753018 2:-0.0146201 3:-0.310185 4:-0.938793 5:-0.135117 6:-0.335326 
8 1:-0.785076 2:0.0359848 3:-0.321685 4:-0.936269 5:-0.105913 6:-0.32603 
8 1:-0.746308 2:0.182724 3:-0.185968 4:-0.892636 5:0.0402888 6:-0.469659 
8 1:-0.815915 2:0.0825009 3:-0.50619 4:-0.964598 5:-0.167376 6:-0.29643 
8 1:-0.779411 2:0.170279 3:-0.407791 4:-0.899965 5:-0.186811 6:-0.425291 
8 1:-0.837318 2:0.224445 3:-0.204164 4:-0.777283 5:-0.0867369 6:-0.390939 
8 1:-0.681905 2:0.220948 3:-0.0732206 4:-0.725366 5:0.023485 6:-0.20231 
8 1:-0.797156 2:0.166246 3:-0.194197 4:-0.656611 5:-0.0384832 6:-0.310172 
8 1:-0.875805 2:0.0551512 3:-0.231057 4:-0.913931 5:-0.0880551 6:-0.288642 
8 1:-0.615201 2:-0.0459617 3:-0.328311 4:-0.919556 5:-0.0300089 6:-0.455362 
8 1:-0.861163 2:0.0974145 3:-0.378216 4:-0.844199 5:-0.0993079 6:-0.24751 
8 1:-0.744278 2:0.144235 3:-0.386107 4:-0.775075 5:-0.165926 6:-0.290826 
8 1:-0.902075 2:0.042316 3:-0.320219 4:-0.83271 5:-0.384503 6:-0.317852 
8 1:-0.889615 2:0.000429024 3:-0.296341 4:-0.81379 5:0.306664 6:-0.156444 
8 1:-0.795299 2:-0.0407534 3:-0.179419 4:-0.858353 5:-0.379422 6:-0.28815 
6.509984619530072 1:-0.833127 2:0.0687426 3:-0.390638 4:-0.930428 5:-0.0142817 6:-0.374195 
8 1:-0.854934 2:0.0050567 3:-0.133647 4:-0.897284 5:-0.13304 6:-0.518147 
8 1:-0.88664 2:0.0294847 3:-0.253344 4:-0.930078 5:-0.174147 6:-0.281713 
8 1:-0.886506 2:0.0320653 3:-0.227667 4:-0.92545 5:-0.175674 6:-0.219695 
8 1:-0.807047 2:-0.00225388 3:-0.252367 4:-0.838791 5:-0.191093 6:-0.243993 
8 1:-0.760601 2:0.158803 3:-0.40731 4:-0.810944 5:-0.13977 6:-0.312768 
8 1:-0.905767 2:0.025633 3:-0.289863 4:-0.957201 5:-0.163909 6:-0.148432 
8 1:-0.809205 2:0.0779884 3:-0.174369 4:-0.914507 5:-0.209257 6:-0.241895 
8 1:-0.865197 2:0.166843 3:-0.337136 4:-0.882197 5:0.0130524 6:-0.2974 
8 1:-0.745809 2:-0.15703 3:-0.193249 4:-0.8581 5:-0.000207918 6:-0.397564 
8 1:-0.766198 2:0.0910468 3:-0.505503 4:-0.983448 5:-0.187813 6:-0.544522 
8 1:-0.80742 2:0.173003 3:-0.297021 4:-0.842797 5:-0.0191562 6:-0.334745 
8 1:-0.882103 2:-0.0501528 3:-0.149837 4:-0.801109 5:-0.179951 6:-0.583851 
8 1:-0.889232 2:-0.0177446 3:-0.256934 4:-0.863557 5:-0.0862892 6:-0.274559 
8 1:-0.831543 2:0.138791 3:-0.126565 4:-0.762978 5:0.00193241 6:-0.347189 
8 1:-0.745809 2:-0.15703 3:-0.193249 4:-0.8581 5:-0.000207918 6:-0.397564 
8 1:-0.698309 2:0.115675 3:-0.25195 4:-0.926388 5:-0.203116 6:-0.3988 
8 1:-0.914326 2:0.0263735 3:-0.2319 4:-0.604316 5:-0.221253 6:-0.321921 
8 1:-0.739107 2:0.00487482 3:-0.166465 4:-0.949545 5:0.080046 6:-0.509729 
8 1:-0.735776 2:0.0414243 3:-0.45296 4:-0.689081 5:0.157282 6:-0.361177 
8 1:-0.64158 2:-0.115315 3:-0.578447 4:-0.595236 5:0.197904 6:-0.311996 
8 1:-0.856529 2:0.0908653 3:-0.182264 4:-0.887242 5:0.0500479 6:-0.539681 
8 1:-0.816547 2:-0.0279684 3:-0.146495 4:-0.932347 5:-0.0853931 6:-0.433148 
8 1:-0.742215 2:0.0688077 3:-0.135034 4:-0.634409 5:-0.284309 6:-0.243799 
8 1:-0.882103 2:-0.0501528 3:-0.149837 4:-0.801109 5:-0.179951 6:-0.583851 
8 1:-0.931168 2:-0.0133754 3:-0.221426 4:-0.572671 5:-0.142655 6:-0.313412 
8 1:-0.776657 2:0.206886 3:-0.37432 4:-0.7546 5:-0.100368 6:-0.55684 
8 1:-0.966521 2:0.0195837 3:-0.206151 4:-0.593645 5:0.252983 6:-0.492957 
8 1:-0.752639 2:0.174897 3:-0.318948 4:-0.929631 5:-0.0697236 6:-0.590843 
8 1:-0.79356 2:0.00419975 3:-0.133457 4:-0.778792 5:-0.143305 6:-0.322888 
8 1:-0.786051 2:0.176645 3:-0.27749 4:-0.896323 5:-0.0648107 6:-0.354023 
8 1:-0.776657 2:0.206886 3:-0.37432 4:-0.7546 5:-0.100368 6:-0.55684 
8 1:-0.895136 2:0.0649521 3:-0.288676 4:-0.760978 5:-0.186502 6:-0.219389 
8 1:-0.675826 2:0.169143 3:-0.168089 4:-0.765938 5:-0.0476661 6:-0.252677 
8 1:-0.91884 2:-0.00732229 3:-0.143685 4:-0.728948 5:0.0643518 6:-0.360256 
8 1:-0.776657 2:0.206886 3:-0.37432 4:-0.7546 5:-0.100368 6:-0.55684 
8 1:-0.759262 2:0.101512 3:-0.248234 4:-0.888465 5:0.010859 6:-0.407558 
8 1:-0.957085 2:-0.0442472 3:-0.270781 4:-0.852335 5:0.0246933 6:-0.840675 
8 1:-0.753159 2:0.189834 3:-0.0594787 4:-0.655146 5:0.0997925 6:-0.31666 
8 1:-0.966521 2:0.0195837 3:-0.206151 4:-0.593645 5:0.252983 6:-0.492957 
8 1:-0.759262 2:0.101512 3:-0.248234 4:-0.888465 5:0.010859 6:-0.407558 
8 1:-0.00861924 2:-0.0859753 3:-0.334628 4:-0.994139 5:-0.0736327 6:-0.568154 
8 1:-0.674648 2:0.0257456 3:-0.269711 4:-0.728479 5:-0.184397 6:-0.261967 
8 1:-0.894064 2:0.17434 3:-0.152042 4:-0.536626 5:0.119407 6:-0.317801 
8 1:-0.82307 2:-0.145415 3:-0.200705 4:-0.740795 5:0.031831 6:-0.31905 
8 1:-0.802614 2:0.00641013 3:-0.234239 4:-0.650183 5:-0.0124598 6:-0.320632 
8 1:-0.767087 2:-0.0513717 3:-0.219336 4:-0.784724 5:0.119515 6:-0.361111 
8 1:-0.72675 2:-0.0376512 3:-0.283632 4:-0.863647 5:-0.170554 6:-0.250581 
8 1:-0.815134 2:-0.0636388 3:-0.259976 4:-0.638075 5:-0.123755 6:-0.314167 
8 1:-0.815415 2:0.0529448 3:-0.302998 4:-0.580264 5:-0.158006 6:-0.304322 
8 1:-0.772692 2:0.08974 3:-0.202141 4:-0.948833 5:-0.0447246 6:-0.422057 
8 1:-0.753018 2:-0.0146201 3:-0.310185 4:-0.938793 5:-0.135117 6:-0.335326 
8 1:-0.752639 2:0.174897 3:-0.318948 4:-0.929631 5:-0.0697236 6:-0.590843 
8 1:-0.966521 2:0.0195837 3:-0.206151 4:-0.593645 5:0.252983 6:-0.492957 
8 1:-0.815733 2:0.167985 3:-0.261817 4:-0.916012 5:-0.0908319 6:-0.332035 
8 1:-0.825487 2:0.0744955 3:-0.237588 4:-0.555018 5:0.103703 6:-0.359587 
8 1:-0.811014 2:0.0904807 3:-0.197462 4:-0.925385 5:0.0411034 6:-0.361365 
8 1:-0.797049 2:0.151805 3:-0.197878 4:-0.886242 5:0.0464929 6:-0.35613 
8 1:-0.741388 2:0.0666311 3:-0.268943 4:-0.958964 5:-0.178695 6:-0.462745 
8 1:-0.812351 2:0.201048 3:-0.259215 4:-0.77244 5:-0.222922 6:-0.281788 
8 1:-0.792958 2:0.125971 3:-0.238618 4:-0.865299 5:0.0240329 6:-0.39343 
8 1:-0.798687 2:0.0479571 3:-0.20395 4:-0.933801 5:-0.0905385 6:-0.327851 
8 1:-0.669502 2:-0.0352905 3:-0.381058 4:-0.86717 5:-0.0776121 6:-0.34286 
8 1:-0.681905 2:0.220948 3:-0.0732206 4:-0.725366 5:0.023485 6:-0.20231 
8 1:-0.744278 2:0.144235 3:-0.386107 4:-0.775075 5:-0.165926 6:-0.290826 
8 1:-0.760601 2:0.158803 3:-0.40731 4:-0.810944 5:-0.13977 6:-0.312768 
8 1:-0.831543 2:0.138791 3:-0.126565 4:-0.762978 5:0.00193241 6:-0.347189 
8 1:-0.821366 2:0.0277193 3:-0.160229 4:-0.752379 5:-0.236718 6:-0.310484 
8 1:-0.837318 2:0.224445 3:-0.204164 4:-0.777283 5:-0.0867369 6:-0.390939 
8 1:-0.837318 2:0.224445 3:-0.204164 4:-0.777283 5:-0.0867369 6:-0.390939 
8 1:-0.742215 2:0.0688077 3:-0.135034 4:-0.634409 5:-0.284309 6:-0.243799 
8 1:-0.79356 2:0.00419975 3:-0.133457 4:-0.778792 5:-0.143305 6:-0.322888 
8 1:-0.894064 2:0.17434 3:-0.152042 4:-0.536626 5:0.119407 6:-0.317801 
8 1:-0.84652 2:0.244057 3:-0.137971 4:-0.620178 5:0.201328 6:-0.360762 
8 1:-0.798687 2:0.0479571 3:-0.20395 4:-0.933801 5:-0.0905385 6:-0.327851 
8 1:-0.743748 2:0.109292 3:-0.163384 4:-0.912005 5:-0.163016 6:-0.317318 
8 1:-0.753555 2:-0.00180091 3:-0.191107 4:-0.897807 5:-0.0861865 6:-0.295066 
8 1:-0.82656 2:-0.026248 3:-0.261498 4:-0.956953 5:-0.1192 6:-0.610577 
8 1:-0.841199 2:-0.167831 3:-0.277693 4:-0.738149 5:-0.0471655 6:-0.314124 
8 1:-0.704972 2:0.0826531 3:-0.297292 4:-0.907182 5:-0.110605 6:-0.359032 
8 1:-0.615201 2:-0.0459617 3:-0.328311 4:-0.919556 5:-0.0300089 6:-0.455362 
8 1:-0.752639 2:0.174897 3:-0.318948 4:-0.929631 5:-0.0697236 6:-0.590843 
8 1:-0.914326 2:0.0263735 3:-0.2319 4:-0.604316 5:-0.221253 6:-0.321921 
8 1:-0.895136 2:0.0649521 3:-0.288676 4:-0.760978 5:-0.186502 6:-0.219389 
8 1:-0.931168 2:-0.0133754 3:-0.221426 4:-0.572671 5:-0.142655 6:-0.313412 
8 1:-0.786051 2:0.176645 3:-0.27749 4:-0.896323 5:-0.0648107 6:-0.354023 
8 1:-0.71946 2:-0.0289575 3:-0.249314 4:-0.909185 5:-0.0452503 6:-0.382087 
8 1:-0.759262 2:0.101512 3:-0.248234 4:-0.888465 5:0.010859 6:-0.407558 
8 1:-0.772692 2:0.08974 3:-0.202141 4:-0.948833 5:-0.0447246 6:-0.422057 
8 1:-0.743748 2:0.109292 3:-0.163384 4:-0.912005 5:-0.163016 6:-0.317318 
8 1:-0.811014 2:0.0904807 3:-0.197462 4:-0.925385 5:0.0411034 6:-0.361365 
8 1:-0.797049 2:0.151805 3:-0.197878 4:-0.886242 5:0.0464929 6:-0.35613 
8 1:-0.957085 2:-0.0442472 3:-0.270781 4:-0.852335 5:0.0246933 6:-0.840675 
8 1:-0.827783 2:-0.0613482 3:-0.113306 4:-0.693058 5:-0.111926 6:-0.382158 
8 1:-0.841199 2:-0.167831 3:-0.277693 4:-0.738149 5:-0.0471655 6:-0.314124 
8 1:-0.827783 2:-0.0613482 3:-0.113306 4:-0.693058 5:-0.111926 6:-0.382158 
8 1:-0.77167 2:0.19593 3:-0.272727 4:-0.762846 5:-0.11078 6:-0.370578 
8 1:-0.753018 2:-0.0146201 3:-0.310185 4:-0.938793 5:-0.135117 6:-0.335326 
8 1:-0.77167 2:0.19593 3:-0.272727 4:-0.762846 5:-0.11078 6:-0.370578 
8 1:-0.785076 2:0.0359848 3:-0.321685 4:-0.936269 5:-0.105913 6:-0.32603 
8 1:-0.675826 2:0.169143 3:-0.168089 4:-0.765938 5:-0.0476661 6:-0.252677 
8 1:-0.746308 2:0.182724 3:-0.185968 4:-0.892636 5:0.0402888 6:-0.469659 
8 1:-0.753018 2:-0.0146201 3:-0.310185 4:-0.938793 5:-0.135117 6:-0.335326 
8 1:-0.875805 2:0.0551512 3:-0.231057 4:-0.913931 5:-0.0880551 6:-0.288642 
8 1:-0.91884 2:-0.00732229 3:-0.143685 4:-0.728948 5:0.0643518 6:-0.360256 
8 1:-0.785076 2:0.0359848 3:-0.321685 4:-0.936269 5:-0.105913 6:-0.32603 
8 1:-0.861163 2:0.0974145 3:-0.378216 4:-0.844199 5:-0.0993079 6:-0.24751 
8 1:-0.902075 2:0.042316 3:-0.320219 4:-0.83271 5:-0.384503 6:-0.317852 
8 1:-0.889615 2:0.000429024 3:-0.296341 4:-0.81379 5:0.306664 6:-0.156444 
8 1:-0.795299 2:-0.0407534 3:-0.179419 4:-0.858353 5:-0.379422 6:-0.28815 
8 1:-0.785076 2:0.0359848 3:-0.321685 4:-0.936269 5:-0.105913 6:-0.32603 
8 1:-0.758971 2:0.0351959 3:-0.221199 4:-0.848627 5:0.0778315 6:-0.470788 
8 1:-0.833127 2:0.0687426 3:-0.390638 4:-0.930428 5:-0.0142817 6:-0.374195 
8 1:-0.88664 2:0.0294847 3:-0.253344 4:-0.930078 5:-0.174147 6:-0.281713 
8 1:-0.886506 2:0.0320653 3:-0.227667 4:-0.92545 5:-0.175674 6:-0.219695 
8 1:-0.807047 2:-0.00225388 3:-0.252367 4:-0.838791 5:-0.191093 6:-0.243993 
8 1:-0.905767 2:0.025633 3:-0.289863 4:-0.957201 5:-0.163909 6:-0.148432 
8 1:-0.875863 2:0.0472408 3:-0.305016 4:-0.928625 5:0.0416961 6:-0.238155 
8 1:-0.809205 2:0.0779884 3:-0.174369 4:-0.914507 5:-0.209257 6:-0.241895 
8 1:-0.80742 2:0.173003 3:-0.297021 4:-0.842797 5:-0.0191562 6:-0.334745 
8 1:-0.859865 2:0.0433237 3:-0.261047 4:-0.909934 5:-0.138073 6:-0.262716 
8 1:-0.889232 2:-0.0177446 3:-0.256934 4:-0.863557 5:-0.0862892 6:-0.274559 
8 1:-0.746308 2:0.182724 3:-0.185968 4:-0.892636 5:0.0402888 6:-0.469659 
8 1:-0.745809 2:-0.15703 3:-0.193249 4:-0.8581 5:-0.000207918 6:-0.397564 
8 1:-0.949398 2:0.0697729 3:-0.184208 4:-0.945962 5:-0.123179 6:-0.377898 
8 1:-0.833127 2:0.0687426 3:-0.390638 4:-0.930428 5:-0.0142817 6:-0.374195 
8 1:-0.833127 2:0.0687426 3:-0.390638 4:-0.930428 5:-0.0142817 6:-0.374195 
8 1:-0.735776 2:0.0414243 3:-0.45296 4:-0.689081 5:0.157282 6:-0.361177 
8 1:-0.64158 2:-0.115315 3:-0.578447 4:-0.595236 5:0.197904 6:-0.311996 
8 1:-0.856529 2:0.0908653 3:-0.182264 4:-0.887242 5:0.0500479 6:-0.539681 
8 1:-0.882103 2:-0.0501528 3:-0.149837 4:-0.801109 5:-0.179951 6:-0.583851 
8 1:-0.957085 2:-0.0442472 3:-0.270781 4:-0.852335 5:0.0246933 6:-0.840675 
8 1:-0.772692 2:0.08974 3:-0.202141 4:-0.948833 5:-0.0447246 6:-0.422057 
8 1:-0.776657 2:0.206886 3:-0.37432 4:-0.7546 5:-0.100368 6:-0.55684 
8 1:-0.966521 2:0.0195837 3:-0.206151 4:-0.593645 5:0.252983 6:-0.492957 
8 1:-0.752639 2:0.174897 3:-0.318948 4:-0.929631 5:-0.0697236 6:-0.590843 
8 1:-0.698309 2:0.115675 3:-0.25195 4:-0.926388 5:-0.203116 6:-0.3988 
8 1:-0.968626 2:0.0711364 3:-0.161721 4:-0.977897 5:-0.0526399 6:-0.344295 
8 1:-0.868768 2:-0.116613 3:-0.32419 4:-0.676676 5:-0.241608 6:-0.289082 
8 1:-0.797156 2:0.166246 3:-0.194197 4:-0.656611 5:-0.0384832 6:-0.310172 
8 1:-0.895136 2:0.0649521 3:-0.288676 4:-0.760978 5:-0.186502 6:-0.219389 
8 1:-0.675826 2:0.169143 3:-0.168089 4:-0.765938 5:-0.0476661 6:-0.252677 
8 1:-0.764195 2:-0.00297465 3:-0.305962 4:-0.931933 5:0.0388839 6:-0.438352 
8 1:-0.97366 2:-0.00673386 3:-0.348444 4:-0.956 5:0.068847 6:-0.425448 
8 1:-0.957085 2:-0.0442472 3:-0.270781 4:-0.852335 5:0.0246933 6:-0.840675 
3.06371407669002 1:-0.887927 2:-0.0222524 3:-0.274322 4:-0.576246 5:0.0779684 6:-0.605442 
8 1:-0.875805 2:0.0551512 3:-0.231057 4:-0.913931 5:-0.0880551 6:-0.288642 
0.06247627253558655 1:0.555523 2:-0.13633 3:-0.237073 4:-0.992874 5:-0.0849067 6:-0.566052 
8 1:-0.945849 2:0.00497609 3:-0.21233 4:-0.98214 5:-0.0756119 6:-0.749439 
8 1:-0.945849 2:0.00497609 3:-0.21233 4:-0.98214 5:-0.0756119 6:-0.749439 
8 1:-0.00861924 2:-0.0859753 3:-0.334628 4:-0.994139 5:-0.0736327 6:-0.568154 
8 1:-0.674648 2:0.0257456 3:-0.269711 4:-0.728479 5:-0.184397 6:-0.261967 
8 1:-0.82307 2:-0.145415 3:-0.200705 4:-0.740795 5:0.031831 6:-0.31905 
8 1:-0.802614 2:0.00641013 3:-0.234239 4:-0.650183 5:-0.0124598 6:-0.320632 
8 1:-0.767087 2:-0.0513717 3:-0.219336 4:-0.784724 5:0.119515 6:-0.361111 
8 1:-0.967412 2:0.0750826 3:-0.1991 4:-0.82827 5:0.155978 6:-0.346305 
8 1:-0.967412 2:0.0750826 3:-0.1991 4:-0.82827 5:0.155978 6:-0.346305 
8 1:-0.945432 2:0.0497234 3:-0.217024 4:-0.930824 5:-0.0771161 6:-0.755486 
8 1:-0.945432 2:0.0497234 3:-0.217024 4:-0.930824 5:-0.0771161 6:-0.755486 
8 1:-0.753294 2:0.0466119 3:-0.261379 4:-0.865601 5:-0.0578877 6:-0.317218 
8 1:-0.72675 2:-0.0376512 3:-0.283632 4:-0.863647 5:-0.170554 6:-0.250581 
8 1:-0.815134 2:-0.0636388 3:-0.259976 4:-0.638075 5:-0.123755 6:-0.314167 
8 1:-0.815415 2:0.0529448 3:-0.302998 4:-0.580264 5:-0.158006 6:-0.304322 
8 1:-0.815733 2:0.167985 3:-0.261817 4:-0.916012 5:-0.0908319 6:-0.332035 
8 1:-0.861163 2:0.0974145 3:-0.378216 4:-0.844199 5:-0.0993079 6:-0.24751 
8 1:-0.951866 2:0.0761982 3:-0.189269 4:-0.878053 5:-0.0138907 6:-0.634759 
8 1:-0.704972 2:0.0826531 3:-0.297292 4:-0.907182 5:-0.110605 6:-0.359032 
3.772036515839851 1:-0.887927 2:-0.0222524 3:-0.274322 4:-0.576246 5:0.0779684 6:-0.605442 
8 1:-0.741388 2:0.0666311 3:-0.268943 4:-0.958964 5:-0.178695 6:-0.462745 
8 1:-0.812351 2:0.201048 3:-0.259215 4:-0.77244 5:-0.222922 6:-0.281788 
8 1:-0.823658 2:0.0876945 3:-0.35572 4:-0.956081 5:-0.0503113 6:-0.384795 
8 1:-0.823658 2:0.0876945 3:-0.35572 4:-0.956081 5:-0.0503113 6:-0.384795 
8 1:-0.902075 2:0.042316 3:-0.320219 4:-0.83271 5:-0.384503 6:-0.317852 
8 1:-0.669502 2:-0.0352905 3:-0.381058 4:-0.86717 5:-0.0776121 6:-0.34286 
8 1:-0.681905 2:0.220948 3:-0.0732206 4:-0.725366 5:0.023485 6:-0.20231 
8 1:-0.744278 2:0.144235 3:-0.386107 4:-0.775075 5:-0.165926 6:-0.290826 
8 1:-0.760601 2:0.158803 3:-0.40731 4:-0.810944 5:-0.13977 6:-0.312768 
8 1:-0.831543 2:0.138791 3:-0.126565 4:-0.762978 5:0.00193241 6:-0.347189 
8 1:-0.742215 2:0.0688077 3:-0.135034 4:-0.634409 5:-0.284309 6:-0.243799 
8 1:-0.895136 2:0.0649521 3:-0.288676 4:-0.760978 5:-0.186502 6:-0.219389 
8 1:-0.895136 2:0.0649521 3:-0.288676 4:-0.760978 5:-0.186502 6:-0.219389 
8 1:-0.889615 2:0.000429024 3:-0.296341 4:-0.81379 5:0.306664 6:-0.156444 
8 1:-0.926305 2:0.0600236 3:-0.215949 4:-0.980969 5:-0.00656768 6:-0.400209 
8 1:-0.837318 2:0.224445 3:-0.204164 4:-0.777283 5:-0.0867369 6:-0.390939 
8 1:-0.79356 2:0.00419975 3:-0.133457 4:-0.778792 5:-0.143305 6:-0.322888 
8 1:-0.753159 2:0.189834 3:-0.0594787 4:-0.655146 5:0.0997925 6:-0.31666 
8 1:-0.753159 2:0.189834 3:-0.0594787 4:-0.655146 5:0.0997925 6:-0.31666 
8 1:-0.894064 2:0.17434 3:-0.152042 4:-0.536626 5:0.119407 6:-0.317801 
8 1:-0.894064 2:0.17434 3:-0.152042 4:-0.536626 5:0.119407 6:-0.317801 
8 1:-0.84652 2:0.244057 3:-0.137971 4:-0.620178 5:0.201328 6:-0.360762 
8 1:-0.84652 2:0.244057 3:-0.137971 4:-0.620178 5:0.201328 6:-0.360762 
8 1:-0.811014 2:0.0904807 3:-0.197462 4:-0.925385 5:0.0411034 6:-0.361365 
8 1:-0.798687 2:0.0479571 3:-0.20395 4:-0.933801 5:-0.0905385 6:-0.327851 
8 1:-0.675826 2:0.169143 3:-0.168089 4:-0.765938 5:-0.0476661 6:-0.252677 
8 1:-0.789261 2:0.0702871 3:-0.525637 4:-0.960187 5:-0.143136 6:-0.350105 
8 1:-0.789261 2:0.0702871 3:-0.525637 4:-0.960187 5:-0.143136 6:-0.350105 
8 1:-0.795299 2:-0.0407534 3:-0.179419 4:-0.858353 5:-0.379422 6:-0.28815 
0.5524815546286445 1:0.555523 2:-0.13633 3:-0.237073 4:-0.992874 5:-0.0849067 6:-0.566052 
8 1:-0.674648 2:0.0257456 3:-0.269711 4:-0.728479 5:-0.184397 6:-0.261967 
8 1:-0.674648 2:0.0257456 3:-0.269711 4:-0.728479 5:-0.184397 6:-0.261967 
8 1:-0.615201 2:-0.0459617 3:-0.328311 4:-0.919556 5:-0.0300089 6:-0.455362 
8 1:-0.615201 2:-0.0459617 3:-0.328311 4:-0.919556 5:-0.0300089 6:-0.455362 
8 1:-0.743748 2:0.109292 3:-0.163384 4:-0.912005 5:-0.163016 6:-0.317318 
8 1:-0.833127 2:0.0687426 3:-0.390638 4:-0.930428 5:-0.0142817 6:-0.374195 
8 1:-0.88664 2:0.0294847 3:-0.253344 4:-0.930078 5:-0.174147 6:-0.281713 
8 1:-0.704972 2:0.0826531 3:-0.297292 4:-0.907182 5:-0.110605 6:-0.359032 
8 1:-0.704972 2:0.0826531 3:-0.297292 4:-0.907182 5:-0.110605 6:-0.359032 
8 1:-0.837318 2:0.224445 3:-0.204164 4:-0.777283 5:-0.0867369 6:-0.390939 
8 1:-0.886506 2:0.0320653 3:-0.227667 4:-0.92545 5:-0.175674 6:-0.219695 
8 1:-0.704972 2:0.0826531 3:-0.297292 4:-0.907182 5:-0.110605 6:-0.359032 
8 1:-0.615201 2:-0.0459617 3:-0.328311 4:-0.919556 5:-0.0300089 6:-0.455362 
8 1:-0.913195 2:0.180306 3:-0.238769 4:-0.82634 5:0.0284212 6:-0.324915 
8 1:-0.913195 2:0.180306 3:-0.238769 4:-0.82634 5:0.0284212 6:-0.324915 
8 1:-0.914326 2:0.0263735 3:-0.2319 4:-0.604316 5:-0.221253 6:-0.321921 
8 1:-0.931168 2:-0.0133754 3:-0.221426 4:-0.572671 5:-0.142655 6:-0.313412 
8 1:-0.786051 2:0.176645 3:-0.27749 4:-0.896323 5:-0.0648107 6:-0.354023 
8 1:-0.71946 2:-0.0289575 3:-0.249314 4:-0.909185 5:-0.0452503 6:-0.382087 
8 1:-0.759262 2:0.101512 3:-0.248234 4:-0.888465 5:0.010859 6:-0.407558 
8 1:-0.866449 2:0.0478436 3:-0.181934 4:-0.972173 5:-0.0693185 6:-0.435619 
8 1:-0.866449 2:0.0478436 3:-0.181934 4:-0.972173 5:-0.0693185 6:-0.435619 
8 1:-0.772692 2:0.08974 3:-0.202141 4:-0.948833 5:-0.0447246 6:-0.422057 
8 1:-0.797049 2:0.151805 3:-0.197878 4:-0.886242 5:0.0464929 6:-0.35613 
8 1:-0.792958 2:0.125971 3:-0.238618 4:-0.865299 5:0.0240329 6:-0.39343 
8 1:-0.82307 2:-0.145415 3:-0.200705 4:-0.740795 5:0.031831 6:-0.31905 
8 1:-0.841199 2:-0.167831 3:-0.277693 4:-0.738149 5:-0.0471655 6:-0.314124 
8 1:-0.942047 2:0.0947126 3:-0.175943 4:-0.876551 5:-0.0164013 6:-0.283581 
8 1:-0.905767 2:0.025633 3:-0.289863 4:-0.957201 5:-0.163909 6:-0.148432 
8 1:-0.942047 2:0.0947126 3:-0.175943 4:-0.876551 5:-0.0164013 6:-0.283581 
8 1:-0.827783 2:-0.0613482 3:-0.113306 4:-0.693058 5:-0.111926 6:-0.382158 
8 1:-0.77167 2:0.19593 3:-0.272727 4:-0.762846 5:-0.11078 6:-0.370578 
8 1:-0.753018 2:-0.0146201 3:-0.310185 4:-0.938793 5:-0.135117 6:-0.335326 
8 1:-0.785076 2:0.0359848 3:-0.321685 4:-0.936269 5:-0.105913 6:-0.32603 
8 1:-0.802614 2:0.00641013 3:-0.234239 4:-0.650183 5:-0.0124598 6:-0.320632 
8 1:-0.809205 2:0.0779884 3:-0.174369 4:-0.914507 5:-0.209257 6:-0.241895 
8 1:-0.746308 2:0.182724 3:-0.185968 4:-0.892636 5:0.0402888 6:-0.469659 
8 1:-0.784185 2:-0.154154 3:-0.191228 4:-0.774658 5:0.109587 6:-0.284987 
8 1:-0.784185 2:-0.154154 3:-0.191228 4:-0.774658 5:0.109587 6:-0.284987 
8 1:-0.914326 2:0.0263735 3:-0.2319 4:-0.604316 5:-0.221253 6:-0.321921 
8 1:-0.797156 2:0.166246 3:-0.194197 4:-0.656611 5:-0.0384832 6:-0.310172 
8 1:-0.865197 2:0.166843 3:-0.337136 4:-0.882197 5:0.0130524 6:-0.2974 
8 1:-0.875805 2:0.0551512 3:-0.231057 4:-0.913931 5:-0.0880551 6:-0.288642 
8 1:-0.767087 2:-0.0513717 3:-0.219336 4:-0.784724 5:0.119515 6:-0.361111 
8 1:-0.603449 2:-0.103967 3:-0.344977 4:-0.85899 5:-0.191456 6:-0.328761 
8 1:-0.861163 2:0.0974145 3:-0.378216 4:-0.844199 5:-0.0993079 6:-0.24751 
8 1:-0.797049 2:0.151805 3:-0.197878 4:-0.886242 5:0.0464929 6:-0.35613 
8 1:-0.931168 2:-0.0133754 3:-0.221426 4:-0.572671 5:-0.142655 6:-0.313412 
8 1:-0.902075 2:0.042316 3:-0.320219 4:-0.83271 5:-0.384503 6:-0.317852 
8 1:-0.889615 2:0.000429024 3:-0.296341 4:-0.81379 5:0.306664 6:-0.156444 
8 1:-0.795299 2:-0.0407534 3:-0.179419 4:-0.858353 5:-0.379422 6:-0.28815 
8 1:-0.833127 2:0.0687426 3:-0.390638 4:-0.930428 5:-0.0142817 6:-0.374195 
8 1:-0.88664 2:0.0294847 3:-0.253344 4:-0.930078 5:-0.174147 6:-0.281713 
8 1:-0.80742 2:0.173003 3:-0.297021 4:-0.842797 5:-0.0191562 6:-0.334745 
8 1:-0.886506 2:0.0320653 3:-0.227667 4:-0.92545 5:-0.175674 6:-0.219695 
8 1:-0.807047 2:-0.00225388 3:-0.252367 4:-0.838791 5:-0.191093 6:-0.243993 
8 1:-0.905767 2:0.025633 3:-0.289863 4:-0.957201 5:-0.163909 6:-0.148432 
8 1:-0.859865 2:0.0433237 3:-0.261047 4:-0.909934 5:-0.138073 6:-0.262716 
8 1:-0.905767 2:0.025633 3:-0.289863 4:-0.957201 5:-0.163909 6:-0.148432 
8 1:-0.786051 2:0.176645 3:-0.27749 4:-0.896323 5:-0.0648107 6:-0.354023 
8 1:-0.786051 2:0.176645 3:-0.27749 4:-0.896323 5:-0.0648107 6:-0.354023 
8 1:-0.875863 2:0.0472408 3:-0.305016 4:-0.928625 5:0.0416961 6:-0.238155 
8 1:-0.809205 2:0.0779884 3:-0.174369 4:-0.914507 5:-0.209257 6:-0.241895 
8 1:-0.753294 2:0.0466119 3:-0.261379 4:-0.865601 5:-0.0578877 6:-0.317218 
8 1:-0.753294 2:0.0466119 3:-0.261379 4:-0.865601 5:-0.0578877 6:-0.317218 
8 1:-0.865197 2:0.166843 3:-0.337136 4:-0.882197 5:0.0130524 6:-0.2974 
8 1:-0.865197 2:0.166843 3:-0.337136 4:-0.882197 5:0.0130524 6:-0.2974 
8 1:-0.889232 2:-0.0177446 3:-0.256934 4:-0.863557 5:-0.0862892 6:-0.274559 
8 1:-0.859865 2:0.0433237 3:-0.261047 4:-0.909934 5:-0.138073 6:-0.262716 
8 1:-0.859865 2:0.0433237 3:-0.261047 4:-0.909934 5:-0.138073 6:-0.262716 
8 1:-0.889232 2:-0.0177446 3:-0.256934 4:-0.863557 5:-0.0862892 6:-0.274559 
8 1:-0.889232 2:-0.0177446 3:-0.256934 4:-0.863557 5:-0.0862892 6:-0.274559 
8 1:-0.745809 2:-0.15703 3:-0.193249 4:-0.8581 5:-0.000207918 6:-0.397564 
8 1:-0.745809 2:-0.15703 3:-0.193249 4:-0.8581 5:-0.000207918 6:-0.397564 
8 1:-0.895136 2:0.0649521 3:-0.288676 4:-0.760978 5:-0.186502 6:-0.219389 
8 1:-0.895136 2:0.0649521 3:-0.288676 4:-0.760978 5:-0.186502 6:-0.219389 
8 1:-0.71946 2:-0.0289575 3:-0.249314 4:-0.909185 5:-0.0452503 6:-0.382087 
8 1:-0.764938 2:0.173265 3:-0.296498 4:-0.784393 5:-0.119776 6:-0.346274 
8 1:-0.698309 2:0.115675 3:-0.25195 4:-0.926388 5:-0.203116 6:-0.3988 
8 1:-0.698309 2:0.115675 3:-0.25195 4:-0.926388 5:-0.203116 6:-0.3988 
8 1:-0.64158 2:-0.115315 3:-0.578447 4:-0.595236 5:0.197904 6:-0.311996 
8 1:-0.64158 2:-0.115315 3:-0.578447 4:-0.595236 5:0.197904 6:-0.311996 
8 1:-0.745809 2:-0.15703 3:-0.193249 4:-0.8581 5:-0.000207918 6:-0.397564 
8 1:-0.882103 2:-0.0501528 3:-0.149837 4:-0.801109 5:-0.179951 6:-0.583851 
8 1:-0.882103 2:-0.0501528 3:-0.149837 4:-0.801109 5:-0.179951 6:-0.583851 
8 1:-0.639721 2:0.197196 3:-0.224455 4:-0.543781 5:0.211552 6:-0.371176 
8 1:-0.72675 2:-0.0376512 3:-0.283632 4:-0.863647 5:-0.170554 6:-0.250581 
8 1:-0.698309 2:0.115675 3:-0.25195 4:-0.926388 5:-0.203116 6:-0.3988 
8 1:-0.759262 2:0.101512 3:-0.248234 4:-0.888465 5:0.010859 6:-0.407558 
8 1:-0.759262 2:0.101512 3:-0.248234 4:-0.888465 5:0.010859 6:-0.407558 
8 1:-0.776657 2:0.206886 3:-0.37432 4:-0.7546 5:-0.100368 6:-0.55684 
8 1:-0.776657 2:0.206886 3:-0.37432 4:-0.7546 5:-0.100368 6:-0.55684 
8 1:-0.966521 2:0.0195837 3:-0.206151 4:-0.593645 5:0.252983 6:-0.492957 
8 1:-0.966521 2:0.0195837 3:-0.206151 4:-0.593645 5:0.252983 6:-0.492957 
8 1:-0.752639 2:0.174897 3:-0.318948 4:-0.929631 5:-0.0697236 6:-0.590843 
4.015919098464 1:-0.735776 2:0.0414243 3:-0.45296 4:-0.689081 5:0.157282 6:-0.361177 
8 1:-0.815134 2:-0.0636388 3:-0.259976 4:-0.638075 5:-0.123755 6:-0.314167 
8 1:-0.895136 2:0.0649521 3:-0.288676 4:-0.760978 5:-0.186502 6:-0.219389 
8 1:-0.675826 2:0.169143 3:-0.168089 4:-0.765938 5:-0.0476661 6:-0.252677 
8 1:-0.91884 2:-0.00732229 3:-0.143685 4:-0.728948 5:0.0643518 6:-0.360256 
8 1:-0.792958 2:0.125971 3:-0.238618 4:-0.865299 5:0.0240329 6:-0.39343 
8 1:-0.807748 2:0.0230598 3:-0.0854778 4:-0.837402 5:-0.136139 6:-0.544373 
8 1:-0.86599 2:0.122204 3:-0.284116 4:-0.544556 5:0.157262 6:-0.250584 
8 1:-0.957085 2:-0.0442472 3:-0.270781 4:-0.852335 5:0.0246933 6:-0.840675 
8 1:-0.815415 2:0.0529448 3:-0.302998 4:-0.580264 5:-0.158006 6:-0.304322 
8 1:-0.772692 2:0.08974 3:-0.202141 4:-0.948833 5:-0.0447246 6:-0.422057 
8 1:-0.64158 2:-0.115315 3:-0.578447 4:-0.595236 5:0.197904 6:-0.311996 
8 1:-0.678709 2:0.107616 3:-0.51941 4:-0.913374 5:-0.0818323 6:-0.382807 
8 1:-0.979955 2:-0.174997 3:-0.234315 4:0.336424 5:-0.324518 6:-0.895501 
8 1:-0.00861924 2:-0.0859753 3:-0.334628 4:-0.994139 5:-0.0736327 6:-0.568154 
8 1:-0.674648 2:0.0257456 3:-0.269711 4:-0.728479 5:-0.184397 6:-0.261967 
8 1:-0.856529 2:0.0908653 3:-0.182264 4:-0.887242 5:0.0500479 6:-0.539681 
8 1:-0.82307 2:-0.145415 3:-0.200705 4:-0.740795 5:0.031831 6:-0.31905 
8 1:-0.811014 2:0.0904807 3:-0.197462 4:-0.925385 5:0.0411034 6:-0.361365 
8 1:-0.802614 2:0.00641013 3:-0.234239 4:-0.650183 5:-0.0124598 6:-0.320632 
8 1:-0.735776 2:0.0414243 3:-0.45296 4:-0.689081 5:0.157282 6:-0.361177 
8 1:-0.753294 2:0.0466119 3:-0.261379 4:-0.865601 5:-0.0578877 6:-0.317218 
8 1:-0.72675 2:-0.0376512 3:-0.283632 4:-0.863647 5:-0.170554 6:-0.250581 
8 1:-0.815415 2:0.0529448 3:-0.302998 4:-0.580264 5:-0.158006 6:-0.304322 
8 1:-0.815733 2:0.167985 3:-0.261817 4:-0.916012 5:-0.0908319 6:-0.332035 
8 1:-0.815733 2:0.167985 3:-0.261817 4:-0.916012 5:-0.0908319 6:-0.332035 
8 1:-0.825487 2:0.0744955 3:-0.237588 4:-0.555018 5:0.103703 6:-0.359587 
8 1:-0.910874 2:-0.0209169 3:-0.131851 4:-0.463349 5:0.262812 6:-0.347383 
8 1:-0.797049 2:0.151805 3:-0.197878 4:-0.886242 5:0.0464929 6:-0.35613 
8 1:-0.741388 2:0.0666311 3:-0.268943 4:-0.958964 5:-0.178695 6:-0.462745 
8 1:-0.831353 2:0.0808972 3:-0.315925 4:-0.966307 5:-0.0799027 6:-0.677697 
8 1:-0.812351 2:0.201048 3:-0.259215 4:-0.77244 5:-0.222922 6:-0.281788 
8 1:-0.792958 2:0.125971 3:-0.238618 4:-0.865299 5:0.0240329 6:-0.39343 
8 1:-0.894855 2:0.150531 3:-0.0493757 4:-0.806834 5:0.030908 6:-0.427476 
8 1:-0.681905 2:0.220948 3:-0.0732206 4:-0.725366 5:0.023485 6:-0.20231 
8 1:-0.681905 2:0.220948 3:-0.0732206 4:-0.725366 5:0.023485 6:-0.20231 
8 1:-0.744278 2:0.144235 3:-0.386107 4:-0.775075 5:-0.165926 6:-0.290826 
8 1:-0.744278 2:0.144235 3:-0.386107 4:-0.775075 5:-0.165926 6:-0.290826 
8 1:-0.760601 2:0.158803 3:-0.40731 4:-0.810944 5:-0.13977 6:-0.312768 
8 1:-0.831543 2:0.138791 3:-0.126565 4:-0.762978 5:0.00193241 6:-0.347189 
8 1:-0.831543 2:0.138791 3:-0.126565 4:-0.762978 5:0.00193241 6:-0.347189 
4.428156792771262 1:-0.821366 2:0.0277193 3:-0.160229 4:-0.752379 5:-0.236718 6:-0.310484 
8 1:-0.821366 2:0.0277193 3:-0.160229 4:-0.752379 5:-0.236718 6:-0.310484 
8 1:-0.742215 2:0.0688077 3:-0.135034 4:-0.634409 5:-0.284309 6:-0.243799 
8 1:-0.742215 2:0.0688077 3:-0.135034 4:-0.634409 5:-0.284309 6:-0.243799 
8 1:-0.79356 2:0.00419975 3:-0.133457 4:-0.778792 5:-0.143305 6:-0.322888 
8 1:-0.79356 2:0.00419975 3:-0.133457 4:-0.778792 5:-0.143305 6:-0.322888 
8 1:-0.825487 2:0.0744955 3:-0.237588 4:-0.555018 5:0.103703 6:-0.359587 
8 1:-0.753159 2:0.189834 3:-0.0594787 4:-0.655146 5:0.0997925 6:-0.31666 
8 1:-0.753159 2:0.189834 3:-0.0594787 4:-0.655146 5:0.0997925 6:-0.31666 
8 1:-0.894064 2:0.17434 3:-0.152042 4:-0.536626 5:0.119407 6:-0.317801 
8 1:-0.894064 2:0.17434 3:-0.152042 4:-0.536626 5:0.119407 6:-0.317801 
8 1:-0.84652 2:0.244057 3:-0.137971 4:-0.620178 5:0.201328 6:-0.360762 
8 1:-0.84652 2:0.244057 3:-0.137971 4:-0.620178 5:0.201328 6:-0.360762 
8 1:-0.798687 2:0.0479571 3:-0.20395 4:-0.933801 5:-0.0905385 6:-0.327851 
8 1:-0.935542 2:0.0377568 3:-0.302635 4:-0.938702 5:-0.0492159 6:-0.272815 
8 1:-0.887989 2:0.101798 3:-0.261656 4:-0.949679 5:-0.0648644 6:-0.115705 
8 1:-0.881052 2:0.104187 3:-0.254282 4:-0.959525 5:-0.064589 6:-0.392635 
8 1:-0.881052 2:0.104187 3:-0.254282 4:-0.959525 5:-0.064589 6:-0.392635 
8 1:-0.917594 2:0.0800267 3:-0.221797 4:-0.98663 5:-0.0590885 6:-0.449487 
8 1:-0.917594 2:0.0800267 3:-0.221797 4:-0.98663 5:-0.0590885 6:-0.449487 
8 1:-0.870286 2:0.090379 3:-0.282639 4:-0.980435 5:-0.0869562 6:-0.665388 
8 1:-0.870286 2:0.090379 3:-0.282639 4:-0.980435 5:-0.0869562 6:-0.665388 
8 1:-0.871199 2:0.0514914 3:-0.270752 4:-0.964587 5:-0.00169025 6:-0.340841 
8 1:-0.871199 2:0.0514914 3:-0.270752 4:-0.964587 5:-0.00169025 6:-0.340841 
8 1:-0.883976 2:0.0913318 3:-0.223581 4:-0.96726 5:-0.0315939 6:-0.490106 
8 1:-0.882103 2:-0.0501528 3:-0.149837 4:-0.801109 5:-0.179951 6:-0.583851 
8 1:-0.00861924 2:-0.0859753 3:-0.334628 4:-0.994139 5:-0.0736327 6:-0.568154 
8 1:-0.00861924 2:-0.0859753 3:-0.334628 4:-0.994139 5:-0.0736327 6:-0.568154 
8 1:-0.778178 2:0.119021 3:-0.463991 4:-0.924534 5:-0.261439 6:-0.426369 
8 1:-0.904842 2:0.230679 3:-0.235392 4:-0.692067 5:-0.0369823 6:-0.34266 
8 1:-0.904842 2:0.230679 3:-0.235392 4:-0.692067 5:-0.0369823 6:-0.34266 
8 1:-0.628098 2:-0.0631731 3:-0.332444 4:-0.920428 5:-0.0336404 6:-0.483241 
8 1:-0.628098 2:-0.0631731 3:-0.332444 4:-0.920428 5:-0.0336404 6:-0.483241 
8 1:-0.676325 2:-0.211982 3:-0.387267 4:-0.824267 5:0.0957564 6:-0.363701 
8 1:-0.676325 2:-0.211982 3:-0.387267 4:-0.824267 5:0.0957564 6:-0.363701 
8 1:-0.824483 2:-0.214919 3:-0.153618 4:-0.792144 5:-0.253254 6:-0.427619 
8 1:-0.848518 2:0.149254 3:-0.394807 4:-0.888495 5:-0.346661 6:-0.419178 
8 1:-0.848518 2:0.149254 3:-0.394807 4:-0.888495 5:-0.346661 6:-0.419178 
8 1:-0.929467 2:0.0485612 3:-0.204389 4:-0.986372 5:-0.0794319 6:-0.95518 
8 1:-0.869396 2:0.0416573 3:-0.167777 4:-0.875219 5:0.0233007 6:-0.365872 
8 1:-0.910608 2:-0.00735848 3:-0.22877 4:-0.620273 5:-0.22181 6:-0.281856 
8 1:-0.910608 2:-0.00735848 3:-0.22877 4:-0.620273 5:-0.22181 6:-0.281856 
8 1:-0.954966 2:-0.0301117 3:-0.271678 4:-0.877489 5:0.00743694 6:-0.867958 
8 1:-0.918205 2:0.179428 3:-0.119178 4:-0.781659 5:0.0334772 6:-0.585596 
8 1:-0.890505 2:-0.0626528 3:-0.262285 4:-0.465814 5:0.0145901 6:-0.628431 
8 1:-0.730909 2:0.0536816 3:-0.364839 4:-0.945596 5:0.0156672 6:-0.513627 
8 1:-0.861163 2:0.0974145 3:-0.378216 4:-0.844199 5:-0.0993079 6:-0.24751 
8 1:-0.815915 2:0.0825009 3:-0.50619 4:-0.964598 5:-0.167376 6:-0.29643 
8 1:-0.64158 2:-0.115315 3:-0.578447 4:-0.595236 5:0.197904 6:-0.311996 
8 1:-0.957085 2:-0.0442472 3:-0.270781 4:-0.852335 5:0.0246933 6:-0.840675 
8 1:-0.70006 2:0.0279173 3:-0.266017 4:-0.653178 5:-0.0720371 6:-0.264964 
8 1:-0.674648 2:0.0257456 3:-0.269711 4:-0.728479 5:-0.184397 6:-0.261967 
8 1:-0.674648 2:0.0257456 3:-0.269711 4:-0.728479 5:-0.184397 6:-0.261967 
8 1:-0.69826 2:0.0532796 3:-0.315845 4:-0.92261 5:-0.143457 6:-0.395514 
8 1:-0.69826 2:0.0532796 3:-0.315845 4:-0.92261 5:-0.143457 6:-0.395514 
8 1:-0.741335 2:0.132136 3:-0.266695 4:-0.703158 5:-0.0351442 6:-0.293385 
8 1:-0.674648 2:0.0257456 3:-0.269711 4:-0.728479 5:-0.184397 6:-0.261967 
8 1:-0.82307 2:-0.145415 3:-0.200705 4:-0.740795 5:0.031831 6:-0.31905 
8 1:-0.854934 2:0.0050567 3:-0.133647 4:-0.897284 5:-0.13304 6:-0.518147 
8 1:-0.802614 2:0.00641013 3:-0.234239 4:-0.650183 5:-0.0124599 6:-0.320632 
8 1:-0.82307 2:-0.145415 3:-0.200705 4:-0.740795 5:0.031831 6:-0.31905 
8 1:-0.856529 2:0.0908653 3:-0.182264 4:-0.887242 5:0.0500479 6:-0.539681 
8 1:-0.802614 2:0.00641013 3:-0.234239 4:-0.650183 5:-0.0124598 6:-0.320632 
8 1:-0.753294 2:0.046612 3:-0.261379 4:-0.865601 5:-0.0578877 6:-0.317218 
8 1:-0.767087 2:-0.0513717 3:-0.219336 4:-0.784724 5:0.119515 6:-0.361111 
8 1:-0.650733 2:0.100925 3:-0.435208 4:-0.793739 5:-0.221335 6:-0.296971 
8 1:-0.88664 2:0.0294847 3:-0.253344 4:-0.930078 5:-0.174147 6:-0.281713 
8 1:-0.88664 2:0.0294847 3:-0.253344 4:-0.930078 5:-0.174147 6:-0.281713 
8 1:-0.914326 2:0.0263735 3:-0.2319 4:-0.604316 5:-0.221253 6:-0.321921 
8 1:-0.914326 2:0.0263735 3:-0.2319 4:-0.604316 5:-0.221253 6:-0.321921 
8 1:-0.753294 2:0.0466119 3:-0.261379 4:-0.865601 5:-0.0578877 6:-0.317218 
8 1:-0.681905 2:0.220948 3:-0.0732206 4:-0.725366 5:0.023485 6:-0.20231 
8 1:-0.72675 2:-0.0376512 3:-0.283632 4:-0.863647 5:-0.170554 6:-0.250581 
8 1:-0.744278 2:0.144235 3:-0.386107 4:-0.775075 5:-0.165926 6:-0.290826 
8 1:-0.815134 2:-0.0636388 3:-0.259976 4:-0.638075 5:-0.123755 6:-0.314167 
8 1:-0.7606 2:0.158803 3:-0.40731 4:-0.810944 5:-0.13977 6:-0.312768 
8 1:-0.831543 2:0.138791 3:-0.126565 4:-0.762978 5:0.00193241 6:-0.347189 
8 1:-0.821366 2:0.0277191 3:-0.160229 4:-0.752379 5:-0.236718 6:-0.310484 
8 1:-0.815733 2:0.167985 3:-0.261817 4:-0.916012 5:-0.0908319 6:-0.332035 
8 1:-0.742215 2:0.0688077 3:-0.135034 4:-0.634409 5:-0.284309 6:-0.243799 
8 1:-0.697398 2:0.0868575 3:-0.424145 4:-0.720268 5:-0.233975 6:-0.303324 
8 1:-0.753159 2:0.189834 3:-0.0594787 4:-0.655146 5:0.0997925 6:-0.31666 
8 1:-0.825487 2:0.0744955 3:-0.237588 4:-0.555018 5:0.103703 6:-0.359587 
8 1:-0.778133 2:0.207883 3:-0.427869 4:-0.581289 5:-0.268989 6:-0.292424 
8 1:-0.764897 2:0.272928 3:-0.418297 4:-0.688555 5:-0.331467 6:-0.348641 
8 1:-0.702211 2:0.0181219 3:-0.321843 4:-0.795446 5:0.101233 6:-0.287695 
8 1:-0.776657 2:0.206886 3:-0.37432 4:-0.7546 5:-0.100368 6:-0.55684 
8 1:-0.831353 2:0.0808972 3:-0.315925 4:-0.966307 5:-0.0799027 6:-0.677697 
8 1:-0.741388 2:0.0666311 3:-0.268943 4:-0.958964 5:-0.178695 6:-0.462745 
8 1:-0.727555 2:0.112586 3:-0.169735 4:-0.634692 5:0.0118521 6:-0.31531 
8 1:-0.931168 2:-0.0133756 3:-0.221426 4:-0.572671 5:-0.142655 6:-0.313412 
8 1:-0.931168 2:-0.0133756 3:-0.221426 4:-0.572671 5:-0.142655 6:-0.313412 
8 1:-0.812351 2:0.201048 3:-0.259215 4:-0.77244 5:-0.222922 6:-0.281788 
8 1:-0.812104 2:0.154664 3:-0.158911 4:-0.912206 5:-0.103925 6:-0.406234 
8 1:-0.743748 2:0.109292 3:-0.163384 4:-0.912005 5:-0.163016 6:-0.317318 
8 1:-0.966521 2:0.0195837 3:-0.206151 4:-0.593645 5:0.252983 6:-0.492957 
8 1:-0.758971 2:0.0351959 3:-0.221199 4:-0.848627 5:0.0778315 6:-0.470788 
8 1:-0.760588 2:0.132122 3:-0.312156 4:-0.71209 5:-0.2652 6:-0.317718 
8 1:-0.82307 2:-0.145415 3:-0.200705 4:-0.740795 5:0.031831 6:-0.31905 
8 1:-0.82307 2:-0.145415 3:-0.200705 4:-0.740795 5:0.031831 6:-0.31905 
8 1:-0.786051 2:0.176645 3:-0.27749 4:-0.896323 5:-0.0648107 6:-0.354023 
8 1:-0.786051 2:0.176645 3:-0.27749 4:-0.896323 5:-0.0648107 6:-0.354023 
8 1:-0.681905 2:0.220948 3:-0.0732206 4:-0.725366 5:0.023485 6:-0.20231 
8 1:-0.744278 2:0.144235 3:-0.386107 4:-0.775075 5:-0.165926 6:-0.290826 
8 1:-0.760601 2:0.158803 3:-0.40731 4:-0.810944 5:-0.13977 6:-0.312768 
8 1:-0.831543 2:0.138791 3:-0.126565 4:-0.762978 5:0.00193241 6:-0.347189 
8 1:-0.821366 2:0.0277193 3:-0.160229 4:-0.752379 5:-0.236718 6:-0.310484 
8 1:-0.800483 2:0.16626 3:-0.292961 4:-0.781461 5:0.0735117 6:-0.319574 
8 1:-0.742215 2:0.0688077 3:-0.135034 4:-0.634409 5:-0.284309 6:-0.243799 
8 1:-0.704972 2:0.082653 3:-0.297293 4:-0.907182 5:-0.110605 6:-0.359032 
8 1:-0.79356 2:0.00419975 3:-0.133457 4:-0.778792 5:-0.143305 6:-0.322888 
8 1:-0.753159 2:0.189834 3:-0.0594787 4:-0.655146 5:0.0997925 6:-0.31666 
8 1:-0.837318 2:0.224445 3:-0.204164 4:-0.777283 5:-0.0867369 6:-0.390939 
8 1:-0.894064 2:0.17434 3:-0.152042 4:-0.536626 5:0.119407 6:-0.317801 
8 1:-0.84652 2:0.244057 3:-0.137971 4:-0.620178 5:0.201328 6:-0.360762 
8 1:-0.802614 2:0.00641013 3:-0.234239 4:-0.650183 5:-0.0124598 6:-0.320632 
8 1:-0.802614 2:0.00641013 3:-0.234239 4:-0.650183 5:-0.0124598 6:-0.320632 
8 1:-0.71946 2:-0.0289575 3:-0.249314 4:-0.909185 5:-0.0452503 6:-0.382087 
8 1:-0.71946 2:-0.0289575 3:-0.249314 4:-0.909185 5:-0.0452503 6:-0.382087 
8 1:-0.798687 2:0.0479571 3:-0.20395 4:-0.933801 5:-0.0905385 6:-0.327851 
8 1:-0.82656 2:-0.026248 3:-0.261498 4:-0.956953 5:-0.1192 6:-0.610577 
8 1:-0.914326 2:0.0263735 3:-0.2319 4:-0.604316 5:-0.221253 6:-0.321921 
8 1:-0.931168 2:-0.0133756 3:-0.221426 4:-0.572671 5:-0.142655 6:-0.313412 
8 1:-0.743748 2:0.109292 3:-0.163384 4:-0.912005 5:-0.163016 6:-0.317318 
8 1:-0.71946 2:-0.0289575 3:-0.249314 4:-0.909185 5:-0.0452503 6:-0.382087 
8 1:-0.759262 2:0.101512 3:-0.248234 4:-0.888465 5:0.0108582 6:-0.407558 
8 1:-0.752639 2:0.174897 3:-0.318948 4:-0.929631 5:-0.0697236 6:-0.590843 
8 1:-0.767087 2:-0.0513717 3:-0.219336 4:-0.784724 5:0.119515 6:-0.361111 
8 1:-0.767087 2:-0.0513717 3:-0.219336 4:-0.784724 5:0.119515 6:-0.361111 
8 1:-0.759262 2:0.101512 3:-0.248234 4:-0.888465 5:0.0108582 6:-0.407558 
8 1:-0.759262 2:0.101512 3:-0.248234 4:-0.888465 5:0.0108582 6:-0.407558 
8 1:-0.957085 2:-0.0442472 3:-0.270781 4:-0.852335 5:0.0246933 6:-0.840675 
8 1:-0.957085 2:-0.0442472 3:-0.270781 4:-0.852335 5:0.0246933 6:-0.840675 
8 1:-0.949398 2:0.0697729 3:-0.184208 4:-0.945962 5:-0.123179 6:-0.377898 
8 1:-0.811014 2:0.0904807 3:-0.197462 4:-0.925385 5:0.0411034 6:-0.361365 
8 1:-0.797049 2:0.151804 3:-0.197878 4:-0.886242 5:0.0464929 6:-0.35613 
8 1:-0.792958 2:0.125972 3:-0.238618 4:-0.865299 5:0.0240329 6:-0.39343 
8 1:-0.804064 2:0.120675 3:-0.120083 4:-0.694607 5:-0.195799 6:-0.38221 
8 1:-0.704972 2:0.0826531 3:-0.297292 4:-0.907182 5:-0.110605 6:-0.359032 
8 1:-0.864343 2:-0.0399297 3:-0.360206 4:-0.609664 5:-0.198346 6:-0.347549 
5.077124791175414 1:-0.83322 2:-0.118873 3:-0.299795 4:-0.700796 5:-0.100787 6:-0.293745 
8 1:-0.615201 2:-0.0459617 3:-0.328311 4:-0.919556 5:-0.0300089 6:-0.455362 
8 1:-0.841199 2:-0.167831 3:-0.277693 4:-0.738149 5:-0.0471655 6:-0.314124 
8 1:-0.790622 2:0.044353 3:-0.172349 4:-0.582978 5:-0.139569 6:-0.358497 
8 1:-0.968626 2:0.0711364 3:-0.161721 4:-0.977897 5:-0.0526399 6:-0.344295 
8 1:-0.758665 2:0.0252033 3:-0.257462 4:-0.870835 5:0.00513598 6:-0.284058 
8 1:-0.914326 2:0.0263735 3:-0.2319 4:-0.604316 5:-0.221253 6:-0.321921 
8 1:-0.769006 2:0.0589614 3:-0.312721 4:-0.932821 5:-0.10291 6:-0.343375 
8 1:-0.931168 2:-0.0133754 3:-0.221426 4:-0.572671 5:-0.142655 6:-0.313412 
8 1:-0.786051 2:0.176645 3:-0.27749 4:-0.896323 5:-0.0648107 6:-0.354023 
8 1:-0.71946 2:-0.0289575 3:-0.249314 4:-0.909185 5:-0.0452503 6:-0.382087 
8 1:-0.746308 2:0.182724 3:-0.185968 4:-0.892636 5:0.0402888 6:-0.469659 
8 1:-0.759262 2:0.101512 3:-0.248234 4:-0.888465 5:0.010859 6:-0.407558 
8 1:-0.746308 2:0.182724 3:-0.185968 4:-0.892636 5:0.0402888 6:-0.469659 
8 1:-0.753294 2:0.0466119 3:-0.261379 4:-0.865601 5:-0.0578877 6:-0.317218 
8 1:-0.753294 2:0.0466119 3:-0.261379 4:-0.865601 5:-0.0578877 6:-0.317218 
8 1:-0.772692 2:0.08974 3:-0.202141 4:-0.948833 5:-0.0447246 6:-0.422057 
8 1:-0.767336 2:0.0998525 3:-0.247399 4:-0.640821 5:0.0186816 6:-0.284956 
8 1:-0.811014 2:0.0904807 3:-0.197462 4:-0.925385 5:0.0411034 6:-0.361365 
8 1:-0.767336 2:0.0998525 3:-0.247399 4:-0.640821 5:0.0186816 6:-0.284956 
8 1:-0.797049 2:0.151805 3:-0.197878 4:-0.886242 5:0.0464929 6:-0.35613 
8 1:-0.97366 2:-0.00673386 3:-0.348444 4:-0.956 5:0.068847 6:-0.425448 
8 1:-0.783925 2:0.0204862 3:-0.148541 4:-0.665195 5:-0.148284 6:-0.293946 
8 1:-0.792958 2:0.125971 3:-0.238618 4:-0.865299 5:0.0240329 6:-0.39343 
8 1:-0.875805 2:0.055151 3:-0.231057 4:-0.913931 5:-0.0880553 6:-0.288642 
8 1:-0.827783 2:-0.0613482 3:-0.113306 4:-0.693058 5:-0.111926 6:-0.382158 
8 1:-0.861163 2:0.0974145 3:-0.378216 4:-0.844199 5:-0.0993082 6:-0.24751 
8 1:-0.72675 2:-0.0376512 3:-0.283632 4:-0.863647 5:-0.170554 6:-0.250581 
8 1:-0.72675 2:-0.0376512 3:-0.283632 4:-0.863647 5:-0.170554 6:-0.250581 
8 1:-0.811014 2:0.0904807 3:-0.197462 4:-0.925385 5:0.0411034 6:-0.361365 
8 1:-0.811014 2:0.0904807 3:-0.197462 4:-0.925385 5:0.0411034 6:-0.361365 
8 1:-0.816995 2:-0.0838282 3:-0.272089 4:-0.896278 5:0.101719 6:-0.139917 
8 1:-0.77167 2:0.19593 3:-0.272727 4:-0.762846 5:-0.11078 6:-0.370578 
8 1:-0.753018 2:-0.0146201 3:-0.310185 4:-0.938793 5:-0.135117 6:-0.335326 
8 1:-0.785076 2:0.0359848 3:-0.321685 4:-0.936269 5:-0.105913 6:-0.32603 
8 1:-0.730177 2:0.0246483 3:-0.314794 4:-0.727759 5:0.10868 6:-0.323614 
8 1:-0.84026 2:-0.00957818 3:-0.37178 4:-0.940823 5:-0.1546 6:-0.296905 
8 1:-0.882103 2:-0.0501528 3:-0.149837 4:-0.801109 5:-0.179951 6:-0.583851 
8 1:-0.945849 2:0.00497609 3:-0.21233 4:-0.98214 5:-0.0756119 6:-0.749439 
8 1:-0.658407 2:0.216761 3:-0.339557 4:-0.802192 5:-0.15903 6:-0.267666 
8 1:-0.754387 2:0.23795 3:-0.364802 4:-0.715473 5:-0.376748 6:-0.326759 
8 1:-0.746308 2:0.182724 3:-0.185968 4:-0.892636 5:0.0402888 6:-0.469659 
8 1:-0.811753 2:0.00284706 3:-0.130519 4:-0.922012 5:-0.0451878 6:-0.311087 
8 1:-0.815134 2:-0.0636388 3:-0.259976 4:-0.638075 5:-0.123755 6:-0.314167 
8 1:-0.815134 2:-0.0636388 3:-0.259976 4:-0.638075 5:-0.123755 6:-0.314167 
8 1:-0.797049 2:0.151804 3:-0.197878 4:-0.886242 5:0.0464929 6:-0.35613 
8 1:-0.797049 2:0.151804 3:-0.197878 4:-0.886242 5:0.0464929 6:-0.35613 
8 1:-0.797156 2:0.166246 3:-0.194197 4:-0.656611 5:-0.0384832 6:-0.310172 
8 1:-0.829498 2:-0.0831434 3:-0.113827 4:-0.829229 5:-0.172578 6:-0.468627 
8 1:-0.875805 2:0.0551512 3:-0.231057 4:-0.913931 5:-0.0880551 6:-0.288642 
8 1:-0.854194 2:0.0159828 3:-0.197767 4:-0.731493 5:0.288055 6:-0.353434 
8 1:-0.793252 2:-0.0751064 3:-0.228239 4:-0.745579 5:-0.516583 6:-0.227624 
8 1:-0.764195 2:-0.00297465 3:-0.305962 4:-0.931933 5:0.0388839 6:-0.438352 
8 1:-0.764195 2:-0.00297465 3:-0.305962 4:-0.931933 5:0.0388839 6:-0.438352 
8 1:-0.945432 2:0.0497234 3:-0.217024 4:-0.930824 5:-0.0771161 6:-0.755486 
8 1:-0.778178 2:0.119021 3:-0.463991 4:-0.924534 5:-0.261439 6:-0.426369 
8 1:-0.806927 2:-0.110091 3:-0.363781 4:-0.790261 5:0.325141 6:-0.274588 
8 1:-0.889615 2:0.000428841 3:-0.296341 4:-0.81379 5:0.306664 6:-0.156444 
8 1:-0.783047 2:0.0380543 3:-0.228594 4:-0.836221 5:-0.407229 6:-0.313835 
8 1:-0.861163 2:0.0974145 3:-0.378216 4:-0.844199 5:-0.0993079 6:-0.24751 
8 1:-0.724472 2:0.0655963 3:-0.4168 4:-0.82715 5:0.160681 6:-0.273644 
8 1:-0.815415 2:0.0529448 3:-0.302998 4:-0.580264 5:-0.158006 6:-0.304322 
8 1:-0.815415 2:0.0529448 3:-0.302998 4:-0.580264 5:-0.158006 6:-0.304322 
8 1:-0.897064 2:0.0415385 3:-0.250959 4:-0.889022 5:-0.263156 6:-0.251102 
8 1:-0.902075 2:0.042316 3:-0.320219 4:-0.83271 5:-0.384503 6:-0.317852 
8 1:-0.894943 2:0.0273605 3:-0.217634 4:-0.892177 5:-0.223254 6:-0.243733 
8 1:-0.889615 2:0.000429024 3:-0.296341 4:-0.81379 5:0.306664 6:-0.156444 
8 1:-0.807047 2:-0.00225407 3:-0.252367 4:-0.838791 5:-0.191093 6:-0.243993 
8 1:-0.795299 2:-0.0407534 3:-0.179419 4:-0.858353 5:-0.379422 6:-0.28815 
8 1:-0.778798 2:-0.0761306 3:-0.32316 4:-0.826206 5:0.0735867 6:-0.242392 
8 1:-0.833127 2:0.0687426 3:-0.390638 4:-0.930428 5:-0.0142817 6:-0.374195 
8 1:-0.945432 2:0.0497234 3:-0.217024 4:-0.930824 5:-0.0771161 6:-0.755486 
8 1:-0.889346 2:0.0398511 3:-0.27274 4:-0.865927 5:-0.271969 6:-0.253646 
8 1:-0.88664 2:0.0294847 3:-0.253344 4:-0.930078 5:-0.174147 6:-0.281713 
8 1:-0.967412 2:0.0750826 3:-0.1991 4:-0.82827 5:0.155978 6:-0.346305 
8 1:-0.879827 2:0.0602066 3:-0.293181 4:-0.903002 5:0.0531756 6:-0.279166 
8 1:-0.886506 2:0.0320653 3:-0.227667 4:-0.92545 5:-0.175674 6:-0.219695 
8 1:-0.820532 2:0.0601784 3:-0.183371 4:-0.866863 5:-0.240082 6:-0.283929 
8 1:-0.807047 2:-0.00225388 3:-0.252367 4:-0.838791 5:-0.191093 6:-0.243993 
8 1:-0.807047 2:-0.00225388 3:-0.252367 4:-0.838791 5:-0.191093 6:-0.243993 
8 1:-0.792958 2:0.125972 3:-0.238618 4:-0.865299 5:0.0240329 6:-0.39343 
8 1:-0.792958 2:0.125972 3:-0.238618 4:-0.865299 5:0.0240329 6:-0.39343 
8 1:-0.726476 2:0.0614978 3:-0.413739 4:-0.916937 5:0.0733706 6:-0.256294 
8 1:-0.80742 2:0.173003 3:-0.297021 4:-0.842797 5:-0.0191562 6:-0.334745 
8 1:-0.905767 2:0.025633 3:-0.289863 4:-0.957201 5:-0.163909 6:-0.148432 
8 1:-0.859865 2:0.0433238 3:-0.261047 4:-0.909935 5:-0.138073 6:-0.262716 
8 1:-0.875863 2:0.0472408 3:-0.305016 4:-0.928625 5:0.0416961 6:-0.238155 
8 1:-0.889232 2:-0.0177446 3:-0.256934 4:-0.863557 5:-0.0862892 6:-0.274559 
8 1:-0.809205 2:0.0779884 3:-0.174369 4:-0.914507 5:-0.209257 6:-0.241895 
8 1:-0.865197 2:0.166843 3:-0.337136 4:-0.882197 5:0.0130524 6:-0.2974 
8 1:-0.80742 2:0.173003 3:-0.297021 4:-0.842797 5:-0.0191562 6:-0.334745 
8 1:-0.859865 2:0.0433237 3:-0.261047 4:-0.909934 5:-0.138073 6:-0.262716 
8 1:-0.951866 2:0.0761982 3:-0.189269 4:-0.878053 5:-0.0138907 6:-0.634759 
8 1:-0.869396 2:0.0416573 3:-0.167777 4:-0.875219 5:0.0233007 6:-0.365872 
8 1:-0.889232 2:-0.0177446 3:-0.256934 4:-0.863557 5:-0.0862892 6:-0.274559 
8 1:-0.804064 2:0.120675 3:-0.120083 4:-0.694607 5:-0.195799 6:-0.38221 
8 1:-0.870426 2:0.0093102 3:-0.0462113 4:-0.975029 5:-0.221266 6:-0.439822 
8 1:-0.804064 2:0.120675 3:-0.120083 4:-0.694607 5:-0.195799 6:-0.38221 
8 1:-0.745809 2:-0.15703 3:-0.193249 4:-0.8581 5:-0.000207918 6:-0.397564 
7.584340629600727 1:-0.728486 2:-0.0850045 3:-0.261835 4:-0.90393 5:-0.132442 6:-0.350428 
8 1:-0.928803 2:-0.131403 3:-0.19342 4:-0.709168 5:-0.274475 6:-0.496986 
8 1:-0.698309 2:0.115675 3:-0.25195 4:-0.926388 5:-0.203116 6:-0.3988 
8 1:-0.961574 2:0.0559618 3:-0.382697 4:-0.951753 5:-0.00447635 6:-0.142448 
8 1:-0.887517 2:0.0697113 3:-0.187148 4:-0.922435 5:0.0916763 6:-0.597076 
8 1:-0.64158 2:-0.115315 3:-0.578447 4:-0.595236 5:0.197904 6:-0.311996 
8 1:-0.856529 2:0.0908653 3:-0.182264 4:-0.887242 5:0.0500479 6:-0.539681 
8 1:-0.815915 2:0.0825009 3:-0.50619 4:-0.964598 5:-0.167376 6:-0.29643 
8 1:-0.87397 2:0.0803711 3:-0.39597 4:-0.973534 5:-0.195416 6:-0.267471 
8 1:-0.864343 2:-0.0399297 3:-0.360206 4:-0.609664 5:-0.198346 6:-0.347549 
8 1:-0.864343 2:-0.0399297 3:-0.360206 4:-0.609664 5:-0.198346 6:-0.347549 
8 1:-0.831353 2:0.0808972 3:-0.315925 4:-0.966307 5:-0.0799027 6:-0.677697 
8 1:-0.895136 2:0.0649521 3:-0.288676 4:-0.760978 5:-0.186502 6:-0.219389 
8 1:-0.848858 2:-0.103298 3:-0.247504 4:-0.748877 5:-0.237998 6:-0.626109 
8 1:-0.773336 2:-0.0543473 3:-0.1927 4:-0.836788 5:-0.348239 6:-0.572014 
8 1:-0.879583 2:-0.0646539 3:-0.0924332 4:-0.886428 5:-0.374106 6:-0.357643 
8 1:-0.675826 2:0.169143 3:-0.168089 4:-0.765938 5:-0.0476661 6:-0.252677 
8 1:-0.764195 2:-0.00297465 3:-0.305962 4:-0.931933 5:0.0388839 6:-0.438352 
8 1:-0.789959 2:0.0402896 3:-0.291262 4:-0.957057 5:-0.258227 6:-0.382802 
8 1:-0.882103 2:-0.0501528 3:-0.149837 4:-0.801109 5:-0.179951 6:-0.583851 
8 1:-0.953316 2:0.0607557 3:-0.29049 4:-0.959352 5:-0.0877565 6:-0.377558 
8 1:-0.778178 2:0.119021 3:-0.463991 4:-0.924534 5:-0.261439 6:-0.426369 
8 1:-0.823658 2:0.0876945 3:-0.35572 4:-0.956081 5:-0.0503113 6:-0.384795 
8 1:-0.815733 2:0.167985 3:-0.261817 4:-0.916012 5:-0.0908319 6:-0.332035 
8 1:-0.815733 2:0.167985 3:-0.261817 4:-0.916012 5:-0.0908319 6:-0.332035 
8 1:-0.83322 2:-0.118873 3:-0.299795 4:-0.700796 5:-0.100787 6:-0.293745 
8 1:-0.83322 2:-0.118873 3:-0.299795 4:-0.700796 5:-0.100787 6:-0.293745 
8 1:-0.955161 2:0.0297873 3:-0.278556 4:-0.918954 5:-0.026219 6:-0.770142 
8 1:-0.484855 2:0.021925 3:-0.422874 4:-0.895859 5:-0.0566759 6:-0.316245 
8 1:-0.869396 2:0.0416573 3:-0.167777 4:-0.875219 5:0.0233007 6:-0.365872 
8 1:-0.7957 2:0.0903368 3:-0.18329 4:-0.858403 5:0.00700888 6:-0.579906 
8 1:-0.815915 2:0.0825009 3:-0.50619 4:-0.964598 5:-0.167376 6:-0.29643 
8 1:-0.829041 2:0.111075 3:-0.163945 4:-0.74468 5:0.0864344 6:-0.545665 
8 1:-0.854934 2:0.0050567 3:-0.133647 4:-0.897284 5:-0.13304 6:-0.518147 
8 1:-0.913195 2:0.180306 3:-0.238769 4:-0.82634 5:0.0284212 6:-0.324915 
8 1:-0.715457 2:0.127398 3:-0.242057 4:-0.791779 5:0.144484 6:-0.624482 
8 1:-0.776657 2:0.206886 3:-0.37432 4:-0.7546 5:-0.100368 6:-0.55684 
8 1:-0.827783 2:-0.0613482 3:-0.113306 4:-0.693058 5:-0.111926 6:-0.382158 
8 1:-0.83322 2:-0.118873 3:-0.299795 4:-0.700796 5:-0.100787 6:-0.293745 
8 1:-0.83322 2:-0.118873 3:-0.299795 4:-0.700796 5:-0.100787 6:-0.293745 
8 1:-0.812104 2:0.154664 3:-0.158911 4:-0.912206 5:-0.103925 6:-0.406234 
8 1:-0.812104 2:0.154664 3:-0.158911 4:-0.912206 5:-0.103925 6:-0.406234 
8 1:-0.926305 2:0.0600236 3:-0.215949 4:-0.980969 5:-0.00656768 6:-0.400209 
8 1:-0.854934 2:0.0050567 3:-0.133647 4:-0.897284 5:-0.13304 6:-0.518147 
8 1:-0.942047 2:0.0947126 3:-0.175943 4:-0.876551 5:-0.0164013 6:-0.283581 
8 1:-0.966521 2:0.0195837 3:-0.206151 4:-0.593645 5:0.252983 6:-0.492957 
8 1:-0.778178 2:0.119021 3:-0.463991 4:-0.924534 5:-0.261439 6:-0.426369 
8 1:-0.82656 2:-0.026248 3:-0.261498 4:-0.956953 5:-0.1192 6:-0.610577 
8 1:-0.91884 2:-0.00732229 3:-0.143685 4:-0.728948 5:0.0643518 6:-0.360256 
8 1:-0.791787 2:0.178224 3:-0.043272 4:-0.697961 5:0.232193 6:-0.394714 
8 1:-0.752639 2:0.174897 3:-0.318948 4:-0.929631 5:-0.0697236 6:-0.590843 
8 1:-0.814827 2:-0.0999644 3:-0.0923161 4:-0.669362 5:0.26086 6:-0.227309 
8 1:-0.804699 2:0.0283636 3:-0.0610287 4:-0.582119 5:0.0413031 6:-0.474243 
8 1:-0.784185 2:-0.154154 3:-0.191228 4:-0.774658 5:0.109587 6:-0.284987 
8 1:-0.789261 2:0.0702871 3:-0.525637 4:-0.960187 5:-0.143136 6:-0.350105 
8 1:-0.886378 2:0.148577 3:-0.18582 4:-0.726215 5:0.129551 6:-0.458405 
8 1:-0.603449 2:-0.103967 3:-0.344977 4:-0.85899 5:-0.191456 6:-0.328761 
8 1:-0.703234 2:-0.0685411 3:-0.237984 4:-0.653718 5:0.0739177 6:-0.542517 
8 1:-0.804892 2:0.192455 3:-0.0474273 4:-0.800274 5:0.0823641 6:-0.370964 
8 1:-0.764195 2:-0.00297465 3:-0.305962 4:-0.931933 5:0.0388839 6:-0.438352 
8 1:-0.966521 2:0.0195836 3:-0.206151 4:-0.593646 5:0.252983 6:-0.492957 
8 1:-0.824451 2:0.0675721 3:-0.0377889 4:-0.884953 5:-0.197688 6:-0.385178 
8 1:-0.967412 2:0.0750826 3:-0.1991 4:-0.82827 5:0.155978 6:-0.346305 
8 1:-0.827027 2:0.150854 3:-0.167875 4:-0.801125 5:0.0645647 6:-0.582668 
8 1:-0.825487 2:0.0744955 3:-0.237588 4:-0.555018 5:0.103703 6:-0.359587 
8 1:-0.825487 2:0.0744955 3:-0.237588 4:-0.555018 5:0.103703 6:-0.359587 
8 1:-0.78488 2:0.1311 3:-0.168091 4:-0.894471 5:0.00517757 6:-0.576474 
8 1:-0.772727 2:-0.0373068 3:-0.287324 4:-0.958269 5:-0.113239 6:-0.631671 
8 1:-0.752639 2:0.174897 3:-0.318948 4:-0.929631 5:-0.0697236 6:-0.590843 
8 1:-0.895136 2:0.0649521 3:-0.288676 4:-0.760978 5:-0.186502 6:-0.219389 
8 1:-0.832267 2:0.154111 3:-0.227199 4:-0.878315 5:-0.0667721 6:-0.588426 
8 1:-0.675826 2:0.169143 3:-0.168089 4:-0.765938 5:-0.0476661 6:-0.252677 
8 1:-0.832665 2:-0.0907995 3:-0.267401 4:-0.848365 5:-0.121346 6:-0.728326 
8 1:-0.913195 2:0.180306 3:-0.238769 4:-0.82634 5:0.0284212 6:-0.324915 
8 1:-0.764938 2:0.173265 3:-0.296498 4:-0.784393 5:-0.119776 6:-0.346274 
8 1:-0.979955 2:-0.174997 3:-0.234315 4:0.336424 5:-0.324518 6:-0.895501 
8 1:-0.942047 2:0.0947126 3:-0.175943 4:-0.876551 5:-0.0164013 6:-0.283581 
8 1:-0.84026 2:-0.00957818 3:-0.37178 4:-0.940823 5:-0.1546 6:-0.296905 
8 1:-0.91884 2:-0.00732229 3:-0.143685 4:-0.728948 5:0.0643518 6:-0.360256 
8 1:-0.790622 2:0.044353 3:-0.172349 4:-0.582978 5:-0.139569 6:-0.358497 
8 1:-0.790622 2:0.044353 3:-0.172349 4:-0.582978 5:-0.139569 6:-0.358497 
8 1:-0.784185 2:-0.154154 3:-0.191228 4:-0.774658 5:0.109587 6:-0.284987 
8 1:-0.603449 2:-0.103967 3:-0.344977 4:-0.85899 5:-0.191456 6:-0.328761 
8 1:-0.776975 2:-0.126755 3:-0.152875 4:-0.730268 5:-0.231487 6:-0.432262 
8 1:-0.866449 2:0.0478436 3:-0.181934 4:-0.972173 5:-0.0693185 6:-0.435619 
8 1:-0.776657 2:0.206886 3:-0.37432 4:-0.7546 5:-0.100368 6:-0.55684 
8 1:-0.764938 2:0.173265 3:-0.296498 4:-0.784393 5:-0.119776 6:-0.346274 
8 1:-0.69826 2:0.0532796 3:-0.315845 4:-0.92261 5:-0.143457 6:-0.395514 
8 1:-0.758665 2:0.0252033 3:-0.257462 4:-0.870835 5:0.00513598 6:-0.284058 
8 1:-0.758665 2:0.0252033 3:-0.257462 4:-0.870835 5:0.00513598 6:-0.284058 
8 1:-0.671381 2:0.120222 3:-0.267508 4:-0.912572 5:-0.10689 6:-0.376966 
8 1:-0.678709 2:0.107616 3:-0.51941 4:-0.913374 5:-0.0818323 6:-0.382807 
8 1:-0.910874 2:-0.0209169 3:-0.131851 4:-0.463349 5:0.262812 6:-0.347383 
8 1:-0.731696 2:-0.00307391 3:-0.248692 4:-0.946341 5:-0.0809106 6:-0.381315 
8 1:-0.779411 2:0.170279 3:-0.407791 4:-0.899965 5:-0.186811 6:-0.425291 
8 1:-0.77167 2:0.19593 3:-0.272727 4:-0.762846 5:-0.11078 6:-0.370578 
8 1:-0.935542 2:0.0377568 3:-0.302635 4:-0.938702 5:-0.0492159 6:-0.272815 
8 1:-0.830974 2:0.0555944 3:-0.278247 4:-0.935103 5:-0.160065 6:-0.266233 
8 1:-0.766198 2:0.0910468 3:-0.505503 4:-0.983448 5:-0.187813 6:-0.544522 
8 1:-0.739107 2:0.00487482 3:-0.166465 4:-0.949545 5:0.080046 6:-0.509729 
8 1:-0.678709 2:0.107616 3:-0.51941 4:-0.913374 5:-0.0818323 6:-0.382807 
8 1:-0.769006 2:0.0589614 3:-0.312721 4:-0.932821 5:-0.10291 6:-0.343375 
8 1:-0.769006 2:0.0589614 3:-0.312721 4:-0.932821 5:-0.10291 6:-0.343375 
8 1:-0.918205 2:0.179428 3:-0.119178 4:-0.781659 5:0.0334772 6:-0.585596 
8 1:-0.910874 2:-0.0209169 3:-0.131851 4:-0.463349 5:0.262812 6:-0.347383 
8 1:-0.730909 2:0.0536816 3:-0.364839 4:-0.945596 5:0.0156672 6:-0.513627 
8 1:-0.957085 2:-0.0442472 3:-0.270781 4:-0.852335 5:0.0246933 6:-0.840675 
2.273241451335271 1:-0.887927 2:-0.0222524 3:-0.274322 4:-0.576246 5:0.0779684 6:-0.605442 
8 1:-0.00861924 2:-0.0859753 3:-0.334628 4:-0.994139 5:-0.0736327 6:-0.568154 
8 1:-0.674648 2:0.0257456 3:-0.269711 4:-0.728479 5:-0.184397 6:-0.261967 
8 1:-0.758971 2:0.0351959 3:-0.221199 4:-0.848627 5:0.0778315 6:-0.470788 
8 1:-0.82307 2:-0.145415 3:-0.200705 4:-0.740795 5:0.031831 6:-0.31905 
8 1:-0.949398 2:0.0697729 3:-0.184208 4:-0.945962 5:-0.123179 6:-0.377898 
8 1:-0.802614 2:0.00641013 3:-0.234239 4:-0.650183 5:-0.0124598 6:-0.320632 
8 1:-0.966521 2:0.0195837 3:-0.206151 4:-0.593645 5:0.252983 6:-0.492957 
8 1:-0.968626 2:0.0711364 3:-0.161721 4:-0.977897 5:-0.0526399 6:-0.344295 
8 1:-0.935542 2:0.0377568 3:-0.302635 4:-0.938702 5:-0.0492159 6:-0.272815 
8 1:-0.767087 2:-0.0513717 3:-0.219336 4:-0.784724 5:0.119515 6:-0.361111 
8 1:-0.97366 2:-0.00673386 3:-0.348444 4:-0.956 5:0.068847 6:-0.425448 
8 1:-0.753294 2:0.0466119 3:-0.261379 4:-0.865601 5:-0.0578877 6:-0.317218 
8 1:-0.830974 2:0.0555944 3:-0.278247 4:-0.935103 5:-0.160065 6:-0.266233 
8 1:-0.72675 2:-0.0376512 3:-0.283632 4:-0.863647 5:-0.170554 6:-0.250581 
8 1:-0.815134 2:-0.0636388 3:-0.259976 4:-0.638075 5:-0.123755 6:-0.314167 
8 1:-0.815415 2:0.0529448 3:-0.302998 4:-0.580264 5:-0.158006 6:-0.304322 
8 1:-0.807748 2:0.0230598 3:-0.0854778 4:-0.837402 5:-0.136139 6:-0.544373 
8 1:-0.815733 2:0.167985 3:-0.261817 4:-0.916012 5:-0.0908319 6:-0.332035 
8 1:-0.894855 2:0.150531 3:-0.0493757 4:-0.806834 5:0.030908 6:-0.427476 
8 1:-0.825487 2:0.0744955 3:-0.237588 4:-0.555018 5:0.103703 6:-0.359587 
8 1:-0.929467 2:0.0485612 3:-0.204389 4:-0.986372 5:-0.0794319 6:-0.95518 
8 1:-0.890505 2:-0.0626528 3:-0.262285 4:-0.465814 5:0.0145901 6:-0.628431 
8 1:-0.776975 2:-0.126755 3:-0.152875 4:-0.730268 5:-0.231487 6:-0.432262 
8 1:-0.741388 2:0.0666311 3:-0.268943 4:-0.958964 5:-0.178695 6:-0.462745 
8 1:-0.753018 2:-0.0146201 3:-0.310185 4:-0.938793 5:-0.135117 6:-0.335326 
8 1:-0.70006 2:0.0279173 3:-0.266017 4:-0.653178 5:-0.0720371 6:-0.264964 
8 1:-0.812351 2:0.201048 3:-0.259215 4:-0.77244 5:-0.222922 6:-0.281788 
8 1:-0.741335 2:0.132136 3:-0.266695 4:-0.703158 5:-0.0351442 6:-0.293385 
8 1:-0.918205 2:0.179428 3:-0.119178 4:-0.781659 5:0.0334772 6:-0.585596 
8 1:-0.82307 2:-0.145415 3:-0.200705 4:-0.740795 5:0.031831 6:-0.31905 
8 1:-0.802614 2:0.00641013 3:-0.234239 4:-0.650183 5:-0.0124599 6:-0.320632 
8 1:-0.753294 2:0.046612 3:-0.261379 4:-0.865601 5:-0.0578877 6:-0.317218 
8 1:-0.669502 2:-0.0352905 3:-0.381058 4:-0.86717 5:-0.0776121 6:-0.34286 
8 1:-0.746308 2:0.182724 3:-0.185968 4:-0.892636 5:0.0402888 6:-0.469659 
8 1:-0.746308 2:0.182724 3:-0.185968 4:-0.892636 5:0.0402888 6:-0.469659 
8 1:-0.730909 2:0.0536816 3:-0.364839 4:-0.945596 5:0.0156672 6:-0.513627 
8 1:-0.681905 2:0.220948 3:-0.0732206 4:-0.725366 5:0.023485 6:-0.20231 
8 1:-0.650733 2:0.100925 3:-0.435208 4:-0.793739 5:-0.221335 6:-0.296971 
8 1:-0.681905 2:0.220948 3:-0.0732206 4:-0.725366 5:0.023485 6:-0.20231 
8 1:-0.744278 2:0.144235 3:-0.386107 4:-0.775075 5:-0.165926 6:-0.290826 
8 1:-0.744278 2:0.144235 3:-0.386107 4:-0.775075 5:-0.165926 6:-0.290826 
8 1:-0.760601 2:0.158803 3:-0.40731 4:-0.810944 5:-0.13977 6:-0.312768 
8 1:-0.7606 2:0.158803 3:-0.40731 4:-0.810944 5:-0.13977 6:-0.312768 
8 1:-0.957085 2:-0.0442472 3:-0.270781 4:-0.852335 5:0.0246933 6:-0.840675 
7.638847142471656 1:-0.821366 2:0.0277193 3:-0.160229 4:-0.752379 5:-0.236718 6:-0.310484 
8 1:-0.831543 2:0.138791 3:-0.126565 4:-0.762978 5:0.00193241 6:-0.347189 
8 1:-0.742215 2:0.0688077 3:-0.135034 4:-0.634409 5:-0.284309 6:-0.243799 
8 1:-0.821366 2:0.0277191 3:-0.160229 4:-0.752379 5:-0.236718 6:-0.310484 
8 1:-0.79356 2:0.00419975 3:-0.133457 4:-0.778792 5:-0.143305 6:-0.322888 
8 1:-0.742215 2:0.0688077 3:-0.135034 4:-0.634409 5:-0.284309 6:-0.243799 
8 1:-0.753159 2:0.189834 3:-0.0594787 4:-0.655146 5:0.0997925 6:-0.31666 
8 1:-0.697398 2:0.0868575 3:-0.424145 4:-0.720268 5:-0.233975 6:-0.303324 
8 1:-0.894064 2:0.17434 3:-0.152042 4:-0.536626 5:0.119407 6:-0.317801 
8 1:-0.753159 2:0.189834 3:-0.0594787 4:-0.655146 5:0.0997925 6:-0.31666 
8 1:-0.887927 2:-0.0222524 3:-0.274322 4:-0.576246 5:0.0779684 6:-0.605442 
8 1:-0.967412 2:0.0750826 3:-0.1991 4:-0.82827 5:0.155978 6:-0.346305 
8 1:-0.82656 2:-0.026248 3:-0.261498 4:-0.956953 5:-0.1192 6:-0.610577 
8 1:-0.84652 2:0.244057 3:-0.137971 4:-0.620178 5:0.201328 6:-0.360762 
8 1:-0.778133 2:0.207883 3:-0.427869 4:-0.581289 5:-0.268989 6:-0.292424 
8 1:-0.741388 2:0.0666311 3:-0.268943 4:-0.958964 5:-0.178695 6:-0.462745 
8 1:-0.741388 2:0.0666311 3:-0.268943 4:-0.958964 5:-0.178695 6:-0.462745 
8 1:-0.764897 2:0.272928 3:-0.418297 4:-0.688555 5:-0.331467 6:-0.348641 
8 1:-0.82656 2:-0.026248 3:-0.261498 4:-0.956953 5:-0.1192 6:-0.610577 
8 1:-0.798687 2:0.0479571 3:-0.20395 4:-0.933801 5:-0.0905385 6:-0.327851 
8 1:-0.702211 2:0.0181219 3:-0.321843 4:-0.795446 5:0.101233 6:-0.287695 
8 1:-0.727555 2:0.112586 3:-0.169735 4:-0.634692 5:0.0118521 6:-0.31531 
8 1:-0.812351 2:0.201048 3:-0.259215 4:-0.77244 5:-0.222922 6:-0.281788 
8 1:-0.812351 2:0.201048 3:-0.259215 4:-0.77244 5:-0.222922 6:-0.281788 
8 1:-0.752639 2:0.174897 3:-0.318948 4:-0.929631 5:-0.0697236 6:-0.590843 
8 1:-0.704972 2:0.0826531 3:-0.297292 4:-0.907182 5:-0.110605 6:-0.359032 
8 1:-0.615201 2:-0.0459617 3:-0.328311 4:-0.919556 5:-0.0300089 6:-0.455362 
8 1:-0.767336 2:0.0998525 3:-0.247399 4:-0.640821 5:0.0186816 6:-0.284956 
8 1:-0.767336 2:0.0998525 3:-0.247399 4:-0.640821 5:0.0186816 6:-0.284956 
8 1:-0.914326 2:0.0263735 3:-0.2319 4:-0.604316 5:-0.221253 6:-0.321921 
3.151817784454695 1:0.555523 2:-0.13633 3:-0.237073 4:-0.992874 5:-0.0849067 6:-0.566052 
8 1:-0.931168 2:-0.0133754 3:-0.221426 4:-0.572671 5:-0.142655 6:-0.313412 
8 1:-0.786051 2:0.176645 3:-0.27749 4:-0.896323 5:-0.0648107 6:-0.354023 
8 1:-0.71946 2:-0.0289575 3:-0.249314 4:-0.909185 5:-0.0452503 6:-0.382087 
8 1:-0.759262 2:0.101512 3:-0.248234 4:-0.888465 5:0.010859 6:-0.407558 
8 1:-0.783925 2:0.0204862 3:-0.148541 4:-0.665195 5:-0.148284 6:-0.293946 
8 1:-0.783925 2:0.0204862 3:-0.148541 4:-0.665195 5:-0.148284 6:-0.293946 
8 1:-0.785076 2:0.0359848 3:-0.321685 4:-0.936269 5:-0.105913 6:-0.32603 
8 1:-0.811014 2:0.0904807 3:-0.197462 4:-0.925385 5:0.0411034 6:-0.361365 
8 1:-0.797049 2:0.151805 3:-0.197878 4:-0.886242 5:0.0464929 6:-0.35613 
8 1:-0.792958 2:0.125971 3:-0.238618 4:-0.865299 5:0.0240329 6:-0.39343 
8 1:-0.841199 2:-0.167831 3:-0.277693 4:-0.738149 5:-0.0471655 6:-0.314124 
8 1:-0.653772 2:-0.0854532 3:-0.330143 4:-0.864578 5:-0.0848942 6:-0.0755283 
8 1:-0.827783 2:-0.0613482 3:-0.113306 4:-0.693058 5:-0.111926 6:-0.382158 
8 1:-0.77167 2:0.19593 3:-0.272727 4:-0.762846 5:-0.11078 6:-0.370578 
8 1:-0.753018 2:-0.0146201 3:-0.310185 4:-0.938793 5:-0.135117 6:-0.335326 
8 1:-0.785076 2:0.0359848 3:-0.321685 4:-0.936269 5:-0.105913 6:-0.32603 
8 1:-0.00861924 2:-0.0859753 3:-0.334628 4:-0.994139 5:-0.0736327 6:-0.568154 
8 1:-0.746308 2:0.182724 3:-0.185968 4:-0.892636 5:0.0402888 6:-0.469659 
8 1:-0.875805 2:0.055151 3:-0.231057 4:-0.913931 5:-0.0880553 6:-0.288642 
8 1:-0.875805 2:0.055151 3:-0.231057 4:-0.913931 5:-0.0880553 6:-0.288642 
8 1:-0.875805 2:0.0551512 3:-0.231057 4:-0.913931 5:-0.0880551 6:-0.288642 
8 1:-0.902075 2:0.042316 3:-0.320219 4:-0.83271 5:-0.384503 6:-0.317852 
8 1:-0.861163 2:0.0974145 3:-0.378216 4:-0.844199 5:-0.0993079 6:-0.24751 
8 1:-0.967412 2:0.0750826 3:-0.1991 4:-0.82827 5:0.155978 6:-0.346305 
8 1:-0.902075 2:0.042316 3:-0.320219 4:-0.83271 5:-0.384503 6:-0.317852 
8 1:-0.889615 2:0.000429024 3:-0.296341 4:-0.81379 5:0.306664 6:-0.156444 
8 1:-0.795299 2:-0.0407534 3:-0.179419 4:-0.858353 5:-0.379422 6:-0.28815 
8 1:-0.833127 2:0.0687426 3:-0.390638 4:-0.930428 5:-0.0142817 6:-0.374195 
8 1:-0.88664 2:0.0294847 3:-0.253344 4:-0.930078 5:-0.174147 6:-0.281713 
8 1:-0.82307 2:-0.145415 3:-0.200705 4:-0.740795 5:0.031831 6:-0.31905 
8 1:-0.886506 2:0.0320653 3:-0.227667 4:-0.92545 5:-0.175674 6:-0.219695 
6.560473226281941 1:-0.864483 2:0.0368177 3:-0.385962 4:-0.948447 5:-0.183633 6:-0.588232 
8 1:-0.807047 2:-0.00225388 3:-0.252367 4:-0.838791 5:-0.191093 6:-0.243993 
8 1:-0.905767 2:0.025633 3:-0.289863 4:-0.957201 5:-0.163909 6:-0.148432 
8 1:-0.802614 2:0.00641013 3:-0.234239 4:-0.650183 5:-0.0124598 6:-0.320632 
8 1:-0.875863 2:0.0472408 3:-0.305016 4:-0.928625 5:0.0416961 6:-0.238155 
8 1:-0.809205 2:0.0779884 3:-0.174369 4:-0.914507 5:-0.209257 6:-0.241895 
8 1:-0.865197 2:0.166843 3:-0.337136 4:-0.882197 5:0.0130524 6:-0.2974 
8 1:-0.80742 2:0.173003 3:-0.297021 4:-0.842797 5:-0.0191562 6:-0.334745 
8 1:-0.859865 2:0.0433237 3:-0.261047 4:-0.909934 5:-0.138073 6:-0.262716 
8 1:-0.889232 2:-0.0177446 3:-0.256934 4:-0.863557 5:-0.0862892 6:-0.274559 
8 1:-0.767087 2:-0.0513717 3:-0.219336 4:-0.784724 5:0.119515 6:-0.361111 
8 1:-0.745809 2:-0.15703 3:-0.193249 4:-0.8581 5:-0.000207918 6:-0.397564 
8 1:-0.698309 2:0.115675 3:-0.25195 4:-0.926388 5:-0.203116 6:-0.3988 
8 1:-0.64158 2:-0.115315 3:-0.578447 4:-0.595236 5:0.197904 6:-0.311996 
8 1:-0.856529 2:0.0908653 3:-0.182264 4:-0.887242 5:0.0500479 6:-0.539681 
8 1:-0.861163 2:0.0974145 3:-0.378216 4:-0.844199 5:-0.0993079 6:-0.24751 
8 1:-0.861163 2:0.0974145 3:-0.378216 4:-0.844199 5:-0.0993079 6:-0.24751 
8 1:-0.743748 2:0.109292 3:-0.163384 4:-0.912005 5:-0.163016 6:-0.317318 
8 1:-0.743748 2:0.109292 3:-0.163384 4:-0.912005 5:-0.163016 6:-0.317318 
8 1:-0.753294 2:0.0466119 3:-0.261379 4:-0.865601 5:-0.0578877 6:-0.317218 
8 1:-0.831353 2:0.0808972 3:-0.315925 4:-0.966307 5:-0.0799027 6:-0.677697 
8 1:-0.882103 2:-0.0501528 3:-0.149837 4:-0.801109 5:-0.179951 6:-0.583851 
8 1:-0.778178 2:0.119021 3:-0.463991 4:-0.924534 5:-0.261439 6:-0.426369 
8 1:-0.669502 2:-0.0352905 3:-0.381058 4:-0.86717 5:-0.0776121 6:-0.34286 
5.105559079553395 1:-0.669502 2:-0.0352905 3:-0.381058 4:-0.86717 5:-0.0776121 6:-0.34286 
8 1:-0.72675 2:-0.0376512 3:-0.283632 4:-0.863647 5:-0.170554 6:-0.250581 
8 1:-0.861163 2:0.0974145 3:-0.378216 4:-0.844199 5:-0.0993082 6:-0.24751 
8 1:-0.861163 2:0.0974145 3:-0.378216 4:-0.844199 5:-0.0993082 6:-0.24751 
8 1:-0.869396 2:0.0416573 3:-0.167777 4:-0.875219 5:0.0233007 6:-0.365872 
8 1:-0.815915 2:0.0825009 3:-0.50619 4:-0.964598 5:-0.167376 6:-0.29643 
8 1:-0.854934 2:0.0050567 3:-0.133647 4:-0.897284 5:-0.13304 6:-0.518147 
8 1:-0.681905 2:0.220948 3:-0.0732206 4:-0.725366 5:0.023485 6:-0.20231 
8 1:-0.681905 2:0.220948 3:-0.0732206 4:-0.725366 5:0.023485 6:-0.20231 
8 1:-0.966521 2:0.0195837 3:-0.206151 4:-0.593645 5:0.252983 6:-0.492957 
8 1:-0.815134 2:-0.0636388 3:-0.259976 4:-0.638075 5:-0.123755 6:-0.314167 
8 1:-0.82656 2:-0.026248 3:-0.261498 4:-0.956953 5:-0.1192 6:-0.610577 
8 1:-0.752639 2:0.174897 3:-0.318948 4:-0.929631 5:-0.0697236 6:-0.590843 
8 1:-0.744278 2:0.144235 3:-0.386107 4:-0.775075 5:-0.165926 6:-0.290826 
8 1:-0.744278 2:0.144235 3:-0.386107 4:-0.775075 5:-0.165926 6:-0.290826 
8 1:-0.815415 2:0.0529448 3:-0.302998 4:-0.580264 5:-0.158006 6:-0.304322 
8 1:-0.864483 2:0.0368177 3:-0.385962 4:-0.948447 5:-0.183633 6:-0.588232 
8 1:-0.764195 2:-0.00297465 3:-0.305962 4:-0.931933 5:0.0388839 6:-0.438352 
8 1:-0.764195 2:-0.00297465 3:-0.305962 4:-0.931933 5:0.0388839 6:-0.438352 
8 1:-0.760601 2:0.158803 3:-0.40731 4:-0.810944 5:-0.13977 6:-0.312768 
8 1:-0.760601 2:0.158803 3:-0.40731 4:-0.810944 5:-0.13977 6:-0.312768 
8 1:-0.730177 2:0.0246483 3:-0.314794 4:-0.727759 5:0.10868 6:-0.323614 
8 1:-0.730177 2:0.0246483 3:-0.314794 4:-0.727759 5:0.10868 6:-0.323614 
8 1:-0.967412 2:0.0750826 3:-0.1991 4:-0.82827 5:0.155978 6:-0.346305 
8 1:-0.895136 2:0.0649521 3:-0.288676 4:-0.760978 5:-0.186502 6:-0.219389 
8 1:-0.675826 2:0.169143 3:-0.168089 4:-0.765938 5:-0.0476661 6:-0.252677 
8 1:-0.913195 2:0.180306 3:-0.238769 4:-0.82634 5:0.0284212 6:-0.324915 
8 1:-0.942047 2:0.0947126 3:-0.175943 4:-0.876551 5:-0.0164013 6:-0.283581 
8 1:-0.831543 2:0.138791 3:-0.126565 4:-0.762978 5:0.00193241 6:-0.347189 
8 1:-0.831543 2:0.138791 3:-0.126565 4:-0.762978 5:0.00193241 6:-0.347189 
8 1:-0.658407 2:0.216761 3:-0.339557 4:-0.802192 5:-0.15903 6:-0.267666 
8 1:-0.658407 2:0.216761 3:-0.339557 4:-0.802192 5:-0.15903 6:-0.267666 
8 1:-0.91884 2:-0.00732229 3:-0.143685 4:-0.728948 5:0.0643518 6:-0.360256 
8 1:-0.603449 2:-0.103967 3:-0.344977 4:-0.85899 5:-0.191456 6:-0.328761 
8 1:-0.815733 2:0.167985 3:-0.261817 4:-0.916012 5:-0.0908319 6:-0.332035 
8 1:-0.764938 2:0.173265 3:-0.296498 4:-0.784393 5:-0.119776 6:-0.346274 
8 1:-0.967412 2:0.0750826 3:-0.1991 4:-0.82827 5:0.155978 6:-0.346305 
8 1:-0.821366 2:0.0277193 3:-0.160229 4:-0.752379 5:-0.236718 6:-0.310484 
8 1:-0.821366 2:0.0277193 3:-0.160229 4:-0.752379 5:-0.236718 6:-0.310484 
8 1:-0.754387 2:0.23795 3:-0.364802 4:-0.715473 5:-0.376748 6:-0.326759 
8 1:-0.754387 2:0.23795 3:-0.364802 4:-0.715473 5:-0.376748 6:-0.326759 
8 1:-0.678709 2:0.107616 3:-0.51941 4:-0.913374 5:-0.0818323 6:-0.382807 
8 1:-0.910874 2:-0.0209169 3:-0.131851 4:-0.463349 5:0.262812 6:-0.347383 
8 1:-0.935542 2:0.0377568 3:-0.302635 4:-0.938702 5:-0.0492159 6:-0.272815 
8 1:-0.830974 2:0.0555944 3:-0.278247 4:-0.935103 5:-0.160065 6:-0.266233 
8 1:-0.825487 2:0.0744955 3:-0.237588 4:-0.555018 5:0.103703 6:-0.359587 
8 1:-0.742215 2:0.0688077 3:-0.135034 4:-0.634409 5:-0.284309 6:-0.243799 
8 1:-0.742215 2:0.0688077 3:-0.135034 4:-0.634409 5:-0.284309 6:-0.243799 
8 1:-0.811753 2:0.00284706 3:-0.130519 4:-0.922012 5:-0.0451878 6:-0.311087 
8 1:-0.811753 2:0.00284706 3:-0.130519 4:-0.922012 5:-0.0451878 6:-0.311087 
8 1:-0.918205 2:0.179428 3:-0.119178 4:-0.781659 5:0.0334772 6:-0.585596 
8 1:-0.730909 2:0.0536816 3:-0.364839 4:-0.945596 5:0.0156672 6:-0.513627 
8 1:-0.957085 2:-0.0442472 3:-0.270781 4:-0.852335 5:0.0246933 6:-0.840675 
8 1:-0.887927 2:-0.0222524 3:-0.274322 4:-0.576246 5:0.0779684 6:-0.605442 
8 1:-0.889615 2:0.000429024 3:-0.296341 4:-0.81379 5:0.306664 6:-0.156444 
8 1:-0.79356 2:0.00419975 3:-0.133457 4:-0.778792 5:-0.143305 6:-0.322888 
8 1:-0.79356 2:0.00419975 3:-0.133457 4:-0.778792 5:-0.143305 6:-0.322888 
8 1:-0.731696 2:-0.00307391 3:-0.248692 4:-0.946341 5:-0.0809106 6:-0.381315 
8 1:-0.731696 2:-0.00307391 3:-0.248692 4:-0.946341 5:-0.0809106 6:-0.381315 
8 1:-0.00861924 2:-0.0859753 3:-0.334628 4:-0.994139 5:-0.0736327 6:-0.568154 
8 1:-0.674648 2:0.0257456 3:-0.269711 4:-0.728479 5:-0.184397 6:-0.261967 
8 1:-0.82307 2:-0.145415 3:-0.200705 4:-0.740795 5:0.031831 6:-0.31905 
8 1:-0.802614 2:0.00641013 3:-0.234239 4:-0.650183 5:-0.0124598 6:-0.320632 
8 1:-0.905767 2:0.025633 3:-0.289863 4:-0.957201 5:-0.163909 6:-0.148432 
8 1:-0.905767 2:0.025633 3:-0.289863 4:-0.957201 5:-0.163909 6:-0.148432 
8 1:-0.818784 2:-0.0126828 3:-0.109403 4:-0.910142 5:-0.00499411 6:-0.259651 
8 1:-0.818784 2:-0.0126828 3:-0.109403 4:-0.910142 5:-0.00499411 6:-0.259651 
8 1:-0.767087 2:-0.0513717 3:-0.219336 4:-0.784724 5:0.119515 6:-0.361111 
8 1:-0.753294 2:0.0466119 3:-0.261379 4:-0.865601 5:-0.0578877 6:-0.317218 
8 1:-0.72675 2:-0.0376512 3:-0.283632 4:-0.863647 5:-0.170554 6:-0.250581 
8 1:-0.815134 2:-0.0636388 3:-0.259976 4:-0.638075 5:-0.123755 6:-0.314167 
8 1:-0.815415 2:0.0529448 3:-0.302998 4:-0.580264 5:-0.158006 6:-0.304322 
8 1:-0.815733 2:0.167985 3:-0.261817 4:-0.916012 5:-0.0908319 6:-0.332035 
8 1:-0.753159 2:0.189834 3:-0.0594787 4:-0.655146 5:0.0997925 6:-0.31666 
8 1:-0.753159 2:0.189834 3:-0.0594787 4:-0.655146 5:0.0997925 6:-0.31666 
8 1:-0.895136 2:0.0649521 3:-0.288676 4:-0.760978 5:-0.186502 6:-0.219389 
8 1:-0.825487 2:0.0744955 3:-0.237588 4:-0.555018 5:0.103703 6:-0.359587 
8 1:-0.894064 2:0.17434 3:-0.152042 4:-0.536626 5:0.119407 6:-0.317801 
8 1:-0.894064 2:0.17434 3:-0.152042 4:-0.536626 5:0.119407 6:-0.317801 
8 1:-0.741388 2:0.0666311 3:-0.268943 4:-0.958964 5:-0.178695 6:-0.462745 
8 1:-0.675826 2:0.169143 3:-0.168089 4:-0.765938 5:-0.0476661 6:-0.252677 
8 1:-0.812351 2:0.201048 3:-0.259215 4:-0.77244 5:-0.222922 6:-0.281788 
8 1:-0.84652 2:0.244057 3:-0.137971 4:-0.620178 5:0.201328 6:-0.360762 
8 1:-0.84652 2:0.244057 3:-0.137971 4:-0.620178 5:0.201328 6:-0.360762 
8 1:-0.829498 2:-0.0831434 3:-0.113827 4:-0.829229 5:-0.172578 6:-0.468627 
8 1:-0.829498 2:-0.0831434 3:-0.113827 4:-0.829229 5:-0.172578 6:-0.468627 
8 1:-0.681905 2:0.220948 3:-0.0732206 4:-0.725366 5:0.023485 6:-0.20231 
8 1:-0.744278 2:0.144235 3:-0.386107 4:-0.775075 5:-0.165926 6:-0.290826 
8 1:-0.760601 2:0.158803 3:-0.40731 4:-0.810944 5:-0.13977 6:-0.312768 
8 1:-0.831543 2:0.138791 3:-0.126565 4:-0.762978 5:0.00193241 6:-0.347189 
8 1:-0.821366 2:0.0277193 3:-0.160229 4:-0.752379 5:-0.236718 6:-0.310484 
8 1:-0.742215 2:0.0688077 3:-0.135034 4:-0.634409 5:-0.284309 6:-0.243799 
8 1:-0.79356 2:0.00419975 3:-0.133457 4:-0.778792 5:-0.143305 6:-0.322888 
8 1:-0.753159 2:0.189834 3:-0.0594787 4:-0.655146 5:0.0997925 6:-0.31666 
8 1:-0.894064 2:0.17434 3:-0.152042 4:-0.536626 5:0.119407 6:-0.317801 
8 1:-0.84652 2:0.244057 3:-0.137971 4:-0.620178 5:0.201328 6:-0.360762 
8 1:-0.913195 2:0.180306 3:-0.238769 4:-0.82634 5:0.0284212 6:-0.324915 
8 1:-0.812351 2:0.201048 3:-0.259215 4:-0.77244 5:-0.222922 6:-0.281788 
8 1:-0.798687 2:0.0479571 3:-0.20395 4:-0.933801 5:-0.0905385 6:-0.327851 
8 1:-0.743748 2:0.109292 3:-0.163384 4:-0.912005 5:-0.163016 6:-0.317318 
8 1:-0.942047 2:0.0947126 3:-0.175943 4:-0.876551 5:-0.0164013 6:-0.283581 
8 1:-0.798687 2:0.0479571 3:-0.20395 4:-0.933801 5:-0.0905385 6:-0.327851 
8 1:-0.798687 2:0.0479571 3:-0.20395 4:-0.933801 5:-0.0905385 6:-0.327851 
8 1:-0.854194 2:0.0159828 3:-0.197767 4:-0.731493 5:0.288055 6:-0.353434 
8 1:-0.854194 2:0.0159828 3:-0.197767 4:-0.731493 5:0.288055 6:-0.353434 
8 1:-0.704972 2:0.0826531 3:-0.297292 4:-0.907182 5:-0.110605 6:-0.359032 
8 1:-0.615201 2:-0.0459617 3:-0.328311 4:-0.919556 5:-0.0300089 6:-0.455362 
8 1:-0.91884 2:-0.00732229 3:-0.143685 4:-0.728948 5:0.0643518 6:-0.360256 
8 1:-0.914326 2:0.0263735 3:-0.2319 4:-0.604316 5:-0.221253 6:-0.321921 
8 1:-0.931168 2:-0.0133754 3:-0.221426 4:-0.572671 5:-0.142655 6:-0.313412 
8 1:-0.793252 2:-0.0751064 3:-0.228239 4:-0.745579 5:-0.516583 6:-0.227624 
8 1:-0.793252 2:-0.0751064 3:-0.228239 4:-0.745579 5:-0.516583 6:-0.227624 
8 1:-0.786051 2:0.176645 3:-0.27749 4:-0.896323 5:-0.0648107 6:-0.354023 
8 1:-0.71946 2:-0.0289575 3:-0.249314 4:-0.909185 5:-0.0452503 6:-0.382087 
8 1:-0.759262 2:0.101512 3:-0.248234 4:-0.888465 5:0.010859 6:-0.407558 
8 1:-0.772692 2:0.08974 3:-0.202141 4:-0.948833 5:-0.0447246 6:-0.422057 
8 1:-0.811014 2:0.0904807 3:-0.197462 4:-0.925385 5:0.0411034 6:-0.361365 
