svm_type c_svc
kernel_type rbf
gamma 4
nr_class 2
total_sv 7315
rho 0.707518
label 1 -1
nr_sv 2323 4992
SV
0.0848726701371274 1:-0.680503 2:0.205959 3:-0.208504 4:-0.906803 5:0.183748 6:-0.5461 7:0.283777 8:-0.233713 9:0.0943406 10:0.776859 11:-0.32414 12:0.0140793 13:-0.86686 14:-0.484842 15:-0.860279 16:-0.572628 17:-0.725478 18:-0.468603 19:-0.662294 20:-0.238265 21:-0.475032 22:-0.195029 23:-0.337172 24:-0.35991 25:-0.388801 26:-0.310631 27:-0.405829 28:-0.208404 29:-0.198669 30:-0.0700109 31:-0.520804 32:-0.360988 33:-0.758418 34:-0.318912 35:-0.388827 36:-0.806762 37:-0.128051 38:-0.711346 39:0.0325275 40:-0.427261 41:0.605877 
0.04578161588401659 1:-0.704693 2:0.185114 3:-0.18824 4:-0.891052 5:0.203018 6:-0.536503 7:0.344483 8:-0.183806 9:0.0379964 10:0.734899 11:-0.372612 12:-0.00473507 13:-0.709723 14:-0.575464 15:-0.697034 16:-0.531462 17:-0.659808 18:-0.547453 19:-0.782835 20:-0.232885 21:-0.574422 22:-0.150654 23:-0.67435 24:-0.20421 25:-0.702678 26:-0.32922 27:-0.6315 28:-0.307094 29:-0.203147 30:-0.128053 31:-0.556061 32:-0.51712 33:-0.744335 34:-0.25039 35:-0.469488 36:-0.805609 37:-0.116218 38:-0.685441 39:0.062517 40:-0.393448 41:0.469751 
0.1527050447267282 1:-0.661667 2:0.178142 3:-0.233125 4:-0.889267 5:0.221611 6:-0.508482 7:0.300435 8:-0.158095 9:0.15224 10:0.749824 11:-0.391686 12:0.0181184 13:-0.870437 14:-0.473356 15:-0.831249 16:-0.397815 17:-0.781268 18:-0.420483 19:-0.640134 20:-0.178078 21:-0.415791 22:-0.172045 23:-0.421834 24:-0.351458 25:-0.584654 26:-0.332291 27:-0.491341 28:-0.292587 29:-0.293313 30:-0.0827018 31:-0.702146 32:-0.322513 33:-0.749066 34:-0.338057 35:-0.4361 36:-0.822675 37:-0.138548 38:-0.666537 39:0.0482315 40:-0.384047 41:0.47902 
0.05114729043117677 1:-0.654542 2:0.027301 3:-0.0111972 4:-0.904158 5:0.127113 6:-0.45777 7:0.293088 8:0.159604 9:-0.390638 10:0.766279 11:-0.162184 12:-0.0612447 13:-0.175296 14:-0.697628 15:-0.37644 16:-0.173098 17:-0.334688 18:-0.174065 19:-0.134651 20:-0.17482 21:-0.304102 22:-0.147637 23:-0.112281 24:-0.408431 25:0.12141 26:-0.470736 27:-0.140157 28:-0.230509 29:-0.407601 30:-0.20366 31:-0.755867 32:-0.398342 33:-0.758549 34:0.0856072 35:-0.606448 36:-0.852197 37:-0.121086 38:-0.626354 39:0.0383867 40:-0.338998 41:0.60455 
0.1778824207171808 1:-0.680136 2:0.174632 3:-0.236934 4:-0.889328 5:0.225663 6:-0.520278 7:0.315836 8:-0.153545 9:0.166004 10:0.737337 11:-0.411928 12:0.0069227 13:-0.425838 14:-0.586905 15:-0.531231 16:-0.531069 17:-0.61718 18:-0.544985 19:-0.742117 20:-0.23953 21:-0.703181 22:-0.149198 23:-0.650521 24:-0.173626 25:-0.434246 26:-0.228682 27:-0.588623 28:-0.285255 29:-0.423199 30:-0.0913088 31:-0.560585 32:-0.362909 33:-0.744131 34:-0.287871 35:-0.317511 36:-0.781851 37:-0.142966 38:-0.689937 39:0.026957 40:-0.343675 41:0.463828 
0.3527764140695233 1:-0.663138 2:0.165794 3:-0.252646 4:-0.888588 5:0.227629 6:-0.524005 7:0.289471 8:-0.132397 9:0.204914 10:0.740722 11:-0.411496 12:0.0330637 13:-0.366758 14:-0.148688 15:-0.438855 16:-0.170721 17:-0.522014 18:-0.100721 19:-0.50602 20:-0.0806685 21:-0.258894 22:-0.00390496 23:-0.261916 24:-0.0866908 25:-0.326027 26:-0.0830171 27:-0.601691 28:-0.00708006 29:-0.380892 30:-0.403634 31:-0.548933 32:-0.664201 33:-0.669359 34:-0.000819489 35:-0.637322 36:-0.711201 37:-0.02804 38:-0.638342 39:0.0377923 40:-0.326004 41:0.451612 
0.09319309110781118 1:-0.687201 2:0.291074 3:-0.173002 4:-0.817525 5:0.3046 6:-0.569709 7:0.335376 8:-0.403641 9:-0.00147986 10:0.540191 11:-0.585052 12:0.13702 13:-0.802964 14:-0.600086 15:-0.514826 16:-0.431932 17:-0.623174 18:-0.496333 19:-0.261791 20:-0.513306 21:-0.305465 22:-0.52277 23:-0.189998 24:-0.435861 25:-0.0246514 26:-0.446916 27:-0.252754 28:-0.495775 29:-0.703858 30:-0.701664 31:-0.694292 32:-0.340855 33:-0.900407 34:-0.141927 35:-0.785639 36:-0.864984 37:-0.165817 38:-0.794797 39:0.00962378 40:-0.0748721 41:0.444415 
0.4148130182830502 1:-0.689345 2:0.166949 3:-0.216909 4:-0.884142 5:0.224527 6:-0.510416 7:0.343655 8:-0.13576 9:0.112767 10:0.728803 11:-0.407293 12:-0.00634963 13:-0.459764 14:-0.576167 15:-0.578135 16:-0.533996 17:-0.651702 18:-0.546437 19:-0.78246 20:-0.236026 21:-0.661001 22:-0.164647 23:-0.324431 24:-0.190251 25:-0.602166 26:-0.307097 27:-0.579136 28:-0.316466 29:-0.398202 30:-0.132759 31:-0.549787 32:-0.510703 33:-0.737415 34:-0.305611 35:-0.33956 36:-0.804815 37:-0.118806 38:-0.670876 39:0.0630503 40:-0.333894 41:0.410173 
0.4880262285220431 1:-0.687016 2:0.170806 3:-0.199681 4:-0.886916 5:0.263136 6:-0.499548 7:0.33431 8:-0.142618 9:0.0668794 10:0.723602 11:-0.492267 12:-0.0271106 13:-0.613542 14:-0.305539 15:-0.653137 16:-0.34519 17:-0.670749 18:-0.264443 19:-0.716136 20:-0.271228 21:-0.502009 22:-0.219642 23:-0.690944 24:-0.299146 25:-0.394603 26:-0.408153 27:-0.66818 28:-0.13962 29:-0.518336 30:-0.532866 31:-0.481749 32:-0.400177 33:-0.769362 34:-0.151483 35:-0.58459 36:-0.825606 37:-0.250658 38:-0.586271 39:0.0754642 40:-0.324428 41:0.361971 
0.2213111009091097 1:-0.695538 2:0.212162 3:-0.209799 4:-0.858829 5:0.259811 6:-0.530643 7:0.355078 8:-0.23631 9:0.0938278 10:0.657217 11:-0.490583 12:0.040154 13:-0.465752 14:-0.752257 15:-0.63788 16:-0.386273 17:-0.575393 18:-0.363923 19:-0.564113 20:-0.404447 21:-0.242382 22:-0.338988 23:-0.313375 24:-0.379691 25:-0.62225 26:-0.248426 27:-0.73168 28:-0.288729 29:-0.613775 30:-0.460171 31:-0.446608 32:-0.275674 33:-0.839206 34:-0.157718 35:-0.55434 36:-0.773236 37:-0.32234 38:-0.574028 39:0.0788765 40:-0.0692323 41:0.462377 
0.4088646419552576 1:-0.71383 2:0.197206 3:-0.221562 4:-0.865913 5:0.257015 6:-0.499866 7:0.39307 8:-0.201548 9:0.12371 10:0.67035 11:-0.480032 12:-0.0292084 13:-0.781268 14:-0.359992 15:-0.716336 16:-0.387728 17:-0.739269 18:-0.439194 19:-0.701756 20:-0.403871 21:-0.140329 22:-0.41524 23:-0.253917 24:-0.347339 25:-0.193803 26:-0.567303 27:-0.293224 28:-0.190829 29:0.0752366 30:-0.410558 31:-0.683204 32:-0.381219 33:-0.79613 34:-0.443515 35:-0.276391 36:-0.855331 37:-0.162313 38:-0.641802 39:0.0765054 40:-0.049417 41:0.448797 
0.2894469504064096 1:-0.726401 2:0.250877 3:-0.238482 4:-0.786638 5:0.369515 6:-0.480483 7:0.450125 8:-0.291465 9:0.15295 10:0.484693 11:-0.67445 12:0.0205934 13:-0.502933 14:-0.349127 15:-0.5304 16:-0.43507 17:-0.606709 18:-0.524134 19:-0.510845 20:-0.517691 21:-0.721106 22:-0.571551 23:-0.66737 24:-0.597385 25:-0.713652 26:-0.503128 27:-0.594166 28:-0.454162 29:-0.642072 30:-0.341835 31:-0.784789 32:-0.0975522 33:-0.883944 34:-0.215928 35:-0.593183 36:-0.768072 37:-0.47985 38:-0.451423 39:0.107833 40:-0.198591 41:0.392214 
0.008789399385804418 1:-0.718309 2:0.0640607 3:-0.0627234 4:-0.903483 5:0.201681 6:-0.418522 7:0.402991 8:0.0861394 9:-0.271707 10:0.74912 11:-0.333312 12:-0.179957 13:-0.597519 14:-0.578726 15:-0.539978 16:-0.250162 17:-0.597541 18:-0.183748 19:-0.456389 20:-0.0818965 21:-0.532877 22:-0.197151 23:-0.488013 24:-0.255495 25:-0.124466 26:-0.275974 27:-0.11948 28:-0.18696 29:-0.330026 30:-0.248602 31:-0.340182 32:-0.398747 33:-0.764971 34:0.124906 35:-0.489404 36:-0.840413 37:-0.0486112 38:-0.603424 39:0.235737 40:-0.307506 41:0.722619 
0.4646368432087246 1:-0.717283 2:0.262231 3:-0.245466 4:-0.798116 5:0.339617 6:-0.526196 7:0.412059 8:-0.328537 9:0.176745 10:0.496715 11:-0.641429 12:0.0701933 13:-0.701834 14:-0.736443 15:-0.484969 16:-0.565309 17:-0.547132 18:-0.576245 19:-0.545624 20:-0.545551 21:-0.288805 22:-0.522415 23:-0.277211 24:-0.608925 25:-0.125218 26:-0.669867 27:-0.51456 28:-0.715181 29:-0.333397 30:-0.640009 31:-1 32:-1 33:-0.916966 34:-0.144645 35:-0.68457 36:-0.923346 37:-0.178808 38:-0.717664 39:-0.0525726 40:-0.104865 41:0.213365 
0.04343568839559265 1:-0.693524 2:0.077388 3:-0.149371 4:-0.836903 5:0.300874 6:-0.590508 7:0.322947 8:0.0684721 9:-0.0672125 10:0.579675 11:-0.608019 12:0.14057 13:-0.389455 14:-0.632707 15:-0.228462 16:-0.559443 17:-0.249763 18:-0.410294 19:-0.151376 20:-0.270279 21:-0.295675 22:-0.158195 23:-0.502462 24:0.0113017 25:-0.508997 26:-0.0280314 27:-0.564231 28:-0.293386 29:-0.425258 30:-0.453319 31:-1 32:-1 33:-0.865028 34:0.0700327 35:-0.583994 36:-0.726712 37:-0.131492 38:-0.645247 39:0.241308 40:-0.175705 41:0.327002 
0.02541522211541902 1:-0.650869 2:0.0982382 3:-0.131295 4:-0.818454 5:0.3087 6:-0.566459 7:0.30179 8:0.0147279 9:-0.104039 10:0.581693 11:-0.579999 12:0.182732 13:-0.0867547 14:-0.470768 15:-0.12413 16:-0.454423 17:-0.166102 18:-0.394295 19:-0.129171 20:-0.348363 21:-0.242985 22:-0.165664 23:-0.122863 24:-0.102723 25:-0.336146 26:-0.0776365 27:-0.62739 28:-0.216955 29:-0.376384 30:-0.307703 31:-0.369383 32:-0.403319 33:-0.816854 34:0.106459 35:-0.620145 36:-0.729511 37:-0.16049 38:-0.578544 39:0.222388 40:-0.130508 41:0.36629 
0.02333789615153264 1:-0.531585 2:0.149997 3:-0.0656317 4:-0.806084 5:0.318407 6:-0.546541 7:0.181036 8:-0.0887412 9:-0.227718 10:0.615762 11:-0.52939 12:0.27559 13:-0.659704 14:-0.455652 15:-0.645738 16:-0.512091 17:-0.6888 18:-0.468649 19:-0.64096 20:-0.137147 21:-0.357668 22:0.17718 23:-0.0933028 24:0.267175 25:-0.170869 26:0.247645 27:-0.423979 28:0.0297857 29:-0.368552 30:-0.0223876 31:-0.77033 32:-0.599514 33:-0.538925 34:0.295226 35:-0.488515 36:-0.504415 37:-0.196787 38:-0.588912 39:0.189161 40:-0.0456029 41:0.490726 
0.1048444381525675 1:-0.712805 2:0.262786 3:-0.2383 4:-0.77469 5:0.25852 6:-0.510478 7:0.464245 8:-0.323423 9:0.156375 10:0.502397 11:-0.449908 12:0.110454 13:-0.880054 14:-0.762437 15:-0.421696 16:-0.589649 17:-0.517809 18:-0.527989 19:-0.326875 20:-0.553065 21:-0.185911 22:-0.520324 23:-0.11603 24:-0.715518 25:-0.0218486 26:-0.776619 27:-0.204965 28:-0.81641 29:0.228691 30:-0.606439 31:-0.593742 32:-0.311283 33:-0.905559 34:-0.125105 35:-0.675373 36:-0.87839 37:-0.314729 38:-0.546501 39:-0.0977814 40:-0.000560393 41:0.281178 
0.1602445202797515 1:-0.784051 2:-0.0152789 3:-0.0406157 4:-0.835631 5:0.127656 6:-0.386297 7:0.561452 8:0.240992 9:-0.311843 10:0.598857 11:-0.160879 12:-0.192521 13:-0.414622 14:-0.742679 15:-0.610874 16:-0.755946 17:-0.602604 18:-0.596626 19:-0.698224 20:-0.14895 21:-0.606901 22:-0.139823 23:-0.29891 24:-0.187759 25:-0.372141 26:-0.229503 27:-0.742776 28:-0.088525 29:-0.43412 30:-0.235839 31:-0.610585 32:0.432988 33:-0.755984 34:0.0712579 35:-0.37601 36:-0.706318 37:-0.0341182 38:-0.595152 39:-0.0813755 40:0.133788 41:0.872089 
0.2662668306648255 1:-0.640865 2:0.131885 3:-0.102907 4:-0.804474 5:0.323371 6:-0.542333 7:0.313789 8:-0.0561544 9:-0.164382 10:0.566334 11:-0.585839 12:0.176513 13:-0.507687 14:-0.500662 15:-0.60615 16:-0.588456 17:-0.641856 18:-0.511586 19:-0.609681 20:-0.281877 21:-0.680827 22:0.292316 23:-0.668903 24:0.291537 25:-0.217825 26:0.218501 27:-0.263656 28:-0.0389862 29:-0.533956 30:-0.781198 31:-0.734718 32:-0.717339 33:-0.635842 34:0.207253 35:-0.459372 36:-0.592119 37:-0.0872123 38:-0.684676 39:0.10993 40:-0.0659079 41:0.459863 
0.239217860180138 1:-0.636261 2:0.189744 3:-0.0926985 4:-0.807125 5:0.322858 6:-0.521642 7:0.316463 8:-0.169891 9:-0.18341 10:0.578115 11:-0.572384 12:0.151962 13:-0.12166 14:-0.51604 15:-0.33441 16:-0.606228 17:-0.464837 18:-0.647932 19:-0.531876 20:-0.685344 21:-0.508316 22:-0.284097 23:-0.546288 24:-0.328022 25:-0.427642 26:-0.228976 27:-0.421622 28:-0.191617 29:-0.0633352 30:-0.274937 31:-0.108361 32:-0.254878 33:-0.847101 34:-0.259147 35:-0.300862 36:-0.774262 37:-0.202283 38:-0.723577 39:0.147699 40:0.0903753 41:0.575971 
0.3837933919241526 1:-0.64631 2:0.175403 3:-0.135646 4:-0.797665 5:0.335838 6:-0.522376 7:0.338511 8:-0.14183 9:-0.0847152 10:0.558978 11:-0.600978 12:0.155345 13:-0.738209 14:-0.558792 15:-0.662175 16:-0.617335 17:-0.718665 18:-0.499542 19:-0.754368 20:-0.293334 21:-0.50611 22:0.172332 23:-0.699931 24:0.0855742 25:-0.255946 26:0.251417 27:-0.267975 28:0.0695869 29:-0.0511392 30:-0.217953 31:-0.0768412 32:-0.358909 33:-0.670016 34:0.172218 35:-0.37214 36:-0.608026 37:-0.0763165 38:-0.675931 39:0.16365 40:0.155174 41:0.521215 
0.34232854411503 1:-0.718809 2:0.227002 3:-0.217484 4:-0.870845 5:0.255123 6:-0.540995 7:0.365647 8:-0.279618 9:0.117746 10:0.660043 11:-0.498994 12:0.000764527 13:-0.532003 14:-0.363246 15:-0.598866 16:-0.425654 17:-0.57617 18:-0.374448 19:-0.543633 20:-0.411872 21:-0.498972 22:-0.305545 23:-0.711545 24:-0.425584 25:-0.769032 26:-0.266948 27:-0.77539 28:-0.261033 29:-0.620993 30:-0.507862 31:-0.453647 32:-0.296967 33:-0.840112 34:-0.146099 35:-0.628233 36:-0.783148 37:-0.290838 38:-0.600417 39:0.0302365 40:-0.123222 41:0.470228 
0.1879551301000748 1:-0.711161 2:0.232686 3:-0.355442 4:-0.808969 5:0.228735 6:-0.555387 7:0.392468 8:-0.277229 9:0.464862 10:0.524091 11:-0.408162 12:0.108616 13:-0.708841 14:-0.853735 15:-0.436947 16:-0.579409 17:-0.574024 18:-0.597699 19:-0.548915 20:-0.593354 21:-0.590989 22:-0.584637 23:-0.494495 24:-0.324813 25:-0.176155 26:-0.617612 27:-0.502469 28:-0.739977 29:-0.31433 30:-0.887167 31:-0.200484 32:-0.765991 33:-0.929889 34:-0.0894586 35:-0.708545 36:-0.931284 37:0.0184301 38:-0.641865 39:-0.0637704 40:-0.066805 41:0.198481 
0.01706515484672263 1:-0.704489 2:0.26142 3:-0.358103 4:-0.722085 5:0.270302 6:-0.539206 7:0.455753 8:-0.308833 9:0.424529 10:0.385292 11:-0.457416 12:0.196708 13:-0.517389 14:-0.859475 15:-0.41675 16:-0.660215 17:-0.455854 18:-0.617418 19:-0.450722 20:-0.638338 21:-0.29831 22:-0.475677 23:-0.0701657 24:-0.509907 25:0.222418 26:-0.420559 27:0.0861282 28:-0.510718 29:-0.147326 30:-0.624458 31:-0.101169 32:-0.847877 33:-0.94193 34:-0.0529699 35:-0.684393 36:-0.935885 37:-0.059774 38:-0.731935 39:-0.0024614 40:0.226571 41:0.514822 
0.5526028316685502 1:-0.740725 2:0.215318 3:-0.396553 4:-0.796434 5:0.256706 6:-0.47517 7:0.469284 8:-0.224543 9:0.528505 10:0.499358 11:-0.441496 12:-0.0112252 13:-0.765062 14:-0.890994 15:-0.78214 16:-0.44336 17:-0.716492 18:-0.489884 19:-0.684948 20:-0.539968 21:-0.673203 22:-0.409708 23:-0.617967 24:-0.417588 25:-0.731244 26:-0.302041 27:-0.627727 28:0.0501721 29:-0.536793 30:0.112247 31:-0.949661 32:-0.417103 33:-0.890501 34:-0.0651336 35:-0.666045 36:-0.726295 37:-0.1639 38:-0.790257 39:-0.143298 40:-0.20188 41:0.343194 
0.03144173451094803 1:-0.72064 2:0.23366 3:-0.315062 4:-0.659102 5:0.262524 6:-0.516255 7:0.545959 8:-0.243579 9:0.310422 10:0.313147 11:-0.420185 12:0.235091 13:-0.384909 14:-0.2481 15:-0.489677 16:-0.329432 17:-0.494862 18:-0.452605 19:-0.399164 20:-0.593376 21:0.0187851 22:-0.686948 23:0.0997079 24:-0.51526 25:0.220361 26:-0.542527 27:0.210566 28:-0.467846 29:0.568444 30:-0.301277 31:0.257941 32:-0.245044 33:-0.805362 34:-0.558014 35:-0.17126 36:-0.846602 37:-0.278553 38:-0.659414 39:0.195924 40:0.360825 41:0.663961 
0.06021746618782481 1:-0.768002 2:0.226913 3:-0.373335 4:-0.709648 5:0.213504 6:-0.554204 7:0.553165 8:-0.253999 9:0.487108 10:0.316109 11:-0.356525 12:0.169853 13:-0.180414 14:-0.914658 15:-0.401448 16:-0.820054 17:-0.47435 18:-0.81295 19:-0.320778 20:-0.781424 21:-0.30837 22:-0.388633 23:-0.219389 24:-0.386452 25:-0.298532 26:-0.468929 27:-0.181051 28:-0.0571603 29:-0.0621912 30:0.0437488 31:-0.370262 32:-0.865798 33:-0.950443 34:0.000936269 35:-0.710496 36:-0.807777 37:-0.0875725 38:-0.777644 39:-0.0100784 40:0.397471 41:0.445902 
0.08275034779841231 1:-0.761279 2:0.229464 3:-0.375215 4:-0.657568 5:0.284654 6:-0.509255 7:0.578992 8:-0.237757 9:0.444692 10:0.262397 11:-0.468529 12:0.17309 13:-0.156487 14:-0.83927 15:-0.386144 16:-0.879644 17:-0.464621 18:-0.914073 19:-0.217323 20:-0.869842 21:-0.22156 22:-0.544205 23:-0.0962479 24:-0.39316 25:-0.00660889 26:-0.411426 27:-0.126183 28:-0.331163 29:0.0197022 30:-0.333271 31:0.305333 32:-0.28874 33:-0.961083 34:-0.0458435 35:-0.754784 36:-0.856027 37:-0.1361 38:-0.789209 39:-0.0865329 40:0.23887 41:0.488395 
0.3835954669723601 1:-0.793702 2:0.208698 3:-0.378423 4:-0.656862 5:0.233306 6:-0.542187 7:0.62117 8:-0.208626 9:0.478582 10:0.218991 11:-0.385278 12:0.185026 13:-0.704555 14:-0.805289 15:-0.274448 16:-0.778255 17:-0.370644 18:-0.866233 19:-0.122742 20:-0.545629 21:-0.130494 22:-0.335547 23:-0.122236 24:-0.33206 25:-0.123117 26:-0.155892 27:-0.195545 28:-0.0739672 29:-0.02626 30:-0.34869 31:0.107309 32:-0.0709441 33:-0.93655 34:-0.0467556 35:-0.756809 36:-0.747169 37:-0.205346 38:-0.76344 39:0.0430846 40:0.484932 41:0.417494 
0.1225491422605995 1:-0.763904 2:0.170988 3:-0.414566 4:-0.711207 5:0.260216 6:-0.533505 7:0.534186 8:-0.134584 9:0.567958 10:0.315542 11:-0.446868 12:0.13288 13:-0.100663 14:-0.433408 15:-0.345382 16:-0.462909 17:-0.486166 18:-0.533707 19:-0.440757 20:-0.502467 21:-0.478822 22:-0.624884 23:-0.231786 24:-0.372492 25:-0.193 26:-0.256275 27:-0.203484 28:-0.080348 29:-0.0780394 30:-0.209856 31:-0.301107 32:-0.240225 33:-0.859189 34:-0.366686 35:-0.263508 36:-0.770822 37:-0.253607 38:-0.590161 39:0.0280572 40:0.351635 41:0.464285 
0.3411556216532738 1:-0.775689 2:0.195358 3:-0.397687 4:-0.650372 5:0.248596 6:-0.557171 7:0.585673 8:-0.180525 9:0.51748 10:0.208005 11:-0.413638 12:0.221805 13:-0.158101 14:-0.738656 15:-0.411459 16:-0.770859 17:-0.421892 18:-0.78011 19:-0.280398 20:-0.591212 21:-0.16873 22:-0.354509 23:-0.103186 24:-0.279366 25:-0.137153 26:-0.315789 27:-0.13862 28:-0.198808 29:0.186715 30:-0.195476 31:-0.72159 32:-0.290758 33:-0.935154 34:-0.020955 35:-0.813126 36:-0.768954 37:-0.164287 38:-0.832163 39:-0.0489875 40:0.443165 41:0.562534 
0.123841314818375 1:-0.717069 2:0.253463 3:-0.345629 4:-0.801709 5:0.1859 6:-0.484996 7:0.456386 8:-0.304666 9:0.41298 10:0.550471 11:-0.290432 12:0.038797 13:-0.580218 14:-0.910117 15:-0.435243 16:-0.57734 17:-0.466292 18:-0.557066 19:-0.474688 20:-0.541281 21:-0.494386 22:-0.513216 23:-0.449266 24:-0.476725 25:-0.185611 26:-0.758778 27:-0.365457 28:-0.813019 29:-0.235384 30:-0.464176 31:-0.161448 32:-0.230711 33:-0.923676 34:0.00181669 35:-0.642539 36:-0.908524 37:-0.0657055 38:-0.626648 39:-0.104159 40:0.243079 41:0.36085 
0.187474826717249 1:-0.795268 2:0.201089 3:-0.390405 4:-0.655442 5:0.221624 6:-0.530347 7:0.627845 8:-0.191824 9:0.500921 10:0.223879 11:-0.356681 12:0.171026 13:-0.738903 14:-0.835867 15:-0.348194 16:-0.779787 17:-0.381153 18:-0.856284 19:-0.187564 20:-0.53103 21:-0.236078 22:-0.279886 23:-0.238332 24:-0.248619 25:-0.181438 26:-0.324918 27:-0.343361 28:-0.122999 29:0.0347535 30:-0.145779 31:-0.739367 32:-0.232299 33:-0.92692 34:-0.0139964 35:-0.769485 36:-0.707752 37:-0.184028 38:-0.769786 39:-0.0757039 40:0.376142 41:0.423053 
0.6441913067015358 1:-0.777116 2:0.170063 3:-0.410542 4:-0.715428 5:0.195129 6:-0.57565 7:0.54506 8:-0.138588 9:0.594892 10:0.294952 11:-0.323739 12:0.173294 13:0.172175 14:-0.565255 15:-0.127729 16:-0.580548 17:-0.105902 18:-0.55153 19:0.0561531 20:-0.619314 21:0.0172021 22:-0.262427 23:0.00232834 24:-0.266879 25:-0.226005 26:-0.311002 27:-0.11431 28:0.0391159 29:-0.261626 30:0.0866545 31:-0.299013 32:0.000407302 33:-0.876721 34:0.11798 35:-0.789401 36:-0.730827 37:-0.0179181 38:-0.814924 39:-0.0431788 40:0.155296 41:0.399311 
0.6479750849074188 1:-0.769663 2:0.166804 3:-0.375909 4:-0.656424 5:0.216449 6:-0.507895 7:0.611712 8:-0.121955 9:0.453135 10:0.272982 11:-0.335938 12:0.179227 13:-0.240071 14:-0.420977 15:-0.0380068 16:-0.511901 17:-0.116029 18:-0.507341 19:-0.0401855 20:-0.378838 21:-0.0754595 22:-0.116083 23:-0.00463392 24:0.105213 25:-0.42861 26:0.0121236 27:-0.390676 28:-0.135534 29:-0.74262 30:-0.989671 31:0.0109357 32:-0.402893 33:-0.761652 34:0.205133 35:-0.763526 36:-0.668681 37:-0.224792 38:-0.61934 39:-0.0195101 40:0.334046 41:0.431738 
0.4149895658288955 1:-0.791807 2:0.152574 3:-0.359313 4:-0.621803 5:0.25577 6:-0.536556 7:0.643295 8:-0.0952871 9:0.41914 10:0.180714 11:-0.419108 12:0.221094 13:-0.605064 14:-0.656222 15:-0.223781 16:-0.661046 17:-0.110025 18:-0.462338 19:-0.0271123 20:-0.371279 21:-0.151766 22:-0.233509 23:-0.108503 24:-0.47925 25:0.0372222 26:-0.384507 27:-0.430389 28:-0.4413 29:-0.62098 30:-0.326743 31:-0.177349 32:-0.259211 33:-0.914113 34:-0.0396614 35:-0.855687 36:-0.787922 37:-0.326497 38:-0.601018 39:-0.0536917 40:0.437688 41:0.469348 
0.6444206294429444 1:-0.797142 2:0.167673 3:-0.387473 4:-0.620396 5:0.240092 6:-0.584637 7:0.625122 8:-0.127478 9:0.501683 10:0.127792 11:-0.401349 12:0.267499 13:-0.771439 14:-0.673423 15:-0.262603 16:-0.75526 17:-0.210252 18:-0.4882 19:-0.13209 20:-0.429766 21:-0.138349 22:-0.252509 23:-0.651364 24:-0.605937 25:-0.0626191 26:-0.44273 27:-0.689116 28:-0.446888 29:-0.721075 30:-0.337415 31:-0.692499 32:-0.120154 33:-0.913468 34:-0.0399288 35:-0.891052 36:-0.766023 37:-0.276381 38:-0.757976 39:-0.0985886 40:0.382679 41:0.475528 
0.4311600929606959 1:-0.776443 2:0.132673 3:-0.43422 4:-0.707099 5:0.192332 6:-0.5568 7:0.550414 8:-0.0580419 9:0.633961 10:0.288739 11:-0.30857 12:0.155505 13:-0.329556 14:-0.597167 15:-0.509958 16:-0.610731 17:-0.496495 18:-0.609804 19:-0.488574 20:-0.517311 21:-0.457559 22:-0.0970046 23:-0.458398 24:-0.129105 25:-0.489515 26:-0.243732 27:-0.579492 28:0.0294367 29:-0.439082 30:-0.0508846 31:-0.957423 32:-0.258821 33:-0.892036 34:0.0139914 35:-0.796843 36:-0.701988 37:-0.176379 38:-0.801679 39:-0.0491498 40:0.129789 41:0.41049 
0.5332079722257825 1:-0.781445 2:0.164979 3:-0.427739 4:-0.646044 5:0.212785 6:-0.518198 7:0.610295 8:-0.118329 9:0.567018 10:0.22515 11:-0.327814 12:0.176221 13:-0.0853039 14:-0.539582 15:-0.141363 16:-0.486806 17:-0.0677313 18:-0.516954 19:-0.0418421 20:-0.3218 21:-0.0965392 22:-0.0151617 23:-0.372091 24:-0.18964 25:-0.524505 26:0.151308 27:-0.391586 28:0.0502456 29:-0.132121 30:0.243198 31:-0.355381 32:-0.539724 33:-0.758012 34:0.166419 35:-0.821635 36:-0.605763 37:-0.0831513 38:-0.765361 39:-0.0999965 40:0.419956 41:0.383522 
0.3836628112051589 1:-0.751774 2:0.189552 3:-0.397489 4:-0.624516 5:0.24665 6:-0.535841 7:0.581067 8:-0.162044 9:0.488632 10:0.21355 11:-0.388564 12:0.249667 13:-0.70312 14:-0.80221 15:-0.295225 16:-0.758213 17:-0.174334 18:-0.584486 19:-0.0696905 20:-0.35952 21:-0.131161 22:-0.109944 23:-0.264504 24:-0.17913 25:-0.0726215 26:-0.249961 27:-0.0285635 28:-0.0253319 29:-0.640864 30:-0.303815 31:-0.266995 32:-0.437782 33:-0.903738 34:0.00739937 35:-0.860782 36:-0.733538 37:-0.197375 38:-0.703291 39:-0.061315 40:0.376195 41:0.426672 
0.2456021327882919 1:-0.784758 2:0.13447 3:-0.393175 4:-0.645282 5:0.162119 6:-0.538429 7:0.629359 8:-0.0609715 9:0.505932 10:0.224733 11:-0.230246 12:0.211882 13:0.0452666 14:-0.554088 15:-0.0919673 16:-0.42832 17:-0.136726 18:-0.47071 19:0.0323029 20:-0.0573894 21:-0.0432236 22:0.0175912 23:-0.195566 24:0.324874 25:-0.115079 26:0.228038 27:-0.340702 28:0.324104 29:-0.568238 30:-0.515146 31:-0.241077 32:-0.102498 33:-0.733667 34:0.15001 35:-0.798083 36:-0.537349 37:-0.198039 38:-0.666526 39:-0.0234134 40:0.366648 41:0.467787 
0.07259958802494357 1:-0.790673 2:0.129642 3:-0.417413 4:-0.697461 5:0.173407 6:-0.509524 7:0.607124 8:-0.0516009 9:0.572712 10:0.304463 11:-0.258393 12:0.105318 13:-0.834013 14:-0.81511 15:-0.941687 16:-0.832911 17:-0.436798 18:-0.515372 19:-0.373556 20:-0.483073 21:-0.383705 22:-0.0177346 23:-0.483953 24:-0.0133902 25:-0.642198 26:-0.0199161 27:-0.639427 28:0.0678631 29:-0.570777 30:-0.14967 31:-0.347958 32:-0.109841 33:-0.858898 34:0.0103774 35:-0.773134 36:-0.630529 37:-0.213749 38:-0.662716 39:-0.164444 40:0.0858056 41:0.629113 
0.4895867566930466 1:-0.7824 2:0.135781 3:-0.401289 4:-0.656856 5:0.166378 6:-0.513106 7:0.626137 8:-0.0632858 9:0.516677 10:0.258635 11:-0.236233 12:0.171058 13:-0.113713 14:-0.615595 15:-0.396599 16:-0.69357 17:-0.188366 18:-0.441836 19:-0.120365 20:-0.289315 21:-0.169245 22:0.148493 23:-0.35696 24:0.223325 25:-0.0911784 26:0.0928325 27:-0.533888 28:0.279587 29:-0.0867172 30:-0.525535 31:-0.304236 32:0.00548131 33:-0.727685 34:0.160581 35:-0.786047 36:-0.580398 37:-0.161264 38:-0.659096 39:-0.104435 40:0.29279 41:0.758595 
0.3357102849438153 1:-0.781427 2:0.109238 3:-0.411024 4:-0.690005 5:0.192027 6:-0.512951 7:0.597843 8:-0.0112134 9:0.551859 10:0.299531 11:-0.295736 12:0.128511 13:-0.837849 14:-0.758801 15:-0.963663 16:-0.825084 17:-0.366372 18:-0.438326 19:-0.322921 20:-0.15309 21:-0.36116 22:-0.0728799 23:-0.441484 24:-0.0336246 25:-0.433547 26:-0.0833202 27:-0.549123 28:0.110794 29:-0.499735 30:-0.461299 31:-0.383703 32:-0.235872 33:-0.844398 34:-0.0202178 35:-0.787675 36:-0.659599 37:-0.261711 38:-0.666158 39:-0.103986 40:0.219112 41:0.707875 
0.6794017466354453 1:-0.770901 2:0.116745 3:-0.432785 4:-0.671734 5:0.178571 6:-0.476517 7:0.60321 8:-0.0273396 9:0.56806 10:0.301787 11:-0.254118 12:0.118851 13:0.0213612 14:-0.643468 15:-0.222829 16:-0.613926 17:-0.383996 18:-0.577489 19:-0.406935 20:-0.36707 21:-0.437447 22:-0.235343 23:-0.587841 24:-0.256142 25:-0.539772 26:-0.0665219 27:-0.475188 28:0.161341 29:-0.259145 30:0.150463 31:-0.215557 32:-0.452535 33:-0.86156 34:-0.0788 35:-0.218521 36:-0.663069 37:-0.261002 38:-0.614545 39:0.0464484 40:0.407494 41:0.782744 
0.6632213039937825 1:-0.758338 2:0.11472 3:-0.436826 4:-0.681605 5:0.0928517 6:-0.495895 7:0.57984 8:-0.0230863 9:0.587969 10:0.318837 11:-0.0830145 12:0.145172 13:0.0552619 14:-0.826457 15:-0.331243 16:-0.821778 17:-0.291133 18:-0.382124 19:-0.0604631 20:-0.342937 21:-0.0948553 22:0.0487942 23:-0.308597 24:0.0561767 25:-0.237534 26:0.0396189 27:0.0135215 28:0.0453227 29:-0.102979 30:-0.213617 31:-0.788318 32:0.0500831 33:-0.783437 34:0.0519255 35:-0.731017 36:-0.60139 37:-0.116847 38:-0.683614 39:0.029914 40:0.0774007 41:0.737037 
0.2377907440040314 1:-0.771658 2:0.109552 3:-0.428371 4:-0.6275 5:0.159013 6:-0.496262 7:0.624887 8:-0.0146086 9:0.548348 10:0.232787 11:-0.211773 12:0.188757 13:-0.671329 14:-0.683592 15:-0.714087 16:-0.540877 17:-0.312495 18:-0.285953 19:-0.422215 20:-0.26737 21:-0.260477 22:-0.188146 23:-0.726569 24:-0.0758906 25:-0.586802 26:0.203919 27:-0.315251 28:0.014774 29:-0.575487 30:0.0937157 31:-0.439881 32:-0.363146 33:-0.76767 34:0.256318 35:-0.471411 36:-0.610207 37:-0.216611 38:-0.59459 39:-0.0221257 40:0.352553 41:0.380767 
0.659322990359212 1:-0.795798 2:0.0972247 3:-0.397919 4:-0.631345 5:0.176944 6:-0.557352 7:0.638976 8:0.0125251 9:0.521427 10:0.175488 11:-0.263541 12:0.233065 13:-0.0329724 14:-0.521694 15:-0.218988 16:-0.576221 17:-0.130294 18:0.127331 19:-0.0809318 20:0.310108 21:-0.0563984 22:0.486151 23:-0.463764 24:0.340352 25:-0.174176 26:-0.0286573 27:-0.31811 28:-0.0297609 29:-0.526506 30:-0.0756384 31:-0.723356 32:-0.59324 33:-0.547649 34:0.10984 35:-0.856787 36:-0.580405 37:-0.053075 38:-0.703464 39:-0.10058 40:0.433011 41:0.424778 
0.3521846985003564 1:-0.810438 2:0.0998499 3:-0.421192 4:-0.633053 5:0.153027 6:-0.552234 7:0.653096 8:0.00758182 9:0.577678 10:0.161771 11:-0.213321 12:0.20481 13:-0.646884 14:-0.666695 15:-0.726722 16:-0.592606 17:-0.339163 18:-0.353972 19:-0.483639 20:-0.321363 21:-0.643413 22:-0.117318 23:-0.650097 24:0.0128293 25:-0.587787 26:0.179751 27:-0.732636 28:-0.0180044 29:-0.397814 30:0.0337013 31:-0.947477 32:-0.552081 33:-0.799147 34:0.202296 35:-0.374795 36:-0.600025 37:-0.240027 38:-0.568331 39:-0.148913 40:0.390491 41:0.346272 
0.7037922144476978 1:-0.80508 2:0.0985353 3:-0.431642 4:-0.649845 5:0.185687 6:-0.567457 7:0.62129 8:0.0114251 9:0.614153 10:0.16991 11:-0.288185 12:0.203007 13:-0.048606 14:-0.527605 15:-0.235143 16:-0.590187 17:-0.12975 18:0.103236 19:0.0358698 20:0.317493 21:-0.208889 22:0.458154 23:-0.638792 24:0.107072 25:-0.563179 26:0.149748 27:-0.470351 28:-0.379502 29:-0.663833 30:-0.577866 31:-1 32:-1 33:-0.545292 34:0.160889 35:-0.865422 36:-0.615658 37:-0.078538 38:-0.743885 39:-0.142744 40:0.195206 41:0.357305 
0.704628567261236 1:-0.779445 2:0.139064 3:-0.452947 4:-0.690337 5:0.196669 6:-0.536088 7:0.565958 8:-0.0703864 9:0.654343 10:0.268138 11:-0.307913 12:0.142201 13:-0.814587 14:-0.770684 15:-0.556391 16:-0.528089 17:-0.513686 18:-0.534123 19:-0.465012 20:-0.497904 21:-0.468051 22:-0.0580073 23:-0.427245 24:-0.225066 25:-0.568379 26:-0.0749353 27:-0.869065 28:-0.212614 29:-0.861401 30:-0.675795 31:-0.27948 32:0.219926 33:-0.855802 34:0.0153211 35:-0.818297 36:-0.691537 37:-0.0707045 38:-0.811305 39:-0.0204164 40:0.347276 41:0.370445 
0.4875028005163435 1:-0.789752 2:0.121496 3:-0.418333 4:-0.66182 5:0.153488 6:-0.590366 7:0.595153 8:-0.0347767 9:0.598654 10:0.193312 11:-0.222692 12:0.242989 13:0.000258969 14:-0.633345 15:-0.217986 16:-0.461868 17:-0.210425 18:-0.412837 19:-0.0440278 20:0.00741885 21:0.0177863 22:0.248441 23:-0.207157 24:0.137263 25:-0.12376 26:0.0515747 27:-0.0735438 28:0.225571 29:-0.329726 30:-0.559339 31:-1 32:-1 33:-0.730666 34:0.104143 35:-0.84652 36:-0.551145 37:-0.162642 38:-0.779869 39:0.00304374 40:0.184431 41:0.332669 
0.1809890113812689 1:-0.800003 2:0.109687 3:-0.427389 4:-0.640582 5:0.198766 6:-0.521179 7:0.638476 8:-0.0131415 9:0.573264 10:0.200251 11:-0.302458 12:0.16741 13:-0.168922 14:-0.578797 15:-0.252387 16:-0.574459 17:-0.19383 18:-0.415785 19:-0.0950745 20:-0.0650706 21:-0.259196 22:0.239379 23:-0.146353 24:0.215868 25:-0.538551 26:0.197808 27:-0.284108 28:-0.0943179 29:-0.625092 30:-0.597429 31:-0.600342 32:-0.627734 33:-0.656966 34:0.150051 35:-0.827269 36:-0.529096 37:-0.1687 38:-0.73895 39:-0.163908 40:0.332573 41:0.388248 
0.5714198747082259 1:-0.752896 2:0.205757 3:-0.358507 4:-0.718469 5:0.294563 6:-0.52862 7:0.524183 8:-0.204011 9:0.43549 10:0.345945 11:-0.520112 12:0.136239 13:-0.206604 14:-0.782412 15:-0.427151 16:-0.786865 17:-0.509252 18:-0.823447 19:-0.498061 20:-0.7888 21:-0.507233 22:-0.811333 23:-0.400534 24:-0.638841 25:-0.10331 26:-0.397552 27:-0.122026 28:-0.499521 29:-0.167711 30:-0.535306 31:-0.981162 32:-0.598496 33:-0.970935 34:-0.115922 35:-0.718522 36:-0.90417 37:-0.0618756 38:-0.829886 39:-0.0688751 40:0.380024 41:0.339606 
0.2574492154046213 1:-0.820083 2:0.145161 3:-0.402381 4:-0.672445 5:0.15976 6:-0.554504 7:0.652317 8:-0.0843104 9:0.561859 10:0.211755 11:-0.237553 12:0.156793 13:-0.0880071 14:-0.723869 15:-0.279278 16:-0.684337 17:-0.198192 18:-0.385469 19:-0.0526977 20:-0.25844 21:-0.0927425 22:0.159578 23:-0.340572 24:0.154892 25:-0.453625 26:0.0995064 27:-0.526608 28:0.194834 29:-0.326708 30:0.000726487 31:-0.61847 32:-0.551173 33:-0.775495 34:0.12232 35:-0.713592 36:-0.613984 37:-0.104994 38:-0.749516 39:-0.0830047 40:0.154366 41:0.348123 
0.3432514122380324 1:-0.875698 2:0.19561 3:-0.320225 4:-0.696687 5:0.11465 6:-0.644803 7:0.729389 8:-0.220877 9:0.432137 10:0.12666 11:-0.154255 12:0.196403 13:-0.389955 14:-0.842252 15:-0.5697 16:-0.939879 17:-0.290391 18:-0.454297 19:-0.20526 20:-0.424854 21:-0.228947 22:-0.244681 23:-0.282084 24:-0.0764343 25:-0.472124 26:-0.0805904 27:-0.492976 28:0.114231 29:-0.30919 30:0.216481 31:-0.427212 32:0.0410258 33:-0.820296 34:0.0488529 35:-0.726652 36:-0.693549 37:-0.05435 38:-0.728129 39:-0.333183 40:0.0658024 41:0.363908 
0.05085914055056862 1:-0.872616 2:0.185935 3:-0.322745 4:-0.685496 5:0.102943 6:-0.615114 7:0.741117 8:-0.1888 9:0.419216 10:0.143977 11:-0.118494 12:0.174232 13:-0.433136 14:-0.628631 15:-0.611212 16:-0.616832 17:-0.331277 18:-0.291009 19:-0.34088 20:-0.261917 21:-0.292018 22:0.00360141 23:-0.339895 24:-0.0730292 25:-0.583627 26:0.0205746 27:-0.625402 28:0.118716 29:-0.426492 30:0.271805 31:-0.707039 32:-0.324189 33:-0.780588 34:0.0048684 35:-0.52865 36:-0.66782 37:-0.0156893 38:-0.6519 39:-0.169471 40:0.0873485 41:0.100749 
0.6735455798010463 1:-0.898737 2:0.213889 3:-0.304871 4:-0.66969 5:0.124817 6:-0.603928 7:0.794053 8:-0.254645 9:0.365563 10:0.0939468 11:-0.174474 12:0.142665 13:-0.826636 14:-0.624403 15:-0.663227 16:-0.702806 17:-0.310545 18:-0.418272 19:-0.296584 20:-0.241173 21:-0.327337 22:-0.157436 23:-0.421538 24:-0.158614 25:-0.373528 26:-0.173348 27:-0.467577 28:0.0552236 29:-0.145959 30:0.0950589 31:-1 32:-1 33:-0.810466 34:-0.0808179 35:-0.744671 36:-0.702139 37:-0.112812 38:-0.700903 39:-0.38012 40:0.0891215 41:0.0191152 
0.3253451298307105 1:-0.893282 2:0.209935 3:-0.306142 4:-0.68253 5:0.0715565 6:-0.611358 7:0.781373 8:-0.249431 9:0.376477 10:0.117204 11:-0.036396 12:0.145467 13:-0.448833 14:-0.865149 15:-0.635393 16:-0.587579 17:-0.620539 18:-0.505843 19:-0.441655 20:-0.0578779 21:-0.495208 22:0.00074719 23:-0.322085 24:-0.0285552 25:-0.444775 26:0.0982328 27:-0.631074 28:-0.00708654 29:-0.725878 30:-0.227539 31:-0.689415 32:-0.562598 33:-0.778779 34:-0.0761669 35:-0.578062 36:-0.638907 37:-0.00752878 38:-0.60431 39:-0.292603 40:0.110161 41:0.00268976 
0.5443423428746896 1:-0.901371 2:0.224534 3:-0.290612 4:-0.70302 5:0.126358 6:-0.610688 7:0.785984 8:-0.292981 9:0.341769 10:0.140922 11:-0.185519 12:0.102641 13:-0.310645 14:-0.707062 15:-0.212247 16:-0.410122 17:-0.328024 18:-0.34554 19:-0.311382 20:-0.330251 21:-0.437995 22:-0.129182 23:-0.383725 24:-0.172721 25:-0.381612 26:-0.152671 27:-0.405848 28:-0.0745011 29:-0.360098 30:-0.292513 31:-0.321761 32:-0.219511 33:-0.834359 34:-0.0871719 35:-0.62792 36:-0.736669 37:-0.215136 38:-0.622107 39:-0.397877 40:0.0718812 41:-0.000915487 
0.3587748706074127 1:-0.908083 2:0.204769 3:-0.259815 4:-0.696881 5:0.0511372 6:-0.625943 7:0.8124 8:-0.247967 9:0.256242 10:0.115355 11:0.0215764 12:0.132357 13:-0.473396 14:-0.793045 15:-0.702484 16:-0.629495 17:-0.6685 18:-0.347773 19:-0.406733 20:-0.0644519 21:-0.410849 22:0.0892425 23:-0.531023 24:0.110901 25:-0.579929 26:-0.0546431 27:-0.375057 28:-0.15327 29:-0.361349 30:-0.359404 31:-0.886418 32:-0.659198 33:-0.758852 34:-0.112043 35:-0.568276 36:-0.69974 37:0.00771897 38:-0.613051 39:-0.396168 40:0.229273 41:0.0863876 
0.6282117221934093 1:-0.885891 2:0.226167 3:-0.229024 4:-0.648344 5:0.0545271 6:-0.604197 7:0.798098 8:-0.277705 9:0.149281 10:0.0894082 11:0.00581619 12:0.199472 13:-0.364252 14:-0.671012 15:-0.432821 16:-0.341882 17:-0.488286 18:-0.104253 19:-0.420031 20:0.196331 21:-0.39114 22:0.318923 23:-0.0165141 24:0.135283 25:-0.112609 26:-0.136309 27:-0.32019 28:-0.249399 29:-0.366065 30:-0.437226 31:-0.771718 32:-0.779446 33:-0.686638 34:-0.160421 35:-0.649049 36:-0.702379 37:-0.0169917 38:-0.537627 39:-0.185164 40:0.268327 41:0.121446 
0.2671244853636761 1:-0.900085 2:0.252204 3:-0.264614 4:-0.671974 5:0.0633812 6:-0.635551 7:0.793231 8:-0.360147 9:0.262602 10:0.0652918 11:-0.0139755 12:0.185645 13:-0.462966 14:-0.66661 15:-0.58895 16:-0.418866 17:-0.544156 18:-0.28492 19:-0.435843 20:0.0941531 21:-0.373737 22:0.222445 23:-0.437058 24:-0.0853882 25:-0.687076 26:-0.260883 27:-0.770153 28:-0.362917 29:-0.734643 30:-0.48559 31:-0.856822 32:-0.91443 33:-0.71199 34:-0.156474 35:-0.673611 36:-0.717253 37:-0.0706962 38:-0.518085 39:-0.374253 40:0.289947 41:0.0787535 
0.2774996704258506 1:-0.722906 2:0.186257 3:-0.197612 4:-0.796901 5:0.306487 6:-0.472935 7:0.473313 8:-0.165938 9:0.0589325 10:0.542924 11:-0.549948 12:0.0251821 13:-0.458772 14:-0.556961 15:-0.502374 16:-0.395141 17:-0.53298 18:-0.376065 19:-0.53772 20:-0.401635 21:-0.440685 22:-0.346113 23:-0.393761 24:-0.373506 25:-0.133568 26:-0.395327 27:-0.722656 28:-0.605575 29:0.268181 30:-0.517196 31:0.0723638 32:-0.336976 33:-0.836359 34:-0.243298 35:-0.534053 36:-0.822424 37:-0.29736 38:-0.522213 39:-0.0346619 40:0.191349 41:0.835863 
0.6028415492605539 1:-0.905475 2:0.256265 3:-0.241271 4:-0.682744 5:0.0868857 6:-0.614675 7:0.808114 8:-0.369082 9:0.193457 10:0.101622 11:-0.0774265 12:0.135867 13:-0.458006 14:-0.450594 15:-0.610341 16:-0.394172 17:-0.433269 18:-0.489615 19:-0.339342 20:-0.522416 21:-0.393299 22:-0.256734 23:-0.481849 24:-0.245736 25:-0.456554 26:-0.267202 27:-0.554035 28:-0.553624 29:-0.557941 30:-0.36999 31:-0.43874 32:-0.414949 33:-0.878749 34:0.0191034 35:-0.692321 36:-0.839554 37:0.168248 38:-0.556986 39:-0.400731 40:0.115011 41:0.126165 
0.2401744374990233 1:-0.748965 2:0.15196 3:-0.194356 4:-0.798043 5:0.276022 6:-0.493272 7:0.509481 8:-0.0992848 9:0.0523689 10:0.531142 11:-0.506518 12:0.0209014 13:-0.418967 14:-0.498618 15:-0.569638 16:-0.509357 17:-0.500835 18:-0.591656 19:-0.32613 20:-0.416117 21:-0.0522148 22:-0.297995 23:-0.691726 24:-0.500696 25:-0.43249 26:-0.418333 27:-0.100181 28:-0.351841 29:-0.00917765 30:-0.299574 31:-0.825656 32:-0.195314 33:-0.870429 34:-0.222295 35:-0.545447 36:-0.841562 37:-0.231744 38:-0.608897 39:0.0977567 40:-0.0598228 41:0.512077 
0.3366775048237147 1:-0.905562 2:0.269753 3:-0.248219 4:-0.669362 5:0.062548 6:-0.611833 7:0.808222 8:-0.394667 9:0.209564 10:0.0785255 11:-0.0127434 12:0.14676 13:-0.407531 14:-0.694248 15:-0.620187 16:-0.656336 17:-0.482795 18:-0.325651 19:-0.499704 20:-0.0542 21:-0.0720674 22:0.328441 23:-0.288133 24:-0.0370086 25:-0.468829 26:-0.243283 27:-0.705465 28:-0.387625 29:-0.773452 30:-0.512034 31:-0.677752 32:-0.623076 33:-0.753555 34:-0.167263 35:-0.646795 36:-0.700485 37:-0.0772809 38:-0.486136 39:-0.35477 40:0.199693 41:0.168728 
0.305543207292182 1:-0.707835 2:0.172059 3:-0.19218 4:-0.79575 5:0.272909 6:-0.479237 7:0.463415 8:-0.137289 9:0.0461092 10:0.561897 11:-0.476957 12:0.0594411 13:-0.455157 14:-0.639979 15:-0.491844 16:-0.393484 17:-0.537516 18:-0.380175 19:-0.565526 20:-0.346882 21:-0.328598 22:-0.348891 23:-0.026816 24:-0.340003 25:-0.31535 26:-0.308558 27:-0.724205 28:-0.508751 29:0.300319 30:-0.529664 31:-0.15846 32:-0.303961 33:-0.823732 34:-0.243616 35:-0.558544 36:-0.7841 37:-0.336368 38:-0.49015 39:0.269959 40:0.329453 41:0.541126 
0.2480556805225478 1:-0.900343 2:0.257712 3:-0.231887 4:-0.672286 5:0.128278 6:-0.620523 7:0.799325 8:-0.368723 9:0.164363 10:0.0834841 11:-0.187222 12:0.164544 13:-0.266561 14:-0.430345 15:-0.433734 16:-0.559597 17:-0.331211 18:-0.680333 19:-0.295087 20:-0.789514 21:-0.321334 22:-0.809551 23:-0.304141 24:-0.759668 25:-0.364794 26:-0.668974 27:-0.616709 28:-0.50937 29:-0.28134 30:-0.330304 31:-0.328619 32:-0.28886 33:-0.931116 34:-0.211932 35:-0.73734 36:-0.905726 37:-0.321891 38:-0.568727 39:-0.379351 40:0.132345 41:0.177019 
0.5625845576416095 1:-0.8794 2:0.29269 3:-0.240556 4:-0.661569 5:0.0717394 6:-0.619618 7:0.760444 8:-0.440055 9:0.183517 10:0.0904529 11:-0.0372791 12:0.201331 13:-0.340436 14:-0.496831 15:-0.319029 16:-0.213909 17:-0.240409 18:0.168497 19:-0.222034 20:0.00917776 21:-0.342934 22:0.0448403 23:-0.300528 24:-0.106763 25:-0.45265 26:-0.281905 27:-0.76062 28:-0.373271 29:-0.720745 30:-0.54601 31:-0.90055 32:-0.895353 33:-0.689645 34:-0.211468 35:-0.751553 36:-0.735837 37:-0.121058 38:-0.542271 39:-0.284528 40:0.329609 41:0.221009 
0.1444675009752011 1:-0.885001 2:0.269981 3:-0.230733 4:-0.679354 5:0.148677 6:-0.5906 7:0.772807 8:-0.384334 9:0.155557 10:0.142897 11:-0.233497 12:0.132702 13:-0.220852 14:-0.39551 15:-0.239303 16:-0.510457 17:-0.199403 18:-0.661365 19:-0.181366 20:-0.719379 21:-0.258163 22:-0.667242 23:-0.302072 24:-0.721088 25:-0.183936 26:-0.763637 27:-0.483319 28:-0.599931 29:-0.176891 30:-0.417215 31:-0.679805 32:-0.265853 33:-0.933146 34:-0.187409 35:-0.734075 36:-0.90766 37:-0.304505 38:-0.567585 39:-0.405296 40:0.127066 41:0.194455 
0.6963958140798927 1:-0.715365 2:0.152312 3:-0.336598 4:-0.804462 5:0.231146 6:-0.467636 7:0.463049 8:-0.09728 9:0.386209 10:0.56592 11:-0.385173 12:0.0205509 13:-0.794265 14:-0.404872 15:-0.749607 16:-0.471137 17:-0.719895 18:-0.481921 19:-0.717105 20:-0.396025 21:-0.211714 22:-0.182955 23:-0.259903 24:-0.282129 25:-0.77017 26:-0.367935 27:-0.1867 28:-0.280708 29:-0.671795 30:-0.743015 31:-0.603321 32:-0.481077 33:-0.84333 34:-0.0785301 35:-0.753723 36:-0.796024 37:-0.134273 38:-0.500843 39:-0.0950414 40:0.580779 41:0.0263257 
0.6388275440755538 1:-0.878428 2:0.284208 3:-0.25657 4:-0.691166 5:0.0707716 6:-0.604071 7:0.751005 8:-0.426509 9:0.231577 10:0.156393 11:-0.0345288 12:0.142817 13:-0.592878 14:-0.831069 15:-0.271223 16:-0.162477 17:-0.308767 18:-0.0629558 19:-0.0630959 20:-0.14527 21:-0.0747777 22:0.086922 23:-0.0150605 24:-0.313801 25:-0.142856 26:-0.301198 27:-0.489397 28:-0.507769 29:-0.404785 30:-0.633553 31:-0.651805 32:-0.798941 33:-0.733791 34:-0.061392 35:-0.694984 36:-0.858501 37:-0.0214504 38:-0.608559 39:-0.319412 40:0.387664 41:0.197533 
0.2526433370976293 1:-0.871857 2:0.290118 3:-0.244106 4:-0.723265 5:0.0826717 6:-0.586727 7:0.729671 8:-0.445937 9:0.198465 10:0.23675 11:-0.0657689 12:0.0836914 13:-0.45251 14:-0.626027 15:-0.431062 16:-0.720038 17:-0.509526 18:-0.880605 19:-0.384574 20:-0.194699 21:-0.286343 22:-0.146222 23:-0.268596 24:-0.519304 25:-0.317627 26:-0.55984 27:-0.138647 28:-0.158792 29:-0.285474 30:-0.453037 31:-0.313265 32:-0.367419 33:-0.873021 34:0.112011 35:-0.57254 36:-0.864044 37:0.0998802 38:-0.675486 39:-0.261372 40:0.232804 41:0.223711 
0.6612640126508312 1:-0.804864 2:0.329346 3:-0.287756 4:-0.737498 5:0.0418029 6:-0.594026 7:0.586718 8:-0.517899 9:0.309248 10:0.312771 11:0.0376972 12:0.151893 13:-0.604861 14:-0.913121 15:0.0034325 16:-0.248546 17:-0.0359928 18:-0.19459 19:0.246729 20:-0.346651 21:0.295765 22:-0.28444 23:0.0462612 24:-0.49979 25:-0.1206 26:-0.481797 27:-0.420634 28:-0.677084 29:-0.621479 30:-0.749265 31:-0.564691 32:-0.621849 33:-0.829283 34:-0.0845348 35:-0.750211 36:-0.931482 37:-0.0356873 38:-0.498044 39:-0.0730778 40:0.036892 41:0.267757 
0.4272039427712036 1:-0.846502 2:0.245828 3:-0.204057 4:-0.76805 5:0.0622959 6:-0.600087 7:0.672205 8:-0.354443 9:0.0867932 10:0.355549 11:-0.00968901 12:0.0828496 13:-0.583765 14:-0.725379 15:-0.551471 16:-0.789576 17:-0.562075 18:-0.932088 19:-0.0737262 20:-0.574822 21:-0.118671 22:-0.221396 23:-0.111184 24:-0.612062 25:-0.0617619 26:-0.403886 27:-0.135798 28:-0.190621 29:0.161622 30:0.0323366 31:-0.178355 32:-0.344461 33:-0.910306 34:0.054318 35:-0.565695 36:-0.83953 37:0.0906647 38:-0.653341 39:-0.266333 40:0.039351 41:0.262221 
0.006208594880966345 1:-0.817229 2:0.281131 3:-0.238057 4:-0.730359 5:0.0672574 6:-0.619252 7:0.626634 8:-0.423072 9:0.180787 10:0.290359 11:-0.0250976 12:0.199053 13:-0.212199 14:-0.42284 15:-0.46054 16:-0.514284 17:-0.374761 18:-0.701125 19:-0.312672 20:-0.571049 21:-0.360871 22:-0.621975 23:-0.337481 24:-0.496938 25:-0.312721 26:-0.532341 27:-0.559467 28:-0.573351 29:-0.410813 30:-0.442582 31:-0.132084 32:-0.408412 33:-0.940435 34:0.0762161 35:-0.729773 36:-0.920961 37:0.131144 38:-0.610655 39:-0.0695475 40:0.176568 41:0.449477 
0.737972266638119 1:-0.630949 2:0.174132 3:-0.375952 4:-0.979206 5:0.134716 6:-0.435958 7:0.183344 8:-0.144998 9:0.497012 10:0.896211 11:-0.180978 12:-0.178075 13:-0.555568 14:-0.683546 15:-0.834003 16:-0.671411 17:-0.877599 18:-0.0952351 19:-0.869851 20:-0.16255 21:-0.839804 22:-0.169402 23:-0.958578 24:-0.172012 25:-0.926265 26:-0.601272 27:-0.792732 28:-0.105198 29:-0.850803 30:-0.58652 31:-0.672925 32:0.116025 33:-0.735994 34:0.0799043 35:-0.75558 36:-0.672714 37:-0.091739 38:-0.636956 39:-0.0365904 40:-0.761313 41:0.042541 
0.0639466980984273 1:-0.750457 2:0.314457 3:-0.204412 4:-0.837431 5:0.109024 6:-0.582656 7:0.435196 8:-0.508011 9:0.0849327 10:0.572218 11:-0.135844 12:0.0727559 13:-0.574915 14:-0.850399 15:-0.669203 16:-0.907865 17:-0.218978 18:-0.608376 19:-0.169321 20:-0.554115 21:-0.0466445 22:-0.516907 23:-0.100704 24:-0.574723 25:0.0379975 26:-0.445553 27:-0.0037931 28:-0.550631 29:0.237108 30:-0.656866 31:0.342458 32:-0.402766 33:-0.941957 34:-0.0435497 35:-0.578203 36:-0.927812 37:-0.0924674 38:-0.682927 39:-0.0533882 40:-0.0333355 41:0.234149 
0.651258335014498 1:-0.745591 2:0.324553 3:-0.25895 4:-0.823497 5:0.0863829 6:-0.623569 7:0.406362 8:-0.544135 9:0.247051 10:0.51682 11:-0.076304 12:0.151649 13:0.193088 14:-0.539674 15:0.233984 16:-0.467998 17:0.151107 18:-0.362243 19:0.171772 20:-0.616186 21:0.165869 22:-0.671885 23:0.192354 24:-0.757317 25:-0.0626822 26:-0.659526 27:-0.420533 28:-0.615088 29:-0.596772 30:-0.575423 31:-0.776909 32:-0.755468 33:-0.923749 34:-0.103836 35:-0.792886 36:-0.949589 37:-0.143147 38:-0.651329 39:0.0419423 40:-0.0872873 41:0.257539 
0.3223499494040592 1:-0.738598 2:0.341295 3:-0.23106 4:-0.817474 5:0.10173 6:-0.625563 7:0.398242 8:-0.579173 9:0.163001 10:0.506807 11:-0.117103 12:0.17118 13:-0.529365 14:-0.459513 15:0.145428 16:-0.523155 17:0.354084 18:-0.596119 19:0.484378 20:-0.479018 21:-0.037824 22:-0.692869 23:0.113951 24:-0.792172 25:-0.223916 26:-0.648249 27:-0.509763 28:-0.590681 29:-0.789376 30:-0.548817 31:-0.944885 32:-0.775297 33:-0.911967 34:-0.119105 35:-0.765539 36:-0.94531 37:-0.143083 38:-0.646362 39:-0.0708816 40:-0.0314253 41:0.112705 
0.6791017487481986 1:-0.741618 2:0.325015 3:-0.228237 4:-0.838071 5:0.12075 6:-0.64982 7:0.364679 8:-0.568882 9:0.162468 10:0.536411 11:-0.175369 12:0.173998 13:-0.545094 14:-0.66154 15:-0.566147 16:-0.42904 17:-0.375138 18:-0.524935 19:-0.194706 20:-0.212996 21:0.455892 22:-0.333031 23:0.209697 24:-0.277076 25:0.00371646 26:-0.724754 27:-0.501323 28:-0.510642 29:-0.689237 30:-0.418594 31:-0.797494 32:-0.785712 33:-0.90604 34:-0.127018 35:-0.71685 36:-0.907234 37:-0.154822 38:-0.69734 39:-0.0427763 40:-0.0657496 41:0.150972 
0.2840509931255715 1:-0.740889 2:0.333013 3:-0.282936 4:-0.826437 5:0.0794887 6:-0.603759 7:0.402053 8:-0.549919 9:0.30915 10:0.528461 11:-0.0573417 12:0.119682 13:-0.692579 14:-0.523126 15:0.133323 16:-0.495183 17:0.240229 18:-0.610528 19:0.230936 20:-0.56177 21:0.303093 22:-0.623336 23:-0.0412479 24:-0.776249 25:0.112716 26:-0.637638 27:-0.363956 28:-0.819378 29:-0.522028 30:-0.628453 31:-0.908119 32:-0.788062 33:-0.933078 34:-0.117921 35:-0.749981 36:-0.963498 37:-0.0840279 38:-0.669954 39:-0.031062 40:0.0379938 41:0.183366 
0.5622417058350495 1:-0.742725 2:0.333132 3:-0.212998 4:-0.810184 5:0.121889 6:-0.595882 7:0.436067 8:-0.540604 9:0.107567 10:0.510492 11:-0.16683 12:0.138255 13:-0.632079 14:-0.79313 15:-0.0775753 16:-0.603085 17:-0.172362 18:-0.522754 19:0.00512345 20:-0.525617 21:0.0151646 22:-0.564436 23:0.0447566 24:-0.454247 25:-0.00896708 26:-0.670972 27:0.0566488 28:-0.597179 29:0.350824 30:-0.536835 31:0.547374 32:-0.491089 33:-0.939353 34:-0.0824942 35:-0.624114 36:-0.960504 37:-0.0740656 38:-0.655222 39:0.00464976 40:-0.0664419 41:0.265566 
0.4409819443681822 1:-0.729584 2:0.330018 3:-0.244605 4:-0.841471 5:0.111482 6:-0.635578 7:0.349688 8:-0.566677 9:0.207746 10:0.557353 11:-0.146134 12:0.160996 13:-0.605576 14:-0.682811 15:0.111428 16:-0.477877 17:0.00784646 18:-0.765666 19:0.319957 20:-0.471958 21:0.426582 22:-0.559857 23:-0.141599 24:-0.658121 25:-0.086827 26:-0.796963 27:-0.156161 28:-0.65155 29:-0.299635 30:-0.648637 31:-0.602849 32:-0.623915 33:-0.921613 34:-0.137239 35:-0.753742 36:-0.957506 37:-0.0948311 38:-0.662693 39:-0.105837 40:-0.0905146 41:0.176335 
0.4205818633442139 1:-0.745843 2:0.319833 3:-0.214913 4:-0.830697 5:0.131718 6:-0.667361 7:0.36805 8:-0.565166 9:0.123107 10:0.508544 11:-0.209663 12:0.208915 13:-0.338609 14:-0.329458 15:-0.272848 16:-0.504598 17:-0.260257 18:-0.654554 19:-0.167991 20:-0.616225 21:0.0491265 22:-0.479455 23:-0.185016 24:-0.643149 25:-0.281387 26:-0.692379 27:-0.549143 28:-0.569144 29:-0.399699 30:-0.41608 31:-0.676054 32:-0.249952 33:-0.87143 34:-0.225981 35:-0.702957 36:-0.874902 37:-0.247847 38:-0.750366 39:-0.190555 40:-0.0956056 41:-0.172754 
0.5403813306722284 1:-0.733266 2:0.338223 3:-0.197869 4:-0.799859 5:0.171675 6:-0.664193 7:0.37389 8:-0.579898 9:0.0669991 10:0.444626 11:-0.308716 12:0.25582 13:-0.37166 14:-0.301043 15:-0.451667 16:-0.490151 17:-0.390681 18:-0.637998 19:-0.115542 20:-0.571416 21:-0.134585 22:-0.675131 23:-0.418434 24:-0.752927 25:-0.564486 26:-0.66537 27:-0.538054 28:-0.488204 29:-0.728434 30:-0.373541 31:-0.324261 32:-0.185701 33:-0.866179 34:-0.261861 35:-0.703526 36:-0.881396 37:-0.336989 38:-0.51128 39:-0.101919 40:0.0141702 41:-0.125041 
0.06858350258683467 1:-0.711443 2:0.328261 3:-0.239765 4:-0.851508 5:0.112808 6:-0.646693 7:0.300023 8:-0.565013 9:0.194128 10:0.586218 11:-0.15035 12:0.185913 13:-0.505281 14:-0.431472 15:-0.407442 16:-0.490695 17:0.218209 18:-0.645808 19:0.657925 20:-0.477312 21:0.0655094 22:-0.559525 23:-0.0721949 24:-0.65373 25:0.0764817 26:-0.524522 27:-0.34602 28:-0.503316 29:-0.53343 30:-0.65352 31:-0.875623 32:-0.557343 33:-0.908279 34:-0.140056 35:-0.77643 36:-0.92906 37:-0.181268 38:-0.672955 39:0.00217329 40:-0.127612 41:-0.165586 
0.2885424520072571 1:-0.734126 2:0.291208 3:-0.235784 4:-0.864677 5:0.115985 6:-0.605224 7:0.365419 8:-0.468359 9:0.181726 10:0.63339 11:-0.158898 12:0.0833515 13:-0.360599 14:-0.965307 15:-0.556382 16:-0.658922 17:-0.327216 18:-0.480414 19:-0.217804 20:-0.470568 21:-0.257904 22:-0.598062 23:-0.139267 24:-0.617461 25:-0.111478 26:-0.631434 27:-0.0585656 28:-0.522346 29:-0.449235 30:-0.151398 31:-0.20483 32:-0.705625 33:-0.934591 34:-0.0671974 35:-0.633357 36:-0.91318 37:-0.0345631 38:-0.719119 39:-0.247263 40:-0.224481 41:-0.0311115 
0.4840578291271619 1:-0.716487 2:0.300342 3:-0.240288 4:-0.870077 5:0.0841197 6:-0.642971 7:0.296856 8:-0.506512 9:0.200733 10:0.637361 11:-0.0712382 12:0.151896 13:-0.700076 14:-0.636096 15:-0.275349 16:-0.670484 17:0.153733 18:-0.490596 19:0.110061 20:-0.4334 21:0.106713 22:-0.509264 23:0.257435 24:-0.539454 25:-0.131584 26:-0.408324 27:-0.39714 28:-0.392774 29:-0.421427 30:-0.620447 31:-0.692519 32:-0.536103 33:-0.899819 34:-0.121482 35:-0.813913 36:-0.908521 37:-0.104152 38:-0.670545 39:0.012977 40:-0.273209 41:-0.110047 
0.1593018184829964 1:-0.721048 2:0.307849 3:-0.205544 4:-0.853049 5:0.118989 6:-0.644514 7:0.324835 8:-0.520285 9:0.0919432 10:0.596402 11:-0.169532 12:0.175974 13:-0.0602732 14:-0.371652 15:-0.29688 16:-0.402285 17:-0.27399 18:-0.382534 19:-0.400027 20:-0.566839 21:-0.272629 22:-0.339438 23:-0.255877 24:-0.44406 25:-0.176887 26:-0.354716 27:-0.414797 28:-0.38234 29:-0.343939 30:-0.616378 31:-0.173917 32:-0.539316 33:-0.835181 34:-0.14931 35:-0.749425 36:-0.869222 37:-0.150101 38:-0.712 39:-0.0212889 40:-0.208818 41:-0.0792104 
0.8904265359494306 1:-0.727134 2:0.100707 3:-0.0687667 4:-0.807561 5:0.2414 6:-0.439429 7:0.493517 8:0.00597981 9:-0.241268 10:0.579184 11:-0.403081 12:-0.0235282 13:-0.743258 14:-0.447301 15:-0.421555 16:-0.232598 17:-0.463242 18:-0.139584 19:-0.342271 20:-0.156303 21:-0.211181 22:-0.151529 23:-0.2358 24:-0.147568 25:-0.161424 26:-0.212361 27:-0.229075 28:-0.315161 29:0.0532303 30:-0.374377 31:0.00332755 32:-0.102121 33:-0.722193 34:0.188245 35:-0.486295 36:-0.801493 37:0.0126811 38:-0.523349 39:-0.0269521 40:0.300866 41:0.829102 
0.5415945398110806 1:-0.727679 2:0.292409 3:-0.215927 4:-0.864143 5:0.115252 6:-0.633968 7:0.334584 8:-0.484259 9:0.124765 10:0.626367 11:-0.160095 12:0.136308 13:-0.489502 14:-0.971017 15:-0.647337 16:-0.636893 17:-0.346995 18:-0.457035 19:-0.108011 20:-0.452535 21:-0.104819 22:-0.550644 23:-0.0894905 24:-0.570465 25:-0.0195844 26:-0.594746 27:-0.231909 28:-0.406478 29:0.101806 30:-0.246374 31:-0.23051 32:-0.540427 33:-0.919768 34:-0.0934493 35:-0.639149 36:-0.898487 37:-0.0641351 38:-0.682954 39:-0.0296626 40:-0.213913 41:-0.0671774 
0.04127330135296942 1:-0.696281 2:0.103892 3:-0.0651261 4:-0.922346 5:0.195023 6:-0.534935 7:0.280585 8:0.00931259 9:-0.306991 10:0.782224 11:-0.355582 12:-0.0591814 13:-0.494004 14:-0.688497 15:-0.653253 16:-0.520196 17:-0.776616 18:-0.0101602 19:-0.71826 20:-0.0573264 21:-0.69985 22:0.0654436 23:-0.416041 24:-0.118454 25:-0.210001 26:-0.305851 27:-0.671616 28:-0.402331 29:-0.889524 30:-0.932965 31:-0.855361 32:-0.740341 33:-0.686708 34:0.0775403 35:-0.633111 36:-0.809688 37:-0.0751454 38:-0.533858 39:0.00742763 40:-0.492894 41:0.411867 
0.4320770984900997 1:-0.765644 2:0.0720862 3:-0.145289 4:-0.843213 5:0.226351 6:-0.483238 7:0.507747 8:0.077044 9:-0.0751419 10:0.613105 11:-0.411843 12:-0.0763626 13:-0.646572 14:-0.839206 15:-0.76443 16:-0.732898 17:-0.632347 18:-0.721354 19:-0.665053 20:-0.656211 21:-0.293692 22:-0.138437 23:-0.253381 24:-0.174405 25:-0.186655 26:-0.511787 27:-0.192236 28:0.0903137 29:0.0627187 30:-0.0811651 31:-0.659259 32:-0.506498 33:-0.897755 34:-0.0260865 35:-0.257007 36:-0.820327 37:0.0826923 38:-0.633151 39:0.107268 40:0.105912 41:0.765359 
0.4418223468727746 1:-0.695273 2:0.307958 3:-0.18836 4:-0.878736 5:0.127032 6:-0.627016 7:0.264777 8:-0.510024 9:0.0390163 10:0.673738 11:-0.189094 12:0.141037 13:-0.186632 14:-0.772875 15:-0.522077 16:-0.848507 17:-0.590328 18:-0.649954 19:-0.34582 20:-0.363523 21:-0.33538 22:-0.222405 23:-0.353483 24:-0.349316 25:-0.196109 26:-0.293004 27:-0.372141 28:-0.390878 29:-0.380028 30:-0.745384 31:-0.196128 32:-0.155777 33:-0.867201 34:-0.0902078 35:-0.734787 36:-0.800634 37:-0.117452 38:-0.743489 39:-0.0836202 40:-0.241126 41:-0.128937 
0.4693807301673701 1:-0.710284 2:0.300656 3:-0.210068 4:-0.855673 5:0.0907533 6:-0.654775 7:0.298716 8:-0.504226 9:0.106291 10:0.608892 11:-0.0899617 12:0.204744 13:-0.678418 14:-0.324484 15:-0.555472 16:-0.248149 17:0.156164 18:-0.524055 19:0.459404 20:-0.456479 21:0.150626 22:-0.518932 23:-0.0782141 24:-0.585772 25:-0.142459 26:-0.470828 27:-0.489795 28:-0.324181 29:-0.893141 30:-0.591228 31:-0.883246 32:-0.753563 33:-0.887307 34:-0.0919389 35:-0.798404 36:-0.879946 37:-0.154659 38:-0.793837 39:-0.0678508 40:-0.0512258 41:-0.13544 
0.2082420864896332 1:-0.705573 2:0.311194 3:-0.203587 4:-0.852331 5:0.101513 6:-0.629753 7:0.314222 8:-0.511984 9:0.0839525 10:0.613217 11:-0.117643 12:0.175652 13:-0.0935076 14:-0.808992 15:-0.454218 16:-0.700489 17:-0.566135 18:-0.629078 19:-0.461888 20:-0.418828 21:-0.459503 22:-0.342357 23:-0.419974 24:-0.427056 25:-0.425031 26:-0.368509 27:-0.470389 28:-0.162232 29:-0.27418 30:-0.297628 31:-0.234382 32:-0.840591 33:-0.897946 34:0.00956843 35:-0.627737 36:-0.861366 37:-0.0121067 38:-0.709699 39:-0.00484092 40:-0.00658858 41:-0.137068 
0.4548568656235426 1:-0.723777 2:0.300256 3:-0.226471 4:-0.879933 5:0.0948386 6:-0.610743 7:0.324287 8:-0.497014 9:0.155209 10:0.669117 11:-0.100885 12:0.0787149 13:-0.139904 14:-0.611007 15:-0.325595 16:-0.367465 17:-0.351883 18:-0.358145 19:-0.283294 20:-0.40703 21:-0.260817 22:-0.46234 23:-0.186737 24:-0.383866 25:-0.159819 26:-0.391695 27:-0.344232 28:-0.336062 29:-0.403633 30:-0.473148 31:-0.340881 32:-0.508923 33:-0.888817 34:0.0246204 35:-0.669149 36:-0.896316 37:-0.0118279 38:-0.668208 39:0.0567843 40:-0.208488 41:0.234897 
0.6112323678881495 1:-0.689591 2:0.307564 3:-0.185614 4:-0.882193 5:0.109663 6:-0.629469 7:0.250572 8:-0.509698 9:0.0307815 10:0.685319 11:-0.141227 12:0.14757 13:-0.115046 14:-0.814783 15:-0.465897 16:-0.947065 17:-0.542833 18:-0.615231 19:-0.435228 20:-0.294496 21:-0.429723 22:-0.220521 23:-0.447638 24:-0.211545 25:-0.482346 26:-0.373068 27:-0.428984 28:-0.235418 29:-0.253971 30:-0.116814 31:-1 32:-1 33:-0.849411 34:-0.02808 35:-0.724291 36:-0.789657 37:-0.0756355 38:-0.768524 39:-0.0366873 40:-0.181127 41:0.199461 
0.1390201560016966 1:-0.665449 2:0.282793 3:-0.263812 4:-0.88293 5:0.0974056 6:-0.58443 7:0.25433 8:-0.415864 9:0.247803 10:0.715405 11:-0.102955 12:0.115287 13:-0.311873 14:-0.733747 15:-0.417696 16:-0.27254 17:-0.529601 18:-0.288965 19:-0.495926 20:-0.305157 21:-0.572012 22:-0.640925 23:-0.437156 24:-0.329349 25:-0.57912 26:-0.274976 27:-0.606326 28:-0.262685 29:-0.398362 30:-0.401768 31:-0.3046 32:-0.128211 33:-0.810277 34:0.0429119 35:-0.790291 36:-0.817448 37:-0.0651384 38:-0.70147 39:0.0650609 40:-0.191227 41:0.269905 
0.54828672986497 1:-0.664411 2:0.0662351 3:-0.0276497 4:-0.875435 5:0.24182 6:-0.445387 7:0.33636 8:0.0750196 9:-0.338334 10:0.706137 11:-0.405337 12:-0.0472368 13:-0.515259 14:-0.381401 15:-0.526057 16:-0.187629 17:-0.546844 18:-0.085966 19:-0.334795 20:-0.131017 21:-0.53142 22:-0.124926 23:-0.12637 24:-0.196224 25:0.01029 26:-0.202891 27:-0.419388 28:-0.246707 29:-0.258534 30:-0.605391 31:-0.530061 32:-0.371125 33:-0.689326 34:0.142054 35:-0.550619 36:-0.82079 37:-0.0590142 38:-0.57057 39:0.114059 40:-0.103531 41:0.746912 
1 1:-0.69208 2:0.284451 3:-0.269634 4:-0.889879 5:0.0842137 6:-0.617395 7:0.253603 8:-0.448548 9:0.282041 10:0.702998 11:-0.0706951 12:0.113024 13:-0.158969 14:-0.481646 15:-0.462633 16:-0.286077 17:-0.53468 18:-0.253554 19:-0.507401 20:-0.370156 21:-0.64724 22:-0.640413 23:-0.574378 24:-0.375865 25:-0.573337 26:-0.288435 27:-0.548529 28:-0.316697 29:-0.347761 30:-0.586511 31:-0.262923 32:-0.878977 33:-0.807239 34:0.00714499 35:-0.819035 36:-0.858475 37:-0.0695848 38:-0.729402 39:-0.00879485 40:-0.233846 41:0.147957 
0.6730228559474265 1:-0.684661 2:0.289357 3:-0.226266 4:-0.888705 5:0.0950053 6:-0.636858 7:0.230538 8:-0.46858 9:0.154565 10:0.704313 11:-0.101345 12:0.157212 13:0.153528 14:-0.434996 15:0.0344214 16:-0.286597 17:0.179812 18:-0.302597 19:0.0256195 20:-0.376324 21:-0.289031 22:-0.267046 23:-0.119839 24:-0.370145 25:-0.0916097 26:-0.421276 27:-0.579846 28:-0.555039 29:-0.857955 30:-0.424728 31:-1 32:-1 33:-0.858516 34:-0.0874014 35:-0.816822 36:-0.871457 37:-0.131479 38:-0.777264 39:-0.0962997 40:-0.0820844 41:0.115376 
0.0166533840607446 1:-0.679173 2:0.0525717 3:-0.0289644 4:-0.866962 5:0.257351 6:-0.460283 7:0.349983 8:0.104908 9:-0.341608 10:0.675587 11:-0.445512 12:-0.0411742 13:-0.507875 14:-0.356741 15:-0.400968 16:-0.153975 17:-0.404273 18:-0.132644 19:-0.250315 20:-0.199315 21:-0.406987 22:0.0029554 23:-0.33854 24:-0.179422 25:0.0362267 26:-0.232457 27:-0.446713 28:-0.59623 29:-0.332112 30:-0.621879 31:-0.648552 32:-0.575793 33:-0.712249 34:0.127021 35:-0.601149 36:-0.843642 37:-0.0132663 38:-0.545657 39:0.159255 40:-0.178493 41:0.645535 
0.2668593782967306 1:-0.654752 2:0.290474 3:-0.192142 4:-0.897633 5:0.139196 6:-0.589356 7:0.216436 8:-0.437919 9:0.0490288 10:0.749169 11:-0.211437 12:0.112321 13:-0.699078 14:-0.649682 15:-0.345573 16:-0.196439 17:-0.42885 18:-0.145105 19:-0.360943 20:-0.255004 21:-0.171354 22:-0.208789 23:-0.178492 24:-0.337813 25:-0.166834 26:-0.330256 27:-0.197976 28:-0.282195 29:-0.229061 30:-0.0795967 31:-0.0249013 32:-0.240344 33:-0.79421 34:-0.167508 35:-0.648776 36:-0.810313 37:-0.0784606 38:-0.732542 39:0.0747982 40:-0.100433 41:0.29746 
0.00191746269523833 1:-0.63327 2:0.310413 3:-0.190182 4:-0.901792 5:0.13907 6:-0.577952 7:0.187072 8:-0.470557 9:0.043063 10:0.761808 11:-0.205538 12:0.112915 13:-0.240638 14:-0.88473 15:-0.561996 16:-0.858787 17:-0.511734 18:-0.193819 19:-0.304494 20:-0.24461 21:-0.337622 22:-0.174793 23:-0.342392 24:-0.268778 25:-0.282811 26:-0.270601 27:-0.282591 28:-0.173698 29:-0.282928 30:-0.261376 31:-0.189656 32:-0.802102 33:-0.811466 34:-0.0165663 35:-0.709896 36:-0.767043 37:-0.0823452 38:-0.788853 39:-0.102983 40:-0.163543 41:0.264816 
0.9727865463470604 1:-0.7333 2:0.0879537 3:0.00641436 4:-0.699228 5:0.358363 6:-0.458909 7:0.522395 8:0.0236874 9:-0.372879 10:0.355339 11:-0.595218 12:0.0923457 13:0.0717148 14:-0.217504 15:-0.251252 16:-0.277737 17:-0.266968 18:-0.275865 19:-0.0647901 20:-0.213455 21:-0.051481 22:-0.182103 23:-0.188478 24:-0.18587 25:0.187189 26:0.0913516 27:-0.208878 28:-0.18293 29:-0.142218 30:-0.376758 31:-0.896334 32:-0.820907 33:-0.728067 34:0.194563 35:-0.649845 36:-0.714786 37:0.108503 38:-0.796027 39:0.0962519 40:0.481055 41:0.803999 
0.2909794805770329 1:-0.642037 2:0.265274 3:-0.222574 4:-0.917352 5:0.110956 6:-0.593286 7:0.172934 8:-0.382487 9:0.135921 10:0.801474 11:-0.139818 12:0.105971 13:-0.299871 14:-0.400996 15:-0.493878 16:-0.190168 17:-0.569578 18:-0.21613 19:-0.606959 20:-0.252083 21:-0.573301 22:-0.22216 23:-0.379535 24:-0.257835 25:-0.392711 26:-0.234707 27:-0.650494 28:-0.261023 29:-0.460064 30:-0.012821 31:-0.378998 32:-0.340531 33:-0.7875 34:-0.0119527 35:-0.795709 36:-0.767668 37:-0.125722 38:-0.648618 39:0.066903 40:-0.242028 41:0.140496 
0.09517878902569867 1:-0.72202 2:0.107124 3:-0.0114278 4:-0.69428 5:0.322794 6:-0.412719 7:0.547635 8:-0.0122126 9:-0.320848 10:0.398067 11:-0.507393 12:0.0775412 13:0.059675 14:-0.263143 15:-0.178191 16:-0.318694 17:-0.136517 18:-0.264173 19:-0.109201 20:-0.328833 21:-0.153709 22:-0.186382 23:0.214445 24:-0.00490058 25:0.150367 26:-0.19231 27:-0.35006 28:-0.353993 29:-0.289763 30:-0.682184 31:-0.722978 32:-0.678476 33:-0.764888 34:0.181455 35:-0.663479 36:-0.722284 37:-0.0064043 38:-0.620049 39:0.212935 40:0.513192 41:0.757088 
0.2446130703596204 1:-0.738301 2:0.0945023 3:-0.0109588 4:-0.67427 5:0.393547 6:-0.465485 7:0.533774 8:0.0109546 9:-0.330412 10:0.307883 11:-0.653323 12:0.115929 13:-0.609052 14:-0.183106 15:-0.171582 16:-0.229341 17:-0.288804 18:-0.173167 19:-0.191205 20:-0.146151 21:-0.176364 22:-0.119908 23:-0.0295639 24:0.0705488 25:0.073044 26:0.19304 27:-0.257104 28:0.0281808 29:-0.397929 30:-0.518819 31:-0.513398 32:-0.553195 33:-0.688231 34:0.15519 35:-0.74035 36:-0.656554 37:0.118335 38:-0.790874 39:-0.0835021 40:0.44874 41:0.68628 
0.7108444998936101 1:-0.635261 2:0.303352 3:-0.220284 4:-0.898191 5:0.0871172 6:-0.642429 7:0.135052 8:-0.485829 9:0.13189 10:0.73935 11:-0.0779903 12:0.20715 13:-0.566089 14:-0.890419 15:-0.74492 16:-0.399803 17:0.364404 18:-0.342494 19:0.584981 20:-0.324279 21:0.131316 22:-0.291683 23:0.0801554 24:-0.412073 25:-0.204303 26:-0.412189 27:-0.59815 28:-0.529055 29:-0.162721 30:-0.460966 31:-0.547319 32:-0.311874 33:-0.834237 34:-0.104792 35:-0.861803 36:-0.85602 37:-0.156223 38:-0.844414 39:0.241097 40:-0.123543 41:0.069612 
0.7248338483716382 1:-0.731919 2:0.105554 3:-0.0194136 4:-0.686863 5:0.322326 6:-0.412878 7:0.565072 8:-0.00942671 9:-0.305438 10:0.38302 11:-0.507476 12:0.077034 13:-0.521125 14:-0.228414 15:-0.225687 16:-0.302914 17:-0.104399 18:-0.384005 19:-0.110782 20:-0.437303 21:-0.0296264 22:-0.149577 23:-0.0448683 24:0.00627648 25:0.0318576 26:0.10853 27:-0.174922 28:-0.301119 29:-0.220925 30:-0.69142 31:-0.464811 32:-0.677141 33:-0.753294 34:0.24613 35:-0.622089 36:-0.719282 37:-0.032939 38:-0.610853 39:0.115821 40:0.454204 41:0.818697 
1 1:-0.637361 2:0.252847 3:-0.252028 4:-0.924344 5:0.0994969 6:-0.643683 7:0.102283 8:-0.371649 9:0.231826 10:0.804087 11:-0.113575 12:0.169938 13:-0.459931 14:-0.639677 15:-0.646934 16:-0.729096 17:-0.526007 18:-0.510781 19:-0.629007 20:-0.564591 21:-0.0387252 22:-0.169035 23:-0.180083 24:-0.318512 25:0.0472887 26:-0.391226 27:-0.518298 28:-0.551196 29:-0.729442 30:-0.467415 31:-1 32:-1 33:-0.838507 34:-0.164227 35:-0.656091 36:-0.79158 37:-0.19702 38:-0.786296 39:-0.0363417 40:-0.193266 41:0.0727604 
0.1195789755704692 1:-0.762214 2:0.123197 3:-0.0393066 4:-0.683321 5:0.383374 6:-0.427434 7:0.58046 8:-0.0397589 9:-0.271329 10:0.332174 11:-0.632985 12:0.0520215 13:-0.678737 14:-0.189767 15:-0.280536 16:-0.261132 17:-0.261572 18:-0.196765 19:-0.0641597 20:-0.180897 21:-0.21324 22:0.194825 23:-0.0068853 24:0.320733 25:-0.0604423 26:-0.0284263 27:-0.206094 28:-0.328726 29:-0.191598 30:-0.709581 31:-0.720163 32:-0.919565 33:-0.702301 34:0.227972 35:-0.691752 36:-0.695315 37:0.012832 38:-0.663407 39:-0.104406 40:0.39765 41:0.768037 
0.4107836734555839 1:-0.632066 2:0.26802 3:-0.249757 4:-0.920991 5:0.0888589 6:-0.635661 7:0.107022 8:-0.403241 9:0.220832 10:0.797178 11:-0.0831877 12:0.168235 13:-0.720124 14:-0.497446 15:0.0981644 16:-0.408659 17:-0.0560658 18:-0.181503 19:0.167903 20:-0.301994 21:0.104945 22:-0.191403 23:-0.529646 24:-0.350008 25:-0.404151 26:-0.265951 27:-0.55786 28:-0.2237 29:-0.756323 30:-0.554045 31:-0.66684 32:-0.482583 33:-0.786232 34:-0.0592014 35:-0.854255 36:-0.79315 37:-0.227244 38:-0.756441 39:0.222074 40:-0.29297 41:0.117334 
0.6738035690271944 1:-0.640436 2:0.260198 3:-0.236339 4:-0.914113 5:0.109556 6:-0.628665 7:0.13975 8:-0.382208 9:0.180526 10:0.786277 11:-0.139371 12:0.162165 13:0.0264845 14:-0.476202 15:0.201164 16:-0.143939 17:-0.0204941 18:-0.133718 19:-0.0972636 20:-0.289856 21:0.0606518 22:-0.229168 23:-0.050933 24:-0.205264 25:-0.216983 26:-0.35453 27:-0.74107 28:-0.51176 29:-0.617446 30:-0.369834 31:-0.762953 32:-0.422663 33:-0.771945 34:-0.0596899 35:-0.853226 36:-0.813164 37:-0.206914 38:-0.713653 39:0.147052 40:-0.038112 41:0.111514 
0.3163493297209656 1:-0.743407 2:0.1338 3:-0.0219128 4:-0.634118 5:0.390767 6:-0.398494 7:0.592354 8:-0.0576451 9:-0.28192 10:0.298462 11:-0.602249 12:0.095296 13:-0.636091 14:-0.13084 15:-0.216432 16:-0.231812 17:-0.213413 18:-0.240965 19:-0.0968654 20:-0.224209 21:-0.0246857 22:0.192435 23:0.0873399 24:0.314603 25:0.0271324 26:-0.0916705 27:-0.442848 28:-0.437449 29:-0.179115 30:-0.697818 31:-0.313275 32:-0.70996 33:-0.536098 34:0.33825 35:-0.697253 36:-0.659052 37:-0.049165 38:-0.615008 39:-0.0737164 40:0.771165 41:0.748766 
0.03722687472333716 1:-0.740533 2:0.101802 3:-0.00648511 4:-0.590635 5:0.381115 6:-0.410277 7:0.607055 8:-0.00653452 9:-0.302475 10:0.243771 11:-0.571341 12:0.150629 13:-0.66249 14:-0.381372 15:-0.656627 16:-0.388835 17:-0.637151 18:-0.477705 19:-0.585006 20:-0.319782 21:-0.43753 22:0.0273947 23:-0.174337 24:0.38981 25:-0.0635073 26:0.235808 27:-0.0239839 28:0.0183599 29:-0.407499 30:-0.645932 31:-0.679441 32:-0.710215 33:-0.685555 34:0.363194 35:-0.327299 36:-0.4815 37:-0.246499 38:-0.535966 39:-0.111218 40:0.776041 41:0.808338 
0.3179093310082839 1:-0.64505 2:0.258468 3:-0.203795 4:-0.917402 5:0.131475 6:-0.601644 7:0.169744 8:-0.370377 9:0.083212 10:0.799898 11:-0.195632 12:0.114057 13:-0.630378 14:-0.733431 15:-0.719553 16:-0.826927 17:-0.55919 18:-0.291234 19:-0.519148 20:-0.203202 21:-0.145214 22:-0.23696 23:-0.366169 24:-0.284286 25:-0.297357 26:-0.253781 27:-0.34441 28:-0.209712 29:0.0963997 30:-0.0343621 31:-0.832341 32:-0.669225 33:-0.810314 34:-0.196108 35:-0.521258 36:-0.768351 37:-0.0530864 38:-0.730005 39:0.0633474 40:-0.197574 41:0.120376 
1 1:-0.748003 2:0.112527 3:0.0267426 4:-0.654598 5:0.374448 6:-0.461502 7:0.55576 8:-0.0212758 9:-0.402044 10:0.275456 11:-0.608834 12:0.121697 13:0.0258015 14:-0.184788 15:-0.121762 16:-0.234084 17:-0.222845 18:-0.232136 19:-0.0464592 20:-0.254916 21:-0.124496 22:-0.177428 23:-0.118468 24:0.085946 25:0.0893224 26:0.22791 27:0.177529 28:0.0712102 29:-0.380695 30:-0.401813 31:-0.706618 32:-0.665643 33:-0.712186 34:0.172454 35:-0.774801 36:-0.664524 37:0.0622242 38:-0.817634 39:-0.0507558 40:0.703893 41:0.659532 
1 1:-0.662904 2:0.240092 3:-0.225377 4:-0.920132 5:0.115367 6:-0.67675 7:0.11336 8:-0.360731 9:0.160354 10:0.784318 11:-0.166027 12:0.201297 13:-0.668878 14:-0.474161 15:0.0395038 16:-0.4208 17:0.17088 18:-0.169378 19:0.455057 20:-0.269333 21:-0.478065 22:-0.263841 23:-0.461037 24:-0.357006 25:-0.294386 26:-0.439073 27:-0.533724 28:-0.601565 29:-0.540883 30:-0.483195 31:-0.728947 32:-0.957777 33:-0.75895 34:-0.0802218 35:-0.890014 36:-0.864962 37:-0.129689 38:-0.720632 39:0.00555394 40:-0.240388 41:-0.0300443 
0.05439566791084084 1:-0.647334 2:0.0617022 3:-0.0318792 4:-0.90627 5:0.166367 6:-0.51508 7:0.245803 8:0.096814 9:-0.363143 10:0.769677 11:-0.261635 12:0.00847618 13:-0.283143 14:-0.713541 15:-0.476952 16:-0.16039 17:-0.545712 18:-0.0442839 19:-0.709565 20:-0.111066 21:-0.325329 22:-0.0213716 23:-0.0221778 24:-0.0523184 25:0.0746456 26:-0.356748 27:-0.587804 28:-0.372346 29:-0.790181 30:-0.721303 31:-0.803878 32:-0.762687 33:-0.719087 34:0.0623846 35:-0.665086 36:-0.801752 37:-0.113322 38:-0.461681 39:0.263069 40:-0.304486 41:0.549427 
0.688856742836859 1:-0.600566 2:0.252987 3:-0.246759 4:-0.909578 5:0.0887183 6:-0.61665 7:0.10559 8:-0.344722 9:0.200235 10:0.79444 11:-0.0806925 12:0.199393 13:-0.405519 14:-0.600576 15:-0.575794 16:-0.682819 17:-0.349037 18:-0.456338 19:-0.260121 20:-0.252602 21:0.184337 22:-0.120642 23:0.12052 24:-0.219552 25:0.0146126 26:-0.330125 27:-0.503342 28:-0.255097 29:-0.717192 30:-0.430056 31:-0.774401 32:-0.106814 33:-0.818001 34:-0.150985 35:-0.725028 36:-0.727822 37:-0.189287 38:-0.665792 39:0.290972 40:-0.20654 41:0.191007 
0.66820788555896 1:-0.607732 2:0.255053 3:-0.228307 4:-0.9149 5:0.132863 6:-0.635249 7:0.0859604 8:-0.359906 9:0.153137 10:0.795899 11:-0.198351 12:0.208095 13:-0.960451 14:-0.991583 15:-0.646197 16:-0.491714 17:0.127046 18:-0.190654 19:0.565036 20:-0.29513 21:-0.0716173 22:-0.204783 23:-0.477615 24:-0.249442 25:-0.307829 26:-0.313426 27:-0.275382 28:-0.148563 29:-0.563336 30:-0.404071 31:-0.739382 32:-0.299762 33:-0.791967 34:-0.0907717 35:-0.852662 36:-0.792939 37:-0.142697 38:-0.796076 39:0.14161 40:-0.245333 41:0.262074 
1 1:-0.652876 2:0.229718 3:-0.158232 4:-0.922133 5:0.155685 6:-0.578688 7:0.197026 8:-0.296269 9:-0.0472784 10:0.813792 11:-0.257353 12:0.0665951 13:-0.441844 14:-0.865667 15:-0.580227 16:-0.770924 17:-0.607206 18:-0.268679 19:-0.627559 20:-0.189982 21:-0.331465 22:-0.111765 23:-0.464162 24:-0.204853 25:-0.630764 26:-0.221764 27:-0.436367 28:-0.093998 29:-0.12723 30:-0.0401469 31:-0.241297 32:0.116181 33:-0.777922 34:-0.0718924 35:-0.654702 36:-0.722917 37:-0.182986 38:-0.734065 39:0.099114 40:-0.234522 41:0.188012 
0.4153718437694581 1:-0.689189 2:0.194559 3:-0.373373 4:-0.834809 5:0.258576 6:-0.495326 7:0.366375 8:-0.184943 9:0.481329 10:0.596615 11:-0.452281 12:0.0241332 13:-0.831681 14:-0.541164 15:-0.81545 16:-0.506201 17:-0.79436 18:-0.473913 19:-0.500982 20:-0.323483 21:-0.614962 22:-0.20469 23:-0.582315 24:-0.299637 25:-0.561741 26:-0.225629 27:-0.690724 28:-0.256723 29:-0.80264 30:-0.704853 31:-0.741241 32:-0.422579 33:-0.826871 34:-0.121797 35:-0.751588 36:-0.723825 37:-0.198 38:-0.660895 39:0.119109 40:0.0917092 41:0.181438 
0.2519998346700172 1:-0.70615 2:0.123735 3:-0.0370838 4:-0.656865 5:0.334944 6:-0.495268 7:0.521578 8:-0.0406696 9:-0.277602 10:0.317906 11:-0.543625 12:0.214912 13:0.0153655 14:-0.0827262 15:-0.161328 16:-0.154214 17:-0.202318 18:-0.233352 19:-0.00139037 20:0.171543 21:0.0440494 22:0.44112 23:0.0719651 24:0.0395333 25:-0.207974 26:-0.386635 27:-0.486423 28:-0.537881 29:-0.146598 30:-0.731688 31:-0.765174 32:-0.918865 33:-0.602841 34:0.210399 35:-0.753769 36:-0.699241 37:-0.172679 38:-0.555198 39:0.089518 40:0.350239 41:0.945835 
0.5920233571748007 1:-0.629303 2:0.195908 3:-0.232137 4:-0.940474 5:0.12913 6:-0.633111 7:0.0843876 8:-0.224483 9:0.171773 10:0.857677 11:-0.19639 12:0.144474 13:-0.252484 14:-0.697164 15:-0.585821 16:-0.751446 17:-0.690981 18:-0.569959 19:-0.765022 20:-0.148857 21:-0.833198 22:-0.00967789 23:-0.796873 24:-0.113124 25:-0.699564 26:-0.190057 27:-0.634127 28:0.0262549 29:-0.39456 30:-0.487476 31:-1 32:-1 33:-0.775768 34:-0.126138 35:-0.725249 36:-0.725726 37:-0.148828 38:-0.764521 39:0.00964064 40:-0.287836 41:0.0785901 
0.2745340355101356 1:-0.600713 2:0.207997 3:-0.157078 4:-0.937474 5:0.129508 6:-0.658327 7:0.0196341 8:-0.254303 9:-0.0550678 10:0.851505 11:-0.196385 12:0.220818 13:-0.445111 14:-0.788078 15:-0.547349 16:-0.36961 17:-0.482955 18:-0.0976766 19:-0.203491 20:-0.177957 21:-0.129275 22:-0.109524 23:-0.6252 24:-0.194798 25:-0.542337 26:-0.180295 27:-0.529781 28:-0.140425 29:-0.375197 30:-0.0158254 31:-0.426806 32:-0.381157 33:-0.710841 34:-0.100877 35:-0.863579 36:-0.77192 37:-0.123374 38:-0.848655 39:0.0780714 40:-0.242313 41:-0.180478 
0.3225475582980837 1:-0.618798 2:0.201085 3:-0.145081 4:-0.935826 5:0.135761 6:-0.640678 7:0.0681134 8:-0.236247 9:-0.090983 10:0.847533 11:-0.213479 12:0.175939 13:-0.303797 14:-0.559347 15:-0.597542 16:-0.666928 17:-0.685039 18:-0.505506 19:-0.634837 20:-0.1828 21:-0.638917 22:-0.0918487 23:-0.650334 24:-0.11051 25:-0.62145 26:-0.140254 27:-0.535426 28:0.10566 29:-0.632302 30:-0.832812 31:-0.675275 32:-0.320248 33:-0.729357 34:-0.184418 35:-0.808264 36:-0.687893 37:-0.153583 38:-0.817925 39:0.139146 40:-0.213605 41:-0.149678 
0.1281038418942371 1:-0.600889 2:0.232959 3:-0.140603 4:-0.922514 5:0.133128 6:-0.63477 7:0.068408 8:-0.306222 9:-0.098527 10:0.818649 11:-0.199321 12:0.206066 13:-0.270309 14:-0.526187 15:-0.493036 16:-0.602558 17:-0.650002 18:-0.505281 19:-0.388778 20:-0.201229 21:-0.449587 22:-0.109818 23:-0.490748 24:-0.175913 25:-0.552716 26:-0.152894 27:-0.486087 28:-0.00411878 29:-0.738137 30:-0.308968 31:-0.605193 32:-0.250307 33:-0.744419 34:-0.170755 35:-0.810087 36:-0.687681 37:-0.193101 38:-0.78161 39:0.0729372 40:-0.0489927 41:-0.099738 
0.3541344093770118 1:-0.740131 2:0.140606 3:0.0412299 4:-0.633176 5:0.38559 6:-0.478509 7:0.544786 8:-0.0698637 9:-0.425142 10:0.237857 11:-0.621692 12:0.162194 13:0.16243 14:-0.138597 15:-0.0306115 16:-0.224929 17:-0.140316 18:-0.244218 19:0.0949653 20:0.242427 21:-0.0468906 22:0.426576 23:-0.0646884 24:0.266652 25:0.12777 26:0.140991 27:-0.623724 28:-0.513535 29:-0.363776 30:-0.460255 31:-0.816619 32:-0.726831 33:-0.540639 34:0.233903 35:-0.806852 36:-0.60753 37:0.0418925 38:-0.797753 39:-0.0560628 40:0.632279 41:0.747803 
0.5286090563656348 1:-0.604303 2:0.168546 3:-0.211811 4:-0.93981 5:0.11062 6:-0.624489 7:0.0656132 8:-0.149767 9:0.107283 10:0.871835 11:-0.141291 12:0.168427 13:-0.513893 14:-0.694437 15:-0.644432 16:-0.722652 17:-0.472155 18:-0.0449188 19:-0.379873 20:-0.128141 21:-0.41774 22:-8.89512e-05 23:-0.0706415 24:-0.0955251 25:-0.376909 26:-0.0677016 27:-0.565268 28:-0.0904542 29:-0.627155 30:0.173978 31:-0.88812 32:-0.390031 33:-0.721001 34:-0.141816 35:-0.784742 36:-0.642013 37:-0.115265 38:-0.758409 39:0.0768911 40:-0.341087 41:-0.095349 
0.24524607738398 1:-0.599781 2:0.168094 3:-0.209615 4:-0.922327 5:0.126813 6:-0.615608 7:0.0962839 8:-0.145306 9:0.0985308 10:0.837286 11:-0.180432 12:0.189015 13:-0.256436 14:-0.481591 15:-0.593562 16:-0.0611329 17:-0.711042 18:-0.041094 19:-0.862216 20:-0.490527 21:-0.900803 22:-0.0162391 23:-0.851328 24:-0.101958 25:-0.732837 26:-0.177666 27:-0.662376 28:0.197557 29:-0.460754 30:-0.49117 31:-0.308828 32:-0.682074 33:-0.677925 34:-1.92941e-05 35:-0.828953 36:-0.682541 37:-0.136509 38:-0.734998 39:0.0490408 40:0.0426859 41:-0.0882686 
0.6125176698056816 1:-0.60294 2:0.167327 3:-0.231007 4:-0.907686 5:0.0989742 6:-0.626608 7:0.111644 8:-0.143653 9:0.159231 10:0.805096 11:-0.10809 12:0.224665 13:-0.242644 14:-0.595266 15:-0.554842 16:-0.107002 17:-0.693853 18:-0.0578111 19:-0.82979 20:-0.0664556 21:-0.819478 22:0.0886465 23:-0.742561 24:0.0227189 25:-0.625683 26:-0.122752 27:-0.495613 28:-0.504777 29:-0.454131 30:-0.708706 31:-0.189437 32:-0.646753 33:-0.677443 34:0.0420382 35:-0.80977 36:-0.631033 37:0.00923077 38:-0.67325 39:0.065238 40:0.111567 41:-0.0464497 
0.0117531925192952 1:-0.613904 2:0.169858 3:-0.221851 4:-0.932654 5:0.109695 6:-0.6244 7:0.090036 8:-0.153425 9:0.137 10:0.854164 11:-0.139122 12:0.168703 13:-0.224784 14:-0.691208 15:-0.534151 16:-0.725179 17:-0.676795 18:-0.568858 19:-0.729388 20:-0.130799 21:-0.875223 22:0.0098758 23:-0.882427 24:-0.0524973 25:-0.828092 26:-0.094267 27:-0.688307 28:-0.101867 29:-0.546141 30:0.0527529 31:-0.412789 32:-0.31193 33:-0.736076 34:-0.137673 35:-0.755811 36:-0.658959 37:-0.11106 38:-0.732713 39:0.160027 40:-0.102951 41:-0.165236 
0.07362011062885264 1:-0.594152 2:0.159066 3:-0.216993 4:-0.947809 5:0.108106 6:-0.627413 7:0.0354215 8:-0.126048 9:0.122375 10:0.889828 11:-0.134479 12:0.170851 13:-0.207381 14:-0.632254 15:-0.537812 16:-0.722878 17:-0.639507 18:-0.114613 19:-0.736653 20:-0.091098 21:-0.727065 22:-0.129957 23:-0.728169 24:-0.0419655 25:-0.654894 26:0.0627406 27:-0.688801 28:-0.0225295 29:-0.411687 30:-0.296551 31:-0.371649 32:-0.562365 33:-0.678459 34:0.0426463 35:-0.840961 36:-0.625784 37:-0.0839251 38:-0.799342 39:0.170963 40:-0.508857 41:-0.109223 
0.3565275948274086 1:-0.715318 2:0.104362 3:0.0352344 4:-0.652366 5:0.305801 6:-0.474163 7:0.533889 8:-0.0071588 9:-0.418197 10:0.308379 11:-0.478897 12:0.181837 13:-0.864576 14:-0.509076 15:-0.735952 16:-0.47745 17:-0.70297 18:-0.49226 19:-0.706836 20:-0.509428 21:-0.532604 22:-0.0117727 23:-0.631557 24:-0.0104615 25:-0.0852331 26:0.0904137 27:-0.152697 28:0.424517 29:0.0447055 30:0.262808 31:-0.0825875 32:-0.0872902 33:-0.755035 34:0.207436 35:-0.270175 36:-0.530107 37:-0.0161803 38:-0.591856 39:-0.0596901 40:0.77107 41:0.796602 
0.7261445548525427 1:-0.585969 2:0.188291 3:-0.224089 4:-0.923778 5:0.100603 6:-0.638455 7:0.049672 8:-0.195723 9:0.140643 10:0.836566 11:-0.112903 12:0.233357 13:-0.759199 14:-0.901509 15:-0.136504 16:-0.191723 17:-0.562059 18:-0.002613 19:0.388269 20:-0.121854 21:-0.207514 22:0.00528926 23:-0.237979 24:-0.0410559 25:-0.190378 26:-0.0353411 27:-0.338849 28:0.133404 29:-0.759212 30:-0.482146 31:-0.712694 32:-0.450879 33:-0.661799 34:-0.0168087 35:-0.863584 36:-0.713153 37:-0.0791656 38:-0.816945 39:0.150386 40:-0.0754272 41:-0.0779564 
0.3464153895839283 1:-0.731556 2:0.120142 3:-0.0142639 4:-0.645599 5:0.258413 6:-0.453671 7:0.588829 8:-0.0345221 9:-0.318917 10:0.322126 11:-0.391443 12:0.170774 13:-0.00455392 14:-0.279756 15:-0.225963 16:-0.27924 17:-0.247172 18:-0.214698 19:-0.205585 20:-0.245155 21:-0.166177 22:0.0550463 23:-0.184387 24:0.0597446 25:-0.0805533 26:-0.178285 27:0.0721366 28:0.0449293 29:0.323974 30:0.0936217 31:-0.701476 32:-0.674985 33:-0.754066 34:0.0519626 35:-0.52793 36:-0.658406 37:-0.07963 38:-0.616403 39:-0.0466143 40:0.669376 41:0.857498 
0.6983711005578099 1:-0.61487 2:0.192529 3:-0.203522 4:-0.95116 5:0.12045 6:-0.640197 7:0.0401811 8:-0.216491 9:0.0853074 10:0.887256 11:-0.172707 12:0.156386 13:-0.492702 14:-0.0406321 15:-0.560142 16:-0.0595608 17:-0.111636 18:-0.0809249 19:-0.218593 20:-0.100975 21:-0.18506 22:-0.161482 23:-0.136797 24:-0.0688593 25:-0.367083 26:-0.129596 27:-0.443123 28:-0.108491 29:-0.61357 30:-0.197758 31:-0.69356 32:-0.517627 33:-0.675574 34:-0.0478827 35:-0.884067 36:-0.763814 37:-0.0865982 38:-0.800891 39:0.0678072 40:-0.492524 41:-0.105321 
0.3907281217345504 1:-0.618551 2:0.166305 3:-0.234558 4:-0.936342 5:0.141405 6:-0.655886 7:0.0500307 8:-0.14892 9:0.180806 10:0.847571 11:-0.23272 12:0.199448 13:-0.249701 14:-0.663597 15:-0.548059 16:-0.179699 17:-0.646536 18:-0.184325 19:-0.722302 20:-0.115785 21:-0.803137 22:-0.0238678 23:-0.77649 24:-0.12404 25:-0.779692 26:-0.0596466 27:-0.733225 28:0.0576348 29:-0.52718 30:0.183676 31:-0.504524 32:0.20995 33:-0.697249 34:-0.00677302 35:-0.848082 36:-0.669104 37:-0.0961945 38:-0.865905 39:0.115444 40:-0.170873 41:-0.125405 
0.7303582226039815 1:-0.608987 2:0.179652 3:-0.198164 4:-0.948619 5:0.14307 6:-0.651977 7:0.0210455 8:-0.183487 9:0.0691466 10:0.878736 11:-0.236859 12:0.184429 13:-0.166548 14:-0.657102 15:0.0431291 16:-0.565191 17:-0.00580182 18:-0.500058 19:0.0528706 20:-0.111338 21:0.0181698 22:0.000633777 23:-0.116172 24:-0.251748 25:-0.335799 26:-0.316968 27:-0.461064 28:-0.1773 29:-1 30:-1 31:-0.602454 32:-0.333895 33:-0.843689 34:-0.0606383 35:-0.923663 36:-0.722461 37:-0.143358 38:-0.900471 39:0.144222 40:-0.585514 41:-0.0575189 
0.7335125380936489 1:-0.584351 2:0.211612 3:-0.190057 4:-0.937804 5:0.125605 6:-0.603748 7:0.0616375 8:-0.246665 9:0.0430366 10:0.867976 11:-0.174935 12:0.161756 13:0.304601 14:-0.542496 15:-0.385905 16:-0.61397 17:-0.155866 18:-0.581203 19:-0.190784 20:-0.470374 21:-0.0260193 22:0.0542435 23:-0.0711727 24:-0.122177 25:-0.708798 26:-0.533697 27:-0.858104 28:-0.409819 29:-0.442077 30:-0.238692 31:-0.392592 32:-0.301598 33:-0.884184 34:-0.0605617 35:-0.883751 36:-0.724688 37:-0.146077 38:-0.827972 39:0.16886 40:-0.211798 41:-0.0364777 
0.06944179625122 1:-0.637485 2:0.207881 3:-0.205762 4:-0.917763 5:0.15337 6:-0.626772 7:0.137988 8:-0.250768 9:0.0904375 10:0.805464 11:-0.259201 12:0.162839 13:-0.528549 14:-0.568704 15:-0.726778 16:-0.471736 17:-0.782236 18:-0.106791 19:-0.212751 20:-0.185521 21:-0.256031 22:-0.142051 23:-0.594304 24:-0.210475 25:-0.222642 26:-0.242379 27:-0.287114 28:0.000766259 29:-0.451563 30:-0.172854 31:-0.473714 32:-0.295277 33:-0.766875 34:-0.17691 35:-0.643161 36:-0.735228 37:-0.195231 38:-0.694232 39:0.173748 40:-0.0607114 41:-0.0822888 
0.09551121636647555 1:-0.622217 2:0.19935 3:-0.208057 4:-0.933685 5:0.129761 6:-0.609141 7:0.11338 8:-0.22556 9:0.0958946 10:0.851985 11:-0.191903 12:0.132497 13:-0.835427 14:-0.913956 15:-0.389102 16:-0.0702229 17:-0.518273 18:-0.0856686 19:-0.708215 20:-0.148823 21:-0.570623 22:-0.115655 23:-0.502814 24:-0.181793 25:-0.545015 26:-0.146417 27:-0.731275 28:-0.101817 29:-0.561524 30:0.0326919 31:-0.451389 32:-0.532135 33:-0.723561 34:0.0357315 35:-0.725345 36:-0.71638 37:-0.137929 38:-0.693005 39:0.125521 40:-0.241139 41:0.302559 
0.4169642198397873 1:-0.594981 2:0.204577 3:-0.227779 4:-0.926358 5:0.131113 6:-0.60182 7:0.0939938 8:-0.229602 9:0.147379 10:0.841756 11:-0.18871 12:0.164608 13:-0.164779 14:-0.672802 15:-0.473198 16:-0.695969 17:-0.633703 18:-0.577092 19:-0.687976 20:-0.159393 21:-0.825703 22:-0.0243804 23:-0.841707 24:-0.0620532 25:-0.789063 26:-0.048294 27:-0.691162 28:-0.498854 29:-0.479783 30:0.086255 31:-0.374314 32:-0.324821 33:-0.762069 34:-0.115982 35:-0.684425 36:-0.690592 37:-0.152847 38:-0.74671 39:0.0717274 40:-0.0672672 41:0.377089 
0.9385520706553881 1:-0.621839 2:0.150272 3:-0.238344 4:-0.934437 5:0.158641 6:-0.610937 7:0.10734 8:-0.103789 9:0.183869 10:0.849104 11:-0.269232 12:0.131799 13:-0.411654 14:-0.811142 15:-0.654946 16:-0.202103 17:-0.780313 18:-0.216299 19:-0.834053 20:-0.195538 21:-0.628714 22:-0.0107831 23:-0.679357 24:-0.0353684 25:-0.645478 26:-0.0444299 27:-0.724395 28:0.0821323 29:-0.507899 30:-0.157355 31:-0.473221 32:-0.937443 33:-0.741117 34:-0.00575034 35:-0.748478 36:-0.672219 37:-0.132735 38:-0.74204 39:0.120199 40:-0.285717 41:0.246389 
0.333056003418273 1:-0.66757 2:0.120417 3:-0.227289 4:-0.913016 5:0.140018 6:-0.641522 7:0.180386 8:-0.0283017 9:0.16106 10:0.790409 11:-0.232327 12:0.160638 13:-0.486384 14:-0.60743 15:-0.602959 16:-0.210835 17:-0.567623 18:-0.140129 19:-0.475045 20:-0.176156 21:-0.283668 22:-0.0635812 23:-0.222363 24:0.0549908 25:-0.128086 26:0.0571034 27:-0.289316 28:0.124087 29:-0.589086 30:-0.437606 31:-0.921486 32:-0.568354 33:-0.7306 34:0.0524922 35:-0.732058 36:-0.683551 37:-0.00934165 38:-0.658723 39:0.0637732 40:-0.221815 41:0.228383 
0.7244155656016638 1:-0.73462 2:0.0364034 3:0.0121699 4:-0.624433 5:0.220637 6:-0.473567 7:0.592927 8:0.111259 9:-0.372257 10:0.277379 11:-0.320077 12:0.206215 13:-0.0334722 14:-0.352389 15:-0.253481 16:-0.372588 17:-0.230228 18:-0.197915 19:-0.1752 20:-0.163423 21:-0.206842 22:0.0930184 23:-0.184867 24:0.194078 25:-0.0841923 26:0.261516 27:-0.27843 28:-0.284916 29:0.0204853 30:-0.00363809 31:-0.348384 32:-0.35867 33:-0.773708 34:0.029159 35:-0.619178 36:-0.522375 37:-0.163582 38:-0.658515 39:-0.0677307 40:0.441222 41:0.901378 
0.7791297394050924 1:-0.640185 2:0.114172 3:-0.244293 4:-0.878932 5:0.239823 6:-0.52408 7:0.269956 8:-0.0185926 9:0.178458 10:0.732196 11:-0.428607 12:0.0751884 13:-0.439766 14:-0.590082 15:-0.573385 16:-0.226304 17:-0.487167 18:-0.121392 19:-0.471374 20:-0.12277 21:-0.260054 22:0.0532128 23:-0.367848 24:0.0163269 25:-0.0713462 26:0.128759 27:-0.428008 28:0.252395 29:-0.238031 30:-0.169464 31:-0.496152 32:-0.393312 33:-0.715002 34:0.0864064 35:-0.606207 36:-0.633739 37:-0.117557 38:-0.696133 39:0.134529 40:-0.0532352 41:0.560149 
0.7268112772742232 1:-0.74217 2:0.100852 3:-0.0056347 4:-0.63894 5:0.298568 6:-0.444296 7:0.59594 8:-0.00149829 9:-0.331736 10:0.299834 11:-0.461461 12:0.149506 13:-0.633966 14:-0.434264 15:-0.729624 16:-0.481833 17:-0.662384 18:-0.415914 19:-0.669992 20:-0.368675 21:-0.506174 22:0.0338259 23:-0.343739 24:0.14457 25:0.157568 26:0.315164 27:0.195736 28:0.339872 29:-0.64701 30:-0.346665 31:-0.600435 32:-0.691049 33:-0.739507 34:0.200928 35:-0.271755 36:-0.542023 37:-0.157717 38:-0.628658 39:-0.0813987 40:0.794366 41:0.867543 
0.2326369551430572 1:-0.637867 2:0.114917 3:-0.202647 4:-0.876749 5:0.22253 6:-0.534255 7:0.268752 8:-0.0198799 9:0.0740563 10:0.736519 11:-0.392384 12:0.0987031 13:-0.626745 14:-0.576573 15:-0.695289 16:-0.233061 17:-0.611343 18:-0.12885 19:-0.546021 20:-0.0945704 21:-0.355567 22:0.00909526 23:-0.173186 24:0.0198445 25:-0.224203 26:0.109409 27:-0.599097 28:0.218816 29:-0.122264 30:-0.164988 31:-0.293598 32:-0.449021 33:-0.68692 34:0.136866 35:-0.527361 36:-0.663149 37:-0.0928389 38:-0.643341 39:0.0712342 40:-0.140237 41:0.551822 
0.02255007005525343 1:-0.614984 2:0.126385 3:-0.164321 4:-0.855272 5:0.206385 6:-0.541215 7:0.26233 8:-0.0449489 9:-0.0219279 10:0.710881 11:-0.344963 12:0.165681 13:-0.51205 14:-0.595628 15:-0.5496 16:-0.571238 17:-0.654694 18:-0.588952 19:-0.534751 20:-0.382398 21:-0.338558 22:0.0709675 23:-0.179763 24:-0.0996427 25:-0.258622 26:-0.139908 27:-0.297314 28:0.183929 29:0.111606 30:-0.0667021 31:-0.57629 32:-0.216079 33:-0.782451 34:-0.193864 35:-0.414889 36:-0.701372 37:-0.197451 38:-0.667739 39:0.411008 40:-0.110691 41:0.558298 
0.3952871406449154 1:-0.690055 2:0.124695 3:-0.0456731 4:-0.935976 5:0.171115 6:-0.583083 7:0.209904 8:-0.0400702 9:-0.387724 10:0.802041 11:-0.31016 12:-0.0179808 13:-0.39607 14:-0.659655 15:-0.599412 16:-0.558246 17:-0.789247 18:-0.0298601 19:-0.708519 20:-0.0413247 21:-0.824065 22:-0.087548 23:-0.55961 24:-0.147268 25:-0.38778 26:-0.506058 27:-0.265206 28:0.0034768 29:-0.64274 30:-0.270112 31:-0.942939 32:-0.917972 33:-0.71203 34:0.0256846 35:-0.738739 36:-0.762404 37:-0.0372871 38:-0.685813 39:0.105418 40:-0.537841 41:0.345675 
0.4974380039241425 1:-0.766743 2:0.111495 3:-0.0296274 4:-0.642909 5:0.299302 6:-0.48652 7:0.613149 8:-0.0181195 9:-0.302545 10:0.262836 11:-0.487979 12:0.166793 13:-0.608339 14:-0.418911 15:-0.689032 16:-0.411372 17:-0.670106 18:-0.438992 19:-0.671336 20:-0.305214 21:-0.457591 22:0.0848561 23:-0.223434 24:0.200038 25:0.315684 26:0.30775 27:-0.0877771 28:0.114209 29:-0.419522 30:-0.314862 31:-0.667061 32:-0.621348 33:-0.70693 34:0.216139 35:-0.400088 36:-0.544456 37:-0.160304 38:-0.635935 39:-0.137306 40:0.833822 41:0.821772 
0.3556090907102137 1:-0.731295 2:0.0726647 3:-0.00130958 4:-0.62831 5:0.304905 6:-0.469884 7:0.576202 8:0.0472324 9:-0.341319 10:0.276277 11:-0.474211 12:0.192873 13:-0.0337675 14:-0.256288 15:-0.287665 16:-0.222865 17:-0.257529 18:-0.0716168 19:-0.202859 20:0.0173433 21:-0.175253 22:0.0303479 23:-0.192629 24:0.15856 25:-0.390742 26:-0.305918 27:-0.0529901 28:-0.187221 29:0.0329067 30:-0.336888 31:-0.51127 32:-0.708134 33:-0.707885 34:0.0636379 35:-0.62412 36:-0.64943 37:-0.196122 38:-0.571269 39:0.252596 40:0.445437 41:0.876664 
0.250629282563739 1:-0.545693 2:0.246933 3:-0.16683 4:-0.859634 5:0.26913 6:-0.513534 7:0.177068 8:-0.275299 9:-0.0113674 10:0.722611 11:-0.445835 12:0.178079 13:-0.747538 14:-0.317873 15:-0.819832 16:-0.370342 17:-0.809662 18:-0.376655 19:-0.393566 20:-0.326516 21:-0.319298 22:-0.240936 23:-0.310616 24:-0.150952 25:-0.199678 26:-0.117235 27:-0.0115047 28:0.197752 29:-0.37983 30:-0.196919 31:-0.763924 32:-0.218791 33:-0.830405 34:-0.180398 35:-0.713881 36:-0.670867 37:-0.239372 38:-0.72442 39:0.376454 40:-0.233011 41:0.623563 
0.6609233471748426 1:-0.707504 2:0.0497138 3:-0.0244823 4:-0.650934 5:0.304334 6:-0.433259 7:0.555033 8:0.0835551 9:-0.286684 10:0.348021 11:-0.46287 12:0.160394 13:-0.54764 14:-0.446786 15:-0.633505 16:-0.442017 17:-0.674738 18:-0.475326 19:-0.624046 20:-0.257608 21:-0.422948 22:0.0946129 23:0.011994 24:0.233225 25:0.10733 26:0.371804 27:0.202125 28:0.172268 29:-0.250728 30:-0.471304 31:-0.720607 32:-0.631807 33:-0.732582 34:0.22782 35:-0.181758 36:-0.527238 37:-0.205847 38:-0.597981 39:0.138872 40:0.818517 41:0.91226 
0.9453655454603721 1:-0.569949 2:0.218387 3:-0.156118 4:-0.874254 5:0.294889 6:-0.510103 7:0.186211 8:-0.225531 9:-0.0370586 10:0.732357 11:-0.511053 12:0.12879 13:-0.85191 14:-0.354844 15:-0.851395 16:-0.332937 17:-0.875609 18:-0.442597 19:-0.760909 20:-0.404502 21:-0.434566 22:-0.266921 23:-0.340535 24:-0.254653 25:-0.448764 26:-0.156704 27:-0.511515 28:-0.0510756 29:-0.314527 30:-0.273164 31:-0.412856 32:-0.0353846 33:-0.84119 34:-0.171957 35:-0.702483 36:-0.674639 37:-0.335678 38:-0.641902 39:0.381834 40:-0.315252 41:0.47405 
0.2872627168987514 1:-0.621147 2:0.226999 3:-0.144586 4:-0.854421 5:0.293021 6:-0.533107 7:0.250273 8:-0.252514 9:-0.068348 10:0.671127 11:-0.530793 12:0.127274 13:-0.793977 14:-0.650037 15:-0.879304 16:-0.540197 17:-0.906182 18:-0.442918 19:-0.430746 20:-0.452923 21:-0.51202 22:0.15145 23:-0.201244 24:0.115343 25:-0.48427 26:0.222105 27:-0.347048 28:0.290135 29:-0.318835 30:-0.0383805 31:-0.576808 32:-0.408874 33:-0.714352 34:0.117185 35:-0.401204 36:-0.615871 37:-0.0197896 38:-0.659254 39:0.242275 40:0.0391188 41:0.551578 
0.3416965898192971 1:-0.633226 2:0.276456 3:-0.192229 4:-0.842583 5:0.273732 6:-0.564825 7:0.254271 8:-0.364503 9:0.0471147 10:0.63348 11:-0.502173 12:0.167611 13:-0.406929 14:-0.406691 15:-0.49962 16:-0.425658 17:-0.617254 18:-0.530787 19:-0.56195 20:-0.580645 21:-0.187479 22:-0.240071 23:-0.10042 24:-0.242351 25:0.0203864 26:-0.341557 27:-0.0602508 28:-0.322882 29:0.302311 30:-0.248651 31:-0.245114 32:-0.262617 33:-0.797468 34:-0.354452 35:-0.382218 36:-0.791048 37:-0.248091 38:-0.661647 39:0.060363 40:-0.0673306 41:0.541166 
0.4708327986579109 1:-0.698636 2:0.0767815 3:-0.0884989 4:-0.739941 5:0.318422 6:-0.453848 7:0.487574 8:0.0459972 9:-0.178483 10:0.471603 11:-0.52939 12:0.0990828 13:-0.774795 14:-0.535727 15:-0.598001 16:-0.566062 17:-0.713562 18:-0.441734 19:-0.520559 20:-0.334372 21:-0.518764 22:-0.00803229 23:-0.533292 24:-0.0322839 25:0.289116 26:0.176177 27:0.0578619 28:0.233287 29:-0.254578 30:-0.2447 31:-0.648491 32:-0.645087 33:-0.78329 34:0.175707 35:-0.317686 36:-0.599713 37:-0.126573 38:-0.61937 39:0.136145 40:0.685038 41:0.849063 
0.2720403855225453 1:-0.650245 2:0.270523 3:-0.237267 4:-0.829871 5:0.289901 6:-0.499936 7:0.329812 8:-0.333107 9:0.151313 10:0.621247 11:-0.509109 12:0.0879694 13:-0.715991 14:-0.784734 15:-0.570285 16:-0.482277 17:-0.600884 18:-0.420761 19:-0.517191 20:-0.418106 21:-0.183393 22:-0.412849 23:-0.132956 24:-0.438606 25:-0.0105256 26:-0.421157 27:-0.00287414 28:-0.303389 29:-0.158236 30:-0.545987 31:-0.831641 32:-0.460993 33:-0.89474 34:-0.081692 35:-0.62922 36:-0.846802 37:-0.221464 38:-0.693419 39:0.109899 40:-0.229017 41:0.510653 
0.4779850405809137 1:-0.648795 2:0.291191 3:-0.225867 4:-0.790046 5:0.173757 6:-0.532308 7:0.368455 8:-0.377714 9:0.125631 10:0.573369 11:-0.261115 12:0.195335 13:-0.731516 14:-0.864118 15:-0.492173 16:-0.446084 17:-0.539016 18:-0.310915 19:-0.425147 20:-0.329831 21:-0.0697218 22:-0.309651 23:-0.0100342 24:-0.366334 25:0.168142 26:-0.410147 27:0.142256 28:-0.420358 29:0.541606 30:-0.341938 31:0.12997 32:-0.333275 33:-0.882173 34:-0.0410856 35:-0.54943 36:-0.835358 37:-0.217637 38:-0.631579 39:0.198179 40:0.0126358 41:0.582705 
0.7075497786088999 1:-0.657249 2:0.317368 3:-0.156584 4:-0.782704 5:0.254843 6:-0.527684 7:0.369195 8:-0.424044 9:-0.0367757 10:0.53487 11:-0.430917 12:0.174038 13:-0.603601 14:-0.681042 15:-0.398129 16:-0.446638 17:-0.274353 18:-0.421814 19:-0.310059 20:-0.425634 21:0.0239175 22:-0.215035 23:0.117756 24:-0.34579 25:-0.072033 26:-0.432113 27:-0.00211188 28:-0.212089 29:-1 30:-1 31:-0.284485 32:-0.490119 33:-0.888503 34:-0.113908 35:-0.809254 36:-0.812237 37:-0.184741 38:-0.61852 39:0.205219 40:0.0593078 41:0.507495 
1 1:-0.583611 2:0.334517 3:-0.215651 4:-0.792465 5:0.193403 6:-0.529097 7:0.278907 8:-0.439167 9:0.0970568 10:0.598863 11:-0.288047 12:0.240984 13:-0.273031 14:-0.741326 15:-0.513588 16:-0.795823 17:-0.339057 18:-0.264189 19:-0.0195369 20:-0.135904 21:-0.127238 22:-0.101521 23:-0.143412 24:-0.157519 25:-0.0407705 26:-0.120914 27:-0.292552 28:-0.272142 29:-0.123378 30:-0.505758 31:-0.417333 32:-0.139243 33:-0.767234 34:-0.122416 35:-0.858517 36:-0.703198 37:-0.300299 38:-0.578059 39:0.247692 40:-0.102199 41:0.610066 
0.7212469854105142 1:-0.648764 2:0.0671066 3:-0.151605 4:-0.739006 5:0.33909 6:-0.47029 7:0.421727 8:0.0610987 9:-0.0408925 10:0.493974 11:-0.557753 12:0.16601 13:-0.694704 14:-0.0479904 15:-0.636496 16:0.0457311 17:-0.604783 18:0.144428 19:-0.648082 20:0.161886 21:-0.373981 22:0.320068 23:-0.246663 24:0.125253 25:-0.170432 26:-0.14752 27:0.235345 28:-0.618403 29:0.541281 30:-0.662648 31:-0.765776 32:-0.732022 33:-0.51399 34:0.0814864 35:-0.634763 36:-0.773325 37:-0.0657457 38:-0.57159 39:0.129104 40:0.504085 41:0.647879 
0.1195755625182555 1:-0.703795 2:0.321834 3:-0.260696 4:-0.777636 5:0.237581 6:-0.556266 7:0.414772 8:-0.457824 9:0.216138 10:0.479881 11:-0.416251 12:0.162906 13:-0.727516 14:-0.789829 15:-0.766484 16:-0.899407 17:-0.498856 18:-0.664359 19:-0.301379 20:-0.581355 21:-0.101953 22:-0.572999 23:0.0445192 24:-0.634517 25:0.210207 26:-0.582717 27:0.013016 28:-0.720805 29:0.356926 30:-0.828072 31:0.342224 32:-0.528982 33:-0.941528 34:-0.0936298 35:-0.701419 36:-0.943037 37:-0.133827 38:-0.755047 39:-0.0390542 40:-0.0277695 41:0.544758 
0.4069629451959508 1:-0.635873 2:0.0795896 3:-0.116315 4:-0.754598 5:0.294716 6:-0.464637 7:0.407873 8:0.039104 9:-0.115714 10:0.537851 11:-0.473936 12:0.163293 13:-0.816336 14:-0.681347 15:-0.499638 16:-0.611114 17:-0.498955 18:-0.41311 19:-0.536862 20:-0.367306 21:-0.513282 22:0.0169352 23:-0.358938 24:0.114117 25:0.335129 26:0.311995 27:0.0385325 28:0.210926 29:-0.0829333 30:-0.208992 31:-0.436426 32:-0.550396 33:-0.80064 34:0.0363293 35:-0.362889 36:-0.560735 37:-0.205237 38:-0.556353 39:0.239668 40:0.492505 41:0.651605 
0.9573982659727889 1:-0.723296 2:0.305706 3:-0.255261 4:-0.795786 5:0.247863 6:-0.541366 7:0.434658 8:-0.43163 9:0.20633 10:0.505173 11:-0.447819 12:0.0992156 13:-0.753161 14:-0.836305 15:-0.379947 16:-0.673397 17:-0.493293 18:-0.637358 19:-0.296186 20:-0.576732 21:-0.155625 22:-0.569333 23:0.0361262 24:-0.624535 25:0.203327 26:-0.732789 27:-0.0947082 28:-0.735508 29:0.386745 30:-0.812612 31:-0.387504 32:-0.562594 33:-0.945781 34:-0.0700453 35:-0.658014 36:-0.944522 37:-0.135588 38:-0.725129 39:-0.0255927 40:-0.050314 41:0.540146 
0.5197141465321223 1:-0.633015 2:0.106784 3:-0.0913406 4:-0.766792 5:0.30089 6:-0.468104 7:0.389424 8:-0.00964684 9:-0.170097 10:0.551521 11:-0.489631 12:0.153094 13:-0.581707 14:-0.0701968 15:-0.467259 16:-0.0146442 17:-0.648348 18:0.136965 19:-0.680861 20:0.184082 21:-0.528929 22:0.267354 23:-0.125595 24:0.155304 25:-0.210162 26:0.0818738 27:-0.181613 28:-0.322275 29:0.337506 30:-0.542197 31:0.429077 32:-0.18461 33:-0.54727 34:0.0944185 35:-0.670527 36:-0.721357 37:-0.0622019 38:-0.510986 39:0.186501 40:0.517984 41:0.595135 
0.04599487883313658 1:-0.632219 2:0.0624648 3:-0.151167 4:-0.732285 5:0.332047 6:-0.480156 7:0.404876 8:0.0684533 9:-0.0412132 10:0.492106 11:-0.539985 12:0.200229 13:-0.659418 14:0.0132909 15:-0.551804 16:0.0322462 17:-0.55262 18:0.209819 19:-0.519169 20:0.220872 21:-0.454726 22:0.36639 23:-0.111279 24:0.267386 25:-0.266183 26:-0.153585 27:0.0897777 28:-0.545913 29:0.361486 30:-0.742605 31:-0.237979 32:-0.769372 33:-0.485784 34:0.0811919 35:-0.62655 36:-0.762172 37:-0.0449362 38:-0.602963 39:0.324779 40:0.184737 41:0.736226 
0.2676564047534071 1:-0.6275 2:0.105789 3:-0.106727 4:-0.79324 5:0.294418 6:-0.509979 7:0.338788 8:-0.00548981 9:-0.147223 10:0.581404 11:-0.502132 12:0.174986 13:-0.622865 14:-0.0462747 15:-0.515076 16:0.116897 17:-0.709382 18:0.198191 19:-0.688301 20:0.213621 21:-0.612867 22:0.253644 23:-0.385072 24:-0.0488359 25:-0.341295 26:-0.0272297 27:-0.142025 28:-0.273951 29:0.0552851 30:-0.631524 31:0.124322 32:-0.4634 33:-0.499926 34:0.106277 35:-0.659206 36:-0.753496 37:-0.0919073 38:-0.542264 39:0.0747434 40:0.190357 41:0.653252 
0.2916375034953393 1:-0.718603 2:0.280256 3:-0.276477 4:-0.756011 5:0.27668 6:-0.621763 7:0.407328 8:-0.388268 9:0.267895 10:0.385458 11:-0.531071 12:0.252344 13:-0.24943 14:-0.610656 15:-0.449427 16:-0.7025 17:-0.231852 18:-0.707508 19:-0.170928 20:-0.740096 21:-0.193524 22:-0.74658 23:-0.0711261 24:-0.701957 25:0.0161312 26:-0.712486 27:-0.104753 28:-0.82847 29:-0.769278 30:-0.74451 31:-0.445156 32:-0.547465 33:-0.952734 34:-0.114753 35:-0.820736 36:-0.956488 37:-0.143662 38:-0.795632 39:0.102509 40:0.0956014 41:0.116884 
0.3548715266574666 1:-0.751041 2:0.327249 3:-0.279736 4:-0.701825 5:0.241872 6:-0.562096 7:0.530423 8:-0.456419 9:0.256078 10:0.31276 11:-0.414567 12:0.206321 13:-0.706923 14:-0.274505 15:-0.614889 16:-0.342493 17:-0.403897 18:-0.442296 19:-0.178682 20:-0.622785 21:0.135717 22:-0.730524 23:0.194131 24:-0.810882 25:0.265368 26:-0.83729 27:0.299652 28:-0.705512 29:0.41669 30:-0.561102 31:-0.395059 32:-0.382779 33:-0.842954 34:-0.444626 35:-0.395576 36:-0.930346 37:-0.241194 38:-0.676992 39:-0.0884846 40:0.304492 41:0.662741 
0.6986573108649495 1:-0.599139 2:0.0819628 3:-0.131755 4:-0.776091 5:0.300304 6:-0.451008 7:0.356038 8:0.0329685 9:-0.0805851 10:0.592573 11:-0.475023 12:0.159422 13:-0.73205 14:-0.78338 15:-0.592827 16:-0.446983 17:-0.627861 18:-0.41844 19:-0.562292 20:-0.212205 21:-0.340529 22:-0.02224 23:0.129842 24:-0.190033 25:0.221578 26:0.16281 27:-0.0421831 28:0.108827 29:-0.24285 30:-0.371905 31:-0.489391 32:-0.561817 33:-0.794487 34:-0.068277 35:-0.251344 36:-0.665609 37:-0.135197 38:-0.580031 39:0.388499 40:0.266636 41:0.705704 
0.1461610594042093 1:-0.604475 2:0.0646914 3:-0.155411 4:-0.78267 5:0.305546 6:-0.501478 7:0.326039 8:0.0694037 9:-0.035108 10:0.579683 11:-0.508389 12:0.199106 13:-0.768577 14:-0.0602444 15:-0.733852 16:-0.0720728 17:-0.626103 18:0.180081 19:-0.64648 20:0.104605 21:-0.525765 22:0.298565 23:-0.379657 24:0.190902 25:-0.086754 26:0.00796722 27:-0.0469527 28:-0.43503 29:0.261115 30:-0.606765 31:0.163933 32:-0.770763 33:-0.521593 34:0.113706 35:-0.611633 36:-0.724027 37:-0.127472 38:-0.559302 39:0.279582 40:0.317623 41:0.749634 
0.4125550904761688 1:-0.634636 2:0.0605866 3:-0.165338 4:-0.742654 5:0.345515 6:-0.484091 7:0.393748 8:0.0731435 9:-0.012171 10:0.499265 11:-0.571648 12:0.188022 13:-0.641862 14:-0.534439 15:-0.673255 16:-0.43601 17:-0.643942 18:-0.397005 19:-0.550703 20:-0.250587 21:-0.375176 22:0.0521565 23:-0.230653 24:0.309427 25:0.111588 26:0.170264 27:0.156329 28:-0.0362055 29:0.0901665 30:-0.404391 31:-0.563685 32:-0.778668 33:-0.797444 34:0.0319735 35:-0.299875 36:-0.671923 37:-0.0759703 38:-0.618234 39:0.0564491 40:0.367077 41:0.599644 
0.4785967300712307 1:-0.740623 2:0.297895 3:-0.267115 4:-0.745498 5:0.252138 6:-0.500025 7:0.520686 8:-0.388411 9:0.221413 10:0.4326 11:-0.428471 12:0.0986924 13:-0.701878 14:-0.396188 15:-0.687525 16:-0.402632 17:-0.592874 18:-0.510022 19:-0.163727 20:-0.617077 21:-0.224688 22:-0.637404 23:0.118124 24:-0.626229 25:0.295531 26:-0.763392 27:-0.0504547 28:-0.700438 29:0.408408 30:-0.529827 31:0.524563 32:-0.457812 33:-0.853266 34:-0.436652 35:-0.320646 36:-0.942992 37:-0.167029 38:-0.710797 39:-0.122441 40:0.155687 41:0.601582 
0.3139531190476324 1:-0.735131 2:0.302681 3:-0.246822 4:-0.771953 5:0.245269 6:-0.539943 7:0.475642 8:-0.420458 9:0.183134 10:0.460426 11:-0.436968 12:0.118025 13:-0.712222 14:-0.406792 15:-0.703294 16:-0.407914 17:-0.615928 18:-0.493713 19:-0.206882 20:-0.619717 21:-0.217595 22:-0.642292 23:0.123934 24:-0.647205 25:0.15832 26:-0.728791 27:0.0261685 28:-0.694978 29:0.237292 30:-0.598175 31:0.582113 32:-0.439566 33:-0.860795 34:-0.409418 35:-0.337666 36:-0.936419 37:-0.190058 38:-0.687051 39:-0.107384 40:0.107231 41:0.593544 
1 1:-0.729704 2:0.283284 3:-0.254186 4:-0.756425 5:0.315856 6:-0.514316 7:0.476067 8:-0.360856 9:0.192019 10:0.43422 11:-0.568731 12:0.102065 13:-0.761981 14:-0.724664 15:-0.72678 16:-0.800667 17:-0.451407 18:-0.61965 19:-0.429215 20:-0.628635 21:-0.241179 22:-0.613876 23:-0.0825261 24:-0.62752 25:-0.015597 26:-0.74313 27:0.0439209 28:-0.554285 29:0.0922601 30:-0.773545 31:-0.691429 32:-0.58325 33:-0.946951 34:-0.112522 35:-0.71731 36:-0.945335 37:-0.133349 38:-0.790069 39:-0.078115 40:0.137079 41:0.530204 
0.3403353207233311 1:-0.785279 2:0.245916 3:-0.270943 4:-0.6794 5:0.356091 6:-0.558359 7:0.570108 8:-0.287058 9:0.232658 10:0.229724 11:-0.659595 12:0.1731 13:-0.804661 14:-0.690592 15:-0.428468 16:-0.701705 17:-0.452155 18:-0.79305 19:-0.180075 20:-0.826994 21:-0.197131 22:-0.79205 23:0.0551995 24:-0.784238 25:0.0963029 26:-0.853116 27:-0.422034 28:-0.724138 29:-0.331089 30:-0.732047 31:-0.351672 32:-0.663876 33:-0.965661 34:-0.113681 35:-0.852402 36:-0.968275 37:-0.12873 38:-0.829903 39:-0.215179 40:0.221229 41:0.0630685 
0.1910561501396721 1:-0.704908 2:0.193478 3:-0.109652 4:-0.90644 5:0.217706 6:-0.470608 7:0.358205 8:-0.193339 9:-0.166002 10:0.760867 11:-0.386377 12:-0.112332 13:-0.80119 14:-0.582315 15:-0.811649 16:-0.564208 17:-0.579414 18:-0.165071 19:-0.522454 20:-0.248007 21:-0.497187 22:-0.0384225 23:-0.530199 24:-0.157293 25:-0.669439 26:-0.0134495 27:-0.727635 28:0.0353668 29:-0.284462 30:-0.228746 31:-1 32:-1 33:-0.73742 34:0.206406 35:-0.494586 36:-0.732628 37:-0.0615111 38:-0.652505 39:0.079846 40:-0.42193 41:0.667877 
0.3252709935789608 1:-0.614094 2:0.207214 3:-0.0735557 4:-0.903073 5:0.198091 6:-0.506777 7:0.218162 8:-0.214986 9:-0.245067 10:0.783683 11:-0.325186 12:0.0473106 13:-0.545566 14:-0.473352 15:-0.750108 16:-0.464865 17:-0.493874 18:-0.00462899 19:-0.433542 20:-0.0275477 21:-0.46064 22:-0.121456 23:-0.575808 24:-0.0958024 25:-0.59289 26:0.0717939 27:-0.362388 28:0.313988 29:-0.234752 30:-0.0378792 31:-0.943659 32:-0.606383 33:-0.746786 34:0.150526 35:-0.600007 36:-0.60892 37:-0.152535 38:-0.700769 39:0.422748 40:-0.469336 41:0.726121 
