svm_type c_svc
kernel_type rbf
gamma 2
nr_class 2
total_sv 2454
rho 0.673305
label 1 -1
nr_sv 698 1756
SV
0.2685947100602722 1:-0.614334 2:-0.217369 3:-0.246089 4:-0.38026 5:-0.390565 6:-0.679038 7:0.400172 8:0.0210936 9:0.0176149 10:0.589882 11:0.569538 12:7.99571e-05 13:-0.697944 14:-0.66578 15:-0.935045 16:-0.338948 17:-0.0788996 18:-0.486719 19:-0.072964 20:-0.5338 21:-0.0656253 22:-0.398761 23:-0.153069 24:0.393119 25:-0.0581044 26:-0.120001 27:-0.0924405 28:0.253774 29:-0.0335574 30:-0.402315 31:0.299833 32:-0.197588 33:-0.535746 34:-0.386781 35:-0.728054 36:-0.502631 37:-0.0586869 38:-0.723373 39:-0.118898 40:0.217294 41:-0.03672 
0.7543009345896706 1:-0.586196 2:-0.525878 3:-0.20629 4:-0.481847 5:0.322707 6:-0.674761 7:0.358912 8:0.432829 9:-0.077489 10:0.690116 11:-0.359112 12:0.00121716 13:-0.788105 14:-0.664474 15:-0.709986 16:-0.441785 17:-0.200924 18:-0.496113 19:0.074474 20:-0.535581 21:0.139202 22:0.0877924 23:0.0204518 24:-0.16803 25:-0.0430849 26:-0.459579 27:0.0822928 28:-0.523638 29:0.364237 30:-0.372974 31:0.345964 32:0.431245 33:-0.644019 34:0.326365 35:-0.730342 36:-0.558113 37:0.232141 38:-0.715671 39:0.034815 40:0.557293 41:0.117337 
0.1251686674660699 1:-0.629098 2:-0.471678 3:-0.357677 4:-0.557097 5:-0.26754 6:-0.631776 7:0.425043 8:0.355497 9:0.274482 10:0.687573 11:0.392998 12:-0.145838 13:-0.676376 14:-0.742343 15:-0.675224 16:-0.645074 17:-0.560556 18:-0.671325 19:0.0631043 20:-0.722173 21:0.0472696 22:-0.384099 23:-0.0107893 24:0.134113 25:-0.0818028 26:-0.173243 27:-0.0618943 28:-0.445144 29:-0.049514 30:-0.585263 31:0.279728 32:-0.0918644 33:-0.677081 34:-0.257707 35:-0.678672 36:-0.640583 37:-0.0131181 38:-0.694797 39:0.0182892 40:0.0187574 41:0.0983017 
0.4717903341620587 1:-0.55925 2:-0.112006 3:-0.311896 4:-0.567533 5:0.184521 6:-0.757663 7:0.161074 8:-0.170728 9:0.198211 10:0.707789 11:-0.200139 12:0.158601 13:-0.598719 14:-0.634845 15:-0.627387 16:-0.633227 17:-0.547519 18:-0.813923 19:0.0111398 20:-0.175688 21:-0.0565449 22:-0.112533 23:0.0288665 24:-0.0139234 25:-0.0213177 26:0.29042 27:0.146853 28:-0.131315 29:0.334869 30:-0.0243526 31:0.160504 32:0.0426546 33:-0.695058 34:0.085159 35:-0.803495 36:-0.636744 37:0.25774 38:-0.779292 39:-0.0609528 40:0.272555 41:-0.160849 
0.1473458605124567 1:-0.568352 2:-0.32251 3:-0.502119 4:0.414175 5:0.472771 6:-0.65894 7:0.495427 8:0.173883 9:0.508529 10:0.218281 11:-0.45245 12:0.180111 13:-0.557502 14:-0.291705 15:-0.616003 16:-0.213713 17:-0.593155 18:-0.170938 19:-0.692301 20:0.555286 21:-0.531064 22:0.642204 23:-0.411423 24:0.772331 25:-0.337945 26:0.637604 27:-0.327928 28:0.351821 29:0.168996 30:0.133192 31:0.335159 32:0.864571 33:0.292875 34:0.488307 35:-0.676997 36:-0.0673245 37:0.297051 38:-0.740917 39:0.329383 40:0.784207 41:0.260649 
0.6838781852388209 1:-0.408843 2:-0.47322 3:-0.43034 4:-0.133084 5:-0.470882 6:-0.7193 7:0.135616 8:0.342932 9:0.395345 10:0.490774 11:0.572927 12:0.279079 13:-0.846682 14:-0.42646 15:-0.650718 16:0.0287237 17:-0.633426 18:-0.0906599 19:-0.400955 20:0.296115 21:-0.0852156 22:0.470052 23:-0.0148746 24:0.284412 25:-0.0361072 26:-0.282832 27:0.473812 28:-0.389207 29:0.591642 30:-0.312649 31:0.658331 32:-0.120823 33:0.0255581 34:-0.476198 35:-0.758144 36:-0.618697 37:-0.0886314 38:-0.76065 39:0.35581 40:0.328385 41:-0.225703 
0.9610427478053291 1:-0.63513 2:-0.325748 3:-0.198998 4:0.0984693 5:-0.508202 6:-0.645507 7:0.557655 8:0.172821 9:-0.0812993 10:0.354541 11:0.63092 12:0.0519652 13:-0.793273 14:-0.260279 15:-0.780851 16:-0.111272 17:-0.554918 18:-0.273844 19:-0.0912366 20:-0.142008 21:-0.115451 22:-0.0730282 23:-0.144806 24:0.23189 25:-0.224822 26:0.0693493 27:-0.0378297 28:-0.0703929 29:-0.259809 30:-0.414211 31:0.309576 32:0.703854 33:-0.199641 34:-0.541956 35:-0.710482 36:-0.0990858 37:-0.0720573 38:-0.685092 39:-0.0375594 40:0.656671 41:0.284562 
0.5034342070186658 1:-0.834627 2:-0.52028 3:-0.199597 4:-0.154164 5:0.366459 6:-0.68663 7:0.79384 8:0.457491 9:-0.111303 10:0.294073 11:-0.47655 12:-0.171282 13:-0.688922 14:-0.824744 15:-0.694661 16:-0.216993 17:-0.271132 18:-0.325222 19:-0.0666476 20:-0.171436 21:-0.106316 22:-0.509602 23:-0.461061 24:-0.0920154 25:-0.433993 26:0.149771 27:-0.454454 28:0.416772 29:-0.530046 30:0.0840782 31:0.00154197 32:0.143221 33:-0.544972 34:0.318779 35:-0.739825 36:-0.177197 37:0.293862 38:-0.723916 39:-0.198523 40:0.0936192 41:-0.0090162 
0.714464383306332 1:-0.580688 2:-0.644846 3:-0.26451 4:-0.339335 5:0.222865 6:-0.754868 7:0.277257 8:0.633583 9:0.0666379 10:0.570665 11:-0.250935 12:0.205265 13:-0.593509 14:-0.735163 15:-0.677145 16:-0.795462 17:-0.668974 18:-0.430145 19:-0.224559 20:0.191992 21:-0.102056 22:0.101535 23:0.0330703 24:0.0595307 25:-0.0963495 26:0.161051 27:0.142331 28:0.211187 29:0.339793 30:0.0951666 31:0.376908 32:0.243852 33:-0.510887 34:0.221363 35:-0.769405 36:-0.478173 37:0.204946 38:-0.808156 39:-0.0142377 40:0.070075 41:-0.0328065 
1.135916466122073 1:-0.489495 2:-0.362443 3:-0.214313 4:-0.569142 5:-0.031125 6:-0.74512 7:0.104858 8:0.214062 9:-0.0631832 10:0.764791 11:0.110539 12:0.205681 13:-0.567471 14:-0.728676 15:-0.501299 16:-0.428469 17:0.0476369 18:-0.494069 19:0.0690264 20:-0.134297 21:0.28618 22:-0.0332871 23:0.314638 24:-0.155458 25:0.188682 26:0.333105 27:0.419464 28:-0.30723 29:0.636645 30:-0.202097 31:0.540126 32:0.114274 33:-0.69445 34:-0.0569185 35:-0.806416 36:-0.638193 37:0.113046 38:-0.754247 39:0.0850513 40:0.195291 41:-0.251636 
0.3681736928194059 1:-0.530456 2:-0.16604 3:-0.24625 4:-0.324662 5:-0.4495 6:-0.701372 7:0.270708 8:-0.0360239 9:0.0179935 10:0.579567 11:0.617617 12:0.129036 13:-0.743491 14:-0.493494 15:-0.683578 16:-0.21082 17:-0.483948 18:-0.424312 19:-0.0274947 20:-0.503154 21:-0.0589415 22:-0.454148 23:0.207187 24:-0.168684 25:0.0921945 26:0.36758 27:0.287926 28:-0.291725 29:0.413605 30:-0.15087 31:0.532095 32:-0.296855 33:-0.493338 34:-0.491742 35:-0.71853 36:-0.468403 37:-0.0583033 38:-0.769191 39:0.0667125 40:0.0129715 41:0.0201894 
0.4733254529536308 1:-0.629099 2:-0.0189327 3:-0.161455 4:-0.307156 5:0.569544 6:-0.639685 7:0.457484 8:-0.208127 9:-0.16921 10:0.529466 11:-0.631609 12:-0.0679221 13:-0.661747 14:-0.509903 15:-0.65133 16:-0.240816 17:-0.450841 18:-0.342023 19:-0.100819 20:0.204439 21:-0.171309 22:0.22448 23:0.00614472 24:0.18649 25:-0.0399177 26:-0.00155007 27:0.108162 28:-0.350207 29:0.132863 30:0.0907172 31:0.418936 32:0.0198586 33:-0.306745 34:0.524477 35:-0.670268 36:-0.591268 37:0.379395 38:-0.716489 39:0.0617506 40:0.0265271 41:0.116396 
0.4022646296300382 1:-0.635225 2:-0.322656 3:-0.284206 4:-0.397086 5:0.390374 6:-0.646899 7:0.47539 8:0.163203 9:0.106373 10:0.627181 11:-0.436748 12:-0.0703037 13:-0.592321 14:-0.533644 15:-0.58474 16:-0.241694 17:0.106966 18:-0.476795 19:0.127809 20:-0.686575 21:0.159648 22:-0.556251 23:0.0878623 24:0.268425 25:-0.013031 26:0.098563 27:0.126916 28:0.0771219 29:0.207953 30:0.0339805 31:0.403307 32:0.170021 33:-0.605494 34:0.472143 35:-0.681136 36:-0.4778 37:0.208332 38:-0.719954 39:0.0808324 40:0.164628 41:0.107553 
0.510036152884369 1:-0.55392 2:-0.554979 3:-0.19417 4:-0.518417 5:-0.196333 6:-0.755657 7:0.173233 8:0.50283 9:-0.122126 10:0.678369 11:0.36148 12:0.173641 13:-0.684035 14:-0.78189 15:-0.656655 16:-0.43069 17:-0.0452384 18:-0.369836 19:-0.0267306 20:-0.286926 21:-0.0411874 22:-0.188641 23:0.168916 24:-0.317045 25:0.127544 26:0.238157 27:0.29973 28:-0.412708 29:0.0556144 30:-0.465892 31:0.358784 32:0.100228 33:-0.679543 34:-0.190328 35:-0.807553 36:-0.576113 37:0.0200599 38:-0.77107 39:-0.0242052 40:0.055745 41:-0.161752 
0.7309325989086424 1:-0.554722 2:-0.365835 3:-0.16728 4:-0.019398 5:0.757761 6:-0.719129 7:0.334808 8:0.219554 9:-0.158961 10:0.369619 11:-0.870303 12:0.204146 13:-0.82079 14:-0.301942 15:-0.650742 16:0.0485893 17:-0.280854 18:0.108168 19:-0.2248 20:0.108498 21:-0.182711 22:-0.257881 23:0.122799 24:0.236363 25:0.0563438 26:-0.322475 27:0.320317 28:0.343352 29:0.667169 30:-0.14593 31:0.409216 32:-0.131114 33:0.0618984 34:0.711461 35:-0.730577 36:-0.464552 37:0.471102 38:-0.784258 39:0.0686357 40:0.277877 41:-0.079366 
0.07552903887000258 1:-0.667172 2:-0.351851 3:-0.261372 4:-0.57156 5:0.376189 6:-0.642919 7:0.477576 8:0.200015 9:0.0549513 10:0.700331 11:-0.437556 12:-0.170396 13:-0.704877 14:-0.78707 15:-0.744373 16:-0.532517 17:0.00397314 18:-0.57339 19:0.0326771 20:-0.612494 21:-0.0269096 22:-0.453293 23:-0.0076809 24:-0.29014 25:-0.13104 26:-0.473808 27:0.0898699 28:-0.586849 29:0.106189 30:-0.0681599 31:0.201219 32:0.0840145 33:-0.713123 34:0.379616 35:-0.66974 36:-0.635425 37:0.263417 38:-0.722119 39:-0.114289 40:0.0730601 41:0.119923 
0.1517666161502819 1:-0.643899 2:-0.542609 3:-0.189568 4:-0.224094 5:0.483861 6:-0.65512 7:0.506906 8:0.445218 9:-0.111616 10:0.511515 11:-0.546073 12:-0.0209884 13:-0.767786 14:-0.417325 15:-0.786665 16:-0.32964 17:-0.523247 18:-0.312218 19:-0.0435711 20:-0.180024 21:-0.167662 22:0.0480494 23:-0.0307899 24:0.333265 25:-0.0836238 26:0.104367 27:0.182786 28:0.0853997 29:0.197117 30:-0.385489 31:0.3627 32:0.386741 33:-0.408544 34:0.508721 35:-0.677249 36:-0.396387 37:0.290902 38:-0.736816 39:0.0679818 40:0.280221 41:0.26822 
0.2559125560522821 1:-0.538518 2:-0.594412 3:-0.408251 4:-0.012405 5:-0.454635 6:-0.704972 7:0.333051 8:0.495816 9:0.368313 10:0.386544 11:0.587355 12:0.191459 13:-0.740304 14:-0.220262 15:-0.651864 16:0.127916 17:-0.564628 18:0.574741 19:-0.51658 20:0.511829 21:-0.380244 22:0.28605 23:0.0251603 24:0.0815102 25:-0.0132345 26:0.0160844 27:0.248379 28:0.0224973 29:0.691156 30:0.00283694 31:0.555184 32:-0.0304512 33:0.125074 34:-0.531051 35:-0.712903 36:-0.503808 37:-0.0428978 38:-0.778578 39:0.227585 40:0.410891 41:-0.0541428 
1.921670086990209 1:-0.931762 2:-0.364701 3:-0.162972 4:-0.867215 5:0.269459 6:-0.788015 7:0.694654 8:0.210667 9:-0.385128 10:0.558603 11:-0.547985 12:-0.610778 13:-0.770019 14:-0.721477 15:-0.781404 16:-0.83031 17:-0.55664 18:-0.683752 19:-0.810769 20:-0.724278 21:-0.748663 22:-0.461366 23:-0.882822 24:-0.942143 25:-1 26:-1 27:-0.8446 28:-0.883522 29:-0.832134 30:-0.748934 31:-0.811925 32:-0.768305 33:-0.929174 34:0.114131 35:-0.895562 36:-0.830588 37:0.393084 38:-0.65403 39:-0.511148 40:-0.466504 41:-0.574731 
0.7225606270283085 1:-0.634944 2:-0.647585 3:-0.283911 4:-0.0477337 5:-0.464868 6:-0.667944 7:0.503028 8:0.569583 9:0.101748 10:0.396345 11:0.617547 12:0.0475026 13:-0.844798 14:-0.529433 15:-0.942009 16:-0.2381 17:-0.703656 18:-0.250475 19:-0.404977 20:0.275865 21:-0.433673 22:0.290076 23:-0.631283 24:-0.715675 25:-0.22937 26:-0.278741 27:-0.0300003 28:-0.220756 29:0.11963 30:-0.145262 31:0.293644 32:0.136574 33:-0.154614 34:-0.511141 35:-0.704355 36:-0.343188 37:-0.061318 38:-0.725113 39:0.103983 40:0.0303773 41:-0.0919297 
0.05493124707646753 1:-0.567794 2:-0.545921 3:-0.453327 4:0.113816 5:-0.513831 6:-0.683976 7:0.403963 8:0.428576 9:0.44753 10:0.306012 11:0.628759 12:0.150468 13:-0.705081 14:-0.349786 15:-0.626448 16:-0.183354 17:-0.636214 18:-0.147843 19:-0.586509 20:0.501451 21:-0.499138 22:0.304121 23:-0.0378207 24:0.154767 25:-0.0672899 26:0.0265909 27:0.205818 28:0.0712845 29:0.630137 30:0.0396693 31:0.377572 32:-0.0929228 33:0.217494 34:-0.606354 35:-0.678116 36:-0.384954 37:-0.0695762 38:-0.770615 39:0.113003 40:0.17766 41:-0.0285771 
0.1753336283065066 1:-0.727133 2:-0.117122 3:-0.150319 4:-0.145089 5:-0.0588058 6:-0.65924 7:0.642946 8:-0.116927 9:-0.214086 10:0.417468 11:0.139833 12:-0.0766564 13:-0.630545 14:-0.663083 15:-0.586072 16:-0.501952 17:-0.528781 18:-0.423132 19:-0.134125 20:0.00364044 21:-0.0581354 22:0.020582 23:-0.202605 24:0.403653 25:-0.452103 26:0.437511 27:-0.445614 28:0.419295 29:-0.231703 30:0.391105 31:0.151494 32:0.276454 33:-0.43299 34:-0.17069 35:-0.696179 36:-0.264234 37:0.163602 38:-0.724902 39:-0.122721 40:0.223011 41:0.147273 
0.1045308458716326 1:-0.728439 2:-0.261209 3:-0.468389 4:-0.752392 5:-0.255242 6:-0.591303 7:0.491269 8:0.0837188 9:0.533657 10:0.654596 11:0.381093 12:-0.405601 13:-0.716701 14:-0.642781 15:-0.700515 16:-0.724785 17:-0.604934 18:-0.635846 19:-0.603132 20:-0.585577 21:-0.601334 22:-0.685081 23:-0.444712 24:-0.127012 25:-0.467836 26:-0.516056 27:-0.530486 28:-0.411263 29:-0.521077 30:-0.668526 31:0.0203276 32:-0.3958 33:-0.852769 34:-0.281688 35:-0.652228 36:-0.769263 37:0.0156695 38:-0.647369 39:-0.164898 40:-0.394056 41:-0.127151 
0.6645908590518623 1:-0.616436 2:-0.374014 3:-0.250862 4:-0.428355 5:0.557132 6:-0.677405 7:0.393036 8:0.230182 9:0.0291116 10:0.616079 11:-0.669437 12:-0.0191871 13:-0.707297 14:-0.314529 15:-0.610558 16:-0.308675 17:0.00285254 18:-0.565833 19:0.0475901 20:-0.431096 21:0.0213575 22:-0.513322 23:0.0114603 24:-0.615167 25:-0.0647089 26:0.209022 27:-0.0755649 28:-0.119347 29:-0.0895868 30:-0.581069 31:0.111069 32:-0.275518 33:-0.539472 34:0.58172 35:-0.719479 36:-0.572031 37:0.32307 38:-0.729143 39:-0.10857 40:-0.154574 41:-0.0993362 
1.443431239644473 1:-0.734658 2:-0.408439 3:-0.406593 4:0.313175 5:-0.322813 6:-0.656704 7:0.711753 8:0.271825 9:0.369472 10:0.161729 11:0.438449 12:0.02954 13:-0.855251 14:-0.336807 15:-0.75171 16:-0.132553 17:-0.806094 18:0.503206 19:-0.691344 20:0.566201 21:-0.873401 22:0.296674 23:-0.581711 24:-0.902062 25:-0.264614 26:0.701768 27:0.022815 28:-0.1373 29:-0.254635 30:-0.261788 31:-0.00248253 32:0.478564 33:0.127604 34:-0.326267 35:-0.748861 36:-0.0603204 37:-0.023705 38:-0.652348 39:0.309956 40:0.267677 41:-0.315091 
0.4831045008682897 1:-0.692442 2:-0.62964 3:-0.214709 4:-0.292012 5:0.371767 6:-0.682429 7:0.538183 8:0.590997 9:-0.0616394 10:0.505008 11:-0.444828 12:-0.045897 13:-0.803479 14:-0.509194 15:-0.730111 16:-0.205632 17:-0.310287 18:0.103509 19:-0.227501 20:0.104499 21:-0.274375 22:0.0424417 23:-0.0913138 24:0.281015 25:-0.0291932 26:-0.225286 27:0.0198065 28:-0.211576 29:0.138133 30:-0.0368122 31:0.332898 32:0.213543 33:-0.366264 34:0.4051 35:-0.719411 36:-0.523837 37:0.235494 38:-0.739462 39:0.0814584 40:0.112632 41:0.066206 
0.5888931164564262 1:-0.632584 2:-0.558212 3:-0.375797 4:0.145908 5:-0.465163 6:-0.63958 7:0.557251 8:0.440361 9:0.283681 10:0.325642 11:0.566862 12:0.050624 13:-0.822973 14:-0.38546 15:-0.734068 16:-0.18595 17:-0.72908 18:-0.218222 19:-0.455633 20:0.418991 21:-0.574312 22:0.410838 23:-0.345456 24:0.296187 25:-0.252597 26:0.516988 27:-0.122259 28:-0.146672 29:0.0556414 30:0.0165167 31:0.258562 32:0.320686 33:0.0964058 34:-0.493286 35:-0.675174 36:-0.286227 37:-0.065849 38:-0.711246 39:-0.0700706 40:0.145076 41:-0.0211172 
0.4845897811000553 1:-0.594786 2:-0.0735863 3:-0.231033 4:-0.499376 5:-0.113671 6:-0.742917 7:0.260723 8:-0.225225 9:-0.0233445 10:0.656681 11:0.243101 12:0.11236 13:-0.71273 14:-0.637177 15:-0.652547 16:-0.639643 17:0.0180305 18:-0.458805 19:0.029511 20:-0.14917 21:0.0379339 22:-0.0343585 23:0.0491659 24:-0.0288629 25:-0.07355 26:0.152321 27:0.0823437 28:-0.128379 29:0.132233 30:-0.544308 31:0.0590691 32:-0.278923 33:-0.632526 34:-0.0336427 35:-0.78253 36:-0.593079 37:-0.00230301 38:-0.775348 39:-0.200486 40:0.14499 41:-0.215008 
0.6407125387667176 1:-0.645679 2:-0.365963 3:-0.292744 4:-0.35564 5:0.52658 6:-0.665113 7:0.466917 8:0.219406 9:0.128785 10:0.56965 11:-0.622909 12:-0.046995 13:-0.699328 14:-0.423919 15:-0.676054 16:-0.147019 17:-0.460082 18:-0.440538 19:0.103989 20:-0.450296 21:0.0800315 22:-0.489701 23:0.0124174 24:-0.00230229 25:-0.0830153 26:0.520881 27:0.0560082 28:0.455676 29:0.117278 30:0.412795 31:0.272047 32:0.413096 33:-0.520499 34:0.583477 35:-0.676916 36:-0.494375 37:0.297536 38:-0.749792 39:-0.0936703 40:0.309471 41:0.220141 
0.01781918250631565 1:-0.659484 2:-0.45053 3:-0.213111 4:-0.55681 5:0.388551 6:-0.670655 7:0.439065 8:0.339185 9:-0.0662714 10:0.686917 11:-0.470984 12:-0.113839 13:-0.730245 14:-0.699267 15:-0.753579 16:-0.527857 17:-0.114412 18:-0.502542 19:0.042173 20:-0.0926538 21:-0.00956093 22:-0.0635984 23:0.0227601 24:-0.188244 25:-0.0410699 26:-0.429693 27:0.0748782 28:-0.552291 29:0.140336 30:-0.377674 31:0.130766 32:0.306403 33:-0.651262 34:0.372792 35:-0.720453 36:-0.661247 37:0.276288 38:-0.718641 39:-0.0849966 40:0.475989 41:0.024915 
0.4037319604410271 1:-0.625008 2:-0.257172 3:-0.175938 4:-0.426237 5:-0.184252 6:-0.651723 7:0.448433 8:0.0773028 9:-0.146542 10:0.64415 11:0.293964 12:-0.0615329 13:-0.582382 14:-0.263072 15:-0.598842 16:-0.290782 17:-0.348237 18:-0.47416 19:0.167594 20:-0.635697 21:0.158119 22:-0.474834 23:0.128198 24:0.16479 25:-0.0478091 26:0.187609 27:0.00693052 28:0.173228 29:0.111372 30:0.177207 31:0.301639 32:-0.0220681 33:-0.653259 34:-0.315499 35:-0.693521 36:-0.476065 37:0.128954 38:-0.716071 39:-0.0324856 40:0.0460716 41:0.111555 
0.5421783544335024 1:-0.836679 2:-0.742924 3:-0.220643 4:0.489137 5:0.121229 6:-0.761667 7:0.855623 8:0.798447 9:-0.0525002 10:-0.184853 11:-0.105698 12:0.182231 13:-0.708314 14:-0.39079 15:-0.571287 16:0.820676 17:-0.725214 18:0.53469 19:-0.464045 20:0.613778 21:0.0239937 22:0.498913 23:-0.506248 24:0.70729 25:-0.488366 26:0.609011 27:-0.144908 28:0.496397 29:-0.634538 30:0.660135 31:-0.161725 32:0.529835 33:0.0830951 34:0.143579 35:-0.799583 36:0.207373 37:0.141621 38:-0.790039 39:-0.176556 40:0.348699 41:-0.424091 
0.9716593794158569 1:-0.504137 2:-0.14924 3:-0.219822 4:-0.646623 5:0.205355 6:-0.733237 7:0.111561 8:-0.0892565 9:-0.0493024 10:0.794243 11:-0.217379 12:0.1393 13:-0.638009 14:-0.70146 15:-1 16:-1 17:0.0513134 18:-0.513558 19:-0.00346179 20:-0.696288 21:0.0271456 22:-0.170104 23:0.00816118 24:-0.360969 25:-0.0537035 26:-0.338136 27:0.0746477 28:-0.564535 29:0.396651 30:-0.136314 31:0.32812 32:-0.0434034 33:-0.767115 34:0.118735 35:-0.774979 36:-0.691976 37:0.255489 38:-0.766872 39:0.0101085 40:-0.15427 41:-0.187994 
0.5556500516846287 1:-0.697484 2:-0.658298 3:-0.347785 4:-0.362059 5:0.302815 6:-0.740701 7:0.448383 8:0.684876 9:0.308114 10:0.481016 11:-0.39091 12:0.028361 13:-0.75128 14:-0.252881 15:-0.629362 16:-0.462598 17:-0.49097 18:-0.659274 19:-0.134726 20:-0.121672 21:-0.0639053 22:-0.319495 23:-0.0764055 24:0.0722423 25:-0.208865 26:0.0730699 27:-0.165066 28:-0.00702217 29:-0.0674942 30:-0.236699 31:0.0630505 32:-0.0362623 33:-0.461653 34:0.266115 35:-0.767943 36:-0.543176 37:0.261639 38:-0.786642 39:-0.0872974 40:-0.0951934 41:-0.107686 
0.03566107870612269 1:-0.601428 2:-0.589817 3:-0.251827 4:-0.293512 5:0.424523 6:-0.698001 7:0.392782 8:0.521596 9:0.0314827 10:0.557983 11:-0.496979 12:0.0785234 13:-0.705233 14:-0.484275 15:-0.689015 16:-0.235153 17:-0.0794076 18:-0.0546021 19:0.0395617 20:-0.118024 21:-0.135667 22:0.0643759 23:0.0413571 24:-0.222379 25:0.00865768 26:-0.0245151 27:0.138422 28:0.0370297 29:0.255427 30:-0.423856 31:0.281767 32:0.254382 33:-0.418606 34:0.433419 35:-0.748868 36:-0.481122 37:0.269805 38:-0.735341 39:0.0192211 40:0.143591 41:0.0820981 
0.1533571926287319 1:-0.949251 2:-0.367608 3:-0.372878 4:-0.907991 5:-0.0226906 6:-0.729724 7:0.732466 8:0.21951 9:0.531696 10:0.545153 11:0.18048 12:-0.762447 13:-0.85547 14:-0.835755 15:-0.810695 16:-0.580548 17:-0.7826 18:-0.747644 19:-1 20:-1 21:-0.913151 22:-0.773459 23:-0.917058 24:-0.646216 25:-1 26:-1 27:-0.889356 28:-0.896336 29:-0.835187 30:-0.608201 31:-0.737049 32:-0.786938 33:-0.93015 34:-0.0111068 35:-0.799964 36:-0.921888 37:0.0810873 38:-0.716533 39:-0.702417 40:-0.651376 41:-0.655173 
1.476928337602409 1:-0.592587 2:-0.149951 3:-0.268575 4:0.213931 5:0.669813 6:-0.740215 7:0.422028 8:-0.0572676 9:0.069224 10:0.225762 11:-0.780393 12:0.277495 13:-0.698329 14:-0.318928 15:-0.658488 16:-0.140476 17:-0.508235 18:-0.366024 19:0.0812869 20:-0.46507 21:0.0852894 22:-0.36938 23:0.0257592 24:0.496422 25:-0.0663466 26:0.705026 27:0.0461869 28:1 29:0.193054 30:0.778158 31:0.167629 32:0.2293 33:-0.21476 34:0.613212 35:-0.764769 36:0.0497363 37:0.432128 38:-0.789519 39:-0.092866 40:0.597648 41:-0.00384565 
0.7818798499007599 1:-0.772002 2:-0.146857 3:-0.142399 4:0.071755 5:-0.0893859 6:-0.672213 7:0.7414 8:-0.0803908 9:-0.236282 10:0.253165 11:0.182787 12:-0.0395156 13:-0.641676 14:-0.64152 15:-0.555422 16:-0.460873 17:-0.418697 18:-0.215839 19:-0.289139 20:0.254636 21:-0.143327 22:0.0812398 23:-0.0745972 24:0.605722 25:-0.55881 26:0.62133 27:-0.475002 28:0.385102 29:-0.330056 30:0.438482 31:0.0666099 32:0.515465 33:-0.253375 34:-0.128734 35:-0.720404 36:-0.0985931 37:0.0994159 38:-0.72246 39:-0.107858 40:0.255676 41:0.117653 
0.6135898334839048 1:-0.522503 2:-0.514484 3:-0.222829 4:-0.303812 5:0.579306 6:-0.728279 7:0.230645 8:0.416188 9:-0.0375522 10:0.56193 11:-0.68836 12:0.194366 13:-0.791983 14:-0.536745 15:-0.582858 16:-0.0048233 17:-0.257175 18:0.0488437 19:-0.223226 20:0.036342 21:-0.148045 22:-0.139169 23:0.0774021 24:-0.30933 25:0.0662999 26:-0.302338 27:0.329573 28:0.278478 29:0.582064 30:-0.310878 31:0.510708 32:-0.270639 33:-0.279004 34:0.511014 35:-0.748845 36:-0.600856 37:0.403871 38:-0.783692 39:0.130469 40:0.11055 41:-0.0411208 
0.9294759534356613 1:-0.839853 2:-0.356079 3:-0.213152 4:-0.914921 5:0.06032 6:-0.655289 7:0.628753 8:0.200854 9:-0.0840703 10:0.774425 11:-0.0114188 12:-0.570341 13:-0.638265 14:-0.819183 15:-0.683934 16:-0.709379 17:-0.6775 18:-0.788198 19:-0.512847 20:-0.742414 21:-0.623007 22:-0.714092 23:-0.448223 24:-0.517198 25:-0.582696 26:-0.465737 27:-0.696035 28:-0.814393 29:-0.682602 30:-0.854153 31:-0.11387 32:-0.758394 33:-0.943043 34:0.0236666 35:-0.7312 36:-0.92462 37:0.15784 38:-0.673422 39:-0.346357 40:-0.652486 41:-0.296883 
0.262522916922751 1:-0.617353 2:-0.578266 3:-0.410439 4:-0.556923 5:-0.144954 6:-0.720009 7:0.282613 8:0.532009 9:0.451625 10:0.639458 11:0.280116 12:0.00439348 13:-0.677799 14:-0.834471 15:-0.473134 16:-0.670855 17:0.030691 18:-0.693177 19:0.0425672 20:-0.591045 21:0.031831 22:-0.552217 23:-0.0657988 24:-0.306452 25:-0.18648 26:-0.0523507 27:-0.115964 28:0.14524 29:-0.116603 30:0.165003 31:-0.0836252 32:0.01429 33:-0.786136 34:-0.132272 35:-0.728566 36:-0.576352 37:0.0354732 38:-0.784655 39:-0.117114 40:-0.183317 41:-0.212668 
0.3391825539042467 1:-0.592531 2:-0.672398 3:-0.41246 4:0.259742 5:-0.473113 6:-0.703042 7:0.452615 8:0.583781 9:0.371285 10:0.218973 11:0.598089 12:0.20296 13:-0.725705 14:-0.350154 15:-0.631243 16:-0.112757 17:-0.618333 18:-0.0791374 19:-0.609377 20:0.644332 21:-0.582243 22:0.406316 23:-0.144534 24:0.184328 25:-0.113153 26:0.328275 27:0.149374 28:0.223298 29:0.440573 30:0.325083 31:0.364588 32:0.426541 33:0.0820375 34:-0.506615 35:-0.700606 36:-0.11432 37:-0.0813521 38:-0.784653 39:0.0151282 40:0.328989 41:0.010785 
0.9662113891058033 1:-0.625176 2:-0.480969 3:-0.241518 4:-0.249047 5:0.489875 6:-0.659369 7:0.477648 8:0.366602 9:0.00716491 10:0.541372 11:-0.553952 12:0.000393668 13:-0.755385 14:-0.459387 15:-0.750002 16:-0.179846 17:-0.587068 18:-0.385921 19:-0.0385603 20:-0.292903 21:-0.0815602 22:-0.257345 23:-0.0701968 24:-0.0876046 25:-0.0590032 26:0.108818 27:0.0263986 28:-0.40776 29:0.136232 30:0.438624 31:0.341022 32:0.689741 33:-0.453358 34:0.580696 35:-0.676667 36:-0.39772 37:0.253288 38:-0.742115 39:-0.0030393 40:0.64742 41:0.276641 
0.1869114774321496 1:-0.5665 2:-0.215491 3:-0.451801 4:0.471797 5:0.40985 6:-0.643763 7:0.536155 8:0.0624308 9:0.404546 10:0.238528 11:-0.380078 12:0.182351 13:-0.645555 14:-0.35426 15:-0.569794 16:-0.0988592 17:-0.640041 18:-0.185056 19:-0.691927 20:0.676231 21:-0.524183 22:0.51279 23:-0.496426 24:0.622729 25:-0.55936 26:0.48682 27:-0.291292 28:0.318078 29:0.436253 30:0.324719 31:0.498132 32:0.829353 33:0.158921 34:0.391735 35:-0.660604 36:0.11492 37:0.292718 38:-0.732847 39:0.371891 40:0.601896 41:0.29899 
0.05825286352315985 1:-0.575223 2:-0.452891 3:-0.400559 4:-0.634749 5:-0.196904 6:-0.698244 7:0.241093 8:0.340408 9:0.403356 10:0.723965 11:0.333488 12:-0.010994 13:-0.669613 14:-0.859522 15:-0.544943 16:-0.615743 17:-0.45302 18:-0.759438 19:0.0418079 20:-0.671178 21:0.118949 22:-0.489552 23:-0.0267802 24:-0.675455 25:-0.125626 26:0.0295635 27:-0.105588 28:-0.00142097 29:-0.0692704 30:0.022316 31:-0.0102705 32:-0.181162 33:-0.827612 34:-0.13561 35:-0.733812 36:-0.629165 37:-0.0215747 38:-0.748788 39:-0.201712 40:-0.210348 41:0.0506031 
1.636140815913948 1:-0.668097 2:-0.0138168 3:-0.348089 4:0.300614 5:0.60258 6:-0.756493 7:0.508418 8:-0.258622 9:0.265457 10:0.0724698 11:-0.735075 12:0.257731 13:-0.552768 14:-0.569448 15:-0.534528 16:-0.29418 17:-0.0911289 18:-0.432718 19:-0.0883528 20:-0.463834 21:-0.743807 22:0.216829 23:-0.0715097 24:0.19037 25:-0.233294 26:0.0750548 27:-0.30377 28:0.293219 29:-0.772958 30:0.231061 31:-0.100917 32:0.440629 33:-0.29894 34:0.460124 35:-0.800738 36:0.299881 37:0.464381 38:-0.779071 39:-0.0931038 40:0.500956 41:-0.25468 
0.4983238018011873 1:-0.41475 2:-0.666255 3:-0.445993 4:-0.0701439 5:-0.103566 6:-0.742538 7:0.132595 8:0.575353 9:0.441196 10:0.459312 11:0.16939 12:0.340153 13:-0.850936 14:-0.309662 15:-0.631309 16:-0.197764 17:-0.559416 18:0.523812 19:-0.502089 20:0.548385 21:-0.150247 22:0.355124 23:-0.00691456 24:0.421656 25:-0.030764 26:0.087239 27:0.244788 28:0.285805 29:0.677272 30:0.072994 31:0.54586 32:0.530304 33:-0.117925 34:-0.194934 35:-0.759127 36:-0.40609 37:0.121061 38:-0.796829 39:0.329087 40:0.366753 41:-0.130317 
1.265740561125499 1:-0.680583 2:-0.869474 3:-0.262068 4:-0.0581352 5:-0.0659576 6:-0.758954 7:0.471109 8:0.980365 9:0.060858 10:0.283221 11:0.171659 12:0.177829 13:-0.629005 14:-0.66942 15:-0.731558 16:-0.627033 17:-0.425672 18:0.282139 19:-0.275943 20:0.337976 21:-0.192526 22:0.288339 23:-0.0592924 24:0.295802 25:-0.220968 26:0.322804 27:0.018426 28:0.310044 29:0.162452 30:0.299182 31:0.214133 32:0.355195 33:-0.258046 34:-0.0674248 35:-0.809073 36:-0.277983 37:0.0788413 38:-0.775551 39:-0.180824 40:0.195184 41:-0.257467 
0.3754384848673674 1:-0.577527 2:-0.498186 3:-0.486753 4:-0.163217 5:-0.3544 6:-0.713381 7:0.314529 8:0.388791 9:0.568958 10:0.396914 11:0.499367 12:0.124247 13:-0.847852 14:-0.467603 15:-0.587927 16:-0.00888793 17:-0.552811 18:0.287806 19:-1 20:-1 21:-0.228508 22:0.286998 23:-0.499766 24:0.409342 25:-0.327727 26:0.11286 27:0.109923 28:-0.074581 29:-0.151843 30:-0.922228 31:-0.154043 32:-0.169828 33:-0.0566331 34:-0.349314 35:-0.765668 36:-0.607166 37:-0.0457086 38:-0.740068 39:0.0748267 40:0.105829 41:-0.25799 
0.2545054349368234 1:-0.781313 2:-0.224536 3:-0.104212 4:-0.706897 5:0.446939 6:-0.616874 7:0.577784 8:0.0185765 9:-0.3425 10:0.626915 11:-0.550868 12:-0.427174 13:-0.783507 14:-0.787678 15:-0.7612 16:-0.675554 17:-0.546526 18:-0.41716 19:-0.631357 20:-0.668365 21:-0.551862 22:-0.524639 23:-0.483896 24:-0.350992 25:-0.44354 26:-0.249274 27:-0.584707 28:-0.487309 29:-0.484758 30:-0.57859 31:-0.106088 32:-0.560495 33:-0.797726 34:0.338221 35:-0.713098 36:-0.74139 37:0.375422 38:-0.620864 39:-0.40519 40:-0.208824 41:-0.105628 
0.6029064415570049 1:-0.558236 2:-0.382717 3:-0.157383 4:-0.076217 5:0.614398 6:-0.714305 7:0.349923 8:0.24095 9:-0.184446 10:0.427998 11:-0.706196 12:0.191705 13:-0.801655 14:-0.241403 15:-0.693989 16:0.026473 17:-0.323854 18:0.0136454 19:-0.157617 20:-0.016495 21:-0.233284 22:-0.259979 23:0.0125988 24:0.344209 25:0.0953426 26:-0.350274 27:0.294065 28:-0.345389 29:0.546368 30:-0.215336 31:0.181067 32:0.189522 33:-0.0789909 34:0.660371 35:-0.730033 36:-0.444007 37:0.342926 38:-0.778614 39:-0.0103196 40:0.177636 41:-0.0380371 
0.3640457855707641 1:-0.765547 2:-0.193415 3:-0.106093 4:-0.706508 5:0.447673 6:-0.649804 7:0.526521 8:-0.0386371 9:-0.356343 10:0.631021 11:-0.578777 12:-0.364858 13:-0.780824 14:-0.765511 15:-0.731745 16:-0.394506 17:-0.631312 18:-0.632605 19:-0.582631 20:-0.574051 21:-0.569803 22:-0.749443 23:-0.437331 24:-0.695026 25:-0.449613 26:-0.273091 27:-0.568808 28:-0.487952 29:-0.517588 30:-0.56146 31:-0.0964854 32:-0.586349 33:-0.815429 34:0.327136 35:-0.751786 36:-0.721217 37:0.386318 38:-0.633312 39:-0.392385 40:-0.34202 41:-0.125803 
1.148002928238977 1:-0.678915 2:-0.365139 3:-0.323465 4:-0.0122979 5:-0.414685 6:-0.673302 7:0.575397 8:0.218491 9:0.19663 10:0.357876 11:0.580666 12:0.0298851 13:-0.778749 14:-0.189431 15:-0.604894 16:-0.241668 17:-0.517687 18:-0.387774 19:0.0735298 20:-0.565049 21:-0.0606155 22:0.13196 23:-0.0505439 24:0.0768723 25:-0.144371 26:0.44852 27:-0.228657 28:-0.442936 29:-0.0602015 30:-0.365474 31:0.271231 32:0.848175 33:-0.310135 34:-0.466028 35:-0.75074 36:-0.161082 37:-0.0192209 38:-0.688344 39:0.0231043 40:0.572659 41:0.00895391 
0.6077582754833001 1:-0.595077 2:-0.550927 3:-0.464607 4:0.147092 5:-0.459732 6:-0.724458 7:0.394592 8:0.449835 9:0.504313 10:0.224397 11:0.61225 12:0.204999 13:-0.646822 14:-0.441659 15:-0.61249 16:-0.167473 17:-0.575054 18:-0.149231 19:-0.568857 20:0.608655 21:-0.451356 22:0.444718 23:-0.214355 24:0.289365 25:-0.064232 26:0.151393 27:0.202158 28:0.223985 29:0.622549 30:0.161189 31:0.0216645 32:0.173393 33:0.14894 34:-0.521515 35:-0.72958 36:-0.306815 37:-0.0568721 38:-0.79336 39:0.0594042 40:0.406203 41:-0.0619699 
0.6118625174650808 1:-0.48705 2:-0.0188121 3:-0.202471 4:0.00533915 5:0.6835 6:-0.725113 7:0.253302 8:-0.195681 9:-0.0758526 10:0.394933 11:-0.747436 12:0.271971 13:-0.748166 14:-0.56743 15:-0.680824 16:-0.192065 17:-0.154251 18:-0.250527 19:-0.0289756 20:-0.283872 21:-0.0234696 22:-0.10389 23:0.00416897 24:-0.288427 25:-0.1525 26:0.410735 27:0.2263 28:0.170262 29:0.48866 30:0.223408 31:0.463622 32:0.114654 33:-0.262539 34:0.591975 35:-0.761578 36:-0.186207 37:0.45881 38:-0.767687 39:0.0371735 40:0.252848 41:-0.142136 
0.7464549492036063 1:-0.613629 2:-0.560642 3:-0.369177 4:-0.260152 5:-0.351149 6:-0.762992 7:0.298641 8:0.509622 9:0.346822 10:0.434059 11:0.584721 12:0.187609 13:-0.945453 14:-0.511769 15:-0.637873 16:-0.287009 17:-0.712369 18:-0.567338 19:-0.507295 20:0.395763 21:-0.595594 22:0.189543 23:-0.273372 24:0.255707 25:-0.268216 26:-0.116534 27:-0.106515 28:-0.205707 29:0.276313 30:-0.367251 31:-0.0368545 32:-0.438121 33:-0.176897 34:-0.324466 35:-0.798151 36:-0.630517 37:-0.0636218 38:-0.79213 39:-0.11688 40:0.142787 41:-0.0304437 
0.4788212449941837 1:-0.628518 2:-0.347334 3:-0.322882 4:-0.145469 5:-0.392558 6:-0.690198 7:0.463734 8:0.194979 9:0.198365 10:0.4515 11:0.563041 12:0.0731825 13:-0.657918 14:-0.275155 15:-0.557943 16:-0.115201 17:-0.383229 18:-0.362297 19:0.0522699 20:-0.525821 21:0.0234514 22:0.0507686 23:0.114884 24:0.015564 25:-0.0232776 26:0.357537 27:-0.0371443 28:0.079023 29:0.0595052 30:-0.2931 31:0.3165 32:0.770539 33:-0.359936 34:-0.437426 35:-0.762374 36:-0.313699 37:-0.0122009 38:-0.706021 39:0.0314056 40:0.466545 41:0.0102198 
0.185104612833834 1:-0.681075 2:-0.415457 3:-0.221066 4:-0.578943 5:0.449652 6:-0.66708 7:0.461421 8:0.29011 9:-0.0467747 10:0.677024 11:-0.561612 12:-0.15717 13:-0.747759 14:-0.586552 15:-0.736976 16:-0.483208 17:-0.0883016 18:-0.476862 19:-0.00545247 20:-0.56464 21:0.0326819 22:-0.386915 23:0.0874914 24:-0.234507 25:-0.0477815 26:-0.442664 27:0.0474036 28:-0.613407 29:0.115684 30:-0.583296 31:-0.10145 32:0.242505 33:-0.661056 34:0.403971 35:-0.71104 36:-0.684557 37:0.324299 38:-0.722659 39:-0.150164 40:-0.00236777 41:0.0644572 
0.7078178108394774 1:-0.519253 2:-0.720367 3:-0.253373 4:-0.497502 5:0.236272 6:-0.755104 7:0.131542 8:0.731327 9:0.0364485 10:0.673617 11:-0.263896 12:0.207511 13:-0.55552 14:-0.64056 15:-0.588264 16:-0.645373 17:-0.0722781 18:-0.0122872 19:-0.0482156 20:0.038513 21:0.000818229 22:0.110532 23:0.120487 24:0.0468485 25:0.0459584 26:-0.112552 27:0.273951 28:0.00351305 29:0.455707 30:0.0371991 31:0.281441 32:0.0835739 33:-0.585014 34:0.164848 35:-0.808991 36:-0.631942 37:0.256816 38:-0.769209 39:0.0967812 40:-0.0451814 41:-0.185218 
0.2255516766559454 1:-0.564309 2:-0.645351 3:-0.316018 4:-0.0548075 5:-0.493384 6:-0.723915 7:0.338717 8:0.578212 9:0.178329 10:0.386727 11:0.675109 12:0.201833 13:-0.860966 14:-0.135286 15:-0.636391 16:0.05227 17:-0.443657 18:0.292325 19:-0.224879 20:0.492718 21:-0.244113 22:0.222591 23:-0.0886694 24:-0.0132773 25:0.101469 26:-0.104352 27:0.397568 28:-0.152449 29:0.628375 30:-0.361501 31:0.191918 32:-0.144629 33:0.0787783 34:-0.494119 35:-0.744338 36:-0.53149 37:-0.106941 38:-0.78079 39:0.0649641 40:0.299173 41:-0.046189 
1.683689401866271 1:-0.632002 2:-0.178078 3:-0.028664 4:-0.791309 5:0.104078 6:-0.774571 7:0.0832965 8:-0.104762 9:-0.650984 10:0.689547 11:-0.0848209 12:-0.0113783 13:-0.734673 14:-0.745555 15:-0.712364 16:-0.335711 17:-0.423195 18:-0.657279 19:-0.0824915 20:-0.3548 21:-0.862913 22:-0.595849 23:-0.0452377 24:-0.275418 25:-0.243885 26:-0.380645 27:-0.555627 28:-0.698135 29:-0.502788 30:-0.825366 31:-0.581042 32:-0.877293 33:-0.777353 34:0.0907015 35:-0.855875 36:-0.899618 37:0.150425 38:-0.729607 39:-0.257225 40:-0.449168 41:-0.391688 
0.02939043412737394 1:-0.596349 2:-0.386873 3:-0.257073 4:-0.473232 5:0.354442 6:-0.67738 7:0.374354 8:0.247587 9:0.0441898 10:0.684728 11:-0.404997 12:-0.000369695 13:-0.65124 14:-0.665498 15:-0.72192 16:-0.6362 17:-0.437624 18:-0.514572 19:0.0622039 20:-0.401721 21:0.060417 22:-0.287322 23:0.0501253 24:0.0373066 25:-0.0164239 26:0.309738 27:0.199486 28:0.101139 29:0.234556 30:0.430206 31:0.334437 32:0.289792 33:-0.654213 34:0.373929 35:-0.701429 36:-0.546849 37:0.242208 38:-0.749058 39:-0.057484 40:0.234681 41:0.278755 
0.2303074143000617 1:-0.599157 2:-0.260072 3:-0.39415 4:-0.641225 5:-0.264638 6:-0.675896 7:0.298573 8:0.0746485 9:0.379653 10:0.715656 11:0.415993 12:-0.079153 13:-0.70519 14:-0.827908 15:-0.55297 16:-0.62684 17:-0.636597 18:-0.733993 19:0.0936106 20:-0.557525 21:-0.0230254 22:-0.453123 23:-0.0532128 24:-0.161709 25:-0.0607341 26:-0.462848 27:-0.0459831 28:-0.405991 29:-0.188123 30:-0.602591 31:0.0827021 32:-0.344551 33:-0.719554 34:-0.243626 35:-0.731245 36:-0.720476 37:-0.0203099 38:-0.713759 39:-0.0959292 40:-0.242906 41:0.109137 
0.05531157761747667 1:-0.765212 2:-0.129177 3:-0.11808 4:0.0232774 5:-0.0415163 6:-0.66658 7:0.719081 8:-0.101837 9:-0.293224 10:0.281646 11:0.117614 12:-0.0592271 13:-0.635125 14:-0.697066 15:-0.53625 16:-0.394786 17:-0.413881 18:-0.251389 19:-0.208249 20:0.262536 21:-0.142947 22:0.161832 23:-0.0604436 24:0.514915 25:-0.522121 26:0.51999 27:-0.45611 28:0.445347 29:-0.229293 30:0.465474 31:0.110264 32:0.464234 33:-0.29654 34:-0.108155 35:-0.695584 36:-0.144307 37:0.136236 38:-0.737044 39:-0.0870299 40:0.227064 41:0.135637 
0.4739710339637465 1:-0.662053 2:-0.255805 3:-0.163356 4:-0.358397 5:-0.341666 6:-0.651677 7:0.498088 8:0.0746287 9:-0.177139 10:0.56129 11:0.497858 12:-0.0890088 13:-0.88277 14:-0.635418 15:-0.828584 16:-0.454358 17:-0.196109 18:-0.427114 19:0.0350924 20:-0.381157 21:-0.0415287 22:-0.288324 23:-0.0559607 24:-0.227641 25:-0.149112 26:-0.00474106 27:-0.698711 28:-0.388079 29:-0.487531 30:-0.358397 31:-0.562865 32:0.12486 33:-0.633177 34:-0.253136 35:-0.749345 36:-0.362894 37:-0.109193 38:-0.644504 39:-0.0573319 40:-0.0265314 41:-0.123963 
0.5641872783783283 1:-0.612764 2:-0.682418 3:-0.382668 4:0.0689833 5:-0.204961 6:-0.733916 7:0.432687 8:0.640966 9:0.343363 10:0.300413 11:0.327255 12:0.220799 13:-0.876775 14:-0.658246 15:-0.659161 16:0.134742 17:-0.649741 18:0.479093 19:-0.608334 20:0.512639 21:-0.322217 22:0.334752 23:-0.543761 24:-0.353629 25:-0.0758681 26:-0.102359 27:-0.0123422 28:-0.0771632 29:-0.0145072 30:-0.0538784 31:0.275975 32:0.140662 33:0.0647286 34:-0.223306 35:-0.798621 36:-0.374511 37:0.0353209 38:-0.739415 39:-0.0243049 40:0.272638 41:-0.300173 
0.4055450186445111 1:-0.666655 2:-0.570039 3:-0.424722 4:-0.110509 5:-0.293125 6:-0.736976 7:0.442515 8:0.511773 9:0.476412 10:0.318925 11:0.478752 12:0.116137 13:-0.929058 14:-0.37367 15:-0.603205 16:-0.0883528 17:-0.598255 18:0.375325 19:-0.65416 20:0.136514 21:-0.20586 22:-0.117614 23:-0.44933 24:0.324514 25:-0.302978 26:0.349955 27:-0.306274 28:-0.252924 29:0.151322 30:-0.695949 31:-0.149539 32:-0.12787 33:-0.169387 34:-0.300405 35:-0.787768 36:-0.424023 37:-0.0124009 38:-0.757825 39:-0.0761392 40:0.0135402 41:-0.332369 
0.4097003027087809 1:-0.731448 2:-0.104396 3:-0.29114 4:-0.130396 5:-0.496753 6:-0.661977 7:0.610468 8:-0.128715 9:0.124962 10:0.351258 11:0.705769 12:-0.0912622 13:-0.681538 14:-0.358028 15:-0.63944 16:-0.222106 17:-0.483671 18:-0.295326 19:-0.165018 20:-0.0887016 21:-0.101572 22:0.041283 23:-0.182787 24:0.221194 25:-0.257862 26:0.123368 27:-0.175468 28:0.325763 29:0.149716 30:-0.281206 31:0.107036 32:0.389332 33:-0.302402 34:-0.474715 35:-0.704371 36:-0.349145 37:-0.115031 38:-0.721552 39:-0.0985343 40:0.225798 41:0.184477 
0.08647735348508669 1:-0.632244 2:-0.473118 3:-0.240195 4:-0.474393 5:0.455467 6:-0.664247 7:0.426735 8:0.364016 9:0.00336351 10:0.652327 11:-0.537729 12:-0.0673993 13:-0.750374 14:-0.574913 15:-0.646866 16:-0.248156 17:-0.0575253 18:-0.345016 19:-0.0635825 20:-0.317683 21:-0.0744782 22:-0.337627 23:0.0756345 24:0.256629 25:-0.00391758 26:-0.490731 27:-0.0305571 28:0.165257 29:0.228352 30:-0.269392 31:0.377735 32:0.317896 33:-0.582654 34:0.429734 35:-0.711447 36:-0.601622 37:0.311365 38:-0.717304 39:-0.00249381 40:0.298927 41:0.0495307 
0.3538098154803025 1:-0.698458 2:-0.618431 3:-0.43375 4:-0.0119562 5:-0.249042 6:-0.705447 7:0.546374 8:0.563638 9:0.475879 10:0.273858 11:0.394642 12:0.0515887 13:-0.894297 14:-0.407877 15:-0.59638 16:-0.136023 17:-0.621414 18:0.32463 19:-0.640422 20:0.407838 21:-0.661671 22:-0.871363 23:-0.276139 24:0.451089 25:-0.496671 26:0.384797 27:-0.212229 28:-0.0434359 29:-0.304004 30:-0.318816 31:-0.189681 32:0.0289617 33:-0.101872 34:-0.262168 35:-0.774607 36:-0.344954 37:0.0160086 38:-0.713151 39:-0.181651 40:0.0429664 41:-0.311711 
0.2741813225298905 1:-0.632463 2:-0.693758 3:-0.0514431 4:-0.346362 5:0.105234 6:-0.619293 7:0.473478 8:0.615222 9:-0.402651 10:0.557692 11:-0.0723106 12:-0.111329 13:-0.614859 14:-0.511295 15:-0.411946 16:-0.383556 17:-0.417692 18:-0.442793 19:0.268608 20:-0.404171 21:0.0591969 22:-0.500008 23:0.0117941 24:0.100688 25:-0.310232 26:0.150999 27:-0.177819 28:0.202543 29:-0.0973725 30:0.368654 31:0.260928 32:0.594995 33:-0.77861 34:0.0918964 35:-0.634826 36:-0.287366 37:0.161169 38:-0.716538 39:0.0435114 40:0.337842 41:0.213803 
0.2513448933595329 1:-0.599975 2:-0.0388406 3:-0.302741 4:-0.46201 5:0.150187 6:-0.747643 7:0.270193 8:-0.280141 9:0.172235 10:0.624364 11:-0.148185 12:0.127387 13:-0.695444 14:-0.57278 15:-0.731921 16:-0.657376 17:-0.0144921 18:-0.608635 19:-0.00702822 20:-0.178243 21:-0.0150973 22:0.0225089 23:0.0183539 24:0.175338 25:-0.0636914 26:0.324783 27:0.10462 28:0.0251621 29:0.238572 30:0.107052 31:0.146786 32:0.261568 33:-0.589298 34:0.0694635 35:-0.795354 36:-0.575885 37:0.229066 38:-0.770701 39:-0.153813 40:0.293961 41:-0.193568 
0.2873742289228367 1:-0.535887 2:-0.612116 3:-0.260463 4:-0.604028 5:0.188749 6:-0.758258 7:0.119911 8:0.592467 9:0.0566609 10:0.749183 11:-0.20486 12:0.175118 13:-0.608997 14:-0.864347 15:-0.0627845 16:-0.0624546 17:-0.112855 18:-0.239721 19:-0.120095 20:-0.239335 21:0.0564844 22:-0.20999 23:0.0415118 24:-0.47168 25:-0.116484 26:-0.382663 27:-0.098238 28:-0.211903 29:0.472319 30:-0.275961 31:0.255217 32:0.0205099 33:-0.686051 34:0.158593 35:-0.802907 36:-0.697655 37:0.206349 38:-0.780608 39:-0.0504135 40:-0.110877 41:-0.39626 
0.2843163426169471 1:-0.644766 2:-0.64041 3:-0.335683 4:-0.0941977 5:-0.251992 6:-0.725047 7:0.460067 8:0.60313 9:0.242033 10:0.384745 11:0.409826 12:0.138162 13:-0.851226 14:-0.620287 15:-0.62855 16:-0.483424 17:-0.693147 18:0.181852 19:-0.496958 20:0.336723 21:-0.280646 22:0.35018 23:-0.571487 24:-0.406513 25:-0.235576 26:0.479332 27:0.0122003 28:-0.231777 29:-0.0529131 30:-0.259035 31:0.160424 32:0.159483 33:-0.261331 34:-0.216947 35:-0.78041 36:-0.322235 37:-0.0274892 38:-0.745163 39:-0.00171053 40:0.152063 41:-0.184688 
1.291162158887246 1:-0.916067 2:-0.535177 3:-0.231365 4:0.225679 5:-0.299206 6:-0.729827 7:0.970055 8:0.495384 9:-0.0256213 10:-0.113466 11:0.561762 12:-0.074863 13:-0.693581 14:-0.38099 15:-0.820717 16:-0.352533 17:-0.702576 18:0.336413 19:-0.578211 20:0.386652 21:-0.280844 22:0.281608 23:-0.577195 24:0.403487 25:-0.700105 26:0.594097 27:-0.616842 28:0.615099 29:-0.482047 30:0.637982 31:-0.31406 32:0.338499 33:-0.0633547 34:-0.327634 35:-0.757269 36:-0.0467865 37:-0.00301157 38:-0.778424 39:-0.317463 40:0.178074 41:-0.177426 
0.2278317687786198 1:-0.564065 2:-0.539914 3:-0.189569 4:-0.265959 5:0.623762 6:-0.701284 7:0.324304 8:0.444761 9:-0.113394 10:0.525813 11:-0.729755 12:0.112365 13:-0.812575 14:-0.252868 15:-0.762852 16:0.00743266 17:-0.339896 18:0.109783 19:-0.213241 20:0.193877 21:-0.165064 22:0.0042611 23:0.0404873 24:-0.411707 25:-0.197313 26:-0.55436 27:0.100105 28:-0.450915 29:0.281108 30:-0.426611 31:0.340451 32:-0.101989 33:-0.15508 34:0.598212 35:-0.746564 36:-0.669082 37:0.380596 38:-0.742358 39:-0.0895091 40:0.136187 41:-0.057687 
0.7698999615838187 1:-0.67879 2:-0.647897 3:-0.265828 4:-0.195831 5:-0.331254 6:-0.703505 7:0.507822 8:0.617203 9:0.0675029 10:0.430278 11:0.523161 12:0.0311269 13:-0.876205 14:-0.381448 15:-0.642127 16:-0.429143 17:-0.602017 18:0.208838 19:-0.379052 20:0.412944 21:-0.262609 22:0.120484 23:-0.515415 24:-0.83313 25:-0.207762 26:0.246147 27:0.0123434 28:-0.400919 29:-0.028041 30:-0.375791 31:-0.142887 32:0.0378189 33:-0.198558 34:-0.33971 35:-0.749461 36:-0.513491 37:-0.031871 38:-0.739663 39:-0.0438571 40:0.151222 41:-0.215538 
1.017510767440239 1:-0.607401 2:-0.442447 3:-0.189621 4:-0.0190442 5:0.827998 6:-0.707382 7:0.405165 8:0.316756 9:-0.11074 10:0.32873 11:-0.969396 12:0.13148 13:-0.808265 14:-0.223045 15:-0.792875 16:-0.0972155 17:-0.596306 18:-0.151298 19:-0.259245 20:0.282062 21:-0.216809 22:-0.0213036 23:-0.189278 24:-0.403029 25:0.0478366 26:-0.289547 27:0.283717 28:-0.247594 29:0.552819 30:-0.184324 31:0.258737 32:-0.322298 33:0.180328 34:0.83892 35:-0.701618 36:-0.530927 37:0.47545 38:-0.787415 39:-0.0875982 40:0.255836 41:-0.0615738 
0.8135940717313455 1:-0.5949 2:-0.504677 3:-0.341464 4:-0.297749 5:-0.370667 6:-0.696846 7:0.368675 8:0.403846 9:0.244655 10:0.539164 11:0.541498 12:0.0715852 13:-0.764392 14:-0.395223 15:-0.647559 16:-0.362851 17:-0.526481 18:0.156833 19:-0.383268 20:0.14208 21:-0.214846 22:0.187951 23:-0.581764 24:-0.781325 25:-0.162264 26:0.329211 27:0.0454129 28:-0.446644 29:-0.00933326 30:-0.386547 31:0.139974 32:-0.212362 33:-0.283844 34:-0.369924 35:-0.746713 36:-0.595919 37:-0.051513 38:-0.732373 39:0.163082 40:0.130233 41:-0.17081 
0.2390748982392562 1:-0.726653 2:-0.0361089 3:-0.272124 4:-0.092916 5:0.562148 6:-0.63222 7:0.643371 8:-0.195968 9:0.0763637 10:0.374279 11:-0.635528 12:-0.114425 13:-0.776782 14:-0.372323 15:-0.742185 16:-0.170266 17:-0.571115 18:-0.334143 19:-0.27443 20:0.318759 21:-0.415919 22:0.231827 23:-0.257164 24:0.189458 25:-0.301214 26:-0.0314904 27:-0.260206 28:-0.226683 29:0.089169 30:-0.119531 31:0.172361 32:0.453195 33:-0.233468 34:0.497065 35:-0.696225 36:-0.351902 37:0.384687 38:-0.677305 39:-0.164307 40:0.281762 41:0.0615071 
0.2220687862066408 1:-0.48625 2:-0.421646 3:-0.364502 4:0.0453298 5:-0.584486 6:-0.675238 7:0.326207 8:0.282011 9:0.252733 10:0.421217 11:0.676538 12:0.195132 13:-0.773755 14:-0.309632 15:-0.704575 16:-0.0124537 17:-0.253021 18:0.187311 19:-0.185673 20:0.13927 21:-0.14983 22:-0.166564 23:-0.0136349 24:0.199268 25:0.0885059 26:-0.473255 27:0.338623 28:0.380675 29:0.584508 30:-0.257689 31:0.473458 32:0.218083 33:0.146518 34:-0.695863 35:-0.686347 36:-0.434962 37:-0.0831981 38:-0.752598 39:0.131709 40:0.219473 41:-0.0786429 
0.8000987782238447 1:-0.515534 2:-0.62264 3:-0.469694 4:0.104435 5:-0.33473 6:-0.705152 7:0.325406 8:0.517782 9:0.481987 10:0.336474 11:0.426828 12:0.229664 13:-0.779037 14:-0.3594 15:-0.617995 16:-0.0246384 17:-0.662032 18:-0.368257 19:-0.567554 20:0.528647 21:-0.437393 22:0.530619 23:-0.0632974 24:0.434196 25:-0.0142839 26:0.430337 27:0.359342 28:0.0280651 29:0.0638962 30:0.0198522 31:0.521396 32:0.291521 33:0.0213566 34:-0.349826 35:-0.740569 36:-0.281452 37:-0.0237371 38:-0.755229 39:0.359951 40:0.443639 41:-0.0115147 
0.7725769215547506 1:-0.578746 2:-0.230215 3:-0.211453 4:-0.236216 5:0.814575 6:-0.700715 7:0.325176 8:0.0457554 9:-0.0617911 10:0.460028 11:-0.960635 12:0.088787 13:-0.789116 14:-0.577991 15:-0.780622 16:-0.206314 17:-0.562553 18:-0.419532 19:0.019358 20:-0.40495 21:-0.106287 22:-0.581499 23:-0.0370707 24:-0.537059 25:-0.570132 26:-0.529976 27:0.207851 28:-0.413454 29:0.321183 30:-0.448813 31:0.24932 32:-0.491909 33:-0.313632 34:0.631756 35:-0.737776 36:-0.482706 37:0.584484 38:-0.748597 39:-0.0603513 40:-0.123458 41:-0.153291 
0.2656234654756372 1:-0.56551 2:-0.309727 3:-0.165872 4:0.0148248 5:0.768072 6:-0.671998 7:0.412846 8:0.154269 9:-0.150305 10:0.390527 11:-0.827469 12:0.12237 13:-0.750329 14:-0.237092 15:-0.7062 16:-0.0268293 17:-0.615667 18:-0.171907 19:-0.198112 20:-0.00845408 21:-0.122271 22:-0.124152 23:-0.00452016 24:0.238419 25:-0.000723946 26:0.033313 27:0.160112 28:0.553887 29:0.298488 30:-0.451077 31:0.292583 32:0.105257 33:-0.0746792 34:0.667302 35:-0.738806 36:-0.334919 37:0.493834 38:-0.699038 39:-0.0861138 40:0.191932 41:-0.0452946 
1.226538599468564 1:-0.43694 2:-0.438768 3:-0.409949 4:-0.000830981 5:-0.267635 6:-0.700749 7:0.247753 8:0.302529 9:0.349479 10:0.475274 11:0.341249 12:0.275461 13:-0.833206 14:-0.432896 15:-0.638006 16:0.0630684 17:-0.539574 18:0.349299 19:-0.495408 20:0.311618 21:-0.123542 22:0.164968 23:-0.0519522 24:-0.0531309 25:-0.128207 26:0.578829 27:0.461899 28:0.16667 29:0.34408 30:-0.215158 31:0.667049 32:0.753808 33:-0.206287 34:-0.345083 35:-0.754477 36:-0.239925 37:0.0510201 38:-0.732184 39:0.459127 40:0.563266 41:-0.263871 
0.2967894445985101 1:-0.538292 2:-0.428806 3:-0.245671 4:-0.633702 5:0.291291 6:-0.759736 7:0.112965 8:0.315341 9:0.0164247 10:0.773677 11:-0.361156 12:0.169617 13:-0.568001 14:-0.7941 15:-0.0340277 16:-0.257382 17:-0.0701822 18:-0.193778 19:-0.0348199 20:-0.165657 21:0.0689503 22:-0.0738801 23:-0.130844 24:-0.390252 25:-0.0198836 26:0.138865 27:0.193287 28:-0.554047 29:0.394133 30:-0.504638 31:0.337362 32:-0.189912 33:-0.682669 34:0.161305 35:-0.819852 36:-0.744732 37:0.327963 38:-0.763977 39:0.0102502 40:0.117823 41:-0.387548 
0.1775651954458611 1:-0.524529 2:-0.424774 3:-0.357683 4:0.0901704 5:-0.654135 6:-0.661347 7:0.386022 8:0.285149 9:0.237998 10:0.380507 11:0.747605 12:0.14972 13:-0.776976 14:-0.285152 15:-0.770701 16:-0.071869 17:-0.551753 18:-0.142501 19:-0.33593 20:0.185775 21:-0.300861 22:0.106345 23:0.0106556 24:0.177615 25:0.0129876 26:-0.517454 27:0.331028 28:0.297104 29:0.583599 30:-0.241057 31:0.426197 32:0.223553 33:0.152417 34:-0.712563 35:-0.682248 36:-0.394916 37:-0.136505 38:-0.737574 39:0.117076 40:0.221441 41:0.097761 
1.412443228316393 1:-0.701351 2:-0.608417 3:-0.416023 4:0.30454 5:-0.193236 6:-0.68158 7:0.649162 8:0.522067 9:0.397019 10:0.168884 11:0.289623 12:0.100854 13:-0.82119 14:-0.591991 15:-0.727228 16:-0.446916 17:-0.744142 18:-0.256599 19:-0.539775 20:0.582905 21:-0.688185 22:0.413914 23:-0.76009 24:-0.376807 25:-0.523094 26:0.349396 27:-0.403591 28:0.287815 29:-0.267785 30:0.422632 31:-0.0625633 32:0.55079 33:0.042624 34:-0.259651 35:-0.737625 36:0.00884998 37:0.0826981 38:-0.713602 39:-0.136385 40:0.410571 41:-0.0328177 
0.2897790512297649 1:-0.599913 2:-0.606894 3:-0.241086 4:-0.495513 5:-0.114743 6:-0.752793 7:0.25822 8:0.594046 9:0.00361213 10:0.656303 11:0.252211 12:0.133507 13:-0.637958 14:-0.82856 15:-0.66606 16:-0.752244 17:-0.668878 18:-0.404657 19:-0.175811 20:-0.0499605 21:-0.0933362 22:0.0105625 23:0.0423049 24:-0.0301745 25:-0.0485171 26:-0.0208931 27:0.133635 28:0.146363 29:0.333913 30:-0.130715 31:0.346791 32:-0.0193269 33:-0.610528 34:-0.130705 35:-0.792727 36:-0.607693 37:0.0697011 38:-0.78293 39:-0.0697734 40:-0.172976 41:-0.117705 
1.010894386772833 1:-0.778826 2:-0.232021 3:-0.385814 4:0.0491568 5:0.213246 6:-0.666806 7:0.745436 8:0.0365596 9:0.358864 10:0.256838 11:-0.220523 12:-0.0658647 13:-0.737791 14:-0.547223 15:-0.835132 16:-0.672671 17:-0.694411 18:-0.368463 19:-0.768317 20:0.504318 21:-0.293306 22:0.419455 23:-0.367254 24:0.800098 25:-0.444542 26:0.512786 27:0.0917478 28:0.167448 29:-0.539143 30:0.120254 31:-0.00245339 32:0.775296 33:-0.1372 34:0.258103 35:-0.717632 36:-0.227783 37:0.154155 38:-0.714839 39:-0.0880964 40:0.481764 41:0.177918 
0.1087919936385363 1:-0.59988 2:-0.552011 3:-0.341843 4:-0.111881 5:-0.283208 6:-0.726516 7:0.393049 8:0.472277 9:0.250724 10:0.428762 11:0.438632 12:0.179646 13:-0.894541 14:-0.514941 15:-0.573021 16:-0.423163 17:-0.64766 18:-0.167695 19:-0.390337 20:0.23846 21:-0.228406 22:0.280126 23:-0.23513 24:-0.094813 25:-0.166101 26:0.512315 27:0.0451606 28:-0.306112 29:0.315844 30:-0.231911 31:0.102217 32:0.293011 33:-0.292759 34:-0.391139 35:-0.743918 36:-0.332431 37:0.0522778 38:-0.783914 39:-0.00281201 40:0.149171 41:-0.086679 
0.6617451753581773 1:-0.626336 2:-0.520643 3:-0.439813 4:0.0754466 5:-0.185427 6:-0.688434 7:0.497293 8:0.412514 9:0.449897 10:0.326215 11:0.279955 12:0.121836 13:-0.789211 14:-0.34065 15:-0.681324 16:-0.430331 17:-0.680517 18:0.489452 19:-0.700005 20:0.488224 21:-0.750927 22:0.236875 23:-0.686561 24:-0.547744 25:-0.392239 26:0.515395 27:-0.073932 28:-0.0100058 29:-0.0388748 30:0.117516 31:0.0376914 32:0.458413 33:-0.0018005 34:-0.242591 35:-0.713991 36:-0.288338 37:0.0616094 38:-0.747686 39:0.026963 40:0.226223 41:-0.16721 
0.1982200577928568 1:-0.576023 2:-0.173255 3:-0.284225 4:-0.538039 5:0.254306 6:-0.755251 7:0.205565 8:-0.0794723 9:0.123175 10:0.694999 11:-0.306854 12:0.150512 13:-0.574249 14:-0.699652 15:-0.575986 16:-0.694304 17:-0.470825 18:-0.748563 19:0.101196 20:-0.179547 21:0.0557836 22:-0.104362 23:0.1521 24:-0.00145851 25:0.0300242 26:0.105788 27:0.182955 28:-0.162756 29:0.346418 30:-0.0691314 31:0.149633 32:-0.353231 33:-0.627954 34:0.138461 35:-0.80656 36:-0.65292 37:0.300585 38:-0.772403 39:0.0398905 40:0.0777086 41:-0.141922 
0.6394707473349959 1:-0.648988 2:-0.352977 3:-0.407424 4:-0.409463 5:-0.429411 6:-0.587835 7:0.500457 8:0.20484 9:0.355529 10:0.579312 11:0.53884 12:-0.191462 13:-0.72833 14:-0.468454 15:-0.617272 16:-0.415098 17:-0.539604 18:-0.649781 19:-0.550677 20:-0.656255 21:-0.17188 22:-0.749185 23:-0.433999 24:-0.567989 25:-0.321338 26:-0.220161 27:-0.00628878 28:-0.249513 29:0.0573907 30:-0.293527 31:0.350194 32:0.108054 33:-0.635657 34:-0.547425 35:-0.57324 36:-0.483502 37:-0.0134938 38:-0.710706 39:0.0230676 40:-0.117205 41:0.0565457 
0.08618307912054282 1:-0.625905 2:-0.355852 3:-0.369989 4:-0.427973 5:-0.35645 6:-0.617077 7:0.46017 8:0.207492 9:0.288397 10:0.618558 11:0.477041 12:-0.126267 13:-0.728526 14:-0.458363 15:-0.602352 16:-0.38596 17:-0.536553 18:-0.638791 19:-0.547488 20:-0.647109 21:0.0658045 22:-0.736757 23:-0.344203 24:-0.554275 25:-0.32047 26:-0.217439 27:0.00139023 28:-0.2423 29:0.0618854 30:-0.312721 31:0.381558 32:0.0896788 33:-0.559084 34:-0.500073 35:-0.599644 36:-0.559863 37:0.0392769 38:-0.737236 39:0.0128937 40:-0.114263 41:0.142231 
0.5256096926538711 1:-0.716927 2:-0.0322186 3:-0.235637 4:-0.187176 5:0.449165 6:-0.628674 7:0.626719 8:-0.205564 9:-0.00621403 10:0.446399 11:-0.501691 12:-0.131919 13:-0.72686 14:-0.579011 15:-0.740201 16:-0.138938 17:-0.596912 18:-0.233894 19:-0.354094 20:0.399608 21:-0.330374 22:0.350794 23:-0.251275 24:0.558678 25:-0.123755 26:0.0483306 27:-0.0690638 28:-0.0116984 29:0.0700591 30:-0.0931492 31:0.114384 32:0.51115 33:-0.134356 34:0.4803 35:-0.652884 36:-0.560003 37:0.276553 38:-0.715053 39:-0.157967 40:0.510883 41:0.291812 
0.5438106994907433 1:-0.518365 2:-0.303841 3:-0.231198 4:-0.774586 5:-0.0457498 6:-0.768429 7:0.0137164 8:0.120125 9:-0.0246193 10:0.868272 11:0.150142 12:0.163265 13:-0.576757 14:-0.762976 15:0.0532329 16:-0.419241 17:0.0134448 18:-0.690025 19:0.0373654 20:-0.521647 21:-0.0232796 22:-0.345627 23:0.0839073 24:-0.330916 25:0.0237418 26:-0.514147 27:0.222552 28:-0.369943 29:0.446115 30:-0.245961 31:0.299157 32:-0.0825665 33:-0.811681 34:-0.0454195 35:-0.808732 36:-0.836519 37:0.0862771 38:-0.792687 39:-0.0950113 40:-0.27264 41:-0.402913 
0.2639870122082841 1:-0.611947 2:-0.647579 3:-0.39865 4:-0.435344 5:-0.0441722 6:-0.656784 7:0.402656 8:0.583404 9:0.370519 10:0.619883 11:0.113577 12:-0.0539202 13:-0.611554 14:-0.735946 15:-0.503306 16:-0.366214 17:-0.424718 18:-0.483988 19:0.123086 20:-0.426549 21:0.165156 22:-0.184211 23:0.075881 24:0.0147398 25:-0.0470661 26:0.218871 27:-0.158078 28:0.267929 29:-0.0374581 30:0.420093 31:0.332036 32:0.155011 33:-0.719697 34:-0.0523773 35:-0.707212 36:-0.432107 37:0.0935576 38:-0.709398 39:0.016929 40:-0.0158567 41:0.133445 
0.3523327824659093 1:-0.637042 2:-0.470216 3:-0.217151 4:-0.356406 5:0.420911 6:-0.657256 7:0.474801 8:0.356411 9:-0.0504337 10:0.59712 11:-0.47986 12:-0.0445664 13:-0.781982 14:-0.57442 15:-0.827223 16:-0.584693 17:-0.555816 18:-0.344905 19:-0.0649696 20:-0.247965 21:-0.0454129 22:-0.285772 23:-0.0495648 24:0.230682 25:-0.0613987 26:-0.372907 27:0.066179 28:0.0919515 29:0.23227 30:-0.47504 31:0.330159 32:0.464295 33:-0.536218 34:0.445767 35:-0.692328 36:-0.473519 37:0.261179 38:-0.72517 39:-0.0522983 40:0.357633 41:0.270207 
0.9384484548824962 1:-0.691759 2:-0.57534 3:-0.300173 4:-0.0248787 5:-0.385542 6:-0.65842 7:0.603323 8:0.486817 9:0.141197 10:0.367064 11:0.536712 12:-0.0110019 13:-0.803917 14:-0.390292 15:-0.736861 16:-0.0758945 17:-0.581475 18:-0.188781 19:-0.242116 20:0.136175 21:-0.230512 22:-0.0293478 23:-0.248059 24:0.421333 25:-0.136133 26:-0.241046 27:-0.0121372 28:0.224877 29:-0.0143566 30:0.492011 31:0.276359 32:0.648552 33:-0.145615 34:-0.52984 35:-0.678093 36:-0.329369 37:0.0435783 38:-0.739717 39:-0.0738034 40:0.35406 41:0.250691 
0.09776258827478669 1:-0.506808 2:-0.577061 3:-0.455595 4:0.0583938 5:-0.291306 6:-0.701326 7:0.320109 8:0.465545 9:0.453847 10:0.381653 11:0.378781 12:0.226966 13:-0.629555 14:-0.205293 15:-0.555832 16:-0.00868562 17:-0.533892 18:0.594865 19:-0.560018 20:0.571724 21:-0.442853 22:0.279919 23:-0.171159 24:0.0408305 25:0.0403968 26:0.128065 27:0.301889 28:0.129603 29:0.748195 30:0.112365 31:0.44671 32:0.437524 33:0.017715 34:-0.396682 35:-0.715214 36:-0.338044 37:0.0512451 38:-0.77245 39:0.228424 40:0.299103 41:-0.0195509 
0.7526569946093804 1:-0.503576 2:-0.166872 3:-0.278115 4:-0.490772 5:-0.389791 6:-0.696351 7:0.202895 8:-0.0358082 9:0.0911794 10:0.685154 11:0.545037 12:0.101142 13:-0.804737 14:-0.575388 15:-0.864662 16:-0.50143 17:-0.705573 18:-0.495289 19:-0.286153 20:-0.534573 21:-0.0599365 22:-0.512223 23:-0.00153385 24:-0.711603 25:0.0321981 26:-0.320832 27:0.226968 28:-0.287029 29:0.437631 30:-0.378201 31:0.415777 32:-0.428189 33:-0.504899 34:-0.518992 35:-0.676897 36:-0.676161 37:0.00502709 38:-0.788794 39:-0.0249431 40:-0.187789 41:0.0277939 
0.1075648003877617 1:-0.549499 2:-0.411251 3:-0.0876 4:-0.639421 5:0.264408 6:-0.637927 7:0.297669 8:0.276011 9:-0.334883 10:0.762288 11:-0.266249 12:-0.0787295 13:-0.633319 14:-0.667045 15:-0.473692 16:-0.57726 17:-0.418784 18:-0.656035 19:0.13752 20:-0.598273 21:0.152266 22:-0.557104 23:0.0337483 24:-0.156049 25:-0.115045 26:-0.116014 27:-0.0566342 28:-0.132016 29:0.365371 30:-0.014342 31:0.420405 32:-0.00385389 33:-0.83641 34:0.243013 35:-0.679316 36:-0.629623 37:0.232269 38:-0.70538 39:0.0286397 40:-0.0568947 41:0.174843 
0.3094502501575123 1:-0.80401 2:-0.393892 3:-0.0159435 4:-0.773013 5:-0.135936 6:-0.570962 7:0.596992 8:0.256346 9:-0.52682 10:0.610424 11:0.235305 12:-0.539119 13:-0.691858 14:-0.782629 15:-0.72816 16:-0.799009 17:-0.598543 18:-0.299057 19:-0.556558 20:-0.359606 21:-0.624035 22:-0.546574 23:-0.737434 24:-0.449914 25:-0.468641 26:-0.443323 27:-0.665775 28:-0.408372 29:-0.650334 30:-0.649453 31:-0.364149 32:-0.647701 33:-0.819994 34:-0.116519 35:-0.631 36:-0.824395 37:0.032064 38:-0.631899 39:-0.459702 40:-0.322585 41:-0.144102 
0.6919882860205789 1:-0.508304 2:-0.732872 3:-0.429671 4:0.0838709 5:-0.084281 6:-0.736656 7:0.288416 8:0.66927 9:0.420259 10:0.346523 11:0.153633 12:0.30175 13:-0.917457 14:-0.413242 15:-0.655569 16:-0.396915 17:-0.638599 18:0.515456 19:-0.580969 20:0.621948 21:-0.180254 22:0.333121 23:-0.360865 24:0.0460889 25:-0.158113 26:0.0833618 27:0.348764 28:0.00622116 29:0.205229 30:-0.0224755 31:0.511664 32:0.452307 33:0.0109227 34:-0.176026 35:-0.768219 36:-0.297091 37:0.136997 38:-0.779008 39:0.433971 40:0.332988 41:-0.174367 
0.01743593742028954 1:-0.700948 2:-0.300691 3:-0.261095 4:-0.547446 5:-0.127352 6:-0.602291 7:0.569124 8:0.134629 9:0.052564 10:0.680745 11:0.220132 12:-0.25755 13:-0.855514 14:-0.661178 15:-0.798468 16:-0.610745 17:-0.136153 18:-0.501442 19:0.0451845 20:-0.477778 21:-0.174623 22:-0.472255 23:-0.097098 24:-0.0796112 25:-0.648264 26:0.0683095 27:-0.348952 28:-0.148103 29:-0.166734 30:-0.38947 31:-0.168093 32:-0.0769501 33:-0.756492 34:-0.148248 35:-0.706617 36:-0.530059 37:0.0718557 38:-0.602601 39:-0.0548544 40:-0.0226332 41:-0.0659368 
0.1806994322670142 1:-0.530126 2:-0.316643 3:-0.246737 4:-0.0786753 5:0.692775 6:-0.721822 7:0.300827 8:0.157628 9:0.0190891 10:0.433959 11:-0.795023 12:0.225136 13:-0.800395 14:-0.360982 15:-0.994275 16:-0.200296 17:-0.18042 18:-0.228403 19:-0.12725 20:-0.168403 21:-0.0202536 22:-0.233388 23:-0.0266012 24:-0.722198 25:-0.0141196 26:-0.264421 27:0.279968 28:-0.032572 29:0.308701 30:-0.101508 31:0.377945 32:0.236636 33:-0.178608 34:0.706318 35:-0.739302 36:-0.371844 37:0.400289 38:-0.781457 39:0.00363603 40:0.359851 41:-0.00172982 
0.2422229519821204 1:-0.651605 2:-0.525168 3:-0.380294 4:-0.448956 5:-0.103646 6:-0.653359 7:0.464405 8:0.431685 9:0.338009 10:0.620643 11:0.195812 12:-0.101528 13:-0.650177 14:-0.610232 15:-0.526849 16:-0.601919 17:-0.446755 18:-0.581653 19:0.0331504 20:-0.378771 21:0.050873 22:0.0691261 23:0.0949187 24:0.124022 25:-0.138526 26:-0.0992549 27:-0.259059 28:0.283707 29:-0.0795061 30:0.339409 31:0.344507 32:0.519487 33:-0.647257 34:-0.128211 35:-0.724708 36:-0.49994 37:0.083934 38:-0.683298 39:-0.0445757 40:0.314501 41:0.152239 
0.4376796481731678 1:-0.753923 2:-0.0901687 3:-0.315072 4:0.530057 5:0.561796 6:-0.660046 7:0.7685 8:-0.110448 9:0.165584 10:0.0466073 11:-0.605627 12:0.0713107 13:-0.932578 14:-0.411985 15:-0.909822 16:-0.227766 17:-0.605053 18:0.417227 19:-0.520357 20:0.685252 21:-0.549938 22:0.529899 23:-0.191664 24:0.52007 25:-0.149522 26:0.456711 27:-0.18095 28:-0.0742051 29:-0.0314131 30:-0.0122247 31:0.156877 32:0.777978 33:0.372172 34:0.492069 35:-0.720969 36:0.0287622 37:0.388801 38:-0.697386 39:-0.0266984 40:0.442154 41:0.0383976 
1.003678070119158 1:-0.630584 2:-0.628535 3:-0.449783 4:-0.148761 5:-0.110853 6:-0.736709 7:0.381787 8:0.587638 9:0.529432 10:0.369166 11:0.217974 12:0.14051 13:-0.870299 14:-0.65993 15:-0.601405 16:-0.459595 17:-0.585899 18:0.179701 19:-0.603755 20:0.414632 21:-0.210126 22:-0.725103 23:-0.25624 24:0.535595 25:-0.252069 26:0.392874 27:0.0334395 28:-0.0746755 29:-0.0473796 30:0.0906513 31:-0.0971847 32:-0.308166 33:-0.16441 34:-0.152563 35:-0.784066 36:-0.482753 37:0.0895587 38:-0.7619 39:0.257445 40:0.0406782 41:-0.18597 
0.3655828000686416 1:-0.511632 2:-0.415257 3:-0.338733 4:-0.0115923 5:-0.515189 6:-0.702539 7:0.318535 8:0.278636 9:0.215109 10:0.426247 11:0.648704 12:0.217897 13:-0.67833 14:-0.136151 15:-0.623465 16:0.100117 17:-0.261681 18:0.249065 19:-0.230977 20:0.276591 21:-0.195691 22:0.0322735 23:0.114426 24:0.341855 25:0.137645 26:-0.236711 27:0.431025 28:0.184808 29:0.73164 30:-0.250323 31:0.497584 32:0.385266 33:-0.00649118 34:-0.594154 35:-0.720016 36:-0.417376 37:-0.0591782 38:-0.771005 39:0.142986 40:0.296489 41:-0.0205921 
0.1823096241655194 1:-0.538217 2:-0.391326 3:-0.23977 4:-0.68409 5:0.203226 6:-0.771224 7:0.0733604 8:0.258831 9:-0.000475577 10:0.809675 11:-0.235752 12:0.182547 13:-0.63944 14:-0.791086 15:-0.0102027 16:-0.425802 17:-0.077098 18:-0.24622 19:0.0198971 20:-0.256364 21:0.0230799 22:-0.101863 23:0.0793395 24:-0.258542 25:0.0182036 26:-0.575935 27:0.193347 28:-0.528401 29:0.41745 30:-0.435012 31:0.371628 32:0.0542291 33:-0.750445 34:0.135851 35:-0.820562 36:-0.757506 37:0.240642 38:-0.784072 39:0.00840562 40:-0.0939331 41:-0.385494 
0.4928504033956478 1:-0.62525 2:-0.574956 3:-0.328102 4:-0.0819929 5:-0.437844 6:-0.636063 7:0.516566 8:0.467527 9:0.191568 10:0.446968 11:0.55586 12:-0.000808891 13:-0.803567 14:-0.418336 15:-0.798442 16:-0.237027 17:-0.725308 18:-0.276291 19:-0.403289 20:0.254351 21:-0.536844 22:0.118526 23:-0.637957 24:-0.637549 25:-0.184909 26:-0.267256 27:-0.0789397 28:-0.221072 29:0.0964915 30:-0.250549 31:0.239856 32:0.309157 33:-0.324737 34:-0.500403 35:-0.672898 36:-0.255504 37:-0.0375723 38:-0.703181 39:-0.0538159 40:0.0819752 41:-0.0939944 
0.1312851805797892 1:-0.532912 2:-0.436187 3:-0.334946 4:-0.193488 5:-0.441692 6:-0.71697 7:0.285802 8:0.309582 9:0.221479 10:0.500153 11:0.609264 12:0.18891 13:-0.780382 14:-0.266041 15:-0.89875 16:-0.201749 17:-0.45482 18:-0.02466 19:-0.387154 20:0.0664322 21:-0.14839 22:0.0552696 23:-0.0364229 24:0.198459 25:-0.10144 26:-0.468261 27:0.327268 28:0.258273 29:0.0796837 30:-0.25898 31:0.508657 32:-0.040327 33:-0.13089 34:-0.54283 35:-0.720643 36:-0.552102 37:-0.0265557 38:-0.788034 39:0.164181 40:0.089008 41:-0.0220627 
0.1966174565064787 1:-0.590398 2:-0.565703 3:-0.201982 4:-0.397895 5:0.46207 6:-0.771411 7:0.226416 8:0.528151 9:-0.104826 10:0.556614 11:-0.621606 12:0.202659 13:-0.793598 14:-0.680259 15:-0.599017 16:-0.13639 17:-0.259471 18:-0.0035816 19:-0.102289 20:0.0033637 21:-0.0975992 22:-0.0351285 23:0.108714 24:-0.345072 25:0.0203436 26:-0.297684 27:0.261311 28:-0.286899 29:0.493208 30:-0.421845 31:0.294984 32:-0.416485 33:-0.35017 34:0.370936 35:-0.812382 36:-0.685915 37:0.366089 38:-0.79391 39:-0.121132 40:-0.0361301 41:-0.0898895 
0.6305276291435462 1:-0.508805 2:-0.335263 3:-0.204158 4:-0.311189 5:0.729123 6:-0.701884 7:0.235088 8:0.181485 9:-0.0759043 10:0.560565 11:-0.831777 12:0.142625 13:-0.826354 14:-0.623989 15:-0.779426 16:-0.16241 17:-0.592749 18:-0.343889 19:-0.098945 20:-0.252599 21:-0.221897 22:-0.339457 23:-0.0980923 24:-0.429673 25:-0.635388 26:-0.576498 27:0.0763158 28:-0.48289 29:0.292639 30:-0.373962 31:0.440207 32:-0.518615 33:-0.227174 34:0.673492 35:-0.719153 36:-0.646193 37:0.463164 38:-0.766491 39:0.091022 40:-0.0724689 41:-0.08 
0.2421257291512641 1:-0.806647 2:-0.133946 3:-0.347581 4:0.542905 5:0.567141 6:-0.629117 7:0.848519 8:-0.052805 9:0.231301 10:0.0207091 11:-0.601305 12:-0.0267842 13:-0.853373 14:-0.440013 15:-0.877893 16:-0.248657 17:-0.650469 18:0.32712 19:-0.586908 20:0.620395 21:-0.524195 22:0.575536 23:-0.529862 24:0.538136 25:-0.555793 26:0.0197315 27:-0.20106 28:0.0888635 29:-0.345278 30:0.180706 31:0.0944038 32:0.814985 33:0.277205 34:0.469875 35:-0.683755 36:0.131871 37:0.414769 38:-0.683058 39:-0.0468101 40:0.513436 41:0.0304326 
0.08544728514361336 1:-0.565399 2:-0.180475 3:-0.315458 4:-0.65142 5:0.219052 6:-0.723266 7:0.20546 8:-0.0544752 9:0.2006 10:0.775081 11:-0.24349 12:0.0557297 13:-0.63432 14:-0.703211 15:-0.687277 16:-0.678051 17:-0.145075 18:-0.724187 19:0.0351666 20:-0.162707 21:0.0213078 22:-0.0954478 23:0.0705562 24:-0.0583228 25:-0.0676111 26:0.180516 27:0.0725624 28:-0.149558 29:0.141428 30:-0.526794 31:0.228236 32:-0.358698 33:-0.71914 34:0.130258 35:-0.766147 36:-0.738043 37:0.263378 38:-0.759808 39:-0.0840332 40:0.191261 41:-0.124014 
0.5532229999728642 1:-0.654646 2:-0.688725 3:-0.416155 4:0.0321424 5:-0.229559 6:-0.723309 7:0.479582 8:0.655253 9:0.428845 10:0.275728 11:0.364727 12:0.143067 13:-0.907124 14:-0.419379 15:-0.618097 16:0.0473203 17:-0.501684 18:0.471543 19:-0.401798 20:0.541408 21:-0.300204 22:-0.625301 23:-0.163157 24:0.492006 25:-0.187573 26:0.255422 27:-0.236239 28:-0.316781 29:0.0478131 30:-0.176063 31:-0.215254 32:0.289281 33:0.0104335 34:-0.222356 35:-0.804192 36:-0.390771 37:0.00644577 38:-0.712618 39:-0.230901 40:0.174838 41:-0.244183 
0.4569327298836237 1:-0.602123 2:-0.119282 3:-0.269951 4:-0.361832 5:0.353537 6:-0.670677 7:0.41139 8:-0.103421 9:0.0735434 10:0.612103 11:-0.392312 12:0.0113291 13:-0.759998 14:-0.675221 15:-0.766154 16:-0.196309 17:-0.401089 18:-0.36845 19:-0.0917903 20:0.229811 21:-0.0522178 22:0.200811 23:-0.0625822 24:0.241353 25:0.00109811 26:-0.0547531 27:0.097504 28:-0.172647 29:0.247886 30:0.228893 31:0.343085 32:0.200148 33:-0.378142 34:0.396899 35:-0.702283 36:-0.61193 37:0.224871 38:-0.737277 39:0.0278179 40:0.354017 41:0.289955 
0.4239528194188901 1:-0.872044 2:-0.366549 3:-0.253858 4:-0.898792 5:-0.0157197 6:-0.655689 7:0.686935 8:0.218757 9:0.0420911 10:0.728331 11:0.120192 12:-0.62604 13:-0.681465 14:-0.719955 15:-0.69732 16:-0.88165 17:-0.657137 18:-0.687423 19:-0.560614 20:-0.516498 21:-0.463174 22:-0.698803 23:-0.558466 24:-0.729533 25:-0.478233 26:-0.622903 27:-0.728747 28:-0.700139 29:-0.652971 30:-0.683101 31:-0.289181 32:-0.783783 33:-0.910747 34:-0.0593211 35:-0.712926 36:-0.929333 37:0.129491 38:-0.695447 39:-0.395347 40:-0.566151 41:-0.151627 
0.0715818479715402 1:-0.539516 2:-0.554433 3:-0.51297 4:0.0386219 5:-0.363854 6:-0.69107 7:0.338913 8:0.438215 9:0.570674 10:0.338281 11:0.458722 12:0.161558 13:-0.882379 14:-0.425361 15:-0.591088 16:0.0523919 17:-0.566963 18:0.39031 19:-1 20:-1 21:-0.225347 22:0.353442 23:-0.520042 24:0.458327 25:-0.330639 26:-0.10095 27:-0.444922 28:-0.717917 29:0.28017 30:-0.131716 31:-0.109991 32:-0.0618187 33:0.14 34:-0.330349 35:-0.772849 36:-0.515678 37:-0.0702831 38:-0.685851 39:0.0673122 40:0.176998 41:-0.290762 
0.6626422580951392 1:-0.809916 2:-0.484245 3:-0.0788576 4:0.310791 5:0.0764161 6:-0.725914 7:0.793446 8:0.391724 9:-0.419872 10:-0.000756096 11:-0.0384404 12:0.0798671 13:-0.676454 14:-0.482736 15:-0.67376 16:-0.720292 17:-0.677851 18:0.248111 19:-0.695785 20:0.528799 21:-0.636094 22:0.611606 23:-0.110643 24:0.565724 25:-0.468701 26:0.63726 27:-0.216031 28:0.327027 29:-0.585872 30:0.430231 31:-0.418085 32:0.489692 33:0.102847 34:0.128205 35:-0.774598 36:-0.0531195 37:0.0940902 38:-0.754583 39:-0.171365 40:0.208699 41:-0.0103689 
0.2041032321388496 1:-0.609551 2:-0.127212 3:-0.328479 4:-0.293035 5:-0.253819 6:-0.632117 7:0.46891 8:-0.0705221 9:0.197039 10:0.576984 11:0.353419 12:-0.0422998 13:-0.612378 14:-0.771705 15:-0.516654 16:-0.208482 17:-0.473427 18:-0.307706 19:-0.0866919 20:-0.0304312 21:-0.0621297 22:-0.0922636 23:-0.0973911 24:-0.0195088 25:-0.0951592 26:-0.127317 27:0.0871052 28:-0.498596 29:0.297211 30:-0.405255 31:0.39601 32:0.472124 33:-0.505512 34:-0.277021 35:-0.675532 36:-0.414026 37:0.0163296 38:-0.699038 39:0.0299405 40:0.193176 41:0.0386379 
0.2294942736066059 1:-0.660291 2:-0.42335 3:-0.272877 4:-0.361656 5:0.571533 6:-0.636906 7:0.507596 8:0.293115 9:0.0790627 10:0.568842 11:-0.657184 12:-0.11106 13:-0.760653 14:-0.410008 15:-0.739094 16:-0.219828 17:-0.460112 18:-0.385251 19:0.020604 20:-0.562804 21:0.026866 22:-0.429878 23:-0.0769404 24:0.355092 25:-0.111455 26:-0.432818 27:-0.0563237 28:-0.471554 29:0.0960254 30:-0.507106 31:0.270427 32:0.202783 33:-0.517029 34:0.589808 35:-0.678667 36:-0.499261 37:0.331211 38:-0.704254 39:-0.102994 40:0.224856 41:0.170769 
0.273322877685004 1:-0.779952 2:-0.540193 3:-0.442958 4:0.207714 5:0.229571 6:-0.643217 7:0.761424 8:0.438778 9:0.460844 10:0.176294 11:-0.226293 12:-0.0681313 13:-0.610421 14:-0.558314 15:-0.592803 16:-0.378194 17:-0.64752 18:-0.313718 19:-0.569061 20:0.518394 21:-0.417856 22:0.467078 23:-0.403282 24:0.508911 25:-0.510824 26:0.570875 27:-0.0923895 28:0.312441 29:-0.670116 30:0.582155 31:0.0510842 32:0.557973 33:-0.0982256 34:0.195189 35:-0.707013 36:-0.0313751 37:0.224336 38:-0.685279 39:-0.115168 40:0.386696 41:0.165365 
0.5197544276330867 1:-0.651795 2:-0.483286 3:-0.257731 4:-0.330268 5:0.529447 6:-0.659606 7:0.48723 8:0.374153 9:0.0451014 10:0.555762 11:-0.62118 12:-0.0545032 13:-0.73272 14:-0.390637 15:-0.769084 16:-0.184387 17:-0.527235 18:-0.418488 19:0.0152027 20:-0.409173 21:-0.0583472 22:-0.374956 23:-0.0150315 24:-0.0152742 25:-0.0955069 26:0.0165657 27:0.0039875 28:0.291578 29:0.0960339 30:-0.54082 31:0.372572 32:0.483152 33:-0.481089 34:0.569676 35:-0.69277 36:-0.484659 37:0.299058 38:-0.727931 39:0.0353919 40:0.319262 41:0.222775 
0.504512598163229 1:-0.615825 2:-0.431735 3:-0.266574 4:-0.535574 5:0.10975 6:-0.742459 7:0.301184 8:0.322268 9:0.0754637 10:0.705907 11:-0.0897879 12:0.0908706 13:-0.66315 14:-0.781358 15:-0.669498 16:-0.807091 17:-0.639921 18:-0.496511 19:-0.0706375 20:-0.13707 21:-0.0134947 22:-0.144892 23:0.0514987 24:-0.232802 25:-0.0131137 26:0.110734 27:0.220623 28:0.323984 29:0.421901 30:-0.405408 31:0.185088 32:0.147909 33:-0.723945 34:0.105084 35:-0.795371 36:-0.558249 37:0.151143 38:-0.761498 39:-0.0504957 40:0.145887 41:-0.157725 
0.7206168241785645 1:-0.837673 2:-0.744413 3:-0.212567 4:0.364513 5:0.115492 6:-0.731174 7:0.858499 8:0.785836 9:-0.0723476 10:-0.060424 11:-0.0955661 12:0.0809338 13:-0.736518 14:-0.509602 15:-0.787379 16:-0.665066 17:-0.667915 18:0.257895 19:-0.454373 20:0.463291 21:-0.320214 22:0.418125 23:-0.235429 24:0.531282 25:-0.241216 26:0.639571 27:-0.27934 28:0.705114 29:-0.154775 30:0.683687 31:-0.0431413 32:0.572622 33:-0.212397 34:0.156041 35:-0.782845 36:0.302812 37:0.119515 38:-0.755086 39:-0.190678 40:0.364687 41:-0.176452 
1.118548133369732 1:-0.487143 2:-0.163357 3:-0.235494 4:-0.221684 5:-0.209073 6:-0.698576 7:0.271957 8:-0.0288326 9:-0.00564527 10:0.589297 11:0.303388 12:0.201608 13:-0.687976 14:-0.584476 15:-0.744 16:-0.387462 17:-0.484406 18:-0.467267 19:0.011893 20:-0.513041 21:0.0791261 22:-0.430179 23:0.205245 24:0.488374 25:0.188979 26:0.673951 27:0.369715 28:-0.0283741 29:0.540556 30:0.781837 31:0.497083 32:0.360945 33:-0.628111 34:-0.355599 35:-0.713549 36:-0.237545 37:0.11212 38:-0.768988 39:0.0421634 40:0.295061 41:0.0560696 
0.4244470933596424 1:-0.580552 2:-0.592798 3:-0.474892 4:-0.0775897 5:-0.236286 6:-0.747183 7:0.302327 8:0.523269 9:0.566428 10:0.333418 11:0.370277 12:0.214039 13:-0.873517 14:-0.413742 15:-0.602346 16:-0.0987466 17:-0.548658 18:0.380369 19:-0.689034 20:-0.0272312 21:-0.256251 22:-0.110004 23:-0.50952 24:0.456547 25:-0.327622 26:0.250723 27:0.160294 28:0.0652641 29:-0.0732308 30:-0.876077 31:-0.144356 32:-0.0578818 33:0.00922424 34:-0.260143 35:-0.792952 36:-0.53922 37:0.0261143 38:-0.770067 39:0.143071 40:0.00146904 41:-0.264805 
0.4800530509381513 1:-0.796939 2:-0.19853 3:-0.0675991 4:0.242592 5:-0.0359428 6:-0.648872 7:0.796501 8:0.00524397 9:-0.391502 10:0.146643 11:0.101919 12:-0.0641289 13:-0.608059 14:-0.601582 15:-0.517522 16:-0.492331 17:-0.508785 18:-0.305853 19:-0.469237 20:0.549313 21:-0.417086 22:0.361749 23:-0.266139 24:0.572923 25:-0.623607 26:0.691754 27:-0.710202 28:0.57915 29:-0.63204 30:0.59906 31:0.0376343 32:0.608161 33:-0.110236 34:-0.0552416 35:-0.685464 36:0.0147243 37:0.10507 38:-0.717986 39:-0.182623 40:0.306013 41:0.186085 
0.5881305716758392 1:-0.777528 2:-0.476746 3:-0.286633 4:-0.512095 5:0.199123 6:-0.656744 7:0.650774 8:0.386484 9:0.127523 10:0.595787 11:-0.219756 12:-0.271544 13:-0.774262 14:-0.356461 15:-0.461042 16:-0.441507 17:-0.317134 18:-0.331752 19:-0.0425258 20:-0.206696 21:-0.0576561 22:-0.0945272 23:-0.310962 24:-0.263691 25:-0.284116 26:-0.265563 27:-0.194169 28:-0.391482 29:-0.220527 30:-0.405117 31:0.254961 32:0.326623 33:-0.543179 34:0.224777 35:-0.722718 36:-0.686787 37:0.170317 38:-0.690278 39:-0.0861645 40:0.123694 41:-0.269288 
0.8865655528562955 1:-0.452514 2:-0.469454 3:-0.315081 4:-0.535465 5:0.229584 6:-0.682392 7:0.172305 8:0.347386 9:0.169931 10:0.769196 11:-0.222644 12:0.122971 13:-0.791162 14:-0.210214 15:-0.653479 16:-0.364759 17:0.0661502 18:-0.627873 19:0.258594 20:-0.321822 21:0.348395 22:-0.428833 23:0.0531314 24:-0.475895 25:0.0537936 26:-0.425652 27:-0.0251806 28:-0.501723 29:0.152049 30:-0.606343 31:0.167408 32:-0.0249641 33:-0.51581 34:0.290678 35:-0.741169 36:-0.737963 37:0.161128 38:-0.713755 39:0.0775647 40:-0.0586543 41:-0.213829 
0.2766292104810201 1:-0.623285 2:-0.16012 3:-0.185582 4:-0.172404 5:0.631226 6:-0.701692 7:0.42073 8:-0.0541621 9:-0.126362 10:0.43493 11:-0.757776 12:0.0812841 13:-0.912426 14:-0.551915 15:-0.829266 16:-0.502881 17:-0.568913 18:-0.4467 19:-0.045277 20:-0.494846 21:-0.0356801 22:-0.519915 23:-0.102131 24:-0.189538 25:0.00352116 26:0.00143991 27:0.132785 28:-0.351782 29:0.0876599 30:-0.27017 31:-0.107332 32:0.0142278 33:-0.447598 34:0.585268 35:-0.727026 36:-0.295308 37:0.413233 38:-0.759257 39:-0.184843 40:0.033082 41:-0.0321346 
0.2208281730291049 1:-0.722014 2:-0.244649 3:-0.483706 4:-0.7225 5:-0.285771 6:-0.628374 7:0.443996 8:0.0541834 9:0.596601 10:0.616775 11:0.442457 12:-0.34902 13:-0.591139 14:-0.527142 15:-0.714931 16:-0.587068 17:-0.605157 18:-0.539779 19:-0.604417 20:-0.492833 21:-0.563649 22:-0.439959 23:-0.46224 24:-0.295261 25:-0.479749 26:-0.523215 27:-0.532223 28:-0.459336 29:-0.519364 30:-0.587112 31:-0.00803851 32:-0.683207 33:-0.768133 34:-0.289022 35:-0.714953 36:-0.79505 37:-0.0100886 38:-0.641765 39:-0.164604 40:-0.385223 41:-0.0730051 
0.9082363697928275 1:-0.545552 2:-0.0792802 3:-0.281286 4:-0.458616 5:0.191536 6:-0.752508 7:0.191223 8:-0.202116 9:0.110129 10:0.655017 11:-0.203361 12:0.195386 13:-0.641236 14:-0.548037 15:0.0451338 16:-0.246977 17:0.00843753 18:-0.724167 19:0.00397406 20:-0.17142 21:0.0316325 22:0.661004 23:0.00782743 24:-0.205172 25:-0.102198 26:-0.186772 27:0.108175 28:0.167391 29:0.330317 30:0.0489635 31:0.297082 32:0.125087 33:-0.534206 34:0.0967008 35:-0.805703 36:-0.618875 37:0.257347 38:-0.767704 39:-0.112285 40:0.49093 41:-0.391537 
0.4851429009998461 1:-0.697201 2:-0.43811 3:-0.407461 4:-0.46913 5:-0.183998 6:-0.58913 7:0.562613 8:0.30875 9:0.373897 10:0.603026 11:0.274862 12:-0.254719 13:-0.691288 14:-0.751936 15:-0.567878 16:-0.54112 17:-0.586973 18:-0.639211 19:-0.0773676 20:-0.439408 21:-0.0896166 22:-0.0232026 23:0.0146524 24:0.171832 25:-0.219416 26:0.0508103 27:-0.352578 28:-0.128286 29:-0.196287 30:0.39649 31:0.330357 32:0.199642 33:-0.698335 34:-0.177291 35:-0.649845 36:-0.491336 37:0.0245784 38:-0.652501 39:0.0445028 40:0.137124 41:0.141906 
0.484428411237049 1:-0.829052 2:-0.429794 3:0.0148423 4:-0.721426 5:-0.207613 6:-0.593942 7:0.600662 8:0.306655 9:-0.622027 10:0.51867 11:0.340959 12:-0.542617 13:-0.66158 14:-0.787358 15:-0.672652 16:-0.867536 17:-0.564412 18:-0.320368 19:-0.6425 20:-0.297937 21:-0.84979 22:-0.646684 23:-0.71887 24:-0.547082 25:-0.445955 26:-0.485795 27:-0.684644 28:-0.448795 29:-0.679083 30:-0.663047 31:-0.641829 32:-0.461206 33:-0.78598 34:-0.179913 35:-0.63586 36:-0.778961 37:-0.00537473 38:-0.664326 39:-0.462793 40:-0.303748 41:-0.14521 
0.7396523586375097 1:-0.67815 2:-0.529934 3:-0.543507 4:0.484551 5:-0.0675601 6:-0.680325 7:0.604351 8:0.410061 9:0.634623 10:0.0597475 11:0.124346 12:0.135352 13:-0.59068 14:-0.60759 15:-0.551283 16:-0.416523 17:-0.537019 18:-0.22703 19:-0.620722 20:0.567714 21:-0.657675 22:0.527063 23:-0.55705 24:0.488805 25:-0.522692 26:0.739304 27:-0.29722 28:0.778989 29:-0.106693 30:0.964033 31:-0.0146702 32:0.681966 33:-0.0467883 34:-0.108229 35:-0.695351 36:0.289006 37:0.104661 38:-0.755562 39:-0.145459 40:0.364244 41:0.0189568 
1.067798662996887 1:-0.918452 2:-0.317599 3:-0.258493 4:-0.824233 5:0.10426 6:-0.79134 7:0.739269 8:0.0817742 9:0.0780588 10:0.627078 11:-0.112867 12:-0.514307 13:-0.767454 14:-0.808462 15:-0.441763 16:-0.74299 17:-0.540762 18:-0.738966 19:-0.863929 20:-0.830329 21:-0.563057 22:-0.715628 23:-0.608279 24:-0.575667 25:-0.676839 26:-0.746774 27:-0.787916 28:-0.407538 29:-0.656531 30:-0.35996 31:-0.281051 32:-0.478567 33:-0.958254 34:0.0321713 35:-0.822575 36:-0.793639 37:0.200164 38:-0.814512 39:-0.473696 40:-0.506805 41:-0.630286 
0.7062969823708267 1:-0.584419 2:-0.762399 3:-0.300676 4:-0.40756 5:-0.0407821 6:-0.755691 7:0.243655 8:0.813815 9:0.164282 10:0.580168 11:0.133174 12:0.171296 13:-0.600447 14:-0.769084 15:-0.72805 16:-0.810191 17:-0.271298 18:0.0275215 19:-0.238155 20:0.0686168 21:-0.0674942 22:0.125718 23:0.0390767 24:0.00368837 25:-0.0640083 26:0.0561988 27:0.137345 28:0.0286712 29:0.329888 30:0.140166 31:0.358738 32:0.0174447 33:-0.518299 34:-0.0567201 35:-0.813022 36:-0.556944 37:0.10068 38:-0.7643 39:-0.0596258 40:-0.0588305 41:-0.214563 
0.9099193578025608 1:-0.492633 2:-0.36276 3:-0.557287 4:0.183392 5:0.664569 6:-0.663744 7:0.329424 8:0.217174 9:0.59944 10:0.300058 11:-0.637506 12:0.168982 13:-0.62798 14:-0.183064 15:-0.68744 16:-0.0990248 17:-0.575937 18:-0.0922712 19:-0.559908 20:0.493371 21:-0.534417 22:0.620184 23:-0.381651 24:0.554598 25:-0.284085 26:0.394039 27:-0.20326 28:0.0928155 29:0.301556 30:-0.0448075 31:0.153503 32:0.187923 33:0.329267 34:0.6637 35:-0.675832 36:-0.398852 37:0.396277 38:-0.747441 39:0.351316 40:0.257408 41:0.166206 
1.04070431150894 1:-0.708743 2:-0.56995 3:-0.362682 4:-0.0505701 5:-0.426188 6:-0.746071 7:0.512644 8:0.523459 9:0.329378 10:0.24098 11:0.693924 12:0.110206 13:-0.869989 14:-0.285592 15:-0.742318 16:0.0462995 17:-0.49264 18:0.336303 19:-0.423973 20:0.271035 21:-0.251776 22:-0.640122 23:-0.173447 24:0.191823 25:-0.377229 26:-0.146892 27:-0.202612 28:-0.376464 29:-0.00727846 30:-0.205679 31:-0.590281 32:-0.601264 33:0.033613 34:-0.394102 35:-0.800741 36:-0.494963 37:-0.1019 38:-0.759259 39:-0.253619 40:0.169923 41:-0.36279 
0.1655606395728317 1:-0.634925 2:-0.383881 3:-0.222102 4:-0.305996 5:0.605696 6:-0.732861 7:0.372028 8:0.245114 9:-0.0452597 10:0.48962 11:-0.794095 12:0.0964703 13:-0.778353 14:-0.324357 15:-0.834776 16:-0.0631834 17:-0.168878 18:-0.0904757 19:-0.153874 20:-0.0275274 21:-0.080541 22:-0.118079 23:0.00507835 24:0.191697 25:-0.22746 26:-0.550469 27:0.0680617 28:0.189282 29:-0.0208833 30:-0.540952 31:0.11872 32:-0.385882 33:-0.265133 34:0.55167 35:-0.780373 36:-0.633193 37:0.394188 38:-0.760508 39:-0.23947 40:0.16541 41:-0.0580764 
0.4731764037615289 1:-0.806287 2:-0.640704 3:-0.230339 4:-0.186796 5:-0.280312 6:-0.661748 7:0.738804 8:0.615288 9:-0.0230812 10:0.347247 11:0.463569 12:-0.190337 13:-0.721093 14:-0.289889 15:-0.625536 16:-0.137119 17:-0.760809 18:-0.102422 19:-0.413208 20:0.0080877 21:-0.22247 22:-0.084597 23:-0.305727 24:0.112785 25:-0.0902167 26:0.303986 27:-0.337303 28:0.213062 29:-0.205309 30:0.276018 31:0.0295363 32:0.22836 33:-0.363105 34:-0.335446 35:-0.703652 36:-0.378316 37:0.0257596 38:-0.71843 39:-0.128033 40:-0.00321683 41:-0.0194619 
1.043712691703526 1:-0.525957 2:-0.101173 3:-0.264721 4:-0.160405 5:-0.453977 6:-0.704615 7:0.301085 8:-0.109069 9:0.0590554 10:0.494089 11:0.604146 12:0.178757 13:-0.788113 14:-0.471466 15:-0.70508 16:-0.33401 17:-0.607021 18:-0.471688 19:-0.165656 20:-0.512655 21:-0.0484837 22:-0.397126 23:0.0760136 24:0.581165 25:0.0902018 26:0.0708724 27:0.236709 28:0.575881 29:0.408567 30:0.725173 31:0.305509 32:0.385427 33:-0.474772 34:-0.508716 35:-0.712247 36:-0.2669 37:-0.0559417 38:-0.77865 39:-0.0746549 40:0.353518 41:0.0659256 
0.2737734402942764 1:-0.668961 2:-0.584454 3:-0.334981 4:-0.071737 5:-0.353839 6:-0.714328 7:0.505494 8:0.522487 9:0.238534 10:0.353904 11:0.544245 12:0.0952442 13:-0.842892 14:-0.39809 15:-0.741574 16:-0.0155872 17:-0.507952 18:0.231025 19:-0.365409 20:0.378245 21:-0.188357 22:0.0642624 23:-0.457561 24:-0.0842451 25:0.0569236 26:-0.108677 27:-0.117321 28:-0.245524 29:0.06397 30:-0.239131 31:-0.27907 32:0.297152 33:-0.10643 34:-0.339191 35:-0.788186 36:-0.430084 37:-0.0515302 38:-0.714749 39:0.104645 40:0.16674 41:-0.279963 
0.2492611609329073 1:-0.668766 2:-0.161189 3:-0.203737 4:-0.373669 5:0.465703 6:-0.659109 7:0.500106 8:-0.0560434 9:-0.0843635 10:0.567092 11:-0.549171 12:-0.087801 13:-0.697337 14:-0.18758 15:-0.702292 16:-0.243298 17:-0.653057 18:-0.406929 19:-0.335287 20:-0.0130748 21:-0.367584 22:-0.0700524 23:-0.146847 24:-0.272469 25:-0.0909067 26:-0.0502807 27:0.07034 28:-0.362128 29:0.171597 30:-0.0712742 31:-0.00525644 32:0.0572081 33:-0.265025 34:0.561892 35:-0.646443 36:-0.695471 37:0.254403 38:-0.762797 39:-0.163457 40:-0.0303815 41:0.128649 
0.1794797793000066 1:-0.60598 2:-0.31461 3:-0.264407 4:-0.628492 5:0.429835 6:-0.65508 7:0.361611 8:0.150542 9:0.0615686 10:0.752021 11:-0.500532 12:-0.102543 13:-0.716967 14:-0.730534 15:-0.758345 16:-0.524804 17:0.0488079 18:-0.559776 19:0.036639 20:-0.61539 21:-0.0188943 22:-0.356147 23:0.0197901 24:-0.222187 25:-0.0265857 26:-0.44215 27:0.0559743 28:-0.531925 29:0.188525 30:-0.657138 31:0.316057 32:-0.0585715 33:-0.696748 34:0.388485 35:-0.703055 36:-0.725682 37:0.313389 38:-0.71037 39:0.0404745 40:-0.250137 41:0.0838935 
0.1979899291940896 1:-0.644031 2:-0.696037 3:-0.0572163 4:-0.417074 5:0.111051 6:-0.69147 7:0.390714 8:0.67644 9:-0.450832 10:0.544655 11:-0.0852364 12:-0.0359654 13:-0.696035 14:-0.680178 15:-0.504853 16:-0.540467 17:-0.446457 18:-0.613026 19:0.0822834 20:-0.449479 21:0.11181 22:-0.364948 23:0.000616333 24:0.0372282 25:-0.413666 26:0.245845 27:-0.33508 28:0.421143 29:-0.344842 30:0.376305 31:-0.159643 32:0.17456 33:-0.708376 34:0.0337366 35:-0.738407 36:-0.410016 37:0.20996 38:-0.734295 39:-0.12072 40:-0.00596694 41:-0.0899518 
0.3094251185657532 1:-0.53676 2:-0.151338 3:-0.261469 4:-0.186841 5:-0.543453 6:-0.678195 7:0.334054 8:-0.0382718 9:0.0507621 10:0.50742 11:0.689021 12:0.112399 13:-0.780337 14:-0.182521 15:-0.755151 16:-0.277951 17:-0.0335904 18:-0.385798 19:0.0329655 20:-0.354563 21:0.182389 22:-0.313063 23:-0.0454284 24:0.0254916 25:-0.132726 26:0.0771152 27:-0.0578194 28:-0.387361 29:0.0424316 30:-0.376407 31:0.0890903 32:0.128804 33:-0.400667 34:-0.514884 35:-0.742543 36:-0.342555 37:-0.143433 38:-0.705712 39:0.0332607 40:-0.0240616 41:-0.0373853 
0.5150621744249296 1:-0.700813 2:-0.467445 3:-0.23933 4:-0.383027 5:0.506306 6:-0.669394 7:0.534516 8:0.36191 9:0.00057318 10:0.546824 11:-0.628567 12:-0.111073 13:-0.662308 14:-0.530068 15:-0.581101 16:-0.258897 17:-0.0655545 18:-0.193045 19:0.0233905 20:-0.218613 21:0.00862287 22:-0.200737 23:0.0453144 24:0.163155 25:-0.0211216 26:-0.481794 27:0.0260989 28:-0.0658722 29:-0.0467871 30:0.268263 31:0.129916 32:0.101477 33:-0.500262 34:0.476904 35:-0.715302 36:-0.542208 37:0.33637 38:-0.722222 39:-0.199054 40:-0.0122628 41:0.00516499 
0.8622613994506708 1:-0.737772 2:-0.387105 3:-0.422854 4:0.403394 5:0.24328 6:-0.664215 7:0.737133 8:0.245762 9:0.406162 10:0.123904 11:-0.238256 12:0.0678259 13:-0.516322 14:-0.598812 15:-0.56655 16:-0.361393 17:-0.606296 18:-0.295332 19:-0.752429 20:0.617945 21:-0.336927 22:0.513517 23:-0.292267 24:0.745912 25:-0.232198 26:0.554543 27:-0.41299 28:0.426396 29:-0.579343 30:0.613794 31:0.196953 32:0.800313 33:0.00264557 34:0.209207 35:-0.737579 36:0.16888 37:0.229235 38:-0.687611 39:0.176567 40:0.618247 41:0.0283324 
0.09346092302412025 1:-0.686835 2:-0.628139 3:-0.366845 4:0.0203703 5:-0.25824 6:-0.721971 7:0.543719 8:0.586057 9:0.320175 10:0.281315 11:0.418479 12:0.11774 13:-0.826851 14:-0.431092 15:-0.630385 16:-0.0683262 17:-0.644392 18:0.429855 19:-0.57683 20:0.474514 21:-0.28311 22:0.322649 23:-0.533362 24:-0.359487 25:-0.304608 26:-0.0377333 27:0.0782276 28:-0.0235247 29:-0.162674 30:-0.160647 31:-0.0700342 32:0.16308 33:-0.123355 34:-0.268523 35:-0.7765 36:-0.274973 37:0.00548253 38:-0.743963 39:-0.0385892 40:0.0729372 41:-0.302007 
0.3561269425380343 1:-0.618127 2:-0.193422 3:-0.28786 4:-0.434105 5:-0.296271 6:-0.622309 7:0.458841 8:0.00659745 9:0.110033 10:0.647671 11:0.410803 12:-0.105303 13:-0.679117 14:-0.533753 15:-0.594205 16:-0.371649 17:-0.491384 18:-0.484371 19:-0.0117214 20:-0.243397 21:0.0301062 22:-0.138492 23:-0.0629229 24:-0.0463983 25:-0.0247806 26:-0.449452 27:0.122517 28:-0.425607 29:0.329559 30:-0.422121 31:0.397607 32:0.515711 33:-0.569397 34:-0.374983 35:-0.669889 36:-0.556577 37:0.0431494 38:-0.689454 39:0.0839428 40:0.396075 41:0.231612 
0.1168359430222771 1:-0.515229 2:-0.257586 3:-0.154002 4:-0.141606 5:0.748644 6:-0.720547 7:0.251796 8:0.085034 9:-0.187304 10:0.445913 11:-0.853578 12:0.206494 13:-0.798089 14:-0.340836 15:-0.731631 16:-0.205317 17:-0.553403 18:-0.0982343 19:-0.194071 20:-0.0279055 21:-0.0842279 22:-0.0997443 23:-0.038144 24:-0.0264685 25:-0.0204094 26:-0.0776989 27:0.332157 28:-0.305901 29:0.153308 30:-0.49744 31:0.468435 32:-0.0535761 33:-0.187355 34:0.612434 35:-0.766596 36:-0.46208 37:0.516966 38:-0.754669 39:0.113141 40:0.257395 41:0.0281165 
0.9647617873208559 1:-0.500089 2:-0.281229 3:-0.203581 4:-0.00040643 5:0.706845 6:-0.717207 7:0.287873 8:0.117929 9:-0.0739483 10:0.413938 11:-0.778542 12:0.254884 13:-0.753928 14:-0.213638 15:-0.719787 16:0.0949486 17:-0.681214 18:-0.0884198 19:-0.315198 20:0.0423269 21:-0.223888 22:0.0353572 23:0.0112033 24:0.230993 25:0.0484557 26:0.322639 27:0.404422 28:0.611923 29:0.343856 30:-0.436596 31:0.495137 32:-0.0329481 33:-0.00915778 34:0.689393 35:-0.748989 36:-0.403893 37:0.415766 38:-0.767283 39:0.108368 40:0.262935 41:-0.00598373 
0.7508101990808386 1:-0.643697 2:-0.437206 3:-0.255889 4:-0.370105 5:0.575661 6:-0.667895 7:0.45269 8:0.314504 9:0.0410381 10:0.569217 11:-0.68867 12:-0.0474996 13:-0.738629 14:-0.432877 15:-0.75272 16:-0.143975 17:-0.440841 18:-0.364398 19:0.0188835 20:-0.493876 21:0.0541822 22:-0.409945 23:0.00475274 24:0.0582191 25:-0.0292472 26:0.461199 27:0.00922088 28:-0.470373 29:0.153668 30:-0.579955 31:0.276732 32:0.197184 33:-0.444246 34:0.599479 35:-0.700337 36:-0.569957 37:0.334293 38:-0.733488 39:-0.123395 40:0.19524 41:0.180121 
0.89063691616979 1:-0.543503 2:-0.623501 3:-0.29179 4:-0.647532 5:0.233321 6:-0.770685 7:0.0823712 8:0.623718 9:0.146323 10:0.755411 11:-0.279324 12:0.176605 13:-0.665112 14:-0.824229 15:-0.608751 16:-0.789263 17:-0.0999219 18:-0.273476 19:-0.0933964 20:-0.142055 21:0.0125748 22:-0.252247 23:-0.10185 24:-0.234254 25:-0.0219749 26:-0.000201007 27:0.16612 28:-0.516811 29:0.417939 30:-0.321624 31:-0.266594 32:-0.589843 33:-0.69305 34:0.15441 35:-0.78996 36:-0.752987 37:0.261545 38:-0.813664 39:-0.0397239 40:-0.190123 41:-0.284114 
0.05208870344822921 1:-0.616767 2:-0.561086 3:-0.0896421 4:-0.504002 5:0.241493 6:-0.657871 7:0.390984 8:0.476235 9:-0.350978 10:0.654078 11:-0.250344 12:-0.0780106 13:-0.636447 14:-0.480349 15:-0.649361 16:-0.640448 17:-0.420256 18:-0.58689 19:-0.0155507 20:-0.526644 21:0.03232 22:-0.780156 23:-0.168494 24:-0.419718 25:-0.17245 26:-0.0351627 27:-0.029754 28:-0.0190964 29:-0.0291409 30:0.0593801 31:-0.210611 32:0.00400875 33:-0.829219 34:0.229833 35:-0.679741 36:-0.446254 37:0.217111 38:-0.735525 39:-0.213804 40:-0.0175228 41:0.0611333 
0.2077948879395967 1:-0.574144 2:-0.651371 3:-0.0811344 4:-0.333761 5:0.340861 6:-0.652973 7:0.377496 8:0.568655 9:-0.343321 10:0.579165 11:-0.353714 12:0.00266546 13:-0.702544 14:-0.877345 15:-0.599556 16:-0.803346 17:-0.132876 18:-0.362307 19:-0.00369663 20:-0.246755 21:0.0109577 22:-0.226599 23:-0.0982411 24:-0.143365 25:-0.310532 26:-0.122682 27:-0.360922 28:0.167149 29:-0.246389 30:0.0359278 31:0.308854 32:-0.159721 33:-0.493481 34:0.260739 35:-0.722878 36:-0.466583 37:0.307195 38:-0.680881 39:-0.0881524 40:-0.0705812 41:0.0299988 
0.7807520735308183 1:-0.505892 2:-0.300095 3:-0.350228 4:-0.0781376 5:-0.642909 6:-0.69137 7:0.292062 8:0.143183 9:0.235202 10:0.438615 11:0.78044 12:0.174116 13:-0.808804 14:-0.382228 15:-0.608799 16:0.00605786 17:-0.263373 18:-0.00641524 19:-0.263658 20:-0.0345413 21:-0.396917 22:-0.440507 23:0.0958584 24:0.167925 25:0.0347166 26:-0.329296 27:0.334425 28:0.350048 29:0.636105 30:-0.218334 31:0.422129 32:-0.166971 33:0.0485946 34:-0.752364 35:-0.68036 36:-0.514036 37:-0.121 38:-0.779 39:0.0993915 40:0.183615 41:-0.0736525 
0.1942558557091174 1:-0.569684 2:-0.283899 3:-0.414343 4:-0.685865 5:-0.282549 6:-0.626953 7:0.307382 8:0.118264 9:0.390237 10:0.751499 11:0.394749 12:-0.1376 13:-0.697465 14:-0.842178 15:-0.679511 16:-0.721635 17:-0.526952 18:-0.637278 19:0.0248798 20:-0.619623 21:0.128044 22:-0.572205 23:-0.0336936 24:-0.27623 25:-0.148863 26:-0.3973 27:-0.180049 28:-0.499497 29:0.00267862 30:-0.347468 31:0.287886 32:-0.273411 33:-0.760547 34:-0.29076 35:-0.665415 36:-0.751084 37:-0.00664341 38:-0.698739 39:0.00620615 40:-0.24755 41:0.111106 
0.09866217441108593 1:-0.503477 2:-0.39626 3:-0.288338 4:-0.225725 5:-0.55787 6:-0.717779 7:0.231492 8:0.257718 9:0.112545 10:0.515395 11:0.738042 12:0.199187 13:-0.794017 14:-0.309814 15:-0.967396 16:-0.221177 17:-0.310402 18:-0.113234 19:-0.109515 20:-0.00610378 21:-0.134321 22:-0.280593 23:-0.00247115 24:-0.473168 25:0.0697236 26:-0.357843 27:0.318339 28:-0.243861 29:0.538467 30:-0.056455 31:0.380195 32:-0.399805 33:-0.135865 34:-0.6054 35:-0.726261 36:-0.594044 37:-0.109276 38:-0.785433 39:0.0220133 40:0.0470568 41:-0.0424023 
0.7338380034245099 1:-0.598271 2:-0.799596 3:-0.200497 4:-0.263468 5:-0.270334 6:-0.675999 7:0.402504 8:0.77334 9:-0.0866073 10:0.525626 11:0.393548 12:0.0391501 13:-0.749231 14:-0.280659 15:-0.605124 16:-0.464329 17:-0.0207797 18:-0.319869 19:0.216289 20:-0.432967 21:0.0430865 22:-0.412915 23:0.0129616 24:0.130426 25:-0.333957 26:-0.0527566 27:-0.219386 28:-0.162289 29:-0.212133 30:0.223457 31:0.263317 32:-0.0288164 33:-0.404377 34:-0.291922 35:-0.740999 36:-0.447448 37:0.00886908 38:-0.70312 39:-0.0172956 40:0.161299 41:-0.240074 
0.7169285325377713 1:-0.513963 2:-0.514758 3:-0.482382 4:-0.179518 5:-0.346108 6:-0.715443 7:0.235467 8:0.402954 9:0.538394 10:0.447947 11:0.468993 12:0.179719 13:-0.907611 14:-0.424235 15:-0.606591 16:-0.000181621 17:-0.523428 18:0.317368 19:-1 20:-1 21:-0.189493 22:0.22579 23:-0.461383 24:0.36936 25:-0.255566 26:-0.26036 27:-0.199135 28:-0.507372 29:0.327099 30:-0.273973 31:-0.0644025 32:-0.115818 33:-0.161182 34:-0.348403 35:-0.783732 36:-0.545987 37:-0.0328624 38:-0.720835 39:0.0389499 40:0.11594 41:-0.29058 
0.4900618738302885 1:-0.517825 2:-0.334324 3:-0.33658 4:-0.0259886 5:-0.543099 6:-0.67931 7:0.34888 8:0.183445 9:0.205229 10:0.444684 11:0.661365 12:0.168472 13:-0.751755 14:-0.304571 15:-0.558554 16:0.0322067 17:-0.245489 18:-0.0241204 19:-0.187949 20:-0.0105413 21:-0.331485 22:-0.462198 23:0.081028 24:-0.402516 25:0.0711121 26:-0.344574 27:0.347054 28:-0.341107 29:0.615884 30:-0.044969 31:0.419927 32:0.356515 33:-0.0414689 34:-0.694743 35:-0.67517 36:-0.396821 37:-0.0414127 38:-0.768514 39:0.0673017 40:0.271589 41:0.0112344 
0.8080602824612165 1:-0.396875 2:-0.654673 3:-0.418453 4:0.0362242 5:-0.329786 6:-0.7115 7:0.186755 8:0.538103 9:0.357354 10:0.44665 11:0.397824 12:0.315702 13:-0.73335 14:-0.25732 15:-0.627688 16:0.0636156 17:-0.470862 18:0.689026 19:-0.387308 20:0.709681 21:-0.0167858 22:0.506379 23:0.0974829 24:0.534197 25:0.115376 26:0.333382 27:0.333928 28:0.0545183 29:0.789476 30:0.0291974 31:0.576046 32:0.469375 33:0.0353529 34:-0.39333 35:-0.739588 36:-0.390901 37:0.0136852 38:-0.768137 39:0.292284 40:0.411612 41:-0.0935672 
0.8712935443434533 1:-0.548074 2:-0.548686 3:-0.488941 4:0.0937144 5:-0.197403 6:-0.698747 7:0.373565 8:0.435807 9:0.531197 10:0.334409 11:0.277115 12:0.195721 13:-0.729805 14:-0.399635 15:-0.630147 16:-0.155334 17:-0.637999 18:0.579368 19:-0.671477 20:0.475535 21:-0.447777 22:0.314415 23:-0.26572 24:-0.276679 25:-0.0171489 26:0.733154 27:-0.322711 28:-0.0377698 29:-0.129564 30:0.127184 31:-0.000828676 32:0.43639 33:-0.0587967 34:-0.247181 35:-0.749198 36:-0.225863 37:0.0583345 38:-0.733353 39:0.0230116 40:0.28767 41:-0.151956 
1.268782601178455 1:-0.900722 2:-0.224846 3:-0.28827 4:-0.565115 5:-0.253022 6:-0.563033 7:0.828259 8:0.0256865 9:0.121193 10:0.488796 11:0.402399 12:-0.595968 13:-0.792845 14:-0.597831 15:-0.63513 16:-0.562551 17:-0.698243 18:-0.652816 19:-0.775934 20:-0.561146 21:-0.716191 22:-0.504437 23:-0.651651 24:-0.390113 25:-0.685407 26:-0.172128 27:-0.738812 28:-0.416782 29:-0.458283 30:-0.577285 31:-0.149973 32:0.0600227 33:-0.744461 34:-0.273611 35:-0.62002 36:-0.592402 37:0.0121892 38:-0.63195 39:-0.258952 40:-0.10021 41:-0.0448207 
0.9019115889669123 1:-0.948303 2:-0.374734 3:-0.355789 4:-0.856419 5:-0.0406833 6:-0.758801 7:0.75141 8:0.236645 9:0.502173 10:0.515219 11:0.243381 12:-0.690756 13:-0.905386 14:-0.661768 15:-0.781639 16:-0.52308 17:-0.787388 18:-0.675014 19:-0.915653 20:-0.604478 21:-0.810355 22:-0.5139 23:-0.927983 24:-0.828925 25:-1 26:-1 27:-0.872178 28:-0.900838 29:-0.82224 30:-0.553331 31:-0.788769 32:-0.784666 33:-0.864625 34:-0.017919 35:-0.880748 36:-0.911415 37:0.0429892 38:-0.604051 39:-0.695067 40:-0.503345 41:-0.586452 
0.3020563866734008 1:-0.584928 2:-0.315479 3:-0.283498 4:-0.011841 5:0.717089 6:-0.700689 7:0.408068 8:0.156608 9:0.101356 10:0.380002 11:-0.819749 12:0.155187 13:-0.639801 14:-0.33362 15:-0.673815 16:-0.188856 17:-0.467569 18:-0.350367 19:0.0394242 20:-0.483888 21:0.01429 22:-0.350667 23:-0.0367439 24:0.350644 25:-0.0953203 26:0.513586 27:-0.0418779 28:0.469812 29:0.0545814 30:0.0220057 31:0.298935 32:0.00178167 33:-0.281818 34:0.629442 35:-0.746275 36:-0.198711 37:0.47084 38:-0.741838 39:0.046398 40:0.272905 41:0.00962136 
0.4574652894603565 1:-0.483362 2:-0.526155 3:-0.425163 4:-0.0588852 5:-0.30393 6:-0.708203 7:0.265902 8:0.409815 9:0.397597 10:0.45655 11:0.401335 12:0.237039 13:-0.856835 14:-0.341129 15:-0.703246 16:-0.0764325 17:-0.677691 18:-0.182516 19:-0.615256 20:0.599702 21:-0.294662 22:0.459358 23:-0.0964305 24:0.305653 25:-0.0879505 26:0.40074 27:0.433779 28:0.0742445 29:0.499005 30:-0.175742 31:0.629357 32:0.301964 33:-0.0546383 34:-0.360799 35:-0.751166 36:-0.448127 37:0.0189498 38:-0.749294 39:0.50073 40:0.178688 41:0.00751443 
0.7567299074937258 1:-0.826591 2:-0.516032 3:-0.166808 4:0.338565 5:0.219868 6:-0.652864 7:0.882727 8:0.415915 9:-0.168167 10:0.0993868 11:-0.221592 12:-0.0494184 13:-0.761384 14:-0.478947 15:-0.711545 16:-0.247781 17:-0.709802 18:-0.195127 19:-0.626878 20:0.667253 21:-0.647121 22:0.618787 23:-0.353946 24:0.610505 25:-0.298119 26:0.461149 27:-0.196903 28:0.316844 29:-0.202508 30:0.327423 31:0.00609328 32:0.798621 33:0.0220956 34:0.301315 35:-0.694007 36:0.040869 37:0.138191 38:-0.715993 39:-0.0649916 40:0.462911 41:0.106349 
0.307930027521901 1:-0.581109 2:-0.613654 3:-0.0876062 4:-0.437809 5:0.317405 6:-0.599217 7:0.421683 8:0.506031 9:-0.309912 10:0.65175 11:-0.309802 12:-0.108234 13:-0.654634 14:-0.764976 15:-0.601966 16:-0.659734 17:-0.458344 18:-0.605379 19:0.0978597 20:-0.488119 21:0.16627 22:-0.46782 23:0.0517185 24:-0.189462 25:-0.132885 26:0.240901 27:-0.0973039 28:0.218045 29:-0.122473 30:0.266527 31:0.492748 32:0.315143 33:-0.802224 34:0.259264 35:-0.634914 36:-0.382577 37:0.281245 38:-0.684754 39:0.0690291 40:0.296431 41:0.254568 
0.07193288539176376 1:-0.698245 2:-0.545658 3:-0.319551 4:-0.237959 5:-0.344704 6:-0.652352 7:0.573655 8:0.456868 9:0.191396 10:0.473045 11:0.504397 12:-0.0907499 13:-0.767507 14:-0.35834 15:-0.756826 16:-0.142977 17:-0.58333 18:-0.257464 19:-0.0915068 20:0.135152 21:-0.241705 22:-0.0342785 23:-0.122717 24:-0.0393308 25:-0.110003 26:0.206146 27:-0.0661208 28:0.111778 29:-0.0708449 30:0.277449 31:0.264716 32:0.154748 33:-0.281563 34:-0.408362 35:-0.698574 36:-0.519277 37:0.0112447 38:-0.71022 39:-0.107927 40:0.0203487 41:0.186096 
0.196061800948721 1:-0.586458 2:-0.211176 3:-0.378329 4:-0.623867 5:-0.23201 6:-0.682526 7:0.284212 8:0.00743419 9:0.341614 10:0.721458 11:0.373339 12:-0.0450918 13:-0.685162 14:-0.864943 15:-0.605821 16:-0.593135 17:-0.0173303 18:-0.508851 19:-0.0481036 20:-0.375176 21:0.10155 22:-0.25561 23:-0.0936489 24:-0.135091 25:-0.054898 26:-0.572621 27:-0.00358839 28:-0.506781 29:-0.15773 30:-0.574453 31:-0.0168847 32:-0.389444 33:-0.636064 34:-0.234574 35:-0.728382 36:-0.766594 37:0.00902376 38:-0.727985 39:-0.156032 40:-0.24751 41:-0.141341 
0.2095138525488602 1:-0.655891 2:-0.466176 3:-0.372958 4:0.0445494 5:-0.557653 6:-0.699048 7:0.498035 8:0.348584 9:0.310035 10:0.278267 11:0.757908 12:0.0929463 13:-0.788373 14:-0.214448 15:-0.774782 16:0.0561278 17:-0.503035 18:0.300843 19:-0.463018 20:0.407739 21:-0.306778 22:0.29058 23:-0.0822502 24:-0.198892 25:-0.241653 26:-0.293453 27:0.256373 28:-0.363984 29:0.489172 30:-0.263078 31:0.150961 32:0.128296 33:0.0932258 34:-0.569367 35:-0.747068 36:-0.436675 37:-0.113768 38:-0.737768 39:-0.0901578 40:0.234831 41:-0.105288 
0.180404892306644 1:-0.557256 2:-0.508486 3:-0.120212 4:-0.57958 5:0.241269 6:-0.648035 7:0.318631 8:0.399701 9:-0.267054 10:0.742036 11:-0.241565 12:-0.0486472 13:-0.585963 14:-0.679566 15:-0.491554 16:-0.639747 17:-0.420374 18:-0.663364 19:0.187915 20:-0.651596 21:0.113676 22:-0.590131 23:-0.0327087 24:-0.140025 25:-0.165139 26:-0.0954744 27:-0.0451921 28:-0.0290117 29:0.0446911 30:0.0541187 31:0.461081 32:0.0613541 33:-0.849974 34:0.21945 35:-0.663515 36:-0.548976 37:0.225781 38:-0.734786 39:0.270235 40:0.0529308 41:0.196685 
0.3958401916487026 1:-0.543212 2:-0.558177 3:-0.336587 4:-0.0673095 5:-0.454927 6:-0.745057 7:0.284765 8:0.471934 9:0.230429 10:0.394956 11:0.642414 12:0.261336 13:-0.783309 14:-0.466007 15:-0.741516 16:0.0258407 17:-0.689171 18:-0.132644 19:-0.408783 20:0.419742 21:-0.120033 22:0.481441 23:-0.0239451 24:0.231786 25:-0.058204 26:0.228427 27:0.370782 28:-0.271137 29:0.467999 30:-0.252556 31:0.463319 32:-0.332214 33:-0.012193 34:-0.393024 35:-0.803735 36:-0.509798 37:-0.130068 38:-0.75588 39:0.150077 40:0.277439 41:-0.274821 
0.1934172050546755 1:-0.655601 2:-0.186665 3:-0.189422 4:-0.479578 5:0.398413 6:-0.665016 7:0.454348 8:-0.0275484 9:-0.122031 10:0.637818 11:-0.470781 12:-0.0953196 13:-0.670855 14:-0.286909 15:-0.814987 16:-0.329582 17:-0.743055 18:-0.518907 19:-0.349723 20:-0.0983172 21:-0.316645 22:-0.186393 23:-0.148368 24:-0.292975 25:-0.0694671 26:-0.135599 27:0.0418136 28:-0.431192 29:0.193748 30:-0.159981 31:0.0201248 32:-0.0800744 33:-0.439 34:0.485461 35:-0.63294 36:-0.708753 37:0.234489 38:-0.780949 39:-0.189244 40:-0.0362235 41:0.159105 
0.4299210926588147 1:-0.643718 2:-0.760031 3:-0.0694992 4:-0.216565 5:0.000802221 6:-0.63079 7:0.506726 8:0.697142 9:-0.365281 10:0.486452 11:0.0509361 12:-0.0682646 13:-0.670471 14:-0.442309 15:-0.515636 16:-0.524004 17:-0.43666 18:-0.370923 19:0.00864291 20:-0.240994 21:0.00784216 22:-0.225526 23:0.0340402 24:0.226651 25:-0.401858 26:0.369296 27:-0.298976 28:0.522376 29:0.0219462 30:0.682726 31:0.370672 32:0.425802 33:-0.609971 34:-0.0322562 35:-0.649691 36:-0.234152 37:0.129965 38:-0.722313 39:0.0279648 40:0.184832 41:0.302134 
0.7676644586586255 1:-0.662477 2:-0.756994 3:-0.0864143 4:-0.136659 5:0.115508 6:-0.627842 7:0.556108 8:0.692515 9:-0.327901 10:0.448385 11:-0.0845003 12:-0.0653549 13:-0.629806 14:-0.626594 15:-0.511138 16:-0.340249 17:-0.509187 18:-0.374032 19:-0.00427826 20:-0.124436 21:0.055182 22:-0.159705 23:-0.0372149 24:0.479378 25:-0.319593 26:0.607022 27:-0.314236 28:0.580671 29:-0.282232 30:0.613926 31:0.396896 32:0.590825 33:-0.571983 34:0.0661255 35:-0.659527 36:-0.155386 37:0.189861 38:-0.707427 39:-0.0154109 40:0.361865 41:0.242565 
0.5987122115297285 1:-0.545648 2:-0.571648 3:-0.469064 4:-0.059427 5:-0.352364 6:-0.721516 7:0.297557 8:0.476178 9:0.515362 10:0.371263 11:0.483125 12:0.196531 13:-0.883172 14:-0.453404 15:-0.591123 16:0.0176563 17:-0.565266 18:0.442421 19:-1 20:-1 21:-0.226899 22:0.240357 23:-0.31446 24:0.334475 25:-0.312839 26:-0.115024 27:-0.443932 28:-0.681054 29:0.334326 30:0.0494291 31:-0.0640831 32:0.0119672 33:-0.02698 34:-0.357937 35:-0.780725 36:-0.493751 37:-0.0314414 38:-0.736664 39:0.0784302 40:0.177551 41:-0.269364 
0.3351458260871863 1:-0.66795 2:-0.263281 3:-0.342214 4:-0.522931 5:-0.349396 6:-0.628829 7:0.481125 8:0.0856278 9:0.242013 10:0.63982 11:0.503211 12:-0.185804 13:-0.696161 14:-0.59704 15:-0.562653 16:-0.498276 17:-0.543926 18:-0.635957 19:0.0692528 20:-0.72983 21:-0.0187587 22:-0.169192 23:-0.0396988 24:0.0796621 25:-0.170433 26:-0.0342176 27:-0.122523 28:0.0855276 29:-0.076745 30:-0.256478 31:0.144363 32:0.511479 33:-0.676201 34:-0.332004 35:-0.679434 36:-0.591024 37:-0.0509685 38:-0.690539 39:-0.149536 40:0.520957 41:0.156646 
0.2968528035339372 1:-0.585393 2:-0.577387 3:-0.202 4:-0.565521 5:0.386181 6:-0.749323 7:0.208438 8:0.544137 9:-0.103964 10:0.688385 11:-0.503754 12:0.110355 13:-0.74339 14:-0.878362 15:-0.618682 16:-0.314469 17:-0.131831 18:-0.152077 19:-0.0744254 20:-0.156223 21:0.0776482 22:-0.177411 23:0.10712 24:-0.405166 25:0.0262688 26:-0.387095 27:0.184416 28:-0.329507 29:0.427969 30:-0.477695 31:0.015964 32:-0.437667 33:-0.557843 34:0.280663 35:-0.807801 36:-0.75598 37:0.345414 38:-0.759019 39:-0.117508 40:-0.164915 41:-0.333264 
